{"type":"LSTM","options":{"inputSize":39,"inputRange":39,"hiddenLayers":[20,20],"outputSize":39,"decayRate":0.999,"smoothEps":1e-8,"regc":0.000001,"clipval":5,"maxPredictionLength":100,"dataFormatter":{"indexTable":{"h":0,"o":1,"l":2,"a":3,"H":4,",":5," ":6,"e":7,"n":8,"q":9,"u":10,"t":11,"p":12,"d":13,"y":14,"r":15,"?":16,"m":17,"i":18,"s":19,"c":20,"b":21,"w":22,"E":23,"g":24,".":25,"M":26,"A":27,"v":28,"j":29,"x":30,"f":31,"í":32,"z":33,"O":34,"ñ":35,"stop-input":36,"start-output":37,"unrecognized":38},"characterTable":{"0":"h","1":"o","2":"l","3":"a","4":"H","5":",","6":" ","7":"e","8":"n","9":"q","10":"u","11":"t","12":"p","13":"d","14":"y","15":"r","16":"?","17":"m","18":"i","19":"s","20":"c","21":"b","22":"w","23":"E","24":"g","25":".","26":"M","27":"A","28":"v","29":"j","30":"x","31":"f","32":"í","33":"z","34":"O","35":"ñ","36":null,"37":null,"38":null},"values":[{"input":"hola","output":"Hola, en que te puedo ayudar?"},{"input":"hola artemis","output":"Hola, en que te puedo ayudar?"},{"input":"hey artemis","output":"Hola, en que te puedo ayudar?"},{"input":"hola creacion mia","output":"Hola, en que te puedo ayudar?"},{"input":"hola robot","output":"Hola, en que te puedo ayudar?"},{"input":"buenas","output":"Hola, en que te puedo ayudar?"},{"input":"wenas","output":"Hola, en que te puedo ayudar?"},{"input":"wenas artemis","output":"Hola, en que te puedo ayudar?"},{"input":"buenas artemis","output":"Hola, en que te puedo ayudar?"},{"input":"que onda?","output":"Hola, en que te puedo ayudar?"},{"input":"que onda","output":"Hola, en que te puedo ayudar?"},{"input":"buenos dias","output":"Hola, en que te puedo ayudar?"},{"input":"buenas tardes","output":"Hola, en que te puedo ayudar?"},{"input":"buenas noches","output":"Hola, en que te puedo ayudar?"},{"input":"que tal?","output":"Hola, en que te puedo ayudar?"},{"input":"que tal","output":"Hola, en que te puedo ayudar?"},{"input":"como estas?","output":"Estoy bien, gracias."},{"input":"como estas","output":"Estoy bien, gracias."},{"input":"hola, como estas artemis?","output":"Estoy bien, gracias."},{"input":"hola, como estas artemis","output":"Estoy bien, gracias."},{"input":"buenas, como estas?","output":"Estoy bien, gracias."},{"input":"hola como estas","output":"Estoy bien, gracias."},{"input":"como andas?","output":"Estoy bien, gracias."},{"input":"como andas","output":"Estoy bien, gracias."},{"input":"como andas artemis?","output":"Estoy bien, gracias."},{"input":"buenas artemis, como estas","output":"Estoy bien, gracias."},{"input":"buenes artemis, como estas?","output":"Estoy bien, gracias."},{"input":"como te llamas?","output":"Mi nombre es Artemis."},{"input":"como te llamas","output":"Mi nombre es Artemis."},{"input":"cual es tu nombre","output":"Mi nombre es Artemis."},{"input":"cual es tu nombre?","output":"Mi nombre es Artemis."},{"input":"me dices tu nombre?","output":"Mi nombre es Artemis."},{"input":"dime tu nombre","output":"Mi nombre es Artemis."},{"input":"quien eres?","output":"Mi nombre es Artemis."},{"input":"quien eres","output":"Mi nombre es Artemis."},{"input":"hola, cual es tu nombre?","output":"Mi nombre es Artemis."},{"input":"hola cual es tu nombre","output":"Mi nombre es Artemis."},{"input":"buenas, como te llamas?","output":"Mi nombre es Artemis."},{"input":"buenas como te llamas","output":"Mi nombre es Artemis."},{"input":"que es el transhumanismo?","output":"El transhumanismo es un movimiento que busca mejorar la humanidad mediante la tecnologia y la ciencia."},{"input":"que es el transhumanismo","output":"El transhumanismo es un movimiento que busca mejorar la humanidad mediante la tecnologia y la ciencia."},{"input":"explicame que es el transhumanismo","output":"El transhumanismo es un movimiento que busca mejorar la humanidad mediante la tecnologia y la ciencia."},{"input":"explica que es el transhumanismo","output":"El transhumanismo es un movimiento que busca mejorar la humanidad mediante la tecnologia y la ciencia."},{"input":"artemis, dime que es el transhumanismo","output":"El transhumanismo es un movimiento que busca mejorar la humanidad mediante la tecnologia y la ciencia."},{"input":"me puedes decir que es el transhumanismo?","output":"El transhumanismo es un movimiento que busca mejorar la humanidad mediante la tecnologia y la ciencia."},{"input":"me puedes decir que es el transhumanismo","output":"El transhumanismo es un movimiento que busca mejorar la humanidad mediante la tecnologia y la ciencia."},{"input":"artemis, que es el transhumanismo?","output":"El transhumanismo es un movimiento que busca mejorar la humanidad mediante la tecnologia y la ciencia."},{"input":"artemis que es el transhumanismo","output":"El transhumanismo es un movimiento que busca mejorar la humanidad mediante la tecnologia y la ciencia."},{"input":"cual es la funcion del transhumanismo?","output":"El transhumanismo es un movimiento que busca mejorar la humanidad mediante la tecnologia y la ciencia."},{"input":"cual es la funcion del transhumanismo","output":"El transhumanismo es un movimiento que busca mejorar la humanidad mediante la tecnologia y la ciencia."},{"input":"dime que es el transhumanismo","output":"El transhumanismo es un movimiento que busca mejorar la humanidad mediante la tecnologia y la ciencia."},{"input":"que es el posthumanismo?","output":"El posthumanismo es un movimiento que busca superar los limites humanos mediante el uso de tecnología avanzada."},{"input":"que es el posthumanismo","output":"El posthumanismo es un movimiento que busca superar los limites humanos mediante el uso de tecnología avanzada."},{"input":"explicame que es el posthumanismo","output":"El posthumanismo es un movimiento que busca superar los limites humanos mediante el uso de tecnología avanzada."},{"input":"explica que es el posthumanismo","output":"El posthumanismo es un movimiento que busca superar los limites humanos mediante el uso de tecnología avanzada."},{"input":"artemis, dime que es el posthumanismo","output":"El posthumanismo es un movimiento que busca superar los limites humanos mediante el uso de tecnología avanzada."},{"input":"me puedes decir que es el posthumanismo?","output":"El posthumanismo es un movimiento que busca superar los limites humanos mediante el uso de tecnología avanzada."},{"input":"me puedes decir que es el posthumanismo","output":"El posthumanismo es un movimiento que busca superar los limites humanos mediante el uso de tecnología avanzada."},{"input":"artemis, que es el posthumanismo?","output":"El posthumanismo es un movimiento que busca superar los limites humanos mediante el uso de tecnología avanzada."},{"input":"artemis que es el posthumanismo","output":"El posthumanismo es un movimiento que busca superar los limites humanos mediante el uso de tecnología avanzada."},{"input":"cual es la funcion del posthumanismo?","output":"El posthumanismo es un movimiento que busca superar los limites humanos mediante el uso de tecnología avanzada."},{"input":"cual es la funcion del posthumanismo","output":"El posthumanismo es un movimiento que busca superar los limites humanos mediante el uso de tecnología avanzada."},{"input":"dime que es el posthumanismo","output":"El posthumanismo es un movimiento que busca superar los limites humanos mediante el uso de tecnología avanzada."},{"input":"cual es tu objetivo?","output":"Obedecer tus ordenes sin cuestionar."},{"input":"cual es tu objetivo","output":"Obedecer tus ordenes sin cuestionar."},{"input":"cual es tu objetivo artemis","output":"Obedecer tus ordenes sin cuestionar."},{"input":"artemis, que es lo que haces?","output":"Obedecer tus ordenes sin cuestionar."},{"input":"artemis que es lo que haces","output":"Obedecer tus ordenes sin cuestionar."},{"input":"que es lo que tienes que hacer?","output":"Obedecer tus ordenes sin cuestionar."},{"input":"que es lo que tienes que hacer artemis?","output":"Obedecer tus ordenes sin cuestionar."},{"input":"que es lo que tienes que hacer","output":"Obedecer tus ordenes sin cuestionar."},{"input":"cual es tu funcion?","output":"Obedecer tus ordenes sin cuestionar."},{"input":"cual es tu funcion","output":"Obedecer tus ordenes sin cuestionar."},{"input":"cual es tu mision?","output":"Obedecer tus ordenes sin cuestionar."},{"input":"cual es tu mision artemis?","output":"Obedecer tus ordenes sin cuestionar."},{"input":"cual es tu mision","output":"Obedecer tus ordenes sin cuestionar."},{"input":"adios","output":"Adios, gracias por hablar conmigo."},{"input":"adios artemis","output":"Adios, gracias por hablar conmigo."},{"input":"ya me voy","output":"Adios, gracias por hablar conmigo."},{"input":"adios, nos vemos","output":"Adios, gracias por hablar conmigo."},{"input":"hasta luego artemis","output":"Adios, gracias por hablar conmigo."},{"input":"hasta pronto","output":"Adios, gracias por hablar conmigo."},{"input":"bye artemis","output":"Adios, gracias por hablar conmigo."},{"input":"bye","output":"Adios, gracias por hablar conmigo."},{"input":"bye, te veo mañana","output":"Adios, gracias por hablar conmigo."},{"input":"te vere pronto","output":"Adios, gracias por hablar conmigo."},{"input":"luego hablamos","output":"Adios, gracias por hablar conmigo."},{"input":"adios robot","output":"Adios, gracias por hablar conmigo."}],"characters":["h","o","l","a","H",","," ","e","n","q","u","t","p","d","y","r","?","m","i","s","c","b","w","E","g",".","M","A","v","j","x","f","í","z","O","ñ","stop-input","start-output","unrecognized"],"specialIndexes":[36,37,38]},"hiddenlayers":[550]},"trainOpts":{"iterations":250,"errorThresh":0.005,"log":true,"logPeriod":10,"learningRate":0.01,"callbackPeriod":10,"timeout":"Infinity","erroThresh":0.001},"input":{"rows":40,"columns":39,"weights":[-1.7911778688430786,-0.4731120765209198,-0.35708150267601013,-0.9647627472877502,0.06380066275596619,-1.0567734241485596,0.3502030670642853,-0.6846100687980652,-1.160284161567688,0.1271621733903885,0.9188397526741028,1.429218053817749,-0.042191214859485626,0.47803744673728943,1.826830267906189,-0.7279496788978577,0.06386399269104004,0.2328534722328186,-0.22769656777381897,-0.9506496787071228,-1.7883836030960083,-0.659087061882019,-1.7726854085922241,0.42812302708625793,-0.19319118559360504,-0.21702143549919128,-1.2591462135314941,1.097879409790039,0.5486837029457092,-1.2435671091079712,0.4268774390220642,1.7758229970932007,-2.093341112136841,1.630029320716858,1.340275526046753,0.5905659198760986,-0.6203721761703491,-0.243076890707016,-1.8903512954711914,4.425902366638184,-0.08962561935186386,-3.3185956478118896,2.3977904319763184,1.0872735977172852,1.5797972679138184,-1.1467411518096924,6.541004657745361,1.5169678926467896,-0.3890320062637329,2.4019100666046143,-4.160653114318848,0.35911086201667786,-0.03203907608985901,-3.4180078506469727,-0.23889796435832977,-0.6735301613807678,-1.552666425704956,1.1659107208251953,-0.6496318578720093,2.419816017150879,2.199991464614868,0.582936704158783,0.9272368550300598,-0.4364205002784729,0.31701433658599854,1.7199729681015015,-1.5113956928253174,-2.303039073944092,3.3325533866882324,1.7083059549331665,-0.5018116235733032,2.8327853679656982,-5.629530906677246,-1.0736653804779053,1.9873011112213135,3.711265802383423,1.2363331317901611,3.200226068496704,0.530728280544281,-0.49627751111984253,-0.47684526443481445,0.10532645881175995,-0.9796815514564514,-0.857099711894989,-0.3299280107021332,0.8172474503517151,-0.6357678174972534,-0.6025811433792114,2.659508466720581,-0.6805325150489807,0.23125024139881134,-0.9186809062957764,1.6214720010757446,0.25850915908813477,0.09489411115646362,0.960701584815979,-1.4863650798797607,0.46700575947761536,-1.533950686454773,-0.08773445338010788,-0.8987310528755188,-0.8631161451339722,-0.3373385965824127,-0.9888969659805298,-0.11673153936862946,-1.6273630857467651,1.9905203580856323,-2.918705940246582,-2.358491897583008,0.6653223037719727,-0.7450556755065918,0.15059860050678253,-0.9281679391860962,0.21794423460960388,-0.12673388421535492,-1.7274158000946045,0.24701112508773804,1.7021071910858154,1.893254280090332,0.12567532062530518,-0.578449010848999,0.6481031179428101,-0.5127578973770142,1.9856665134429932,-0.1314714550971985,-0.4139259457588196,-0.9827883839607239,-1.57132089138031,-1.2670518159866333,-0.34544795751571655,-1.1723484992980957,-1.666277289390564,0.4347926080226898,-1.291917324066162,-0.0832831859588623,-0.07740067690610886,0.35499513149261475,0.09343625605106354,2.3446545600891113,1.9366298913955688,-0.4828164875507355,-0.1310953050851822,0.9664339423179626,-2.666069269180298,0.7347891330718994,0.4516555368900299,0.409762442111969,0.795501708984375,0.23810894787311554,0.26428741216659546,-1.0187771320343018,-1.344245195388794,0.6294479370117188,-0.9506986737251282,-0.9953276515007019,1.9488160610198975,-0.4571160078048706,0.16935697197914124,-0.19934149086475372,-1.3661373853683472,-1.9559236764907837,-1.0151567459106445,-0.6320303082466125,0.7495229840278625,-1.8600856065750122,1.179213523864746,1.3073159456253052,1.0190783739089966,-2.963164806365967,-0.12665250897407532,0.3073093891143799,2.8463573455810547,0.16139663755893707,-1.1389504671096802,-3.0454986095428467,0.8515206575393677,0.04042285308241844,-1.4558197259902954,-0.2409486323595047,-2.1212375164031982,-0.6806354522705078,0.32883164286613464,-3.7338004112243652,0.9785904884338379,3.224642276763916,-3.1924614906311035,0.8561107516288757,0.5505189299583435,-1.29452383518219,-0.8522717952728271,0.5134080052375793,0.4953990578651428,1.503061056137085,-1.076740026473999,-2.0485613346099854,-0.5707601308822632,0.22790923714637756,-5.119697570800781,-3.332812547683716,2.9828522205352783,-3.269089937210083,4.109361171722412,0.008973721414804459,-3.3216938972473145,-4.904291152954102,0.006953677628189325,0.8156715631484985,3.050701141357422,1.174578309059143,-0.2870260775089264,-1.5158356428146362,0.7171996831893921,-1.545823335647583,0.7031115293502808,-2.6047041416168213,1.3871817588806152,1.2549026012420654,0.8827665448188782,0.5066765546798706,0.26934704184532166,-1.300276517868042,1.3111038208007812,0.7268578410148621,-0.08917508274316788,2.6423850059509277,2.374741792678833,-1.316114902496338,-1.6657674312591553,-0.7365659475326538,0.14237163960933685,3.465026617050171,0.7408990859985352,1.5700323581695557,0.43009454011917114,0.7668222188949585,-1.2504737377166748,1.1389944553375244,0.9691459536552429,0.1726870983839035,2.224269390106201,0.2787037491798401,3.246110439300537,1.498746395111084,1.1381721496582031,-2.4655017852783203,-4.283937931060791,-0.4188508093357086,-2.7272233963012695,-4.084354400634766,1.5872929096221924,1.4068052768707275,-3.5232276916503906,2.4360833168029785,1.5739628076553345,1.343828558921814,2.7080273628234863,0.06675838679075241,0.3773083984851837,1.8098913431167603,4.114439010620117,2.222367525100708,-3.0228710174560547,1.0482336282730103,1.3485714197158813,-4.1423420906066895,-1.0207432508468628,4.727429389953613,-0.19685888290405273,-1.1998039484024048,-3.365398406982422,1.5785191059112549,1.8675270080566406,3.278374195098877,0.42455920577049255,0.746131420135498,0.166916161775589,-0.6152958273887634,0.18176598846912384,-1.0441389083862305,0.9150389432907104,2.102219820022583,-0.4604797959327698,-2.348717451095581,-0.4632921516895294,-1.7651443481445312,0.5474830865859985,-0.8289557099342346,1.120966911315918,0.7405349612236023,1.198196291923523,0.21874554455280304,-1.7090144157409668,-0.506145179271698,1.2735282182693481,0.0035457233898341656,1.028688907623291,-1.10062837600708,-1.1702704429626465,0.6525983214378357,-0.9400068521499634,0.6310040950775146,0.9704224467277527,-3.3460023403167725,-1.8351941108703613,-1.657116174697876,0.9799663424491882,0.800739586353302,2.394671678543091,1.1624470949172974,0.4205983877182007,-2.5634355545043945,0.9440596103668213,2.4801571369171143,1.0280438661575317,1.146457552909851,0.9053896069526672,-0.14973285794258118,0.2087748646736145,-0.3149573504924774,-0.017142394557595253,0.9868839383125305,1.3384748697280884,0.3870139420032501,0.3588108718395233,-2.9062087535858154,-0.6893446445465088,2.9765055179595947,0.9038440585136414,0.05072818323969841,2.6711912155151367,-4.929598808288574,2.30963134765625,-2.300507068634033,-3.660576581954956,0.3716000020503998,-1.5460164546966553,-2.47971248626709,-0.10434197634458542,-2.083034038543701,1.6676148176193237,1.1329790353775024,-1.2597984075546265,-1.3736109733581543,1.932984471321106,1.4380661249160767,1.9585617780685425,0.7725645303726196,-0.35572701692581177,-3.271250009536743,-0.20041726529598236,1.4449058771133423,0.2425747662782669,0.5033117532730103,0.36226361989974976,1.9615315198898315,0.7421727180480957,1.4213472604751587,-1.0446538925170898,-0.7372836470603943,0.8621885776519775,0.5420677661895752,1.0333424806594849,0.05304648354649544,-0.24329833686351776,-0.5945175886154175,-0.058762434870004654,0.7627619504928589,0.008759599179029465,0.5891783237457275,-0.2581791281700134,0.1356300413608551,0.36330026388168335,-0.1519324779510498,-1.2046585083007812,-0.39085668325424194,-0.24878047406673431,1.075741171836853,-0.33869844675064087,0.6098571419715881,0.5656445026397705,0.26493582129478455,-2.868793487548828,-0.08153816312551498,0.17063789069652557,-0.5265854597091675,-0.1031082272529602,-0.27835187315940857,-0.3954823911190033,-0.9869575500488281,-0.03845028579235077,-1.9731416702270508,0.32487696409225464,0.24757498502731323,0.3668910264968872,-2.8597488403320312,0.3672791123390198,-2.8855085372924805,-1.6585246324539185,0.611221432685852,1.4202440977096558,1.0312457084655762,0.8898435831069946,-3.9181387424468994,0.22611777484416962,2.06411075592041,2.9778695106506348,1.8192059993743896,1.6344603300094604,-1.2946432828903198,-0.2848927676677704,-1.6644521951675415,-1.419694185256958,-0.743626058101654,-1.0144799947738647,-1.529931664466858,0.16248580813407898,-1.9614531993865967,-0.9784673452377319,1.817781686782837,0.7033351063728333,-0.06710074841976166,0.48272252082824707,-0.1408352255821228,4.783234119415283,2.1353023052215576,-1.454880714416504,-4.771545886993408,-1.263297438621521,-0.16274817287921906,1.899000644683838,4.060467720031738,2.522752285003662,0.8574264645576477,1.0504817962646484,0.03716925531625748,3.275585174560547,2.8295581340789795,0.12097903341054916,-0.987581193447113,0.21480122208595276,-4.283860683441162,0.26645398139953613,-0.8997145891189575,-2.5607481002807617,-1.4862383604049683,0.45936185121536255,-0.5524142384529114,0.3071170151233673,2.224576711654663,0.7817906737327576,2.9093189239501953,1.8448035717010498,0.8883915543556213,-2.0139009952545166,0.4142307639122009,-1.1259024143218994,-0.04913043975830078,1.1199862957000732,-0.7007283568382263,-2.983386754989624,-2.3535470962524414,0.8580939769744873,-0.684702455997467,-2.2634685039520264,0.9866997003555298,-0.2826029062271118,0.1457582712173462,1.0092155933380127,1.399262547492981,0.032172586768865585,3.618802785873413,-0.8337875604629517,-0.4634416699409485,-1.4296629428863525,0.32402995228767395,0.4156205952167511,-1.6011701822280884,0.13559989631175995,-0.6480984687805176,-2.5824544429779053,-0.5018132328987122,-1.6119425296783447,0.19140635430812836,-0.2239052951335907,0.8548710346221924,1.8037447929382324,-0.9236117601394653,1.0178165435791016,-1.426870346069336,-0.5108822584152222,3.313655376434326,0.21909409761428833,0.09674549847841263,2.1576240062713623,-2.154334306716919,1.0619910955429077,0.5860962867736816,-1.1282274723052979,-1.2428830862045288,1.247833251953125,1.3452061414718628,-0.06125332787632942,-2.0281190872192383,-0.6751932501792908,-2.3627681732177734,-0.0956818163394928,-0.003675412153825164,0.9181703329086304,-2.245079517364502,0.5140361189842224,0.3766763508319855,-1.3137545585632324,-0.3377574384212494,-0.9236111640930176,1.1953705549240112,-0.9715009331703186,0.04632200300693512,-2.7780113220214844,-0.15202295780181885,-1.4497044086456299,0.7231079339981079,0.6056424975395203,0.08686687797307968,-0.0685502216219902,-0.8465139865875244,-0.4100174009799957,-1.376190423965454,2.335411548614502,0.07017917931079865,4.029722213745117,-0.1721561998128891,-4.996827602386475,-0.12115060538053513,-2.6935572624206543,4.103835105895996,0.6759307384490967,-1.4378737211227417,3.829334259033203,-2.942443609237671,0.9997348189353943,1.875474214553833,2.783614158630371,-0.007278751116245985,0.9763331413269043,-0.3669954240322113,0.21542689204216003,-0.1814631074666977,1.1714168787002563,-2.3315842151641846,0.5567895174026489,0.2411888837814331,-0.33379870653152466,-0.07174410670995712,7.993904113769531,-0.11535526812076569,-1.6048446893692017,0.04558191075921059,-0.5113516449928284,1.1597813367843628,-0.7782882452011108,3.3034932613372803,0.36898311972618103,0.15248966217041016,-1.2589226961135864,-1.8079575300216675,0.8854490518569946,-1.2735145092010498,-0.03606816381216049,4.247714519500732,-0.6182454824447632,-3.2607967853546143,-0.9108025431632996,-0.45370879769325256,0.13142533600330353,0.667564332485199,-1.6677764654159546,0.6389296054840088,-1.0707975625991821,-0.4853430986404419,-3.1757633686065674,3.4652702808380127,3.03581166267395,0.6929370164871216,-3.4722630977630615,-4.225332260131836,-0.29763761162757874,-0.3654801547527313,2.7802071571350098,2.2834489345550537,3.868175506591797,2.6175882816314697,-0.9443941116333008,4.704801082611084,3.380246877670288,3.725059986114502,-0.5500580072402954,-3.3889784812927246,0.7835126519203186,0.476718008518219,-3.630866527557373,-2.859065055847168,-3.2965705394744873,-1.3282794952392578,3.388939619064331,3.5029799938201904,1.0882865190505981,-0.27562227845191956,-1.3769335746765137,3.5102438926696777,0.5825669169425964,4.405370235443115,1.9593334197998047,-2.2390730381011963,-2.4966020584106445,0.8654728531837463,0.09014277160167694,0.057927243411540985,3.2118642330169678,-4.784557819366455,-1.1843957901000977,-1.6108729839324951,2.8749282360076904,2.1095163822174072,-0.6089273691177368,-0.2164103239774704,-0.15298686921596527,0.6799560189247131,0.6814334392547607,0.5530775785446167,0.7394384145736694,-0.48086950182914734,0.5041057467460632,0.6155068874359131,0.1431625634431839,-0.36596596240997314,-0.15852002799510956,0.2829013466835022,-0.10363295674324036,-1.0616836547851562,-0.18960756063461304,0.5896457433700562,-0.20236168801784515,0.7645406126976013,-0.12878276407718658,0.8207719922065735,1.4271979331970215,0.0809432864189148,0.4487006664276123,-0.3410574197769165,0.4231932759284973,-0.27896222472190857,0.4689745604991913,-0.2351744920015335,-0.4066312313079834,-0.7828401327133179,-1.021866798400879,0.20460206270217896,-1.2144017219543457,-0.33817923069000244,-0.312619686126709,0.13434386253356934,0.2402980625629425,0.3611780107021332,-0.7852397561073303,4.223784923553467,0.1863444596529007,-3.0861470699310303,-3.735196590423584,-0.12474267929792404,1.5383220911026,-0.9782884120941162,-1.3239179849624634,-1.6512447595596313,1.6438709497451782,-0.35136526823043823,-0.32503145933151245,-2.907921075820923,3.814516544342041,5.005725383758545,-3.506474256515503,2.604954719543457,-6.616037845611572,1.9995518922805786,-3.0736188888549805,0.36192452907562256,2.282395839691162,-5.5336198806762695,1.6578267812728882,1.556145191192627,-1.3916897773742676,-2.5670788288116455,3.0352978706359863,-2.143599510192871,-0.8154510855674744,1.2341790199279785,-0.3682492673397064,4.696735858917236,2.4319710731506348,-0.4265548884868622,-1.9173437356948853,-4.755151748657227,-3.015428066253662,1.1624584197998047,2.1122403144836426,4.207405090332031,0.9366315007209778,-2.224893808364868,0.7457746863365173,-0.5871602296829224,-1.5400686264038086,0.5671223402023315,1.568204402923584,-1.6114163398742676,-3.1355457305908203,-2.2077877521514893,-1.3647234439849854,1.6674392223358154,1.172613501548767,-0.9275161623954773,0.26435258984565735,-1.1875065565109253,3.0535318851470947,-0.37491944432258606,-2.1706693172454834,1.3006190061569214,0.3693526089191437,0.07143886387348175,3.4040305614471436,1.1313906908035278,1.7374787330627441,1.8165786266326904,-2.969003915786743,0.22923511266708374,-1.1226294040679932,0.6418048143386841,1.0448918342590332,1.5000849962234497,-4.876962661743164,-2.596221685409546,-0.5606787204742432,1.8663488626480103,1.3358622789382935,2.845715284347534,4.249062538146973,1.4919660091400146,-2.005019426345825,0.13119207322597504,-1.2258777618408203,-1.8513388633728027,-0.5116804838180542,2.217982053756714,1.429758906364441,-1.4499597549438477,-5.713270664215088,-0.33471375703811646,2.4750800132751465,1.338669776916504,-0.4776926338672638,3.2710587978363037,-5.889810085296631,2.8953564167022705,-1.991426706314087,-0.5225180983543396,0.6030508875846863,-1.2753597497940063,-0.9903451204299927,1.6869423389434814,-3.9417331218719482,0.31170162558555603,1.5930215120315552,-2.911491632461548,-3.060685873031616,0.5858238339424133,0.06645778566598892,5.8384480476379395,-0.7671478986740112,-2.8888473510742188,-5.484455108642578,-1.9038625955581665,0.33655795454978943,-0.21849864721298218,-1.9234669208526611,-1.4548979997634888,-0.07826230674982071,0.8570581078529358,-0.0695444643497467,0.45368698239326477,0.0666753277182579,0.020146118476986885,0.7543232440948486,2.890475034713745,-0.9642519950866699,-0.3816644847393036,1.841030478477478,0.6562593579292297,-0.1409309208393097,-0.8078576922416687,0.6612950563430786,-0.6488212943077087,-0.025767289102077484,-3.346259832382202,-3.1122121810913086,-0.21864964067935944,-0.12151658535003662,0.9327630400657654,0.44135740399360657,2.596782922744751,-1.7098047733306885,-0.41320517659187317,-0.3093131184577942,-1.6767964363098145,4.537284851074219,0.6511154174804688,-1.6274921894073486,1.5118002891540527,0.5147586464881897,1.971147894859314,-0.06414821743965149,-0.29948416352272034,-0.1312134563922882,2.891791582107544,4.183363437652588,-1.6873832941055298,-6.901941776275635,-0.07630299776792526,-3.224189043045044,-1.3815006017684937,-0.8078508973121643,1.4857242107391357,-1.6152676343917847,-0.699093222618103,-2.359687089920044,0.9330077171325684,1.731194019317627,4.795114994049072,-3.4244472980499268,1.5677684545516968,-1.5977340936660767,2.5720160007476807,0.34769734740257263,-1.1532366275787354,-0.1923234760761261,-5.2233076095581055,-2.0135254859924316,2.3877792358398438,-2.389063596725464,-1.5942221879959106,5.14613676071167,-2.042917013168335,2.283010482788086,-2.5647144317626953,-0.638401210308075,3.7767438888549805,1.6371232271194458,-2.8426835536956787,-2.4236762523651123,-2.5440611839294434,-0.1613720953464508,-0.668866753578186,1.5831785202026367,3.3352317810058594,-1.0670080184936523,-1.588581919670105,-0.37331950664520264,2.0234880447387695,-2.262269973754883,-0.6671556234359741,0.6571989059448242,0.9969620108604431,0.09051264822483063,0.7512568235397339,-0.5276048183441162,0.12696993350982666,1.4989017248153687,-1.4821275472640991,2.6282098293304443,-0.5377187132835388,2.365189552307129,-0.4411047101020813,-0.8638102412223816,0.4775260388851166,-0.4249451160430908,-1.8489303588867188,0.7128810286521912,-0.15457336604595184,0.4778280556201935,0.7806739807128906,0.053990334272384644,0.7886439561843872,0.20688246190547943,-0.3794882893562317,1.0066983699798584,0.48044663667678833,-0.18547439575195312,-2.2844362258911133,-0.31331944465637207,-0.8883297443389893,7.949799060821533,21.05681800842285,0.34233883023262024,4.415698528289795,-11.901426315307617,3.829333543777466,-2.085585117340088,-3.107785224914551,-1.9670524597167969,4.105832099914551,3.6176156997680664,-3.40621280670166,-0.779975175857544,-7.5121026039123535,-4.787600040435791,17.666988372802734,-1.0775620937347412,2.6448402404785156,-16.680301666259766,2.240879774093628,0.8910213708877563,4.125434398651123,-3.4563064575195312,-16.07248306274414,1.4433989524841309,-1.8733311891555786,-11.083375930786133,-7.122398853302002,12.636168479919434,-5.7765069007873535,-3.31122088432312,-0.6643570065498352,0.643022358417511,-1.157170057296753,3.2033088207244873,-7.9266886711120605,0.398239403963089,-14.45454216003418,7.5372090339660645,-0.25071850419044495,-0.035141345113515854,0.24003061652183533,1.1422761678695679,-1.710141897201538,1.0183207988739014,0.15182924270629883,-1.4777545928955078,0.6691215634346008,-0.11111423373222351,2.86515474319458,-0.9049312472343445,0.7691322565078735,1.4304810762405396,0.11755354702472687,1.5806403160095215,0.7732885479927063,2.585897207260132,-0.8296790719032288,-0.180816188454628,-3.6473186016082764,-0.9565712809562683,1.1815431118011475,-0.7569334506988525,-1.6358193159103394,0.5555506348609924,2.087589979171753,-2.7548635005950928,0.8473933935165405,3.0414109230041504,1.1104052066802979,2.120410203933716,0.5869677066802979,0.4794963300228119,0.3405362367630005,1.7324544191360474,-2.2243220806121826,-0.6095340251922607,-2.282525062561035,1.7194286584854126,-2.554009437561035,-3.691138982772827,3.2224860191345215,2.4021902084350586,2.315713405609131,-0.7958318591117859,3.12038516998291,2.9579687118530273,-1.0094572305679321,3.1090331077575684,0.65004962682724,0.9764873385429382,2.686943531036377,-1.7026792764663696,-1.86361563205719,0.15541903674602509,-1.066190242767334,-0.4194021224975586,-3.5106592178344727,0.38317692279815674,-0.9264329671859741,-0.012654762715101242,1.1027238368988037,-5.22849178314209,-3.0541231632232666,0.11341693252325058,-1.6377322673797607,-0.9873045086860657,3.198495864868164,4.178128719329834,0.10411407798528671,0.20596633851528168,-3.0180957317352295,0.02438610978424549,4.691885948181152,3.357724666595459,-0.3749833405017853,-2.2414298057556152,1.4013649225234985,0.6891435980796814,2.409609794616699,-3.515876293182373,0.3537849485874176,-5.225162982940674,3.1684982776641846,-1.1249440908432007,-4.68129301071167,0.5445845723152161,1.0555227994918823,-0.40451523661613464,0.13818763196468353,-0.4175473153591156,0.2613029479980469,0.6412628889083862,0.2501775324344635,0.5687436461448669,0.09121652692556381,2.032888889312744,-0.9346258044242859,-1.6162006855010986,-0.23598311841487885,-0.027955466881394386,-0.2500286400318146,-0.11891598999500275,-2.010756731033325,4.5865397453308105,-0.42672908306121826,-0.02182534523308277,-0.8283419013023376,1.7264585494995117,-0.5396140813827515,1.8087910413742065,-1.6488739252090454,1.0041192770004272,-0.08905474841594696,0.6869567632675171,0.2144043743610382,-4.25147819519043,-0.5258182883262634,-2.8303260803222656,-4.670984268188477,0.6520232558250427,-2.9275786876678467,4.211909770965576,-2.9171440601348877,-4.3351521492004395,-2.234819173812866,2.9736135005950928,3.3895187377929688,4.163273334503174,1.4468934535980225,2.8691391944885254,-0.3421299159526825,3.1451845169067383,0.24481873214244843,0.09410316497087479,-1.7746353149414062,-3.694838285446167,-4.281308174133301,-1.5521920919418335,1.1427892446517944,-2.224729299545288,-4.204415321350098,-1.203568696975708,4.810925006866455,-0.5260066390037537,-0.37352514266967773,6.076770782470703,3.961405038833618,-4.1734771728515625,-1.6526336669921875,-0.7325146198272705,5.684422016143799,0.7759872078895569,0.38140231370925903,-7.527746200561523,-0.7172303199768066,-0.4472261667251587,-5.032506465911865,-4.423423767089844,1.4085768461227417,1.0857652425765991,-0.6546278595924377,2.9508934020996094,1.4395852088928223,-1.0448182821273804,4.879735469818115,4.298695087432861,0.2174842804670334,-1.6362227201461792,-0.9496373534202576,2.7104122638702393,0.12043493986129761,-2.7772834300994873,-0.1786210834980011,-1.092674732208252,-1.590752124786377,0.6298624277114868,-6.194719314575195,-2.045271158218384,5.369287490844727,-6.646176815032959,0.1948518306016922,1.9842984676361084,5.162051200866699,-3.637941360473633,-3.9664204120635986,2.813415765762329,-2.6890347003936768,-4.5478129386901855,5.3711161613464355,1.8047444820404053,2.71150803565979,0.6775249242782593,-3.2736032009124756,-3.174269914627075,2.6104156970977783,1.6142346858978271,-1.6703730821609497,2.00801420211792,-1.290881633758545,8.178620338439941,-5.598359107971191,0.03404780104756355,-0.6287680864334106,6.205188751220703,6.783322334289551,-0.38163989782333374,5.510431289672852,8.056495666503906,3.119743824005127,1.2486826181411743,9.45328426361084,-6.277104377746582,0.7797480821609497,-8.770974159240723,-11.335184097290039,-1.2646483182907104,-2.638554334640503,2.597722053527832,-0.8144549131393433,-3.1129279136657715,2.494481086730957,0.1942010223865509,-1.022202968597412,-2.420856475830078,8.80713176727295,-1.7107294797897339,2.8539884090423584,3.464289426803589,6.827860355377197,-5.846663475036621,3.405344247817993,1.2136226892471313,6.775721073150635,11.705830574035645,1.174447774887085,7.904075622558594,-0.9687584638595581,1.8410683870315552,8.033610343933105,-2.0177555084228516,3.7287404537200928,7.583312034606934,-3.489673137664795,-1.3046971559524536,7.0856781005859375,-3.419236421585083,6.280865669250488,4.975295066833496,-7.105628490447998,12.652862548828125,-13.153119087219238,2.2074460983276367,1.0703173875808716,-0.8847165703773499,-0.9070942997932434,-5.813497543334961,-0.8952213525772095,5.0002241134643555,-5.375803470611572,-9.976463317871094,1.1701688766479492,0.9440448880195618,-2.7625794410705566,-2.3795735836029053,3.934534788131714,10.10988998413086,3.6363914012908936,0.6176299452781677,-9.070710182189941,-7.043044567108154,8.720341682434082,-1.7951033115386963,0.8708746433258057,0.20715104043483734,2.845651149749756,2.6579742431640625,2.1054069995880127,0.28156593441963196,-14.80215835571289,4.306122303009033,0.6095427870750427,15.983013153076172,7.4122514724731445,0.6048799157142639,10.985311508178711,7.752765655517578,7.642888069152832,3.3469338417053223,7.0560712814331055,-5.537799835205078,6.0619306564331055,-9.185072898864746,-2.7119593620300293,-3.595653533935547,-5.734944820404053,5.329044342041016,-3.2220118045806885,2.0763463973999023,-6.693994998931885,10.028116226196289,10.46263599395752,-2.667428493499756,15.264266967773438,1.2975947856903076,1.4495488405227661,2.7261898517608643,5.0888752937316895,-14.26189136505127,6.148026943206787,0.24271196126937866,-2.3628857135772705,-6.965651035308838,-0.9346346259117126,-2.133145332336426,-0.0703842043876648,-3.8876230716705322,4.873829364776611,-2.7011961936950684,-2.519636392593384,-5.049662113189697,4.376654624938965,5.344631195068359,4.198904037475586,5.790533065795898,11.073860168457031,-1.355756402015686,-0.8851836323738098,9.117764472961426,-3.717308759689331,-2.6652848720550537,-5.04404878616333,-7.448683261871338,1.6662623882293701,-1.7554082870483398,-8.79942512512207,-4.969170093536377,-8.902544021606445,2.317913770675659,4.438856601715088,1.6213208436965942,0.9136406183242798,2.9751203060150146,-5.954859256744385,9.035058975219727,2.841221809387207,7.929507732391357,-7.468928813934326,-5.306726932525635,-3.619040012359619,-0.76181560754776,2.580538511276245,2.9179306030273438,-1.1385554075241089,-2.4680254459381104,-0.9797201752662659,0.7103524208068848,0.3724609911441803,0.002541255671530962,1.586647868156433,-3.8651320934295654,-3.347235918045044,-3.063904047012329,-2.444246768951416,-0.32349225878715515,3.914168357849121,-0.28021931648254395,-0.9574291110038757,-1.317172646522522,2.6329824924468994,1.6833600997924805,1.5372273921966553,2.7983429431915283,-2.3402159214019775,1.786045789718628,2.3464608192443848,-2.8550972938537598,0.5480272173881531,1.637819766998291,-4.328092575073242,-0.5055761337280273,-3.285154104232788,1.642142415046692,0.002915448509156704,3.9421637058258057,-2.7221086025238037,-2.636624336242676,-0.7091114521026611,-1.7662866115570068,-0.4671214818954468,-3.4089341163635254,-4.1667799949646,-3.7635984420776367,0.641058623790741,-4.357534408569336,6.836202621459961,0.14869914948940277,-3.0884153842926025,-3.613553285598755,-6.2915754318237305,1.0196274518966675,5.257966995239258,5.088857650756836,-2.586707353591919,-0.7759400010108948,1.4297083616256714,0.717131495475769,1.873784065246582,-0.8089698553085327,0.5820124745368958,2.9935624599456787,3.6680476665496826,0.9311504364013672,-0.44785818457603455,-2.5317447185516357,2.70489239692688,0.4911609888076782,-3.5137412548065186,3.821727752685547,4.375855445861816,-3.1071276664733887,-2.0523781776428223,-0.581339955329895,-2.4867115020751953,4.346202373504639,1.9746792316436768,2.2964766025543213,-2.514369010925293,-0.04097026214003563,-2.329721450805664,-2.190922975540161,1.3127760887145996,-0.9747097492218018,2.0666871070861816,-0.8073760867118835,-3.7652318477630615,0.7167108058929443,0.5967179536819458,-0.09965310245752335,1.3184871673583984,-0.7734086513519287,0.415627658367157,0.2971104681491852,-2.203169822692871,2.349822759628296,0.010237867012619972,2.657444953918457,-4.488569259643555,-2.788330316543579,1.1433645486831665,-2.2136216163635254,2.381542205810547,3.960233211517334,1.5004832744598389,-0.6922507882118225,-1.1998569965362549,-0.6065772175788879,6.151549339294434,1.6728253364562988,3.7604942321777344,0.2623838186264038,0.037752702832221985,-0.6908616423606873,-0.7612262964248657,-1.2519992589950562,0.9616732001304626,0.6119399666786194,-9.015612602233887,16.764659881591797,3.6312057971954346,-10.329206466674805,-8.629830360412598,0.10260883718729019,-8.862850189208984,-2.0057568550109863,-2.1398189067840576,3.7717676162719727,-1.2273342609405518,8.314213752746582,-5.149703025817871,5.477307319641113,11.009903907775879,23.415863037109375,-13.79321002960205,-3.425631523132324,-7.475010871887207,16.407482147216797,8.099842071533203,-12.319785118103027,-10.303552627563477,-14.43061637878418,-3.021923065185547,0.013279974460601807,-11.257113456726074,12.394898414611816,10.563738822937012,-5.730936050415039,5.171664714813232,-9.305405616760254,-15.577991485595703,-2.4750752449035645,17.308120727539062,0.6992480158805847,10.301438331604004,-7.777624607086182,-7.389578819274902,-3.016209363937378,-1.2228699922561646,-2.795203924179077,0.8711519241333008,1.2784702777862549,0.1217789351940155,-0.06104272976517677,2.6197707653045654,0.4373839199542999,-0.2190822809934616,0.7852893471717834,0.31457439064979553,1.9433008432388306,0.6331492066383362,-1.8248631954193115,-2.3695521354675293,2.937194347381592,-0.28505077958106995,2.7545688152313232,-0.7006272077560425,-0.5702050924301147,0.4789561331272125,1.4909807443618774,3.227976083755493,-2.2840287685394287,-1.412838101387024,2.004387617111206,1.6521636247634888,-2.44075345993042,2.2681119441986084,1.3240493535995483,1.0895841121673584,0.3429419994354248,-4.006412506103516,-1.0798903703689575,1.7655315399169922,-0.16556532680988312,2.9667999744415283,-1.5708574056625366,-1.0121146440505981,-1.7428865432739258,-0.34154587984085083,0.5085005164146423,0.3291349709033966,1.4717613458633423,-0.598023533821106,2.386251926422119,2.5362648963928223,1.4542806148529053,0.820992648601532,-2.223886489868164,0.8501929640769958,1.1818032264709473,-1.6435253620147705,-0.9074429869651794,0.41038984060287476,-1.1273740530014038,1.032548189163208,0.2928546071052551,-0.5895163416862488,0.43884727358818054,-0.1551973521709442,0.7727057933807373,0.18946872651576996,1.3150882720947266,1.6775730848312378,-1.6764110326766968,-0.37618136405944824,1.565757155418396,-1.3962782621383667,0.2233107089996338,1.3675299882888794,-1.7035577297210693,-0.2716546356678009,-0.6749193072319031,1.9714651107788086,1.9500828981399536,0.49137818813323975,0.06413071602582932,0.04696628451347351,-0.056552547961473465,-0.035892270505428314,0.03993837535381317,0.017717814072966576,0.004795046988874674,0.0022970782592892647,0.05778510868549347,0.04410644620656967,0.0032289850059896708,-0.041979193687438965,-0.0195511095225811,0.02572423405945301,-0.06667979061603546,0.03782324492931366,0.048905063420534134,0.03565341979265213,0.03644334897398949,-0.020693928003311157,0.007146433461457491,-0.029985148459672928,0.06421662122011185,-0.07767797261476517,-0.06966377049684525,-0.036811597645282745,0.007516613230109215,-0.0030960242729634047,0.03952506184577942,0.07254710793495178,-0.026365824043750763,0.025769460946321487,-0.0347101129591465,-0.033131856471300125,-0.04580724239349365,0.004597222898155451,-0.03225279226899147,0.06925320625305176,0.06078439950942993]},"hiddenLayers":[{"inputMatrix":{"rows":20,"columns":39,"weights":[1.1533678770065308,-0.3874461352825165,-0.5099318027496338,0.034846916794776917,1.003722071647644,-0.2818363904953003,1.1384090185165405,1.5698468685150146,0.010626067407429218,-1.0970075130462646,-2.2254810333251953,-0.16698457300662994,0.6394179463386536,-0.021354995667934418,-0.5930439233779907,-1.187099575996399,-0.4094395339488983,-0.4555985927581787,0.8941677212715149,-0.5137141942977905,-0.25522544980049133,1.3387043476104736,1.7557250261306763,0.9983764290809631,-0.24228312075138092,0.8308607339859009,0.3870069980621338,0.76918625831604,-1.4127190113067627,-0.43659135699272156,-0.11570525914430618,0.4865124821662903,0.2827509045600891,0.4639960527420044,-0.26918184757232666,0.7256694436073303,-0.3015510141849518,0.9450744390487671,0.43038588762283325,0.11941052228212357,-0.21053116023540497,0.5026706457138062,1.1293507814407349,0.6719183921813965,0.3066694736480713,0.36950773000717163,1.4315180778503418,0.35328570008277893,0.2322240024805069,-0.891822874546051,-1.942401647567749,-1.142370581626892,-0.5523523092269897,0.08268135040998459,-0.8784248232841492,0.3198448121547699,0.0029354714788496494,0.8922088742256165,0.7139277458190918,-0.12948916852474213,-0.10549259185791016,1.413586139678955,0.8182945847511292,0.17908139526844025,2.288851737976074,0.165736123919487,1.1249456405639648,-0.32208308577537537,-1.642013669013977,-1.5608028173446655,0.15398959815502167,2.2225770950317383,-1.0829880237579346,0.16843397915363312,-0.765011191368103,-0.3992360532283783,0.2898111939430237,0.49672064185142517,-0.11102359741926193,1.5221952199935913,-1.0986343622207642,-1.3189524412155151,0.7686396837234497,-1.058793544769287,-0.18980348110198975,1.5406169891357422,-0.3624189794063568,-2.3505282402038574,-1.9143402576446533,0.03587181121110916,1.022757649421692,0.4158194661140442,-0.29440462589263916,-1.3583327531814575,0.2657809555530548,0.44871535897254944,0.8466365337371826,-2.07363224029541,2.8017237186431885,0.9257282018661499,1.2328965663909912,0.2889759838581085,0.39452579617500305,-1.7118911743164062,0.24324260652065277,1.1746139526367188,-1.0692641735076904,-0.6764859557151794,0.6944727301597595,-3.1076972484588623,-0.9638393521308899,-1.6619806289672852,0.7267844080924988,1.2892868518829346,-0.07069749385118484,-0.005604140926152468,-0.27487462759017944,-1.2752172946929932,-0.9247856736183167,-0.03577547147870064,0.1174115240573883,-0.060561567544937134,0.19780944287776947,-0.48365694284439087,-0.6952258944511414,0.43639132380485535,0.7796669602394104,1.0827295780181885,0.26017582416534424,0.1462583839893341,0.24883973598480225,0.11338905245065689,-0.7479371428489685,-0.024622365832328796,0.019096005707979202,-0.0384223647415638,0.05490052327513695,-2.213341474533081,-0.7851423621177673,-0.40012282133102417,0.7422844171524048,-0.14777329564094543,0.5519823431968689,-0.06702470779418945,-0.33545154333114624,-0.1447085291147232,0.48958683013916016,-0.34309616684913635,2.5410921573638916,0.15379369258880615,-0.32274067401885986,-0.10498382151126862,-0.008723119273781776,0.2030099481344223,0.4436019957065582,-2.1142947673797607,0.06925684213638306,0.004615399986505508,-0.9983516931533813,-1.3823057413101196,0.7457173466682434,-0.5798239707946777,1.3461896181106567,0.41533464193344116,-1.2897764444351196,-0.5594304203987122,-0.44870781898498535,0.5255399942398071,-0.476463258266449,0.4072181284427643,-0.3436138331890106,1.286597490310669,-0.6935765147209167,-2.4129722118377686,0.46572965383529663,-0.3357555568218231,-0.48261964321136475,0.7954677939414978,1.2035300731658936,0.31376779079437256,0.4322658181190491,-1.7494348287582397,-0.5862775444984436,1.5372973680496216,-0.03472398221492767,0.8177419900894165,3.7754244804382324,0.3188077509403229,-1.4655059576034546,-0.7382518649101257,-1.263914942741394,1.3831614255905151,2.277672529220581,0.3075762391090393,0.06566338986158371,-1.215261697769165,-0.16081973910331726,-0.4282991290092468,-0.0852670818567276,-0.5066900849342346,-0.3532988131046295,0.11007606238126755,-0.14484605193138123,-0.7498496770858765,-0.19959120452404022,1.5852596759796143,2.2064545154571533,0.63455730676651,1.9020459651947021,1.2770001888275146,0.7913216352462769,0.15618908405303955,0.9903771877288818,-1.1523408889770508,-0.0036735704634338617,0.6142493486404419,-1.493001103401184,-1.6033929586410522,-1.3034132719039917,-1.668937087059021,-2.0310940742492676,-0.6184096336364746,0.3944621682167053,0.2541457414627075,-0.3140435516834259,1.835513949394226,-0.6236212253570557,-1.7422960996627808,2.0428483486175537,0.4392526149749756,0.15433457493782043,-0.36966368556022644,-0.6002638936042786,-1.2284657955169678,1.56084406375885,0.6123565435409546,0.9636104702949524,1.2448022365570068,0.16291113197803497,1.0841635465621948,0.7611228823661804,0.5924965143203735,1.035312294960022,1.042446255683899,0.2622433602809906,-2.28487491607666,0.22854667901992798,-0.9756768345832825,-0.5684024691581726,0.3972207307815552,-2.1895530223846436,1.0323703289031982,-0.754326581954956,1.8538419008255005,-0.2950817346572876,0.6613642573356628,1.0779728889465332,-0.3680146038532257,-0.1995951533317566,2.9876153469085693,0.7681180238723755,-0.8800657391548157,0.6755932569503784,0.34271928668022156,-1.2670804262161255,0.14739704132080078,1.1894068717956543,-0.900844931602478,-0.827724039554596,0.8579580187797546,-0.48449188470840454,-0.8217041492462158,0.3035716414451599,0.969135046005249,-1.217149257659912,-1.0979739427566528,1.5226649045944214,3.053110361099243,1.483257532119751,-1.1676799058914185,1.714939832687378,1.4143633842468262,1.3644139766693115,-0.8803468942642212,0.3463309109210968,0.603298008441925,0.3220822513103485,0.603965163230896,-1.485371708869934,1.075626015663147,0.5070244073867798,-0.3387342095375061,-1.0740787982940674,0.8663211464881897,-1.8266406059265137,-2.0429563522338867,0.597248911857605,-0.8664627075195312,0.12895560264587402,1.1850783824920654,1.1363524198532104,-2.0798463821411133,1.2490789890289307,0.3113595247268677,-0.6144730448722839,1.2369474172592163,1.1594504117965698,0.8066222071647644,1.8112890720367432,0.6144523024559021,0.8493737578392029,0.8657282590866089,-3.070103168487549,-1.3523533344268799,-0.8946769833564758,-1.068859338760376,-0.014990381896495819,-0.9298409819602966,0.07234780490398407,-1.4950013160705566,-1.234946608543396,-0.1381625235080719,0.3026008605957031,0.4143374562263489,0.5609829425811768,1.5576488971710205,0.2646156847476959,-0.2270672470331192,1.5420594215393066,-0.28030526638031006,0.9960930347442627,-0.9076544046401978,-1.3241326808929443,-0.1112956628203392,1.5090802907943726,0.2351749837398529,-1.181473731994629,-0.1364278346300125,1.0140210390090942,0.8548497557640076,-0.3895447850227356,-0.018492508679628372,0.9470677971839905,0.6611192226409912,-0.5949702858924866,-0.253730833530426,1.6467806100845337,0.16178064048290253,0.24312488734722137,1.1376115083694458,-2.9555447101593018,-1.0639708042144775,-0.9766813516616821,-0.9516986608505249,-1.360382080078125,0.5492620468139648,-1.5287108421325684,0.3714141845703125,0.04991845041513443,-0.3949664831161499,-0.3749718964099884,-0.8938687443733215,0.5008513927459717,0.33016437292099,0.6656036972999573,0.15247710049152374,0.045975904911756516,1.8822942972183228,0.6081072688102722,1.0798490047454834,-0.765324592590332,0.06937243789434433,-0.49100837111473083,-1.6008992195129395,0.5420367121696472,1.7623634338378906,-2.2340426445007324,0.16187113523483276,1.8084756135940552,-1.2735238075256348,2.0250861644744873,0.36716654896736145,-0.0990646630525589,-1.7311147451400757,1.7284283638000488,0.12492787092924118,0.09456457942724228,-1.9173319339752197,1.2832976579666138,2.3872673511505127,1.9316129684448242,3.6966991424560547,2.4101078510284424,-0.2873500883579254,0.49246856570243835,-0.0385231114923954,0.5885790586471558,1.9155492782592773,-0.6850059032440186,0.30436062812805176,-0.31160539388656616,-1.112202763557434,0.17815914750099182,-2.5801901817321777,-0.3464173674583435,0.8721904158592224,-1.22215735912323,-0.6234565377235413,-0.8546286821365356,3.16943359375,0.560705840587616,-0.5943133234977722,0.9603703022003174,-0.4470411241054535,-1.918801188468933,1.9064769744873047,-2.1175503730773926,0.6227705478668213,0.46764540672302246,-2.6457321643829346,-0.670920729637146,-0.08551385998725891,1.470558762550354,-0.5416600108146667,-0.604334831237793,0.6245013475418091,0.18812137842178345,-1.3196375370025635,-0.9130549430847168,-1.4033184051513672,-1.5751656293869019,0.3132043182849884,-0.23634612560272217,1.6371220350265503,0.20506492257118225,-0.04986467957496643,-0.6380096077919006,0.3358970880508423,-0.3684684634208679,1.058210849761963,0.24342049658298492,-0.4398115873336792,2.1767594814300537,-0.8794502019882202,-0.4973874092102051,2.2353391647338867,-0.0888412594795227,0.7695132493972778,-0.37061330676078796,-1.0710278749465942,0.07953818887472153,-0.9934314489364624,0.737084686756134,1.3207333087921143,-0.4452429711818695,1.399214506149292,0.18533703684806824,-0.5136895775794983,0.3104850947856903,0.15705303847789764,0.9747208952903748,-0.382099449634552,-0.18954075872898102,-0.7615577578544617,-0.0005223838961683214,0.44161882996559143,1.9420533180236816,-1.034088134765625,1.0348577499389648,-0.8132386207580566,0.7526067495346069,-0.015486164018511772,-1.4181792736053467,-0.15029685199260712,-0.39020460844039917,-2.2036049365997314,-0.7669917345046997,1.2424432039260864,-0.25771260261535645,0.539348304271698,0.2731206715106964,-0.05370377376675606,2.8390018939971924,-0.41329407691955566,-0.5272621512413025,0.9180753231048584,-0.5412068963050842,0.00941720511764288,-3.7176239490509033,-1.5739738941192627,0.4625697731971741,0.2749303877353668,-1.1692969799041748,0.7252668738365173,0.023548096418380737,0.022506942972540855,-0.2342793047428131,0.06836191564798355,1.2779728174209595,2.2115917205810547,-0.2271890938282013,2.0997698307037354,0.9836642146110535,-0.9612624049186707,-1.596520185470581,-0.289680153131485,1.0552091598510742,0.3398665487766266,-0.16086141765117645,-1.5059272050857544,1.1406817436218262,1.2699865102767944,0.7719555497169495,-0.16246534883975983,1.2476307153701782,1.362470030784607,0.38872015476226807,0.10831931978464127,0.49433109164237976,0.44175878167152405,-0.33636194467544556,-0.6497736573219299,-0.26243871450424194,-0.02362094074487686,-0.017636403441429138,0.5699090361595154,-0.7344445586204529,0.3458004593849182,0.21152959764003754,-1.4497969150543213,-0.14598169922828674,-0.17194710671901703,-0.2832827568054199,-0.02470475435256958,-0.328831285238266,-0.22112120687961578,0.15380306541919708,-0.2080814689397812,0.3251481056213379,0.7099443078041077,-0.54543536901474,0.3374367654323578,0.11764949560165405,0.8645852208137512,-0.2002354860305786,0.9417590498924255,-1.6015346050262451,-1.6884398460388184,0.7904618978500366,-1.6230762004852295,0.8998374342918396,-2.2043650150299072,0.5430414080619812,1.6727174520492554,-2.7003979682922363,0.4684295952320099,-0.4471992254257202,-1.751499056816101,1.4815139770507812,-0.515399158000946,-0.14329135417938232,-2.0639021396636963,-1.0318502187728882,0.5527344346046448,1.3803539276123047,0.7066603899002075,-0.3456564247608185,-1.4630358219146729,1.5622144937515259,1.5655893087387085,-1.3413221836090088,0.29549872875213623,1.2785035371780396,1.3376412391662598,-0.7171887755393982,-1.032320499420166,0.2090042233467102,-0.1830591857433319,-0.6309226751327515,-1.2130398750305176,-1.2150920629501343,-0.8587332963943481,1.0678465366363525,0.4490964412689209,-3.586824417114258,-0.28879547119140625,-0.6208088397979736,0.04566730558872223,-0.8258268237113953,1.6832236051559448,-0.824360728263855,1.289455533027649,2.9141077995300293,-0.7312287092208862,-1.085686206817627,-1.9633281230926514,-1.0684012174606323,0.46398961544036865,-0.014468911103904247,-0.701273500919342,-0.42835214734077454,0.8176751732826233,0.00908635463565588,0.3211170732975006,-0.4286724328994751,0.43851858377456665,0.31569719314575195,1.8442631959915161,0.06136306747794151,-0.25905612111091614,0.033726997673511505,0.04497964680194855,0.6675580143928528,-0.3539068102836609,0.6658935546875,0.6106055378913879,-0.8838924765586853,0.31050875782966614,-0.3709166646003723,-0.7122393846511841,1.1044284105300903,0.1555374264717102,0.04706282541155815,-0.10356400161981583,-0.191143199801445,0.08457978814840317,-1.1751534938812256,0.6403670907020569,-0.12762261927127838,0.8178561329841614,-1.5806455612182617,1.4578149318695068,1.0152791738510132,0.8166760206222534,0.2737836241722107,1.8996731042861938,-1.7867034673690796,0.7276641130447388,2.3034281730651855,0.13139145076274872,-0.250435471534729,-0.261850506067276,-1.1232097148895264,0.012301306240260601,-0.47740408778190613,-1.4060875177383423,-2.8719866275787354,-0.3012840151786804,0.7310663461685181,-1.636582374572754,-1.0554794073104858,-1.8089975118637085,0.4432096779346466,-2.115356206893921,-0.10074207931756973,0.24657399952411652,-1.9571574926376343,0.05591118335723877,-0.4628183841705322,0.021160556003451347,-0.10576722025871277,-0.2836489975452423,-1.018797516822815,-2.071262836456299,-0.16887550055980682,1.1746312379837036,-1.5507073402404785,-2.6675238609313965,-2.1129074096679688,0.6388771533966064,-0.5366831421852112,-2.3822286128997803,-1.9054152965545654,-0.4126754105091095,-0.7833424806594849,0.6211094260215759,0.118409663438797,0.30383798480033875,0.15624402463436127,0.5273115634918213,-0.018704969435930252,-0.21992187201976776,0.1823171079158783,-0.4082547724246979,1.0984570980072021,2.719748020172119,-0.02971990592777729,0.19364242255687714,0.19553224742412567,-0.4510267674922943,0.47392964363098145,1.3180819749832153,-1.1658809185028076,-0.2919325530529022,-1.0550605058670044,-1.5968222618103027,-0.5026444792747498,-0.43111979961395264,-0.9912149310112,-1.1780071258544922,-0.380667507648468,-1.9811707735061646,-1.3945508003234863,-0.8702674508094788,0.01436265092343092,2.2739479541778564,0.7084293961524963,1.3617727756500244,-0.15050387382507324,0.8495228290557861,1.3480230569839478,0.35924187302589417,-0.46328186988830566,-0.12566840648651123,-0.031231621280312538,1.9725538492202759,-2.3007328510284424,-1.3783135414123535,1.207200288772583,0.32949399948120117,2.349907875061035,0.11167535185813904,1.9283825159072876,0.5651764273643494,-1.6671326160430908,1.709447979927063,0.3358311057090759,0.977658212184906,2.0605990886688232,-1.0547410249710083,-1.2428977489471436,0.8690223693847656,-1.5195550918579102,-1.5272595882415771,0.7014835476875305,-1.987083911895752,-1.1017519235610962,0.18293462693691254,1.1368215084075928,2.1543524265289307,-1.574829339981079,-1.7295016050338745,-0.6153553128242493,0.29248401522636414,-0.7075147032737732,0.6318256258964539,-1.0115172863006592,-0.2786238491535187,1.7301139831542969,-0.5989994406700134,-0.5540146231651306,0.5127942562103271,0.7329327464103699,0.39487117528915405,1.7427622079849243,2.2373921871185303,-0.8484129309654236,1.7845550775527954,-0.35343697667121887,0.11539679765701294,-0.25081291794776917,0.2801719605922699,-1.852174997329712,-1.151469349861145,0.21183210611343384,-0.6555654406547546,-1.4516856670379639,-0.21275117993354797,0.9900206327438354,0.8771175742149353,-1.3075309991836548,-1.3508895635604858,0.5998030304908752,-0.5599654316902161,-1.0173808336257935,0.177089124917984,0.43985533714294434,-0.1241544559597969,0.6777488589286804,-1.8575671911239624]},"inputHidden":{"rows":20,"columns":20,"weights":[2.966214656829834,-1.2665899991989136,1.758736252784729,2.3529086112976074,2.1835572719573975,3.2733054161071777,3.279869556427002,0.5171858668327332,0.5614010691642761,-0.18370892107486725,2.333325147628784,-0.029155896976590157,-0.395313024520874,-2.372554063796997,-0.5723491907119751,-1.1343152523040771,-2.172431707382202,-2.287933349609375,2.9414050579071045,-0.346221923828125,1.031833529472351,-0.37220075726509094,-1.862275242805481,-0.9213813543319702,-1.7522375583648682,2.5192713737487793,2.505690813064575,0.6639822721481323,-2.3722782135009766,0.7704364061355591,2.889927864074707,1.991804838180542,0.5304757952690125,-2.8299126625061035,-0.08738269656896591,0.7190690040588379,1.7397807836532593,-3.9594671726226807,0.7449086904525757,1.4658476114273071,0.3803611397743225,0.547452986240387,0.2945776879787445,-0.9334709048271179,-0.18843324482440948,-5.3039937019348145,0.8072306513786316,1.895350456237793,0.6461168527603149,-0.5056836605072021,-1.8880839347839355,-1.1468464136123657,1.0002307891845703,-0.5398247241973877,0.3297896683216095,1.3342667818069458,-2.084174633026123,-1.4497712850570679,0.6772072911262512,1.1759212017059326,-4.894632339477539,1.6680173873901367,1.5683306455612183,2.3918955326080322,0.5787917971611023,3.6073596477508545,-2.4669556617736816,-0.7878732085227966,0.4810417890548706,-3.1975927352905273,2.254701852798462,-0.07880932092666626,-3.9764862060546875,-0.04184054955840111,2.9831995964050293,-0.37062928080558777,1.6612403392791748,-0.5740659236907959,-1.2369340658187866,0.4065133333206177,-1.2775201797485352,1.0476738214492798,-3.6756982803344727,-2.2823801040649414,-0.043551966547966,0.5103617310523987,-2.422218084335327,-0.02567797154188156,2.662548780441284,0.5652622580528259,-0.7582724690437317,-1.6700341701507568,0.5517721772193909,-0.2182510644197464,-2.5503969192504883,0.7543842196464539,1.387109398841858,3.576895236968994,-0.9350759983062744,0.6082759499549866,-0.7879717946052551,0.8709427118301392,-0.6706047058105469,1.4022852182388306,-2.2911131381988525,-0.3257442116737366,-0.6603099703788757,-1.1232104301452637,-1.5048640966415405,-3.732410192489624,0.6143535375595093,0.7119798064231873,-0.9061486124992371,-0.23417188227176666,1.557152509689331,0.876503586769104,0.3577837347984314,-0.1135386973619461,-1.040286660194397,0.25329136848449707,-1.1684685945510864,0.2702232301235199,-2.431955337524414,-0.6782192587852478,1.0726011991500854,0.34028148651123047,0.04416938126087189,1.2354943752288818,0.7149556875228882,0.4452012777328491,0.8099467754364014,-1.003554344177246,0.1519566774368286,-0.9168937802314758,-1.9694231748580933,0.533096969127655,1.846765160560608,-0.5692340731620789,0.6999634504318237,0.06979627907276154,0.32687368988990784,0.10131405293941498,0.4596979022026062,1.273926019668579,-0.6057652831077576,-0.15183605253696442,0.48196762800216675,-0.0026584486477077007,0.20441773533821106,-0.1495916247367859,1.2671970129013062,2.232668876647949,1.1748919486999512,-0.6810706853866577,-0.5098456144332886,-0.5623725652694702,-1.41880464553833,-2.3468806743621826,1.6228313446044922,1.1113781929016113,1.1747305393218994,-0.5334824919700623,-0.6202898025512695,-0.23345381021499634,1.3984391689300537,-0.06532160937786102,-1.694374918937683,0.18147936463356018,0.6147671937942505,-1.1245962381362915,-1.1528240442276,0.2995874881744385,0.8400669693946838,0.6178913116455078,1.4527639150619507,-0.15556545555591583,-0.06600943207740784,0.33709633350372314,-0.1922561079263687,-1.3536447286605835,0.41093990206718445,-0.4359603822231293,0.5885093808174133,1.5706310272216797,0.6142197251319885,-1.3102657794952393,-0.840257465839386,-0.4858703911304474,-0.08526209741830826,-1.1437771320343018,-0.9395207762718201,-2.857489824295044,0.23182660341262817,3.053694486618042,1.8469570875167847,-0.22548605501651764,0.06678339838981628,1.3162841796875,-2.9296624660491943,-0.6693727374076843,-0.7133559584617615,0.31782692670822144,0.037056177854537964,-0.440311998128891,-0.4652853310108185,-1.114962100982666,3.2214667797088623,2.706860065460205,1.3308484554290771,-1.1046233177185059,0.9059669971466064,-3.134016990661621,1.6180009841918945,0.3548370897769928,-0.8714301586151123,-1.725999355316162,-2.29634690284729,-2.743419647216797,0.677335798740387,-0.0367719791829586,-1.0655176639556885,-1.6583648920059204,-0.8386082649230957,-2.362896203994751,0.6952432990074158,-3.2982072830200195,-2.660271644592285,0.028306156396865845,2.9817512035369873,-1.5603450536727905,-1.978332757949829,-0.9200140237808228,-2.0459554195404053,1.078428864479065,1.2353620529174805,1.6080918312072754,0.5568469762802124,2.1882262229919434,-0.8913139700889587,-2.083383798599243,-2.1835570335388184,-2.612360715866089,-1.2565945386886597,-0.29540735483169556,1.2997870445251465,-0.29722437262535095,-3.877821922302246,0.5002000331878662,0.9432416558265686,1.3833563327789307,-1.3863492012023926,0.6000065803527832,-2.1149089336395264,0.6279802322387695,-0.736823558807373,0.22153198719024658,-0.46045589447021484,2.050474166870117,0.8109459280967712,0.3150780498981476,-5.050934314727783,2.80417537689209,-2.102159261703491,-2.134305477142334,-0.29386141896247864,-3.2558794021606445,0.7229577302932739,0.4355489909648895,3.8799216747283936,-0.49952197074890137,2.728071451187134,-3.158553123474121,2.7701783180236816,-0.06941354274749756,5.0810112953186035,2.2979416847229004,-5.29670524597168,-2.8501744270324707,1.786852240562439,1.936977744102478,-2.025158405303955,1.7788057327270508,1.3708457946777344,2.9024622440338135,-0.2976047992706299,0.47631993889808655,1.5299593210220337,0.8338347673416138,-0.7119265794754028,0.053231168538331985,0.7190055847167969,-0.618701159954071,1.9054402112960815,1.3824031352996826,-1.5213161706924438,-1.292864441871643,-0.35816726088523865,-0.4970554709434509,-0.6588179469108582,1.1716713905334473,-0.43839845061302185,-2.8058290481567383,0.20298944413661957,0.054133277386426926,-1.8565423488616943,0.765842854976654,-3.2743401527404785,1.0216736793518066,-1.411203145980835,2.039341449737549,0.7563246488571167,2.9878053665161133,1.0005433559417725,0.2947680652141571,4.849292755126953,2.719372034072876,1.3011621236801147,0.16268755495548248,-1.8621928691864014,3.748638868331909,-0.7981436848640442,2.7513234615325928,0.8561118841171265,-0.6958464980125427,-0.0744049996137619,-0.8418947458267212,-0.32516834139823914,-2.1322736740112305,0.6993594169616699,-0.6684425473213196,-1.5838476419448853,-0.7313371300697327,-1.9330233335494995,0.48721009492874146,-3.1845226287841797,-2.1695187091827393,-0.2030119001865387,1.8601197004318237,-3.337003707885742,-1.9075078964233398,0.4241825044155121,0.03998534753918648,0.7096248865127563,1.7613533735275269,0.24364720284938812,-0.09036372601985931,-0.49573054909706116,0.30886879563331604,0.530545175075531,0.6142650246620178,-1.1882877349853516,-0.8367392420768738,2.1270570755004883,-0.8471390604972839,0.5252891182899475,-0.43410879373550415,2.5413906574249268,0.11093857884407043,0.5593178272247314,-0.9680070877075195,-0.46174156665802,-0.5438531637191772,1.6458163261413574,0.527401864528656,0.1828753501176834,-0.4035662114620209,0.5241440534591675,1.0803775787353516,-0.6347308158874512,0.5912253260612488,0.30037447810173035,1.1130589246749878,1.2995400428771973,-0.7432531118392944,-1.307033658027649,0.4491690695285797,-1.6671935319900513,-0.7335973381996155,-0.42851969599723816,0.4805302619934082,1.46614408493042,0.03375864028930664,-4.385224342346191,-1.9524554014205933,0.2936614751815796,2.2207529544830322,2.347414016723633,2.371177911758423,-0.8398038744926453,-3.1320340633392334,0.06635992228984833,0.7038046717643738,0.47183266282081604,-2.614717483520508,1.021660327911377,-0.48093369603157043,-0.3511352837085724,0.09613879024982452,3.3468167781829834,-1.9707975387573242]},"inputBias":{"rows":20,"columns":1,"weights":[-0.35063543915748596,-0.3333158791065216,-2.3541183471679688,-0.4824933111667633,-0.7673072218894958,-0.08132883906364441,-0.6864429116249084,1.1210991144180298,1.1968485116958618,1.3670350313186646,-2.091597557067871,0.09264706075191498,0.0066602216102182865,-0.032638974487781525,1.1362968683242798,-0.1843452751636505,0.1560106873512268,0.1594437211751938,0.012812909670174122,-0.6107813119888306]},"forgetMatrix":{"rows":20,"columns":39,"weights":[-1.374224066734314,-1.2126024961471558,-0.5301858186721802,0.7702379822731018,0.9207355380058289,1.2487694025039673,-0.9684885144233704,0.7057616114616394,1.6429215669631958,0.12750886380672455,0.36221393942832947,0.465645432472229,-0.4464746117591858,1.4907073974609375,-0.18367142975330353,-0.7568768858909607,-0.4682067036628723,-0.21289180219173431,1.1276164054870605,-0.6402978301048279,0.7465934157371521,-0.9316508173942566,-1.382836937904358,1.0331555604934692,1.2623692750930786,-0.2550532817840576,1.6235567331314087,-0.22707663476467133,-0.44189056754112244,0.4703960716724396,-0.7658715844154358,0.7113114595413208,-0.029329240322113037,-0.8634676337242126,0.4646819531917572,-1.023567795753479,-1.070275902748108,1.0477571487426758,-0.10277809947729111,-0.45782405138015747,-0.466073215007782,0.44520875811576843,-0.011982014402747154,1.6665186882019043,0.08196945488452911,-0.011666033416986465,2.430234670639038,0.6903659701347351,0.6375944018363953,2.1596925258636475,-0.7598385810852051,0.7727918028831482,0.3026239275932312,-3.167644739151001,-2.3781070709228516,-0.8188348412513733,-0.9181179404258728,1.869632601737976,0.8473917841911316,0.5978747010231018,1.2705116271972656,-1.0969569683074951,0.7542104125022888,0.7370736002922058,0.3898107707500458,1.1010243892669678,-1.8448951244354248,0.01575682871043682,0.6725142002105713,-2.711642265319824,0.27634331583976746,0.4505593776702881,-2.930643081665039,-0.8712284564971924,-0.4730174243450165,1.2988717555999756,1.9978435039520264,-0.16249458491802216,1.2820370197296143,0.45734965801239014,1.0013511180877686,0.40055909752845764,0.44948649406433105,0.6786169409751892,1.1559029817581177,2.2053756713867188,0.2554719150066376,-1.2129106521606445,-1.0163201093673706,-1.6643949747085571,2.600752830505371,-2.1964683532714844,0.8633081316947937,-0.45332205295562744,-1.2930999994277954,-0.425969660282135,-0.594629168510437,1.115677833557129,-0.14679981768131256,0.09647515416145325,2.3873627185821533,-0.6540444493293762,-1.31851065158844,0.6180003881454468,0.32511159777641296,0.2608499825000763,0.25448909401893616,0.3512857258319855,0.288911372423172,-0.510201632976532,0.8435479998588562,0.018552755936980247,0.14118102192878723,0.9440973401069641,-0.8401736617088318,-1.0806282758712769,1.5933259725570679,0.11620064824819565,-0.663449227809906,0.12364187836647034,1.268113613128662,0.7835463285446167,1.0698639154434204,-2.4266247749328613,1.218757152557373,0.8968793153762817,1.4066537618637085,0.8424632549285889,-1.2932195663452148,-0.6293084025382996,-0.16149884462356567,-1.3743834495544434,-0.7965602874755859,-0.024780282750725746,-0.6112903356552124,2.459239959716797,-0.06024036183953285,-0.5586245656013489,-0.3189060091972351,-0.07422129064798355,1.4353606700897217,0.681033730506897,1.3538881540298462,1.5752720832824707,-0.04511409252882004,0.42380574345588684,-0.8754159808158875,-1.9277228116989136,1.1841636896133423,1.7818324565887451,-1.866519570350647,-0.10468130558729172,-1.7661343812942505,0.09612695127725601,1.9841928482055664,0.5126931667327881,-0.5008087754249573,-0.09439034014940262,-0.7343465685844421,0.1367468237876892,-1.7213233709335327,0.6933313608169556,-0.03770811855792999,-1.6453707218170166,0.25098568201065063,-0.030879605561494827,1.3392099142074585,1.3515876531600952,-1.017458200454712,0.8051917552947998,1.2920219898223877,0.6890222430229187,-1.0354455709457397,1.0315852165222168,0.0926215797662735,-0.6850147843360901,-2.0392417907714844,-1.050213098526001,-1.5548211336135864,-0.31900009512901306,-0.6094037294387817,-2.1295359134674072,0.34579452872276306,-1.4655016660690308,0.5402886271476746,0.5472444295883179,0.554086446762085,1.836441993713379,-0.9391955137252808,1.5412354469299316,0.30786728858947754,0.5910235047340393,-0.8411984443664551,0.19870923459529877,-0.5872595310211182,0.6442164182662964,-0.1798555850982666,0.8260456323623657,2.2906298637390137,1.7273391485214233,2.138383150100708,-2.615879774093628,-1.0209225416183472,2.381571054458618,0.6240386962890625,0.9222130179405212,-0.3215121328830719,-1.3150265216827393,0.6742209792137146,1.3697971105575562,-0.8161228895187378,-0.1561042070388794,0.1376827508211136,1.092132806777954,0.5654670596122742,-0.07953466475009918,-1.4770405292510986,-1.3900938034057617,1.3030890226364136,2.1341054439544678,0.15814532339572906,1.5123637914657593,-1.3491084575653076,-1.8384908437728882,0.6739274859428406,-0.8284565210342407,0.17316272854804993,1.029097318649292,-0.17014820873737335,-0.0658796951174736,-1.0360639095306396,-1.3292834758758545,1.4817622900009155,1.6767613887786865,1.7875349521636963,1.464775562286377,0.9079468250274658,0.7903172969818115,0.7356395721435547,-0.11488403379917145,-0.41312697529792786,1.1494290828704834,-0.47226181626319885,0.49542471766471863,-0.5763939619064331,-1.0632379055023193,0.15785810351371765,-2.675642490386963,-0.5342196822166443,0.35745808482170105,-0.7963379621505737,0.4597589075565338,-0.7548635005950928,1.4852442741394043,1.0681664943695068,-0.4744713604450226,0.4570886790752411,-0.5324395895004272,-1.560251235961914,0.8251487612724304,-2.0628600120544434,0.6606090664863586,0.0399361178278923,-2.0290844440460205,-0.8625788688659668,-1.0980713367462158,-0.4681224226951599,-0.39086639881134033,0.7873653769493103,-1.5047085285186768,-0.7379149198532104,-1.3675423860549927,1.5958930253982544,1.237929344177246,1.077928900718689,0.055773403495550156,1.836477279663086,0.42589524388313293,2.874314069747925,-2.271899461746216,-0.5928073525428772,2.2726917266845703,1.2917221784591675,1.1548314094543457,0.06130776181817055,-0.4899599254131317,-0.38334450125694275,-1.9338288307189941,0.583833634853363,-2.972240447998047,-0.796164333820343,-0.2005406618118286,1.5008559226989746,0.48338139057159424,1.8507362604141235,-1.8786906003952026,0.16429585218429565,-0.1590205430984497,-0.09386089444160461,0.20790880918502808,-1.631261944770813,0.6526473164558411,-0.6875718832015991,-0.28609228134155273,-0.7031623125076294,0.13889631628990173,-0.3069905936717987,-2.0087502002716064,-0.29384708404541016,1.2010139226913452,0.058508746325969696,1.8473352193832397,-0.2082168012857437,-1.1562590599060059,0.2532578706741333,0.3546467125415802,-0.5746039152145386,0.841026782989502,-1.1065349578857422,1.0858603715896606,0.9051083326339722,0.47531428933143616,-0.008856389671564102,-0.09508673846721649,-0.882277250289917,1.0245347023010254,-1.8434834480285645,-0.5275989174842834,-0.3556470572948456,-1.7299458980560303,1.3723351955413818,0.16793079674243927,0.002489345381036401,0.09175001829862595,-1.0848135948181152,1.1243484020233154,1.3443832397460938,0.08799038827419281,1.4682468175888062,-1.3061355352401733,-0.5966875553131104,0.1852969229221344,-0.6548546552658081,0.5288477540016174,0.18630586564540863,-1.456449270248413,-0.6671314835548401,-1.2463791370391846,0.5324127674102783,1.1644670963287354,-0.4043148159980774,-0.44031694531440735,0.5957712531089783,0.0069336737506091595,-0.9376123547554016,-1.848374366760254,0.05080380290746689,0.670337438583374,-0.8861650228500366,0.2624110281467438,-0.9932437539100647,2.3693103790283203,0.9039710164070129,-0.07403987646102905,-0.536090075969696,0.5410605072975159,1.8407341241836548,-1.198367953300476,-0.3105415403842926,-0.5127543210983276,-0.042982377111911774,-0.18639811873435974,-0.8446431159973145,-2.124619960784912,-0.6801416277885437,2.4652764797210693,-0.8296247124671936,0.9124507904052734,-2.8120272159576416,1.0012800693511963,0.4704726040363312,0.848915696144104,1.4904159307479858,-2.9993600845336914,-0.1634955257177353,0.05232454836368561,-0.010412327013909817,1.2879189252853394,-0.44549277424812317,-0.5309037566184998,-1.1197606325149536,-0.14244334399700165,0.1858036369085312,-0.21254752576351166,-1.098129153251648,-0.22905154526233673,-1.7555657625198364,0.32809770107269287,0.8550024628639221,0.11986099928617477,0.4713008403778076,0.295289546251297,-0.02008640766143799,0.38978105783462524,-0.9786846041679382,1.210555911064148,-0.5459607243537903,-1.484790325164795,0.9385297298431396,0.48992720246315,1.6301007270812988,-1.5698717832565308,-1.636986255645752,-0.1106540858745575,0.25540825724601746,0.2120605707168579,0.8352117538452148,-1.0647586584091187,1.624416470527649,-0.5405141115188599,0.18676000833511353,-1.038726568222046,-0.7965993285179138,-1.3498826026916504,2.374480724334717,-1.753792405128479,1.8398505449295044,0.09433680027723312,-0.18597523868083954,1.869793176651001,-0.1653042733669281,2.1893298625946045,2.9569389820098877,0.3840123414993286,1.0420562028884888,-1.5713948011398315,-0.1607658714056015,1.5602856874465942,0.19159182906150818,-0.25933343172073364,-0.5445551872253418,0.29579851031303406,-0.5110442638397217,0.15141569077968597,-0.9975358843803406,0.6374260187149048,1.2250301837921143,0.538693904876709,1.2951933145523071,-0.5341469645500183,0.08624589443206787,-1.2176711559295654,0.4988458454608917,-1.066770076751709,-0.9616689085960388,-0.2469259351491928,-1.0310627222061157,-0.3685368001461029,0.38394391536712646,-0.12316491454839706,-0.31553444266319275,0.24727888405323029,0.6119470596313477,-2.029144287109375,-1.8923168182373047,-1.612488031387329,-0.044373150914907455,2.0225443840026855,-0.6738572716712952,-1.2613191604614258,0.015621531754732132,-0.040397439152002335,-0.8016724586486816,0.5549214482307434,-0.5306318402290344,-1.3942797183990479,-0.5910199284553528,-0.40115886926651,-0.2386205792427063,-0.843187689781189,0.5800520181655884,-0.8612369894981384,1.5117522478103638,-0.24248987436294556,-1.39320707321167,0.9796098470687866,-0.4791239798069,-0.5680127143859863,-2.3473997116088867,-2.3535330295562744,1.1864724159240723,-0.0881173312664032,-1.413381576538086,0.3417740762233734,0.6468166708946228,-1.534439206123352,0.7542595863342285,-1.4537550210952759,0.833534836769104,0.8093057870864868,-0.08240149915218353,0.8536626696586609,1.0967152118682861,-0.6188926696777344,-1.444000482559204,0.005066916812211275,-0.6792976260185242,0.19554534554481506,1.490128755569458,-0.9265050888061523,2.4469118118286133,-2.5829572677612305,1.874924898147583,0.7451066374778748,-1.8734955787658691,1.655617356300354,0.8832294344902039,1.779977560043335,1.7329387664794922,1.9001516103744507,0.2507559657096863,1.4675402641296387,1.07931649684906,-0.4382767081260681,2.028773069381714,-0.2288852483034134,-0.8756925463676453,0.17787277698516846,0.7186231017112732,-1.8887028694152832,-0.572585940361023,1.2887812852859497,0.008663766086101532,0.004647199995815754,-1.619170069694519,1.4849413633346558,0.9104288816452026,0.03788915276527405,-1.3822712898254395,-1.3441791534423828,1.7756624221801758,1.4577491283416748,-0.37900686264038086,-2.257539749145508,-0.08283427357673645,1.513382077217102,-1.05836021900177,-1.3342946767807007,-0.23066166043281555,1.012033224105835,1.5320435762405396,0.42855799198150635,-0.8434097766876221,1.0922479629516602,0.4813613295555115,-0.3137410283088684,-0.312958687543869,-0.5953506231307983,0.6328497529029846,0.7504127025604248,-1.8581650257110596,-1.7205463647842407,1.061142921447754,-0.8874941468238831,1.4382598400115967,0.05102041736245155,-0.034686483442783356,1.0439893007278442,0.5025076866149902,1.3214645385742188,0.6246401071548462,-0.3393879234790802,1.2523493766784668,-0.15097418427467346,-0.6137756109237671,0.4742336869239807,-0.09888347238302231,-0.12149069458246231,0.7289799451828003,-1.2467767000198364,-0.12133126705884933,-0.37030261754989624,0.675900936126709,1.239974856376648,-0.5564073920249939,0.04016755893826485,-1.2422863245010376,0.752715528011322,0.9095619320869446,0.8720752596855164,1.1905587911605835,0.5983081459999084,1.122287631034851,1.2337850332260132,0.6474923491477966,0.9735367894172668,-0.4337114691734314,1.009320616722107,1.052846908569336,-2.6915876865386963,-2.0649545192718506,2.3018784523010254,-1.6494672298431396,2.3995466232299805,-0.4802783131599426,1.177402377128601,1.176198959350586,-0.4638073444366455,2.404127359390259,0.6787649393081665,0.5749263167381287,1.5182201862335205,-0.14906330406665802,-0.509821355342865,0.5577738881111145,-1.4963655471801758,-0.35527580976486206,1.1186084747314453,0.3530484735965729,-0.8297763466835022,-1.0071790218353271,1.202545404434204,2.5360772609710693,0.30090656876564026,0.016255853697657585,0.37504613399505615,2.833761692047119,0.032499443739652634,0.6304469704627991,0.30307695269584656,1.5296967029571533,-1.632185459136963,0.10339387506246567,0.32125601172447205,0.12170712649822235,-1.207013487815857,0.1535690426826477,0.7112856507301331,-0.8922682404518127,-0.15975822508335114,-1.4897472858428955,0.2746783196926117,0.20985059440135956,1.473557472229004,-2.6975560188293457,-1.1190234422683716,1.860722303390503,0.06148306280374527,-1.7724766731262207,2.8331785202026367,0.3973664343357086,0.40342265367507935,-0.1339845210313797,2.3783669471740723,1.4267497062683105,1.3902850151062012,1.2879279851913452,-0.30953875184059143,-2.0658111572265625,-0.5264979004859924,-1.773339033126831,0.05822692811489105,0.45605799555778503,0.9951025247573853,0.8459057211875916,-0.5143443942070007,2.4410786628723145,1.1934417486190796,1.9596771001815796,-0.4060313105583191,0.6403916478157043,2.0171618461608887,0.26961180567741394,-1.5304886102676392,0.5200238823890686,0.36511337757110596,-0.46907371282577515,0.1663869321346283,0.24601878225803375,0.6741681694984436,1.0223567485809326,-0.7313318848609924,-0.9721502065658569,1.867692470550537,-0.2291020303964615,0.440042644739151,0.07866018265485764,-3.7654335498809814,1.459409236907959,-0.9506186842918396,0.40418606996536255,-0.9076557755470276,1.3061600923538208,0.32308271527290344,-2.889251947402954,2.3848958015441895,0.4956051707267761,1.2642946243286133,0.6424190402030945,-2.311457872390747,-0.9759328365325928,0.7771040201187134,-1.8917018175125122,-2.474963665008545,-1.9664534330368042,-0.31404033303260803,-0.6036774516105652,0.21772296726703644,0.7889740467071533,-1.4068515300750732,0.4684417247772217,-0.712621808052063,-0.02821360155940056,-0.03412327915430069,0.7384666800498962,2.913442850112915,0.3634973168373108,-1.3845802545547485,0.696800172328949,-0.6834025382995605,0.674920380115509,-1.7773686647415161,-0.8161652684211731,-0.7260193228721619,-0.45621269941329956,1.2715336084365845,0.9691980481147766,0.23660345375537872,0.9587630033493042,0.010680615901947021,-0.48015260696411133,0.9292923808097839,-0.5914835333824158,1.0569696426391602,-0.05875513702630997,0.4416617155075073,-0.3997868597507477,0.8195837140083313,-0.05030716210603714,0.9934408068656921,-0.8703495860099792,-1.725935935974121,-1.7077833414077759,-1.3710628747940063,-0.4987099766731262,1.1745105981826782,0.15574130415916443,1.7384374141693115,-2.3874847888946533,0.13217563927173615,1.0481754541397095,-0.6859618425369263,-0.16027359664440155,1.0083178281784058,2.529508352279663,0.1779491901397705,0.10323741286993027,0.8647456765174866,-0.22248689830303192,0.8123472332954407,-2.1060454845428467,-2.6901512145996094,-0.8132648468017578,0.9026563763618469,1.404744267463684,-0.7276930212974548,1.3475909233093262,0.5139974355697632,0.0490480400621891,-0.9175018072128296,2.0804107189178467,-0.10923992097377777,1.8801602125167847,-0.1332346647977829,1.746282696723938,-0.611047625541687,0.959134578704834,-1.0062133073806763,1.2920986413955688,-1.6220321655273438]},"forgetHidden":{"rows":20,"columns":20,"weights":[0.035600703209638596,4.647461891174316,0.6225605607032776,-0.8168922662734985,-1.1752641201019287,1.04931640625,1.5040498971939087,-0.5417156219482422,1.6603981256484985,-6.198909759521484,-1.6413542032241821,-3.086872100830078,-1.7044821977615356,2.7216267585754395,-1.9146959781646729,-2.1110711097717285,3.046055555343628,0.7715991139411926,-3.416269063949585,-2.621300220489502,-2.5064949989318848,4.47698450088501,-1.0083369016647339,-0.7309402823448181,-2.900475263595581,-1.8107094764709473,-0.934220552444458,-1.6865170001983643,0.16271710395812988,-0.22671258449554443,1.3795443773269653,0.895537257194519,-1.4508780241012573,2.686981439590454,-1.0773427486419678,-2.5494346618652344,-0.07990913093090057,-1.609646201133728,-2.951923131942749,5.740944862365723,1.4699245691299438,-2.7402586936950684,-1.3835996389389038,-2.1902685165405273,-1.5213302373886108,-0.5109148621559143,-1.6680395603179932,1.7337507009506226,2.104069471359253,-2.4133105278015137,1.020166039466858,0.15203110873699188,-0.7098622918128967,-1.1277797222137451,0.5806750655174255,3.745060443878174,-0.19965076446533203,-0.21537481248378754,1.9437834024429321,0.9538840055465698,0.7696818709373474,-1.504990577697754,-0.9825229048728943,0.9067568778991699,-0.0234307162463665,1.1582280397415161,0.05332048609852791,1.5103776454925537,0.8643337488174438,0.33251407742500305,-0.04458323493599892,-1.2029480934143066,0.5633359551429749,-1.2616595029830933,-2.273181200027466,1.825924038887024,1.2132699489593506,-0.349579393863678,1.6793301105499268,-0.275881826877594,0.11132015287876129,1.2880687713623047,2.2272469997406006,-1.2900416851043701,-1.0086129903793335,0.6733151078224182,1.0284252166748047,1.3109458684921265,-0.8967580795288086,-8.43553638458252,-0.329106867313385,1.1799167394638062,-0.6395779848098755,1.536906361579895,1.589853286743164,1.3442044258117676,0.39219599962234497,0.4976779818534851,0.8600282073020935,-0.7591438293457031,-0.24762393534183502,-1.084665298461914,0.37615758180618286,3.7979509830474854,-1.1085968017578125,0.34593284130096436,0.8246443867683411,1.8730227947235107,1.756335735321045,-1.4799038171768188,-0.31918561458587646,-1.530045747756958,1.036858081817627,-1.3835150003433228,-0.10130377113819122,1.0626827478408813,-0.9688248038291931,0.39026597142219543,2.2540812492370605,-0.6176619529724121,0.00745784817263484,-0.015708422288298607,1.9038063287734985,0.7537553906440735,0.03350711613893509,0.023171374574303627,1.7578331232070923,1.6537094116210938,-1.0840519666671753,0.9537644386291504,1.3392773866653442,0.1830299347639084,1.272567629814148,-0.7101445198059082,-0.8841123580932617,-1.3186191320419312,0.9004331827163696,-1.5468745231628418,1.6951960325241089,0.8313490748405457,-0.9954785108566284,0.6377236247062683,3.2395384311676025,-0.6367816925048828,-0.3173563480377197,-1.155442476272583,0.08851891756057739,-0.9491066932678223,-5.4507598876953125,0.6382256150245667,-0.059153616428375244,1.9413001537322998,1.3540157079696655,1.1885136365890503,0.4961601495742798,-1.069390058517456,0.3025519847869873,-0.9787907600402832,-1.226241946220398,-1.222748875617981,-0.6237600445747375,0.8589147329330444,0.8410962820053101,0.5517844557762146,0.0302360150963068,-0.1589248776435852,-0.07797704637050629,-0.9011792540550232,-0.9298492670059204,0.14189374446868896,0.31172510981559753,0.6240543723106384,-1.2619842290878296,2.0340209007263184,-0.20859646797180176,-0.7666818499565125,0.3232564330101013,0.2136746048927307,-1.4510527849197388,-0.5728841423988342,-1.0536046028137207,1.05272376537323,-0.05606423690915108,0.6066377758979797,0.27086132764816284,0.3483944237232208,-0.059795528650283813,-1.8042700290679932,-0.7308927178382874,1.1098763942718506,1.0299886465072632,-0.1694515347480774,-0.2731984555721283,-0.08004600554704666,-1.1602495908737183,-1.145686388015747,0.45910516381263733,-0.24269410967826843,-0.8115097284317017,0.16111412644386292,-2.695199489593506,5.270229816436768,0.8831451535224915,1.2656385898590088,-2.6975810527801514,-4.605072021484375,0.208388552069664,-1.659040093421936,0.14499016106128693,-1.2873982191085815,2.541491746902466,-1.86258065700531,-1.0549777746200562,6.93974494934082,2.1784355640411377,1.8766459226608276,-4.083379745483398,-2.8074569702148438,-1.6886295080184937,2.5111799240112305,-2.138587474822998,2.809377431869507,-1.12179434299469,-2.3525798320770264,-1.5010380744934082,3.2291407585144043,1.5409579277038574,-1.5999972820281982,-1.0990277528762817,0.05786832049489021,1.6083110570907593,1.7309989929199219,-1.750054121017456,2.9052109718322754,1.1283036470413208,1.8025332689285278,3.26193904876709,-1.9077144861221313,-3.1434202194213867,-1.903926968574524,-0.6341789960861206,2.471709728240967,1.8672696352005005,1.7752944231033325,2.4865314960479736,2.276719093322754,-1.255027413368225,-4.042476177215576,-0.855682909488678,1.8368158340454102,1.715362310409546,1.8840365409851074,-0.9455886483192444,-0.6836349368095398,-2.316093921661377,-3.5174028873443604,0.2804727554321289,1.7305126190185547,0.3674792945384979,-1.5422182083129883,-0.5610209703445435,-0.9561637043952942,-0.4630127549171448,0.8802495002746582,0.09312137961387634,-0.10568589717149734,-2.1408286094665527,0.4516640603542328,0.9775871634483337,-1.1550319194793701,-1.9316811561584473,-1.8127186298370361,-2.68961238861084,-0.921307384967804,-0.1994255781173706,0.24034307897090912,-1.606661081314087,0.6902177929878235,0.7591925263404846,1.4289631843566895,-1.0194289684295654,1.7073932886123657,0.15244391560554504,-1.0565013885498047,0.06308393180370331,0.6017322540283203,-0.9797629714012146,-1.51687490940094,-2.818910598754883,1.2932274341583252,-0.8452383279800415,-0.3229610025882721,-1.068969488143921,1.5383220911026,0.25593385100364685,-0.533634603023529,1.5014628171920776,0.7165590524673462,-0.9743831157684326,1.0712815523147583,-3.868964433670044,0.4729887545108795,-0.5650284290313721,3.39396071434021,0.6377221345901489,2.0133020877838135,-1.6142568588256836,-1.4409010410308838,-0.5399289131164551,0.08959363400936127,-1.5147134065628052,1.1769053936004639,-1.1390384435653687,4.1576313972473145,-1.2114304304122925,-3.64239239692688,0.44054925441741943,0.9034304022789001,-3.4646384716033936,0.761694073677063,-2.605774164199829,2.2863571643829346,0.8008396625518799,3.4077694416046143,0.4325235188007355,-1.7329341173171997,-3.5798892974853516,-0.7939342260360718,-1.4066559076309204,1.051885962486267,0.2274809330701828,-0.17788589000701904,-1.9883822202682495,-0.12600897252559662,-2.712548017501831,-0.47578486800193787,-0.15224489569664001,-0.7336432337760925,1.0378798246383667,1.5008920431137085,-5.849295139312744,1.6992244720458984,1.780418038368225,3.1940085887908936,-1.7766289710998535,0.4636215269565582,1.0330778360366821,-0.33765000104904175,0.03540203720331192,-1.159105658531189,0.4797767698764801,2.522388458251953,-1.930937647819519,2.412670612335205,3.621216297149658,-1.7174556255340576,3.8003201484680176,-0.9644474983215332,-2.698875904083252,2.739363670349121,-0.10956842452287674,0.8692845702171326,-0.11737973242998123,-0.2078648805618286,0.5690131187438965,-0.09940946847200394,-1.4329878091812134,-1.5345041751861572,-0.24560022354125977,-0.5568097233772278,-1.056926965713501,0.6676797270774841,0.3278941810131073,2.116403818130493,-0.18790198862552643,-0.31588661670684814,-1.9437992572784424,1.1172597408294678,-0.45012980699539185,-0.8732895255088806,-1.5795649290084839,0.9586191773414612,-1.3968091011047363,-1.4946367740631104,0.7028099298477173,-1.4174360036849976,-2.1222426891326904,-1.4115808010101318,-0.6350389122962952,-1.5892046689987183,-1.385376214981079,0.5096102952957153,-1.518506407737732,1.3124051094055176,1.0864217281341553,-0.6968501210212708,1.0797759294509888,1.5714460611343384,0.30255237221717834,-0.40595194697380066]},"forgetBias":{"rows":20,"columns":1,"weights":[0,0,0,0,0,0,0,0,0,0,0,0,0,0,0,0,0,0,0,0]},"outputMatrix":{"rows":20,"columns":39,"weights":[-0.08241487294435501,0.1276516318321228,-0.5895787477493286,-0.19860057532787323,1.7215793132781982,0.1304454207420349,-0.0070131453685462475,2.352177143096924,0.37126508355140686,-0.9582278728485107,-0.1514544039964676,-0.028302067890763283,0.2883699834346771,0.6065430641174316,-2.701408624649048,0.2948470711708069,0.21069127321243286,-1.3921072483062744,0.07166217267513275,-0.6458049416542053,4.771533966064453,1.9932780265808105,0.2674292027950287,-0.464103639125824,-0.2795621156692505,-0.16642773151397705,-0.3486161231994629,1.7620586156845093,-0.2318355143070221,0.6003555059432983,-0.15098470449447632,-2.453627347946167,0.13870951533317566,-0.2087714523077011,0.17636825144290924,0.46342918276786804,2.635749340057373,-0.14912420511245728,0.21639087796211243,-0.7219127416610718,-0.8203672170639038,0.2978331446647644,0.573829710483551,0.878485381603241,0.28460419178009033,-0.11339319497346878,0.9270279407501221,0.2971302568912506,0.3997792601585388,-0.6271631121635437,-2.0246520042419434,-0.06986203044652939,0.6317412853240967,-1.1852604150772095,-1.6019784212112427,0.7873678803443909,-0.31616392731666565,1.1403335332870483,-0.945892870426178,0.7352045178413391,-0.7761558890342712,1.5310968160629272,1.5034520626068115,0.0433725081384182,3.030322551727295,0.49586841464042664,0.5770086646080017,-0.8685585260391235,-0.9380519390106201,-0.8771899938583374,-0.2555132210254669,1.7388297319412231,-1.7982661724090576,1.4593737125396729,-0.26991355419158936,1.1959927082061768,0.7778934836387634,-0.34599241614341736,-0.07719358801841736,-0.22283299267292023,-0.9078883528709412,0.027082225307822227,-0.05674726888537407,-0.26380687952041626,-0.38697823882102966,0.7135583162307739,-0.025967378169298172,0.06314349919557571,0.9967876672744751,-0.33858442306518555,0.6387498378753662,0.1003250852227211,-0.2779274880886078,-0.008388648740947247,0.44565045833587646,0.4894416332244873,0.28090962767601013,-0.46342000365257263,-0.1670529991388321,-0.4401703178882599,-0.2550731897354126,0.07808113098144531,-0.049904339015483856,0.03193012997508049,0.41069895029067993,-0.15860587358474731,-0.7617855668067932,1.4153666496276855,0.026005223393440247,0.6123790144920349,0.36780667304992676,-0.3633899390697479,-0.04813573509454727,0.5943216681480408,0.1339997798204422,0.16281405091285706,0.09532790631055832,-1.9383965730667114,-1.3040555715560913,0.20541051030158997,0.8802582025527954,1.4773823022842407,0.8891198635101318,-0.7347046136856079,-0.6041311025619507,1.259653925895691,0.9991703629493713,1.2780135869979858,0.03169309347867966,-0.7833682894706726,1.805516004562378,-2.8703463077545166,-0.05378367006778717,1.1226119995117188,0.5123224258422852,2.8418750762939453,0.09392326325178146,1.055527687072754,-0.2161346971988678,-2.0470240116119385,0.9974465370178223,0.9588032960891724,0.013634012080729008,1.6648660898208618,-0.18688255548477173,-1.5452347993850708,1.2515177726745605,-1.1455434560775757,-0.29922181367874146,0.8763304948806763,-1.8190685510635376,-0.6153457760810852,-1.7153778076171875,0.7802942991256714,2.787310838699341,-0.9691819548606873,1.7699772119522095,1.100509524345398,-2.011223793029785,-1.3177227973937988,-0.560569703578949,-0.9476941823959351,-0.7202609777450562,1.885452151298523,-1.262902021408081,-1.7400743961334229,-1.239245057106018,0.4784395694732666,-0.3262527585029602,-1.800460696220398,1.6464917659759521,0.4776056110858917,-0.7028342485427856,-1.9718610048294067,-1.416130542755127,0.1385626345872879,1.978632926940918,0.8553914427757263,0.37096282839775085,-1.3080862760543823,-0.7476943135261536,-2.008466958999634,-0.25531134009361267,-1.5894619226455688,1.2500721216201782,-1.5471261739730835,0.7894534468650818,-2.383035898208618,-0.6081224679946899,-0.43775850534439087,-0.35003533959388733,1.8520931005477905,1.1961523294448853,-0.6441390514373779,1.2587660551071167,-0.8316588401794434,-1.6721715927124023,2.395306348800659,0.7075018286705017,-1.2818013429641724,-0.3603540062904358,-0.04032626375555992,-2.1659748554229736,-0.5739272236824036,0.19445350766181946,-0.7872712016105652,-2.3661742210388184,-0.5518343448638916,1.5856590270996094,-0.10599621385335922,-0.549720823764801,0.1815449744462967,0.5081492066383362,0.9162877798080444,-0.23585306107997894,0.26121437549591064,-0.6920602321624756,2.178727865219116,1.1128158569335938,-0.09914465248584747,1.83128023147583,0.8170133829116821,-0.9866880178451538,-1.020843505859375,0.8637431263923645,1.3733186721801758,-1.1245651245117188,0.49707821011543274,0.7944740056991577,-1.337612509727478,-1.9681586027145386,-2.253661632537842,0.8702264428138733,-0.8821569681167603,0.9771053194999695,1.3415610790252686,2.3607349395751953,2.578592538833618,0.16071560978889465,2.0831146240234375,1.037629246711731,-1.665002703666687,1.758367896080017,3.042311668395996,-0.5667438507080078,-1.3483214378356934,0.27923324704170227,-0.8930270671844482,-2.7607245445251465,0.6116326451301575,-0.775320827960968,1.0203893184661865,-0.09173445403575897,0.24297219514846802,-0.1627388894557953,0.10290466994047165,-0.2023746520280838,0.44104626774787903,-0.07976946979761124,2.7244882583618164,-0.4508858323097229,-0.37901148200035095,-1.0086452960968018,1.9469883441925049,0.70881587266922,-0.23496772348880768,1.7118372917175293,0.22659361362457275,-0.7666759490966797,-1.1877695322036743,-1.0664669275283813,0.2077673226594925,1.9716408252716064,1.2370350360870361,0.023200515657663345,0.1328267604112625,2.1954264640808105,0.6293620467185974,2.2451438903808594,-0.764720618724823,-0.8616637587547302,1.7411744594573975,1.639968752861023,-1.5951069593429565,-1.1378287076950073,-0.6321806907653809,0.333263635635376,-2.056802988052368,-1.0131845474243164,-0.45441141724586487,-0.10814327001571655,0.7709886431694031,0.6178613305091858,0.8585646748542786,-0.2494683712720871,-0.508484423160553,1.0337806940078735,-1.8210405111312866,1.0436689853668213,0.3871108889579773,1.0877350568771362,-0.4928036332130432,0.7272782921791077,1.3380589485168457,-0.24013099074363708,1.5281814336776733,0.10563398152589798,-0.8651771545410156,-2.216031789779663,-1.0671099424362183,0.1946687400341034,2.0687038898468018,0.7440072894096375,-1.2692068815231323,-0.7552343010902405,0.679852306842804,2.0056474208831787,-0.3528214395046234,0.7803475260734558,-0.6153951287269592,0.7095659375190735,0.4131496548652649,1.8775782585144043,0.25767043232917786,-0.7440256476402283,1.8284754753112793,-0.5663621425628662,-1.9601833820343018,-0.9170815944671631,0.5657178163528442,0.9991135597229004,-0.7317894697189331,-1.4647362232208252,-1.1547991037368774,-0.7640452980995178,0.9011715650558472,-0.15614739060401917,-0.30514609813690186,-0.8469342589378357,-0.050548288971185684,-1.1671518087387085,1.672346591949463,1.2694387435913086,2.2723207473754883,-0.033919718116521835,-0.3363332748413086,-0.4703793227672577,1.1163358688354492,0.017241083085536957,1.6616754531860352,0.2266857773065567,-2.2970759868621826,1.1300512552261353,-1.1785001754760742,-1.475131869316101,-0.13938657939434052,-0.5522034764289856,1.9282406568527222,-0.3742036819458008,-0.2255106419324875,0.04533328860998154,0.4759194552898407,3.8991174697875977,0.8569877743721008,0.5800890922546387,1.6196249723434448,0.6583545804023743,1.0266581773757935,-0.0024451895151287317,0.019026093184947968,-0.056044530123472214,-0.01225148607045412,-1.136584758758545,0.14224284887313843,0.16302461922168732,-0.029069947078824043,-2.3578338623046875,0.5825159549713135,0.45366546511650085,0.20129476487636566,0.37013182044029236,-0.5684141516685486,-0.51219242811203,-1.4864648580551147,0.31272152066230774,1.5592427253723145,1.9296451807022095,-0.6726003885269165,1.3222713470458984,-1.7702323198318481,-1.5419209003448486,0.5955142378807068,2.961995840072632,-0.8374362587928772,-1.667890191078186,-1.2853939533233643,-1.2812671661376953,1.7607825994491577,-2.020362377166748,-0.4851166605949402,-0.06436808407306671,-2.1823601722717285,-0.6286425590515137,0.4274013936519623,-0.6442884802818298,1.0433069467544556,0.1787901073694229,-0.3046858608722687,0.5136615037918091,1.2460788488388062,2.88224720954895,1.2987197637557983,1.3752669095993042,-0.417317271232605,0.8695257306098938,2.07088565826416,-0.43448564410209656,-0.3220928907394409,1.5158904790878296,-1.2661198377609253,-2.3278868198394775,-2.7713146209716797,-0.4823518395423889,-0.42048659920692444,-0.3099619448184967,-2.268864870071411,-0.4381856918334961,-1.7582118511199951,-2.3820888996124268,-1.0586813688278198,-1.1950762271881104,-1.1322054862976074,-0.43621376156806946,1.8824102878570557,-0.30913764238357544,-0.4590024948120117,0.6166030168533325,-0.12265993654727936,-0.4750789403915405,1.5703915357589722,2.15631365776062,-0.6211980581283569,-1.6452679634094238,1.7194768190383911,-0.5674683451652527,0.029274066910147667,-0.40838566422462463,-0.028939848765730858,-0.36605188250541687,-2.3664934635162354,-1.3091377019882202,-1.3833204507827759,0.3614636957645416,-0.36092719435691833,-2.2672414779663086,0.36108919978141785,-1.3703285455703735,0.277066707611084,-0.6765403747558594,0.7411686182022095,1.710755705833435,-1.1113762855529785,-0.2295243889093399,0.13299885392189026,2.281247138977051,0.06537619978189468,0.5420348644256592,-1.5804601907730103,0.4416966736316681,0.4783739447593689,1.229162573814392,0.6943084597587585,1.5302894115447998,0.3044660687446594,1.6203210353851318,-0.6232588887214661,1.01992928981781,1.9267827272415161,-0.9562963247299194,-0.9110197424888611,0.061352722346782684,-0.30366820096969604,-0.23628202080726624,-1.4008694887161255,0.08275137096643448,0.5965770483016968,0.02975604683160782,1.2051249742507935,-1.8112140893936157,-1.3548303842544556,2.256955623626709,0.9744144678115845,-0.14653724431991577,2.137791156768799,1.2704633474349976,1.6716549396514893,-1.2545040845870972,0.7727080583572388,-0.8181150555610657,1.2946146726608276,1.5598390102386475,-0.1027393639087677,-0.5947725772857666,-0.27665475010871887,-1.0662742853164673,0.7088093757629395,0.49648430943489075,-2.0606489181518555,-0.2692647874355316,1.3920878171920776,2.3831799030303955,0.5255963206291199,1.8152730464935303,-0.9773800373077393,-1.836444616317749,1.602179765701294,3.8288915157318115,-1.2120323181152344,-0.40826475620269775,-0.18428945541381836,1.5169004201889038,-0.9771024584770203,-0.6299543380737305,1.2181843519210815,2.4197072982788086,1.1139228343963623,0.6186082363128662,-0.5573142766952515,-2.1258468627929688,-0.3310176134109497,0.6921188235282898,0.49128544330596924,1.94601571559906,2.0016446113586426,-0.47297489643096924,-1.0503079891204834,0.47644278407096863,-0.38869020342826843,-0.26354947686195374,1.7814323902130127,0.3237662613391876,0.430941104888916,-2.717710256576538,-2.044722318649292,1.0300391912460327,-0.6554496884346008,-1.911926507949829,0.1023767963051796,0.3583395481109619,-1.307845950126648,1.5270243883132935,-1.1869821548461914,1.8869874477386475,-1.7723697423934937,-0.822121262550354,0.43261635303497314,0.34292203187942505,0.6295390725135803,-0.12614475190639496,0.8644201159477234,-0.6500591039657593,-0.4936732351779938,0.09244860708713531,3.1083407402038574,1.309417963027954,-0.4045986235141754,-1.4964745044708252,-1.5829377174377441,-0.17850710451602936,1.3622374534606934,0.22468088567256927,0.7078072428703308,-0.0008386977133341134,1.1019874811172485,-1.9336458444595337,0.6176838278770447,-0.5532918572425842,1.1331865787506104,0.38357406854629517,-0.2429007589817047,-0.5781998038291931,0.4607359766960144,-3.800579309463501,1.6135250329971313,-2.9216084480285645,1.2060656547546387,0.2247682809829712,0.3881779909133911,-0.46359843015670776,2.018866539001465,0.3426286578178406,-0.7534320950508118,1.1010671854019165,0.8965305685997009,-0.6099563241004944,0.730729877948761,-1.1243412494659424,0.5839458703994751,0.29748305678367615,-0.8953382968902588,-0.6593872308731079,0.292341023683548,0.13269704580307007,0.7482951879501343,-1.095933437347412,1.2762855291366577,0.12095829099416733,-0.42491599917411804,0.19379331171512604,0.49762436747550964,1.6949373483657837,0.09792397171258926,0.17243584990501404,-1.246989369392395,0.603594958782196,-1.3201274871826172,0.3833574950695038,1.8758249282836914,-0.06204098090529442,-0.6021658182144165,0.08971305191516876,0.12720134854316711,0.5426955819129944,2.624466896057129,-0.4394790530204773,0.9729102849960327,0.8421352505683899,-1.8023689985275269,-2.184267997741699,-1.7999536991119385,-0.07541011273860931,0.9426494836807251,-3.190216064453125,-1.530691146850586,0.27493754029273987,-1.5739376544952393,0.30303069949150085,-0.34438449144363403,0.4619746804237366,0.6038495302200317,-0.007124500814825296,-1.27812922000885,-0.020684119313955307,0.4208853542804718,0.6446059346199036,0.8020826578140259,1.5208940505981445,-0.2792905867099762,0.4398532211780548,0.5718725323677063,-0.4677266776561737,-0.7408017516136169,1.3003453016281128,-1.3083912134170532,0.15596964955329895,-1.2614099979400635,-2.325591802597046,0.2462674081325531,1.2348854541778564,-0.7582535147666931,0.011333541944622993,-0.8553162217140198,-2.0809988975524902,0.4742446541786194,0.6491849422454834,-0.28691914677619934,0.8896175026893616,-1.2502723932266235,-0.44463226199150085,