{"type":"LSTM","options":{"inputSize":33,"inputRange":33,"hiddenLayers":[20,20],"outputSize":33,"decayRate":0.999,"smoothEps":1e-8,"regc":0.000001,"clipval":5,"maxPredictionLength":2,"dataFormatter":{"indexTable":{"1":16,"2":19,"3":21,"4":22,"5":25,"c":0,"o":1,"r":2,"h":3,"e":4,"t":5,"s":6,"[":7,"]":8,"m":9,"u":10,"a":11," ":12,"n":13,"d":14,"l":15,"i":17,"p":18,"g":20,"q":23,"z":24,"y":26,"f":27,"v":28,"b":29,"stop-input":30,"start-output":31,"unrecognized":32},"characterTable":{"0":"c","1":"o","2":"r","3":"h","4":"e","5":"t","6":"s","7":"[","8":"]","9":"m","10":"u","11":"a","12":" ","13":"n","14":"d","15":"l","16":"1","17":"i","18":"p","19":"2","20":"g","21":"3","22":"4","23":"q","24":"z","25":"5","26":"y","27":"f","28":"v","29":"b","30":null,"31":null,"32":null},"values":[{"input":"corchetes","output":"[]"},{"input":"muestrame unos corchetes","output":"[]"},{"input":"dame unos corchetes","output":"[]"},{"input":"hola","output":"1"},{"input":"hola merlina","output":"1"},{"input":"pon la musica para dormir","output":"2"},{"input":"pon la cancion para dormir","output":"2"},{"input":"musica para dormir","output":"2"},{"input":"cancion para dormir","output":"2"},{"input":"dormir","output":"2"},{"input":"gracias","output":"3"},{"input":"muchas gracias","output":"3"},{"input":"se te agradece mucho","output":"3"},{"input":"se te agradece","output":"3"},{"input":"como estas","output":"4"},{"input":"como estas merlina","output":"4"},{"input":"hola como estas merlina","output":"4"},{"input":"hola como estas","output":"4"},{"input":"merlina como estas","output":"4"},{"input":"porque no puedo estar descalza","output":"5"},{"input":"porque no puedo andar descalza","output":"5"},{"input":"no puedo andar descalza","output":"5"},{"input":"no puedo estar descalza","output":"5"},{"input":"no puedo estar descalza merlina","output":"5"},{"input":"si estoy descalza me puedo enfermar","output":"5"},{"input":"si ando descalza me van a poner una inyeccion","output":"5"},{"input":"si ando descalza tengo que tomar antibiotico","output":"5"},{"input":"carolina puede estar descalza","output":"5"},{"input":"porque no puedo estar descalza en el piso","output":"5"},{"input":"porque no puedo andar descalza en el piso","output":"5"},{"input":"no puedo andar descalza en el piso","output":"5"},{"input":"no puedo estar descalza en el piso","output":"5"},{"input":"no puedo estar descalza en el piso merlina","output":"5"},{"input":"si estoy descalza en el piso me puedo enfermar","output":"5"},{"input":"si ando descalza en el piso me van a poner una inyeccion","output":"5"},{"input":"si ando descalza en el piso tengo que tomar antibiotico","output":"5"},{"input":"carolina puede estar descalza en el piso","output":"5"}],"characters":["c","o","r","h","e","t","s","[","]","m","u","a"," ","n","d","l","1","i","p","2","g","3","4","q","z","5","y","f","v","b","stop-input","start-output","unrecognized"],"specialIndexes":[30,31,32]},"workers":-1},"trainOpts":{"iterations":200,"errorThresh":0.005,"log":true,"logPeriod":10,"learningRate":0.0074,"callbackPeriod":10,"timeout":"Infinity","batchSize":3},"input":{"rows":34,"columns":33,"weights":[-0.2507452368736267,0.23236073553562164,0.20236991345882416,0.2690449357032776,0.016796452924609184,0.6340703964233398,-0.1352860927581787,0.1236322894692421,-0.18238931894302368,-0.22620023787021637,-0.24907760322093964,1.6393929719924927,-0.3095599114894867,0.26850900053977966,-0.32304003834724426,0.4412258267402649,0.265974223613739,0.08121645450592041,0.3943854570388794,-0.05794849246740341,-0.4515855610370636,0.09585364907979965,-0.23754630982875824,0.024628525599837303,0.05244191735982895,0.156738743185997,-0.14368301630020142,-0.08865851163864136,-0.33208951354026794,-0.11476541310548782,1.1914079189300537,0.3093665838241577,0.10061635822057724,-0.2646861970424652,-1.374804973602295,-0.4275287389755249,-0.4406127333641052,-0.1465592384338379,2.2046422958374023,-0.30025720596313477,0.18330051004886627,1.1768444776535034,0.022614818066358566,0.1585642695426941,0.12816067039966583,1.4543845653533936,1.7156065702438354,0.41354843974113464,-0.502896249294281,-0.19351011514663696,-0.3928898870944977,-1.257895827293396,0.7653344869613647,-0.9644961357116699,-0.2909872531890869,-1.626710295677185,-0.08115464448928833,1.5047540664672852,-0.1679416298866272,-0.3757607936859131,-1.4526361227035522,0.24496068060398102,0.48212486505508423,1.5369340181350708,1.5512157678604126,3.247196912765503,-0.21927137672901154,-0.23502248525619507,-0.46630048751831055,0.2693746089935303,0.49936020374298096,0.5807898044586182,0.3351640999317169,0.45728111267089844,-0.10691839456558228,0.04029376432299614,-0.10725229978561401,0.0323508083820343,0.21631619334220886,0.1301988959312439,0.6727399826049805,-0.5936180949211121,-0.06527725607156754,1.019048810005188,-0.03160400316119194,-0.6274991631507874,-0.08532202243804932,0.18098340928554535,0.21689310669898987,0.15325219929218292,0.2891516387462616,-0.16894909739494324,0.30463171005249023,-1.103949785232544,-0.28736522793769836,0.5608792304992676,-0.6562952399253845,0.8702154159545898,0.7387664914131165,-0.5494776964187622,2.251803159713745,-1.6533942222595215,1.7105873823165894,-2.265760660171509,-1.8577251434326172,0.9479480385780334,-1.7520673274993896,-2.0562257766723633,0.42303556203842163,-0.2247907668352127,-1.2535046339035034,-0.03418106585741043,0.481645405292511,1.2573121786117554,-0.8754425048828125,0.3085951805114746,-0.4749298393726349,1.7031704187393188,0.22124603390693665,3.403735637664795,-1.6042943000793457,0.054721392691135406,0.36652809381484985,-0.8285570740699768,-3.1117751598358154,-0.22793874144554138,0.8468654155731201,2.435906410217285,1.7944085597991943,-1.1730663776397705,-1.1170862913131714,-2.2658276557922363,-2.5280277729034424,1.6905266046524048,-1.9890066385269165,0.052582986652851105,-1.1430870294570923,0.731701672077179,1.95423424243927,-0.9712939262390137,-1.235602855682373,1.4284508228302002,-3.0193169116973877,-4.504790306091309,-1.5848450660705566,-1.3635778427124023,2.0095934867858887,-0.13831515610218048,-0.42680394649505615,0.7665988802909851,1.8410241603851318,-1.581176996231079,2.8663482666015625,-1.1885954141616821,-2.1841540336608887,0.27013328671455383,-0.9571278691291809,-1.9540395736694336,0.33565130829811096,0.9253658056259155,2.4655468463897705,1.5175148248672485,-0.48749884963035583,-1.096975326538086,-2.3826770782470703,-2.5177104473114014,1.551087737083435,-2.014688730239868,-1.913673996925354,-0.705778181552887,0.15783622860908508,1.8642137050628662,0.281091570854187,1.8229267597198486,-0.2777348756790161,-1.9323188066482544,-2.416081190109253,-0.16990414261817932,-2.2597310543060303,2.2696523666381836,-2.0791192054748535,-0.8939430713653564,0.942764163017273,-2.29887318611145,-1.2578028440475464,0.28562572598457336,-1.7844337224960327,1.8947745561599731,1.0770455598831177,-2.33066725730896,-2.168968915939331,2.216545343399048,2.5710408687591553,2.8785698413848877,1.9592094421386719,-0.6913512945175171,-1.2470402717590332,-1.5058611631393433,1.4662402868270874,0.9038000702857971,-1.5900986194610596,-1.992601990699768,-0.6186388731002808,0.48120585083961487,-0.1573493927717209,2.984405755996704,1.4844810962677002,-1.4558954238891602,-1.088882327079773,-2.1373064517974854,0.3616933524608612,0.4277946650981903,1.2245761156082153,-0.10883927345275879,-3.508617639541626,2.3629720211029053,-0.9977224469184875,-1.4130123853683472,-0.40833187103271484,0.10198689997196198,0.42204418778419495,3.191737174987793,-0.47157952189445496,-0.34564757347106934,0.9918343424797058,0.398557186126709,-0.6878332495689392,0.7974884510040283,-2.110194206237793,0.19046485424041748,0.5634332895278931,-1.8339508771896362,0.31471526622772217,-0.6417214870452881,1.4226289987564087,-0.44402599334716797,-0.7617486119270325,1.5503976345062256,-0.0758184865117073,-1.5197041034698486,-0.34531745314598083,-0.5399516224861145,-0.3314734399318695,0.12727999687194824,-1.55764901638031,1.6381261348724365,-1.1794987916946411,0.6486322283744812,1.2745416164398193,1.5174959897994995,-0.8105235695838928,0.15695855021476746,-0.8218485116958618,-0.49802830815315247,-0.4047772288322449,-0.30495303869247437,-1.5934362411499023,1.0634980201721191,-0.5086182951927185,0.6804753541946411,1.7120366096496582,-0.7082386612892151,0.5106137990951538,-0.334233820438385,-2.9944021701812744,2.962696075439453,-5.36545467376709,3.9629621505737305,-3.1470115184783936,-2.5178050994873047,1.0917346477508545,-1.1549521684646606,-4.113710403442383,-3.9688191413879395,-0.6195212006568909,-0.3154281973838806,-2.0812525749206543,-0.46644434332847595,4.499347686767578,-2.4906017780303955,-1.4337773323059082,0.5784642696380615,5.7840776443481445,-1.316017985343933,3.4805843830108643,-2.641710042953491,0.8287891745567322,1.8863353729248047,-0.7820467352867126,-5.12522554397583,-0.6148661375045776,0.311500608921051,4.883476257324219,7.082648277282715,1.7354930639266968,-1.2717931270599365,-2.0890653133392334,0.06136620044708252,-0.880073606967926,0.569694995880127,3.0481321811676025,1.039996862411499,0.6853532195091248,-0.17477397620677948,2.3013954162597656,-1.562578797340393,-2.9623799324035645,-0.8483116626739502,3.4982831478118896,-1.8199877738952637,1.3232970237731934,-0.9462984800338745,1.0538700819015503,-0.3383956551551819,1.0037363767623901,3.2485926151275635,-0.05253063514828682,0.0942763015627861,1.1156573295593262,-2.955174207687378,0.36032065749168396,2.3859055042266846,1.678134799003601,-2.3051986694335938,-2.450054883956909,-1.7526429891586304,0.6079274415969849,1.7048382759094238,0.7906776666641235,-0.6529710292816162,-1.969417929649353,-0.8297878503799438,0.7201433777809143,-3.070356845855713,1.4228308200836182,2.4903576374053955,-0.06340621411800385,0.5152708888053894,1.4228774309158325,-1.1762917041778564,-1.1630587577819824,-2.775092840194702,0.8410695195198059,-0.037428248673677444,-0.6700590252876282,0.8035310506820679,-1.5399305820465088,1.9688729047775269,-2.49838924407959,-0.6492552161216736,0.24597585201263428,0.9997485280036926,-0.09455712884664536,1.2914599180221558,0.42363083362579346,1.1579341888427734,0.8001763224601746,-0.3871239721775055,1.6816489696502686,-0.9432476162910461,-2.5616347789764404,0.06556005775928497,0.08423028886318207,-1.4809017181396484,1.6630065441131592,0.26595544815063477,-3.4138424396514893,-1.5658825635910034,1.9517265558242798,0.14117981493473053,0.10910899192094803,3.3734853267669678,0.7443115711212158,-0.05099751427769661,-0.28550291061401367,2.333739757537842,-1.9599566459655762,-0.4464816153049469,-0.25536417961120605,0.06279332935810089,-0.3182834982872009,-2.990307331085205,0.5415045022964478,1.9326214790344238,-1.1711293458938599,2.1833009719848633,0.0618751160800457,-2.0918681621551514,-0.9618967175483704,-0.5408313870429993,2.3662726879119873,0.4036141037940979,-0.12713943421840668,-1.3021745681762695,-1.6213620901107788,-0.9322230219841003,0.012267150916159153,-0.6000561118125916,0.08147288113832474,0.8907232284545898,0.32610079646110535,-0.9216811656951904,0.5571108460426331,-0.22038349509239197,-1.3725903034210205,0.02867087349295616,0.4387669265270233,0.48499271273612976,-0.8746005892753601,-0.4356173276901245,-0.09782588481903076,-0.6244621276855469,0.5044569969177246,-0.8582135438919067,1.0415221452713013,-0.1559537649154663,0.2548542618751526,0.2273840308189392,0.3583695888519287,-0.5818694829940796,-0.04752056673169136,0.20051026344299316,1.1866956949234009,-0.4269234538078308,-0.0484653078019619,0.03082408383488655,-0.2895171344280243,-0.2520078420639038,-0.345520943403244,-0.5284413695335388,0.8366607427597046,0.575317919254303,-1.2785624265670776,-0.8734239339828491,1.5186752080917358,0.3401903510093689,-0.3192816376686096,0.885823667049408,0.8381425142288208,-0.2755853235721588,-0.054649267345666885,0.871040940284729,-2.161586046218872,-0.3153876066207886,-0.42297932505607605,0.4871599078178406,-0.38444390892982483,-1.662143349647522,0.38700801134109497,1.3220773935317993,-1.0770717859268188,1.3296194076538086,-0.12293730676174164,-1.8210307359695435,-0.5782328844070435,0.3725995421409607,1.2859711647033691,0.03800896555185318,0.09928523004055023,0.13824747502803802,-1.3907350301742554,-0.2441086322069168,-2.4460887908935547,2.780782699584961,0.33199453353881836,-1.5657285451889038,-0.41675350069999695,0.19772204756736755,2.6750340461730957,0.6296535730361938,0.9248929619789124,-1.3425296545028687,-2.0618479251861572,-3.2611682415008545,-1.1601121425628662,-0.12411759793758392,-0.4859444200992584,-3.211531400680542,-1.4225332736968994,1.1159170866012573,-0.21373994648456573,-1.174443006515503,0.9819498658180237,-2.4060630798339844,-2.0019636154174805,0.9405036568641663,-1.6825538873672485,-1.277160406112671,2.444993495941162,0.10689675807952881,1.0219722986221313,0.40703079104423523,-1.2430205345153809,-1.7128952741622925,-1.0192251205444336,-0.42708155512809753,0.26418524980545044,-0.9512672424316406,-0.16429029405117035,0.29717788100242615,0.60896235704422,0.6968055963516235,4.014797210693359,0.025795353576540947,-3.1022229194641113,-1.7457510232925415,-0.5216254591941833,-0.8637514114379883,0.3670770227909088,-0.09666211903095245,-0.6732975840568542,-2.1781105995178223,0.824807345867157,0.886043906211853,-1.7771308422088623,0.6579254269599915,0.602712094783783,-0.8394319415092468,1.7440168857574463,0.24902036786079407,0.6067845821380615,2.3308961391448975,-0.7800148129463196,-0.1812869906425476,0.08770374953746796,-0.5149656534194946,-0.22805221378803253,-0.5307204723358154,1.5051147937774658,-3.8064522743225098,-0.012798881158232689,-0.602947473526001,0.11115255206823349,0.670909583568573,-2.889057159423828,-0.765710175037384,0.29477718472480774,-1.2081905603408813,1.1858688592910767,0.6284420490264893,0.4131335914134979,1.7507206201553345,-0.5283717513084412,0.641601026058197,-0.8070541620254517,-1.7500791549682617,-0.973876416683197,0.20849557220935822,-0.8035711646080017,0.4339700937271118,0.7198753952980042,0.2128968983888626,0.8002134561538696,1.594624638557434,-1.7200555801391602,1.1909080743789673,0.9986188411712646,-0.6689583659172058,1.8134046792984009,0.8952307105064392,2.184390068054199,0.4703443646430969,1.5558487176895142,-2.557363986968994,6.948057174682617,-3.0053696632385254,-6.3837432861328125,1.6166579723358154,-0.4595593512058258,-6.5138044357299805,-2.9142677783966064,-0.11599491536617279,-2.554065465927124,-2.841139078140259,-1.886139988899231,3.347653865814209,-2.580796480178833,-2.129506826400757,-0.31117352843284607,6.593468189239502,-2.09818959236145,2.2698895931243896,-2.912721872329712,3.903118133544922,0.9831025004386902,-2.1000428199768066,-2.522650957107544,0.799143373966217,4.61621618270874,1.1569831371307373,3.0010337829589844,-1.43169367313385,-3.400198221206665,-3.7905774116516113,-0.852307915687561,-0.41289108991622925,-0.5225566625595093,1.35225510597229,-0.4700412154197693,-2.9429261684417725,0.28975939750671387,0.7800544500350952,-1.4270871877670288,-1.7271156311035156,0.23275582492351532,-0.3139767348766327,-0.7749904990196228,0.2225448489189148,0.4288786053657532,0.799846351146698,-0.3953791558742523,0.1360732764005661,1.7892128229141235,0.4310772120952606,-0.2183827906847,1.2219414710998535,0.14207863807678223,0.09350541234016418,0.26840242743492126,1.0369590520858765,-0.9810055494308472,0.26083874702453613,1.1346843242645264,-0.34140342473983765,-0.3165470063686371,0.1781599223613739,-0.9149802923202515,0.8572677969932556,1.4424245357513428,-0.5745964050292969,2.510171413421631,-0.546494722366333,-2.640842914581299,1.4963083267211914,0.12145187705755234,-1.6917614936828613,-0.5511781573295593,0.6676821708679199,0.3739725649356842,-0.2963959574699402,-1.5562517642974854,1.074390172958374,-1.4947435855865479,1.7815428972244263,0.6519297957420349,1.0808665752410889,-0.7508313059806824,-1.1210737228393555,-0.7113119959831238,-0.07775350660085678,-1.180490255355835,-2.718761682510376,-0.6304120421409607,-0.16029608249664307,0.4123060703277588,-1.6143065690994263,0.768165111541748,-0.27170199155807495,0.5627468824386597,-0.09127861261367798,-1.6606985330581665,-4.407320499420166,2.997828483581543,0.5216146111488342,3.8521227836608887,-0.8243022561073303,-0.7198477983474731,0.8613469004631042,-1.2120269536972046,-0.024660974740982056,-1.6852904558181763,1.2552237510681152,-2.271806478500366,-1.4690639972686768,-3.065016269683838,2.7193024158477783,-1.3451367616653442,1.244325041770935,2.6007232666015625,-2.1612255573272705,1.53775954246521,3.088956356048584,-2.442831516265869,0.5729440450668335,3.144129753112793,3.2439191341400146,0.8198368549346924,-3.5307836532592773,-0.16506130993366241,-2.1258482933044434,0.3418176472187042,-0.12619352340698242,-0.33897775411605835,-1.3537962436676025,4.253931522369385,-3.8950400352478027,2.3978583812713623,-3.9958369731903076,-2.9533190727233887,0.5694285035133362,-0.9623178243637085,-2.544022560119629,0.06032215431332588,-0.4220089316368103,0.1899333894252777,-2.916149377822876,3.4323809146881104,2.6894657611846924,-1.9240642786026,0.5340850949287415,-0.6939501166343689,2.3648312091827393,0.14095062017440796,4.237885475158691,-2.812609910964966,-1.176690936088562,0.40343379974365234,1.0635640621185303,-5.932010173797607,1.0471919775009155,1.3029289245605469,2.6905105113983154,5.1887526512146,1.545188069343567,-0.917404294013977,-1.0754913091659546,0.16444970667362213,-5.013811111450195,0.9368425011634827,3.6637303829193115,1.56635320186615,-4.138894557952881,1.1613092422485352,0.3791293501853943,-3.5104117393493652,-1.894196629524231,-0.9438626766204834,2.219433307647705,-1.8965829610824585,-1.8309855461120605,-0.4490302503108978,-0.4334768056869507,0.06012361869215965,-0.9121253490447998,4.1104512214660645,-0.7227197289466858,0.8555701375007629,-1.1791024208068848,0.07009217143058777,-0.5752900838851929,1.3318108320236206,0.6772305965423584,-1.7450240850448608,-1.0380977392196655,-0.10038448870182037,-0.11765388399362564,2.4684553146362305,-2.9106218814849854,-2.3015060424804688,1.1003892421722412,-4.010890007019043,2.0305416584014893,1.7497975826263428,1.0861376523971558,-1.6305190324783325,-1.9252874851226807,0.5357220768928528,-2.6471047401428223,0.7226366400718689,-0.7500314116477966,1.527590036392212,-2.7097325325012207,0.336721807718277,-2.754382371902466,3.856644868850708,-0.759477972984314,-0.31252536177635193,3.3863160610198975,0.4879365563392639,-2.6345415115356445,0.3314723074436188,-1.904659628868103,-0.46744969487190247,2.581458330154419,1.51650869846344,0.0888330265879631,-0.19321170449256897,-0.08509672433137894,-2.110297441482544,1.7708178758621216,-1.3843075037002563,-1.3099581003189087,2.977494239807129,3.7343060970306396,2.1156198978424072,1.7364232540130615,-2.068549871444702,-4.02734899520874,2.572401523590088,0.4210176169872284,-2.995666027069092,-0.5876973867416382,-1.9406969547271729,0.20844125747680664,-1.2576769590377808,-3.704540967941284,-1.3285391330718994,0.5751805305480957,-1.1157480478286743,0.8480396270751953,1.6781879663467407,-1.0715240240097046,0.2950759828090668,-0.7351343631744385,3.9690768718719482,1.1121612787246704,-5.261045455932617,0.10811753571033478,0.5821592211723328,5.159246921539307,-2.6874165534973145,-1.3472188711166382,0.5547439455986023,-5.668286323547363,-4.603639125823975,0.0025452205445617437,-1.5021144151687622,0.9081000685691833,-1.0436084270477295,0.8783671259880066,0.30138903856277466,-1.4835968017578125,-0.13379737734794617,0.3522752523422241,0.4261241853237152,-0.48377180099487305,-0.0005023875855840743,0.634920060634613,0.6563093662261963,-0.8626644611358643,1.7654544115066528,-1.0750232934951782,0.8319978713989258,-0.4725765883922577,0.7821836471557617,-0.601357102394104,1.2361491918563843,-0.22787690162658691,0.6424104571342468,1.1348222494125366,1.947766661643982,-2.030579090118408,-0.3816613554954529,0.2580244243144989,-1.5229953527450562,0.7361577153205872,-0.21033386886119843,-0.14838255941867828,2.124244451522827,-0.37147262692451477,0.5778763890266418,1.6059465408325195,0.5563876628875732,-0.7675985097885132,-0.6711950302124023,0.7219899892807007,-1.2830766439437866,-0.628227710723877,0.7584295272827148,0.8688469529151917,-1.9103796482086182,1.826731562614441,-0.6774230599403381,1.1187021732330322,0.024564385414123535,-0.8445789217948914,2.0987071990966797,0.27354446053504944,-1.1068100929260254,1.564614176750183,-1.399167776107788,0.011527800932526588,1.1196478605270386,1.9732874631881714,0.3493548035621643,-0.3898578882217407,-1.2246795892715454,-1.1515841484069824,0.12161430716514587,0.10983482748270035,-0.2601814866065979,8.158673286437988,3.9603803157806396,2.9753496646881104,-1.2246737480163574,-1.820467233657837,1.443369746208191,-1.7626699209213257,0.1749269962310791,1.0581865310668945,1.3625102043151855,1.4103256464004517,-0.4451187551021576,-1.6443779468536377,-0.21991917490959167,-2.9966721534729004,-0.020923128351569176,3.609506368637085,-2.621338129043579,-1.0831456184387207,-1.206700086593628,-1.6934499740600586,-1.013659119606018,0.6492362022399902,-1.8654392957687378,-0.9504944682121277,-2.1479856967926025,2.8388264179229736,0.4590713083744049,-6.840122222900391,-0.5721554756164551,-9.410091400146484,-0.6050856709480286,-3.402397632598877,1.3608611822128296,0.9959113597869873,-5.234554767608643,-3.337345838546753,3.161261558532715,2.3314809799194336,-4.154198169708252,5.57402229309082,3.1600615978240967,-1.4370321035385132,-1.3238149881362915,-5.182845115661621,1.1794712543487549,1.0166239738464355,4.798660755157471,4.050320625305176,-2.801851511001587,2.9667892456054688,-0.6727644801139832,-2.7658379077911377,-1.5353472232818604,6.060295104980469,0.0994725227355957,4.148887634277344,0.8545145392417908,2.3681366443634033,1.3511441946029663,-0.6501439809799194,0.03498753532767296,2.416996955871582,-8.434229850769043,2.9774818420410156,2.581573963165283,2.1059927940368652,2.3374505043029785,1.1952744722366333,4.974633693695068,-5.733948230743408,-0.9153546094894409,5.954416751861572,2.9683008193969727,-2.8422234058380127,-3.0596446990966797,-1.5736645460128784,2.059086322784424,-2.090296506881714,-3.1009228229522705,0.28977957367897034,-7.636027812957764,-2.5055978298187256,2.629720449447632,1.800913691520691,-5.352632999420166,2.9982619285583496,-7.106317520141602,5.397086143493652,0.8921851515769958,-1.9229639768600464,0.5892878770828247,3.2576406002044678,6.426145553588867,-2.812415599822998,0.34095147252082825,-0.40442296862602234,-9.387537002563477,-1.1859582662582397,0.414611279964447,-3.073984384536743,3.772554397583008,-5.3329267501831055,1.064327359199524,4.171092987060547,-6.276977062225342,1.4425110816955566,1.5369125604629517,-1.9171481132507324,-1.8416615724563599,3.5946056842803955,-0.8956351280212402,-0.7834039926528931,-4.074241638183594,1.5918585062026978,-2.7197160720825195,-0.9842008948326111,-2.552597761154175,-0.23257604241371155,-3.740339756011963,-0.19117532670497894,0.5564109683036804,2.8190433979034424,-0.2515823245048523,5.353237152099609,-4.310841083526611,0.8847055435180664,-0.25980108976364136,-4.611479759216309,5.915112018585205,1.0936685800552368,3.380411386489868,0.4244903326034546,-0.8111047148704529,0.7154188752174377,1.0470359325408936,-0.07199593633413315,-1.1144105195999146,-0.7556723952293396,-0.9104465842247009,-1.2732584476470947,1.2504454851150513,-0.06945355981588364,0.783997654914856,-0.8877810835838318,0.6585351824760437,-0.5548513531684875,1.0874989032745361,0.6995635032653809,-0.16083741188049316,2.284548282623291,0.4282183349132538,0.4232410192489624,0.3766719400882721,-0.44086700677871704,-0.48074811697006226,0.7210010290145874,0.4078552722930908,-2.191986560821533,-0.19321876764297485,-0.16810189187526703,-0.5421820878982544,-0.34418338537216187,-0.1128484234213829,-0.7775979042053223,-0.8582431674003601,0.7452300190925598,-0.16579237580299377,-0.48042330145835876,0.31859490275382996,0.4189848303794861,0.651332676410675,0.5145492553710938,0.22724460065364838,-0.16763432323932648,-1.3886306285858154,-1.2613102197647095,-0.035091739147901535,-0.6620380878448486,0.33219754695892334,-0.005612574052065611,-0.6436566710472107,0.659241795539856,-0.18276143074035645,-0.6078377366065979,0.8578468561172485,-0.16616390645503998,0.28882452845573425,0.8186821341514587,-0.485615998506546,-0.30845150351524353,0.54826819896698,0.4111011028289795,0.9861560463905334,0.08611810207366943,-0.7966926693916321,-0.2012544721364975,-1.2043758630752563,-0.017597246915102005,0.044017244130373,-0.05214546248316765,-0.021425636485219002,0.001171404030174017,-0.03523358702659607,-0.021541815251111984,-0.00475959712639451,-0.056877121329307556,0.03741820901632309,0.04892048239707947,-0.06278952956199646,-0.008945867419242859,0.03960346803069115,0.0605713315308094,-0.0031530228443443775,0.04095248878002167,-0.028021473437547684,-0.013196667656302452,0.025052212178707123,-0.05797146260738373,0.052662353962659836,0.02367812767624855,-0.004933388903737068,0.007403883151710033,0.05002180114388466,0.0024583281483501196,0.06247612088918686,-0.029646897688508034,0.034569840878248215,-0.01939300447702408,0.014536857604980469,-0.010841473937034607]},"hiddenLayers":[{"inputMatrix":{"rows":20,"columns":33,"weights":[0.20314210653305054,-0.14198443293571472,0.056305091828107834,0.870030403137207,0.1563875824213028,-1.0789458751678467,-0.35977309942245483,-1.0965139865875244,-0.7608064413070679,0.6629822850227356,0.8054031729698181,0.5887095928192139,-0.09088389575481415,0.3897947669029236,0.01422241423279047,0.4377974271774292,0.40178993344306946,-0.6919299960136414,1.0484352111816406,0.8094769716262817,0.005333630368113518,0.23971296846866608,-0.2727617621421814,-0.19669046998023987,0.08772613108158112,0.10993540287017822,-1.8856290578842163,0.2934602200984955,-0.04214952141046524,-0.22083795070648193,1.2123513221740723,0.1420595496892929,-0.5129965543746948,-0.11916501820087433,-0.539741039276123,0.8080227971076965,0.518246591091156,0.8907378911972046,-0.9198534488677979,-0.5643250942230225,-0.941508412361145,-0.7164413332939148,0.46359971165657043,0.5152652263641357,0.573175311088562,-0.7286514043807983,-0.19255968928337097,-0.9038679599761963,1.4645824432373047,0.698229193687439,-0.4321518540382385,0.6347796320915222,0.21982762217521667,-0.40539318323135376,1.0220822095870972,-0.2104569971561432,-1.0034235715866089,0.07790155708789825,1.038270115852356,-1.6089671850204468,-0.08639833331108093,0.5411298871040344,-1.257949948310852,0.6282360553741455,-0.02965480089187622,-0.6193469762802124,-0.2714165151119232,0.8076174259185791,0.46552932262420654,0.7502994537353516,0.031064622104167938,-0.8918647170066833,0.501910388469696,-0.29632633924484253,-0.4783709943294525,0.6732907891273499,0.15699835121631622,0.5600090622901917,-0.8726831078529358,0.09284256398677826,-0.3533986508846283,0.030279509723186493,1.1042670011520386,0.05707237496972084,1.093588948249817,-0.3228877782821655,0.30675408244132996,-0.07548047602176666,-0.46655452251434326,-1.1263337135314941,-0.12084859609603882,-0.18427732586860657,-0.7097146511077881,-0.24192172288894653,-0.006146601401269436,0.14604273438453674,0.3200191259384155,-0.403039813041687,-0.8230878114700317,-0.3816944360733032,-1.342204213142395,0.875028669834137,0.2942792475223541,0.7675536274909973,0.3460274338722229,-0.0743289440870285,-0.05389191955327988,-0.202324777841568,-0.37343326210975647,-0.1090913861989975,1.0124857425689697,0.45830121636390686,0.6556003093719482,-0.8763431906700134,-0.4676855206489563,0.45832765102386475,0.4077773690223694,-0.3000394105911255,0.35585641860961914,-0.8796626329421997,-0.22571732103824615,0.038432713598012924,-0.08719651401042938,1.4187103509902954,0.7918024063110352,-0.44616612792015076,-1.112125277519226,-0.11479495465755463,-0.3901838958263397,0.05180169641971588,0.20087440311908722,1.16404390335083,-0.7180191278457642,-0.014848275110125542,0.555340588092804,1.1446375846862793,0.006131163332611322,-0.5152103304862976,0.8641546964645386,-0.1950589120388031,-1.1306445598602295,0.4961578845977783,0.164683997631073,1.3779631853103638,0.03568504750728607,-0.8619593381881714,-0.0908408984541893,0.07577161490917206,1.2384438514709473,-0.36438894271850586,0.772720992565155,0.19528543949127197,1.0521682500839233,0.20763470232486725,0.8740403652191162,-1.0664933919906616,-0.3432503640651703,-0.09543971717357635,-0.15610100328922272,0.015164591372013092,-0.0858977660536766,-0.04716562107205391,0.9588922262191772,-0.3273257315158844,-0.6356503963470459,0.653226375579834,-0.24873046576976776,-0.07722339779138565,-0.20849156379699707,0.19066570699214935,-0.42086219787597656,-0.5883135199546814,-0.12124314159154892,0.3558838665485382,0.4978458881378174,0.9707970023155212,-0.21289792656898499,0.364960253238678,0.15327174961566925,0.09818600863218307,0.6995862126350403,0.5557305216789246,-0.41546326875686646,-0.42669543623924255,0.4024118483066559,-0.625791609287262,0.4424116015434265,-0.2263229340314865,-0.29272329807281494,0.013053243979811668,0.34556716680526733,-0.9903399348258972,-0.017200464382767677,-0.3424427807331085,-0.12116797268390656,-0.5166709423065186,0.32150402665138245,0.8452221751213074,0.1487257480621338,-0.26239269971847534,0.7828565239906311,-1.220384955406189,-0.04611101374030113,2.7390525341033936,-1.6788477897644043,0.8823447823524475,1.3625116348266602,0.7845426797866821,-0.3688936233520508,0.6136083602905273,0.7072339057922363,0.5055710673332214,-0.9724483489990234,1.1917957067489624,0.12706387042999268,0.4382646083831787,-0.6014953255653381,0.11078730970621109,0.05007369816303253,0.5336990356445312,0.06699906289577484,0.19069652259349823,0.28529566526412964,-0.2535620331764221,-0.44079482555389404,0.033189207315444946,-0.535857617855072,-0.7503310441970825,-0.5024014711380005,0.7097641825675964,-0.3921871781349182,1.037182331085205,0.2772565484046936,-0.21604429185390472,1.6035029888153076,-0.7057614922523499,-0.8376126289367676,-0.18309593200683594,-1.212857961654663,-1.5147069692611694,0.8423558473587036,0.507362961769104,-0.37423694133758545,-0.7681891918182373,-0.1251697689294815,0.34531882405281067,0.1369742900133133,1.0012949705123901,-1.0387393236160278,1.3986527919769287,-0.41663867235183716,0.19204379618167877,-0.35215359926223755,-0.17761532962322235,-1.10503089427948,-0.13380850851535797,-0.6559112071990967,-0.21336162090301514,0.31783202290534973,-0.28767210245132446,0.29670387506484985,0.035416580736637115,-0.06298910081386566,-0.14868414402008057,0.7461541295051575,0.9507180452346802,-0.11076825112104416,1.6863471269607544,-0.4900118410587311,-0.6558494567871094,0.3763042986392975,-0.6441380381584167,-2.4067234992980957,-0.2515106499195099,0.3195783197879791,-0.8556774854660034,-1.8113420009613037,0.32956352829933167,-0.18548867106437683,-0.29806602001190186,0.15434986352920532,-0.43420132994651794,2.3127102851867676,-0.5293057560920715,0.6923530101776123,-0.5664265751838684,-0.6449229121208191,-0.20296376943588257,-0.007000409532338381,-0.16205286979675293,0.2405809760093689,-0.162699356675148,-0.2208126187324524,0.14200985431671143,0.4348593056201935,-0.5654978156089783,0.0658184140920639,-0.0049197557382285595,-0.808158814907074,0.4677022099494934,-0.29128915071487427,0.9512341022491455,0.7568154335021973,-0.8713195323944092,0.2591184079647064,0.2505398988723755,-0.08461355417966843,0.20817255973815918,0.33966976404190063,0.025196805596351624,1.5787426233291626,-0.7105364203453064,1.0747387409210205,-0.08229747414588928,-0.05595221742987633,-0.06885231286287308,0.49983134865760803,-0.6115633249282837,1.3241862058639526,-0.9928551316261292,0.174430713057518,1.1756104230880737,1.102550745010376,-0.33893781900405884,-0.40210193395614624,-0.16607679426670074,-1.096958041191101,0.2656317949295044,0.8365792632102966,-0.39715442061424255,0.23386766016483307,0.21700753271579742,0.33185824751853943,-0.8599416613578796,0.2635774612426758,1.807437539100647,-0.5308063626289368,2.0644137859344482,0.8459721207618713,-0.7953625917434692,-0.3949710726737976,0.08941297233104706,0.26341208815574646,0.23610538244247437,-0.5517997741699219,0.2746267318725586,-0.9371578693389893,0.7110192775726318,-0.886544406414032,-0.001523494371213019,-1.3501348495483398,0.3672119975090027,0.4015406668186188,0.9100390076637268,-0.1263086050748825,0.6568037271499634,0.5927063822746277,-0.11264064908027649,-0.9933295845985413,-0.20364773273468018,-0.20320551097393036,0.6567071676254272,1.1755471229553223,0.3059004247188568,-0.7699115872383118,0.03784594684839249,-1.7249062061309814,-0.2148755043745041,1.2057976722717285,-0.2495599091053009,0.02421281859278679,0.6337026357650757,-0.7435147166252136,-0.44609951972961426,-0.6804102659225464,-0.05175986513495445,0.11533781886100769,-0.5006151795387268,-0.22563029825687408,-1.3757762908935547,-0.05853787437081337,-1.2128657102584839,0.013769092969596386,-0.30379238724708557,-0.3615247309207916,0.5244857668876648,0.37638425827026367,0.060793712735176086,0.4284072518348694,0.219328373670578,0.7522301077842712,1.0036176443099976,-0.4094555675983429,0.20734544098377228,0.2696020305156708,0.7826474905014038,-0.4516151547431946,-1.232631802558899,-0.06482592970132828,0.5350056886672974,1.074775218963623,0.5272905826568604,-0.22715935111045837,1.0787285566329956,-0.5397886037826538,-0.7978113293647766,-0.5742992162704468,-0.3564700782299042,0.535111129283905,-0.2425924688577652,0.2906690239906311,0.6348960995674133,-0.6816856265068054,0.8001349568367004,0.13057687878608704,-0.7459056973457336,-0.10573706030845642,1.0616965293884277,0.2229814976453781,0.8136295676231384,1.0386525392532349,0.33122292160987854,0.44653117656707764,-1.3779929876327515,0.5311283469200134,-0.12347237765789032,-0.5955697298049927,1.2830997705459595,0.6527097821235657,0.39206796884536743,-0.2125166803598404,0.3738524615764618,0.4903836250305176,-0.06607889384031296,-0.7840812802314758,-0.4314154386520386,0.3333185017108917,-0.8180232644081116,-0.23822517693042755,-0.2720651924610138,0.6602079272270203,-0.7362383604049683,0.24740493297576904,-0.6356111764907837,0.6724404096603394,-0.45113828778266907,-0.01912868395447731,0.5858398675918579,0.18876974284648895,-0.2960137128829956,0.16047197580337524,0.3317054510116577,0.6510582566261292,0.4618328809738159,1.2637735605239868,-0.9478755593299866,0.24659809470176697,-0.05006790906190872,-0.5731701254844666,0.7431281805038452,-0.43797430396080017,-0.12304113805294037,0.5971615314483643,-0.604832649230957,0.22644902765750885,-0.9485233426094055,0.1837121695280075,2.016299247741699,-0.5109387636184692,1.3742656707763672,1.0066349506378174,-1.074217677116394,0.715928852558136,1.4370300769805908,0.8091527819633484,0.13636162877082825,-0.7740675806999207,-0.39804932475090027,-0.09735782444477081,-0.28385311365127563,-1.3163508176803589,-0.04718230664730072,-0.8865509629249573,0.544072151184082,0.6146312355995178,0.022449159994721413,0.2427353858947754,1.267073392868042,0.8814126253128052,-0.44619402289390564,-1.7313232421875,-0.05952294170856476,-0.17649593949317932,-0.022038519382476807,1.5701237916946411,0.10821535438299179,-0.32173293828964233,-1.1756569147109985,0.11749015748500824,0.6239851713180542,-0.25921982526779175,-0.535417914390564,0.31599652767181396,-0.1804284304380417,-1.1031111478805542,-1.2862566709518433,-0.3728097081184387,-1.1238927841186523,0.5518360137939453,1.0286164283752441,0.1547670066356659,-1.3999359607696533,1.291703224182129,0.6832980513572693,-1.320644497871399,-0.8561441898345947,0.41587916016578674,-0.6567872166633606,1.0205086469650269,0.6738879084587097,0.054898880422115326,0.2627304196357727,-0.4025229513645172,0.8165273666381836,0.5976978540420532,0.49760258197784424,0.6874526143074036,0.020690035074949265,-0.24496051669120789,0.06291135400533676,0.4577925503253937,0.12517641484737396,0.3034389913082123,-0.14841622114181519,0.7851467728614807,0.48541945219039917,-0.17117804288864136,-0.4228529632091522,-0.6360570788383484,0.6758787035942078,-0.2875024080276489,-0.0816122367978096,-0.4321930408477783,-0.1724846512079239,-0.1409946084022522,0.28209188580513,0.15069817006587982,-0.5101020932197571,-0.3274208605289459,0.25142189860343933,-0.07063350826501846,0.020412053912878036,-0.014809579588472843,0.6588001847267151,0.1872321218252182,-0.34488263726234436,-0.24148987233638763,-0.3495325744152069,0.8532130122184753,0.16453471779823303,-0.0103407371789217,0.48448532819747925,1.4676127433776855,0.23627611994743347,0.33165299892425537,-1.7828161716461182,0.03870393708348274,-0.15826696157455444,-1.6386796236038208,0.16051211953163147,0.9297419190406799,0.022822704166173935,1.0168731212615967,0.06856608390808105,-0.22602032124996185,0.09656604379415512,-0.739780068397522,1.4609403610229492,-0.7036253213882446,-0.3206501305103302,0.5590034127235413,0.7324537038803101,-1.7791221141815186,-0.45876672863960266,-0.8066504597663879,-1.1405904293060303,-1.8945292234420776,0.5902131795883179,1.0989785194396973,-0.5135882496833801,0.9599853754043579,0.34751322865486145,-1.2130963802337646,-0.885490894317627,1.3749555349349976,-0.1781659871339798,0.4582310914993286,0.21626178920269012,0.2682146728038788,-0.9489837288856506,-0.20284508168697357,-0.12118224799633026,-0.24142372608184814,0.5105653405189514,0.8865180611610413,0.869137167930603,-0.5523605346679688,-0.5656945705413818,-0.4020397961139679,-0.062348250299692154,0.8643324971199036,-0.5458023548126221,0.16760487854480743,-0.01026887632906437,-0.39051496982574463,0.21541108191013336,0.9619101285934448,-0.9717771410942078,-0.39846593141555786,0.6669144034385681,0.5358958840370178,0.35369399189949036,-1.2066941261291504,-0.4402368366718292,-0.4698692560195923,-0.43654775619506836,-0.3244273066520691,1.1216453313827515,-1.430330753326416,1.390451192855835,-0.3231980800628662,0.46085095405578613,0.7282545566558838,-1.0643285512924194,0.22535692155361176,0.1963292807340622,0.17217764258384705,-0.24367256462574005,1.4727269411087036,0.30928534269332886,0.7510709762573242,-1.4097613096237183,-0.03538104146718979,0.21425646543502808,-0.6331427693367004,-0.13712508976459503,0.4475921392440796,-0.7849939465522766,-0.07646747678518295,-0.045552436262369156,0.10340411961078644,1.1868066787719727,1.0149059295654297,0.5335226058959961,-0.744429886341095,-1.4831485748291016,-0.7148168683052063,-0.175038680434227,0.09789920598268509,0.644249677658081]},"inputHidden":{"rows":20,"columns":20,"weights":[0.6644564867019653,0.43543440103530884,0.9000840783119202,3.198646068572998,3.0532712936401367,-1.1343241930007935,-1.01377534866333,0.6856071352958679,-0.7847888469696045,-0.7611503601074219,-0.9034383893013,-1.2535607814788818,-1.2406712770462036,-1.6140111684799194,0.6526262164115906,-2.4232146739959717,3.3438241481781006,1.0288121700286865,-2.7773711681365967,-1.1729270219802856,0.007952168583869934,0.9291189312934875,1.6608819961547852,2.7759885787963867,0.4419569969177246,-1.0661593675613403,-0.47831934690475464,-0.7661510109901428,-0.8636836409568787,-1.5223486423492432,-0.7194186449050903,0.2220941036939621,-0.3694581985473633,0.1896878480911255,-0.2858065068721771,0.42827075719833374,-0.34902918338775635,1.5263078212738037,-3.04862117767334,-0.01969323307275772,1.5478589534759521,-0.8726783394813538,-0.1965741217136383,1.501193642616272,-0.4603462517261505,1.4540083408355713,-1.51020348072052,0.0828634649515152,-1.3216562271118164,-1.8096065521240234,-2.0635924339294434,-0.7963017821311951,-1.0701037645339966,-0.19996213912963867,2.0564162731170654,-0.9264882206916809,-0.3752524256706238,0.8477381467819214,-2.817064046859741,-1.550639271736145,-0.8762945532798767,1.3601428270339966,-0.47054171562194824,-0.11613654345273972,-1.490363597869873,-0.08912819623947144,-0.7265860438346863,1.8159544467926025,0.01729465276002884,1.668542504310608,-0.01211535558104515,-2.1268630027770996,1.7410215139389038,-1.2115154266357422,2.119847536087036,0.859787106513977,1.7066679000854492,-2.443842887878418,0.23984754085540771,1.473947525024414,-0.17937131226062775,-0.48334768414497375,1.2497007846832275,0.517262876033783,1.1484606266021729,0.33277416229248047,-3.1583778858184814,-0.27243515849113464,-0.5118784308433533,-0.004192727617919445,-2.7175917625427246,-0.9665958285331726,0.7566401362419128,-0.5485020875930786,2.6570777893066406,0.9075706601142883,-1.9382129907608032,0.9004101753234863,0.10350006818771362,-0.04928348585963249,-0.2102421522140503,-1.3961420059204102,1.5344469547271729,3.375520944595337,1.410018801689148,-1.1098586320877075,-2.9478540420532227,-2.7947514057159424,-1.4854341745376587,-0.42312103509902954,-1.7665232419967651,-2.9200937747955322,0.13613265752792358,0.15755775570869446,-1.1929987668991089,-0.608505368232727,1.6812689304351807,1.6941512823104858,-0.033852022141218185,-3.333953857421875,0.18681618571281433,-0.7055062651634216,-0.25849616527557373,0.15251398086547852,0.1604473739862442,-0.8292587995529175,-0.5987399220466614,0.35389068722724915,1.1368834972381592,0.7010513544082642,0.038906946778297424,-1.0567268133163452,0.8305607438087463,1.077414631843567,0.9094898700714111,0.6036571264266968,-0.4771866798400879,-0.6259205341339111,0.4506913423538208,-0.3016436696052551,0.07727412134408951,0.8380105495452881,1.3375121355056763,0.28674620389938354,2.184551477432251,-2.265254259109497,0.6428608298301697,1.5857973098754883,-1.6360334157943726,-0.1591886430978775,-0.48928120732307434,-1.209526777267456,-1.0625511407852173,0.3057165741920471,-1.342748999595642,0.6117204427719116,0.3438347280025482,-0.1813335120677948,-1.8016650676727295,-0.649323582649231,-0.14652377367019653,1.1705281734466553,-1.3853615522384644,0.6594022512435913,-0.8311601281166077,0.7036621570587158,3.3681464195251465,1.7445869445800781,1.3005516529083252,1.7637730836868286,2.084789752960205,0.9220231771469116,1.9528710842132568,-0.17567269504070282,-1.4451994895935059,1.2897368669509888,1.95278000831604,-1.738030195236206,0.5160022974014282,1.5472850799560547,0.5872171521186829,-0.5613530874252319,-1.039642333984375,-1.1161149740219116,-1.057653546333313,3.540709972381592,0.4087756276130676,0.981545627117157,1.6540709733963013,1.1480391025543213,1.786054253578186,0.39539259672164917,1.840584635734558,1.5214171409606934,-0.24769411981105804,0.8379794955253601,0.3895914554595947,-0.21079951524734497,-0.5926998257637024,0.2862403988838196,0.7380912899971008,0.863622784614563,0.9720484614372253,0.6536057591438293,0.9735956788063049,-0.7254936695098877,-0.10638915747404099,2.3971495628356934,0.8660725355148315,0.6343902945518494,-0.3343698978424072,-0.6139489412307739,-0.08914455026388168,0.1790202558040619,0.22622394561767578,0.6820554137229919,1.8484416007995605,-1.9613951444625854,-0.03428777679800987,-0.1445295512676239,-0.4980381727218628,1.1938297748565674,-0.3759569823741913,0.8261662125587463,-0.007716788444668055,1.7245733737945557,1.0302367210388184,1.143074870109558,1.4359235763549805,1.2193526029586792,2.1011157035827637,-0.4285167455673218,0.516086757183075,0.5673858523368835,-1.9573639631271362,0.9226782321929932,0.2109166830778122,-1.977787971496582,-0.6658724546432495,0.6574004888534546,1.8223624229431152,0.4044675827026367,-0.2342563271522522,-1.2214365005493164,-0.0338723361492157,-2.287031412124634,0.4836062490940094,-0.19660678505897522,0.7502934336662292,1.3062644004821777,1.5907542705535889,0.20554794371128082,0.18431857228279114,0.06609994918107986,-0.6111018061637878,0.4603275656700134,-1.4718244075775146,-0.6025853753089905,1.3021985292434692,1.2603358030319214,1.0830975770950317,0.4115139842033386,-0.12976226210594177,-1.6528029441833496,2.9289400577545166,-0.5795163512229919,-0.288502037525177,1.8604180812835693,-0.014567330479621887,0.07101056724786758,-0.3143184185028076,0.1977314054965973,0.23976944386959076,-0.42880678176879883,1.6781405210494995,-0.26640984416007996,0.2577638030052185,-0.4934037923812866,-6.136323928833008,-0.6527706980705261,0.2304958999156952,0.431540846824646,0.3114687204360962,0.5401648879051208,-0.6798816919326782,0.3118043541908264,1.4947047233581543,0.24043837189674377,0.38185980916023254,1.4704011678695679,2.194202184677124,-0.9141893982887268,2.57858943939209,-0.852190375328064,-1.1823261976242065,2.2794511318206787,1.406269907951355,-0.9664077162742615,0.13292445242404938,0.21130411326885223,2.6714491844177246,-1.5187509059906006,-1.7956452369689941,-0.1732819378376007,-1.2796118259429932,0.28001436591148376,0.9984416365623474,-0.1322946846485138,1.5887426137924194,1.2238833904266357,1.4123727083206177,-0.6463634371757507,0.528907835483551,-0.0654793530702591,-0.7037160992622375,0.48900508880615234,-0.8204066157341003,-0.9760123491287231,2.263819456100464,-0.8029792904853821,2.374325752258301,1.5620336532592773,2.2749485969543457,-1.1267434358596802,0.9188958406448364,0.2820819020271301,-2.9660840034484863,0.004662234336137772,0.28087931871414185,-1.1174508333206177,-1.3453829288482666,-2.0107991695404053,0.6636455655097961,-2.987421751022339,3.1716713905334473,-0.3957589864730835,0.9276797771453857,0.3941018283367157,-4.273036003112793,0.13957230746746063,-1.480380654335022,-0.08250569552183151,-0.6442416906356812,0.11848412454128265,-1.6141488552093506,1.0164796113967896,1.033754587173462,-1.0376203060150146,0.8417884707450867,1.6963001489639282,-0.43939024209976196,1.4510098695755005,-0.32170987129211426,-0.20653770864009857,1.3745927810668945,-0.8953296542167664,0.11952222883701324,0.5847172737121582,1.7974807024002075,0.8339710831642151,-0.08528335392475128,-1.9185999631881714,-1.9130302667617798,0.004577777814120054,1.65615975856781,-0.07827706634998322,-3.5962488651275635,-1.7144101858139038,-0.5936768651008606,2.485049247741699,-2.3414227962493896,-0.22285562753677368,1.4668941497802734,1.5689984560012817,0.43012598156929016,0.09290307760238647,-1.7889704704284668,0.682435154914856,1.325281023979187,2.4436676502227783,-1.3029743432998657,1.2759064435958862,-0.3601246178150177,-1.809779167175293,1.8002206087112427,2.919893741607666,-0.21420307457447052,-1.8710099458694458,-0.9684945940971375,0.8693940043449402,0.21047545969486237,0.0717974528670311,0.35892772674560547,-1.3585875034332275,-0.15519165992736816,0.03162453696131706,0.23656660318374634,1.1852940320968628,-1.2025271654129028,1.3593705892562866]},"inputBias":{"rows":20,"columns":1,"weights":[1.8867645263671875,1.391426920890808,1.4621551036834717,0.4357277452945709,0.14828215539455414,0.5772045850753784,1.4732789993286133,-1.0674092769622803,0.742252767086029,0.8065099716186523,0.09034492820501328,-1.099618673324585,-0.8895193934440613,-0.4105384945869446,-0.07278703898191452,0.48459193110466003,0.7027429342269897,2.0369179248809814,-0.2514212727546692,1.4545356035232544]},"forgetMatrix":{"rows":20,"columns":33,"weights":[-1.2714120149612427,1.2736905813217163,-0.5130549073219299,0.24723173677921295,0.5482777953147888,-0.8889035582542419,0.7321682572364807,-0.1323491632938385,-0.021525884047150612,-0.09894495457410812,0.4340578019618988,-0.41905948519706726,-0.015818296000361443,-1.3275309801101685,0.39378076791763306,-0.6874925494194031,0.13972678780555725,-0.14264726638793945,-0.05557483434677124,-0.06297171860933304,0.9386130571365356,-0.8956542611122131,0.5185556411743164,-0.19967034459114075,-1.0900949239730835,-0.6111553907394409,0.11147661507129669,1.2251487970352173,1.0054460763931274,0.49796953797340393,0.7577366828918457,-0.5431579947471619,-0.5448693633079529,1.5525542497634888,-1.2831287384033203,0.5979742407798767,-1.0671406984329224,0.13305683434009552,0.7217118144035339,-1.4180517196655273,-0.08361504226922989,0.6190820932388306,0.1692199558019638,-0.4211483895778656,1.9022876024246216,0.08894718438386917,0.6913086175918579,-0.7721627354621887,-0.23186162114143372,-0.4927815794944763,-0.7000166773796082,-1.5884851217269897,0.03691931441426277,-0.6776387095451355,-0.31300851702690125,-0.18076199293136597,0.3678673803806305,0.42678409814834595,0.723597526550293,0.8162346482276917,-0.37266823649406433,-1.4817850589752197,-0.41226276755332947,1.7255563735961914,0.5994061231613159,1.3394403457641602,-0.6347459554672241,0.852928876876831,-0.3082676827907562,0.10746977478265762,-0.18463164567947388,-0.679664134979248,1.5516185760498047,0.591545581817627,-0.18745750188827515,-0.8213111162185669,-0.2862926721572876,0.19223035871982574,-0.5977447032928467,-0.904970645904541,0.014979004859924316,-0.825270414352417,-0.3375394940376282,0.5529645681381226,-0.05373958870768547,-0.7702917456626892,0.8262522220611572,-0.5181670188903809,0.30034583806991577,0.1463889330625534,-0.3491953909397125,0.29743850231170654,0.522243320941925,0.15605966746807098,0.7881849408149719,0.6416634321212769,0.2448616921901703,-1.0502063035964966,-1.160168170928955,-1.3932236433029175,0.7289608120918274,0.8342389464378357,0.03293953463435173,0.9690796136856079,-0.418916255235672,0.36651429533958435,-1.6440523862838745,-0.4510597586631775,0.8452804684638977,0.6901078820228577,-0.7776266932487488,-0.2921212315559387,-0.9311787486076355,-0.6781298518180847,0.7490719556808472,0.8435609936714172,-0.06537687033414841,0.06962927430868149,0.4266792833805084,1.6043411493301392,0.22870099544525146,0.3805448114871979,-0.837895393371582,-0.35007572174072266,0.6108074188232422,-0.4882611930370331,0.5168549418449402,1.0392521619796753,-0.8366174101829529,-0.9734057188034058,-0.8985098600387573,-1.4429203271865845,1.073587417602539,1.324269413948059,-0.7057731747627258,0.5883649587631226,-0.6043486595153809,-1.78907310962677,0.4560065269470215,0.0889473408460617,-0.828874945640564,-0.12095143646001816,-0.05839015543460846,0.18990400433540344,-0.8188562393188477,-0.1343345046043396,0.8311054706573486,-0.2667042016983032,0.32590681314468384,0.9979780316352844,0.9153128266334534,-0.6926769614219666,0.11181378364562988,-0.10713879764080048,0.4041450321674347,0.19894720613956451,-0.051792386919260025,0.15565049648284912,-0.18082532286643982,0.1784188449382782,-1.7520164251327515,0.8756289482116699,-1.1011465787887573,-0.3756459653377533,-0.12008236348628998,-1.1175384521484375,0.436790406703949,0.7795350551605225,-3.0880038738250732,0.19861094653606415,0.46118396520614624,-0.3032769560813904,0.6761112809181213,2.9181711673736572,0.7713019847869873,0.4365171194076538,-0.7197733521461487,0.9206688404083252,-0.25487467646598816,-0.6610487699508667,0.401789128780365,-0.19066578149795532,0.19028019905090332,-2.1014788150787354,0.6223857998847961,0.06714483350515366,-0.2730601131916046,-0.0191997978836298,0.12291433662176132,-0.823480486869812,0.25406062602996826,-0.7338113188743591,0.6981996297836304,-0.8388645648956299,-0.9842252731323242,-1.4161386489868164,-0.42948299646377563,-0.6819351315498352,-0.12399854511022568,0.5943785309791565,1.4062917232513428,-0.07033734768629074,-0.586520254611969,0.4427568018436432,0.20428945124149323,-0.14072027802467346,0.09560761600732803,1.2403851747512817,0.3066049814224243,1.488824486732483,-0.07978644222021103,-0.5294622778892517,-1.4517476558685303,0.16369017958641052,0.9900751709938049,-0.35724833607673645,-0.5703876614570618,0.798545241355896,0.19061648845672607,-0.5645958781242371,0.7044190764427185,-0.5314891934394836,-0.541881263256073,0.2291325479745865,-0.31194308400154114,0.15547005832195282,-1.175967812538147,-0.8276326656341553,0.7181878685951233,-0.8221228718757629,-0.5877284407615662,-0.7268267869949341,1.0295597314834595,-0.6968799829483032,0.07125116139650345,-0.7024751305580139,-0.7200562357902527,1.0730526447296143,0.18546418845653534,-0.1541471630334854,-0.0629458874464035,-0.24514368176460266,-1.3890540599822998,0.0011054411297664046,-0.6167812943458557,0.7885676622390747,-0.7265934944152832,-0.1504059135913849,-0.02460537478327751,0.3485707938671112,-0.39548826217651367,1.0252141952514648,-0.7139322757720947,0.5944135189056396,0.1941707283258438,-0.7357274293899536,-0.8162989616394043,-0.9565121531486511,0.6041685938835144,1.9032255411148071,0.5923352241516113,0.09410411864519119,-0.7029103636741638,-0.6187042593955994,-1.0385971069335938,-0.4701315760612488,-0.2751927077770233,-0.37566864490509033,-0.0821394994854927,-0.06324280053377151,-0.02762763947248459,0.13903309404850006,0.9261782169342041,0.2838861346244812,0.18380561470985413,0.07353849709033966,1.8586260080337524,0.1431025266647339,0.13547006249427795,0.2628379762172699,-0.40003541111946106,0.5594731569290161,-1.2213891744613647,0.47791916131973267,0.17217658460140228,0.09177763015031815,0.6948198080062866,0.3427186608314514,-0.0017589859198778868,0.40481194853782654,-1.0726616382598877,0.4873886704444885,1.1588994264602661,-0.14658591151237488,0.795514702796936,0.11404995620250702,0.8275254964828491,0.6102001070976257,-0.08618911355733871,-0.8323878049850464,1.8302724361419678,-0.7741225957870483,-0.8502368330955505,-0.4104539752006531,-0.1262335628271103,-1.8508304357528687,0.6479054093360901,0.7641053795814514,0.7027288675308228,-0.8112583160400391,-0.9533175230026245,0.6226261258125305,1.0031431913375854,0.18868334591388702,-0.37923547625541687,1.8197489976882935,0.49248364567756653,1.2677597999572754,0.7422549724578857,0.49280375242233276,-0.19348987936973572,-0.02982434444129467,0.3851921260356903,-0.7827438712120056,1.3830169439315796,-0.22513793408870697,0.17962701618671417,0.36262747645378113,-0.8846063017845154,-1.5675443410873413,1.8810670375823975,-0.8360735177993774,1.3927432298660278,0.40224984288215637,-0.5599862337112427,1.1233638525009155,-1.0140702724456787,-0.48472923040390015,-0.10688991099596024,0.4819193482398987,0.33637306094169617,1.8883960247039795,-0.07445988059043884,0.25275519490242004,-1.4130607843399048,0.20378494262695312,0.448843777179718,-0.6490547060966492,-0.5899605751037598,0.6489613652229309,-0.7675954699516296,-0.8969773650169373,0.47845882177352905,-0.35973745584487915,-0.5501016974449158,1.3593469858169556,-0.3797464370727539,0.45613810420036316,-1.6208772659301758,-0.966953694820404,1.99190354347229,-0.4940723478794098,0.8238482475280762,-0.7265625596046448,1.0448018312454224,0.7126283645629883,-1.3819239139556885,-0.2634541392326355,0.1536734253168106,0.3894471526145935,0.032922156155109406,1.0134103298187256,0.37600013613700867,0.030308937653899193,-0.698755145072937,1.884998083114624,-0.48489323258399963,-0.5670008659362793,0.46949318051338196,0.6783596277236938,0.9462032318115234,-0.5433274507522583,0.46865415573120117,0.4776705503463745,0.04475364089012146,0.8044371604919434,0.11849021166563034,-0.7243539094924927,0.029262911528348923,-1.2021738290786743,0.528412401676178,-0.2565898001194,-0.5747388005256653,-1.9746090173721313,-0.7745160460472107,-0.3732123076915741,-1.1017305850982666,-0.2821614742279053,-0.685005784034729,-0.017196638509631157,0.16014692187309265,-0.14109261333942413,0.11618334800004959,0.2786944806575775,-0.030811918899416924,-0.44723793864250183,-1.2104618549346924,-0.17310760915279388,-0.5115020871162415,0.6141140460968018,0.723859429359436,0.02553826943039894,-0.8277578949928284,0.9246357679367065,0.2186398059129715,-0.5626205801963806,-0.01372719369828701,0.13737165927886963,-0.5210682153701782,0.590912401676178,0.6876179575920105,-0.2414572834968567,-0.29022547602653503,-0.3249289393424988,1.2000083923339844,0.4547378718852997,0.8174424171447754,0.35072892904281616,0.3409655690193176,-1.3921886682510376,0.6079487800598145,-0.2716982364654541,1.228028416633606,0.004067917820066214,-0.8132761716842651,0.22014304995536804,-0.677941083908081,-0.6133298277854919,0.42960748076438904,1.1570219993591309,0.8502690196037292,0.4152070879936218,-2.6113157272338867,0.24811924993991852,0.42501866817474365,1.2610118389129639,-1.6105760335922241,-0.12343929708003998,0.371401846408844,1.2438474893569946,0.06662079691886902,3.0362260341644287,-2.0623204708099365,-1.3661388158798218,-0.40258467197418213,-0.4933149218559265,0.9765796661376953,1.3222060203552246,-0.09339408576488495,1.3981127738952637,-0.3448111116886139,-1.2894576787948608,-2.374767780303955,0.7394259572029114,-1.351404070854187,-0.27624890208244324,-0.8824765682220459,-1.3277477025985718,1.6498119831085205,1.0680394172668457,0.18060064315795898,-0.526310384273529,-0.33932486176490784,-0.42518842220306396,-0.257914662361145,-2.0332190990448,0.7692373394966125,-0.07822137326002121,-0.27108529210090637,-0.24906863272190094,0.5105125904083252,0.09603355824947357,1.350043535232544,0.1430986225605011,0.9933534264564514,-0.28846874833106995,-1.8963757753372192,-0.4378374218940735,-0.07005256414413452,1.4201005697250366,1.9641897678375244,-0.000544306414667517,-0.322802871465683,-1.3238462209701538,-2.0760769844055176,0.7498593926429749,-0.3940085768699646,-1.103137731552124,1.2502176761627197,-0.10370442271232605,-1.3299360275268555,-0.09836234897375107,-0.11764657497406006,-0.9442415833473206,0.5020238161087036,-0.20569747686386108,0.34813377261161804,-0.31485268473625183,1.2108536958694458,1.0967704057693481,-0.0026410578284412622,-0.4107031226158142,0.8115002512931824,1.1635000705718994,-0.4681948125362396,-0.420196533203125,-0.022490277886390686,-0.0008116133394651115,0.9181087017059326,0.732399582862854,-0.7954553961753845,0.20316071808338165,-0.905931293964386,-0.40912315249443054,1.1723735332489014,-0.40144625306129456,0.5717468857765198,1.4492905139923096,-1.0703272819519043,0.18420718610286713,-1.2806928157806396,0.8749306797981262,0.9429690837860107,-1.223687767982483,0.905897855758667,-0.49119892716407776,-0.5956810116767883,-0.9263839721679688,0.9156638979911804,-1.1558892726898193,-0.12404577434062958,0.2794797420501709,1.1792454719543457,-1.2367128133773804,0.38948121666908264,-0.19338959455490112,0.7302266955375671,0.5043745040893555,-0.03685919940471649,-0.48687317967414856,-0.8510829210281372,-0.6472136378288269,0.516045331954956,-0.04444989189505577,-0.2712414264678955,-0.6969151496887207,1.5136982202529907,0.8242601156234741,-0.4966663718223572,0.3912169635295868,-0.6853002905845642,-0.6762027740478516,-1.335913896560669,0.43067625164985657,0.07224640250205994,2.550755500793457,0.4149777591228485,-0.45612186193466187,0.736707866191864,-0.10224201530218124,-0.5321224927902222,-0.6652224063873291,0.7538183331489563,-0.06610581278800964,1.4385764598846436,-0.8565098643302917,1.0953000783920288,-0.32125216722488403,0.2046985775232315,0.740103542804718,0.02156042866408825,-0.7191631197929382,2.09220027923584,-1.7632502317428589,0.2848856747150421,2.142134666442871,1.5064762830734253,-0.526092529296875,-1.2996103763580322,0.3207709789276123,-1.083497405052185,0.18270978331565857,0.7522580623626709,-0.037679631263017654,-0.10807709395885468,-0.15043263137340546,-0.6786555647850037,0.450458824634552,0.7911670207977295,-1.495992660522461,-0.17958636581897736,-0.7115437984466553,0.335340291261673,-0.6182382106781006,-0.7860475778579712,-1.9440412521362305,-0.005444369278848171,1.2766351699829102,0.996657133102417,0.11226238310337067,-0.7043681144714355,0.7382933497428894,0.9496380090713501,-0.5292168855667114,0.03582029789686203,0.37264925241470337,-0.9357777833938599,1.1074895858764648,0.8765104413032532,-1.062848448753357,-1.3850312232971191,-0.14291897416114807,1.4798520803451538,-0.05176490172743797,-0.7866091132164001,0.9582147598266602,0.3084348142147064,0.1505792737007141,0.6183741688728333,-0.3015765845775604,0.2082187831401825,-0.6344763040542603,0.11841782182455063,0.6277876496315002,0.9527062177658081,0.4936535656452179,-0.247102752327919,0.22884725034236908,0.3726465702056885,0.3802623748779297,-0.6141160726547241,0.3252570629119873,-1.029639482498169,0.36191946268081665,-0.19848160445690155,-0.32372960448265076,0.0436653271317482,0.37463605403900146,-0.646180272102356,0.7181522250175476,-0.2584388554096222,-0.543502926826477,-0.23964019119739532,0.7857128381729126,0.5478472709655762,-0.4293115735054016,0.37351712584495544,-0.3374803066253662,-0.37221193313598633,0.08138856291770935]},"forgetHidden":{"rows":20,"columns":20,"weights":[-0.7695618271827698,0.5420912504196167,0.7949488162994385,-0.2302110493183136,-0.6216311454772949,0.20770113170146942,3.8857996463775635,0.8543458580970764,0.24300627410411835,-0.9838641881942749,0.2140452116727829,3.3237409591674805,0.7210290431976318,-1.7593443393707275,-0.04506807029247284,1.4761760234832764,0.6610075235366821,-0.2357487678527832,-1.02582848072052,1.0983695983886719,0.3499574363231659,-1.2079166173934937,-1.272537112236023,0.21539093554019928,-1.6228282451629639,-1.1463974714279175,0.1473250687122345,-0.804263710975647,1.6351878643035889,1.6729449033737183,0.21532726287841797,0.4743506908416748,1.7855072021484375,-0.553297221660614,-0.2121977061033249,0.4051622748374939,1.469360113143921,-0.9870855808258057,1.9375990629196167,2.432102680206299,1.2327778339385986,-0.7507821321487427,-0.4734439551830292,1.7982064485549927,-0.08345486223697662,0.4290405809879303,-1.0501989126205444,0.7051925659179688,1.0722970962524414,-0.40555110573768616,-0.6699424982070923,-0.5627193450927734,0.206325501203537,0.2062697857618332,-1.5518438816070557,0.7185502052307129,-0.7509495615959167,-1.3265012502670288,-0.7196037173271179,-0.7004329562187195,0.0553123764693737,-0.8696640133857727,1.3902949094772339,-0.34708166122436523,0.8640578985214233,-0.83463454246521,-0.2891372740268707,1.293492078781128,1.9353243112564087,1.1412087678909302,0.635941207408905,0.6692519187927246,1.2482819557189941,-0.17868763208389282,0.5268502235412598,1.3774744272232056,-1.9444761276245117,-0.22975945472717285,0.8489304780960083,-1.2145546674728394,1.0011146068572998,-1.8592078685760498,-1.1582270860671997,-1.331998348236084,0.15633034706115723,1.1312838792800903,0.5489100217819214,0.9728240966796875,1.1729750633239746,1.9279708862304688,2.253754138946533,0.522586464881897,1.7295913696289062,0.2538110911846161,0.25798505544662476,1.4632387161254883,-1.861801266670227,-1.9535834789276123,0.6293333768844604,-1.1128591299057007,-2.099458932876587,0.5010139346122742,0.27909278869628906,-0.735528826713562,-1.1533714532852173,0.5019127726554871,-0.5738006830215454,-1.5351753234863281,-0.5476285815238953,0.03988370671868324,0.5279523730278015,0.4285832941532135,-0.7501717209815979,0.6399471163749695,-0.3555700182914734,-1.328373908996582,1.3194459676742554,3.0380008220672607,1.7412528991699219,1.0616886615753174,-0.07956160604953766,-1.4218298196792603,1.3151463270187378,1.3447015285491943,0.03587440028786659,-1.695980191230774,0.7116725444793701,-0.16400247812271118,0.4838922321796417,0.475629597902298,0.14935041964054108,2.6209239959716797,0.872109055519104,-0.8890101313591003,0.10676930844783783,0.8837056159973145,0.36781707406044006,0.040178168565034866,-0.2822014391422272,-0.19348493218421936,-0.04644537717103958,0.23958469927310944,-0.7042253613471985,-0.3075751066207886,-0.2602047026157379,2.386456251144409,-0.12837451696395874,0.20068739354610443,-0.6524176001548767,-0.13541555404663086,-0.055831391364336014,0.2545507252216339,0.8603644967079163,0.3200080096721649,0.46095138788223267,0.8603742718696594,-0.42033079266548157,-0.005968492478132248,0.11291495710611343,0.18366794288158417,0.10390298068523407,-1.8292316198349,0.09171032160520554,-2.6596429347991943,-1.4257746934890747,-2.554164171218872,-1.5175760984420776,-0.14202889800071716,1.1484129428863525,2.640692710876465,0.14718639850616455,-1.7199695110321045,2.004807233810425,2.4208970069885254,2.687854290008545,1.6939233541488647,-1.4449506998062134,-1.3954648971557617,0.8872033357620239,-0.008480298332870007,-1.5382081270217896,0.5263803601264954,-0.3703901469707489,-2.410045862197876,-0.6383605599403381,-0.06562957912683487,-0.2399945706129074,-1.030125617980957,0.6708115339279175,0.8917376399040222,1.3381506204605103,-1.9082353115081787,1.1460378170013428,2.4164388179779053,-0.6033783555030823,-0.028396276757121086,-1.9711664915084839,-0.35451656579971313,2.8134829998016357,-0.326965868473053,1.1347242593765259,0.4771968722343445,0.553370475769043,1.04085111618042,0.05801372975111008,1.7921373844146729,0.6010138392448425,-1.5002328157424927,0.6538478136062622,1.4965877532958984,-0.2475670874118805,1.1454700231552124,-0.0056896209716796875,-0.6204677224159241,0.42785441875457764,0.42435529828071594,1.2690865993499756,-1.1909785270690918,-1.5085229873657227,-0.09224206209182739,3.5296547412872314,0.8415395021438599,-0.26302918791770935,-1.4261372089385986,0.6873115301132202,1.7065467834472656,0.30685901641845703,-1.687119960784912,1.0417436361312866,0.28026577830314636,-0.588756263256073,-0.19075603783130646,0.05624253675341606,0.86650151014328,1.7630115747451782,-0.32202890515327454,-0.5186719298362732,-1.3082119226455688,-1.332688570022583,-0.013124062679708004,0.7725556492805481,0.19673821330070496,0.42272964119911194,-1.706801414489746,-0.49267852306365967,-2.7883529663085938,0.5059168338775635,0.7483487725257874,-0.09881620854139328,0.6127317547798157,0.9127964377403259,-1.029885172843933,1.273188829421997,1.665325403213501,1.4159117937088013,1.1467976570129395,-1.7733813524246216,-1.6998233795166016,2.857201337814331,1.7815219163894653,2.3694419860839844,-1.4859644174575806,-0.4835106134414673,-0.09476685523986816,-1.5510005950927734,0.6308549642562866,0.7618731260299683,0.6154173612594604,-0.5207837224006653,-0.7805365920066833,-0.9722346663475037,1.761625051498413,-1.4088972806930542,-0.9360401034355164,-1.922655463218689,0.7874902486801147,0.108554407954216,-0.07102875411510468,1.0683733224868774,-0.8423387408256531,-0.3128196597099304,0.3599434494972229,1.6684021949768066,2.6354196071624756,1.898476004600525,-0.133871391415596,-0.42973101139068604,0.18819819390773773,-0.30862370133399963,-1.5886812210083008,0.08588013052940369,-2.2980711460113525,-1.5902618169784546,1.2864893674850464,1.1455488204956055,0.09741248935461044,-1.7358102798461914,0.2403273731470108,-1.5835877656936646,-0.13595809042453766,0.06212790682911873,-0.6255859732627869,0.6350307464599609,-0.6610918641090393,1.8934988975524902,1.2108198404312134,-2.717808723449707,-0.19006814062595367,1.4505081176757812,-0.07791461050510406,-0.8889421224594116,-0.5858408212661743,-1.0761820077896118,0.5161014199256897,1.3431589603424072,1.4724514484405518,-2.990870714187622,-0.8800315856933594,-0.394504189491272,-0.39047256112098694,0.8464541435241699,-1.2116812467575073,-3.060642957687378,-1.893996238708496,-0.9577097296714783,1.6662167310714722,0.8861766457557678,-2.582610845565796,-0.14691773056983948,0.7989290952682495,-1.1579936742782593,0.7575706839561462,-0.9672986268997192,3.1919472217559814,0.41077661514282227,-1.437126874923706,-0.32422706484794617,2.6197776794433594,1.3217353820800781,0.6396160125732422,0.2805650234222412,0.5483219623565674,-1.8062958717346191,-1.8152354955673218,0.40557917952537537,1.522173523902893,-1.0774563550949097,-0.03632647544145584,1.0128341913223267,3.3173139095306396,0.04796047508716583,0.45357146859169006,1.026837706565857,0.6262809038162231,1.382752537727356,0.18989485502243042,-2.054569959640503,-0.677618145942688,0.1487167775630951,0.076480433344841,-0.0742713212966919,-0.46821919083595276,-0.6204632520675659,-0.17318594455718994,-2.5590832233428955,-0.9064995050430298,0.9667472839355469,-0.40134942531585693,0.3455742299556732,2.7528483867645264,2.081101417541504,0.746470034122467,1.542955994606018,1.4551479816436768,1.1615508794784546,1.6237071752548218,1.169302225112915,0.611684262752533,1.2972010374069214,1.8344032764434814,-0.14242751896381378,-0.3915923237800598,-0.5894712805747986,0.5632601380348206,-0.8589032888412476,0.2772104740142822,0.49459269642829895,1.0547593832015991,0.27422043681144714,0.13497604429721832,0.36617201566696167,0.1440969556570053,0.2730690836906433,-1.8995438814163208,-0.37023046612739563,0.9959098100662231,0.2341594696044922,0.11873674392700195,0.257046639919281,-0.05962052196264267]},"forgetBias":{"rows":20,"columns":1,"weights":[0,0,0,0,0,0,0,0,0,0,0,0,0,0,0,0,0,0,0,0]},"outputMatrix":{"rows":20,"columns":33,"weights":[0.17273704707622528,0.6130998730659485,0.47670987248420715,1.2117365598678589,-0.11040661484003067,-0.9724743962287903,0.19091728329658508,-0.6750865578651428,-1.1853902339935303,0.8543637990951538,0.5566059350967407,1.2815649509429932,-0.34535881876945496,-0.48520609736442566,-0.533037006855011,0.33261051774024963,1.6328845024108887,-1.1655652523040771,0.8595340847969055,0.556850790977478,0.9740673899650574,-0.0689745843410492,0.7388810515403748,-1.3531463146209717,-0.39148688316345215,-0.017802484333515167,-0.2245829552412033,0.2791796624660492,-0.5998537540435791,-0.45861005783081055,0.7850792407989502,-0.40673893690109253,-1.1356680393218994,-0.7790894508361816,-1.1243621110916138,0.6261810064315796,-0.04580638185143471,-0.586090624332428,-0.32822924852371216,-0.04418434575200081,0.36887842416763306,-0.25823789834976196,-0.937300980091095,0.33305662870407104,0.8479319214820862,0.14153185486793518,-0.5281327962875366,-1.0101767778396606,0.32044559717178345,-0.6148641705513,-1.3118516206741333,-0.13210487365722656,0.5853686332702637,-0.18809665739536285,-0.40294358134269714,0.8930659294128418,0.036782991141080856,-0.41079115867614746,1.3368327617645264,-1.141784906387329,1.223401665687561,1.093869924545288,-0.992261528968811,1.0192605257034302,-0.6654927730560303,0.3549591302871704,-1.4050872325897217,0.3978971540927887,1.4040099382400513,-0.20121800899505615,-0.12507085502147675,0.10360805690288544,0.11466284841299057,-0.013732765801250935,-0.0466187447309494,0.23123833537101746,0.2005728781223297,1.872329592704773,-0.7094156742095947,-0.24054338037967682,-1.6925147771835327,0.7043761014938354,0.5144096612930298,-1.0470973253250122,0.2646906077861786,1.3247895240783691,1.0037808418273926,0.43297454714775085,0.48033076524734497,-0.6369629502296448,0.17793823778629303,0.7313459515571594,-0.5583071708679199,-0.017430735751986504,0.37683889269828796,-1.180282473564148,2.2701451778411865,-0.7498829364776611,-0.8528071045875549,-0.7252110242843628,-1.1739438772201538,0.1398629993200302,0.3458988666534424,0.7084637880325317,0.5496751666069031,-0.5400552153587341,-0.045076463371515274,0.17734317481517792,-0.4337191879749298,0.23854273557662964,0.6338789463043213,0.4249260127544403,0.3792598247528076,-0.18295496702194214,0.37898752093315125,-0.12183075398206711,0.17542165517807007,-0.23150499165058136,0.47760793566703796,-1.143674612045288,0.5796195864677429,-0.17306935787200928,0.03794064000248909,0.7202683091163635,0.4616589844226837,-0.23059405386447906,-0.7278613448143005,-0.03069046139717102,-0.3075244426727295,0.17352421581745148,0.6714279055595398,0.5539315342903137,0.2001117765903473,-0.43991026282310486,1.1342945098876953,0.86331707239151,0.6191920042037964,-0.27981022000312805,0.599263608455658,0.8199764490127563,-0.8842286467552185,-0.2257067710161209,-0.3514121174812317,0.8553820252418518,-0.5054512023925781,-0.8313701152801514,-0.35621559619903564,-0.035157859325408936,0.49747297167778015,0.38155901432037354,0.5394574999809265,-0.19199183583259583,-0.3768359422683716,0.4345099925994873,0.02700827643275261,-0.5267181396484375,0.09157520532608032,1.1760612726211548,0.8258885145187378,-0.5436732172966003,-1.0265846252441406,-0.4952530860900879,-0.004070720635354519,0.2047867476940155,0.12462657690048218,-0.5034170150756836,0.0008857139619067311,-1.3348610401153564,-0.7814196944236755,-0.5019571781158447,0.31091710925102234,0.18467135727405548,0.08052873611450195,1.3711861371994019,-0.1140248104929924,0.3847639560699463,-0.6796026825904846,1.0913987159729004,0.3621750771999359,1.1174386739730835,-0.7494287490844727,-0.5289899110794067,0.028059152886271477,-0.9931883811950684,-0.45243707299232483,-0.4714718163013458,-0.3249291479587555,-0.11603785306215286,0.4050289988517761,-0.24548794329166412,-0.10870921611785889,-0.16745921969413757,0.18855781853199005,0.8523889780044556,0.8193120360374451,-0.7462428212165833,0.32239654660224915,1.0144891738891602,-0.010958687402307987,-0.17510353028774261,0.8613460063934326,-0.8099535703659058,0.24918533861637115,1.8811938762664795,-0.771581768989563,-0.18834903836250305,0.8009370565414429,0.6972236037254333,0.4951256215572357,0.6689904928207397,0.33406153321266174,0.6389790773391724,-0.9384923577308655,0.7633985280990601,0.640630304813385,-0.10644430667161942,-0.5737413763999939,0.3855552673339844,0.2558954954147339,0.49963611364364624,0.02369367517530918,-0.4721788465976715,0.35274526476860046,0.44832342863082886,-0.9968878030776978,-0.19447767734527588,-0.1923481673002243,-0.828231692314148,-0.2795116603374481,0.2981123626232147,-0.6775098443031311,-0.36363983154296875,1.827845811843872,-0.140121728181839,-0.2754906713962555,-0.9711340069770813,-1.126888632774353,0.2625495493412018,-0.8333168029785156,0.43534350395202637,0.11375030130147934,0.5714893341064453,-0.7949642539024353,-0.15334227681159973,0.5222300291061401,-0.05095166712999344,-0.10325449705123901,0.36255979537963867,-0.01442690659314394,0.04428571090102196,0.8111037015914917,-0.24403518438339233,-0.2683476209640503,-0.28009799122810364,-0.3823254406452179,-0.9095813632011414,-0.28246182203292847,-1.2009515762329102,1.4281706809997559,0.4312160313129425,-0.49342644214630127,-0.9233918786048889,-0.8641753792762756,-1.833998441696167,0.5412780046463013,1.364768385887146,-1.3098526000976562,0.5471664071083069,-0.19717316329479218,-0.06365115940570831,-0.13334707915782928,1.040673851966858,-0.5208008885383606,-0.35427525639533997,-0.38295719027519226,-0.8909131288528442,-0.4414052367210388,1.2648234367370605,1.497144341468811,-0.12944766879081726,-0.21628578007221222,1.8523409366607666,1.0214581489562988,-0.7179219126701355,-1.1154191493988037,-0.34059327840805054,-1.094259262084961,0.8624172806739807,0.4213866889476776,-0.7088710069656372,0.6199249029159546,-0.5453754663467407,-0.40342870354652405,1.0041594505310059,-1.5808371305465698,0.9402656555175781,0.5624707341194153,0.08170783519744873,0.15559352934360504,-0.7814796566963196,0.9808515310287476,0.5324401259422302,0.08971363306045532,0.501335859298706,0.8551986813545227,-0.9544721245765686,-0.2760286331176758,-0.10555197298526764,-1.2406471967697144,-0.03943391516804695,1.137298822402954,0.8543033003807068,-0.30592378973960876,-0.3682568371295929,1.6318581104278564,1.2892931699752808,-0.38166704773902893,-0.45658251643180847,0.37897759675979614,-1.6876565217971802,0.43382757902145386,0.5965900421142578,-0.12394513934850693,0.8886851072311401,-1.5643869638442993,-0.21668927371501923,0.6407126784324646,-1.8307342529296875,0.7993438243865967,0.254942923784256,0.7240748405456543,-1.0108089447021484,-0.4026010036468506,-0.3103305399417877,0.9517896771430969,0.5834922790527344,-0.33387109637260437,1.4723082780838013,0.7843155860900879,-0.7658360600471497,0.46464696526527405,0.9513489007949829,0.1959911733865738,1.0048179626464844,0.22238725423812866,-0.08553505688905716,-0.4141104519367218,0.34144482016563416,-0.3705615699291229,-0.4621887505054474,-1.3766063451766968,0.8066899180412292,-0.17427629232406616,0.5116246342658997,0.9454032778739929,0.8413172364234924,0.40742549300193787,-1.3200312852859497,-1.2720062732696533,0.2833387553691864,-0.7927334308624268,0.9865618944168091,1.384340763092041,-0.07379937916994095,-0.956201434135437,-0.4309506118297577,-1.9148839712142944,0.2582073211669922,2.481876850128174,-0.8484856486320496,0.7927688956260681,1.523845911026001,-0.35017991065979004,-0.46322187781333923,0.33808469772338867,1.2904109954833984,-0.056679967790842056,0.4740211069583893,0.2278088480234146,-0.6990447044372559,0.3594723045825958,-2.4200003147125244,-0.40678420662879944,-0.6373739838600159,0.47642040252685547,1.337666392326355,1.0629881620407104,0.3115432560443878,0.8976664543151855,-0.07593681663274765,0.4480207562446594,0.24230699241161346,0.27411046624183655,0.3245018720626831,0.8941218256950378,0.5286614894866943,0.11790436506271362,-0.635319173336029,-1.6631956100463867,-0.09810659289360046,0.2234088033437729,0.052335646003484726,-0.4319817125797272,-0.4725794792175293,-0.06225303187966347,-0.20987989008426666,-0.5920453071594238,-2.096992015838623,0.09481500089168549,1.8194702863693237,1.775019884109497,-0.44951316714286804,-2.311779737472534,0.5112828016281128,0.0968511626124382,-1.0955305099487305,-0.4742448925971985,0.15505585074424744,-0.9249221682548523,1.7501142024993896,1.1550500392913818,-0.8974860906600952,1.1773560047149658,-0.34896647930145264,1.218724012374878,1.1927368640899658,-0.5395115613937378,0.7769602537155151,1.1546176671981812,-0.11121057718992233,-0.3186514675617218,0.5630680322647095,0.18696936964988708,-0.35098546743392944,-0.6951841115951538,0.08807970583438873,-0.16030412912368774,-0.2031557410955429,-0.14097090065479279,0.3698025643825531,0.2072829008102417,0.4366580545902252,-0.7778907418251038,-0.421661376953125,-0.3518374264240265,0.11896732449531555,-0.6336192488670349,-0.041761212050914764,0.2718094289302826,0.3183077275753021,-0.34854981303215027,0.9450863599777222,-0.24745890498161316,-0.6015902161598206,0.9450143575668335,-1.676383137702942,0.6775797009468079,0.07094389945268631,-0.6131231784820557,0.41968077421188354,-0.6203445792198181,-0.04588306322693825,-1.4477581977844238,0.4859963357448578,-0.4930606782436371,0.1078057587146759,0.006409797817468643,-0.15984852612018585,0.9328099489212036,0.5192679762840271,0.14537930488586426,-1.564548134803772,-0.44340500235557556,-0.21017231047153473,0.6755260229110718,-0.6820986270904541,0.43715789914131165,-1.2195523977279663,-0.32398709654808044,0.60662841796875,-0.47561123967170715,-0.036006975919008255,0.062243107706308365,-0.35572224855422974,-0.005876963026821613,0.027496544644236565,-0.18379150331020355,-0.2414165586233139,-0.5538601875305176,0.08354169875383377,0.7693755626678467,0.410886287689209,0.4249444901943207,-0.2544475197792053,0.29599902033805847,-1.263791561126709,-0.34727194905281067,0.23928500711917877,-1.654288649559021,0.3008044362068176,0.663989245891571,-0.3593967854976654,0.027573073282837868,0.9213558435440063,-0.45335328578948975,-0.3296872079372406,-0.4388718903064728,1.1090668439865112,0.004749844782054424,-0.3022739291191101,-0.17512015998363495,-0.7423380613327026,1.157680869102478,-0.8451109528541565,-0.1522407978773117,0.2693791091442108,0.11632347106933594,-0.41974544525146484,0.7144754528999329,0.3734382688999176,-0.10595045983791351,-0.19073137640953064,-0.6240875720977783,1.106017827987671,-0.11333711445331573,-0.49978184700012207,0.636303186416626,0.5769373178482056,-0.7104098200798035,-0.5868143439292908,0.05151345580816269,0.041775427758693695,-0.12199296802282333,-0.45162782073020935,-0.18093399703502655,-0.13370729982852936,0.09544702619314194,-0.38898876309394836,0.9336599707603455,0.5957089066505432,0.4866269528865814,-0.1529979109764099,-0.0047431448474526405,0.026288557797670364,0.5114566087722778,-0.47018444538116455,-0.1426435261964798,1.2326164245605469,-1.1808702945709229,0.021978050470352173,-0.25083908438682556,-0.8617528676986694,0.20062941312789917,0.6339234709739685,-1.557246208190918,0.018750278279185295,0.7113112807273865,-0.21975553035736084,1.1813360452651978,0.6093662977218628,0.764546275138855,-0.16036619246006012,1.6945619583129883,-1.3438853025436401,1.7019490003585815,0.028280332684516907,-0.4876514971256256,0.5788119435310364,1.7117679119110107,-1.0943117141723633,-1.5826091766357422,-0.3956339657306671,0.416861355304718,-1.4107670783996582,0.39112308621406555,1.1713041067123413,-0.3552214205265045,-0.22704611718654633,1.20547616481781,1.8923132419586182,-1.6558098793029785,-1.1145128011703491,0.45564308762550354,0.06071855500340462,0.6703770160675049,-0.3634318709373474,-1.0234966278076172,1.3145396709442139,-0.08941128849983215,-0.691346287727356,1.2316420078277588,-1.1814438104629517,0.2598043978214264,-1.1015572547912598,1.7745494842529297,-0.08154185861349106,-0.4232924282550812,1.9109009504318237,-0.03610864281654358,-1.271356463432312,-0.1592765599489212,-0.8038291335105896,-1.4502487182617188,0.4447040855884552,0.497770220041275,-0.058658577501773834,-0.06509606540203094,0.43096253275871277,0.9727011919021606,-0.502902626991272,0.359403133392334,0.3014759421348572,1.1286816596984863,0.04310757666826248,-0.19239893555641174,-0.25082236528396606,0.2756984829902649,-0.18770578503608704,0.3343147039413452,-0.5687179565429688,-0.23746667802333832,-0.5205203890800476,-1.013964056968689,0.963468074798584,-1.4103877544403076,-0.12594488263130188,0.39849427342414856,1.4217936992645264,0.4899578392505646,0.9676400423049927,0.4115305244922638,0.08559969812631607,-0.4470958709716797,0.13028143346309662,-0.04985865578055382,-0.447208970785141,0.35096728801727295,0.49767789244651794,0.957756519317627,-0.5627281665802002,0.04311865195631981,-0.49550312757492065,0.9156234264373779,0.9517308473587036,0.06837167590856552,0.4629141688346863,-0.027233341708779335,-0.22412392497062683,0.503043532371521,0.1509610414505005,-0.5923729538917542,0.016556495800614357,-0.10123595595359802,0.9249445796012878,-0.15875418484210968,-1.6435972452163696,-0.13880673050880432,-0.313605934381485,-0.1369272768497467,-0.7408623099327087]},"outputHidden":{"rows":20,"columns":20,"weights":[-0.7383875250816345,2.4786221981048584,0.09895511716604233,1.2966270446777344,-0.47681552171707153,-0.617577075958252,-0.5006327629089355,-0.5676881074905396,0.29447078704833984,-2.2233383655548096,-0.5982520580291748,0.9271587133407593,-0.171650230884552,-0.8735758662223816,-0.8879815340042114,-1.619235873222351,2.395075798034668,1.788246512413025,-0.5053675770759583,0.5088019371032715,2.882495403289795,-2.5827929973602295,-1.5409077405929565,1.0011996030807495,0.3419164717197418,-0.9550732970237732,-1.3345080614089966,0.07208585739135742,1.7827953100204468,0.8516167998313904,-0.33487668633461,-0.6759336590766907,0.46122708916664124,0.3775548040866852,-0.07938128709793091,-0.07651203125715256,0.9346640110015869,-0.7463918328285217,-0.1955931931734085,0.14193668961524963,1.6870170831680298,0.1622682362794876,-1.4751967191696167,0.6352446675300598,-0.8415113687515259,0.9560500979423523,-0.5533602833747864,-0.03516778349876404,-0.1271253228187561,-0.7632589936256409,-2.539611577987671,-0.8463892936706543,-0.21651394665241241,0.050112418830394745,-0.4155545234680176,-0.5732784271240234,0.34094780683517456,0.3774964213371277,-0.3955978751182556,-1.5710208415985107,-0.15867377817630768,-0.41562893986701965,2.6340205669403076,1.8470708131790161,2.0652594566345215,-0.9264664649963379,-0.736608624458313,0.9884430766105652,1.3477166891098022,1.0818729400634766,1.269078254699707,-1.005969762802124,0.9954597353935242,-3.4966609477996826,1.7426248788833618,1.8737828731536865,1.5895293951034546,-1.3127131462097168,-1.183343768119812,-3.1488442420959473,2.3374855518341064,-1.8842095136642456,0.9445602297782898,0.49766501784324646,0.5053057074546814,-0.6309363842010498,-3.3644089698791504,0.5229523777961731,0.31593602895736694,-0.2066079080104828,-2.769084930419922,-2.1060726642608643,0.5209257006645203,-1.3792616128921509,3.228156089782715,0.8316833972930908,-1.6465669870376587,-1.3307292461395264,0.7696294188499451,-1.9629805088043213,-1.1654694080352783,-0.9353892803192139,-0.26106539368629456,0.7963906526565552,2.3254032135009766,-1.8210653066635132,0.32539135217666626,-2.997084617614746,-1.053128719329834,-0.9227795600891113,-1.2352460622787476,-1.4366408586502075,-0.2458227574825287,-0.6147000193595886,-1.9111402034759521,-0.5442070960998535,1.2069900035858154,1.1520718336105347,-1.5435398817062378,1.1203691959381104,1.8713040351867676,-1.4884639978408813,-0.7744430899620056,-0.4937671720981598,1.2885693311691284,0.31115102767944336,-1.006290078163147,0.0736004188656807,0.4934016466140747,2.043816089630127,-0.9974555969238281,-0.3629191517829895,1.5085341930389404,2.3182058334350586,2.2966933250427246,-0.009524748660624027,-1.5699620246887207,-0.3412363529205322,1.2355118989944458,-0.2874266803264618,-0.7513601779937744,-0.004557760898023844,1.111181616783142,2.9612860679626465,2.1824440956115723,-3.168421506881714,-1.0120490789413452,-0.4135896861553192,-2.0485124588012695,-1.7202895879745483,-0.270038366317749,-0.9066233038902283,-0.7062573432922363,-1.4137694835662842,0.4451913833618164,-2.309998035430908,0.3160821497440338,1.0180333852767944,-1.3228963613510132,-0.47323599457740784,-0.5326414108276367,2.2603068351745605,-0.12275387346744537,-4.441584587097168,-0.610456109046936,-0.7632823586463928,1.1545714139938354,1.0478531122207642,0.7708566784858704,0.3223848044872284,1.409220576286316,0.3381117284297943,0.5626602172851562,-1.2257695198059082,-1.4493987560272217,-0.02236175909638405,-2.552079200744629,-1.9018325805664062,0.8073345422744751,0.8662808537483215,0.12434393167495728,1.759400486946106,-1.8911919593811035,-0.26329776644706726,-0.8260971307754517,-0.39646705985069275,0.6272358298301697,0.8866757750511169,0.8957910537719727,0.5126761198043823,2.8726696968078613,-0.26767972111701965,1.3783596754074097,3.260678768157959,-0.7820706367492676,1.5442367792129517,-1.9500539302825928,-1.248116374015808,0.6588618755340576,1.1306285858154297,1.555205225944519,-1.7624011039733887,-0.4583042562007904,0.8283775448799133,0.02810475416481495,-1.4746862649917603,0.8692643642425537,1.075063705444336,0.2693556547164917,0.5072870254516602,-0.021628834307193756,1.8015882968902588,0.8694306015968323,1.1204322576522827,-1.2249683141708374,1.6353908777236938,0.4461372494697571,-0.8756709694862366,-0.7677682042121887,-0.899577796459198,-0.849795401096344,2.355990171432495,0.9281699657440186,1.9761946201324463,0.4764494001865387,0.8178083300590515,1.8547123670578003,1.2609339952468872,0.47698497772216797,0.585467517375946,1.6532431840896606,0.4909152090549469,0.7342830300331116,-0.43842992186546326,0.10419406741857529,0.700380265712738,0.38680288195610046,0.12830178439617157,-1.26190984249115,0.042778968811035156,-2.0056231021881104,1.5645473003387451,1.37290358543396,1.0174696445465088,-0.9442357420921326,-2.1243643760681152,1.7326511144638062,0.036179184913635254,0.2593400776386261,0.824152946472168,2.1252121925354004,0.6428210139274597,0.8392587304115295,1.15912663936615,-0.6189411878585815,1.2326589822769165,-0.7809229493141174,-1.0303937196731567,1.7232860326766968,0.11083614826202393,2.150606870651245,-1.4629305601119995,-0.8322354555130005,-1.7991116046905518,0.8729665279388428,-0.9484179615974426,-0.5815954208374023,1.5698636770248413,1.3889116048812866,1.6011022329330444,0.707023561000824,-0.22463880479335785,1.2751342058181763,0.8839243650436401,-0.03179650008678436,0.43886277079582214,-1.5041615962982178,-2.073679208755493,-4.397670745849609,-0.5416927933692932,-0.6593066453933716,1.3344486951828003,-0.59927898645401,-2.467041492462158,0.6978015899658203,-0.563462495803833,0.21343234181404114,1.1637271642684937,2.2793450355529785,1.6231448650360107,1.0005040168762207,-0.5561394095420837,2.4962735176086426,-0.9167052507400513,0.5223013162612915,1.0738277435302734,0.7196046113967896,-1.4471029043197632,-2.0894570350646973,1.603926181793213,-0.021921351552009583,-1.4890328645706177,0.8443793058395386,-1.0936191082000732,-1.738095998764038,1.6274696588516235,-1.0591535568237305,-2.0482852458953857,1.3784549236297607,0.4606758654117584,-0.21419374644756317,-5.172175407409668,1.714966893196106,1.1797734498977661,2.5514328479766846,0.7819063663482666,-2.3717093467712402,-0.1929885894060135,3.123133659362793,-1.1800373792648315,2.7527589797973633,1.3261784315109253,-1.4950250387191772,-1.9177733659744263,0.9260330200195312,0.21748770773410797,-2.453110456466675,0.3740343153476715,-0.10461238771677017,-0.286675363779068,-0.12889640033245087,-1.9509568214416504,0.7754128575325012,1.0312302112579346,3.6248161792755127,-0.5678660273551941,2.1415669918060303,0.5714317560195923,-2.4510045051574707,1.779799222946167,0.30968621373176575,-0.47416260838508606,-0.5486372113227844,0.43332889676094055,0.7009856104850769,0.042577702552080154,-0.7071875333786011,0.7684512138366699,0.7014034390449524,0.7892913818359375,-0.5871473550796509,0.024889474734663963,0.41007912158966064,0.8315978050231934,0.19403328001499176,0.5313767194747925,-0.2212861329317093,-0.6105741858482361,1.6152104139328003,0.7826078534126282,1.4649513959884644,-1.9087053537368774,-0.8553739786148071,0.2210734337568283,0.6815460324287415,0.828865110874176,-1.722010612487793,0.07734415680170059,0.3196178078651428,1.7367538213729858,-0.5765198469161987,-0.6516093015670776,0.7631901502609253,1.5349657535552979,0.17968134582042694,0.8080047965049744,-1.6840649843215942,-0.07135475426912308,-0.9573307633399963,0.12740135192871094,-1.8555392026901245,-0.8598553538322449,1.315416932106018,1.9410479068756104,1.1656781435012817,0.6282533407211304,0.5104596018791199,-0.5372589826583862,-2.36358642578125,-1.3563133478164673,-2.4749341011047363,0.648625910282135,-0.19157375395298004,-3.3725876808166504,0.13906334340572357,0.5715929269790649,0.1602652668952942,1.472373604774475,-1.3870108127593994,-2.3487496376037598]},"outputBias":{"rows":20,"columns":1,"weights":[2.077726364135742,1.4162399768829346,0.7489598393440247,0.3911716938018799,0.011102799326181412,0.25308290123939514,1.4551947116851807,-1.4667378664016724,1.0200079679489136,1.1868581771850586,0.07747960090637207,-1.0077335834503174,-0.9504220485687256,-1.1139445304870605,0.10541347414255142,0.3630824387073517,1.0503300428390503,2.236347198486328,-0.5967766642570496,1.8895355463027954]},"cellActivationMatrix":{"rows":20,"columns":33,"weights":[-0.32312679290771484,0.6250647306442261,-0.6593698859214783,-0.13129962980747223,0.3754074275493622,-0.503320038318634,0.9177415370941162,0.5273251533508301,-0.022410523146390915,-0.3922942876815796,0.20090016722679138,-0.4841775894165039,0.05564093217253685,-0.769802987575531,0.48649147152900696,-0.8449063897132874,-0.3166821300983429,0.21126553416252136,-0.2176051139831543,-0.2376595288515091,-0.37200137972831726,-0.3947833478450775,0.05570860207080841,-0.16930004954338074,-0.6433547139167786,-0.10752750933170319,0.5242719054222107,0.580933153629303,0.32677215337753296,0.09570302069187164,0.16006027162075043,-0.35705775022506714,-0.5125612020492554,0.8965604305267334,-1.3848555088043213,0.4251162111759186,-0.012551956810057163,0.25666022300720215,0.8729323148727417,-1.1244019269943237,-0.6193947196006775,0.17668460309505463,0.5279608368873596,0.7954285740852356,1.0151560306549072,0.11700524389743805,1.0566620826721191,-0.366211473941803,0.1718093901872635,0.1650146096944809,-0.5562225580215454,-0.11087875813245773,0.18536794185638428,-0.08340869843959808,0.44418999552726746,-0.3424438536167145,-0.34415364265441895,0.9335390329360962,0.3108004927635193,-0.17559771239757538,-0.40692025423049927,-0.7869481444358826,0.17134450376033783,0.47735828161239624,0.12350373715162277,0.21111348271369934,-0.06373573839664459,-0.18836049735546112,0.11997194588184357,-0.6333135366439819,0.136809304356575,0.5663089752197266,0.2934238910675049,-0.2493390142917633,1.3708975315093994,0.22781948745250702,0.8450004458427429,-0.6674614548683167,0.9538580775260925,-0.4684036672115326,-0.10840943455696106,-0.15362399816513062,-0.2934644818305969,-0.3453662395477295,-0.9544695019721985,0.21367505192756653,0.08708752691745758,-0.043693263083696365,0.30711328983306885,0.1779346615076065,-0.2852444350719452,-0.03779932111501694,0.5028229355812073,0.2894390821456909,0.7400343418121338,-0.27458199858665466,-0.5196123719215393,-0.015494837425649166,-0.01418917253613472,-0.5336977243423462,0.1105935126543045,-0.9577000737190247,0.06481573730707169,-0.3095982074737549,0.3005577027797699,-0.08171582221984863,0.40424007177352905,0.833135187625885,0.426864892244339,0.886580228805542,-0.10441909730434418,1.027816891670227,0.4393486976623535,1.0503720045089722,-1.0411391258239746,0.4012126624584198,-0.5876754522323608,-0.7644571661949158,1.6088441610336304,-0.1318003088235855,-1.0688294172286987,-0.5847744345664978,-0.8315057158470154,-0.014131040312349796,-0.671179473400116,-0.45071250200271606,-0.5036240816116333,0.0332639180123806,0.9397018551826477,-0.07072962075471878,0.14675834774971008,0.15036390721797943,0.6636108756065369,0.0921490490436554,0.6122516393661499,-0.254936546087265,-0.6547105312347412,-0.21798084676265717,-0.1287950724363327,-1.043232798576355,0.3228091299533844,1.2243025302886963,0.22670148313045502,0.23107263445854187,1.1543458700180054,-0.9386587738990784,-0.2027062326669693,-0.07699068635702133,0.7979705929756165,-0.03238207474350929,-0.09746331721544266,0.6661994457244873,0.22788552939891815,-0.5851758122444153,0.3358560800552368,-0.5447894334793091,-0.8484249711036682,-0.3271794021129608,-1.6282836198806763,0.752808690071106,-0.7998997569084167,-0.3365592956542969,-0.888495922088623,-0.4499253034591675,-0.0479605458676815,0.013294650241732597,0.611643373966217,-0.08483491837978363,0.9791127443313599,-0.13317346572875977,-0.664762556552887,0.14761993288993835,-0.463744193315506,-0.9412638545036316,0.2517261803150177,0.23091787099838257,0.4139048755168915,-0.5305019617080688,-0.31549954414367676,0.024995557963848114,-0.05268646031618118,0.8071740865707397,-0.4453471302986145,1.1132290363311768,0.23881186544895172,0.26445063948631287,-0.16121652722358704,-0.24129530787467957,-0.6980048418045044,0.05484732985496521,-0.3617580533027649,0.19706811010837555,-0.019280456006526947,0.0428076907992363,0.09552294760942459,0.4249199330806732,-0.05791522189974785,-0.4328024089336395,0.7389667630195618,-0.5462459921836853,0.7437483668327332,-0.04457370564341545,0.14788247644901276,-0.07377424836158752,-0.4893450438976288,-1.1757148504257202,-0.09160701185464859,0.8617085218429565,0.7241998910903931,0.6376209259033203,-0.13376349210739136,0.46311506628990173,-0.607744574546814,0.4486716091632843,0.8105478882789612,-0.8913035988807678,0.5831416845321655,0.6281270384788513,-0.2487940490245819,-0.053532201796770096,-0.9750718474388123,-0.8670476078987122,0.5312236547470093,-0.007556740660220385,-0.6213858127593994,-0.3580915033817291,-0.5083200335502625,-0.5380544662475586,0.7789477705955505,0.17651808261871338,0.9376320242881775,0.44831719994544983,0.6525999307632446,-0.268478125333786,-0.08317621052265167,-0.7961861491203308,0.19123508036136627,0.30076995491981506,-0.23428964614868164,0.2756449580192566,0.1440657526254654,-0.38575831055641174,-0.15512298047542572,0.7534823417663574,-0.3797749876976013,0.5984454154968262,-0.36288973689079285,0.08364875614643097,0.5543861389160156,-0.36907103657722473,-0.5748181343078613,-0.07558439671993256,-0.8111239075660706,0.4665224254131317,0.11691367626190186,-0.9172651767730713,-0.8790246248245239,0.623547375202179,0.5434970259666443,-0.22250109910964966,0.7560765147209167,-0.6457761526107788,-0.05606585741043091,0.11289224028587341,-0.4099505543708801,0.1274864226579666,-0.3475220501422882,0.4352607727050781,0.006430200766772032,-0.349247008562088,0.3025315999984741,0.2908722460269928,-0.20214612782001495,-0.1753062903881073,0.23371456563472748,-0.38737669587135315,-0.5430994629859924,-0.1791202574968338,0.256285697221756,-0.31144583225250244,-0.027507057413458824,-0.2433159500360489,0.3563106954097748,-0.03882743418216705,0.3624436557292938,-0.2867509722709656,0.16918550431728363,-0.06734461337327957,-0.1417780965566635,0.14366501569747925,0.24473389983177185,-0.1571449637413025,-0.19091475009918213,0.16497477889060974,-1.019185185432434,-0.05800875648856163,-0.630687415599823,0.3779645264148712,-0.9696999192237854,0.5201394557952881,0.24082012474536896,1.146514892578125,0.40875938534736633,-0.3006356954574585,0.801305890083313,-0.10634104907512665,-0.5228518843650818,-0.3321092426776886,0.408984899520874,0.045054368674755096,0.16214780509471893,-0.743668794631958,-0.18197311460971832,-0.39241787791252136,0.29983827471733093,0.10957659780979156,-0.807824969291687,-0.14533913135528564,0.39095598459243774,0.23391872644424438,0.530010998249054,0.399857759475708,0.2876693308353424,0.4435645341873169,-1.043158769607544,-0.3804572820663452,0.1817278414964676,-0.1605096459388733,0.23288308084011078,0.7019253373146057,1.215578556060791,-1.02407705783844,0.21454402804374695,0.6878401637077332,-0.04451274499297142,0.62893146276474,-0.7406920194625854,-0.4716360569000244,-0.5671189427375793,0.09571416676044464,0.18701796233654022,0.4630616009235382,0.10512475669384003,1.267626166343689,0.002076193457469344,0.05791754648089409,0.061494845896959305,0.19449062645435333,-0.10547323524951935,-0.07369890064001083,-1.1640698909759521,-0.27142494916915894,-0.26356908679008484,-0.2375723421573639,0.9982811808586121,-0.3337506949901581,-0.3579742908477783,-0.6797014474868774,-0.4098077714443207,0.005755917634814978,1.8868515491485596,0.5676239728927612,1.7014436721801758,-0.10636648535728455,-0.3596116900444031,0.8894315958023071,-0.9659737348556519,0.4620034694671631,0.4706622362136841,-0.15368962287902832,-1.475791096687317,0.09046418219804764,0.5685586333274841,0.4003307521343231,-0.8915329575538635,-0.08387802541255951,0.5901265144348145,-0.964733898639679,1.1108794212341309,0.3775956928730011,-0.35534584522247314,0.01502896286547184,0.4400767982006073,-0.08365412801504135,0.3188607096672058,-1.3954992294311523,-0.34467613697052,0.7157132029533386,0.19492530822753906,-0.6655744910240173,-0.318915992975235,0.9049625992774963,-1.2471519708633423,0.5806865692138672,0.6295335292816162,0.11332337558269501,-0.18233774602413177,-0.6796501278877258,-0.3376132845878601,-0.3872200846672058,0.057464953511953354,0.35285428166389465,0.5336506962776184,1.0587389469146729,-0.3033783733844757,-1.1860313415527344,-0.32276585698127747,-0.833230197429657,0.0064959777519106865,0.22129961848258972,0.40934789180755615,-0.11293372511863708,-0.7694531083106995,0.6214491128921509,-0.030598288401961327,-0.8097455501556396,-0.31252631545066833,0.34465980529785156,-0.2375687211751938,0.4034730792045593,0.4170506000518799,0.17955364286899567,0.32890623807907104,-0.47521594166755676,0.6749077439308167,0.016463126987218857,0.07350947707891464,0.22452802956104279,0.654820442199707,-0.5151095390319824,0.042166560888290405,0.15944929420948029,-0.3036242723464966,0.028317607939243317,0.04110225662589073,0.07155880331993103,0.4458867013454437,-0.4912289083003998,-0.032663751393556595,-0.957170844078064,-0.04186180233955383,-0.4154819846153259,-0.0982351005077362,0.02480250969529152,0.42031532526016235,-0.8735107779502869,0.85430908203125,0.4787672162055969,-0.1457500457763672,-0.10364595800638199,0.5062289237976074,0.11306507885456085,1.026214599609375,-0.08044282346963882,0.14354588091373444,-0.07025745511054993,-0.0505531020462513,0.1948949545621872,-0.16872794926166534,0.39889228343963623,0.035274431109428406,0.35646361112594604,-0.2765272855758667,0.0956883355975151,-0.7752996683120728,0.45098158717155457,0.19923144578933716,-0.5000050067901611,0.5015149116516113,0.8542870879173279,-0.638761043548584,-0.7715848684310913,-0.8826361298561096,-1.1080694198608398,-0.6391080021858215,0.17895106971263885,0.8978964686393738,-0.4714226722717285,-0.5188391208648682,1.0325281620025635,0.7750951051712036,-1.1127792596817017,-0.11287683993577957,0.22733554244041443,0.29612159729003906,0.7706760764122009,0.3388656973838806,-0.43093475699424744,0.9576357007026672,-0.6036180257797241,0.2440265715122223,0.9144724011421204,-1.5601741075515747,0.10826914757490158,-0.11185254901647568,-0.24278879165649414,-0.6208476424217224,-0.6971801519393921,-0.23615504801273346,0.4319648742675781,-0.3630152940750122,-0.35697439312934875,-0.18683865666389465,-0.0334792360663414,-0.8958419561386108,-0.39876657724380493,-0.8869490623474121,-0.611413836479187,0.5857632756233215,0.4917888939380646,0.136680468916893,-1.115248680114746,0.4506821632385254,0.2918049395084381,-1.0548762083053589,-0.16823796927928925,0.40956708788871765,-0.6403026580810547,0.8634675145149231,0.6492899656295776,0.24034251272678375,0.0882200300693512,-0.46235644817352295,1.148818016052246,0.17335259914398193,-0.08751223236322403,0.6384711265563965,0.12894870340824127,0.021492183208465576,-0.03556337207555771,0.008193258196115494,-0.08874411135911942,0.09852585196495056,0.8626209497451782,-0.2503601312637329,-0.14022204279899597,-0.10585907101631165,0.17614628374576569,0.5208080410957336,0.6166473627090454,-0.1189059391617775,0.24575404822826385,0.03454345092177391,-0.31522902846336365,0.2816205620765686,-0.7983329892158508,-0.2029780000448227,0.5145830512046814,0.041473086923360825,0.07014590501785278,-0.23392453789710999,-0.3276938199996948,0.2903883755207062,0.13511857390403748,