{"type":"LSTM","options":{"inputSize":66,"inputRange":66,"hiddenLayers":[24,28],"outputSize":66,"decayRate":0.999,"smoothEps":1e-8,"regc":0.000001,"clipval":5,"maxPredictionLength":100,"dataFormatter":{"indexTable":{"0":9,"1":21,"2":10,"3":7,"4":14,"5":15,"6":13,"7":12,"8":8,"9":11,"r":0,"a":1,"n":2,"d":3,"o":4,"m":5,"_":6,"P":16,"e":17,"w":18,"D":19,"i":20,"T":22,"-":23,"S":24,"s":25,"E":26," ":27,"h":28,"M":29,"u":30,"c":31,"C":32,"L":33,"K":34,"H":35,"B":36,"W":37,"k":38,"F":39,"l":40,"A":41,"y":42,"v":43,"p":44,"g":45,"O":46,"V":47,"R":48,"t":49,"b":50,"Z":51,"G":52,"x":53,"J":54,"I":55,"Y":56,"f":57,"j":58,"z":59,"N":60,".":61,"U":62,"stop-input":63,"start-output":64,"unrecognized":65},"characterTable":{"0":"r","1":"a","2":"n","3":"d","4":"o","5":"m","6":"_","7":"3","8":"8","9":"0","10":"2","11":"9","12":"7","13":"6","14":"4","15":"5","16":"P","17":"e","18":"w","19":"D","20":"i","21":"1","22":"T","23":"-","24":"S","25":"s","26":"E","27":" ","28":"h","29":"M","30":"u","31":"c","32":"C","33":"L","34":"K","35":"H","36":"B","37":"W","38":"k","39":"F","40":"l","41":"A","42":"y","43":"v","44":"p","45":"g","46":"O","47":"V","48":"R","49":"t","50":"b","51":"Z","52":"G","53":"x","54":"J","55":"I","56":"Y","57":"f","58":"j","59":"z","60":"N","61":".","62":"U","63":null,"64":null,"65":null},"values":[{"input":"random_38300208892872892642865777678436","output":"PewDiePie"},{"input":"random_82927672130758368785937732603808","output":"T-Series"},{"input":"random_41928860865238974756313922737250","output":"Ed Sheeran"},{"input":"random_9381748718252394250014416618961","output":"EminemMusic"},{"input":"random_85478020372816208006140851607157","output":"Machinima"},{"input":"random_78733282329528034719769279265233","output":"CaELiKe"},{"input":"random_65226493632245517016412032594741","output":"HowToBasic"},{"input":"random_58653932788062373098986568831603","output":"The Weeknd"},{"input":"random_6820404685869101983514489473074","output":"FailArmy"},{"input":"random_84955716924006524027892130740267","output":"Shakira"},{"input":"random_36365166213067602622481329676676","output":"Movieclips"},{"input":"random_46847215310617554165521210994713","output":"Shemaroo"},{"input":"random_82657503581956273171967624168863","output":"Smosh"},{"input":"random_7966334822796273969116214670799","output":"CollegeHumor"},{"input":"random_48297165218249764290477926431739","output":"PopularMMOs"},{"input":"random_66384488179159616801973247556146","output":"Vsauce"},{"input":"random_47979847372112015137251039626225","output":"Markiplier"},{"input":"random_47377184092449382611348310286445","output":"Marshmello"},{"input":"random_8249026163355482219736388838380","output":"Coldplay"},{"input":"random_559845490652816535999819652372","output":"TheRichest"},{"input":"random_776148370206521571102390989152","output":"Wassabi"},{"input":"random_5766575775118181434214828958001","output":"Wengie"},{"input":"random_82354699463896266604758731969094","output":"Collins Key"},{"input":"random_18196584266140108900539391282032","output":"Adele"},{"input":"random_93424679877738209147625152877900","output":"Zoella"},{"input":"random_54953039542398544443972654465418","output":"Sia"},{"input":"random_1816398718814651483552147843349","output":"EeOneGuy"},{"input":"random_41054765760911221019131206123360","output":"Rotana"},{"input":"random_38317339847741443929772486832055","output":"Skrillex"},{"input":"random_84477773082378035057364143330902","output":"Drake"},{"input":"random_36550989012261527889188178550963","output":"Typical Gamer"},{"input":"random_43648830118073254511051062132685","output":"ThatcherJoe"},{"input":"random_26737205462019144412442949601562","output":"CinemaSins"},{"input":"random_6851881627362750483039882285558","output":"LaurDIY"},{"input":"random_9609383704428864787834781780061","output":"CrashCourse"},{"input":"random_86017830776494055331808823790569","output":"Ray"},{"input":"random_10690144431934905350187852690753","output":"MrSuicideSheep"},{"input":"random_5646430856465965417556283558706","output":"Mr Bean"},{"input":"random_26659839380667477499352869481530","output":"Tasty"},{"input":"random_67121725448751635065799329519052","output":"Jelly"},{"input":"random_85864479064610524739572167518242","output":"Mister Max"},{"input":"random_52926312115487245254919696664240","output":"PlayStation"},{"input":"random_70198790024581433909898278880483","output":"Proximity"},{"input":"random_31961743813473475171754750324822","output":"Farruko"},{"input":"random_67261478711807012084814165292341","output":"RocketJump"},{"input":"random_8380598288636798946806079369066","output":"TheGrefg"},{"input":"random_3907764782299858137794973279681","output":"DJ Snake"},{"input":"random_36948229186932191508251731623433","output":"FaZe Rug"},{"input":"random_42429480734802288857230668447584","output":"RiceGum"},{"input":"random_43203025578581264676946371814126","output":"MrGear"},{"input":"random_8100461855874415210093767696561","output":"Wolfie"},{"input":"random_38717926092291616559457098257651","output":"Lachlan"},{"input":"random_2796943469285375974663328412295","output":"Deji"},{"input":"random_84731746835595575332972816823214","output":"ToyScouter"},{"input":"random_93870801134292926259441302719351","output":"Anitta"},{"input":"random_9053118483497594705095477430392","output":"MrBeast"},{"input":"random_74658352173184481592409944176884","output":"Miniminter"},{"input":"random_80070361114199367657566461365870","output":"Apple"},{"input":"random_48646204917268378732096960173277","output":"Marzia"},{"input":"random_26631745355448925001633330403525","output":"Caspar"},{"input":"random_58193913370354474754109945880685","output":"FactTechz"},{"input":"random_48972828286281004953366012840223","output":"OneRepublic"},{"input":"random_98551735670813082863430133392290","output":"Infinite"},{"input":"random_92063619843791842266017864564178","output":"Tomorrowland"},{"input":"random_36679568789627615454514446002967","output":"TechRax"},{"input":"random_5245814668157305184345631799754","output":"Domics"},{"input":"random_142908071563169464084485413414","output":"Tobuscus"},{"input":"random_1192832028377115987514161348159","output":"Future"},{"input":"random_8941028047160975416338506149296","output":"Denis"},{"input":"random_50537423579869722460362691038202","output":"Netflix"},{"input":"random_47435201958078891458391001834014","output":"TheTalko"},{"input":"random_39601629910564773853416734481962","output":"Google"},{"input":"random_70937605265647474439107730881031","output":"DJSnakeVEVO"},{"input":"random_11698305177080263698441509985788","output":"Muselk"},{"input":"random_4898646374078219391273840084798","output":"StarPlus"},{"input":"random_89416357032098052046933486225797","output":"GoPro"},{"input":"random_666730702603235371653256059763","output":"Morgz"},{"input":"random_52407840354077738056828111696672","output":"Blossom"},{"input":"random_30636622006290808423817901881079","output":"Howcast"},{"input":"random_28314196544435369484721920581416","output":"Migos ATL"},{"input":"random_67087369746015177567342628407312","output":"Goldmines"},{"input":"random_95777768968491487872737215616799","output":"MagicofRahat"},{"input":"random_49053343117759331362813852490929","output":"Mo Vlogs"},{"input":"random_53092187376399315009695139295434","output":"TobyGames"},{"input":"random_15680467015526142767468993790061","output":"Macklemore LLC"},{"input":"random_18907843579834869739340057989312","output":"DJ Khaled"},{"input":"random_33881553304680888367245341782752","output":"Bratayley"},{"input":"random_86641252143211505361851499404160","output":"Geet MP3"},{"input":"random_78443053276940521679688093980942","output":"FaZe Adapt"},{"input":"random_34998992193251358245862949553897","output":"MayBaby"},{"input":"random_69157394063665352333314083905504","output":"TomSka"},{"input":"random_98612703360905843242022806367175","output":"EvanTubeHD"},{"input":"random_2605464374159717958214754300614","output":"G-Eazy"},{"input":"random_1033812801241729793427049045161","output":"Mr. Tops"},{"input":"random_37106436999251518062034548995685","output":"BigDawsTv"},{"input":"random_65550213651755265559997701984893","output":"HoomanTV"},{"input":"random_45033065392599635311584092580077","output":"Tyga"},{"input":"random_38698437606478261717675771973148","output":"SciShow"},{"input":"random_62627672851490622298772866788940","output":"GameGrumps"},{"input":"random_39253032065855822220825712733842","output":"Vox"},{"input":"random_54135595618662328353042205098653","output":"ConnorFranta"},{"input":"random_96883553559881749565329158782154","output":"CloeCouture"},{"input":"random_4481830544453967555856470512876","output":"MoreAliA"},{"input":"random_18714759065705638833539673144104","output":"JeromeASF"},{"input":"random_71736419971249585342800938768286","output":"Veritasium"},{"input":"random_47566604394429062076288509498391","output":"Zedd"},{"input":"random_6767935576864479574227880305289","output":"FitnessBlender"},{"input":"random_33645535205116979596609279343674","output":"Sanam"},{"input":"random_66733695804476728512629840436827","output":"Arcangel"},{"input":"random_37387798129361011496042411136615","output":"Corridor"},{"input":"random_25750041701182319529356861593138","output":"MessYourself"},{"input":"random_85491918267750334925726410028750","output":"PlayToys"},{"input":"random_80071327601026788626633249606708","output":"FaZe Clan"},{"input":"random_52340887991822596399234179371414","output":"ExplodingTNT"},{"input":"random_64207992099226128854262551890459","output":"FutureVEVO"},{"input":"random_51408552736172498141279921956115","output":"FaZe Banks"},{"input":"random_85982084020600216447057681997204","output":"Paint"},{"input":"random_55860527454058569994940193295438","output":"JonTronShow"},{"input":"random_87849246984451496016533276340239","output":"Desiigner LOD"},{"input":"random_6101678013693430124117703167421","output":"Ch7HD"},{"input":"random_1002169929204831453774174611226","output":"Slogoman"},{"input":"random_37887698496733488895957191037114","output":"GamingWithJen"},{"input":"random_2137542151720954293476007674102","output":"ChrisFix"},{"input":"random_72720640409331029729032256509290","output":"Cimorelli"},{"input":"random_73601345485843523643354319486529","output":"DashieGames"},{"input":"random_97517829461247562045743267244517","output":"Ceeday"},{"input":"random_44884771009235029633705892567972","output":"So Yummy"},{"input":"random_68305710374439935812369662806598","output":"DramaAlert"},{"input":"random_37649090315432173304455795135885","output":"LDShadowLady"},{"input":"random_30946990716380295721135915076925","output":"YourHealth"},{"input":"random_3753887788661795852597514177997","output":"Fortnite"},{"input":"random_6658729270673796673468605599795","output":"Gorillaz"},{"input":"random_65748799858883246753450740358515","output":"Passenger"},{"input":"random_10893449957401133876293187675423","output":"Usher"},{"input":"random_36852122557424163609767130988734","output":"Manucraft"},{"input":"random_47445475195266477916600446145230","output":"GunVsGun"},{"input":"random_81400382829904056864206923182472","output":"CarryMinati"},{"input":"random_52752389014639614665198366677570","output":"Tested"},{"input":"random_74669997498673473518505890179928","output":"OficialDonOmar"},{"input":"random_77101566922312052979223325119906","output":"TGFbro"}],"characters":["r","a","n","d","o","m","_","3","8","0","2","9","7","6","4","5","P","e","w","D","i","1","T","-","S","s","E"," ","h","M","u","c","C","L","K","H","B","W","k","F","l","A","y","v","p","g","O","V","R","t","b","Z","G","x","J","I","Y","f","j","z","N",".","U","stop-input","start-output","unrecognized"],"specialIndexes":[63,64,65]}},"trainOpts":{"iterations":55,"errorThresh":0.005,"log":true,"logPeriod":10,"learningRate":0.01,"callbackPeriod":10,"timeout":"Infinity"},"input":{"rows":67,"columns":66,"weights":[-0.004598706029355526,0.7268063426017761,-0.9773515462875366,-0.5470026731491089,1.3256698846817017,-0.1118096262216568,-0.6808223724365234,0.8822762966156006,-0.13358980417251587,-0.22368566691875458,0.5758249163627625,-0.5323153734207153,0.006996610201895237,-0.14801780879497528,0.08089576661586761,0.14938707649707794,-0.02684304304420948,-0.5545188188552856,0.028815865516662598,-0.6248432397842407,-0.09173991531133652,-0.5133504271507263,1.0391411781311035,0.8683684468269348,-0.4424023926258087,-1.338879942893982,0.43541550636291504,1.7510290145874023,0.7998517751693726,-0.15785351395606995,0.8433377146720886,-0.8582634329795837,0.5967718362808228,-1.484198808670044,0.4448155164718628,-0.033741340041160583,0.7400301098823547,0.14366979897022247,0.0812201201915741,0.09986866265535355,-0.0168908778578043,1.1311566829681396,-1.2928887605667114,0.572982668876648,1.0052316188812256,-0.6370052099227905,-0.10032884776592255,1.1240746974945068,-0.6462836861610413,0.4162580966949463,-0.6535150408744812,-0.23219908773899078,-0.5868577361106873,0.8625285625457764,-0.42523908615112305,-0.700629711151123,0.7257282137870789,0.07373259216547012,-0.6450453996658325,0.2290957123041153,-0.04535446688532829,-1.2367103099822998,0.3612947165966034,-0.5896649956703186,0.4048976004123688,-0.7774413228034973,0.39076775312423706,0.40292611718177795,-0.8051357269287109,-1.0377126932144165,-0.3993450105190277,0.831818163394928,0.9622880816459656,0.8641824126243591,1.0489777326583862,-0.3823295533657074,-0.40215274691581726,0.8378319144248962,-0.03838801756501198,0.12281164526939392,0.9352986812591553,1.3327158689498901,0.3523406982421875,-0.8959230780601501,0.6548922657966614,-0.20980152487754822,0.4234614372253418,-0.3763328492641449,0.16049033403396606,0.2121412307024002,-0.07553360611200333,-0.6943877935409546,1.2602864503860474,-0.10472285747528076,0.03737102448940277,0.4880163371562958,0.25623399019241333,-0.9896034002304077,-0.30796751379966736,-0.43881067633628845,-1.0411120653152466,-0.3293582797050476,0.07963509857654572,0.40450406074523926,0.5868393778800964,-0.25697582960128784,1.2990317344665527,-1.5007898807525635,0.015828978270292282,-0.4130170941352844,-0.06847205758094788,0.16076824069023132,0.02832677774131298,0.028153132647275925,0.38280433416366577,0.26732614636421204,0.3584500849246979,0.2768172323703766,-0.769135057926178,0.2953283190727234,0.6661315560340881,-0.9049263000488281,0.3214636743068695,-1.3689947128295898,0.5665372610092163,0.32652509212493896,-0.3150816261768341,-0.4234737455844879,-0.04646232724189758,-0.14640671014785767,0.03097638674080372,-0.14524051547050476,0.29506856203079224,0.19668050110340118,0.10948704928159714,-0.36134451627731323,-0.11185956001281738,-0.08607707917690277,0.311049222946167,0.24639329314231873,0.1216820627450943,-0.3932023048400879,0.3803541958332062,-0.28514429926872253,0.9956586360931396,0.3486856520175934,-0.02271823026239872,-0.42293843626976013,0.005519758444279432,0.6930945515632629,0.24948082864284515,-0.35306933522224426,0.9086488485336304,0.4193079173564911,0.3529954254627228,0.44893214106559753,-0.2658843696117401,0.13443619012832642,0.35842135548591614,0.33932894468307495,1.287924885749817,0.5145657062530518,0.7149067521095276,-0.3971198499202728,-0.41772758960723877,0.07757984846830368,-0.23071876168251038,0.1877283900976181,0.1769459843635559,-0.24567899107933044,-0.21075639128684998,-0.3120518624782562,-0.4627949595451355,0.8542977571487427,-0.5491873025894165,-0.22043780982494354,-0.6323121786117554,-0.23190544545650482,-0.5457814335823059,-0.19933472573757172,-0.33402708172798157,-0.37350350618362427,-1.3950806856155396,-0.7122295498847961,-0.32252979278564453,0.03548750653862953,0.6874629855155945,0.1387511044740677,-0.24459721148014069,0.38054415583610535,-0.2267671674489975,0.31463751196861267,0.31032422184944153,-0.44781729578971863,1.5609434843063354,-0.6973775029182434,-0.14701636135578156,-0.585637092590332,-0.5206934809684753,0.09529592841863632,-0.31959909200668335,0.35596153140068054,-0.22339701652526855,-0.5072419047355652,-0.20318979024887085,-0.2651343047618866,0.30826932191848755,-0.36360952258110046,0.810723066329956,-0.1570194512605667,-0.8678893446922302,0.5266106724739075,-0.7632560729980469,-0.5676079392433167,1.1311233043670654,2.4159445762634277,0.3321892023086548,0.14797593653202057,0.7453078031539917,0.09696391969919205,-0.5819944143295288,0.9969569444656372,-0.5043476223945618,1.3208638429641724,-0.1989842653274536,0.020365534350275993,0.9463289380073547,0.07114514708518982,-0.32070234417915344,0.9460796117782593,0.4373628795146942,-0.8601324558258057,0.9939785599708557,0.5421571135520935,-0.19436611235141754,0.33098459243774414,-0.8827753067016602,0.09761892259120941,-0.40159574151039124,-0.917251467704773,-0.26068028807640076,0.43378162384033203,-0.8297014832496643,-0.2380356639623642,-0.5532107949256897,0.7074235677719116,-0.32265469431877136,0.09307298809289932,-0.3318172097206116,-0.6211347579956055,-0.37622886896133423,1.0739978551864624,-1.121856927871704,0.5634337067604065,0.4983360171318054,-0.7832916975021362,-0.716154932975769,-0.9534395933151245,0.352704793214798,0.7894665002822876,0.7982891201972961,-1.2645537853240967,0.34569114446640015,-0.9983196258544922,0.2449980080127716,0.32708263397216797,0.6783652901649475,0.1988992691040039,0.24882686138153076,0.5291147232055664,0.2799401879310608,-0.2709164023399353,0.4353673458099365,0.3452788293361664,0.09521009027957916,-0.38310888409614563,0.4209371507167816,0.20590917766094208,0.3519161641597748,-0.8070961236953735,0.19535815715789795,0.8247527480125427,0.7372449636459351,1.3855706453323364,-1.6854227781295776,-0.3505857288837433,0.4243723750114441,-0.17302551865577698,-0.2553253471851349,1.7391257286071777,-0.8069277405738831,0.1504085212945938,1.0325926542282104,-0.3295463025569916,-0.1886676698923111,0.42059576511383057,-0.6641422510147095,0.8785057663917542,0.4187707006931305,-0.1863165944814682,-0.30988216400146484,-0.30489569902420044,-0.07624075561761856,-0.2535448372364044,-0.6336450576782227,0.6106487512588501,0.14037491381168365,-0.5312710404396057,-1.219486117362976,0.019905531778931618,-0.2819388210773468,0.34786897897720337,-0.264119416475296,-0.32051458954811096,0.8353514075279236,-0.7058135867118835,-0.32301637530326843,-0.4988539516925812,-0.1684867888689041,-0.0102377412840724,0.1498875468969345,1.6744681596755981,0.027311546728014946,0.44156020879745483,-0.542436420917511,-0.006755517795681953,1.4300262928009033,-0.1825779527425766,0.9201955795288086,0.2240743488073349,-0.2676710784435272,-0.5733162760734558,-0.17762479186058044,0.280595600605011,0.4053124189376831,-0.6140376925468445,-1.1084721088409424,0.937279999256134,-0.4855506420135498,0.45719489455223083,-1.0684798955917358,-0.7489188313484192,0.33920297026634216,-0.48980000615119934,0.28857478499412537,0.5375667810440063,-1.4362415075302124,-0.7734121680259705,-0.7898467183113098,-0.5240145921707153,0.4913158714771271,1.2641620635986328,0.40374892950057983,0.12609221041202545,0.08982940763235092,-1.2473108768463135,0.37712720036506653,1.2871426343917847,-0.6984814405441284,0.5963185429573059,0.7504174113273621,-0.22153759002685547,1.4910985231399536,-0.2687675654888153,0.24277369678020477,-0.055226050317287445,-0.1310165822505951,0.1587677001953125,-0.6707367897033691,-0.07759305834770203,-0.18460768461227417,0.8335276246070862,-0.013256554491817951,0.8554432988166809,1.3129225969314575,-1.2460249662399292,0.963363766670227,-0.5318753719329834,-0.6237414479255676,0.40259358286857605,-1.0056918859481812,0.48444864153862,0.5933187007904053,-0.3729321360588074,-0.024633852764964104,-1.2382786273956299,0.1603279560804367,-1.0517326593399048,0.28113093972206116,-0.7065459489822388,-0.6537160873413086,-0.33513200283050537,-0.6414152979850769,0.36636844277381897,0.36486950516700745,0.07429917901754379,0.018637968227267265,0.3161260187625885,-0.0281845573335886,-0.007034576032310724,-0.9201428890228271,-0.24106445908546448,0.03857732564210892,0.5084182620048523,0.2288920134305954,0.03583734482526779,0.29544126987457275,-0.33096227049827576,-0.5088737607002258,1.1954941749572754,-0.8052955269813538,-0.5051980018615723,0.6593813896179199,0.37945371866226196,-0.6908193826675415,-0.9709389805793762,0.037117406725883484,0.40703824162483215,-1.430328130722046,0.43041348457336426,-0.6957619190216064,0.2616230547428131,-0.07482048869132996,0.14873121678829193,0.41894295811653137,0.017800459638237953,0.5600012540817261,0.8000252842903137,0.04906914383172989,1.4139896631240845,0.21036793291568756,0.5514981746673584,-0.42858681082725525,-1.0904508829116821,-0.146882563829422,-0.44335877895355225,-0.24452458322048187,0.1514754742383957,-1.064286470413208,0.06070365011692047,-0.844704806804657,-0.28085318207740784,0.16072465479373932,0.058126721531152725,-0.496608704328537,-1.67060124874115,0.6009363532066345,-1.631927728652954,0.38307082653045654,0.37392348051071167,0.07330680638551712,-0.5218979716300964,-0.2612984776496887,0.4670024514198303,-0.3733915388584137,-0.16614721715450287,0.3047538697719574,0.9552596807479858,0.10256490111351013,-0.46577054262161255,0.253109872341156,-1.008710503578186,0.7268024682998657,0.6345909833908081,-0.430512011051178,-0.8805656433105469,-0.44561222195625305,0.4269026517868042,0.4504508972167969,0.5190874934196472,1.2525675296783447,-1.3683991432189941,0.048902079463005066,1.9037692546844482,0.4464954733848572,-0.39254751801490784,0.31591907143592834,0.7933043241500854,0.07891210168600082,1.0954874753952026,-0.12686194479465485,-0.40446045994758606,-0.04807477071881294,-0.34487810730934143,-0.06769990175962448,1.3309568166732788,0.5807673335075378,-0.35874930024147034,-0.007679819595068693,-0.07638093084096909,0.09264933317899704,0.7858572602272034,0.4827546179294586,-1.1548713445663452,-0.5050508975982666,-0.8495646119117737,-1.6290888786315918,-0.4557672441005707,1.2338591814041138,0.45253610610961914,0.8033972382545471,0.00483686663210392,-0.039575621485710144,-0.8137010931968689,-0.013972848653793335,-0.6142833232879639,-0.3335292339324951,0.7200665473937988,-0.038608189672231674,0.06096728891134262,0.06207549571990967,0.5957053303718567,0.5705536007881165,0.7606042623519897,-0.27235114574432373,0.22273944318294525,0.7013481855392456,0.5165368914604187,0.24853189289569855,-0.41872438788414,-1.1950528621673584,0.6952139139175415,-0.30243682861328125,-0.6688234210014343,-1.094380497932434,-0.01995912194252014,-0.5625432133674622,-0.4645325541496277,1.3778963088989258,-0.48631492257118225,0.0036075173411518335,-0.5730431079864502,-0.9678311347961426,-0.6478864550590515,0.23162305355072021,-0.9420632719993591,0.3786811828613281,0.13965411484241486,0.13242097198963165,1.497708797454834,2.164576530456543,-1.0575356483459473,1.0106850862503052,1.1193864345550537,-0.7780422568321228,0.29982292652130127,0.3482764661312103,-0.021482864394783974,1.1012599468231201,0.023136503994464874,0.5194064378738403,0.48844021558761597,-0.5041832327842712,-0.22618398070335388,-0.15831530094146729,-0.10599026083946228,1.5057004690170288,0.35224491357803345,2.4021832942962646,-1.0570623874664307,-1.0513330698013306,-0.9228923320770264,-1.4269769191741943,0.3955531418323517,0.12261456996202469,0.896340012550354,0.14782120287418365,-0.007756063714623451,-0.21138082444667816,0.2373257428407669,0.31925860047340393,-0.9731537699699402,-0.5895317792892456,0.13396702706813812,-0.6673600077629089,0.6565870642662048,-0.21408013999462128,0.38642066717147827,-0.17374354600906372,-0.7699332237243652,0.39302897453308105,0.041519030928611755,1.345808744430542,-0.3185112476348877,0.2787416875362396,-1.340709924697876,-0.2994498908519745,1.0113327503204346,-1.3752412796020508,-0.16194657981395721,-0.5500826239585876,0.03873465210199356,0.2386605441570282,-0.9057661890983582,0.0787690132856369,0.9243445992469788,-2.124326467514038,-2.5285122394561768,-0.4759734570980072,0.7148641347885132,0.8226751685142517,2.4780044555664062,1.6367768049240112,-0.005995830986648798,-0.1571502983570099,1.9747135639190674,-0.7614239454269409,1.0864074230194092,0.6540157198905945,2.063474416732788,0.4913505017757416,0.19639542698860168,0.379851758480072,-0.2916356921195984,0.43136799335479736,-1.2587822675704956,0.2218017280101776,0.8588287234306335,-0.45732831954956055,-0.7250393629074097,1.5653527975082397,0.02943076379597187,1.1004784107208252,0.39229071140289307,0.259748637676239,-1.3592886924743652,0.1303071528673172,0.17560726404190063,-1.2824887037277222,-0.11206075549125671,-0.23444709181785583,-0.1466071754693985,0.7626462578773499,-0.13357093930244446,2.1298224925994873,-2.2143490314483643,-0.31738966703414917,-0.43427276611328125,0.13679881393909454,0.1082843616604805,0.6153968572616577,1.1701714992523193,0.7075960040092468,-1.002795934677124,1.773445963859558,0.00006755626236554235,-0.9741439819335938,1.1152029037475586,0.9319221377372742,-0.897059977054596,1.4463170766830444,-0.33482852578163147,0.2422347515821457,0.06781377643346786,-0.35488077998161316,-0.8166748881340027,0.48108989000320435,-0.31984061002731323,-0.16748827695846558,-0.4405277669429779,1.3136942386627197,0.4862215518951416,0.6707921028137207,-0.7083688974380493,-0.8481722474098206,-0.2736232280731201,-0.27036020159721375,0.39656877517700195,-0.0051911682821810246,-0.13365976512432098,-1.0060398578643799,0.8025187253952026,1.1733471155166626,-0.6071438193321228,0.5631393790245056,-0.10489847511053085,-1.8060537576675415,-0.014536374248564243,-0.5313543677330017,-0.9606077075004578,-1.938194751739502,-0.4858599603176117,0.1479818969964981,-1.397390604019165,0.20366989076137543,-0.6021333336830139,0.13287711143493652,-1.2580842971801758,-0.0043457550927996635,0.40387633442878723,0.6119089722633362,-0.8994755148887634,-1.3730815649032593,0.5074449181556702,-1.2450965642929077,-0.2653867304325104,0.2988817095756531,-0.3634885847568512,1.2604191303253174,-0.4053507149219513,-0.3367023468017578,0.024612337350845337,-0.2808057367801666,-1.0874825716018677,0.2805785536766052,-0.2914395034313202,0.22897522151470184,-1.7584513425827026,-0.6551671624183655,0.10647614300251007,1.0878496170043945,0.5422027111053467,0.24839220941066742,-0.26671102643013,0.9895333647727966,-0.5150153636932373,0.08107662945985794,0.2819991111755371,-0.1188630610704422,1.0050731897354126,-0.7694188952445984,-0.96025151014328,-0.21067193150520325,0.2829383909702301,-0.8699854016304016,0.2089243233203888,-0.21010760962963104,0.9093444347381592,0.6358309984207153,0.7149350047111511,-0.29144054651260376,0.5479450821876526,-0.19613809883594513,-0.20148679614067078,0.351245641708374,0.06026395782828331,-0.1879512220621109,0.026500511914491653,-0.11337237060070038,-0.9358793497085571,1.1175193786621094,-0.5084314346313477,-0.4761779308319092,0.7249701619148254,-0.18723423779010773,-0.6428098082542419,-1.503002643585205,0.09158818423748016,-0.07720733433961868,-0.24538199603557587,0.5147745609283447,0.6309463381767273,-0.8749001622200012,0.09881941974163055,1.1771372556686401,-0.6176411509513855,-0.5319414734840393,0.34661540389060974,0.34622740745544434,0.48479729890823364,0.4308222830295563,-0.16965466737747192,-0.16405844688415527,-0.9094337224960327,0.09841040521860123,0.44313502311706543,-0.2593957781791687,0.47930070757865906,0.5217379927635193,0.20277194678783417,-0.8074445128440857,-0.24608498811721802,0.38569512963294983,0.12702661752700806,-0.10862187296152115,-0.4383986294269562,0.9297410249710083,0.39607223868370056,0.7111907601356506,-0.6833010911941528,-0.37367674708366394,0.13386434316635132,-0.49592292308807373,0.49767962098121643,-0.13525597751140594,0.002974550938233733,-0.037808261811733246,0.3324272930622101,0.18067480623722076,0.10446225106716156,-0.2887815535068512,0.8556318879127502,1.237593412399292,-0.07716984301805496,-0.7200419306755066,-1.9554612636566162,0.6484308242797852,-0.06853038817644119,0.012958080507814884,0.12752164900302887,0.08539111167192459,0.21295428276062012,0.07216377556324005,0.27173542976379395,0.5922431349754333,-0.5093230605125427,-0.15268149971961975,1.2793774604797363,0.08287585526704788,-1.2640565633773804,0.27837905287742615,0.38007012009620667,0.04224075376987457,-1.5340367555618286,1.078170895576477,-0.464195191860199,-1.0044268369674683,-0.830040454864502,1.0715168714523315,-0.7193007469177246,0.3483319580554962,0.6566343307495117,0.816428542137146,-1.7135087251663208,-0.5818965435028076,-0.12299300730228424,0.03693941980600357,-0.5517038702964783,0.5738166570663452,1.186833143234253,0.7640603184700012,-0.2700573205947876,0.7932288646697998,-0.43666312098503113,-0.22784823179244995,-1.42060124874115,1.3241244554519653,0.25728192925453186,0.6740990281105042,0.14181217551231384,-0.46194568276405334,1.2625058889389038,-0.36500313878059387,-0.047275155782699585,-1.013593077659607,-0.29584014415740967,1.25478994846344,-1.1649757623672485,2.076646089553833,-0.5111087560653687,0.08358367532491684,0.7882925868034363,-0.14668434858322144,-1.491329312324524,-0.5228375196456909,0.4478813409805298,0.7613382339477539,-0.9161320924758911,0.37471094727516174,0.9025970697402954,-0.42150312662124634,-1.0003483295440674,-1.0748803615570068,1.4580556154251099,0.4195195138454437,-0.1800030618906021,0.5708667039871216,0.2780431807041168,-0.17050345242023468,0.6019213199615479,-0.37898802757263184,0.8831103444099426,-0.5881016254425049,0.896030604839325,2.0293145179748535,-0.39427345991134644,-0.80238276720047,-1.4016810655593872,0.3372501730918884,0.1443869024515152,-0.2531558573246002,0.24620066583156586,0.7572992444038391,0.20824770629405975,0.2139756977558136,0.29527369141578674,0.11772315949201584,-0.2873075604438782,-0.19844889640808105,-0.685596764087677,-0.1623772382736206,1.068420171737671,-0.5103000402450562,-0.9641978144645691,-0.367156982421875,-1.7359576225280762,0.8141568303108215,0.44416752457618713,0.6003279685974121,0.004982775542885065,-0.052808959037065506,0.07139279693365097,0.35053613781929016,1.4526705741882324,0.991434633731842,-0.16925406455993652,0.492529958486557,-0.995640218257904,0.6970029473304749,0.4061034917831421,0.18178515136241913,-0.08316940069198608,0.5306397676467896,0.8969345688819885,-0.29384610056877136,0.11734337359666824,0.11559838056564331,0.6329802870750427,0.5269511938095093,-0.3831987977027893,0.6871400475502014,-0.22755897045135498,-2.0537524223327637,0.18703509867191315,0.313314825296402,1.3798733949661255,0.1401233822107315,0.7975232005119324,-0.2561347484588623,0.7754077315330505,-0.23323121666908264,0.7049247622489929,1.6174198389053345,-0.6841975450515747,1.0051058530807495,-0.7468517422676086,0.5352364182472229,0.4611562490463257,0.6863223314285278,-0.6012330055236816,0.5147836208343506,0.8729415535926819,-0.3185056447982788,-1.0090181827545166,-0.9082637429237366,-1.1288480758666992,-1.0218472480773926,-0.3515673279762268,0.043514005839824677,0.854485809803009,-0.45153623819351196,-0.5497481226921082,1.5112802982330322,-0.3528401255607605,-0.6871415376663208,0.991874635219574,-0.4685123562812805,-1.3935632705688477,0.626213550567627,0.01372302882373333,-1.081924319267273,0.48181647062301636,-0.5089432001113892,0.3020341396331787,0.32700756192207336,-0.3237761855125427,0.1883249282836914,-0.49359360337257385,-2.1431126594543457,0.3260951340198517,-1.329780101776123,1.308546781539917,-0.27826476097106934,0.84795081615448,0.9318170547485352,-0.6983451247215271,0.1999751180410385,-0.4371682107448578,-0.6075852513313293,0.6879873871803284,0.21946562826633453,0.5875293612480164,-1.6863950490951538,1.1189996004104614,-0.5961413383483887,0.4049653112888336,-0.22731442749500275,-1.9169015884399414,-0.19706152379512787,0.31482577323913574,-1.0653406381607056,0.30288368463516235,-0.30596446990966797,0.8399088978767395,0.006813677027821541,-0.09525401890277863,-0.2950190305709839,1.1224937438964844,0.7334144115447998,-0.13174191117286682,-0.33770766854286194,-0.2423810064792633,-1.123552680015564,0.2919493317604065,-1.1305644512176514,-0.3969252407550812,0.6085766553878784,0.2586035132408142,-0.44396349787712097,-0.659282386302948,0.04062950983643532,1.4036141633987427,-0.15583430230617523,-1.1042829751968384,0.3877434730529785,-1.0614203214645386,-0.017544157803058624,0.566616415977478,-1.4499356746673584,-0.22143086791038513,0.8209973573684692,1.4649126529693604,1.5032771825790405,0.017573093995451927,-0.10482560843229294,-0.4825897216796875,0.8503967523574829,-0.7294243574142456,0.2513318657875061,0.23035095632076263,0.1802564263343811,0.3942938446998596,-1.3746484518051147,1.214449167251587,0.6521837711334229,-0.4770953357219696,1.0737806558609009,-0.6252833604812622,-0.3936539590358734,-0.807798445224762,0.034832410514354706,-0.1897311806678772,1.2222250699996948,1.63313889503479,-0.29506006836891174,-0.3261188566684723,-0.3661506772041321,-0.1350080519914627,-0.35824987292289734,-0.8043160438537598,0.7428215146064758,1.4836537837982178,-1.414263129234314,1.4127197265625,-0.7818813920021057,-0.23916064202785492,-0.3219403624534607,-0.20165225863456726,-0.9329054951667786,-1.5216439962387085,-0.8956953883171082,-1.3696945905685425,0.6278380751609802,1.9929090738296509,0.06659416109323502,0.17664313316345215,0.5655701160430908,0.0410131998360157,-0.8933430910110474,1.9011125564575195,-1.2105712890625,-0.49184826016426086,1.1856547594070435,-0.45094478130340576,1.1812641620635986,0.6113038659095764,0.14707836508750916,-0.03183771297335625,-0.3507368862628937,-0.4582618176937103,-0.3332980275154114,0.38983672857284546,1.0710442066192627,0.5807991623878479,0.5892684459686279,0.9621027112007141,0.11439167708158493,-0.21281006932258606,0.18548820912837982,-0.37287425994873047,-0.2647109031677246,-0.6889564394950867,-0.4972116947174072,0.16644148528575897,0.3144695460796356,-1.0225900411605835,-0.054639190435409546,-0.13864129781723022,-0.8143908977508545,-0.27359822392463684,-0.01581883430480957,-0.15427365899085999,-0.15782633423805237,0.555672287940979,-0.17004793882369995,0.3947003483772278,1.660813808441162,-1.9773672819137573,-0.21932290494441986,-0.20329649746418,-0.569599986076355,-0.3089364171028137,-0.2933862507343292,0.7706486582756042,-0.34345752000808716,-0.5773538947105408,-0.6368570327758789,-0.4973396062850952,2.0478875637054443,-1.97488272190094,0.12026791274547577,-0.5712423324584961,7.308189868927002,0.23711645603179932,2.0895934104919434,0.7688024044036865,0.6715896129608154,6.704718589782715,7.235040187835693,-5.373630046844482,-5.187832355499268,4.358745098114014,-0.44207048416137695,1.1281938552856445,7.3506879806518555,-0.37463974952697754,0.07361499220132828,-0.2894141376018524,1.3834412097930908,-0.5947197079658508,-1.246445655822754,-0.27330994606018066,-0.8529178500175476,-3.228031873703003,-2.0489425659179688,-2.6849093437194824,-2.124802827835083,1.8911221027374268,-1.5199506282806396,-8.165769577026367,3.8535823822021484,-0.40880444645881653,-4.955788612365723,1.1759059429168701,-8.266963005065918,2.063962936401367,-1.8658933639526367,-7.833221912384033,-2.230074167251587,1.3082106113433838,7.921301364898682,2.7353897094726562,-3.940906286239624,-0.8308663368225098,2.0075550079345703,-8.18497085571289,-6.014927864074707,8.648215293884277,-6.0227813720703125,4.211125373840332,3.291076183319092,-2.274066209793091,3.447014331817627,-3.733598470687866,-1.3496582508087158,-3.6118059158325195,-1.4896533489227295,3.756553888320923,-0.73866868019104,3.33892822265625,-0.49310997128486633,7.311460971832275,-4.048160076141357,2.3581345081329346,0.4466972053050995,4.636101245880127,4.363845348358154,1.1338568925857544,0.2887224555015564,-0.7236828207969666,-0.434429407119751,-1.7125322818756104,0.44630953669548035,0.09201035648584366,0.5344964861869812,-1.6156636476516724,0.3883083164691925,-2.9725403785705566,2.769256114959717,0.8363540768623352,1.2786245346069336,0.46863919496536255,-1.1315715312957764,0.8325844407081604,0.7890298366546631,-0.5610730051994324,0.3772965371608734,2.697596788406372,2.3490796089172363,-0.9831649661064148,-0.6960276365280151,0.3302292823791504,-1.100606083869934,-0.7634755373001099,-0.0322926864027977,-0.7906490564346313,-0.4553932845592499,0.17534253001213074,-0.04062315449118614,-1.5994325876235962,-1.1518923044204712,-0.5343337059020996,0.050652340054512024,-0.5071284174919128,0.6471455693244934,1.869254231452942,0.7318129539489746,-0.473151296377182,0.43715089559555054,-1.5426936149597168,-1.3299975395202637,-0.5077357888221741,-1.3151578903198242,1.211552381515503,0.6496679186820984,-1.3120602369308472,-2.306915283203125,1.4928048849105835,-2.2512779235839844,-1.3704911470413208,-2.3611528873443604,0.9180827140808105,0.1973026841878891,-0.4301777482032776,1.7416082620620728,-0.8073107600212097,-1.5451991558074951,0.531234085559845,-1.467880129814148,-1.0358803272247314,-1.5872735977172852,-0.9680894613265991,0.8661265969276428,-1.0574166774749756,9.180255889892578,4.155176162719727,-0.6061508655548096,-3.1959638595581055,-7.389290809631348,4.312411308288574,7.015552043914795,0.7870050072669983,3.5622241497039795,6.2131805419921875,-9.230409622192383,3.415811061859131,10.240134239196777,0.9041173458099365,8.542485237121582,2.6697514057159424,-5.741032600402832,-1.6684143543243408,1.558250069618225,-3.714526414871216,-4.769990921020508,-1.972449779510498,-4.404808521270752,-5.498937606811523,1.0698519945144653,-1.4488857984542847,0.005314261186867952,-2.8449759483337402,5.154174327850342,-7.134758472442627,-4.374142169952393,-3.2275595664978027,-8.005462646484375,5.697007179260254,-3.6676065921783447,-4.569624900817871,-7.994619369506836,-3.851224899291992,4.816931247711182,8.336174964904785,6.943624973297119,-1.738492488861084,8.328752517700195,-6.727842330932617,-2.997340440750122,7.244716167449951,-2.6068227291107178,-8.693778991699219,7.378412246704102,4.768737316131592,6.062231063842773,7.447949409484863,10.545084953308105,0.8284959197044373,8.510819435119629,4.657978534698486,2.5354669094085693,-4.2462029457092285,10.258819580078125,7.8025689125061035,-1.3578275442123413,-3.6767685413360596,6.577548980712891,7.277682781219482,-4.989274501800537,1.693028450012207,-1.7826018333435059,-1.9503527879714966,-0.8785161972045898,1.9885648488998413,-2.9619739055633545,-1.7754353284835815,-1.2121844291687012,-2.1153039932250977,-0.5481423139572144,-2.890814781188965,-0.7114306688308716,-3.860612392425537,1.1632694005966187,0.24900886416435242,-1.328618049621582,-4.417496204376221,2.8450844287872314,-1.2756614685058594,-0.7281431555747986,-1.2706414461135864,2.998631000518799,4.345494747161865,-3.1657907962799072,-1.1906864643096924,1.3433431386947632,4.688957691192627,-4.9787397384643555,2.821532964706421,-0.5740494728088379,-1.5656911134719849,-3.656398057937622,7.267144680023193,1.3875163793563843,-3.1490583419799805,8.447362899780273,1.1181974411010742,-2.0656650066375732,-2.8837082386016846,-6.007151126861572,2.4883127212524414,-4.1808552742004395,4.702249050140381,0.7816305160522461,0.5628249049186707,-8.294815063476562,-2.4428858757019043,-6.938520908355713,0.09853025525808334,-2.0646281242370605,2.073284149169922,-7.305457592010498,-1.0298407077789307,1.6327019929885864,1.2541314363479614,-5.508211135864258,3.57452130317688,0.9874969720840454,0.6545349955558777,-3.0330982208251953,-1.8726800680160522,0.6236767172813416,3.2681994438171387,3.0348494052886963,-2.270111322402954,0.23509564995765686,0.5004295706748962,-0.9878629446029663,-2.5843939781188965,-0.5014048218727112,1.8826831579208374,2.6431219577789307,0.21700534224510193,0.4599734842777252,-0.5063672661781311,-2.067228078842163,-0.8510780930519104,-0.13584792613983154,0.9167929291725159,-1.1484711170196533,1.203576922416687,-0.16430173814296722,-0.6937760710716248,-2.145416259765625,-3.0106019973754883,1.2790707349777222,3.542099952697754,0.22571367025375366,-1.808744192123413,0.9197388887405396,1.17935049533844,-2.5650320053100586,-0.4768669009208679,1.4304447174072266,-1.600305438041687,-1.345308542251587,-0.6868524551391602,0.7039549946784973,1.872306227684021,0.4693251848220825,-3.3159403800964355,0.6056661009788513,-2.16585111618042,3.9880788326263428,3.7844181060791016,-0.45455503463745117,-1.942771077156067,0.9554056525230408,-2.4442367553710938,-1.662543535232544,0.9006679058074951,0.12215942144393921,0.41826626658439636,0.3835388720035553,1.3897373676300049,0.49769872426986694,2.3166680335998535,-1.785417914390564,-0.2703816592693329,-2.703287124633789,0.9208675622940063,-0.7862147688865662,-1.1669741868972778,0.9499456882476807,0.23102179169654846,-1.5764989852905273,-0.7555692195892334,0.3283217251300812,-0.7431209087371826,-1.578022837638855,-1.0405687093734741,1.8776180744171143,-0.09576123207807541,-0.6998884081840515,0.6958311796188354,0.15717197954654694,0.19696015119552612,-0.7509841322898865,0.5986784100532532,-1.0499236583709717,0.23387524485588074,0.9739848971366882,-0.6664796471595764,-0.834514856338501,-0.10565277934074402,-0.7746857404708862,0.6215824484825134,0.6059311628341675,-0.14845936000347137,0.028788616880774498,-1.188963770866394,0.765814483165741,0.08982443809509277,1.2966123819351196,0.5780379176139832,0.14486411213874817,-0.06796560436487198,0.19433850049972534,-0.005285955034196377,0.8290281295776367,2.1104233264923096,0.1452936977148056,-0.03398829326033592,0.5435154438018799,0.1182386577129364,1.0636876821517944,0.00753204757347703,-0.027962546795606613,0.6977676153182983,0.2767868638038635,-0.05087098106741905,-0.34173375368118286,-0.34391316771507263,0.1658855825662613,0.8587990403175354,0.08828530460596085,1.000927209854126,0.18813297152519226,-0.6586949825286865,0.8676681518554688,-0.6533055305480957,-0.5261039137840271,-0.6142509579658508,-0.5616165399551392,0.9777651429176331,-0.40922918915748596,-0.45490992069244385,0.6431325078010559,-1.1134790182113647,-0.4572054445743561,0.4484363794326782,0.5296444892883301,0.28993555903434753,0.4652315378189087,0.16139240562915802,1.3218263387680054,-0.3545175790786743,0.08510830253362656,-0.48562076687812805,4.644160747528076,2.52793025970459,-0.5953257083892822,-1.6110553741455078,4.830554962158203,1.0580109357833862,2.3551793098449707,-1.6477737426757812,-2.015456438064575,2.1259467601776123,2.8165454864501953,1.4809658527374268,5.520683765411377,4.340089797973633,-1.5716688632965088,1.9866279363632202,-1.5971604585647583,1.9112355709075928,3.2453956604003906,1.5533572435379028,-2.4522035121917725,-0.7521569132804871,1.1810519695281982,1.0674943923950195,-2.295379877090454,-1.645310640335083,2.3286819458007812,-5.392708778381348,1.0849192142486572,-4.785031795501709,-2.1978700160980225,-1.7312144041061401,-5.119500160217285,-2.6412980556488037,-0.9338991641998291,-3.484835147857666,-0.2025001347064972,2.978499174118042,1.4994248151779175,0.7254105806350708,0.5908839106559753,0.5434279441833496,-0.8856983184814453,-4.1292877197265625,-0.9497590065002441,5.47424840927124,-6.122101783752441,1.3886945247650146,0.782024085521698,3.9574546813964844,-0.6845264434814453,-0.021914774551987648,-2.2080798149108887,2.2248191833496094,0.8766645193099976,1.7855757474899292,1.2427096366882324,2.701932191848755,-2.4916529655456543,4.654172420501709,-1.6685224771499634,-2.600644826889038,-2.167968511581421,-0.5560761094093323,3.1644108295440674,-2.274519443511963,-21.430713653564453,8.585211753845215,14.61835765838623,9.38062572479248,-6.742691516876221,-7.708658695220947,-10.290125846862793,-9.573472023010254,7.913581848144531,-10.945685386657715,-1.3382099866867065,-5.068693161010742,-2.3145997524261475,-17.488082885742188,-4.400318145751953,-13.737568855285645,4.1693243980407715,-17.80950355529785,-4.079983711242676,7.0594635009765625,7.438347816467285,4.801146507263184,5.468426704406738,-18.943620681762695,6.551080703735352,1.8267914056777954,-0.5842095613479614,17.48729133605957,-2.3923869132995605,2.1272425651550293,12.29482650756836,2.9366455078125,15.676687240600586,-3.768430233001709,-11.469156265258789,1.1750479936599731,13.552408218383789,0.4621180593967438,5.716780185699463,-1.2716091871261597,-15.279829025268555,9.600800514221191,0.6576127409934998,14.133316040039062,2.0332937240600586,-3.4809985160827637,8.004130363464355,-2.7711522579193115,-20.45450782775879,-4.55214786529541,6.451387882232666,-21.90119743347168,-7.487784385681152,9.758611679077148,-3.9918856620788574,-12.89658260345459,-18.580991744995117,12.320056915283203,-13.260156631469727,-4.099184036254883,1.8440921306610107,0.2945263385772705,12.415972709655762,-11.454154014587402,1.3520113229751587,-4.160895347595215,-0.08257270604372025,1.6639838218688965,2.9745888710021973,1.8089877367019653,-0.3846660554409027,-1.7980488538742065,-2.9070866107940674,-2.642514705657959,-0.9695960879325867,4.648045063018799,-1.0494027137756348,-4.137304306030273,-0.1283191591501236,-8.511613845825195,0.32068660855293274,-2.838916063308716,-2.662811279296875,-1.7877250909805298,-2.144097089767456,-0.5108965039253235,-0.20764438807964325,0.8779173493385315,-2.6946191787719727,1.6942613124847412,5.453670978546143,2.0360093116760254,-3.723666191101074,4.337126731872559,0.7507579922676086,-1.4679807424545288,0.14298641681671143,-0.38186338543891907,1.5315399169921875,0.41552770137786865,2.805248260498047,-0.6112163066864014,1.8452606201171875,1.4475308656692505,-3.8503220081329346,3.8541297912597656,-5.246798515319824,7.706401824951172,0.7298898696899414,-1.55258047580719,5.608570098876953,-5.6053314208984375,-0.14793743193149567,-3.362609624862671,0.1766679883003235,0.27730488777160645,-0.6005592346191406,3.397899866104126,3.4730827808380127,-2.935840606689453,3.4487650394439697,7.838325500488281,-5.994694709777832,0.5186343789100647,2.504122257232666,-1.104671597480774,-0.43838828802108765,1.4874321222305298,-1.8707855939865112,3.152906656265259,-0.2733180522918701,6.4690656661987305,-2.891892194747925,-0.5293859243392944,-2.5558853149414062,-0.8992586135864258,2.1532437801361084,-0.1485625058412552,-1.3032970428466797,1.3703171014785767,1.4854872226715088,-3.667224168777466,4.4404377937316895,-0.8049855828285217,-0.6748497486114502,0.9140414595603943,-1.0891600847244263,-0.16468283534049988,1.6859654188156128,3.6528637409210205,1.5390599966049194,2.030428409576416,-0.9101299047470093,2.385519027709961,3.4402594566345215,1.643683671951294,0.14408643543720245,0.00004789694503415376,0.5080551505088806,1.8171968460083008,1.4220629930496216,-0.42690879106521606,-0.20958073437213898,-1.0546917915344238,2.756519317626953,-4.067453384399414,1.6247984170913696,-1.0903524160385132,5.296414852142334,-1.3209547996520996,-1.6715755462646484,-0.14851653575897217,-1.1508374214172363,2.644052267074585,-1.2292444705963135,2.0783963203430176,1.9421827793121338,-1.0268795490264893,-1.5528792142868042,1.7792900800704956,-3.1192309856414795,0.31033822894096375,-2.256526470184326,0.7800483107566833,-1.6431399583816528,3.7513625621795654,-1.0272425413131714,0.2324700802564621,1.2385334968566895,2.5554723739624023,-1.8304115533828735,-2.340193510055542,1.636600375175476,-3.1182308197021484,2.6385631561279297,-2.842508316040039,0.5384334921836853,-0.19835302233695984,-5.044974327087402,-0.23399606347084045,-0.6499651074409485,1.8194817304611206,4.790664196014404,-3.9123740196228027,-5.2937493324279785,-2.9809367656707764,1.7297877073287964,-2.2378618717193604,7.382452487945557,-1.2802417278289795,-6.102231025695801,5.019094944000244,-7.076750755310059,-1.556303858757019,2.736642837524414,-4.589725017547607,2.5862443447113037,2.65453839302063,4.305206298828125,0.793060839176178,-0.14309246838092804,0.6433014273643494,3.0368764400482178,-0.7817306518554688,3.5129506587982178,7.332103252410889,-7.54571533203125,0.23758065700531006,-0.4644783139228821,3.250539779663086,6.851570129394531,-0.9186760187149048,3.1225154399871826,-0.1128886491060257,9.702827453613281,2.773674726486206,-3.505770206451416,3.712913990020752,2.1327478885650635,0.669227123260498,-8.702861785888672,4.709508895874023,2.9400787353515625,-7.3348164558410645,9.132332801818848,6.5558390617370605,0.2729495167732239,5.591448783874512,1.582382321357727,-0.004360225982964039,2.68823504447937,2.6471307277679443,-2.7808661460876465,-1.4164937734603882,-4.726790428161621,-5.00001859664917,2.7575266361236572,-4.584048271179199,5.096713066101074,3.2208914756774902,0.606824517250061,-1.6771390438079834,1.1647849082946777,0.9670320749282837,6.369309902191162,4.069619178771973,-4.954287052154541,-5.873245716094971,2.704167604446411,5.051909446716309,-0.4152703583240509,5.787166118621826,3.646111011505127,-4.498705863952637,1.4638943672180176,3.6266798973083496,1.916409969329834,-1.6058976650238037,5.286538600921631,4.948232173919678,5.338298797607422,1.3969955444335938,0.7024950981140137,-5.01231050491333,-3.3476836681365967,-0.3490840792655945,1.0112731456756592,5.455081462860107,-3.7956254482269287,-2.254631280899048,6.06283712387085,2.12956166267395,1.9698185920715332,-0.8771946430206299,1.3653862476348877,-5.786510944366455,-3.1962854862213135,-4.9724202156066895,-4.675319671630859,-3.405585765838623,4.291568279266357,2.9583053588867188,1.7937986850738525,1.8010547161102295,4.153570652008057,-2.631439685821533,-0.18275858461856842,-3.9338486194610596,4.108767032623291,-0.36877596378326416,0.46457457542419434,7.184787273406982,-0.7931188941001892,-0.4752918779850006,1.1770846843719482,0.24200338125228882,-2.8265132904052734,7.677374839782715,7.103241443634033,-2.5030977725982666,3.025946617126465,-4.678903102874756,-2.256077289581299,5.104673385620117,-0.465568870306015,-4.845798492431641,2.287633180618286,1.2062020301818848,-1.3656103610992432,-4.5268425941467285,0.40777596831321716,-5.066240310668945,-0.5426756739616394,-3.0924248695373535,3.333792209625244,2.4218759536743164,-2.3372042179107666,-5.371679306030273,-3.789297342300415,2.8221685886383057,2.7670984268188477,1.344995141029358,-0.3672492206096649,4.530415058135986,-4.051446437835693,-1.7729902267456055,3.1021006107330322,-1.851486086845398,-0.9786111116409302,5.804948329925537,-0.5329467058181763,2.474320650100708,0.36905527114868164,-1.485440969467163,-6.420077800750732,1.9406111240386963,-1.8480381965637207,3.5978362560272217,-2.556851625442505,0.8134578466415405,-0.09721006453037262,-1.3786166906356812,0.9157601594924927,1.7922660112380981,-0.8708308935165405,-0.09019169956445694,2.053740978240967,0.629486620426178,-0.3209340274333954,1.4305479526519775,-7.769231796264648,2.8348891735076904,-6.616809368133545,0.37413784861564636,3.725275993347168,1.9909369945526123,0.6767262816429138,-0.7775974273681641,-1.3623523712158203,-2.0372939109802246,-1.5637863874435425,-3.716461658477783,-4.852756023406982,-1.948141098022461,-1.7319837808609009,-2.174252510070801,1.3343325853347778,-3.9705586433410645,2.300219774246216,-0.36004719138145447,-1.418797254562378,0.04158739373087883,3.730879545211792,1.2929301261901855,2.807741165161133,-3.1217849254608154,0.4942898154258728,-0.6153411865234375,-2.056040048599243,0.38257092237472534,1.1750400066375732,-2.6276609897613525,-1.5714104175567627,3.8439223766326904,0.3598922789096832,0.06151727959513664,1.7017911672592163,-1.4340788125991821,-3.387326240539551,4.0891642570495605,-3.3583905696868896,0.9791302680969238,4.763288974761963,0.04510607197880745,0.39153555035591125,-1.1232455968856812,4.975593566894531,2.3076813220977783,0.4187166094779968,4.065277099609375,-0.536778450012207,-0.5738145709037781,4.268980979919434,1.1861461400985718,-2.2810940742492676,1.1088870763778687,4.441512107849121,0.21603430807590485,1.3303015232086182,0.9370579719543457,1.5481911897659302,3.4390666484832764,-1.061311960220337,-0.05077991262078285,-0.7582460045814514,-0.38489800691604614,3.8959193229675293,-2.0877346992492676,-2.8559248447418213,0.46653762459754944,0.6056538224220276,-0.7400954961776733,3.9687395095825195,1.649693489074707,-2.173872470855713,-0.9376380443572998,-1.2519172430038452,-2.788226366043091,0.12288777530193329,3.3045363426208496,0.5858944654464722,-4.586905479431152,1.2510108947753906,-3.8816745281219482,-0.6313362121582031,-0.2433173805475235,3.518076181411743,2.1800620555877686,-0.16467709839344025,-3.91241717338562,-0.8935264945030212,-2.706894636154175,1.3932011127471924,1.6075983047485352,-2.254479169845581,0.2113713026046753,9.036048889160156,-1.9127752780914307,-2.2528440952301025,0.7249342203140259,1.225123643875122,-2.225287675857544,2.923060417175293,2.5906107425689697,0.9226850271224976,5.620629787445068,0.8742473721504211,3.4058334827423096,2.436180830001831,1.8957635164260864,-1.8955175876617432,-1.4481607675552368,-1.7039657831192017,-2.7677345275878906,1.1662486791610718,1.7323527336120605,-2.7566378116607666,2.57053279876709,3.074773073196411,-0.0931578278541565,1.2787420749664307,1.1821653842926025,1.2841109037399292,-1.2178878784179688,-1.3718942403793335,-2.4234225749969482,-0.5999948978424072,1.8960076570510864,-0.5648577213287354,3.5253665447235107,-1.1976574659347534,2.379642963409424,-3.695469379425049,0.331378698348999,-3.883181095123291,-0.8863995671272278,-3.5960209369659424,3.8229639530181885,-3.1316449642181396,2.1367266178131104,-1.1144342422485352,4.76080322265625,0.5530393719673157,-1.4278987646102905,-2.5392045974731445,2.881549835205078,-0.45082229375839233,-3.5136163234710693,3.9067764282226562,1.5792207717895508,-1.8096517324447632,1.6458123922348022,-2.353426456451416,-2.891580104827881,0.24145670235157013,-1.8685970306396484,4.1274518966674805,-2.017322540283203,-6.437207221984863,2.418205976486206,3.341994285583496,2.2668020725250244,-1.622557520866394,-3.146510601043701,-1.9602692127227783,-2.687530755996704,-1.5428143739700317,0.291877806186676,-0.8991594314575195,-2.519876718521118,-2.3915061950683594,-5.101492404937744,-3.073422431945801,-8.006958961486816,0.14621178805828094,0.807317316532135,-4.667618751525879,0.6629874110221863,0.012889262288808823,2.06919527053833,-1.7212679386138916,2.5074636936187744,1.9760998487472534,5.588624000549316,-5.387235641479492,0.3491915464401245,-3.2463395595550537,1.328790307044983,-0.6237695217132568,1.7626550197601318,4.5683369636535645,5.3751959800720215,3.3548736572265625,0.6685632467269897,2.6500515937805176,0.8331879377365112,-1.4066728353500366,-1.3873317241668701,-7.273293495178223,3.7261784076690674,-0.5407413244247437,5.5276713371276855,5.637976169586182,-0.3489153981208801,1.1919070482254028,-1.6052898168563843,-0.9199651479721069,-1.6015982627868652,-1.8083347082138062,-1.1625559329986572,-2.770148754119873,5.845449924468994,-0.1878472864627838,2.3434031009674072,-3.501854658126831,4.572044372558594,-1.2358487844467163,-6.512867450714111,3.546997547149658,-1.3067970275878906,2.037541151046753,0.5014222264289856,-0.16382324695587158,1.1328961849212646,-1.4569575786590576,-0.6971480250358582,-1.7590659856796265,3.856887102127075,-1.1928752660751343,-0.6832625269889832,-4.580265522003174,3.3611974716186523,-0.2859387695789337,-1.1056004762649536,0.9485872387886047,-4.343169212341309,-2.171220064163208,-1.8902318477630615,-0.39005792140960693,-0.9288321137428284,4.737250328063965,4.0754852294921875,1.8843015432357788,-0.3716578483581543,-4.756802558898926,2.81591534614563,1.1996698379516602,0.8971002101898193,-0.9092119336128235,4.081376075744629,-2.5540857315063477,3.127017021179199,0.7591392993927002,-1.8178781270980835,0.9699171781539917,3.28493070602417,3.360466480255127,-0.7390387654304504,3.494174003601074,4.129260063171387,-1.576605200767517,-4.839460372924805,-2.579440116882324,2.438042163848877,-3.559659719467163,5.45141077041626,4.358442306518555,1.285681962966919,-0.4571082592010498,-2.7931625843048096,0.12437900900840759,1.556510090827942,-2.568530797958374,-3.9669811725616455,2.315034866333008,-1.646774172782898,3.582995891571045,-2.8543450832366943,-2.468554735183716,0.34130144119262695,2.8559494018554688,8.023346900939941,-1.5049282312393188,-0.2656877040863037,1.9642482995986938,0.7381511330604553,5.837868690490723,-3.209545612335205,-0.9049062132835388,-0.05987061932682991,-6.89464807510376,-6.876282691955566,5.370309829711914,0.05270922929048538,1.3959457874298096,-7.591382026672363,-4.456923007965088,-2.5856175422668457,-3.4738433361053467,-4.257913112640381,6.912795543670654,-2.388032913208008,-3.664992332458496,4.823674201965332,-4.228569030761719,-5.45606803894043,6.790656566619873,0.9130860567092896,3.7689480781555176,7.377161502838135,5.631436824798584,5.832923412322998,2.133613109588623,3.5211727619171143,-4.281323432922363,1.5618484020233154,-1.0833966732025146,4.081954002380371,-7.670135498046875,4.536646366119385,4.318276405334473,1.779140830039978,4.4649176597595215,-1.3658018112182617,0.7361772656440735,2.4211392402648926,5.649679183959961,3.786822557449341,-2.3112871646881104,-4.498630523681641,-2.637342929840088,0.16849589347839355,-6.435135841369629,4.922929286956787,-3.4545419216156006,-5.759872913360596,-1.8945332765579224,6.013172149658203,-4.955665111541748,-3.0877511501312256,2.1862733364105225,-7.308168411254883,1.570554256439209,6.8614501953125,-3.209628105163574,-4.822660446166992,-5.743433952331543,-0.9201427102088928,-4.891438007354736,-7.301364421844482,2.746164321899414,2.270348072052002,5.827400207519531,-4.256723403930664,3.028632402420044,-3.0536201000213623,12.757582664489746,2.1352851390838623,-3.870809555053711,-7.181222915649414,-0.6603346467018127,11.311098098754883,8.266460418701172,-2.543194055557251,0.1579314023256302,9.446741104125977,-7.6497297286987305,9.598472595214844,3.8414666652679443,-0.36500316858291626,2.088160753250122,-0.6124645471572876,3.2233991622924805,7.321357727050781,-4.182191848754883,-1.4061400890350342,-13.413066864013672,-9.435221672058105,5.606255531311035,0.9899611473083496,-6.220051288604736,7.910869121551514,-8.06173324584961,-11.760478973388672,5.53262186050415,0.7390822768211365,-0.655332088470459,1.603710651397705,-10.995967864990234,4.642914295196533,-3.136934518814087,-12.07369327545166,-6.2892632484436035,-3.196253776550293,13.810826301574707,2.227855920791626,-4.073227882385254,-9.414254188537598,2.7184717655181885,-11.625956535339355,-3.4501194953918457,13.535199165344238,3.738565444946289,2.0913279056549072,5.687707424163818,-9.381470680236816,6.610381126403809,-3.3334598541259766,-4.141363620758057,1.2117990255355835,7.81696081161499,4.094388961791992,10.929217338562012,7.026778221130371,3.8574650287628174,11.656285285949707,-5.706247329711914,2.561187744140625,3.0466976165771484,8.448112487792969,-4.983201026916504,-5.538730621337891,-4.973302841186523,-1.7577905654907227,4.692046642303467,6.534379482269287,-7.967489719390869,-1.1886898279190063,-0.7909843325614929,-5.825381755828857,-1.3789068460464478,2.0703415870666504,-4.165937900543213,-3.554753065109253,0.04047325253486633,-5.313100337982178,-2.301966428756714,-4.104237079620361,0.6184283494949341,-1.6786088943481445,-3.3302693367004395,-0.1684368997812271,2.521918296813965,3.7483813762664795,-6.57277774810791,-2.7213287353515625,7.062466144561768,1.1059874296188354,-4.372925758361816,-0.13118185102939606,-3.9017486572265625,-5.092575550079346,0.2839769423007965,2.632716417312622,4.049808025360107,2.189573287963867,2.1085000038146973,0.7837463617324829,-0.8574813604354858,0.569985568523407,-0.4563713073730469,-1.5288280248641968,-4.170571327209473,3.1599316596984863,2.728954792022705,4.112574577331543,-1.1586657762527466,3.1820669174194336,1.8272932767868042,-1.0913920402526855,2.3862123489379883,-4.770210266113281,-4.876760482788086,-0.0335657000541687,4.354734420776367,1.6970136165618896,-1.6243207454681396,1.2878156900405884,-6.138551235198975,6.545996189117432,0.2618538439273834,-2.017521381378174,5.890847682952881,0.3545317053794861,-1.3843824863433838,-1.5276644229888916,-2.4020330905914307,1.317044734954834,-1.2178690433502197,-5.699524879455566,-0.19940617680549622,6.679041862487793,-2.394984483718872,-5.244193077087402,-0.8017448782920837,0.3270936906337738,-7.5152177810668945,-6.215886116027832,7.205382823944092,-4.313948154449463,2.1631646156311035,-1.8506786823272705,-3.708745002746582,-5.799560070037842,8.412833213806152,0.4854503571987152,-3.9572970867156982,-6.460614204406738,-7.210911273956299,3.658111572265625,-7.217360496520996,-1.8822940587997437,-0.00013737841800320894,3.664473056793213,-2.5177037715911865,-1.7866421937942505,-4.518157005310059,-0.7037895917892456,-2.8743393421173096,3.3908932209014893,-0.030228184536099434,4.584932804107666,6.730422019958496,2.279843330383301,-9.08956527709961,-8.735620498657227,-2.4662652015686035,3.752225399017334,-5.56370210647583,3.3509609699249268,0.9342443943023682,2.1266095638275146,-6.60710334777832,0.4627658724784851,0.045948635786771774,11.909405708312988,-2.2286622524261475,-6.409409046173096,4.5634026527404785,-8.46677303314209,4.736734867095947,-1.4879297018051147,-6.687986373901367,1.2560186386108398,1.6004449129104614,7.850399017333984,-9.562518119812012,-3.7902300357818604,2.9098258018493652,0.8783097267150879,4.33336067199707,-7.416279315948486,-1.7414783239364624,3.5057156085968018,0.060576990246772766,-2.8506932258605957,-3.3310234546661377,-5.938838005065918,9.035385131835938,1.5459840297698975,-5.502744197845459,2.9028050899505615,-2.586381673812866,-2.7476589679718018,0.35801512002944946,5.548648357391357,-1.0766016244888306,6.614261150360107,1.5158743858337402,3.7663426399230957,-3.6560986042022705,10.71304702758789,-3.69777512550354,2.5023066997528076,-14.161176681518555,-5.145817279815674,7.908754825592041,-6.185111045837402,-6.8669939041137695,0.22105301916599274,3.4201278686523438,-4.276881217956543,5.119899749755859,3.7495217323303223,-2.7779130935668945,-4.146243572235107,-0.2863948345184326,-6.544763088226318,-2.6750242710113525,-6.228663921356201,3.8174335956573486,0.8526778817176819,4.586565971374512,-3.9393370151519775,-5.109553337097168,7.0591912269592285,-9.096182823181152,-1.6003814935684204,2.222937822341919,-0.8699038028717041,2.7509632110595703,-4.5710601806640625,1.3329858779907227,0.20391513407230377,-7.7438645362854,4.441487789154053,-4.120266437530518,-1.9465045928955078,-2.7641072273254395,-2.1225812435150146,1.5120731592178345,8.481569290161133,-1.1297328472137451,1.0695909261703491,-2.838284730911255,-8.884442329406738,2.2022860050201416,3.1374900341033936,0.7757528424263,-0.7956430912017822,-4.508684158325195,3.6006057262420654,4.331295013427734,5.521456241607666,-7.698827266693115,-1.359341025352478,-2.4852054119110107,-9.258187294006348,3.0462870597839355,-0.12705913186073303,-3.126330614089966,-1.3905667066574097,-1.9491503238677979,-7.348552227020264,0.6595184206962585,-3.2657644748687744,-4.070374965667725,-2.619539737701416,-4.494619369506836,0.3064956068992615,4.777933597564697,3.0595715045928955,-5.491649150848389,-2.77950382232666,8.884819984436035,-0.48275285959243774,-7.648763656616211,0.0882977768778801,1.764330506324768,-7.944594860076904,-6.131027698516846,-0.0749150887131691,3.791870355606079,-0.7477428317070007,4.576009750366211,2.9258549213409424,1.492310881614685,1.1547526121139526,-1.4075690507888794,6.406040668487549,-2.84702205657959,-0.7961591482162476,4.697630405426025,3.3780598640441895,-0.8163126707077026,-0.8440502285957336,2.718681812286377,-3.3877828121185303,-5.188810348510742,-0.40277355909347534,-2.589820384979248,-2.970362424850464,1.0418272018432617,0.8260751366615295,-5.7963032722473145,0.4162992537021637,-4.917655944824219,-5.362680435180664,-0.8896374106407166,-3.6244940757751465,1.126128077507019,1.166471004486084,-3.2648448944091797,2.0903828144073486,-4.868649005889893,-2.406315326690674,1.6001017093658447,-0.10011038184165955,5.548295497894287,-1.6729272603988647,-7.078010559082031,-4.830376625061035,-4.386106014251709,-7.137890815734863,7.585241794586182,1.5305949449539185,-0.3304331302642822,5.291857719421387,-2.8969321250915527,-3.8603708744049072,0.9935475587844849,1.6905101537704468,-0.7176382541656494,6.944047451019287,-5.1792497634887695,-5.313533306121826,-1.2977508306503296,5.522830963134766,-4.639317512512207,5.148122787475586,1.8547108173370361,-2.0700337886810303,-6.299554824829102,-3.6887617111206055,-4.186716079711914,-4.526669979095459,-3.816239356994629,-5.086870193481445,4.569654941558838,-0.25776219367980957,-5.351869583129883,5.111215114593506,-0.3932184875011444,-0.937863826751709,-5.333374500274658,5.658849716186523,-5.3722968101501465,1.2015942335128784,1.5836342573165894,-0.6190301179885864,1.0164966583251953,-2.7275800704956055,1.3934448957443237,1.2952619791030884,-6.772032737731934,-3.6524059772491455,8.303743362426758,-0.021991487592458725,6.007621765136719,7.170620441436768,2.9844868183135986,4.391936302185059,-5.846948623657227,-6.688868045806885,-0.009187675081193447,-5.148730278015137,-0.3289260268211365,3.5484395027160645,-1.996946096420288,1.7421165704727173,-5.962151050567627,0.829598069190979,-1.8123172521591187,-1.9582728147506714,-2.8457446098327637,0.7451474070549011,1.6872875690460205,-2.44905686378479,-1.4258747100830078,1.1214631795883179,-0.4464855194091797,-3.6033129692077637,3.156524896621704,-1.087593674659729,-0.04716815799474716,-2.383979320526123,-0.454758882522583,0.7488600015640259,0.6684619188308716,-2.2479217052459717,0.4478093683719635,-0.9492179751396179,1.8421485424041748,0.30957144498825073,5.105386734008789,2.5924131870269775,-1.3843138217926025,-2.1760194301605225,2.115694761276245,2.09576678276062,-0.6215110421180725,2.481689214706421,2.648329973220825,-2.561540365219116,1.0220482349395752,-4.715600490570068,-0.0365319587290287,0.00418552802875638,3.2023351192474365,1.2387962341308594,-1.7037276029586792,-0.4265815019607544,-3.7838337421417236,1.0675339698791504,-1.4089083671569824,1.0090255737304688,0.8705997467041016,-1.0095710754394531,0.4871061444282532,3.042292833328247,-2.728776454925537,0.8320489525794983,-5.269094467163086,-0.05115531012415886,0.02911546640098095,1.6687623262405396,-2.8036937713623047,-2.038517475128174,0.3632354140281677,-0.7795524597167969,-5.238763332366943,-1.0919300317764282,-0.694145917892456,-2.6446495056152344,-0.22349047660827637,-1.3687629699707031,1.0040658712387085,-2.4510693550109863,-4.429650783538818,2.6851048469543457,-7.568167209625244,-4.8658246994018555,-4.667187213897705,-4.401223659515381,-1.6828477382659912,4.6480584144592285,3.4492640495300293,-1.915777564048767,9.232734680175781,-2.162794828414917,-1.9896916151046753,-2.2321951389312744,-2.7967584133148193,-1.4629813432693481,6.179106712341309,4.292023181915283,-3.1504836082458496,-2.7183549404144287,-3.14070200920105,2.3534960746765137,4.332671165466309,3.906459093093872,0.7201153635978699,-5.288583755493164,4.027638912200928,3.209111213684082,-0.11534824967384338,3.658008098602295,9.126492500305176,-4.281190872192383,2.9077508449554443,-6.1080322265625,2.330934524536133,-1.8304990530014038,4.182565689086914,0.09699442982673645,-3.5106911659240723,-7.627716064453125,-6.574733257293701,3.314528226852417,-7.5084662437438965,2.835148572921753,-0.8707255721092224,-4.067202568054199,2.0637104511260986,4.807173252105713,-6.42445707321167,2.0572497844696045,-0.36546117067337036,-7.353172779083252,-1.9403291940689087,2.9887092113494873,-5.122708797454834,-5.706730842590332,-1.8465487957000732,-0.7108355164527893,-8.864988327026367,-2.8542864322662354,-4.670680522918701,-3.7790207862854004,-2.312540054321289,-7.1333417892456055,-0.7717682123184204,-9.528647422790527,5.847970962524414,4.817624092102051,2.811886787414551,-2.407759428024292,1.4628403186798096,3.949328660964966,2.731905221939087,3.200329542160034,4.3376688957214355,0.6869035363197327,-4.924409866333008,3.874969005584717,10.376632690429688,-0.47967788577079773,7.567231178283691,3.1288371086120605,-4.4610090255737305,-0.11362607777118683,-2.779874086380005,-2.6380016803741455,-5.2040300369262695,-0.5077792406082153,6.765076637268066,-2.081604242324829,-2.7958147525787354,-1.5686801671981812,1.2350208759307861,-5.162257194519043,8.961968421936035,1.8665094375610352,7.3658576011657715,-3.391162872314453,-7.368932723999023,4.809203624725342,-5.877595901489258,-5.062376499176025,-3.935159921646118,1.3856922388076782,6.195610523223877,-4.875025272369385,0.3253203332424164,-1.2509911060333252,1.9999537467956543,-5.417713165283203,-7.365175724029541,0.772282600402832,1.5479681491851807,0.9002243280410767,-0.9670237898826599,3.295614719390869,6.624433517456055,-2.801837205886841,1.5456916093826294,-2.195610761642456,6.001600742340088,-6.721993923187256,-0.0811106264591217,6.145935535430908,0.4296785295009613,5.101202011108398,-7.376567363739014,-5.09926176071167,-2.8533337116241455,-0.6565134525299072,2.105623483657837,-3.6940693855285645,-2.317211627960205,-10.637701988220215,4.018686771392822,12.115492820739746,1.1311436891555786,-5.555305480957031,-13.583094596862793,-6.512885570526123,-18.475175857543945,-5.957165718078613,1.6830108165740967,-14.50277042388916,-10.204404830932617,-1.094334363937378,-2.168700695037842,-13.86657428741455,15.933072090148926,-5.524646282196045,-2.1393821239471436,-8.27515983581543,0.9003757238388062,17.145000457763672,-4.372106075286865,1.5984927415847778,5.711106300354004,11.516973495483398,-1.8419952392578125,12.922717094421387,-17.220529556274414,2.7107605934143066,-5.553003787994385,-2.047168493270874,9.657671928405762,-2.583791494369507,14.375807762145996,10.512728691101074,-2.13196063041687,-5.922392845153809,-14.246903419494629,-0.3661936819553375,4.500617980957031,15.180566787719727,-10.046670913696289,9.085712432861328,0.8973564505577087,-7.696950435638428,14.226313591003418,-6.367861747741699,-2.364309787750244,-1.6029987335205078,-1.3113071918487549,13.143296241760254,8.650312423706055,2.586707353591919,-14.107118606567383,3.9932479858398438,-8.220780372619629,-18.235424041748047,6.79300594329834,-14.054408073425293,14.7645902633667,13.0606050491333,4.90184211730957,-4.890348434448242,-12.617429733276367,9.537124633789062,-1.771373987197876,9.449434280395508,4.8698835372924805,-4.63123083114624,-4.88055419921875,-2.62968373298645,-4.635111331939697,1.4552836418151855,9.194855690002441,3.4044973850250244,0.5242264270782471,0.9551172852516174,-3.841676712036133,-8.08066177368164,1.7552415132522583,2.346798896789551,2.804624319076538,4.0651774406433105,-6.406490802764893,-4.8222737312316895,-5.168456077575684,3.3539352416992188,-2.78399920463562,5.185007572174072,3.500026226043701,3.416594982147217,-5.9412736892700195,4.753607749938965,5.706116199493408,-1.9583460092544556,-3.631356716156006,-3.340590000152588,2.883733034133911,-0.5070620775222778,4.011658191680908,3.110797166824341,-2.641244411468506,0.2080823928117752,-0.7228030562400818,6.19999885559082,-0.3213925361633301,3.166886806488037,4.968082904815674,2.9213387966156006,-0.9501653909683228,-5.39715576171875,2.1038804054260254,6.643828868865967,-7.1562089920043945,-3.874964475631714,7.265786170959473,-3.150305986404419,0.7859059572219849,1.7108122110366821,6.701540470123291,7.576873779296875,-4.514712333679199,-0.7334084510803223,-1.80318021774292,-1.8100608587265015,0.12099754810333252,-3.1319823265075684,3.3026907444000244,-0.7783603668212891,-3.0749475955963135,-2.3775253295898438,-2.249929428100586,2.0045108795166016,4.022003650665283,1.7545462846755981,-4.2659502029418945,-3.6658854484558105,-1.4337654113769531,-5.263181686401367,0.2866959571838379,-2.8633692264556885,0.8084103465080261,-2.9178669452667236,-1.55300772190094,-2.2482314109802246,-0.4568742513656616,-2.36201810836792,3.142089366912842,1.3860586881637573,3.157341718673706,8.901350021362305,2.9927821159362793,-1.4827263355255127,-1.361052393913269,3.861515760421753,-2.8533029556274414,6.745047569274902,-2.4548592567443848,4.075516700744629,-0.18282486498355865,0.8073242902755737,-3.8031511306762695,3.1474149227142334,-0.16022469103336334,-2.8127670288085938,4.075607776641846,1.8530105352401733,-1.4988042116165161,3.903745651245117,-2.224395513534546,0.4072956442832947,-5.713332653045654,-5.776975631713867,4.016110420227051,0.518866240978241,-9.574360847473145,-0.45368626713752747,-1.6760679483413696,1.9521623849868774,0.49198055267333984,-0.34940361976623535,7.13975715637207,-2.666316270828247,-3.9188480377197266,2.405719041824341,-6.995816707611084,0.39318570494651794,-1.0912498235702515,-1.5604785680770874,-1.0350630283355713,-3.2645797729492188,0.4585588574409485,3.270808696746826,4.504421234130859,-2.128077268600464,3.7129886150360107,0.1677926927804947,-13.915836334228516,5.44257926940918,-2.616884708404541,2.2024600505828857,5.265163898468018,-7.534698486328125,-3.3308279514312744,-3.8842837810516357,-2.5749614238739014,4.928348064422607,-1.4879341125488281,-0.5259127616882324,-7.57183837890625,-4.50324821472168,4.45441198348999,7.075338840484619,-6.964523792266846,-4.91317081451416,2.035606622695923,2.2631194591522217,7.4576849937438965,-4.2627949714660645,3.1106760501861572,6.646129131317139,2.1370341777801514,-9.99594497680664,3.2665061950683594,4.7010111808776855,3.154309034347534,-2.229495048522949,0.38232091069221497,-3.7416555881500244,8.689592361450195,0.2768118977546692,2.4937210083007812,4.825685501098633,2.919827461242676,10.799338340759277,-2.025621175765991,3.0047452449798584,5.0780205726623535,-1.4514397382736206,-1.7571892738342285,8.897497177124023,7.039011001586914,-7.125950813293457,3.6928112506866455,0.029421331360936165,1.4520212411880493,8.532758712768555,-0.01875179447233677,7.342855453491211,-3.8866872787475586,5.714658260345459,2.7685799598693848,-3.2604424953460693,1.1962840557098389,-6.517873764038086,1.898653268814087,-12.661829948425293,0.022757666185498238,-3.990981101989746,-5.945985317230225,4.210447311401367,3.815053939819336,-2.5393664836883545,-9.574820518493652,-2.0161118507385254,8.733109474182129,-11.422572135925293,-8.955825805664062,-9.358745574951172,-11.094284057617188,-11.738597869873047,-0.7877916097640991,-3.8472514152526855,3.289323329925537,9.514302253723145,-11.548985481262207,-0.7870562672615051,2.5793662071228027,7.484960079193115,0.07035402953624725,-6.282413005828857,-2.4726953506469727,8.505064010620117,4.970674514770508,7.266002655029297,7.048869609832764,6.871862411499023,4.2732343673706055,-5.678553104400635,-4.5317206382751465,9.574803352355957,-6.209852695465088,-2.573025703430176,4.581007957458496,-3.728970527648926,11.885735511779785,0.9809852242469788,-8.81080436706543,9.222228050231934,10.193449974060059,-1.7955543994903564,-10.49594497680664,-0.5266691446304321,-2.3011538982391357,3.4511842727661133,9.00560474395752,12.28415584564209,4.854852676391602,-10.321478843688965,6.279819488525391,0.13609805703163147,-11.084880828857422,-2.1297051906585693,0.9625311493873596,-3.2439939975738525,-5.621499061584473,3.386775493621826,-5.525640487670898,-7.340219020843506,2.3292016983032227,-2.4483604431152344,0.49899181723594666,-10.952692985534668,-3.5308380126953125,-8.459617614746094,0.670658528804779,-1.090464472770691,-5.6920247077941895,-6.040826320648193,2.0372917652130127,7.982091426849365,1.9344426393508911,2.132349729537964,-6.396924018859863,3.942091464996338,3.983917474746704,-4.3832292556762695,8.859021186828613,1.4022881984710693,-2.8408570289611816,1.54891836643219,-0.2771986126899719,-5.3761491775512695,1.7820050716400146,-3.0559918880462646,-3.879293203353882,7.902462482452393,0.11946837604045868,-3.98170804977417,-4.504067420959473,-2.508178234100342,-2.8716917037963867,-2.2620067596435547,5.213217258453369,4.055126667022705,-5.594104766845703,-2.9349329471588135,6.809492111206055,-8.827024459838867,-4.452638626098633,2.8908002376556396,-2.696105718612671,1.033334493637085,1.0240639448165894,0.02757313847541809,-2.3137707710266113,-4.145543575286865,1.8432618379592896,3.9828383922576904,3.3506996631622314,-1.1386464834213257,10.648139953613281,-2.990370035171509,-8.228164672851562,2.6076364517211914,-7.038644313812256,-4.263899803161621,2.242725372314453,-0.14864887297153473,3.5997934341430664,-0.22950072586536407,3.918485403060913,-2.7118914127349854,2.707681179046631,7.448328495025635,0.36033621430397034,1.4604638814926147,1.1415469646453857,2.2129719257354736,-0.9077473878860474,2.405963182449341,0.6397367119789124,0.5374218225479126,-3.3053863048553467,4.638734340667725,-3.003152370452881,4.056833744049072,-1.5091782808303833,-1.6653329133987427,0.9995076656341553,-1.3884594440460205,-2.561530828475952,1.6294589042663574,4.183225154876709,-7.362321853637695,2.2520697116851807,2.6780126094818115,1.0420782566070557,-2.374946117401123,-0.8228021860122681,4.515252590179443,6.636807441711426,1.9231032133102417,-0.6800677180290222,-1.3708089590072632,0.7854360342025757,1.9584760665893555,3.917766571044922,4.144205570220947,2.5490522384643555,-2.621389627456665,2.9448323249816895,3.578655481338501,1.2758407592773438,4.670895576477051,0.40512457489967346,-4.029092311859131,2.2438745498657227,-2.3104021549224854,-0.24753476679325104,-1.973360300064087,2.116255760192871,-0.4450606107711792,-2.1565847396850586,-2.071458339691162,0.33187341690063477,0.6230497360229492,0.6540464758872986,0.540454626083374,0.06274611502885818,-1.5937837362289429,-0.11761117726564407,2.1187169551849365,-3.1130974292755127,0.18505267798900604,0.6257050633430481,3.9342689514160156,0.4862969219684601,5.174794673919678,2.49448561668396,-2.9636266231536865,-1.144911766052246,4.93819522857666,-2.9871106147766113,-0.2425459921360016,5.26930570602417,-4.553086757659912,3.4111905097961426,-4.515251636505127,-2.424433946609497,-1.0070828199386597,5.983388900756836,-7.826225280761719,0.1377994418144226,-5.581288814544678,11.050256729125977,6.135283946990967,-6.706108570098877,5.249940395355225,5.675780773162842,-1.4880825281143188,-8.798053741455078,4.7082905769348145,3.8561410903930664,5.5963134765625,3.0201754570007324,5.361645221710205,-2.179093360900879,-3.7787399291992188,-9.151750564575195,7.162204265594482,5.526370048522949,-1.5752089023590088,1.0874930620193481,-3.3710875511169434,3.3074960708618164,-3.7090251445770264,-3.555026054382324,-4.0285115242004395,-5.862421035766602,10.627058982849121,4.054170608520508,-4.7744059562683105,-5.028617858886719,-5.866117000579834,-5.268261432647705,-2.972214460372925,2.3730506896972656,11.141095161437988,5.680852890014648,-6.31553316116333,-0.04578576609492302,-2.68742036819458,-5.715239524841309,-6.6743574142456055,7.304469585418701,4.842945098876953,3.563699245452881,-9.334463119506836,7.0177903175354,14.661126136779785,-6.737427234649658,9.61561107635498,-2.817472457885742,14.661572456359863,4.289990425109863,-7.219471454620361,2.4607059955596924,-6.588531970977783,8.45828914642334,5.364028453826904,-3.3405752182006836,-1.3130998611450195,-9.54472541809082,8.492376327514648,-1.7525876760482788,-4.142496109008789,-5.9025797843933105,-8.687747955322266,2.361924648284912,5.020792007446289,1.5669550895690918,0.5502756237983704,-3.5397067070007324,3.7856574058532715,-4.273166179656982,-2.026740074157715,4.47328519821167,-1.2825015783309937,-6.480469703674316,1.9638781547546387,-8.823271751403809,-4.1050825119018555,7.389565467834473,-1.7418674230575562,-1.5946054458618164,-7.634029865264893,-2.598395824432373,7.582665920257568,-3.7840092182159424,10.728325843811035,-0.1225096806883812,5.158097743988037,-2.997296094894409,-0.4750464856624603,-9.263992309570312,6.086231231689453,-1.0703154802322388,7.390318870544434,4.518040180206299,5.981865882873535,6.953323841094971,2.153489112854004,2.24271559715271,2.3351166248321533,-5.819883823394775,4.812079429626465,3.974013090133667,1.340484619140625,5.42385721206665,5.124759674072266,4.648777484893799,-7.907207012176514,-3.6457138061523438,6.764158725738525,-6.834892749786377,-1.963000774383545,0.0749894231557846,-0.036805421113967896,3.4328298568725586,5.7787299156188965,-3.527423143386841,6.0169525146484375,0.4908732771873474,9.665515899658203,-4.958638668060303,-6.415409564971924,9.22212028503418,3.442708730697632,-3.4654619693756104,-9.040386199951172,-4.578060626983643,2.639404773712158,-3.1488888263702393,0.042726486921310425,1.4997724294662476,1.604318380355835,4.00019645690918,-4.098376274108887,-7.749309539794922,1.9896485805511475,-0.8528615236282349,2.1371970176696777,4.716599941253662,-2.616741418838501,-1.7913755178451538,1.8530429601669312,-3.457658529281616,-1.0563071966171265,-0.4800436198711395,-1.1437028646469116,-4.164775371551514,2.882716178894043,3.0052666664123535,7.971060752868652,2.0751185417175293,0.6415764093399048,1.4028472900390625,-0.742949903011322,1.4792041778564453,6.676843166351318,-2.2032952308654785,-0.3250209093093872,1.7096558809280396,0.4210318922996521,7.940478324890137,0.9825900197029114,2.514195203781128,3.5219006538391113,4.007840633392334,-0.5732529163360596,-8.311982154846191,1.369796872138977,-0.1417895406484604,4.441307544708252,-1.9013473987579346,4.94434928894043,1.802209496498108,-6.890329360961914,2.5935189723968506,0.6837172508239746,-3.512599229812622,-0.995432436466217,-3.693763494491577,-2.0422327518463135,-0.29581838846206665,-0.13771814107894897,-1.9509574174880981,-3.107445240020752,-3.751640558242798,-3.50876522064209,4.245242118835449,-4.218034267425537,4.994569301605225,0.8091645836830139,3.2275540828704834,-3.5573110580444336,-2.405860662460327,3.5561652183532715,-0.5254197716712952,-1.1174153089523315,10.556522369384766,0.11996132880449295,-0.1902589201927185,0.8134152293205261,2.8556625843048096,-5.458298683166504,-2.026181697845459,-1.898587942123413,2.814542055130005,3.857724666595459,-3.4970390796661377,-3.257389545440674,0.19879409670829773,-4.27278995513916,0.942563533782959,5.340996265411377,-1.929129958152771,2.45601224899292,1.2547463178634644,3.333946466445923,-11.670302391052246,0.4500458538532257,6.991848945617676,9.969249725341797,-7.453118324279785,-3.6421821117401123,-4.201232433319092,-5.857166767120361,-12.872579574584961,0.6899825930595398,-1.6137193441390991,4.550787448883057,0.2821004092693329,1.0855848789215088,4.770632266998291,-3.423409938812256,-1.085720181465149,6.46379280090332,-5.857346057891846,-1.3220667839050293,3.5460591316223145,1.2530466318130493,-2.5896050930023193,1.3679263591766357,-5.971986293792725,-7.605776309967041,6.012675762176514,-8.158940315246582,-3.667088031768799,5.759974479675293,6.871025085449219,5.779869079589844,-2.5103304386138916,7.735414505004883,-8.66801929473877,3.6067800521850586,4.063699245452881,-0.4844287633895874,5.4052734375,6.04046106338501,3.1275436878204346,4.899478912353516,-3.0492193698883057,8.036551475524902,-2.67758846282959,1.089040994644165,4.598666667938232,3.3467516899108887,-8.923013687133789,1.3960264921188354,3.8235011100769043,-7.902383327484131,2.23458194732666,7.465457439422607,-8.667041778564453,-2.3253066539764404,3.2717976570129395,-6.3321661949157715,5.003164291381836,-5.408452987670898,-5.333563327789307,-8.0822172164917,-2.7457594871520996,-0.6989962458610535,3.193786382675171,0.7678850889205933,-4.268529415130615,-2.193188428878784,1.1194387674331665,-1.2757492065429688,-3.057865619659424,-1.7857621908187866,-2.996222496032715,-3.705723524093628,-2.8289027214050293,0.7814000844955444,-1.5278079509735107,1.5344288349151611,3.292161703109741,-2.210294246673584,1.6426078081130981,2.7092504501342773,0.4608123004436493,0.3185276985168457,-0.6136060953140259,-1.4976755380630493,5.85091495513916,0.12798939645290375,0.6142877340316772,-1.5320521593093872,-2.0179505348205566,-2.4470949172973633,5.19158935546875,-1.349802851676941,-7.004765033721924,1.0767019987106323,-0.8630213141441345,-4.8146162033081055,1.192173957824707,1.9934746026992798,-7.407486915588379,-7.66494083404541,3.7091009616851807,-0.3674803674221039,3.961103677749634,1.3969218730926514,-1.4638679027557373,4.872892379760742,-4.134926795959473,-0.4301041066646576,-13.9791259765625,-5.467138290405273,5.404328346252441,7.3619208335876465,1.57183837890625,-12.363482475280762,-14.855133056640625,-3.6948301792144775,-8.6615571975708,-6.605896949768066,3.0421812534332275,-0.39796075224876404,-15.431100845336914,0.818373441696167,-3.957271099090576,1.097031593322754,-0.6190521717071533,-2.027437210083008,-6.145048141479492,-1.0038732290267944,-3.325749158859253,7.404416561126709,15.188672065734863,2.9952454566955566,2.3679933547973633,-3.0850489139556885,-2.1192209720611572,15.106979370117188,-10.587544441223145,16.234418869018555,3.940796136856079,6.187201499938965,16.238300323486328,4.327465057373047,-4.567060947418213,14.238407135009766,14.025415420532227,-4.937922477722168,-13.51546859741211,-7.6008992195129395,-8.546743392944336,8.397497177124023,-4.679665565490723,17.068984985351562,8.812926292419434,-15.498464584350586,8.526191711425781,-1.5456210374832153,-7.89068603515625,-1.122637152671814,-5.958621025085449,4.9671807289123535,7.440093994140625,3.371506690979004,-12.307408332824707,2.1877617835998535,0.3929577171802521,-4.684250831604004,1.9165937900543213,-16.525287628173828,10.433862686157227,8.506720542907715,-9.39628791809082,2.3115437030792236,-2.4138338565826416,3.8868417739868164,12.175422668457031,6.141148567199707,5.698959827423096,2.592738151550293,-3.816549301147461,8.527715682983398,-0.17035719752311707,-8.62279987335205,-11.785065650939941,5.973420143127441,-5.759363174438477,7.757867336273193,11.090078353881836,-7.277859210968018,12.421114921569824,-5.025055885314941,-8.510443687438965,1.8078265190124512,-7.211512088775635,-2.7828478813171387,-5.334768295288086,-0.2649703621864319,-4.3354058265686035,-3.2519452571868896,3.8088433742523193,-6.425614356994629,-5.578580856323242,-7.404754161834717,-4.386928558349609,-5.736972332000732,-6.76855993270874,-10.608454704284668,-11.10758113861084,4.502852439880371,-5.5023512840271,-8.501577377319336,-7.243635177612305,-1.3751349449157715,8.557686805725098,7.112218379974365,-8.920520782470703,2.859753131866455,5.879836559295654,1.974924921989441,8.641083717346191,5.329939365386963,3.755692481994629,0.3289923071861267,-5.527740955352783,2.2946231365203857,5.371008396148682,9.54658317565918,-0.7971274256706238,0.6007964015007019,9.307463645935059,5.342885494232178,-1.6960808038711548,6.187416076660156,1.7110439538955688,4.74664831161499,-8.692638397216797,-12.21714973449707,-4.8376545906066895,7.1437578201293945,-2.9620375633239746,3.2218263149261475,6.882704257965088,-4.464388370513916,-0.6435604095458984,-4.513931751251221,-4.364749431610107,3.118335247039795,5.463440895080566,2.183432102203369,3.3600172996520996,8.184383392333984,-13.081721305847168,2.935595989227295,3.4933888912200928,3.1017582416534424,1.8040783405303955,1.4492260217666626,-10.804830551147461,-0.9405261278152466,-5.521949291229248,-0.8856745958328247,-10.143083572387695,-8.170772552490234,1.5452373027801514,-8.644868850708008,-2.824941873550415,-6.335700035095215,0.7279298305511475,-8.734694480895996,6.523797988891602,5.370694160461426,6.722723484039307,-1.6219260692596436,-7.150293350219727,3.2850608825683594,-6.282891273498535,-4.741687297821045,-3.959218740463257,4.696170330047607,19.145282745361328,-2.834028959274292,1.9367872476577759,0.0368025116622448,2.289055585861206,-8.052006721496582,-2.9716269969940186,6.62228536605835,-2.547846555709839,-7.037357807159424,-2.386289119720459,3.824676990509033,9.553348541259766,0.8989079594612122,-2.8150932788848877,-6.966978073120117,5.911157608032227,-8.799224853515625,2.427816390991211,-4.304360866546631,3.685986042022705,5.821368217468262,-9.24385929107666,-5.788388252258301,-4.861328601837158,7.773452281951904,2.8792307376861572,-6.059084892272949,2.859518051147461,4.854790210723877,-7.436069011688232,21.06536293029785,-8.29745864868164,-16.940702438354492,-3.555424690246582,15.501204490661621,-6.902932167053223,9.589982986450195,-7.336517333984375,-24.101987838745117,-1.8216208219528198,-21.54999351501465,-0.8702572584152222,-16.93558692932129,-6.375540256500244,13.549718856811523,-7.185830593109131,-14.633130073547363,-0.1379636526107788,23.725021362304688,5.378139495849609,-15.056416511535645,21.37717628479004,-15.741379737854004,-3.611361265182495,8.97204303741455,7.64838981628418,-9.68346881866455,17.746511459350586,-3.9691121578216553,1.9876545667648315,13.052826881408691,11.572371482849121,21.57217025756836,-14.244324684143066,-19.809499740600586,-2.182285785675049,-4.421839237213135,-26.471078872680664,23.728914260864258,3.6257786750793457,-2.5716981887817383,-11.116740226745605,-1.5846638679504395,-0.48800328373908997,-13.974492073059082,4.4636149406433105,-20.14397430419922,0.8523998856544495,5.918952941894531,19.71436309814453,-7.993337154388428,-1.5820146799087524,-0.9914908409118652,-11.238059043884277,-2.8335533142089844,5.880632400512695,1.9054594039916992,19.26950454711914,12.65783977508545,-0.00187192193698138,4.693032264709473,-9.716119766235352,0.9603860974311829,-1.1109890937805176,6.304807662963867,-4.080923557281494,-1.0247559547424316,-10.827055931091309,2.286675214767456,2.6018481254577637,5.682620048522949,8.064248085021973,-1.0012412071228027,-3.5573267936706543,6.941582202911377,-4.650774002075195,-4.561818599700928,11.171521186828613,6.150939464569092,-0.6659002304077148,2.361574411392212,-7.758877754211426,-13.581151962280273,-7.3620076179504395,-3.2982237339019775,-3.759854316711426,-2.3339078426361084,7.278977394104004,1.0356179475784302,1.4020379781723022,-2.070998430252075,11.967516899108887,-2.5029983520507812,-2.8283135890960693,-3.0391814708709717,1.3181171417236328,-3.1705031394958496,-7.827930927276611,-2.348335027694702,-6.891056537628174,-11.155787467956543,1.6122647523880005,-1.058558464050293,10.833698272705078,-6.272122383117676,6.604132175445557,-3.5710442066192627,-6.3640947341918945,0.01368942204862833,1.5975022315979004,4.1171441078186035,1.2861720323562622,-3.172520399093628,13.273300170898438,3.842851400375366,6.567067623138428,-0.4144669771194458,-0.17285893857479095,-4.782718658447266,-2.1294634342193604,-0.2611762583255768,-1.9342190027236938,0.37138432264328003,2.866617441177368,1.2644377946853638,-3.137047529220581,-0.47658571600914,-9.39902400970459,6.574690818786621,-1.6977359056472778,-11.475096702575684,3.908195972442627,9.354846000671387,5.038754940032959,3.9119386672973633,-5.465571880340576,22.406301498413086,-13.923805236816406,-8.216705322265625,-5.916917324066162,-6.449540615081787,9.407506942749023,-2.1775643825531006,4.0926618576049805,-4.4395432472229,4.716599941253662,-14.081321716308594,-16.775327682495117,0.8033780455589294,1.188053011894226,19.040769577026367,0.38944682478904724,-12.354242324829102,13.329106330871582,-13.972148895263672,-0.07908236235380173,-0.8745347261428833,-15.220287322998047,8.418964385986328,0.5217161178588867,-1.6228229999542236,4.522019863128662,-7.5979108810424805,1.7391031980514526,-6.0689592361450195,-0.22837696969509125,-3.513672113418579,-4.576697826385498,-1.8751307725906372,4.67734432220459,7.89502477645874,2.9739720821380615,7.17858362197876,12.0635986328125,-3.3647196292877197,14.675558090209961,-12.264978408813477,-10.272785186767578,-5.588503360748291,-8.853224754333496,3.595095157623291,1.1309164762496948,-0.0016806138446554542,-3.141909122467041,-2.2223708629608154,-8.733887672424316,-2.621948719024658,2.279123067855835,-5.670447826385498,2.222820281982422,6.221680164337158,-2.7336528301239014,7.88154935836792,-2.834101438522339,13.603509902954102,4.201265335083008,-2.179718494415283,24.47953224182129,-4.602389335632324,-9.689785957336426,17.009952545166016,-16.25548553466797,-21.99491310119629,3.2960031032562256,13.757264137268066,-13.463007926940918,-12.462968826293945,16.72218132019043,-20.74278450012207,16.825246810913086,-0.3095532953739166,-16.423185348510742,21.06822395324707,-16.070392608642578,-5.7330241203308105,0.6457563638687134,5.979378700256348,7.1640472412109375,4.301556587219238,13.086446762084961,10.454998970031738,-24.025283813476562,8.271295547485352,21.639549255371094,-18.330055236816406,2.9788565635681152,-3.8348288536071777,2.341539144515991,-2.6504430770874023,-2.1949403285980225,13.312938690185547,5.123561859130859,0.550418496131897,-3.634730577468872,6.910006046295166,-18.65390968322754,15.272677421569824,27.369564056396484,-3.868651866912842,-7.362565040588379,-17.791894912719727,-15.538735389709473,-1.6055189371109009,-14.770584106445312,6.752127170562744,-1.5319762229919434,-0.07912510633468628,12.521634101867676,3.7474730014801025,3.1467623710632324,-14.680355072021484,-19.09058952331543,3.103813886642456,-11.989812850952148,17.82968521118164,7.810213088989258,-3.0149900913238525,2.4766390323638916,0.5465081334114075,-4.86667537689209,15.52017593383789,18.93596076965332,-2.4841954708099365,-7.3967180252075195,-12.24887752532959,2.3336093425750732,12.325424194335938,12.903946876525879,7.2538838386535645,-6.988315105438232,-1.5284223556518555,2.5720694065093994,0.5680428147315979,6.095030307769775,10.901955604553223,13.804388046264648,13.156793594360352,-1.306915521621704,-8.269327163696289,2.1918985843658447,10.177528381347656,3.1362154483795166,-13.572649955749512,1.9318971633911133,8.414708137512207,-11.400986671447754,-8.566028594970703,3.5584254264831543,-0.12541204690933228,14.657635688781738,4.789698600769043,1.294631004333496,-9.170114517211914,-17.39681625366211,-14.649080276489258,-11.614872932434082,-11.74140453338623,5.983686923980713,11.487934112548828,11.852742195129395,-2.1718225479125977,8.041451454162598,0.37441951036453247,-3.5478532314300537,-21.192649841308594,6.400660514831543,2.440690517425537,-15.299297332763672,12.30663776397705,-3.3265061378479004,12.353541374206543,0.20395970344543457,-6.556886672973633,-4.294567584991455,9.139083862304688,17.248085021972656,2.467095136642456,14.331886291503906,7.153484344482422,-5.720897197723389,17.088459014892578,-12.836119651794434,-11.933606147766113,-5.436483860015869,-8.626947402954102,1.7820839881896973,-0.9111817479133606,-0.27501827478408813,0.7131996750831604,0.3079266846179962,0.76047682762146,-1.3439980745315552,-0.3857015073299408,-0.2712016701698303,-1.0391324758529663,-0.5165930390357971,2.2855703830718994,-2.030144214630127,-0.5854906439781189,-0.9722902774810791,-1.58994722366333,0.559638261795044,-0.28907614946365356,-2.041499614715576,-1.4788856506347656,-1.5168260335922241,0.08857619762420654,-0.014601808972656727,0.09078432619571686,-0.9555492997169495,-0.23024648427963257,1.0819034576416016,-0.5395980477333069,-0.9917976260185242,0.69529789686203,-0.7288897037506104,-1.075745940208435,-1.2334280014038086,0.02305416204035282,0.9402539134025574,0.2761669456958771,0.8082032203674316,0.0074813286773860455,0.5808017253875732,-0.23970957100391388,-0.4671843349933624,0.8724793195724487,-0.8006630539894104,0.3393903076648712,0.8149284720420837,0.25303056836128235,2.1267282962799072,-0.19924288988113403,0.8444051742553711,-1.1175289154052734,0.8140624165534973,-0.2060571014881134,0.0697174072265625,0.8201664090156555,0.6601510643959045,-0.6715068817138672,0.20383955538272858,1.1493016481399536,-0.4999791979789734,-1.8506512641906738,1.5398966073989868,-0.45547738671302795,0.9639407992362976,0.027957789599895477,0.6355996131896973,1.8918828964233398,-1.1632336378097534,1.0839080810546875,-0.8735187649726868,0.19011372327804565,1.557070016860962,1.9227211475372314,-0.5534724593162537,0.06062852963805199,0.3274214565753937,-0.6757597327232361,0.75163733959198,1.7766095399856567,-0.3391321003437042,-0.20535831153392792,-1.696803331375122,0.4701073467731476,-0.5301825404167175,-0.8246604800224304,-0.4812210202217102,-1.170647144317627,-0.5190574526786804,0.3462074398994446,0.5799683332443237,0.8118383288383484,-0.9249234795570374,-2.0714774131774902,0.7899726629257202,-0.3057762384414673,0.768013596534729,0.4044685661792755,0.188070610165596,-0.8688638210296631,-1.0495051145553589,2.0268919467926025,0.9847515225410461,0.5130358934402466,-1.0862447023391724,-0.681315541267395,0.37912216782569885,0.3106610178947449,0.9045699238777161,0.4068908095359802,-1.0749964714050293,-0.27163273096084595,0.05068186670541763,0.5462568402290344,1.1732295751571655,-0.28674647212028503,0.2234088033437729,-1.4811182022094727,1.6941884756088257,-0.27914825081825256,0.3210574686527252,0.9201929569244385,1.1477781534194946,-1.6723681688308716,-0.008980750106275082,0.22581839561462402,-2.337935209274292,-0.7091144323348999,1.8515002727508545,0.04414698854088783,0.9131574034690857,2.373338222503662,-0.3755505084991455,0.9714969992637634,-0.479159414768219,1.7886970043182373,0.010658863000571728,0.01354628149420023,-0.0164895448833704,0.034879401326179504,0.006833696737885475,0.05776257440447807,-0.05753368139266968,0.0597282350063324,-0.029179558157920837,0.0451439768075943,-0.07701758295297623,0.021775322034955025,-0.01600627228617668,0.014866670593619347,-0.021123750135302544,0.04857223853468895,0.019896291196346283,0.0643177479505539,0.04286937043070793,0.0018849311163648963,-0.04529757797718048,0.04034829139709473,-0.0757114589214325,-0.01995031163096428,0.023940613493323326,0.03546495735645294,-0.03944360092282295,0.03178514912724495,0.02509125880897045,0.04197833687067032,0.014176546595990658,-0.05531223118305206,0.012472905218601227,0.010000445879995823,-0.07282090932130814,0.023226507008075714,0.03158571943640709,-0.07066168636083603,0.05926532670855522,-0.03320986405014992,0.01629050262272358,0.003995388746261597,0.029302682727575302,-0.018877243623137474,-0.03030685894191265,-0.06002810224890709,-0.026816146448254585,0.004606893751770258,-0.03469051793217659,0.03863009065389633,0.0067573292180895805,0.002953200601041317,-0.019315872341394424,-0.03858545795083046,-0.026195166632533073,-0.02845543809235096,-0.03529249131679535,0.05225200951099396,-0.06047452986240387,-0.0724945068359375,-0.07618286460638046,0.06319799274206161,0.07124029099941254,-0.0007505437242798507,-0.0007302011363208294,0.0071453615091741085]},"hiddenLayers":[{"inputMatrix":{"rows":24,"columns":66,"weights":[1.763017177581787,-0.7383785247802734,0.003885461948812008,-0.9165673851966858,0.5964271426200867,1.5453979969024658,1.6756949424743652,-0.16080842912197113,0.20333202183246613,-0.6240140795707703,-0.4477885067462921,2.093736171722412,0.6854268312454224,1.6147828102111816,0.052194129675626755,-0.8600357174873352,-0.25449544191360474,-0.6500874757766724,0.7641611695289612,0.810335636138916,-1.4163497686386108,-0.6936402320861816,0.5456298589706421,-1.0577378273010254,-1.2724648714065552,0.10349491238594055,0.6179896593093872,-1.5977091789245605,0.7078546285629272,0.03662937507033348,0.5198885202407837,-0.7399327754974365,-1.7450296878814697,0.657540500164032,-2.1117069721221924,-1.4419243335723877,0.683201789855957,0.07785972207784653,1.1083993911743164,-1.0237916707992554,0.03403906896710396,-0.20111674070358276,-1.262168526649475,-1.568718433380127,-0.6123375296592712,0.8749207258224487,-0.4234945774078369,-0.42327025532722473,1.0939524173736572,-0.3273346722126007,-0.31478461623191833,-0.6746968626976013,-1.1937344074249268,-1.0188956260681152,1.5807435512542725,-0.42631039023399353,0.12852256000041962,1.2469851970672607,-0.03688768669962883,1.3177076578140259,0.7335725426673889,-0.7457587718963623,0.2955833673477173,-0.24484245479106903,0.4820728003978729,-0.2507140040397644,-0.7121203541755676,-0.9850009083747864,-0.289389044046402,-0.7259389758110046,0.5336801409721375,-1.0125807523727417,-0.9877765774726868,-0.13920825719833374,-0.37571483850479126,-1.3065816164016724,1.2361750602722168,-0.4853939116001129,-0.26360803842544556,-0.2236800193786621,-0.9405425190925598,-0.3807861804962158,0.6902024149894714,-1.6843993663787842,-0.13020069897174835,0.9925979971885681,0.40045320987701416,0.6435256600379944,0.4702637791633606,0.0021827220916748047,-0.10072523355484009,-1.2997145652770996,-0.005339117255061865,1.124083161354065,-1.1956380605697632,-0.24724511802196503,0.9106298089027405,-0.9147667288780212,0.4663497805595398,-0.13641686737537384,-0.04153595492243767,-0.17304979264736176,2.781964063644409,0.26145538687705994,0.05777198076248169,-0.026666447520256042,-0.004757273942232132,1.2676883935928345,-1.2236882448196411,0.602658212184906,1.8638168573379517,-1.185400128364563,1.9397231340408325,-0.033202867954969406,-1.6054425239562988,-0.6255471706390381,-1.2042046785354614,-0.6339817047119141,0.03238137811422348,0.2713214159011841,0.42563438415527344,-0.5136851072311401,-0.08226876705884933,-0.2965461313724518,-0.5016208291053772,-0.37038692831993103,0.19190232455730438,-0.26806017756462097,0.14080004394054413,0.20694831013679504,-0.39935868978500366,-0.34442275762557983,-0.22551114857196808,