{"type":"LSTM","options":{"inputSize":41,"inputRange":41,"hiddenLayers":[24,24],"outputSize":41,"decayRate":0.999,"smoothEps":1e-8,"regc":0.000001,"clipval":5,"maxPredictionLength":2,"dataFormatter":{"indexTable":{"1":16,"2":19,"3":22,"4":23,"5":26,"6":30,"7":33,"8":34,"9":37,"c":0,"o":1,"r":2,"h":3,"e":4,"t":5,"s":6,"[":7,"]":8,"m":9,"u":10,"a":11," ":12,"n":13,"d":14,"l":15,"i":17,"p":18,"y":20,"g":21,"q":24,"z":25,"f":27,"v":28,"b":29,"j":31,"k":32,"\ud83d":35,"\udc7b":36,"stop-input":38,"start-output":39,"unrecognized":40},"characterTable":{"0":"c","1":"o","2":"r","3":"h","4":"e","5":"t","6":"s","7":"[","8":"]","9":"m","10":"u","11":"a","12":" ","13":"n","14":"d","15":"l","16":"1","17":"i","18":"p","19":"2","20":"y","21":"g","22":"3","23":"4","24":"q","25":"z","26":"5","27":"f","28":"v","29":"b","30":"6","31":"j","32":"k","33":"7","34":"8","35":"\ud83d","36":"\udc7b","37":"9","38":null,"39":null,"40":null},"values":[{"input":"corchetes","output":"[]"},{"input":"muestrame unos corchetes","output":"[]"},{"input":"dame unos corchetes","output":"[]"},{"input":"hola","output":"1"},{"input":"hola merlina","output":"1"},{"input":"pon la musica para dormir","output":"2"},{"input":"pon la cancion para dormir","output":"2"},{"input":"musica para dormir","output":"2"},{"input":"cancion para dormir","output":"2"},{"input":"dormir","output":"2"},{"input":"musica para dormir de my little pony","output":"2"},{"input":"cancion para dormir de my little pony","output":"2"},{"input":"gracias","output":"3"},{"input":"muchas gracias","output":"3"},{"input":"se te agradece mucho","output":"3"},{"input":"se te agradece","output":"3"},{"input":"como estas","output":"4"},{"input":"como estas merlina","output":"4"},{"input":"hola como estas merlina","output":"4"},{"input":"hola como estas","output":"4"},{"input":"merlina como estas","output":"4"},{"input":"porque no puedo estar descalza","output":"5"},{"input":"porque no puedo andar descalza","output":"5"},{"input":"no puedo andar descalza","output":"5"},{"input":"no puedo estar descalza","output":"5"},{"input":"no puedo estar descalza merlina","output":"5"},{"input":"si estoy descalza me puedo enfermar","output":"5"},{"input":"si ando descalza me van a poner una inyeccion","output":"5"},{"input":"si ando descalza tengo que tomar antibiotico","output":"5"},{"input":"carolina puede estar descalza","output":"5"},{"input":"porque no puedo estar descalza en el piso","output":"5"},{"input":"porque no puedo andar descalza en el piso","output":"5"},{"input":"no puedo andar descalza en el piso","output":"5"},{"input":"no puedo estar descalza en el piso","output":"5"},{"input":"no puedo estar descalza en el piso merlina","output":"5"},{"input":"si estoy descalza en el piso me puedo enfermar","output":"5"},{"input":"si ando descalza en el piso me van a poner una inyeccion","output":"5"},{"input":"si ando descalza en el piso tengo que tomar antibiotico","output":"5"},{"input":"carolina puede estar descalza en el piso","output":"5"},{"input":"porque no le puedo marcar a mama","output":"6"},{"input":"porque no le puedo llamar a mama","output":"6"},{"input":"gus no me deja marcarle a mama","output":"6"},{"input":"mi hermano no me deja marcarle a mama","output":"6"},{"input":"quiero marcarle a mama","output":"6"},{"input":"le voy a marcar a mi mama","output":"6"},{"input":"le voy a marcar a mi mama ok","output":"6"},{"input":"porque no le puedo marcar a mama merlina","output":"6"},{"input":"porque no le puedo llamar a mama merlina","output":"6"},{"input":"juguemos piedra papel o tijeras","output":"7"},{"input":"piedra papel o tijeras","output":"7"},{"input":"oye merlina quiero piedra papel o tijeras contigo","output":"7"},{"input":"juguemos piedra papel o tijeras ok","output":"7"},{"input":"juguemos piedra papel o tijeras tu empiezas ok","output":"7"},{"input":"te reto a jugar piedra papel o tijeras","output":"7"},{"input":"quiero piedra papel o tijeras","output":"7"},{"input":"juguemos piedra papel o tijeras","output":"7"},{"input":"juguemos piedra papel o tijera","output":"7"},{"input":"piedra papel o tijera","output":"7"},{"input":"que sonido hacen los fantasmas","output":"8"},{"input":"que sonido hace el fantasma","output":"8"},{"input":"👻","output":"8"},{"input":"que hace el fantasma","output":"8"},{"input":"fantasma","output":"8"},{"input":"a que jugamos","output":"9"},{"input":"que quieres jugar","output":"9"},{"input":"a que quieres jugar merlina","output":"9"},{"input":"jugamos a algo","output":"9"},{"input":"a que jugamos merlina","output":"9"}],"characters":["c","o","r","h","e","t","s","[","]","m","u","a"," ","n","d","l","1","i","p","2","y","g","3","4","q","z","5","f","v","b","6","j","k","7","8","\ud83d","\udc7b","9","stop-input","start-output","unrecognized"],"specialIndexes":[38,39,40]},"workers":-1},"trainOpts":{"iterations":200,"errorThresh":0.005,"log":true,"logPeriod":10,"learningRate":0.0074,"callbackPeriod":10,"timeout":"Infinity","batchSize":3},"input":{"rows":42,"columns":41,"weights":[-0.21644288301467896,-0.11920749396085739,-0.0818096324801445,-1.4049593210220337,-0.014314455911517143,-0.11211586743593216,0.7635718584060669,-0.7534837126731873,-0.37271231412887573,0.08695296198129654,-0.12153399735689163,1.8623040914535522,-0.24565021693706512,-0.5675699710845947,-0.38798266649246216,0.13012373447418213,1.7533780336380005,0.07504232972860336,-0.04826908931136131,-0.01338095124810934,-1.0041890144348145,0.3321746289730072,-0.9395405650138855,-0.9785044193267822,-0.11133776605129242,-0.10682663321495056,-1.031888484954834,0.12327827513217926,0.5909672379493713,-0.44769760966300964,-1.3712775707244873,-0.4021121561527252,0.22425374388694763,-0.07536341995000839,0.4719976484775543,-0.2094619870185852,0.3178296983242035,0.3258778154850006,0.19565129280090332,0.7217751145362854,-0.43990957736968994,-0.33171939849853516,-1.0228972434997559,-2.1589300632476807,0.018107185140252113,1.4137609004974365,-0.04625481367111206,-0.06697486340999603,-1.8582181930541992,0.718223512172699,0.8431066870689392,-1.328852891921997,-0.6168572306632996,0.029630975797772408,-0.3277663588523865,-0.21163131296634674,-0.45563825964927673,1.9295730590820312,-0.6361128687858582,-3.6545920372009277,-0.86834317445755,2.0510497093200684,2.978393316268921,-1.0141303539276123,-2.196795701980591,-2.691570520401001,-0.4374483823776245,1.8320789337158203,0.21343548595905304,-0.9363527297973633,1.8963990211486816,1.6654452085494995,1.7403026819229126,-0.033179573714733124,-3.2070868015289307,0.2372884899377823,-2.707737684249878,2.6595077514648438,-0.3533959686756134,1.231892466545105,-0.7652521729469299,1.522270917892456,-1.3792380094528198,-0.2016424685716629,0.10656943172216415,-0.5187190175056458,0.5181599855422974,0.4403087794780731,0.3343818485736847,1.4772578477859497,-0.8814697265625,1.1516447067260742,-0.8846892714500427,2.364379644393921,1.1566540002822876,0.3813658356666565,0.14614337682724,0.3928855359554291,1.7504445314407349,0.3490053415298462,-0.8525196313858032,-0.12010084837675095,-0.04677259549498558,-0.20883728563785553,-0.25876739621162415,-0.37266990542411804,-0.07916898280382156,-0.010394641198217869,-0.48692741990089417,-0.9141095280647278,1.4554065465927124,-0.5210687518119812,0.2557162940502167,1.269138216972351,2.6546576023101807,-0.46188175678253174,2.0994796752929688,-1.1589006185531616,1.775774359703064,-0.08695217967033386,0.2422623634338379,0.5514715313911438,-0.42631447315216064,-0.021164443343877792,1.0188782215118408,-1.85719633102417,0.029533829540014267,1.133629560470581,-0.5615832209587097,-0.2666771709918976,0.05701269581913948,0.588703453540802,0.12556691467761993,1.5105750560760498,-0.25352925062179565,-1.717404842376709,-0.7609428763389587,1.029505729675293,-0.4605264365673065,-0.1715955138206482,-1.670485258102417,-0.42668616771698,1.3621717691421509,0.8795363306999207,-0.8698133826255798,-1.0538252592086792,-1.1370080709457397,-0.36267992854118347,1.1533997058868408,0.8293939828872681,0.6523701548576355,0.05049508064985275,1.3029210567474365,1.1042520999908447,1.02680504322052,0.03975943475961685,-1.4359855651855469,-0.6516326069831848,-1.6701476573944092,0.3468860983848572,0.840090811252594,0.16469314694404602,-0.9690536856651306,-0.30562785267829895,2.1290359497070312,-1.0873101949691772,-5.537243366241455,4.667325019836426,2.5679845809936523,-0.1283581554889679,3.4909403324127197,-5.766839504241943,-1.7548478841781616,1.4336270093917847,0.7390800714492798,0.045218631625175476,-1.7448581457138062,0.02841079607605934,1.1587378978729248,2.552499294281006,2.709728956222534,1.076856255531311,-2.442140579223633,-2.684792995452881,4.214700222015381,-0.032065942883491516,-2.0545828342437744,-2.7706995010375977,1.5687751770019531,-2.033336877822876,2.7052559852600098,-2.3400321006774902,-0.27999112010002136,3.781275749206543,3.408813238143921,2.0810976028442383,-2.2979302406311035,-5.0038580894470215,2.3094124794006348,-2.8373632431030273,3.1823697090148926,-0.2871798276901245,2.613211154937744,-3.0474133491516113,-1.417543649673462,-0.7013726234436035,-1.3880836963653564,0.02204487845301628,-0.4301902651786804,0.4248724579811096,0.6160872578620911,1.06673002243042,-0.6751359701156616,-1.7651114463806152,1.9297562837600708,-0.09863730520009995,1.7709842920303345,1.3111345767974854,2.0615732669830322,-0.770108699798584,1.223027229309082,1.0952247381210327,2.476717472076416,-0.4726048409938812,-2.1208343505859375,0.04280190169811249,0.3505057692527771,1.1104587316513062,0.3108627498149872,1.4048722982406616,-1.9855109453201294,0.06272315233945847,-0.6981133222579956,2.376377820968628,-0.27366602420806885,0.23196716606616974,0.5716117024421692,2.1650688648223877,-0.39564841985702515,1.5609716176986694,-0.07931540906429291,3.0849556922912598,-2.1724555492401123,1.9464530944824219,0.6455434560775757,-1.0007448196411133,-0.9843698143959045,-0.45817339420318604,-0.9253957867622375,-0.09160687029361725,0.997837483882904,-0.43267059326171875,0.20137307047843933,-2.5529446601867676,0.2925567626953125,-0.22544193267822266,-1.4006797075271606,-0.06840775161981583,0.5817692875862122,-1.4400017261505127,0.648932158946991,0.8222575783729553,1.6466500759124756,1.1498051881790161,-4.35873556137085,-0.32680681347846985,0.06678490340709686,2.685535192489624,-3.048351287841797,-1.1646592617034912,-0.8161917924880981,0.8474531173706055,0.7271527051925659,-0.9554992318153381,0.30231454968452454,0.2597798705101013,0.5799009203910828,0.7494977116584778,0.784126877784729,-2.538342237472534,0.800078272819519,-2.5458791255950928,3.067885398864746,0.16199415922164917,-0.8199297785758972,0.6679536700248718,0.10284361988306046,-1.6855287551879883,-0.7321773767471313,1.6593420505523682,-0.9463123083114624,-0.6500911116600037,0.6043123602867126,-0.8834816813468933,0.7291926741600037,1.688025951385498,-0.27713534235954285,-2.609699010848999,0.03649262338876724,0.7769068479537964,-0.5811410546302795,0.6653428673744202,-0.7992377877235413,-2.0659117698669434,0.16232304275035858,-0.4818340837955475,1.3088271617889404,0.42720866203308105,-0.6633596420288086,-0.3939107060432434,3.1346468925476074,0.25245824456214905,2.0213968753814697,-0.22681041061878204,1.7813491821289062,0.6196715831756592,-1.8768784999847412,0.3085702359676361,-0.1587342470884323,-0.046542100608348846,-0.01813487336039543,-0.27475395798683167,0.4205462336540222,-1.4274287223815918,-0.32145047187805176,-0.944652259349823,2.2415354251861572,0.9379388093948364,-0.5576447248458862,-8.685294151306152,-2.590122938156128,0.8898366093635559,-3.5211331844329834,10.2871732711792,-1.4990018606185913,5.373727798461914,-2.8088181018829346,9.023382186889648,0.3938518464565277,-1.9567838907241821,-5.093099594116211,13.550060272216797,-2.063768148422241,-1.56171452999115,-5.436347484588623,9.132733345031738,-1.7432695627212524,-13.093536376953125,7.418706893920898,-0.7261772155761719,6.851590156555176,3.765068769454956,3.865868091583252,-8.380045890808105,9.09260082244873,-6.076845169067383,1.3525968790054321,9.017822265625,7.017427921295166,-1.3228709697723389,-3.526637315750122,0.8718081712722778,-1.742639422416687,3.358163356781006,-2.8869268894195557,-12.460121154785156,7.672026634216309,-9.331381797790527,-4.611955642700195,-0.5805392265319824,1.420841932296753,-4.45510196685791,2.1555516719818115,0.7994110584259033,2.167062759399414,7.236091136932373,1.8939518928527832,-9.238982200622559,1.5654715299606323,3.55400013923645,7.918406963348389,0.4789183437824249,9.83415412902832,-5.575864315032959,5.078163146972656,4.709682464599609,6.600659370422363,-4.681656360626221,-0.9707266688346863,4.737725257873535,-1.4115558862686157,0.8592153191566467,-7.152295112609863,-0.43096259236335754,-8.723260879516602,5.331631660461426,0.4555893838405609,9.79893970489502,4.531880855560303,4.590161323547363,1.0440151691436768,3.985053539276123,-5.160111904144287,9.986632347106934,-5.991614818572998,2.957021713256836,-1.6055628061294556,8.754125595092773,-4.088210105895996,-1.8128283023834229,0.33216050267219543,0.5845516324043274,-2.717719793319702,1.4660484790802002,1.9525295495986938,0.2581522762775421,2.2746593952178955,-4.181071758270264,-1.2120863199234009,0.7886238098144531,0.13593953847885132,0.6022220253944397,-1.9348182678222656,-1.6792383193969727,2.363495111465454,2.0332999229431152,0.9514358043670654,2.188098192214966,-3.0658798217773438,1.1921217441558838,0.8257233500480652,1.3739302158355713,-2.598210096359253,-1.9600750207901,1.0950320959091187,0.638263463973999,0.4158722162246704,-0.8673560619354248,0.3005150854587555,0.7843746542930603,2.7558491230010986,2.6726672649383545,0.5786324739456177,-3.3267388343811035,0.6014748811721802,-1.839941382408142,1.999008297920227,0.7876307964324951,0.22277627885341644,0.6020393371582031,-1.3775733709335327,0.08721614629030228,-1.963924765586853,-1.6363165378570557,-0.23886950314044952,0.5000998973846436,-0.9432117342948914,-1.6351953744888306,-0.779374897480011,0.29543423652648926,-0.8711435198783875,1.8170207738876343,1.0570567846298218,-1.771505355834961,3.230168581008911,0.06869672238826752,0.2596128284931183,-0.9949079751968384,1.413192629814148,-0.9558623433113098,-2.3434767723083496,1.495599627494812,2.906844139099121,0.7556793689727783,-0.6347079873085022,-0.4198976159095764,-1.0054161548614502,1.7020936012268066,-0.43820440769195557,3.2471346855163574,1.4082975387573242,0.5315408706665039,-0.26609039306640625,0.33812305331230164,-1.5685361623764038,0.5200051069259644,0.09480452537536621,0.529222309589386,-2.8035929203033447,0.7949704527854919,-1.5006405115127563,-0.5653877854347229,-2.090634822845459,-0.2985098958015442,-0.0275624617934227,-1.4307301044464111,0.7396539449691772,0.2939801514148712,-0.0651993677020073,0.4088754653930664,0.4034729301929474,0.1839817464351654,-1.444558024406433,1.0835002660751343,0.8515030741691589,-0.16346031427383423,-0.05697372555732727,-0.25758591294288635,0.19509205222129822,0.02616332843899727,-1.6087099313735962,0.3243902623653412,0.09809792786836624,0.2898658514022827,-1.029241681098938,0.11501380056142807,-0.848943293094635,0.602638840675354,-0.46549463272094727,1.260312795639038,-0.20602215826511383,-0.6826511025428772,0.3539811372756958,0.911482036113739,0.4671841263771057,-1.0316654443740845,0.8273540139198303,-0.9745703339576721,0.14709480106830597,-0.12069843709468842,0.09456563740968704,0.6925656199455261,0.15746010839939117,0.7792579531669617,0.7679182887077332,-0.5532246828079224,0.5852846503257751,0.08492986857891083,-0.7020975351333618,-0.18627594411373138,0.502485454082489,0.6732904314994812,0.36222460865974426,0.610325276851654,-0.31761395931243896,-0.046952202916145325,-0.6685673594474792,1.5294758081436157,0.35614317655563354,3.210019826889038,-1.956389307975769,1.1071929931640625,1.924837350845337,0.266475111246109,-0.2588942050933838,0.23889559507369995,-1.0393272638320923,-1.4930485486984253,0.7209314703941345,0.13009704649448395,0.22549495100975037,0.3253796100616455,0.46404916048049927,0.23969566822052002,-1.3965834379196167,-0.5241477489471436,-0.11344408243894577,-0.5119061470031738,-0.3825949430465698,1.192562460899353,0.6708012223243713,-0.5037092566490173,-0.2935408651828766,-0.7484007477760315,0.6216397285461426,-0.5603991746902466,-2.2177674770355225,-0.9239534735679626,1.0929890871047974,1.0514074563980103,1.2280887365341187,-1.9332975149154663,-2.0188393592834473,0.7672203779220581,0.2659636437892914,2.726032018661499,0.04195469990372658,0.32765641808509827,-0.8041388988494873,1.3765830993652344,-0.5852013826370239,2.3008265495300293,-0.3447553515434265,-0.5697667598724365,-0.5237557888031006,1.8101332187652588,-0.43661677837371826,-1.498667597770691,1.0884333848953247,-0.7766444683074951,0.597954511642456,-2.005937337875366,1.301368236541748,1.2889761924743652,-0.10861562192440033,0.010956695303320885,-0.6996544599533081,-1.2239534854888916,1.200114130973816,0.2696340084075928,-1.5908669233322144,-0.9206597208976746,0.3832654654979706,-0.6715644598007202,-2.1002283096313477,3.277369976043701,-0.639406681060791,0.36869195103645325,1.9466887712478638,-1.426038384437561,1.3688948154449463,1.0590813159942627,0.7344993948936462,-1.309993028640747,0.8155462741851807,1.931983232498169,2.712496280670166,-2.0642237663269043,1.8180121183395386,0.9197140336036682,0.8732293844223022,-0.4793035686016083,1.4960434436798096,1.0263606309890747,-1.0928854942321777,0.34798625111579895,-0.5681931972503662,-0.46870753169059753,0.005482128355652094,2.241807460784912,-1.3560861349105835,1.6396005153656006,-1.5895029306411743,1.9507077932357788,1.8086845874786377,1.0221160650253296,-1.561164379119873,0.5016151666641235,0.7744283080101013,1.3953673839569092,0.3006054759025574,-1.197566270828247,-1.7856007814407349,0.963965117931366,-1.9835220575332642,-1.4976617097854614,0.05124210566282272,-0.487911194562912,1.1788016557693481,-0.36368799209594727,-2.575788974761963,-0.8795294761657715,-1.0944756269454956,0.2890133261680603,0.39209941029548645,-0.3130994737148285,-0.8868614435195923,1.0174765586853027,1.5857611894607544,0.7924361228942871,0.5370675921440125,0.3517793118953705,-0.9080955982208252,-0.8280971050262451,3.6288247108459473,0.3305889070034027,-1.4473356008529663,-0.9378489851951599,2.812994956970215,1.9991697072982788,-1.5737370252609253,0.03572976589202881,-1.8364063501358032,-0.12662184238433838,0.9021521806716919,-1.9415843486785889,-1.9481303691864014,-3.521777391433716,-1.4262259006500244,2.1383514404296875,0.38896340131759644,2.8728830814361572,-0.023447703570127487,-0.9083284735679626,-0.04883759468793869,2.0138704776763916,0.3918915390968323,2.140612840652466,9.329577445983887,-0.41536569595336914,0.1680508852005005,0.5603123307228088,-0.44265687465667725,-6.563241004943848,0.31392014026641846,6.599216461181641,-2.701960325241089,8.755255699157715,-0.3271395266056061,-2.7346041202545166,-6.987085819244385,-6.562720775604248,-4.449681758880615,-6.3915910720825195,-2.2834832668304443,-0.9509526491165161,3.093270778656006,1.5742552280426025,0.4435645043849945,-2.1739163398742676,0.1047920361161232,-6.025901794433594,6.208302974700928,1.9375156164169312,6.250028133392334,-7.734867572784424,2.3575801849365234,1.3351413011550903,-1.7267497777938843,-7.2071685791015625,-0.5045290589332581,-8.198199272155762,0.08391861617565155,-2.0163633823394775,9.312456130981445,-7.6880364418029785,-2.143582582473755,0.5647350549697876,-0.27703797817230225,0.6140170693397522,-1.1077591180801392,-1.8362666368484497,2.145787000656128,-0.4055364429950714,-0.4250541627407074,-0.6971200108528137,0.16547194123268127,-0.30684196949005127,-0.20012910664081573,-0.30268484354019165,-1.6514990329742432,0.4651840329170227,-0.4336414337158203,0.47982463240623474,-0.529119610786438,0.7610661387443542,-3.322072982788086,-2.3610680103302,1.4149590730667114,1.4626919031143188,-0.9693087339401245,-0.166538804769516,0.7245998382568359,0.4975317418575287,0.7840600609779358,-0.2894262969493866,0.13548950850963593,0.10633128136396408,0.9176880121231079,3.531018018722534,1.7984931468963623,-1.9202357530593872,-0.44766509532928467,-1.370996117591858,1.609264850616455,0.5278451442718506,-0.028450705111026764,-0.3023086488246918,-0.49615955352783203,4.319797515869141,8.643534660339355,0.9054798483848572,2.256350040435791,-0.39078012108802795,0.9016933441162109,-2.898512363433838,-0.7420709133148193,1.773512840270996,-1.1839382648468018,4.978236198425293,1.682375431060791,-1.6675026416778564,-1.6820793151855469,0.6558570861816406,-1.90348482131958,-0.39406242966651917,-1.2491039037704468,1.6573750972747803,3.354550361633301,-0.5710553526878357,-0.7417880296707153,-0.5003579258918762,-1.2087258100509644,-2.7476084232330322,1.7649787664413452,-0.8203848600387573,2.2074432373046875,-2.3786702156066895,-0.8118167519569397,1.2824575901031494,0.22675131261348724,-1.4085613489151,1.2532647848129272,-1.103442668914795,0.22843791544437408,-1.935064435005188,6.27957010269165,-3.075573682785034,-0.7679413557052612,2.983724355697632,-1.914851427078247,1.908815622329712,2.109966278076172,2.5219368934631348,-1.0864810943603516,-1.7979438304901123,-1.76593017578125,-1.5807048082351685,2.6878135204315186,-2.655393123626709,0.7053049802780151,-2.309199333190918,-1.466720700263977,-2.1528031826019287,1.887557864189148,-0.2776431143283844,-1.19233238697052,0.0648021250963211,-1.0717144012451172,2.293440580368042,0.3501822352409363,-1.6045366525650024,-1.3306173086166382,0.9203629493713379,-1.492592692375183,2.8813846111297607,-0.7254374623298645,1.2060304880142212,-3.3788418769836426,-1.533461332321167,0.8236044049263,0.9578752517700195,-2.409141778945923,-0.1652156561613083,-3.3000454902648926,-1.5412667989730835,-0.8899611830711365,1.7946935892105103,-2.4303033351898193,1.19619619846344,1.8289644718170166,2.430412769317627,-6.496326446533203,2.42024302482605,4.233370304107666,-2.9152109622955322,5.436226844787598,7.324001312255859,2.8830010890960693,-3.1792349815368652,5.045117378234863,-0.7065568566322327,4.921406269073486,-0.5592914819717407,6.839200496673584,-1.7746806144714355,0.6683785915374756,5.36236572265625,1.1409668922424316,4.266767978668213,-0.5807411670684814,-1.6510355472564697,-2.817918300628662,4.402478218078613,-2.0381157398223877,4.30495023727417,-7.024629592895508,-0.4159422814846039,0.2631864845752716,4.652517318725586,1.4466116428375244,-1.6194047927856445,-1.9993915557861328,5.259964466094971,4.292628288269043,7.011938571929932,2.5941638946533203,2.5045242309570312,-6.207696437835693,4.957565784454346,-0.6844205856323242,-1.661321997642517,0.3055373728275299,0.7244798541069031,-0.5646900534629822,-0.38679370284080505,-0.6579514145851135,-1.2216545343399048,-2.3379297256469727,2.74664306640625,0.3577577471733093,-0.9259096384048462,0.5954164266586304,4.026989936828613,2.8399088382720947,-1.8409488201141357,-2.3600857257843018,-0.9482119679450989,-3.6825809478759766,-3.5110206604003906,3.703580617904663,4.617496967315674,-3.9979257583618164,-0.3346579968929291,-1.2248480319976807,-0.9244861602783203,-1.641269564628601,2.256842613220215,-4.48869514465332,2.6374170780181885,0.2220350205898285,-3.982085943222046,-4.955642223358154,-3.5580811500549316,-3.453979730606079,3.094238758087158,1.4354400634765625,-0.3620905876159668,-5.2040910720825195,1.8397246599197388,-3.394151449203491,4.285143852233887,1.6555793285369873,-4.025269985198975,-3.1345598697662354,5.812495708465576,1.7993688583374023,-1.4541571140289307,3.62849760055542,2.1231911182403564,-1.2732712030410767,-1.3530519008636475,1.890390157699585,-3.602872133255005,0.36565127968788147,5.23094367980957,-0.7921344041824341,-3.13269305229187,-4.376464366912842,-0.2168092280626297,0.0035014618188142776,1.7237170934677124,5.1002655029296875,-4.871105670928955,0.47829389572143555,-4.476505279541016,4.515201091766357,2.472830295562744,-0.619569718837738,-5.283776760101318,2.177337646484375,0.5992419123649597,-5.211178779602051,-5.319276332855225,-2.572864055633545,-2.0896120071411133,3.653264284133911,1.674589991569519,0.7966556549072266,-3.3231310844421387,-2.9505419731140137,1.5427478551864624,6.325500011444092,-0.2274419516324997,-6.16665506362915,2.6140003204345703,1.2944737672805786,-4.818549633026123,0.9656484127044678,-1.8981338739395142,-3.330798387527466,2.1414875984191895,2.7783682346343994,-3.5156333446502686,2.273336410522461,-3.301264762878418,-3.245863199234009,1.48002028465271,0.4891839921474457,-2.2691028118133545,-3.9988694190979004,-0.7046300172805786,-1.6546735763549805,-2.245882749557495,-0.1372269243001938,-0.37398022413253784,-2.284482002258301,2.912924289703369,-1.0758984088897705,-0.4410862624645233,-6.003608226776123,4.313467979431152,-1.873705267906189,-3.659377098083496,0.6796723008155823,1.5131829977035522,0.9555161595344543,0.3186552822589874,-3.9351511001586914,-2.4718754291534424,-3.370950222015381,2.159407615661621,0.8782439827919006,3.1679718494415283,2.378965139389038,-1.1325708627700806,0.4217282831668854,1.5527782440185547,1.5631667375564575,0.6233028173446655,0.9182416796684265,2.0164451599121094,-0.16897912323474884,-0.7390874028205872,1.3377785682678223,-0.3703930675983429,3.4651665687561035,0.49369117617607117,0.34344035387039185,-0.04383571445941925,2.633409261703491,1.3761056661605835,0.5433370471000671,-1.208711862564087,-1.82985520362854,-0.08846338838338852,-1.5300686359405518,-0.7436304688453674,1.6304889917373657,2.089367628097534,0.3711977005004883,-1.6494280099868774,-2.543148994445801,1.9485080242156982,-3.117973566055298,0.2078159749507904,2.5355024337768555,2.6207151412963867,-0.35379716753959656,1.8173224925994873,-0.37558430433273315,1.322542667388916,0.21434174478054047,0.40992096066474915,1.6449517011642456,-1.9693762063980103,-0.2861058712005615,-2.3268191814422607,-0.0014212711248546839,7.891909599304199,2.590993642807007,3.5670478343963623,5.499277114868164,-9.387237548828125,-5.562257289886475,3.8318450450897217,-6.2837371826171875,0.45985910296440125,1.360394835472107,-0.8842963576316833,8.006214141845703,8.153488159179688,4.834361553192139,3.526993751525879,-3.49920392036438,1.762803077697754,-1.4668874740600586,3.07551646232605,-0.6526693105697632,1.437707781791687,4.762601852416992,-1.506602168083191,-4.356050491333008,-5.592652320861816,-1.0066330432891846,-6.051332950592041,-0.014948735013604164,4.691713809967041,1.1840364933013916,-2.9423513412475586,3.514516592025757,0.18043403327465057,7.500333786010742,-1.3612269163131714,3.228256940841675,5.791040897369385,-3.447734832763672,0.597261905670166,0.10118183493614197,-0.039931610226631165,-0.034955691546201706,0.06563398241996765,-0.8992500901222229,0.4316502511501312,-1.6308412551879883,0.09326813369989395,-0.23415584862232208,0.2776464819908142,-0.2336820363998413,-2.6371283531188965,-0.4725310802459717,-1.4554314613342285,0.23778872191905975,-2.1454148292541504,-0.3574640452861786,-0.4455760419368744,0.972494900226593,0.09950120747089386,0.012631317600607872,-1.2334891557693481,0.9484294056892395,0.43689632415771484,0.5808508396148682,-0.5972297191619873,0.6093483567237854,-0.6845215559005737,-0.15427936613559723,0.3070855736732483,-0.15147407352924347,-1.2888442277908325,-0.6506898999214172,-0.5521720051765442,-1.5707802772521973,-0.26859521865844727,0.04314960166811943,0.2265441119670868,0.3289325535297394,0.9478625655174255,4.420961380004883,5.922872066497803,-6.564239978790283,-2.1257712841033936,9.712461471557617,-1.680320382118225,-2.381272315979004,-3.6856632232666016,-0.07392701506614685,-0.7821977734565735,7.299854278564453,-5.14512825012207,-8.285740852355957,-2.0095860958099365,-3.241758346557617,4.629953861236572,-4.397311210632324,-5.449904441833496,-6.932365417480469,-0.4690798223018646,1.2778817415237427,1.2730284929275513,0.8347365260124207,-4.423947334289551,0.497283935546875,3.977963447570801,1.5914570093154907,0.785835862159729,-3.3925294876098633,5.379345893859863,9.668774604797363,9.631235122680664,-0.373051255941391,-5.364933013916016,-6.894266128540039,-2.8678269386291504,1.2956663370132446,5.175960540771484,-1.7773191928863525,-13.41191291809082,-0.12787969410419464,-3.4401469230651855,1.8861647844314575,-3.272695779800415,2.389052391052246,-2.60532808303833,-4.281290054321289,-6.122517108917236,-0.5300804376602173,3.058551788330078,-5.06594705581665,3.48938250541687,0.5000319480895996,2.6941351890563965,-2.9964170455932617,2.6789588928222656,-4.5272674560546875,-4.04490852355957,1.612229585647583,-1.624080777168274,-1.2484042644500732,4.844386100769043,7.58247184753418,2.0241167545318604,3.6915948390960693,-4.728505611419678,2.5391151905059814,2.928809642791748,2.687161445617676,-1.647761344909668,2.3139610290527344,0.7294471263885498,-3.568228006362915,-2.8281075954437256,-2.0822982788085938,0.28528398275375366,2.3499927520751953,-3.648528814315796,0.37858372926712036,-2.6568870544433594,1.4490914344787598,0.8156397938728333,1.037584662437439,-4.047764778137207,5.992655277252197,-1.5441486835479736,-10.826860427856445,1.124782919883728,-1.2637178897857666,7.070803165435791,-1.364952802658081,-0.3487287163734436,-6.183009624481201,3.609736204147339,3.3028829097747803,4.965135097503662,2.432811975479126,1.719582438468933,-1.050794243812561,2.215163230895996,10.92311954498291,0.8488896489143372,-10.100749015808105,-2.8855373859405518,10.659525871276855,5.678977012634277,3.6639292240142822,-0.840383768081665,-13.326465606689453,-3.877061367034912,7.234822750091553,-2.6155290603637695,-11.078901290893555,-10.453131675720215,-1.5854328870773315,10.144152641296387,1.1570123434066772,10.287738800048828,-5.8357696533203125,-4.62444543838501,1.655219554901123,3.1270439624786377,-4.309014320373535,-1.5231144428253174,0.700452446937561,2.132986545562744,-3.3792026042938232,-0.702156126499176,-0.2447229027748108,-1.9350241422653198,-4.232515335083008,-1.7215642929077148,-2.1587846279144287,-1.4524366855621338,0.7583083510398865,-2.5293519496917725,2.008925437927246,0.42146989703178406,2.609011650085449,-6.230629920959473,1.889369249343872,1.4989749193191528,-2.4556589126586914,-2.759413719177246,-0.7754610776901245,2.731602907180786,7.89943790435791,1.3340035676956177,-0.24275408685207367,-4.043220043182373,-2.0748820304870605,3.911747455596924,-6.055450916290283,-2.0193264484405518,-0.5783752202987671,-1.8507609367370605,2.3946592807769775,0.36783546209335327,4.184758186340332,-2.12018084526062,-1.4644198417663574,1.1424387693405151,1.9841471910476685,-0.5254457592964172,0.6045798063278198,-0.5549976229667664,-3.751488447189331,0.643500804901123,1.8995949029922485,1.0744651556015015,2.3076817989349365,-6.938102722167969,-0.49825629591941833,1.013688087463379,-3.1484415531158447,-2.7305922508239746,-2.381457567214966,-1.9249415397644043,3.0256690979003906,3.734642505645752,2.0834059715270996,1.981274962425232,-3.581604480743408,-0.600038468837738,3.8766236305236816,3.5032260417938232,-1.7714247703552246,-3.996584892272949,-0.9761218428611755,-1.07846200466156,2.74798846244812,-2.4407567977905273,-1.5910576581954956,1.7736191749572754,6.197326183319092,1.3020418882369995,-2.699582815170288,-5.2445244789123535,0.04728655517101288,-1.057619571685791,4.6920576095581055,0.19637174904346466,0.6265626549720764,-0.6612046957015991,-0.24034486711025238,-0.8249402642250061,-2.993586778640747,0.8460036516189575,-2.2100250720977783,-0.4557000696659088,2.920644521713257,-0.1686488389968872,3.1958301067352295,0.07191623747348785,0.24465760588645935,-0.5541487336158752,2.5894973278045654,-2.7010016441345215,8.1244535446167,-4.616488456726074,-2.0444493293762207,-5.200350761413574,6.3300981521606445,1.0493412017822266,-3.762066602706909,3.562634229660034,-3.316227436065674,7.778806209564209,2.0739028453826904,2.2493693828582764,-4.1131591796875,1.7896360158920288,1.3790383338928223,-1.0127410888671875,2.48624849319458,-0.41426295042037964,-2.5450820922851562,0.7395725846290588,1.8681960105895996,1.8573853969573975,6.727900505065918,-13.228076934814453,-5.0976972579956055,2.6563940048217773,-5.750716209411621,-1.0316671133041382,1.418529748916626,2.0549960136413574,-0.6901611685752869,-0.20423594117164612,2.872659206390381,0.265544056892395,-0.22247740626335144,-3.3563239574432373,0.40339332818984985,-0.30874866247177124,0.5896503925323486,-0.327317476272583,-1.7377487421035767,-0.6043124198913574,-1.2610594034194946,-0.04187217727303505,-0.9103499054908752,-1.1391922235488892,-1.1693085432052612,2.8958325386047363,0.5077323913574219,-0.33918264508247375,-0.8178365230560303,-1.6009855270385742,-0.24250225722789764,1.0583951473236084,-0.17710542678833008,1.8378602266311646,-2.843881368637085,0.01065472699701786,0.5011643767356873,2.6284608840942383,-0.28572285175323486,-1.2030835151672363,-0.2990429103374481,-1.4501140117645264,-0.5863231420516968,1.7042756080627441,-0.36996904015541077,-0.6613184809684753,2.2377216815948486,0.9231268167495728,-5.45055627822876,-0.5183783769607544,0.9950164556503296,4.924029350280762,4.913133144378662,7.152370929718018,1.7310527563095093,-5.601142406463623,6.4665374755859375,-1.5967450141906738,6.2851481437683105,1.8086007833480835,7.626553058624268,-8.1608247756958,0.39993253350257874,4.332339286804199,1.9122477769851685,1.3195443153381348,-0.5126007199287415,-0.35849863290786743,-1.276403546333313,1.3796801567077637,-6.945636749267578,4.553083419799805,-8.118776321411133,0.17818483710289001,0.39934518933296204,6.457762718200684,0.9748960733413696,-0.3145904839038849,-0.7760449647903442,5.63353967666626,0.11860290914773941,6.9482550621032715,-1.611880898475647,2.9415078163146973,-6.9383225440979,6.863602161407471,0.31556105613708496,-3.652855634689331,3.4988372325897217,2.96156907081604,11.217726707458496,12.678311347961426,-9.587207794189453,1.4298608303070068,2.4435951709747314,0.23265525698661804,-1.1573703289031982,0.04981406405568123,-4.543334484100342,-4.321972846984863,0.45778319239616394,-3.629817008972168,11.80096435546875,-2.9353909492492676,10.926168441772461,-0.37580937147140503,8.34541130065918,3.23356294631958,-13.838972091674805,1.684459924697876,8.621551513671875,4.9689154624938965,1.70901620388031,2.1282031536102295,-13.541285514831543,-6.91745138168335,-6.610111713409424,-13.152101516723633,-11.37521743774414,-9.18810749053955,-1.5695853233337402,11.881007194519043,-0.5750046372413635,14.205940246582031,13.600467681884766,2.9479384422302246,-3.604374408721924,7.064463138580322,6.143081188201904,-11.246562004089355,1.7057875394821167,-3.04909086227417,-5.713286876678467,6.527378559112549,-2.1089229583740234,-4.120309829711914,8.498616218566895,9.171714782714844,0.722500205039978,7.336662769317627,-11.270129203796387,-6.963354110717773,-4.582444667816162,-0.9173980951309204,-8.850722312927246,-10.271159172058105,-2.913372039794922,-2.7171108722686768,12.447344779968262,-11.099128723144531,-10.417512893676758,-2.744473934173584,9.409422874450684,1.6392195224761963,0.2983877658843994,-7.812641620635986,16.21531105041504,-2.8358819484710693,-4.0801520347595215,-1.784844160079956,1.2624287605285645,2.48203706741333,-7.336864471435547,-9.929037094116211,-4.88193416595459,-15.136098861694336,2.638988494873047,0.647850751876831,12.46694564819336,8.099546432495117,0.08052385598421097,-1.2787671089172363,-1.3376927375793457,-0.766386866569519,1.4348475933074951,2.5013084411621094,4.103649616241455,-1.6028003692626953,-1.1716455221176147,0.39255619049072266,2.134615659713745,0.974332869052887,-3.712444543838501,2.799232244491577,-0.9432018399238586,4.289144039154053,-0.8644888997077942,2.9795992374420166,-0.35638532042503357,-1.4629275798797607,2.46344256401062,0.8054831027984619,-1.7892742156982422,0.15711690485477448,1.304186463356018,-3.6166799068450928,3.3829379081726074,0.08874253183603287,0.9774343371391296,4.023397922515869,1.5533734560012817,-1.0127815008163452,0.49132055044174194,0.2322675883769989,0.43491727113723755,-1.1665269136428833,0.5004494190216064,-1.4133342504501343,4.115756034851074,-0.3487595319747925,-2.096350908279419,-2.2035248279571533,0.7178024053573608,0.5531275868415833,-0.4083399176597595,0.0502675361931324,0.23874391615390778,-0.4273863434791565,1.5038270950317383,0.39764538407325745,-0.5028165578842163,0.19202210009098053,-1.6319226026535034,1.6189982891082764,0.120673269033432,0.16386669874191284,-0.3814021348953247,-0.6639661192893982,-0.7381193041801453,1.1246378421783447,0.09463625401258469,-1.1418554782867432,-0.8133242726325989,0.922674298286438,0.053602609783411026,-0.655392050743103,-0.12062984704971313,-1.0818568468093872,1.0322651863098145,-1.6861299276351929,-1.0393906831741333,-0.6901055574417114,-1.1317367553710938,0.9832383990287781,0.9196937680244446,-0.8329849243164062,0.9545925855636597,-0.8871555924415588,0.886887788772583,-0.32906433939933777,0.30596235394477844,1.1372565031051636,-0.9123634696006775,-0.08451097458600998,-0.5395072102546692,0.42162850499153137,0.3791007697582245,-0.6480058431625366,0.4348372519016266,-0.6472367644309998,-0.7649566531181335,-0.5357850790023804,0.2993851900100708,-0.22449147701263428,0.19676081836223602,-0.25563284754753113,1.0251826047897339,1.0951176881790161,0.33256012201309204,0.15410654246807098,0.2951596677303314,-0.053755491971969604,-0.41657981276512146,-0.17259953916072845,-0.15794290602207184,0.1874578595161438,0.8873671889305115,0.2685796320438385,-0.7631729245185852,-1.0811622142791748,0.42148640751838684,-0.13894040882587433,-1.1690421104431152,0.04823048785328865,-0.4498147964477539,-0.21553374826908112,-0.13540087640285492,-0.2453344315290451,0.15109330415725708,0.015759311616420746,-0.3008584678173065,0.7819117307662964,-0.9480469226837158,-0.020693013444542885,-0.042122140526771545,-0.04370667785406113,-0.01292161364108324,-0.005990284960716963,-0.01949043571949005,0.011702951975166798,-0.051453184336423874,0.07095780223608017,0.012997654266655445,0.033323049545288086,0.058728139847517014,0.02125633880496025,0.0032267903443425894,0.023927342146635056,-0.04616539925336838,-0.03677218779921532,-0.020095661282539368,0.0132379662245512,-0.04213564470410347,-0.05005088821053505,0.06961587071418762,0.049462467432022095,0.00909244641661644,0.0787816047668457,-0.02826421707868576,-0.06630797684192657,0.012915781699120998,0.05802801996469498,0.04080232232809067,-0.0787360817193985,-0.07690680027008057,-0.02526799961924553,0.07326247543096542,0.02023160271346569,-0.026883890852332115,0.010185827501118183,-0.06830872595310211,0.005467808805406094,0.0719885304570198,-0.05452342703938484]},"hiddenLayers":[{"inputMatrix":{"rows":24,"columns":41,"weights":[1.2260280847549438,0.15492397546768188,0.1520685851573944,-0.41516318917274475,-0.5574957728385925,-0.1526479721069336,-1.3057222366333008,-0.7961609363555908,-0.01347544975578785,-0.4576088786125183,0.3405550420284271,1.1667133569717407,-0.21154601871967316,0.5951247811317444,-0.5292549729347229,-0.4362841546535492,-0.9837860465049744,-0.2962164878845215,0.192399799823761,0.19738899171352386,-0.31056004762649536,0.19184648990631104,0.317476361989975,0.2963508069515228,-0.5778542160987854,-0.4182586371898651,-0.34491297602653503,0.24253322184085846,0.04144637659192085,-0.20211674273014069,-0.2011186182498932,-0.35885101556777954,-1.0221394300460815,0.25687095522880554,0.2446451187133789,0.5597898364067078,-1.1902328729629517,-0.28091326355934143,0.32184895873069763,0.03451161831617355,0.5135735869407654,-0.3657568693161011,0.49295884370803833,0.9492282271385193,1.8134217262268066,-0.36423343420028687,1.203624963760376,0.778703510761261,-0.18457619845867157,-0.043480850756168365,0.22911228239536285,0.33980903029441833,-0.7338147163391113,0.8550155758857727,-1.6265976428985596,-0.18672914803028107,-1.4965722560882568,-0.3552841544151306,0.7457703351974487,-0.6806839108467102,0.45258262753486633,-0.26100417971611023,0.8183885812759399,-0.9590226411819458,0.08522394299507141,0.7867615818977356,0.020597228780388832,-0.29416635632514954,0.5945799946784973,-1.7315702438354492,-0.7127036452293396,0.09216856211423874,0.3689214885234833,0.6885270476341248,0.08085735142230988,0.3804784119129181,0.10505732893943787,-1.1784083843231201,0.569903552532196,-0.5043434500694275,0.8020064830780029,1.6168336868286133,0.8237258791923523,2.413914442062378,-0.4871547520160675,1.4865837097167969,-0.32062530517578125,-1.2445570230484009,-0.08698355406522751,-0.10495958477258682,-0.011259921826422215,-1.3177475929260254,1.690223217010498,-2.550152540206909,-1.2191412448883057,-0.931277871131897,0.15640679001808167,-0.7418168783187866,0.6840457916259766,-1.09557044506073,0.34993892908096313,0.6982487440109253,-0.11520127952098846,-0.22406668961048126,-0.43660375475883484,-0.5418277382850647,-0.9195643663406372,0.34230512380599976,0.08592788130044937,0.41920962929725647,-2.4571759700775146,0.06269881129264832,-0.17001156508922577,-0.3200003504753113,-0.7206715941429138,0.18943920731544495,-1.325811505317688,-0.4202999472618103,0.5620481967926025,2.293764591217041,-0.7059900760650635,0.17653001844882965,1.131008505821228,0.33065563440322876,0.9658381342887878,0.7244797348976135,-1.1952167749404907,-0.20798175036907196,-0.2716822922229767,-0.5541060566902161,0.0036979352589696646,-0.3308509588241577,-1.467373251914978,0.20877860486507416,-1.537617802619934,-1.9268766641616821,0.9207324385643005,-1.6072016954421997,-0.017026696354150772,-1.9574108123779297,0.33898940682411194,-0.0948207899928093,-0.5572479367256165,-0.3467806875705719,-0.2592364549636841,-0.07183633744716644,1.0956015586853027,2.0897297859191895,0.15454722940921783,-0.7898798584938049,-0.2749795913696289,-0.6555933952331543,-0.8341636061668396,-1.7220723628997803,0.6718725562095642,0.2987110912799835,0.911479651927948,-1.8006887435913086,0.3042777478694916,-0.2503081262111664,0.4039947986602783,0.12223807722330093,-0.2698592245578766,0.9871436953544617,-0.7986778616905212,-0.3712511658668518,1.9930188655853271,0.6341552138328552,-1.2592530250549316,1.4113305807113647,-0.42640313506126404,3.5982120037078857,0.5392847657203674,0.6342071294784546,-0.8593699336051941,1.1467010974884033,0.5478959679603577,0.45991551876068115,1.4726346731185913,-0.9167172908782959,1.2994229793548584,-0.25130143761634827,1.357969880104065,1.1325713396072388,-1.4433201551437378,-1.033278226852417,-0.3725306987762451,0.1657116413116455,-0.7996137738227844,0.6917203664779663,-2.052480697631836,0.7969220280647278,0.5815843939781189,-1.2398408651351929,-0.6751082539558411,-1.0524283647537231,0.501034140586853,1.4467824697494507,1.1072040796279907,-0.13773207366466522,-1.7487634420394897,-0.4287288784980774,-0.6125407218933105,0.8648211359977722,0.505575954914093,-0.06098386272788048,-1.307420253753662,0.6225031018257141,0.6965146660804749,-0.13779982924461365,0.42569828033447266,-0.21127331256866455,0.5583727359771729,-0.09967423230409622,0.3796451687812805,-0.45562508702278137,0.09021104127168655,1.1558338403701782,1.422354817390442,0.31793099641799927,-0.0808272510766983,-0.430554062128067,0.6238173246383667,0.9680277109146118,0.08459698408842087,-0.053610771894454956,-0.5806341767311096,0.6950931549072266,1.1186972856521606,0.2717815935611725,-0.550148606300354,0.39260026812553406,0.09893812984228134,0.9155158996582031,-0.21022795140743256,0.17933760583400726,-0.6568963527679443,0.2628341317176819,0.4511072039604187,0.6006619930267334,0.6950873136520386,-0.45409077405929565,-1.867990493774414,0.24702131748199463,0.5711666345596313,-0.4976385831832886,-0.4341801404953003,0.40213415026664734,1.169311285018921,0.36281874775886536,-0.9802612662315369,0.1348220407962799,-0.34876543283462524,0.8153292536735535,0.0168632622808218,-0.13216999173164368,-0.1449233740568161,0.692558765411377,0.31476840376853943,-0.34017521142959595,2.4814910888671875,-0.19452708959579468,0.9775714874267578,-0.2917276620864868,0.9297305345535278,0.6315774321556091,-0.6920185685157776,-0.4476310908794403,0.15842899680137634,0.37970075011253357,-0.09470659494400024,0.7284420132637024,-1.1980849504470825,-0.3122841417789459,0.5929903984069824,-1.5745429992675781,-0.5744021534919739,-0.7761585712432861,0.44579997658729553,0.8925741314888,0.2429700791835785,0.3553231358528137,0.04014654830098152,0.4386366903781891,-0.791523814201355,0.9500150680541992,-0.0248618982732296,-0.3208020031452179,1.6350855827331543,-1.1065269708633423,-0.7410480976104736,0.4503127336502075,-0.999392569065094,-0.8838891983032227,-0.34578174352645874,0.09518476575613022,-1.237905740737915,1.0782058238983154,-2.044170618057251,-1.0639222860336304,-0.40786388516426086,-0.7254888415336609,-0.5450987219810486,-1.2313213348388672,-1.0194236040115356,-0.0611644983291626,0.33339646458625793,0.13455037772655487,-0.11895529180765152,0.2235156148672104,-0.8257365822792053,-0.06715639680624008,0.5398309230804443,-0.008901345543563366,1.3515897989273071,-1.164651870727539,0.5432250499725342,-0.10944223403930664,0.5647051334381104,-0.08530683815479279,-0.36911022663116455,-2.3259730339050293,-0.2949322760105133,-1.2374407052993774,1.9539436101913452,-0.4564462900161743,-0.6932761669158936,-0.49535199999809265,0.02202439121901989,2.064821481704712,-1.3579769134521484,0.21699458360671997,0.2751343846321106,-1.3452874422073364,-1.325827956199646,-0.1546875536441803,0.3821347653865814,-1.648577332496643,2.037382125854492,-1.3785475492477417,-1.159540057182312,-0.8033307194709778,-0.20029421150684357,-0.09685073047876358,-0.5526357889175415,-0.7115437388420105,-0.10722002387046814,-0.09214592725038528,0.2506074011325836,0.3023523688316345,-0.3936654031276703,-0.9018914103507996,-1.1460529565811157,-0.0363655611872673,0.0567408911883831,1.4762976169586182,-2.16564679145813,0.5885081887245178,0.4037350118160248,0.288199245929718,-0.5283169746398926,-0.0934319943189621,-1.5217825174331665,-0.6349920034408569,-0.7648402452468872,2.192965030670166,-0.3604736924171448,-1.4088314771652222,0.6906240582466125,-1.0165092945098877,-0.9962630271911621,0.23290935158729553,-0.278984934091568,0.3549940288066864,0.4306560456752777,0.12399662286043167,0.35719045996665955,-0.05352846160531044,0.7565714120864868,-1.6456613540649414,-0.6250685453414917,1.3479290008544922,1.1028956174850464,-0.18234585225582123,0.07544905692338943,1.9028823375701904,-0.15215754508972168,0.591715395450592,0.2354324907064438,-0.8065590262413025,0.5955763459205627,1.2936784029006958,0.24535517394542694,-0.09571404755115509,-0.7824376821517944,-1.1012240648269653,0.09095065295696259,0.03157150745391846,-1.1459441184997559,-1.2260650396347046,-0.777019202709198,-0.2598012089729309,-0.0055708084255456924,-0.09973718225955963,0.5897284150123596,0.13540993630886078,-1.2042615413665771,0.7282663583755493,1.1964943408966064,-0.15406255424022675,-0.25487586855888367,-0.7412267327308655,-0.8037605881690979,-0.6671761274337769,0.9983929395675659,0.7607905268669128,-0.38406285643577576,0.6684277653694153,-0.11450587213039398,0.917117178440094,-0.27669310569763184,0.33507072925567627,-0.20541630685329437,1.200084924697876,-0.6427639126777649,0.03483593091368675,-0.06469111144542694,0.08440729230642319,-1.027407169342041,-0.049832310527563095,0.968647837638855,0.2841600775718689,-0.2690950930118561,-0.9426233172416687,-0.23859548568725586,-0.28311923146247864,1.3848421573638916,-0.17898447811603546,0.12812794744968414,1.3571040630340576,2.0608010292053223,0.9318309426307678,0.34462469816207886,-1.0303196907043457,0.6172233819961548,-1.132265329360962,0.0371478907763958,-1.061729073524475,0.6519335508346558,-0.9206157922744751,0.04957611486315727,-0.7673619389533997,-1.058698296546936,0.07805497199296951,0.9355028867721558,-0.20400582253932953,1.3944993019104004,0.999808132648468,-0.8572144508361816,-0.6199105381965637,0.9667536020278931,-1.2841095924377441,1.7579678297042847,0.5428158640861511,-0.06109032407402992,1.1504173278808594,0.3245996832847595,1.4881409406661987,1.6681631803512573,-0.5979111194610596,-0.4962371587753296,0.06169552728533745,0.8964719772338867,-0.22904323041439056,-0.2754541337490082,-0.7851831912994385,-0.6089193820953369,0.2385224848985672,-0.36396369338035583,0.23245684802532196,-0.2722740173339844,0.2797657549381256,-0.1869131177663803,-0.04001091420650482,-0.33088219165802,2.500108003616333,-0.11229018867015839,0.8524803519248962,-1.2002589702606201,1.3157275915145874,0.6509711742401123,0.23223134875297546,-0.22449533641338348,-0.23227830231189728,0.3798092305660248,0.792198121547699,0.14054718613624573,0.3638295531272888,0.6171243786811829,-1.2973768711090088,-0.39209550619125366,0.5012422204017639,-2.802351951599121,0.13347510993480682,-0.7613978981971741,-0.35432732105255127,1.2485074996948242,0.0862291231751442,0.5938664674758911,0.756912350654602,-0.5746280550956726,0.6963273286819458,0.4875405728816986,-0.4105145037174225,-0.31853267550468445,0.6110777854919434,0.46134865283966064,0.32302144169807434,-0.22994865477085114,-0.21886081993579865,0.0963345468044281,-1.0150258541107178,0.5779158473014832,0.8469792008399963,0.5046723484992981,-0.32477906346321106,0.3855924904346466,-0.07998837530612946,1.082972764968872,-0.20145685970783234,0.25879570841789246,0.5769651532173157,0.03907020390033722,0.27097049355506897,0.6103747487068176,-0.11356890201568604,1.1146284341812134,-0.7251977324485779,-1.3475620746612549,-0.02292705327272415,-0.10641767829656601,0.20117168128490448,-0.14012588560581207,0.4436163008213043,-0.4876334071159363,0.4617632329463959,-1.2396180629730225,0.9001150131225586,-0.6606090664863586,-0.0975588783621788,-1.1409249305725098,0.44626280665397644,0.5813990235328674,-0.1295653134584427,-0.16153383255004883,-0.03835321217775345,0.41527366638183594,-1.1119389533996582,0.6655387282371521,-0.2774217128753662,0.04146459326148033,-0.14419497549533844,-0.2543487250804901,-0.45166686177253723,-0.8992735147476196,-1.8308656215667725,0.2848585546016693,-0.27225905656814575,0.10478256642818451,-0.2384416162967682,0.45535793900489807,-0.01306625735014677,0.40302446484565735,-0.1677113175392151,-0.6261910200119019,-0.6987020969390869,0.4470343589782715,0.1725243330001831,0.22052809596061707,0.8414461612701416,0.6006503701210022,-0.11370144039392471,-0.2598269283771515,1.288711428642273,-1.0598684549331665,0.7140953540802002,1.6403486728668213,1.0968867540359497,0.11906398832798004,0.4518328011035919,0.7719346284866333,0.2636440396308899,-0.049466945230960846,0.014450942166149616,-0.2734217643737793,-1.0329861640930176,1.0948115587234497,0.5061513185501099,0.10588773339986801,-1.0597634315490723,-0.4157620668411255,0.5297664403915405,0.04190435633063316,-1.216902732849121,0.14160335063934326,0.07371129095554352,1.5706140995025635,-0.016133688390254974,1.1181282997131348,0.9311410784721375,0.9989137053489685,-0.7937585711479187,1.1852693557739258,0.9131559729576111,0.5014914870262146,-0.285751074552536,-2.34759783744812,1.0087467432022095,-0.67826247215271,-0.6657735109329224,1.1802692413330078,1.0324445962905884,0.43313848972320557,-1.140075922012329,0.24796327948570251,-1.3456465005874634,1.3760026693344116,1.53822660446167,2.2348179817199707,-0.23773634433746338,0.8090639114379883,-0.07118985056877136,0.8486886024475098,0.1624860316514969,-1.6621135473251343,0.27777743339538574,-0.5441626310348511,-0.18056902289390564,0.6627925038337708,0.7919840216636658,-0.9058564901351929,0.06345359981060028,-0.625807523727417,2.4487500190734863,-0.6678040027618408,0.03141161426901817,-0.13230310380458832,1.3539239168167114,0.5817222595214844,1.2346720695495605,0.32065990567207336,0.4368460178375244,-2.4242031574249268,0.4837924838066101,0.7267077565193176,-1.2554322481155396,-0.28411397337913513,0.8191196918487549,0.931399941444397,-1.5748279094696045,0.18312586843967438,0.7890021800994873,-0.18934041261672974,0.9634491205215454,0.2733010947704315,-0.2302672266960144,-0.40562042593955994,0.042332135140895844,0.11860384792089462,0.5306901931762695,-1.3444985151290894,-0.20553162693977356,-0.7011459469795227,0.1816215217113495,0.09631801396608353,0.02522560954093933,-0.37164026498794556,-0.528352677822113,-0.2425485998392105,0.6882286667823792,-0.06572612375020981,-0.09227675199508667,-0.8622679710388184,0.5451940298080444,-0.7438800930976868,-1.3393124341964722,-0.8023853898048401,0.3061831593513489,0.3944881558418274,0.5476899743080139,-0.31005287170410156,0.07376426458358765,-0.8326387405395508,0.5191786885261536,-0.23625165224075317,0.17339283227920532,0.6424255967140198,0.9557305574417114,0.5164136290550232,-0.22800768911838531,1.4882135391235352,-0.12780416011810303,0.25539612770080566,0.937645673751831,-1.3234821557998657,-0.8817185759544373,-0.17350438237190247,0.7780275344848633,0.002775954082608223,-0.7547799348831177,-0.3549022376537323,0.6625223159790039,0.5745564699172974,-0.3084571659564972,0.33416011929512024,0.04099445417523384,1.0540122985839844,-0.35188114643096924,-0.3440322279930115,0.03314613178372383,-0.44864436984062195,1.1616756916046143,0.0950872078537941,-0.3528694808483124,-0.38401132822036743,-0.03217574954032898,-0.001374460058286786,0.17671796679496765,-0.04140492528676987,-0.3366714119911194,-0.10424869507551193,-0.19282610714435577,0.1337180882692337,0.06446018069982529,0.350519061088562,-0.053945813328027725,-0.4529271125793457,-0.5062950253486633,0.7820516228675842,-0.029183827340602875,-0.6585619449615479,1.121568202972412,0.36886629462242126,-0.6843018531799316,0.9846959114074707,-1.1534473896026611,-0.7176833152770996,-0.2397453337907791,0.38345009088516235,-0.3260170519351959,0.3850507438182831,0.032465189695358276,0.3396790623664856,2.3271377086639404,0.3617859482765198,1.2644895315170288,-0.608801007270813,-1.4492088556289673,0.8368560671806335,1.782015323638916,0.28994083404541016,0.037346526980400085,0.9533931612968445,-0.3557916581630707,1.123291015625,-2.415026903152466,0.7033213376998901,0.3964264690876007,0.6375001668930054,-0.06868874281644821,-0.1504070907831192,-0.7399517297744751,0.3052828311920166,0.10767906904220581,1.2645885944366455,-0.3339883089065552,-0.13197501003742218,0.06019219383597374,-1.352251410484314,-1.229941725730896,-0.2004748284816742,0.8948697447776794,-0.5071030259132385,-0.2709100544452667,-0.09587208181619644,0.9898550510406494,-0.08201359212398529,-0.7472862601280212,0.09793751686811447,-0.784341037273407,-0.16188699007034302,1.027915120124817,0.0165067408233881,-0.6819033622741699,0.645338773727417,-1.3596800565719604,0.08287812024354935,-0.02944779209792614,0.30130329728126526,-1.3666150569915771,-0.2202751785516739,-0.0483161099255085,1.0247246026992798,1.0109801292419434,-0.32487252354621887,-1.9101518392562866,-0.023606693372130394,-0.02919161692261696,-1.77329421043396,-1.1832280158996582,-0.4362778663635254,-0.0650394931435585,0.07447515428066254,0.30933114886283875,0.3078676760196686,-1.7335937023162842,0.018042732030153275,0.3747880160808563,1.4072673320770264,0.41554713249206543,-0.9459430575370789,-0.9250324964523315,0.41014161705970764,-0.024887170642614365,-0.5150998830795288,0.37370142340660095,0.18335497379302979,2.8894851207733154,0.15466585755348206,1.323240041732788,-1.3467789888381958,-0.014577129855751991,1.9805200099945068,0.45356321334838867,-0.41350817680358887,-1.6789696216583252,1.4889618158340454,-0.6440359950065613,1.4441795349121094,1.143865942955017,-0.5664167404174805,-0.6401382684707642,1.84624445438385,-0.8104945421218872,-0.5552593469619751,-0.38996225595474243,-0.498599648475647,1.3796604871749878,0.20520804822444916,0.20672518014907837,-0.6683878302574158,-0.8797630071640015,0.46005627512931824,1.304500937461853,0.9491457939147949,0.44554799795150757,0.3497125506401062,-0.3915659785270691,0.17317301034927368,0.7027202248573303,0.6155408620834351,0.20257672667503357,-0.3131198585033417,-0.4278010427951813,-0.3253483176231384,0.9752797484397888,0.6561188101768494,-0.02195783331990242,-0.10885701328516006,-0.4520335793495178,0.6439955830574036,0.5364797711372375,1.1591757535934448,-0.6428842544555664,1.4315366744995117,-0.6952653527259827,0.6433203220367432,-0.7890114784240723,0.3438297212123871,-1.0972944498062134,-0.6586172580718994,0.9688648581504822,-0.2525182366371155,-0.6353603005409241,-0.7054935097694397,-0.04991816729307175,-0.9726324081420898,0.9545788764953613,0.008746511302888393,0.27685442566871643,0.8822855353355408,0.9640167355537415,1.2268528938293457,0.956419050693512,-1.0981792211532593,1.0288867950439453,-1.1223599910736084,0.13494884967803955,-0.6576516032218933,1.1230202913284302,-1.2763409614562988,0.11766785383224487,-0.24898168444633484,0.30180779099464417,0.7851572632789612,0.5664651393890381,-1.8296676874160767,-0.5494140982627869,-0.7196394801139832,0.48989206552505493,0.6672602295875549,-1.2191928625106812,0.1283017247915268,-1.1293729543685913,0.4829482436180115,-0.5765500664710999,0.32402539253234863,-0.5428609848022461,-0.8768240809440613,0.01147717796266079,0.9707311391830444,-0.43523865938186646,-0.4821159839630127,-0.09881686419248581,1.296163558959961,1.114886999130249,-0.3369653820991516,0.4066314995288849,-0.29780954122543335,0.0339895524084568,-0.5887980461120605,-0.41246411204338074,-0.7019432783126831,-1.172451138496399,-0.947425127029419,1.2899434566497803,-1.0295755863189697,1.3305431604385376,-1.1612502336502075,0.5622198581695557,-0.4870540499687195,0.6978039741516113,0.6116353869438171,0.2692357301712036,2.0052437782287598,-0.3087632656097412,1.1607047319412231,-0.09911371767520905,-0.9816615581512451,0.08650341629981995,0.12956608831882477,0.1599620282649994,0.11755822598934174,1.384983777999878,-2.8949332237243652,-0.7119345664978027,-1.4634751081466675,0.044869959354400635,-0.37728437781333923,0.6269418001174927,-2.3335213661193848,0.9292584657669067,1.8631576299667358,-0.03322673588991165,-0.5946695804595947,0.7533422112464905,-0.50898277759552,-0.2647632658481598,0.9060997366905212,0.6059911847114563,0.6395801305770874,-1.6347380876541138,0.6357749104499817,-0.01602822355926037,-0.4117969274520874,0.037957869470119476,0.22732409834861755,-1.8177964687347412,-0.43107208609580994,-0.2797327935695648,2.0237252712249756,-1.3426109552383423,-0.1698366105556488,-1.147212266921997]},"inputHidden":{"rows":24,"columns":24,"weights":[-0.8667078614234924,0.9141892790794373,2.7749459743499756,-0.5663644075393677,0.25220564007759094,-0.8040963411331177,-0.4434284269809723,0.5385608077049255,1.0026899576187134,3.2827816009521484,-0.49934837222099304,2.048067331314087,1.635883092880249,-2.594860792160034,1.769007682800293,1.8356215953826904,-1.2649034261703491,0.9570087194442749,1.8778096437454224,-0.7322433590888977,-1.0269362926483154,2.486072063446045,0.6982868909835815,-3.460369348526001,-2.951164960861206,1.4500712156295776,0.8131633400917053,-0.11900594830513,1.6408939361572266,0.7730743288993835,-2.608242988586426,0.47865042090415955,1.1346511840820312,1.643289566040039,-1.5407867431640625,1.3869125843048096,1.4102891683578491,-0.9607760906219482,1.2261853218078613,0.7341467142105103,0.9081880450248718,-0.8759893774986267,3.00986647605896,-0.3510567545890808,-1.0447282791137695,1.8460750579833984,1.642236590385437,-2.0362112522125244,0.23385141789913177,0.3742974102497101,0.5179221630096436,-0.20360954105854034,-0.3459509611129761,0.29091936349868774,-0.5651373267173767,1.0694941282272339,1.4018112421035767,1.7992103099822998,-0.48254138231277466,0.6259073615074158,0.40847545862197876,-1.0118904113769531,0.8409526348114014,0.8039383888244629,-0.445777952671051,0.7958254218101501,1.5563353300094604,-0.5012382864952087,-0.5143433213233948,1.1401580572128296,0.8462639451026917,-0.9816151857376099,-1.5558217763900757,0.6401407122612,1.6788337230682373,0.03779999166727066,-0.38354331254959106,1.4559056758880615,0.6790837645530701,-0.8725627660751343,0.22969307005405426,0.9536796808242798,0.8750831484794617,-0.15165185928344727,-0.5001586079597473,-1.430292010307312,0.5458196997642517,-0.32918184995651245,-0.024336272850632668,-0.4320625960826874,-0.4472128748893738,-1.9081029891967773,-0.8573732972145081,0.3990943133831024,1.2718758583068848,-1.340087890625,1.1387351751327515,1.3101142644882202,-0.028652146458625793,0.058166854083538055,3.805140733718872,-1.2359236478805542,1.0234071016311646,0.841408908367157,2.079577922821045,-0.32911673188209534,-1.6839585304260254,-0.16798850893974304,-0.46156203746795654,0.7302553057670593,-1.2866863012313843,-2.180419683456421,0.09051898121833801,-0.029475297778844833,-0.3775326907634735,-1.1675363779067993,0.4198366403579712,1.2620919942855835,0.31235992908477783,-0.9929178953170776,0.6465685963630676,0.9493886828422546,2.415292263031006,0.8350381851196289,1.6008967161178589,0.03235219791531563,0.5611920952796936,2.297245502471924,2.7865638732910156,1.6804122924804688,4.223824501037598,-2.6580731868743896,-2.0176594257354736,-2.7082736492156982,-2.068232536315918,-1.1310863494873047,-0.9437927603721619,-0.3412974178791046,-0.7213830947875977,-0.889067530632019,-0.4954760670661926,0.13708333671092987,0.8658937215805054,-2.4775896072387695,-2.3301217555999756,0.45976969599723816,3.2067058086395264,-1.6097831726074219,-2.2012252807617188,1.6795148849487305,2.7863516807556152,-0.03220784664154053,0.9172921776771545,2.597780704498291,0.5556625723838806,0.6644662618637085,-1.5711536407470703,-1.3397659063339233,0.5599640011787415,3.1984448432922363,0.8082834482192993,1.0528100728988647,1.2877110242843628,0.7447076439857483,-1.6100391149520874,1.6986082792282104,0.9850125312805176,-2.367677688598633,-1.428297996520996,2.3871047496795654,0.35184207558631897,-2.4342854022979736,-0.08819177746772766,-0.628197193145752,0.20032192766666412,-1.0572201013565063,-1.9060847759246826,0.5437480211257935,-0.2554934322834015,-0.11981230229139328,2.605926990509033,-2.072885036468506,1.5824402570724487,0.3163895308971405,1.557579517364502,-1.8325425386428833,0.11311656981706619,-1.3398603200912476,0.767096221446991,2.1499669551849365,-0.9607430696487427,-2.646430015563965,0.6727109551429749,0.25503745675086975,0.5593234896659851,0.6507811546325684,-0.08821048587560654,-0.2875434160232544,-0.8912561535835266,0.2606644928455353,0.5071073174476624,-0.3470652997493744,-0.5449115633964539,-1.1050721406936646,0.453501433134079,0.46368682384490967,-0.5372409820556641,-1.0940706729888916,-1.0502415895462036,-0.7255330681800842,0.767379641532898,-0.9596945643424988,-0.03022761456668377,-0.12112424522638321,0.3313518762588501,-0.6745850443840027,-2.628321647644043,1.8116871118545532,2.6616058349609375,0.22113166749477386,-0.5154885053634644,0.2932373583316803,0.1932297646999359,-2.157896041870117,-1.3970308303833008,0.1611238718032837,0.39358624815940857,-1.2935233116149902,0.41782987117767334,-2.3167665004730225,-1.055638313293457,-0.8378984332084656,1.0720634460449219,-1.7699031829833984,-2.4655251502990723,-2.0050313472747803,-0.31549200415611267,-1.7141194343566895,1.7011677026748657,-0.854333758354187,1.5132925510406494,-0.3462013602256775,-0.1409950852394104,0.6540042161941528,-0.9315472841262817,-1.732332468032837,-1.4560935497283936,-1.1049624681472778,-1.127984642982483,-0.5717781782150269,-0.1507980078458786,-0.48329249024391174,-0.44576695561408997,2.626075267791748,0.698964536190033,0.09973550587892532,-0.02379409410059452,5.7029218673706055,-1.8783408403396606,1.1940879821777344,-0.04576396569609642,-1.8278110027313232,-2.8474340438842773,0.9962034225463867,-1.1095675230026245,-0.45395955443382263,-0.5242231488227844,-0.24833239614963531,0.6003842353820801,-3.085031509399414,0.6028451919555664,-0.8026542663574219,-1.7486017942428589,-2.3047637939453125,1.080314040184021,-1.7775882482528687,-2.139925956726074,1.3756121397018433,-0.44585564732551575,-1.0762094259262085,0.6285477876663208,0.06711801886558533,-2.0311496257781982,-0.21904538571834564,-0.08106879144906998,-3.4227864742279053,-0.24285593628883362,0.7696987390518188,-1.945495843887329,-0.25818750262260437,1.3439019918441772,-1.523569941520691,4.098570346832275,2.8224399089813232,0.22395804524421692,1.1375104188919067,1.3639384508132935,1.370127558708191,-1.64232337474823,2.3851397037506104,-5.145100116729736,-0.14298087358474731,3.094376802444458,2.9680190086364746,-0.37977537512779236,-0.09079298377037048,2.315744400024414,0.49070751667022705,-1.3926267623901367,2.744856595993042,-0.13871458172798157,-1.426946759223938,-0.8068609833717346,1.0783230066299438,-0.020670820027589798,-1.7559021711349487,3.0381295680999756,1.0158826112747192,-5.690598011016846,-0.05606120452284813,-0.4860731363296509,2.062880277633667,-0.5314553380012512,0.35928481817245483,-1.3705512285232544,-0.9070157408714294,2.147677183151245,0.5732678771018982,0.8981686234474182,-1.7598047256469727,0.7097966074943542,-0.1831357181072235,-0.545790433883667,0.1365160346031189,-0.10728800296783447,0.6240474581718445,0.7189310193061829,0.008151404559612274,0.7509937286376953,0.074781134724617,-1.664985179901123,-0.2273201048374176,-0.7658354640007019,-0.07126496732234955,0.17175531387329102,-1.7818769216537476,-0.23152820765972137,-0.6489525437355042,0.7240318059921265,-0.5237409472465515,-3.016380548477173,-0.7518557906150818,-0.6524920463562012,0.43690070509910583,-0.04444153606891632,0.09516311436891556,1.3582412004470825,-0.44113385677337646,0.4986450970172882,-0.8161813020706177,0.5833082795143127,0.15367992222309113,0.025416560471057892,1.5809670686721802,1.5893701314926147,0.2467755824327469,0.61415696144104,0.3343661427497864,0.3519524037837982,-0.07168004661798477,0.6311482787132263,-1.9615461826324463,-0.7068370580673218,-1.1787413358688354,0.13449828326702118,-0.8810986280441284,-0.18985514342784882,-0.07960029691457748,-1.2448463439941406,-0.7390102744102478,0.4360053241252899,-0.6173713803291321,0.8757164478302002,1.7479560375213623,-0.885113537311554,0.710368812084198,0.14830414950847626,-2.42022442817688,2.118171215057373,2.598872423171997,-2.389103412628174,-2.5859880447387695,-3.410196304321289,0.34995368123054504,-0.9722120761871338,-0.9990966320037842,-2.755593776702881,0.745265781879425,0.5225167274475098,1.6155732870101929,2.8963751792907715,-0.836664617061615,-1.356365442276001,-3.059690237045288,-0.6020005345344543,-2.136702537536621,0.19963932037353516,0.14930877089500427,1.742396354675293,0.800242006778717,0.319894939661026,-0.7742093205451965,-0.8193619251251221,1.5677119493484497,0.014950581826269627,-0.5995780229568481,-0.4337145984172821,2.1657841205596924,-1.2761421203613281,1.847102165222168,1.1222255229949951,0.3125661611557007,2.586501359939575,1.9898178577423096,0.3238782286643982,-3.6129770278930664,1.2053285837173462,-0.3426439166069031,-0.9202748537063599,1.6947628259658813,-0.697767436504364,-0.4475715160369873,-0.9385916590690613,-1.5268757343292236,-0.8164451122283936,-0.32158392667770386,-0.5305665731430054,-0.4026675522327423,-0.6468793749809265,-1.1800415515899658,-1.8327316045761108,0.8457207679748535,-0.6394599080085754,0.6818231344223022,1.0098116397857666,1.698143482208252,1.6314655542373657,1.3797050714492798,1.8718923330307007,-1.3210558891296387,-1.595046043395996,1.9957358837127686,-0.05746820569038391,-1.6007914543151855,-1.0553423166275024,0.9952496290206909,0.28034844994544983,1.3322690725326538,0.756874680519104,-2.560631513595581,0.15908922255039215,0.6369309425354004,0.061556439846754074,-0.022931454703211784,-0.3130517899990082,1.4737389087677002,-0.33667558431625366,0.9543390870094299,-0.16079655289649963,-0.5091323852539062,0.7515149712562561,1.105329990386963,0.20953479409217834,-0.6788606643676758,0.7965861558914185,1.0278671979904175,-0.7681869864463806,1.8218977451324463,0.08241523802280426,-0.6148099899291992,0.4950672388076782,0.11802566051483154,1.0439263582229614,2.0371077060699463,-0.46310317516326904,0.17011669278144836,0.09279072284698486,0.37075546383857727,0.11638540029525757,0.7854917645454407,1.3869705200195312,-0.6999332904815674,-1.348488450050354,-0.7243151068687439,0.273037850856781,-0.2972812354564667,-0.6338939666748047,0.4136076867580414,-0.4157932698726654,-1.1926285028457642,-0.056655194610357285,-1.3518455028533936,2.433159828186035,0.14038710296154022,0.844255268573761,0.06423511356115341,0.3186318576335907,-0.33043330907821655,0.4234524369239807,-0.26147353649139404,0.8412049412727356,-0.319033145904541,-0.9230378866195679,0.6728125214576721,-0.10450010001659393,-1.3219099044799805,-0.783991813659668,0.23003721237182617,0.47982892394065857,-1.2960909605026245,-0.023610126227140427,-0.45276743173599243,-1.164783000946045,-0.3390488028526306,0.11349600553512573,-0.7788835167884827,-0.9093539118766785,0.40484488010406494,0.5050854682922363,-0.007536794058978558,0.6564912796020508,1.3141411542892456,-0.6455392241477966,-3.6601524353027344,0.8439371585845947,1.2909947633743286,0.8879569172859192,0.7387771010398865,1.0039231777191162,0.048221178352832794,1.2043824195861816,-1.7389883995056152,-0.6304166316986084,0.15908081829547882,-1.1513586044311523,2.228222608566284,-2.419009208679199,1.5854288339614868,1.6242433786392212,0.03415822237730026,-0.7006730437278748,-0.8175889849662781,-0.15602688491344452,0.23660479485988617,-0.4363478720188141,-0.5769355297088623,0.0322067067027092,0.08008363097906113,-0.5226065516471863,-0.09583967179059982,-0.2941250801086426,2.14140248298645,-0.9742462635040283,0.7096169590950012,-0.4849861264228821,-0.2029186189174652,1.4295166730880737,0.997799277305603,-0.5455192923545837,1.2520806789398193,-0.008320050314068794,-0.2073291838169098,-0.7552132606506348,-0.00594162754714489,0.009168192744255066,0.030406637117266655]},"inputBias":{"rows":24,"columns":1,"weights":[-1.07289457321167,-1.0246260166168213,-0.3923809826374054,-0.3180076777935028,0.41169464588165283,-1.2972466945648193,1.115788221359253,-0.8879631757736206,-0.3306874632835388,-0.05618293955922127,-2.7075023651123047,-0.3321200907230377,3.549499273300171,-0.6511054635047913,0.8566110730171204,1.1789257526397705,-0.9539335370063782,-1.7565165758132935,-0.5006839036941528,-0.2606397569179535,-1.4919652938842773,-1.1564202308654785,0.06272637099027634,0.607090950012207]},"forgetMatrix":{"rows":24,"columns":41,"weights":[-0.2362273782491684,-0.014916691929101944,-0.12293738126754761,0.04955246299505234,0.3851664960384369,0.2777702808380127,-0.6999967694282532,0.877962589263916,1.790170669555664,0.9238056540489197,-1.412574052810669,0.1670318841934204,1.57545804977417,-0.6323103308677673,0.9866552352905273,-1.7483911514282227,0.7084752321243286,-0.9573363661766052,-0.08152112364768982,0.8700680732727051,-0.1492188274860382,-0.03675243258476257,-0.40082037448883057,-0.8818371891975403,-1.9675629138946533,0.5140486359596252,-0.23478256165981293,0.4193788170814514,0.37987715005874634,-0.3915242850780487,-0.02010863646864891,-0.24706962704658508,0.4919458329677582,0.06299560517072678,0.07546573132276535,0.054089903831481934,0.17783823609352112,0.1739741712808609,-0.4230024814605713,0.3929542005062103,0.49686580896377563,-0.3541862368583679,0.7810336947441101,-0.24131233990192413,0.8316860198974609,-0.21085409820079803,-1.8053040504455566,0.1050059124827385,-0.010255176573991776,0.3521355986595154,-1.604922890663147,0.7107867002487183,-1.5194166898727417,0.2898732125759125,-1.3923115730285645,0.7653343081474304,-0.18869109451770782,-0.819842517375946,-0.8441459536552429,0.5024262070655823,1.2288933992385864,-0.02829178050160408,-0.001905681099742651,-0.02696242555975914,0.7198224067687988,0.13937748968601227,1.1452034711837769,-0.025640971958637238,0.4117810130119324,-1.0844820737838745,0.2602458596229553,-0.6285591125488281,-0.8640931248664856,-1.0821478366851807,0.11890751123428345,-1.449004054069519,0.016099395230412483,-0.5327432751655579,1.1381607055664062,-0.8894606232643127,0.6824370622634888,-0.1562577337026596,0.6714460849761963,-1.4622665643692017,1.3225445747375488,-0.910754382610321,-0.20412126183509827,1.5996637344360352,0.08484615385532379,0.5509281754493713,0.14956164360046387,2.7725727558135986,-2.668041944503784,1.271863579750061,0.5672846436500549,1.0713655948638916,0.1393267959356308,-0.4008319675922394,1.4668768644332886,-0.16830074787139893,0.05896133929491043,0.9068007469177246,0.2784048318862915,-0.7639919519424438,0.5317222476005554,-0.19084875285625458,-0.2695884704589844,-0.2716977894306183,-0.004467437509447336,-0.3120417892932892,1.0603982210159302,-0.29432615637779236,0.2112894058227539,-0.3556331992149353,1.0829945802688599,0.04031560197472572,0.8302910923957825,0.5018396973609924,1.3638668060302734,-1.5632846355438232,0.017206313088536263,-0.14066289365291595,-0.9615407586097717,0.04522261768579483,-0.7448328137397766,1.6256487369537354,-0.10973572731018066,-0.5037915706634521,0.34668979048728943,-0.9387763142585754,-1.084207534790039,1.0987666845321655,0.49522727727890015,-1.7341439723968506,0.8819406032562256,0.7947872877120972,-0.3110705018043518,0.11318112909793854,-1.3520655632019043,1.1948552131652832,-0.5251191854476929,-0.0031558184418827295,1.0020673274993896,-0.8168564438819885,0.33288440108299255,-0.41012948751449585,0.02581837773323059,-1.540579915046692,0.9140282273292542,-0.6791264414787292,1.1627403497695923,-0.3993355631828308,-1.3704206943511963,0.0553327351808548,-0.38776522874832153,0.3990132212638855,0.599079966545105,0.5263334512710571,0.1025770828127861,0.2860523760318756,-0.5891270637512207,-0.7735722661018372,1.04729163646698,1.2768440246582031,0.5505034923553467,0.5527881979942322,-1.5871717929840088,-0.8622409105300903,0.7250382304191589,-0.8980293869972229,-0.7768544554710388,-2.084522008895874,0.19212134182453156,-1.6642117500305176,1.336405634880066,-0.2847876250743866,-0.9247062802314758,-1.7725430727005005,-0.035765886306762695,0.275433748960495,-1.227719783782959,-0.32040226459503174,-0.016269108280539513,0.3266928195953369,-0.08685796707868576,2.369508743286133,-0.6931288838386536,-0.7870568037033081,-0.008793214336037636,0.6855995059013367,0.3277553617954254,-0.8862688541412354,-0.31595945358276367,1.0368973016738892,-0.7235167026519775,-0.3951796591281891,-1.6741117238998413,-0.7815375924110413,-1.0189520120620728,0.017195267602801323,-0.9697607755661011,0.6511031985282898,-0.7205933928489685,-0.5585148930549622,-0.24951879680156708,1.0790337324142456,-1.0836037397384644,-1.1328872442245483,-0.9025634527206421,0.5939767360687256,0.5637824535369873,1.0863674879074097,-1.4863533973693848,-0.23234498500823975,0.34337669610977173,-0.593597412109375,-0.7305606007575989,-0.7223153710365295,0.7177762389183044,-0.6894158720970154,0.8509359955787659,-0.23492175340652466,0.37584733963012695,-0.04681709408760071,-0.426955908536911,1.0323385000228882,0.2309817224740982,1.3600877523422241,0.1114683523774147,0.527632474899292,-1.5885508060455322,0.7939066290855408,-0.19859512150287628,-1.1201512813568115,1.1912082433700562,0.272198349237442,0.09290120005607605,-0.11602675169706345,-0.0662422627210617,-0.5562450885772705,1.5036535263061523,-0.3018431067466736,-0.5547856688499451,2.022185802459717,-1.2780731916427612,-0.9074735641479492,0.40158089995384216,-2.0451157093048096,0.6106188893318176,0.6240238547325134,-0.7114512324333191,1.0418438911437988,0.9504547119140625,-0.3045242130756378,-0.3367326259613037,1.4023699760437012,-1.187949776649475,0.9403203129768372,0.18389147520065308,0.8869436383247375,1.0319554805755615,0.6901488304138184,1.1351841688156128,0.6505872011184692,0.3949697017669678,0.7165921926498413,0.5321744680404663,-1.3063971996307373,0.3521488308906555,0.0628136396408081,0.6259111762046814,-0.2210373878479004,0.11967697739601135,-0.954638659954071,1.070604681968689,0.29791879653930664,0.13788926601409912,-0.23274993896484375,0.1596829742193222,0.5514727830886841,0.7200990319252014,0.4964553713798523,1.0418176651000977,-1.5021864175796509,0.18245945870876312,0.4749351739883423,-0.44125714898109436,1.0098310708999634,1.104191780090332,-1.2281947135925293,-0.7597788572311401,0.003967555705457926,-0.9250894784927368,-1.4201624393463135,-0.0019629644230008125,0.8926770687103271,-0.6080243587493896,0.8556347489356995,-0.08000174164772034,-1.5610378980636597,-0.18986237049102783,-0.8220181465148926,-0.9208576679229736,-0.8199180960655212,-0.18696807324886322,-0.0648760199546814,-0.1512288600206375,1.0455583333969116,1.154005527496338,-0.2721898555755615,-1.257236361503601,-0.8258131146430969,0.13578955829143524,0.987021803855896,0.24421648681163788,0.00094414665363729,1.0283393859863281,0.9708905816078186,0.06533662229776382,-1.1295912265777588,-0.13122837245464325,-0.6638169884681702,-0.23008327186107635,-0.36417755484580994,0.26157015562057495,-0.8767035603523254,-1.1024017333984375,-0.32338249683380127,0.04510868713259697,0.23850096762180328,0.5864876508712769,-0.3642333149909973,-0.22043107450008392,-0.476957768201828,-0.4705915153026581,0.6064702272415161,0.42442840337753296,-0.34615594148635864,0.24698366224765778,-0.15128657221794128,0.6591576337814331,-1.0044832229614258,-0.36517173051834106,-0.7231196761131287,-0.3132553994655609,-0.8301624059677124,-0.10627029836177826,0.483988493680954,-0.6278630495071411,0.48735201358795166,0.23057298362255096,0.44579872488975525,-0.7295480966567993,0.3815461993217468,-0.6723958849906921,1.470254898071289,-0.6200933456420898,-0.6494885087013245,-0.7996174693107605,-0.18261726200580597,-0.08316842466592789,0.47329211235046387,-0.477629691362381,0.19360966980457306,-0.5445785522460938,0.4589138627052307,-0.7688105702400208,0.5888716578483582,0.26153138279914856,1.1991455554962158,-1.0020167827606201,-0.7003510594367981,0.6102665066719055,0.5570300817489624,0.2804201543331146,1.4742997884750366,-2.331850290298462,-0.6154312491416931,0.2869848608970642,0.24322231113910675,-0.6284682750701904,-1.1566033363342285,0.30779293179512024,-0.7107252478599548,0.9769951701164246,-0.5173752307891846,0.6172187328338623,-0.06573813408613205,-0.682701826095581,0.9996291995048523,-0.23006385564804077,-0.07538125663995743,0.5113102197647095,1.1024643182754517,-1.0845003128051758,1.2395426034927368,-0.4792390763759613,-0.40320685505867004,1.4403587579727173,0.7447484731674194,0.30741754174232483,-0.22489707171916962,-0.00046347532770596445,-0.29158371686935425,0.6633685231208801,0.2486238032579422,-0.5965307354927063,1.4236054420471191,-0.696464478969574,-0.8076041340827942,0.8751823902130127,0.6481255292892456,-1.187589406967163,0.7702723741531372,0.2050384134054184,-0.8438670635223389,-0.18875600397586823,-0.3094490170478821,0.06876013427972794,-0.852139413356781,2.003704786300659,-0.8485944867134094,-2.37843656539917,0.185481995344162,0.3985375761985779,0.12952549755573273,-0.9399100542068481,-0.2905677556991577,-0.39172646403312683,-0.5688610076904297,1.7046983242034912,0.30302661657333374,-0.7332194447517395,-0.46614617109298706,0.15126517415046692,-0.1822538673877716,2.202068328857422,-0.2502205967903137,-0.14280183613300323,1.730289101600647,1.1471381187438965,-0.10257858037948608,-0.5055582523345947,-0.8135313391685486,-0.8298760056495667,-0.19402359426021576,0.8386499881744385,0.34634828567504883,0.06299163401126862,-1.3196399211883545,-0.19062340259552002,0.6702128648757935,-0.3804239332675934,0.10000314563512802,1.4526435136795044,-0.19139207899570465,0.7412950396537781,1.8186622858047485,-0.5768746137619019,-1.784298062324524,1.742077350616455,-0.13035890460014343,0.31296801567077637,-0.08719198405742645,-0.504473090171814,0.023026317358016968,1.0189317464828491,0.6145535707473755,0.3330167233943939,0.8369359970092773,-0.10827978700399399,-0.14195382595062256,-1.786724328994751,0.633051872253418,-0.07049001753330231,2.008411407470703,-0.8140038251876831,-0.34896793961524963,-0.7865462899208069,-0.479595422744751,-0.19376520812511444,-0.03299948573112488,-0.28017812967300415,-0.2450261414051056,0.5369620323181152,0.9379716515541077,0.675948441028595,-0.36276140809059143,0.3712843358516693,0.5436166524887085,0.5614806413650513,-1.1358939409255981,-0.33921927213668823,1.113736867904663,-0.9669997692108154,0.17476320266723633,0.23695184290409088,-2.825082302093506,-1.3935511112213135,0.7309475541114807,0.9017581343650818,-1.728174090385437,2.251699447631836,-0.931778609752655,0.5386045575141907,-0.31639769673347473,-1.5992541313171387,-1.1474865674972534,-0.6496898531913757,-2.9143056869506836,0.16326157748699188,-1.632175326347351,0.6267899870872498,0.3847599923610687,0.04926544055342674,-0.25424742698669434,-0.9255026578903198,0.25729361176490784,0.5499424934387207,1.077083945274353,-2.3325324058532715,1.0927118062973022,-0.8784381747245789,-0.08231251686811447,-1.5015122890472412,-0.0532994419336319,-1.4715863466262817,-0.7250058650970459,-0.387673020362854,1.7792376279830933,-0.4394781291484833,-1.767240285873413,0.887616753578186,-0.2642735540866852,0.8177111744880676,0.7186588048934937,0.5500670075416565,-0.12475516647100449,-0.24681736528873444,0.24211914837360382,-0.22222645580768585,0.18323056399822235,-0.16497068107128143,-0.29128748178482056,0.17427217960357666,0.9398099184036255,-0.7167796492576599,1.9350969791412354,0.4385775327682495,1.0983189344406128,-1.0764347314834595,-0.08527850359678268,2.2287988662719727,-1.0315691232681274,-1.4861217737197876,-0.09331977367401123,1.2471959590911865,-0.14902783930301666,1.1918209791183472,-1.5775209665298462,-0.0782029926776886,0.03579280525445938,-1.88254976272583,-0.9161590337753296,-0.27925002574920654,0.22104959189891815,-0.06924662739038467,0.11784427613019943,-0.465447336435318,0.737187922000885,0.6900854706764221,-1.637999415397644,2.1552767753601074,0.36987072229385376,0.9446457028388977,-1.7028809785842896,0.1773681342601776,1.1332415342330933,-0.2959309220314026,0.8021203279495239,0.6818596720695496,-0.36876019835472107,-0.6348609924316406,1.4172219038009644,-0.6943582892417908,0.5466251373291016,0.4789888858795166,0.8014801144599915,0.5165469646453857,0.4313797950744629,1.6261965036392212,0.6271287798881531,0.17220671474933624,0.15012262761592865,-0.6116578578948975,-0.08327154815196991,0.24856463074684143,-0.368882417678833,0.4219638407230377,-0.38252514600753784,-0.39719927310943604,-1.1783545017242432,2.039127826690674,-0.09950847923755646,-0.7027080059051514,-0.0032656907569617033,0.3146933615207672,-0.23708732426166534,1.3398711681365967,-0.3206319212913513,1.1231921911239624,-1.7206575870513916,0.6808555126190186,0.8266915082931519,-0.4259239435195923,-1.3430986404418945,-1.1036968231201172,0.4618900716304779,-1.9839032888412476,0.6715458035469055,0.8410369157791138,-0.9417397975921631,0.7996500134468079,0.1837163120508194,-0.3880148231983185,-0.5191970467567444,0.5085421204566956,-0.7887212038040161,0.7525010108947754,-1.6164612770080566,-1.275325894355774,-1.9796675443649292,0.10174162685871124,0.071205273270607,0.7435858845710754,-0.8931352496147156,0.8893714547157288,-0.2626432776451111,0.08494408428668976,-0.6482144594192505,-0.34365710616111755,-0.4423634707927704,1.5108579397201538,-1.1232774257659912,0.10938236117362976,-1.3489537239074707,-0.13357661664485931,-1.4600751399993896,0.5047030448913574,-0.45944276452064514,0.17865879833698273,-2.1458029747009277,-0.8255413174629211,0.3778277337551117,-0.05586656555533409,1.012472152709961,-0.6412073969841003,0.026126248762011528,0.261947900056839,-0.5600486993789673,-0.22989153861999512,0.844613254070282,-0.9670646786689758,0.4530662000179291,1.4579659700393677,0.44989627599716187,0.227785125374794,-0.3409512937068939,0.26965996623039246,0.10556468367576599,-0.8830848336219788,-2.5984692573547363,0.3569300174713135,-2.384810209274292,0.12170939892530441,1.2213380336761475,0.06551263481378555,-0.3033057749271393,0.035745661705732346,-0.26103028655052185,-1.6167868375778198,0.29826095700263977,-0.10267961025238037,2.3105297088623047,-1.1673552989959717,0.5113316774368286,-0.1069476380944252,-0.17454089224338531,-0.6476768255233765,0.349741131067276,-0.45281437039375305,-0.2046060711145401,-1.1560460329055786,-0.07934311032295227,-0.26416170597076416,-0.5378955602645874,1.7025585174560547,1.1267280578613281,0.05687570571899414,0.6243789196014404,1.0783601999282837,-1.0237979888916016,-0.40607279539108276,0.8151200413703918,-0.20320497453212738,-0.40927842259407043,-0.31624332070350647,0.062362417578697205,-0.9059237837791443,-0.2818257510662079,1.0814412832260132,0.41550320386886597,0.6741092801094055,-0.6929582953453064,0.6276654601097107,1.1930553913116455,-0.12963461875915527,0.13575078547000885,-0.554831862449646,1.2978570461273193,1.0055338144302368,1.9361212253570557,-0.9667412638664246,-0.2502574026584625,-1.0704632997512817,1.2745434045791626,0.27360033988952637,-0.6238645315170288,-0.6630324125289917,-0.1591845452785492,1.1396667957305908,-0.5650728344917297,1.310194969177246,-0.08699585497379303,-0.9456237554550171,0.8331906795501709,-0.4054298996925354,-1.129921555519104,-0.016635293141007423,0.06503582000732422,-0.42508217692375183,-0.1388390064239502,-0.027053402736783028,-0.7325785160064697,-0.5476617217063904,-0.6983455419540405,0.3612482249736786,-0.5642647743225098,1.6808357238769531,-0.9998575448989868,-0.07224740833044052,-1.3768078088760376,-1.996748685836792,-0.8825879096984863,-1.6569163799285889,-1.6495893001556396,-0.21012140810489655,0.5229173898696899,0.04000495374202728,0.3192806541919708,-0.4765041172504425,-0.6271618008613586,-0.385537713766098,-0.012534530833363533,-0.05142323300242424,1.524467945098877,-2.746744394302368,0.6814872622489929,-0.5155508518218994,0.43939724564552307,-1.6215746402740479,-0.06966063380241394,-0.9070627689361572,-0.7209014296531677,-1.1655199527740479,0.5149803757667542,-0.2742250859737396,-1.2289382219314575,1.5605806112289429,0.5012164115905762,0.07784034311771393,0.02041523903608322,-0.8374353647232056,0.7696778774261475,0.10518864542245865,-0.0007960975053720176,-0.5520003437995911,0.22346220910549164,0.16390134394168854,-0.08405769616365433,-0.9397108554840088,-0.8681866526603699,-0.22847451269626617,-1.2210559844970703,-0.5864526629447937,-0.8577077984809875,-0.0025020381435751915,-0.49743837118148804,0.2626275420188904,-0.13340847194194794,-0.26251083612442017,-0.45198696851730347,0.4151661694049835,0.18859981000423431,0.13180162012577057,-0.019645152613520622,0.6980355978012085,-1.110519289970398,-0.005965854972600937,0.43374571204185486,0.4813326299190521,-0.5239501595497131,-0.25494876503944397,-0.9409083127975464,-0.4506934583187103,-1.0213247537612915,0.04351803660392761,0.035996921360492706,-0.43437209725379944,0.755267858505249,0.9204216599464417,0.8168947100639343,0.03907645121216774,-0.010559488087892532,-0.13372230529785156,-1.4963778257369995,-0.23639988899230957,-0.8558279275894165,-0.2619057297706604,-1.533155918121338,1.3982572555541992,-0.1560746729373932,-0.7439714074134827,-1.0012165307998657,-0.7924525737762451,0.10704012960195541,-1.2474349737167358,-0.43978413939476013,-0.025199193507432938,0.13296779990196228,0.1531616896390915,0.3579760789871216,-0.39996910095214844,-0.22416600584983826,0.3103548288345337,0.28089597821235657,0.6823430061340332,-0.3853335678577423,-0.3655726909637451,0.9476336240768433,-0.12282717972993851,0.7747169733047485,-0.061221081763505936,0.5726438164710999,-0.03118646889925003,0.03247092291712761,-0.4019986093044281,0.8497734665870667,-0.6654975414276123,-1.2948505878448486,0.34108272194862366,0.7297852635383606,0.14941823482513428,-0.8332741260528564,-0.16222326457500458,0.1027684137225151,-0.4739730656147003,0.12909339368343353,-1.5768674612045288,-0.18936386704444885,-0.35342875123023987,2.0750088691711426,0.023308701813220978,-1.506023645401001,-0.3087696433067322,-1.1007678508758545,0.6078211069107056,-2.446972608566284,0.283109188079834,-0.9814125895500183,-0.6965002417564392,0.5762302875518799,0.8500618934631348,-2.1616687774658203,-0.03370886668562889,0.45903199911117554,-0.12278757989406586,1.2668215036392212,-0.2899094521999359,-0.14515092968940735,0.9790172576904297,0.48293426632881165,0.16647419333457947,-0.370234876871109,-0.847743809223175,-0.18582649528980255,-1.5639140605926514,-0.5832239985466003,0.38005349040031433,0.06773782521486282,-1.1131340265274048,0.5166513919830322,-0.7082647085189819,-1.0447689294815063,0.3567821979522705,-1.5202443599700928,0.11965309083461761,0.5381830930709839,0.07115232199430466,0.3311329483985901,-0.14625096321105957,0.3480861783027649,-0.99222332239151,1.4630762338638306,0.18360662460327148,1.35979425907135,0.5912126898765564,1.2761958837509155,-1.5778815746307373,0.6711408495903015,-0.15005651116371155,-0.7248976230621338,-0.10436883568763733,-1.041688084602356,0.2722216248512268,0.5700716972351074,0.8253197073936462,-0.5031813383102417,-0.3582333028316498,-0.3003065884113312,1.451507806777954,-0.25880059599876404,0.03195738419890404,0.8069674968719482,1.2314542531967163,-0.19459505379199982,0.6925981044769287,0.35068240761756897,-0.2451843023300171,-0.9453373551368713,1.1219055652618408,-0.03738497197628021,-0.3753848075866699,-0.8800615072250366,0.6578038334846497,0.1251295804977417,-1.4050341844558716,0.3716544806957245,-0.41769492626190186,-0.9303746819496155,1.1047728061676025,1.7735482454299927,-1.3301966190338135,0.04963761195540428,-0.6586663722991943,-0.7507830262184143,0.7031068205833435,-0.24497844278812408,-2.3743200302124023,-0.4676186144351959,-0.4105839431285858,-0.6346198916435242,0.20110628008842468,0.7150790095329285,-0.0065903267823159695,-1.369678020477295,0.29412251710891724,-0.3344211280345917,1.8330086469650269,0.4754583537578583,0.8898428082466125,-0.5438575148582458,0.07186730206012726,-0.07417266815900803,0.39176663756370544,0.9609701633453369,-0.2685632109642029,-1.229857325553894,-1.226434350013733,-0.00643170066177845,0.4642036259174347,-1.4726170301437378,0.10514893382787704,0.23015357553958893]},"forgetHidden":{"rows":24,"columns":24,"weights":[-1.1516642570495605,0.01182680856436491,-0.6110564470291138,-0.2625393569469452,1.4453668594360352,-1.0417824983596802,-1.2263710498809814,-1.1678053140640259,-0.5092632174491882,-2.5425848960876465,1.0554250478744507,-1.0627989768981934,-1.9718297719955444,0.45561766624450684,-2.232600450515747,0.22786831855773926,0.5111679434776306,-0.030377328395843506,0.22957929968833923,-0.28911179304122925,0.8159116506576538,-0.28668203949928284,-0.23531527817249298,-0.8974974751472473,0.2902084290981293,1.2613887786865234,0.7266134023666382,-0.6220202445983887,-1.9071097373962402,0.24471697211265564,-0.06211305037140846,-0.1913093477487564,0.14074476063251495,0.864061713218689,-0.0611628033220768,0.8306162357330322,1.1177912950515747,-1.090919017791748,0.7843862175941467,0.4380550980567932,-0.3321586847305298,-0.40564438700675964,0.20921193063259125,0.11738321930170059,-0.772625744342804,0.5750438570976257,1.943039894104004,-0.7834962010383606,0.6919667720794678,-0.5642732977867126,0.6214311122894287,0.3099616765975952,1.1596179008483887,-1.0801039934158325,-1.0300548076629639,-0.37032291293144226,0.5339018702507019,-0.37503287196159363,2.7034173011779785,-0.821590006351471,-1.1664230823516846,-0.10195621848106384,-1.2410882711410522,-0.05785994604229927,0.16711141169071198,-0.18222187459468842,-0.30436429381370544,0.2668958902359009,-0.21745124459266663,-0.208051860332489,0.9093650579452515,-0.5841302275657654,0.0796305313706398,0.25111520290374756,0.06337864696979523,-1.2809697389602661,1.5344444513320923,0.5298281908035278,-0.10843570530414581,-1.6082804203033447,-2.0936458110809326,-1.4441800117492676,-0.4270521402359009,-0.07993936538696289,0.8568898439407349,0.7210537791252136,-1.523239016532898,-1.782798409461975,1.0422708988189697,-0.4553186595439911,0.4013793468475342,-0.9792056679725647,0.6109617948532104,-0.4050891697406769,0.8372471928596497,0.3898356556892395,0.056216802448034286,0.1924295872449875,0.9199143052101135,0.9131325483322144,-0.10983527451753616,0.46324098110198975,-1.152031660079956,1.4453274011611938,1.203941822052002,-0.49355989694595337,1.2061898708343506,-0.5575873255729675,-1.0690569877624512,-1.116808295249939,-0.12671606242656708,0.7144795656204224,0.6677157282829285,1.4856241941452026,0.16052743792533875,0.5582631826400757,0.7525172233581543,0.40074777603149414,0.426522433757782,-1.3184077739715576,-2.784993886947632,-1.1264592409133911,2.27555513381958,0.29203251004219055,-0.12439043819904327,1.0096917152404785,0.4852084815502167,-1.8143482208251953,-2.387941360473633,0.1221834272146225,-0.40940070152282715,0.6928786039352417,1.1150346994400024,0.2793986201286316,0.47926875948905945,-0.03805644437670708,0.5362991690635681,-2.779142141342163,1.4088692665100098,-0.7614831924438477,-0.21828457713127136,0.8435611128807068,0.9031830430030823,0.2659514844417572,1.5403152704238892,-0.3632447421550751,-1.244286298751831,0.37871024012565613,1.965726375579834,-0.4060348570346832,-0.35456612706184387,0.6869503259658813,-0.29169514775276184,-1.3080412149429321,0.8031743764877319,0.6451197862625122,-4.6446757316589355,-0.35410672426223755,-0.4211413264274597,-0.3395165503025055,-0.5063130259513855,2.6611599922180176,-2.92087721824646,-1.5151994228363037,0.298812597990036,-0.45623183250427246,0.9434741735458374,2.18068528175354,0.09657935798168182,-0.2567128837108612,-0.26452380418777466,0.018707962706685066,-1.347353458404541,0.0053342366591095924,0.2580553889274597,0.6504051685333252,0.4348853826522827,-0.6773017644882202,0.16195674240589142,1.2784552574157715,-0.6188210248947144,-0.25993484258651733,-0.524406373500824,0.397903174161911,0.5758594274520874,0.2094920426607132,0.5044332146644592,-0.002757265930995345,-0.16538654267787933,0.9231270551681519,-0.617274284362793,-0.25790300965309143,0.12158321589231491,-0.4120686948299408,-0.29206591844558716,0.5561060905456543,-2.414746046066284,0.19312550127506256,0.8737123608589172,-1.4567376375198364,-1.390802264213562,-2.043163299560547,-1.886833906173706,1.8514693975448608,-1.6440399885177612,1.3119592666625977,-1.6610010862350464,-1.2079977989196777,1.3692588806152344,0.5892430543899536,-1.1486406326293945,1.2677664756774902,1.506313443183899,-1.139966607093811,-0.16361841559410095,1.3086028099060059,-0.5809155702590942,0.568430483341217,1.1874815225601196,-0.792183518409729,-1.4440442323684692,0.26181676983833313,-0.8535566926002502,-0.5688807964324951,-0.9986768960952759,2.2246384620666504,-0.415262371301651,1.2144558429718018,-0.5220016241073608,-0.5646357536315918,1.6037874221801758,0.6152863502502441,-0.2557985484600067,0.2557421326637268,0.9216319918632507,0.34596768021583557,-1.9404388666152954,-0.36866316199302673,1.6656241416931152,-1.672663927078247,-1.2654690742492676,0.45741987228393555,2.9549672603607178,-1.2564274072647095,0.20641344785690308,-1.6531323194503784,-2.222703695297241,-0.9205042719841003,-1.194515585899353,-1.109094262123108,-0.07562834024429321,-0.49893465638160706,1.3246816396713257,-2.748760461807251,-1.1724274158477783,-1.1517260074615479,1.2396906614303589,0.3847743272781372,0.21514946222305298,0.5518442988395691,1.3758898973464966,0.43624794483184814,1.740214228630066,-0.31971633434295654,-1.180969476699829,-0.02393924817442894,0.18724051117897034,-3.354135274887085,1.4968042373657227,-1.0923311710357666,-1.287480354309082,-2.6375937461853027,-2.993151903152466,0.1937662661075592,-0.8763825297355652,0.19976629316806793,0.25996676087379456,-0.14816808700561523,0.5922834277153015,0.8607799410820007,3.853783369064331,-1.3579740524291992,0.16681163012981415,0.3512011766433716,1.2353768348693848,-0.9298266172409058,-0.22145529091358185,0.46580615639686584,0.34631815552711487,1.2571277618408203,-0.7008200883865356,0.3629666268825531,-0.8414866328239441,1.6320583820343018,-2.2854881286621094,0.5547287464141846,0.37843161821365356,2.149042844772339,0.44201523065567017,0.0051010060124099255,-0.12452483922243118,-0.6627950072288513,2.4328675270080566,1.3560799360275269,-0.029292041435837746,1.8757970333099365,-0.9021627902984619,-1.2306867837905884,-1.6449861526489258,-1.7270482778549194,0.5963751673698425,0.9023821353912354,-0.7639788389205933,1.2431833744049072,2.2734034061431885,-0.7270445823669434,-1.8635565042495728,1.6693857908248901,0.6791040301322937,-2.1832263469696045,-1.1313453912734985,1.509950876235962,-1.2494248151779175,0.33562901616096497,1.0479834079742432,-1.1499156951904297,0.5994820594787598,-0.9769030213356018,1.2765644788742065,-1.9716233015060425,0.6383254528045654,-0.6302312016487122,-1.4884947538375854,-0.11982161551713943,1.1118969917297363,-0.6840589046478271,-0.006194417364895344,-0.14985084533691406,-0.3655071258544922,0.4631165862083435,-0.32183778285980225,0.3237905204296112,-0.45909127593040466,0.7093323469161987,-0.028937507420778275,1.5620386600494385,-0.291894793510437,-0.3382513225078583,-0.4128011465072632,-0.012778153643012047,-0.6760720014572144,-0.5921499133110046,-1.5971672534942627,-1.41690194606781,-0.039446622133255005,-1.3900482654571533,-0.519968569278717,-0.15299604833126068,1.3345696926116943,-1.2857224941253662,-0.16699595749378204,-0.7299752831459045,0.7781978249549866,-1.0531339645385742,0.47516873478889465,0.7388415932655334,1.4208805561065674,0.5230430364608765,-0.4880737364292145,-1.1520848274230957,-0.9403191804885864,-0.8679527640342712,-0.5905388593673706,-0.8122573494911194,-1.1647977828979492,-0.7386136054992676,2.2244863510131836,-0.9492924213409424,0.4029533863067627,-0.7673731446266174,1.3281028270721436,0.7974905371665955,0.32228603959083557,-0.4289107620716095,0.934052586555481,-0.6213988065719604,-1.946479082107544,0.19772692024707794,1.194149136543274,-1.4667545557022095,-0.40282508730888367,0.25362429022789,-0.3198828399181366,-1.2929883003234863,1.260706901550293,-0.9640998244285583,-0.3336828947067261,1.3852344751358032,-1.1274830102920532,-0.82239830493927,0.42419394850730896,0.7673932909965515,-1.7112361192703247,-0.6612517833709717,1.5883584022521973,-1.2080976963043213,-1.2349885702133179,1.1853708028793335,-0.035469233989715576,-0.32080206274986267,1.027740478515625,-0.008198457770049572,-0.6457265615463257,-0.6671203374862671,-1.0499942302703857,-0.42742741107940674,-0.25631916522979736,-0.13264305889606476,-0.1329239457845688,0.8738242983818054,0.8487436175346375,0.31353580951690674,-0.7805467247962952,0.7873488068580627,0.6677437424659729,0.3803267776966095,1.1459860801696777,-0.4485105872154236,-1.6299760341644287,0.8291754722595215,-0.3314040005207062,-0.8996326327323914,-1.4874197244644165,-1.5212974548339844,-0.5738067626953125,0.7546000480651855,-0.25030267238616943,0.17125087976455688,-1.39329993724823,0.46851789951324463,1.1118303537368774,-0.6646267771720886,-1.4786170721054077,0.6877025961875916,1.2302453517913818,0.84811931848526,-0.2135085016489029,0.27184703946113586,0.10041928291320801,-1.9584510326385498,0.8981419801712036,-0.4906821548938751,0.22736850380897522,1.8705240488052368,0.5230650305747986,-1.035884141921997,0.7428652048110962,-0.877357542514801,-0.02311267890036106,-0.1277046650648117,-0.40228205919265747,-1.2147020101547241,2.201483964920044,0.18523867428302765,0.7641503810882568,0.04109342768788338,-1.0294934511184692,1.845444917678833,0.7287492156028748,0.5163118839263916,1.0240815877914429,0.9326810240745544,1.893664002418518,-0.36512744426727295,-1.5526376962661743,0.6307203769683838,0.8651109337806702,-0.37910017371177673,-2.5010790824890137,-0.27454015612602234,0.10528460890054703,0.25216060876846313,0.9198755025863647,0.366938978433609,-1.5308657884597778,-0.6685068607330322,0.47056370973587036,0.6611634492874146,0.5896053910255432,1.5515692234039307,-1.789440631866455,2.067319393157959,0.5481046438217163,-2.4332056045532227,2.35292387008667,2.4324491024017334,0.06735972315073013,-0.554570734500885,0.7267715334892273,0.3004496693611145,-0.40755826234817505,2.2628588676452637,1.9659450054168701,-1.3377987146377563,0.5619008541107178,-0.1671784222126007,-0.1541665643453598,-1.9083696603775024,1.1784040927886963,1.047439694404602,-0.634728193283081,-1.4955101013183594,-0.6427404880523682,0.14222143590450287,-1.822762370109558,0.1892145574092865,0.5251840353012085,-0.7144500017166138,0.8943305015563965,0.36074620485305786,1.154861569404602,-3.2881295680999756,0.04353594779968262,-0.4009891748428345,-0.0732598528265953,0.8308452367782593,-1.112501621246338,0.43278542160987854,-0.7908806204795837,1.4995231628417969,0.8311132192611694,0.04393119364976883,-0.8180700540542603,-0.5970072746276855,-0.9929457306861877,0.4260448217391968,0.3373984098434448,1.1332896947860718,-0.8466367721557617,0.2971537113189697,-0.08650954812765121,-1.068414330482483,-1.0861366987228394,0.6042765974998474,-1.1122376918792725,-1.9065197706222534,-0.3886451721191406,-1.1059799194335938,-1.960828423500061,0.4142514169216156,