{"type":"LSTM","options":{"inputSize":20,"inputRange":20,"hiddenLayers":[20,20],"outputSize":20,"decayRate":0.999,"smoothEps":1e-8,"regc":0.000001,"clipval":5,"maxPredictionLength":256,"dataFormatter":{"indexTable":{"1":4,"2":16,"h":0,"o":1,"l":2,"a":3," ":5,"m":6,"e":7,"r":8,"i":9,"n":10,"p":11,"u":12,"s":13,"c":14,"d":15,"stop-input":17,"start-output":18,"unrecognized":19},"characterTable":{"0":"h","1":"o","2":"l","3":"a","4":"1","5":" ","6":"m","7":"e","8":"r","9":"i","10":"n","11":"p","12":"u","13":"s","14":"c","15":"d","16":"2","17":null,"18":null,"19":null},"values":[{"input":"hola","output":"1"},{"input":"hola merlina","output":"1"},{"input":"pon la musica para dormir","output":"2"},{"input":"pon la cancion para dormir","output":"2"},{"input":"musica para dormir","output":"2"},{"input":"cancion para dormir","output":"2"}],"characters":["h","o","l","a","1"," ","m","e","r","i","n","p","u","s","c","d","2","stop-input","start-output","unrecognized"],"specialIndexes":[17,18,19]},"workers":-1},"trainOpts":{"iterations":200,"errorThresh":0.005,"log":true,"logPeriod":10,"learningRate":0.0074,"callbackPeriod":10,"timeout":"Infinity","batchSize":3},"input":{"rows":21,"columns":20,"weights":[-0.058833662420511246,-0.21158777177333832,-0.6634770035743713,-0.07519485801458359,0.6096050143241882,0.4960886538028717,-0.4793078899383545,0.013836142607033253,0.35496413707733154,-0.5871811509132385,0.08225426077842712,-0.06370037794113159,0.8108301162719727,-0.6005824208259583,0.15636418759822845,0.48599210381507874,0.5924251675605774,0.6250233054161072,-0.1516760140657425,-0.811398446559906,0.15974701941013336,1.2044882774353027,1.3714358806610107,-0.08994890749454498,-1.7606769800186157,-1.207822322845459,1.30447256565094,-0.35511907935142517,-1.1274060010910034,1.670000672340393,-0.29493677616119385,0.12003962695598602,-0.37196093797683716,1.2976468801498413,-0.023434821516275406,-0.4132145941257477,-1.0331450700759888,-0.5669744610786438,-0.073935367166996,1.7889914512634277,0.5049964785575867,-0.05710704252123833,-0.0635724812746048,-0.4445333778858185,-0.04448729008436203,0.2558692991733551,-0.21052448451519012,-0.2892332077026367,-0.05960317328572273,-0.12331914156675339,-0.4780341684818268,0.5167666673660278,0.7440856695175171,-0.13708175718784332,0.5239196419715881,-1.0763884782791138,-0.12115022540092468,-0.4594654440879822,-0.4573284387588501,0.12710349261760712,1.2952872514724731,1.3293755054473877,0.9986782073974609,-0.9442829489707947,-1.0736714601516724,-0.5441805124282837,1.6526001691818237,-1.8233757019042969,-2.0575852394104004,0.9501606225967407,-1.2780722379684448,1.4110448360443115,0.7852535247802734,0.24423173069953918,1.4093273878097534,-0.8618770241737366,-2.038121223449707,-2.172363519668579,-1.5438264608383179,0.6645469665527344,0.7422652244567871,0.4854496121406555,0.2747069299221039,-0.7329723834991455,-0.3066602349281311,-0.029271360486745834,0.5007612109184265,-0.7633920311927795,-0.645454466342926,0.3069250285625458,-0.6730078458786011,0.7042393088340759,0.4104841351509094,-0.1301162987947464,0.6810571551322937,-0.1720496565103531,-0.8689367771148682,-0.9442729353904724,-0.6727448105812073,0.0005460089887492359,-0.5428234934806824,-0.1409328430891037,-0.1196727603673935,0.5217875838279724,0.9780923128128052,0.3450436294078827,-0.3509027659893036,0.5799074172973633,0.545024037361145,-0.2141892910003662,0.6139172315597534,-0.4690111577510834,0.5174161791801453,-0.6147447228431702,-0.538102388381958,0.8598355650901794,0.6585008502006531,0.7040544152259827,0.5837638974189758,-0.8751838207244873,0.1888645738363266,-0.3353639543056488,0.15110687911510468,-0.2973543107509613,0.1352418214082718,-0.5113068222999573,-0.36752447485923767,-0.26669833064079285,0.4048086702823639,-0.02044491097331047,-0.34625372290611267,0.349007785320282,-0.4757269322872162,0.43290311098098755,0.17900393903255463,-0.14812259376049042,0.3105998635292053,0.4268879294395447,-0.0724320337176323,0.1896984726190567,0.4837341606616974,-0.2109542191028595,0.289804607629776,-0.676546573638916,0.07447230070829391,-1.928424596786499,-0.5119968056678772,-0.5464234948158264,0.4599776566028595,0.09278112649917603,-0.8550122380256653,0.6488807797431946,-0.8540142774581909,1.5472006797790527,0.7887256145477295,-0.5465377569198608,0.5460889339447021,0.5752533674240112,-0.6543893218040466,0.5818148851394653,0.10149748623371124,0.7380461692810059,0.9058579206466675,-0.09169566631317139,-1.1992945671081543,-1.4264533519744873,0.6215120553970337,-0.014357681386172771,-0.5830190777778625,1.0221971273422241,0.0014188350178301334,0.13248088955879211,-0.5192565321922302,1.6331533193588257,0.1071002185344696,-1.4104118347167969,-0.665845513343811,-0.65752774477005,0.006586989853531122,1.6379146575927734,0.7017542123794556,0.5541016459465027,0.3842605948448181,-0.5535843372344971,-0.505138099193573,0.02611091546714306,0.6771047115325928,-0.7004879713058472,-0.7947961091995239,0.39969727396965027,-0.5806317329406738,0.6674094796180725,0.5495988130569458,-0.13980910181999207,0.5150938034057617,-0.20289704203605652,-1.038893461227417,-1.0966756343841553,-0.684169590473175,0.11881621181964874,0.23411239683628082,0.1488758623600006,0.256696879863739,-0.3639571964740753,-0.018916690722107887,-0.4921359419822693,0.08290459960699081,-0.13577361404895782,0.07920144498348236,0.009159430861473083,-0.4798703193664551,0.30817997455596924,0.12604676187038422,0.7198299169540405,0.7587411403656006,-1.0134621858596802,-0.023517094552516937,-0.0018454439705237746,-0.6397411823272705,0.15086080133914948,0.8212060332298279,0.9496397972106934,0.9583955407142639,-0.841739296913147,-0.9791815280914307,-0.9715359807014465,1.0037633180618286,-0.8676983714103699,-0.9803516864776611,0.9258062243461609,-0.6765450835227966,0.77852863073349,-0.6975861191749573,0.9018336534500122,0.7273064851760864,-0.663945198059082,-0.9538004398345947,-0.7885236144065857,-0.7642597556114197,1.0074641704559326,0.5777270197868347,-0.15334826707839966,-0.36851784586906433,-0.5805135369300842,0.07897629588842392,0.6665052175521851,0.005531353875994682,-0.5330265760421753,-0.1389407366514206,-0.23042032122612,-0.6218975782394409,0.6078259348869324,0.8189459443092346,-0.7040584683418274,0.3707272410392761,-0.058622587472200394,-0.32305216789245605,-0.8147644400596619,-0.46646010875701904,-0.1578458994626999,0.8523748517036438,-0.4352341294288635,-0.9750762581825256,-0.9797989726066589,0.832047164440155,0.8697873950004578,-0.4870035946369171,-0.942960262298584,0.6222484707832336,-0.8652557134628296,-0.7286931276321411,0.8681312799453735,0.13385255634784698,-1.3463791608810425,1.0563937425613403,1.6774928569793701,0.9790589213371277,0.9999158978462219,-1.0445761680603027,-1.3573095798492432,0.7032842636108398,-1.382753610610962,-1.1700680255889893,-0.6896101832389832,1.0747942924499512,1.4216567277908325,-1.279985785484314,-0.6511406302452087,1.1947896480560303,-1.182363748550415,-0.6915894150733948,0.7397250533103943,-0.2952648103237152,-1.359525203704834,0.7521116137504578,1.0927008390426636,1.0695559978485107,0.9129035472869873,-0.4327753484249115,-1.1215810775756836,1.0844732522964478,0.9392635822296143,1.1554440259933472,-0.9721677899360657,-0.19579000771045685,-0.8099479079246521,0.7880554795265198,-1.3108880519866943,-0.7648020386695862,0.3797251284122467,-1.2134865522384644,1.2406895160675049,0.3773030638694763,0.3511401116847992,1.45583176612854,-1.4589289426803589,-1.6301950216293335,-1.0192121267318726,-1.4657219648361206,-0.07237029820680618,0.9535507559776306,-0.30099231004714966,-0.5665048956871033,-0.8538945913314819,0.12938445806503296,0.43783193826675415,-0.18865352869033813,-0.83106529712677,-0.050052762031555176,-0.23273544013500214,-0.8310853242874146,0.7778939604759216,0.5894870162010193,-0.19683119654655457,0.5477890372276306,-1.3651164770126343,-0.06634817272424698,-0.3474692702293396,-0.7278008460998535,0.1380293071269989,-0.6094264984130859,0.12110568583011627,-0.4276008903980255,0.5516717433929443,0.643869161605835,0.445425808429718,0.3045195937156677,0.6593776941299438,0.4739992916584015,-0.4929407835006714,0.5497599840164185,-0.5026654601097107,0.26664507389068604,-0.6542314291000366,-0.5891527533531189,0.8034825921058655,0.6636371612548828,0.7643033862113953,0.5283955931663513,-0.6792951822280884,-0.7294672131538391,-1.1357110738754272,-1.1742554903030396,0.7593720555305481,1.129997730255127,1.3431830406188965,-0.87626051902771,0.6938170790672302,0.965049147605896,-1.1784690618515015,0.5903501510620117,-0.73481684923172,0.12339295446872711,-1.288110613822937,-0.5478386282920837,1.1195087432861328,1.1037020683288574,1.0155048370361328,0.4899056851863861,-1.0925332307815552,-0.8475419878959656,-1.11916184425354,-1.0412489175796509,0.9058346152305603,1.1892015933990479,0.9129325151443481,-1.2139924764633179,0.994354248046875,1.0054296255111694,-1.1240696907043457,0.7871476411819458,-0.972985029220581,0.31337112188339233,-0.9908568263053894,-0.9310938715934753,0.8831305503845215,1.0940008163452148,1.0041439533233643,0.8919181823730469,-0.9124854207038879,0.03728403523564339,0.03732354938983917,-0.002811941783875227,-0.07777681201696396,-0.019733121618628502,-0.03130282834172249,0.046166159212589264,0.022441327571868896,0.05972899869084358,0.06006837263703346,0.058768194168806076,-0.03348362445831299,-0.06506805121898651,-0.028726905584335327,0.00047827683738432825,-0.029917383566498756,-0.01834629848599434,-0.0033854483626782894,0.061470404267311096,0.005658159498125315]},"hiddenLayers":[{"inputMatrix":{"rows":20,"columns":20,"weights":[-0.611213207244873,-0.25038596987724304,-0.0511317141354084,0.7164125442504883,0.16366957128047943,0.2341073602437973,-0.19533608853816986,0.6571542620658875,0.3049233555793762,-0.20599156618118286,0.520291805267334,-0.6046794056892395,-0.37599748373031616,-0.29933539032936096,-0.6500524878501892,0.12145399302244186,0.1106666773557663,-0.014600745402276516,0.5729853510856628,-0.16457191109657288,-0.811930775642395,-0.3261607885360718,-0.10822944343090057,0.8372418284416199,0.059749335050582886,0.2722545862197876,-0.040370382368564606,0.7675278186798096,0.1205083355307579,-0.11189261078834534,0.7144872546195984,-0.6842367649078369,-0.532677948474884,-0.08711510896682739,-0.6366744637489319,-0.023599741980433464,0.07486226409673691,-0.06985262781381607,0.7638127207756042,-0.030361903831362724,-0.3158550560474396,-0.40016797184944153,-0.5139471888542175,0.2968496084213257,0.29934948682785034,0.5409663915634155,-0.3806833326816559,0.3371148407459259,0.29413411021232605,-0.3963721990585327,0.2951078414916992,-0.18399089574813843,-0.0939837172627449,-0.6011786460876465,-0.2966235280036926,0.4530542194843292,0.2878948748111725,0.26599133014678955,0.2276683896780014,-0.3710659146308899,-0.06676703691482544,-0.752394437789917,-1.0458979606628418,0.05455246940255165,0.7443292140960693,0.8942869901657104,-0.6309008598327637,0.058005400002002716,0.5466586351394653,-0.676895260810852,0.042150095105171204,-0.15099835395812988,0.7913004755973816,-0.928124725818634,-0.07629610598087311,-0.0360291562974453,0.5402818918228149,0.3720300793647766,0.02298732101917267,-0.5238431692123413,-0.3840428292751312,-0.30554696917533875,-0.44269099831581116,0.2670602798461914,0.3347018361091614,0.44858843088150024,-0.33669212460517883,0.29387834668159485,0.26619067788124084,-0.3366699516773224,0.3257896304130554,-0.28545960783958435,0.3326900899410248,-0.5877016186714172,-0.28941479325294495,0.3790554106235504,0.3913593888282776,0.2844635546207428,0.29455721378326416,-0.4500771760940552,0.41522732377052307,0.5452142357826233,0.2558324933052063,-0.352161705493927,-0.45207709074020386,-0.1648445576429367,0.7066776752471924,-0.3658375144004822,-0.647402822971344,0.31383779644966125,-0.3282756209373474,0.3310605585575104,0.9922463893890381,0.11916464567184448,0.3381015658378601,-0.48499512672424316,-0.6007961630821228,-0.8967792391777039,-0.41582658886909485,0.49315887689590454,0.6278130412101746,0.3630899488925934,0.32265716791152954,-0.6674614548683167,-0.11584869772195816,-0.3272557854652405,0.2540362477302551,-0.7954244017601013,-0.14625965058803558,0.17972372472286224,-0.7007333636283875,0.6311667561531067,0.5488136410713196,0.1720663458108902,0.7594383358955383,-0.19956976175308228,-0.23535898327827454,-0.16753485798835754,-0.7694896459579468,0.16450098156929016,-0.6650269031524658,-0.3499439060688019,-0.14928355813026428,0.6748107075691223,0.1822018027305603,0.4172102212905884,-0.017477557063102722,0.44748809933662415,0.2694193124771118,-0.1893608272075653,0.5509455800056458,-0.6388536095619202,-0.3659832179546356,-0.20252594351768494,-0.6556540727615356,0.2362375408411026,0.15946252644062042,0.006385968532413244,0.6801296472549438,-0.1505153924226761,-0.30071577429771423,-0.4783121645450592,-0.4674021899700165,0.2579893171787262,0.27507808804512024,0.5262550115585327,-0.3734413981437683,0.2782858610153198,0.37156856060028076,-0.35634663701057434,0.26750248670578003,-0.31428876519203186,0.007909422740340233,-0.5385549664497375,-0.37258803844451904,0.430894136428833,0.29674288630485535,0.20699666440486908,0.37435242533683777,-0.47454795241355896,-0.4583814740180969,-0.3442738354206085,-0.32028940320014954,0.5550343990325928,0.20064568519592285,0.4780154228210449,-0.23605044186115265,0.5785093307495117,0.2959018349647522,-0.2640545964241028,0.49635958671569824,-0.3578314483165741,-0.3279213309288025,-0.3368132710456848,-0.4158079922199249,0.19288097321987152,0.242965966463089,0.095211461186409,0.48124706745147705,-0.20023943483829498,0.26994189620018005,-1.1061882972717285,-1.4371304512023926,-0.2002841979265213,0.7739006280899048,1.520566463470459,-0.9386307001113892,0.04924064129590988,0.648012101650238,-0.9825326800346375,-0.0968356803059578,0.0878663957118988,1.2289454936981201,-1.0845915079116821,-0.044749584048986435,0.19472365081310272,0.6205018162727356,0.14028695225715637,-0.06205002963542938,-0.7654933333396912,-0.29807254672050476,-0.4373682141304016,-0.40877676010131836,0.29126089811325073,0.353055864572525,0.4152018129825592,-0.36890488862991333,0.18119831383228302,0.3550341725349426,-0.31359511613845825,0.3029903173446655,-0.3077270984649658,0.13289926946163177,-0.503845751285553,-0.23122824728488922,0.5198290944099426,0.48130205273628235,0.4942221939563751,0.28489670157432556,-0.4155915081501007,-0.29960811138153076,-0.3510311245918274,-0.39754754304885864,0.20878691971302032,0.43844836950302124,0.49514615535736084,-0.34348219633102417,0.19657211005687714,0.35191020369529724,-0.42799514532089233,0.25049760937690735,-0.1787206083536148,0.24500414729118347,-0.6230102181434631,-0.22024324536323547,0.4943966567516327,0.24824540317058563,0.2905840575695038,0.25963646173477173,-0.43347445130348206,-0.687384307384491,-0.1253586858510971,-0.1719456911087036,0.712361216545105,0.1082640066742897,0.3456457853317261,-0.06372688710689545,0.7047520875930786,0.17634840309619904,-0.17981097102165222,0.5039370059967041,-0.6353223323822021,-0.20657095313072205,-0.15544627606868744,-0.5547052025794983,0.18263132870197296,0.08365775644779205,0.011160055175423622,0.6025102138519287,-0.04559430480003357,-0.33180466294288635,-0.537112832069397,-0.5616947412490845,0.25489258766174316,0.43561434745788574,0.5896210670471191,-0.420061320066452,0.24158020317554474,0.49464479088783264,-0.42433086037635803,0.27230367064476013,-0.32565003633499146,0.2411208301782608,-0.6709865927696228,-0.3117862343788147,0.32689031958580017,0.4406242072582245,0.44112473726272583,0.23438645899295807,-0.4439900517463684,-0.26927974820137024,-0.31608134508132935,-0.42143550515174866,0.316609263420105,0.3284134268760681,0.5550951957702637,-0.37815842032432556,0.39994609355926514,0.24583274126052856,-0.3653053641319275,0.35120487213134766,-0.36601194739341736,0.19777800142765045,-0.6541867256164551,-0.3251672685146332,0.41191914677619934,0.32212069630622864,0.21723942458629608,0.39804813265800476,-0.42716923356056213,-0.20628614723682404,-0.5036137104034424,-0.42523476481437683,0.2754812240600586,0.4887712299823761,0.5274786949157715,-0.338833212852478,0.3008975684642792,0.333596795797348,-0.4457375705242157,0.2978088855743408,-0.15823064744472504,0.11377441883087158,-0.61156165599823,-0.32144519686698914,0.5631150603294373,0.32188665866851807,0.2664376497268677,0.24487432837486267,-0.4282166361808777,-0.23983769118785858,-0.40991997718811035,-0.3659115731716156,0.21119318902492523,0.44056692719459534,0.5615384578704834,-0.2777958810329437,0.3515884280204773,0.23648123443126678,-0.38348713517189026,0.3364069163799286,-0.16073793172836304,0.07680108398199081,-0.5004467964172363,-0.20388978719711304,0.36887988448143005,0.3388390839099884,0.3600939214229584,0.25570249557495117,-0.4716283082962036,-0.4945383071899414,-0.5618333220481873,-0.2694682776927948,0.6072380542755127,0.1858823001384735,0.44721129536628723,-0.3246987462043762,0.6122021675109863,0.3254074454307556,-0.20917971432209015,0.4203362762928009,-0.5303791761398315,-0.412686824798584,-0.34751370549201965,-0.46474266052246094,0.2522040903568268,0.09219067543745041,0.018425388261675835,0.5608288645744324,-0.19367197155952454,-0.4349277913570404,-0.5632362365722656,-0.29463979601860046,0.47819262742996216,0.25236502289772034,0.44203275442123413,-0.3680337965488434,0.4656788110733032,0.3585185706615448,-0.2559552788734436,0.42186951637268066,-0.4246452748775482,-0.3251192569732666,-0.46302559971809387,-0.4490981698036194,0.18899360299110413,0.18302065134048462,0.09339639544487,0.6011999845504761,-0.24503540992736816]},"inputHidden":{"rows":20,"columns":20,"weights":[-0.06988447159528732,0.13929180800914764,0.04919520393013954,0.06921762973070145,0.15539787709712982,-0.3429529368877411,0.006143997889012098,0.09406264871358871,0.0776011198759079,0.10943064093589783,-0.19288326799869537,-0.13902559876441956,0.15132899582386017,-0.07021242380142212,0.12715843319892883,0.16509126126766205,-0.15323778986930847,0.18111203610897064,-0.09462124854326248,-0.07098844647407532,0.15638042986392975,0.02784774638712406,0.11675190925598145,0.08474252372980118,0.009799906052649021,-0.2860802114009857,-0.08547670394182205,-0.027042068541049957,0.03389411047101021,0.15473663806915283,-0.7533473968505859,-0.011828097514808178,0.15237292647361755,-0.07241220772266388,0.04404425621032715,0.050461333245038986,-0.1605854034423828,0.030428193509578705,-0.02289494499564171,-0.05453027784824371,0.2736702263355255,-0.19387967884540558,-0.2763708531856537,-0.10007018595933914,-0.26101890206336975,-0.5506024956703186,-0.367876261472702,-0.20406410098075867,-0.30081993341445923,-0.21148620545864105,-0.16818776726722717,0.15180350840091705,-0.2740425765514374,0.19049544632434845,-0.29332488775253296,-0.18448162078857422,0.16687296330928802,-0.24059323966503143,0.2492142915725708,0.1338428258895874,0.22276334464550018,-0.20824341475963593,-0.06318729370832443,-0.9293714165687561,-0.005614165216684341,-0.5400550365447998,-0.4914686679840088,-0.1515791416168213,-0.21025986969470978,-0.05666554719209671,-1.5892696380615234,0.33074119687080383,-0.12079867720603943,0.1462251991033554,-0.5153847932815552,-0.09568596631288528,0.09162754565477371,-0.2001529335975647,0.03166664391756058,0.15276136994361877,0.1880277395248413,-0.24836209416389465,-0.17247457802295685,-0.21314680576324463,-0.14867369830608368,-0.5876480340957642,-0.4199012517929077,-0.1528918445110321,-0.07551981508731842,-0.11938610672950745,-0.280056357383728,0.2388545721769333,-0.21523664891719818,0.09393713623285294,-0.08323274552822113,-0.11453396081924438,0.10957913845777512,-0.17376327514648438,0.20471690595149994,0.06976877152919769,-0.04353597015142441,0.10740623623132706,0.07587149739265442,0.38854721188545227,0.16943073272705078,0.026276670396327972,-0.22186647355556488,0.06604571640491486,0.0309537872672081,0.22515223920345306,0.5448241233825684,-0.28222161531448364,0.1909465491771698,-0.18678943812847137,0.18039405345916748,0.2152189016342163,-0.026451826095581055,0.09714304655790329,0.025923065841197968,-0.1105082631111145,-0.12281756103038788,0.2123700976371765,0.5074924230575562,0.317371129989624,0.45671266317367554,0.6962334513664246,0.3392769396305084,0.11644399166107178,0.5077583193778992,0.41507524251937866,-0.05545800179243088,-0.36324405670166016,0.5312656760215759,-0.2601322829723358,0.6113574504852295,0.5366986989974976,-0.5124055743217468,0.4841850697994232,-0.3038467764854431,-0.28608691692352295,-0.04398258402943611,0.09925958514213562,0.16576267778873444,0.25675609707832336,0.17911900579929352,-0.0020618694834411144,-0.032126616686582565,0.023449601605534554,0.04153038188815117,0.21309895813465118,-0.2479322850704193,-0.04674096405506134,0.11796420067548752,-0.06498163938522339,0.14194953441619873,0.12102203816175461,-0.081430584192276,0.08215323090553284,-0.10723796486854553,-0.08696979284286499,0.24372372031211853,-0.18961024284362793,-0.2025836706161499,-0.1692870855331421,-0.08814951777458191,-0.45304909348487854,-0.4010634422302246,-0.15330657362937927,-0.22190110385417938,-0.13781307637691498,-0.3891451060771942,0.2575223743915558,-0.2196643352508545,0.11867713183164597,-0.28480473160743713,-0.07680173218250275,0.09774558246135712,-0.1744184046983719,0.07177923619747162,0.08850893378257751,0.1655324548482895,-0.17247246205806732,-0.14151428639888763,0.008560712449252605,-0.06606326997280121,-0.5690857172012329,-0.27038058638572693,-0.13063620030879974,-0.16582462191581726,-0.046676259487867355,-0.04645992070436478,0.09768154472112656,-0.1892586648464203,-0.013383332639932632,-0.11296022683382034,-0.09859797358512878,0.12873445451259613,-0.12805934250354767,0.07221865653991699,0.08568734675645828,0.883457362651825,-1.3657798767089844,-0.5610936880111694,-2.3592658042907715,-1.2064228057861328,0.7215557098388672,-0.17342376708984375,-0.9912424683570862,-0.6127248406410217,-1.2365446090698242,-3.315695285797119,1.5386087894439697,-1.1194994449615479,1.6296522617340088,-1.6481945514678955,-1.239161491394043,0.5674242973327637,-1.0818668603897095,1.0479695796966553,0.5419272780418396,0.176960289478302,-0.2934689521789551,-0.19070972502231598,-0.5810514688491821,-0.4106699526309967,-0.2603858411312103,-0.2220875769853592,-0.14504708349704742,-0.07298848778009415,-0.23941192030906677,-0.806198239326477,0.28770992159843445,-0.23455284535884857,0.37940290570259094,-0.41901713609695435,-0.30890578031539917,0.07189106196165085,-0.28433680534362793,0.070805124938488,0.03850474953651428,0.2566335201263428,-0.3337579071521759,-0.15249450504779816,-0.29416629672050476,-0.173759326338768,-0.4456021189689636,-0.3225595951080322,-0.2730845510959625,-0.15844479203224182,-0.15087805688381195,-0.5799771547317505,0.15881136059761047,-0.23678730428218842,0.2768077552318573,-0.1899765282869339,-0.25418755412101746,0.22512146830558777,-0.2586616277694702,0.11461800336837769,0.2608371078968048,0.1717929244041443,-0.022034218534827232,-0.005693783052265644,-0.059100713580846786,0.013459814712405205,-0.5578921437263489,-0.3059774339199066,-0.06860850006341934,0.030843498185276985,-0.016313061118125916,-0.6887132525444031,0.060815680772066116,-0.004249449819326401,-0.07604839652776718,-0.04336829483509064,-0.013065150938928127,0.01863374561071396,-0.03357856720685959,-0.03151392191648483,-0.10728679597377777,0.2002640962600708,-0.35170555114746094,-0.12044508755207062,-0.925617516040802,-0.4288056790828705,-0.4204835295677185,-0.3481624722480774,-0.10609818994998932,-0.17636816203594208,-0.31142526865005493,-1.2301503419876099,0.5163976550102234,-0.442303866147995,0.34589681029319763,-0.6128817200660706,-0.4975844919681549,0.178468257188797,-0.2704049050807953,0.09179821610450745,0.058180052787065506,0.18557536602020264,-0.26473063230514526,-0.12923766672611237,-0.09030044823884964,-0.09350612014532089,-0.6451709866523743,-0.4855915606021881,-0.25308623909950256,-0.18494057655334473,-0.13273794949054718,-0.3189128041267395,0.12751398980617523,-0.1685980260372162,0.19878584146499634,-0.13447879254817963,-0.10762963443994522,0.15813080966472626,-0.1942712664604187,0.1993849128484726,0.24563467502593994,0.3083080053329468,-0.39901110529899597,-0.1858985275030136,-0.1809675246477127,-0.19447216391563416,-0.5395442843437195,-0.47181886434555054,-0.2667813003063202,-0.18569718301296234,-0.2596292495727539,-0.35639944672584534,0.24479438364505768,-0.3004000782966614,0.17268672585487366,-0.34487059712409973,-0.29109618067741394,0.22618958353996277,-0.24853797256946564,0.22616104781627655,0.19495151937007904,0.3083653151988983,-0.244719460606575,-0.2901935875415802,-0.31095314025878906,-0.2749134600162506,-0.34233957529067993,-0.28652939200401306,-0.28278374671936035,-0.23561187088489532,-0.16035698354244232,-0.5237324833869934,0.1915748417377472,-0.20833848416805267,0.3177754580974579,-0.23407483100891113,-0.19069446623325348,0.2645461857318878,-0.22694168984889984,0.23676352202892303,0.3086136281490326,0.11712455004453659,-0.08945712447166443,-0.13759398460388184,0.19117330014705658,-0.005921859759837389,-0.4271315038204193,-0.3451310396194458,-0.05638505145907402,-0.0757347121834755,0.03629464656114578,-0.1309107095003128,0.1448468565940857,-0.10100369900465012,-0.00962529331445694,-0.1859353631734848,-0.09004607051610947,0.07964252680540085,-0.05721407011151314,0.048282235860824585,-0.03755101189017296,0.053390298038721085,-0.15022021532058716,-0.09137659519910812,0.18096207082271576,-0.09467018395662308,-0.573846697807312,-0.4530467092990875,-0.07747410237789154,-0.07519063353538513,-0.025903521105647087,-0.028238482773303986,0.09913012385368347,-0.13151347637176514,0.07553279399871826,-0.13017964363098145,-0.14039811491966248,0.07366134971380234,-0.21570315957069397,0.0013321323785930872,0.04877815768122673]},"inputBias":{"rows":20,"columns":1,"weights":[-1.8768175840377808,-1.656368613243103,-0.9450623989105225,0.7435002326965332,-0.22498053312301636,-0.17838236689567566,-0.7442505955696106,-1.8791197538375854,-0.9401757121086121,-1.3363399505615234,0.6707153916358948,0.5579889416694641,-0.4334033727645874,-1.0271592140197754,0.9626845121383667,-0.10153311491012573,-0.8444882035255432,-0.5498246550559998,-2.191484212875366,-1.9143227338790894]},"forgetMatrix":{"rows":20,"columns":20,"weights":[-0.49393945932388306,-0.119939424097538,-0.2191801369190216,0.4791691303253174,0.29636532068252563,0.15560081601142883,-0.16884638369083405,0.48156100511550903,0.2072206735610962,-0.14688687026500702,0.4868905544281006,-0.45632466673851013,-0.032634761184453964,-0.1298321634531021,-0.486632376909256,0.32474175095558167,0.24515733122825623,0.3213750422000885,0.438478022813797,-0.27624425292015076,-0.43901047110557556,-0.19802214205265045,-0.13060274720191956,0.32667505741119385,0.37621939182281494,0.2793981730937958,-0.26473864912986755,0.4502398371696472,0.1969081461429596,-0.17949146032333374,0.27652105689048767,-0.41758614778518677,0.17089161276817322,-0.19810593128204346,-0.4624674916267395,0.318454772233963,0.205210879445076,0.3424561321735382,0.4274701476097107,-0.21318721771240234,-0.29217439889907837,-0.4069167971611023,-0.40610331296920776,0.3729932904243469,0.3302823305130005,0.33421313762664795,-0.4312579929828644,0.3554568588733673,0.3835804760456085,-0.3847914934158325,0.360509991645813,-0.30255016684532166,-0.1227799504995346,-0.4152088761329651,-0.37722936272621155,0.2961518466472626,0.24708667397499084,0.2611949145793915,0.33927446603775024,-0.3493504524230957,0.09719055145978928,-0.7969610095024109,-1.1525393724441528,-0.0014262475306168199,0.36308756470680237,1.370910882949829,-0.7477654814720154,0.16331104934215546,0.36294347047805786,-0.7089417576789856,0.09688007086515427,0.013306965120136738,2.1952574253082275,-1.0725661516189575,-0.22597049176692963,-0.2392258197069168,0.5162362456321716,-0.3245962858200073,0.20193122327327728,-0.2644493877887726,-0.3617790639400482,-0.3201807141304016,-0.23654517531394958,0.2780347764492035,0.3009009063243866,0.36172881722450256,-0.38193240761756897,0.3953227698802948,0.23428192734718323,-0.25353989005088806,0.3873942494392395,-0.3394627273082733,-0.08627758920192719,-0.3634764552116394,-0.3402964174747467,0.38045188784599304,0.3188794255256653,0.299314022064209,0.36542704701423645,-0.25450408458709717,-0.07518027722835541,1.0562007427215576,0.41540205478668213,0.23441234230995178,-0.6196727752685547,-0.03724101558327675,1.1629644632339478,0.15240947902202606,-1.2771048545837402,0.5117185115814209,0.1576966643333435,-0.23586426675319672,0.40162909030914307,0.19507834315299988,-0.14407508075237274,-0.08854739367961884,-1.0032402276992798,-1.314792513847351,0.18899765610694885,0.40557241439819336,-0.018617138266563416,0.9696033596992493,0.4662574231624603,0.07260081171989441,-0.7759964466094971,-0.2971861660480499,0.987920880317688,0.09291374683380127,-1.1691339015960693,0.5177196264266968,0.22486460208892822,-0.0674031600356102,0.19260716438293457,0.39413776993751526,-0.1355745792388916,-0.2881477177143097,-0.8616633415222168,-1.1964842081069946,0.2150719165802002,0.45744985342025757,-0.4249803423881531,-0.17118023335933685,-0.1156286671757698,0.40381279587745667,0.30213025212287903,0.19673143327236176,-0.191816046833992,0.40240082144737244,0.12167054414749146,-0.10638425499200821,0.4740070700645447,-0.3983484208583832,0.07378087937831879,-0.2423732429742813,-0.4815662205219269,0.36453765630722046,0.25216010212898254,0.3277267813682556,0.4818994402885437,-0.21213474869728088,-0.41922062635421753,-0.3021080195903778,-0.39555424451828003,0.2934972047805786,0.3467552959918976,0.3679756224155426,-0.43928393721580505,0.3765428364276886,0.33398884534835815,-0.3444369435310364,0.34349724650382996,-0.3999185860157013,-0.22876757383346558,-0.3465670049190521,-0.4530833661556244,0.4077925682067871,0.36582016944885254,0.3520015776157379,0.3969530761241913,-0.29232630133628845,-0.47403913736343384,-0.2773606479167938,-0.381472647190094,0.48037177324295044,0.2509932219982147,0.3444558084011078,-0.3636797368526459,0.38148683309555054,0.23391011357307434,-0.28068268299102783,0.43570569157600403,-0.38003304600715637,-0.1257791668176651,-0.391422301530838,-0.41417601704597473,0.30568116903305054,0.3216545581817627,0.3461325466632843,0.4982862174510956,-0.3256043791770935,-0.19775813817977905,1.9063462018966675,1.4876039028167725,0.298225462436676,-1.3169035911560059,-0.12313082814216614,1.5897748470306396,0.37032297253608704,-1.4757425785064697,1.0971213579177856,0.17544685304164886,-0.28271740674972534,1.3672635555267334,-0.0819886103272438,0.18088044226169586,0.04286954179406166,-1.602118968963623,-1.4713618755340576,-0.09210626780986786,0.2664388418197632,-0.08152743428945541,-0.5758041739463806,-0.6323102712631226,0.22332072257995605,0.3405938744544983,0.7669521570205688,-0.43706580996513367,0.22419223189353943,0.28186535835266113,-0.43528860807418823,0.2138553261756897,-0.2629435956478119,2.2665064334869385,-0.7541823983192444,-0.3571529984474182,0.2817727029323578,0.2601560056209564,0.003810757538303733,0.21261568367481232,-0.3064478933811188,-0.2618905007839203,-0.37515631318092346,-0.3591184616088867,0.3289110064506531,0.3029845356941223,0.3523249626159668,-0.33406808972358704,0.2256060242652893,0.21919000148773193,-0.27180004119873047,0.351123183965683,-0.26397275924682617,0.33250993490219116,-0.4443052113056183,-0.30020207166671753,0.2473347932100296,0.2871673107147217,0.21884430944919586,0.3589048981666565,-0.3732743561267853,-0.34089308977127075,-0.28088802099227905,-0.2519961893558502,0.34716227650642395,0.3300698697566986,0.3413635492324829,-0.3000814616680145,0.3672216534614563,0.22106416523456573,-0.19806961715221405,0.37730327248573303,-0.40860500931739807,0.062160104513168335,-0.23053354024887085,-0.4606115221977234,0.3385361433029175,0.3544691801071167,0.3108258843421936,0.3529433608055115,-0.23467808961868286,-0.159626767039299,-0.7990990281105042,-0.857772946357727,0.10104318708181381,0.32098254561424255,1.1732923984527588,-0.603195071220398,0.33214688301086426,0.44400620460510254,-0.5938398241996765,0.1098187267780304,-0.15802066028118134,2.2143754959106445,-1.047695279121399,-0.3439798057079315,0.3230198919773102,0.43786442279815674,-0.06717466562986374,0.4153337776660919,-0.272945374250412,-0.38459154963493347,-0.28908997774124146,-0.29522505402565,0.30782631039619446,0.282014936208725,0.45597052574157715,-0.325314998626709,0.3012388050556183,0.23938976228237152,-0.2466619461774826,0.36642441153526306,-0.35182273387908936,-0.07065589725971222,-0.3613342344760895,-0.3520580530166626,0.3569234609603882,0.3436678946018219,0.351311057806015,0.3975675404071808,-0.32393109798431396,-0.23025493323802948,-0.38391005992889404,-0.30676743388175964,0.2964463233947754,0.352445513010025,0.4180665910243988,-0.42076176404953003,0.2829723060131073,0.34931036829948425,-0.36239323019981384,0.272478312253952,-0.3259736895561218,-0.29051491618156433,-0.4066730737686157,-0.2629414200782776,0.3317970037460327,0.37725988030433655,0.31192222237586975,0.3575185239315033,-0.251571387052536,-0.33742833137512207,-0.4101245403289795,-0.26409244537353516,0.20991510152816772,0.25346556305885315,0.366446852684021,-0.32219183444976807,0.34247684478759766,0.2935582101345062,-0.3416355550289154,0.30212506651878357,-0.17552296817302704,0.36171969771385193,-0.4342641830444336,-0.2456839233636856,0.3098525404930115,0.26847410202026367,0.2149364948272705,0.21682150661945343,-0.31975704431533813,-0.41084128618240356,-0.2994062602519989,-0.3899939954280853,0.41390353441238403,0.33267298340797424,0.3628632426261902,-0.26157379150390625,0.48291832208633423,0.2793433666229248,-0.3456174433231354,0.3923811912536621,-0.3511306047439575,-0.12633928656578064,-0.367364764213562,-0.49294960498809814,0.3925788700580597,0.39149758219718933,0.2741013765335083,0.4264844059944153,-0.29304802417755127,-0.37688714265823364,-0.3175678551197052,-0.3924001157283783,0.40219253301620483,0.35956263542175293,0.3798697292804718,-0.3611086905002594,0.4278198480606079,0.3591631054878235,-0.23016977310180664,0.34968137741088867,-0.3496329188346863,-0.12348230928182602,-0.3802807629108429,-0.39535170793533325,0.3828069269657135,0.31370213627815247,0.23435120284557343,0.47137847542762756,-0.31961989402770996]},"forgetHidden":{"rows":20,"columns":20,"weights":[-0.12380588799715042,0.002869287971407175,-0.0070868683978915215,0.0865120217204094,0.008698348887264729,-0.4173152446746826,-0.25521644949913025,0.05025266483426094,0.1280280351638794,0.03770013153553009,0.0956154316663742,-0.04731066897511482,0.0697626918554306,-0.07274389266967773,0.04398826137185097,0.12729540467262268,-0.07539983093738556,0.08125133812427521,-0.04452706128358841,-0.09221681952476501,-0.049318015575408936,0.11203581094741821,0.039061032235622406,0.08759836107492447,0.05846944451332092,-0.47520866990089417,-0.301338791847229,0.15197862684726715,0.17082418501377106,0.18214643001556396,0.14042779803276062,-0.01721077971160412,0.08217386901378632,-0.15408828854560852,0.03207491710782051,0.048248291015625,-0.04313180595636368,0.07879634201526642,-0.11656538397073746,-0.13242340087890625,0.2759498655796051,-0.21748174726963043,-0.1563567817211151,-0.04867716506123543,-0.14095629751682281,-0.3382190465927124,-0.17102450132369995,-0.21509917080402374,-0.21213872730731964,-0.20383432507514954,-0.2073051780462265,0.11273209005594254,-0.12031012773513794,0.17069163918495178,-0.11943472921848297,-0.04333684593439102,0.2025391310453415,-0.07776609808206558,0.0707479864358902,0.2000831663608551,-0.21170400083065033,0.2882377803325653,-0.1480717658996582,0.8761306405067444,-0.23000623285770416,0.7332997918128967,0.22779950499534607,0.26088640093803406,-0.026532206684350967,-0.08256631344556808,1.1824653148651123,0.15020787715911865,-0.24429099261760712,-0.2569882571697235,0.1433812975883484,-0.07268679887056351,0.09269658476114273,-0.12384121865034103,0.023940585553646088,0.10981671512126923,0.19032049179077148,-0.16722285747528076,-0.017584623768925667,-0.15520042181015015,-0.1579577475786209,-0.43801480531692505,-0.1572590172290802,-0.06743904948234558,0.01501095574349165,-0.08015802502632141,-0.3268548250198364,0.21110254526138306,-0.1592695564031601,0.14852075278759003,-0.04727068915963173,-0.1586887240409851,0.10999834537506104,-0.05880492553114891,0.04358746483922005,-0.005435858853161335,0.030976813286542892,-0.10852441936731339,0.005029344465583563,0.4465548098087311,-0.0016629052115604281,-0.39662298560142517,-0.6133984327316284,-0.08488036692142487,0.0019628095906227827,-0.08479849994182587,0.5763631463050842,-0.28002601861953735,-0.0643656998872757,0.06466088443994522,0.22155775129795074,-0.06900643557310104,0.11742176115512848,0.07748603075742722,0.12987080216407776,-0.05800030007958412,0.0326792448759079,-0.012093313038349152,0.1273403763771057,0.12752285599708557,0.17721866071224213,-0.16724038124084473,-0.2197803109884262,-0.05989274010062218,0.05417541787028313,0.14352408051490784,0.7929418683052063,-0.20765022933483124,0.15042740106582642,0.05602472648024559,0.09990508109331131,0.1609024554491043,-0.08412808179855347,0.14220860600471497,-0.06566280126571655,-0.11639026552438736,-0.13461485505104065,0.13149185478687286,0.16568826138973236,0.22580166161060333,0.12017714232206345,-0.4564150273799896,-0.26291921734809875,0.10238727182149887,0.11863481998443604,0.15675461292266846,0.17064234614372253,-0.05161401256918907,0.07430923730134964,-0.15711809694766998,0.08189070969820023,0.1251763105392456,-0.03450898826122284,0.0983675941824913,-0.06060633435845375,-0.16583557426929474,0.09709769487380981,0.04487372189760208,-0.0338844396173954,-0.05250132456421852,-0.06796004623174667,-0.4214729964733124,-0.18439450860023499,-0.041367799043655396,-0.03263886645436287,0.01912570744752884,-0.25971749424934387,0.0703137144446373,-0.022144658491015434,-0.07508992403745651,-0.11182744801044464,-0.04844870790839195,-0.06530258059501648,-0.08356025069952011,0.0024847083259373903,0.016906607896089554,0.040352802723646164,0.04039017856121063,0.02652849443256855,-0.03598741069436073,-0.04235805198550224,-0.4515449106693268,-0.2850627899169922,0.06316342204809189,0.019540634006261826,-0.017226682975888252,-0.2469852715730667,0.03981546685099602,0.054373160004615784,-0.025764120742678642,-0.09400057792663574,0.003868177067488432,-0.07107044011354446,-0.032370153814554214,-0.03373872861266136,0.03249490633606911,-0.2986375689506531,0.4572581946849823,-0.3448786437511444,1.4851704835891724,0.03114420920610428,0.3640405535697937,0.3301490843296051,0.2706112861633301,-0.3142695426940918,-0.07525597512722015,0.5050869584083557,-0.162277951836586,-0.22855030000209808,-0.5805435180664062,0.30232736468315125,0.01974627934396267,0.3753602206707001,-0.11046040058135986,-0.016090255230665207,0.31901898980140686,0.15770283341407776,-0.007465047296136618,-0.09512316435575485,0.49460744857788086,0.15196582674980164,-0.22942353785037994,-0.1962374448776245,-0.13245882093906403,-0.037208106368780136,0.02282189205288887,1.0200152397155762,-0.033583737909793854,-0.015571308322250843,-0.15732574462890625,0.22798514366149902,0.11746921390295029,0.10935589671134949,0.06963550299406052,0.0026415495667606592,0.13229681551456451,0.12093712389469147,-0.12356004118919373,-0.03382071107625961,0.06744194775819778,-0.08486294001340866,-0.4081062078475952,-0.22828055918216705,-0.06778156012296677,-0.06275325268507004,-0.027784014120697975,0.3143882751464844,0.052635256201028824,-0.06212819367647171,0.013608066365122795,-0.04936249926686287,0.05666737258434296,0.05499894171953201,-0.11493634432554245,0.06573697924613953,0.13336901366710663,-0.03923630714416504,0.15555307269096375,-0.002500469796359539,0.06232355907559395,0.04953387379646301,-0.37746405601501465,-0.21897299587726593,0.13727787137031555,0.0756227970123291,0.09043905138969421,0.0201882217079401,0.030193807557225227,-0.009821769781410694,-0.023900851607322693,0.036210477352142334,0.04532371833920479,-0.0012853441294282675,0.004324080888181925,-0.1596928834915161,-0.07063900679349899,0.036498572677373886,0.1077134907245636,0.0009593573049642146,0.7087478637695312,-0.008884690701961517,0.14499980211257935,0.07306522876024246,0.008172227069735527,-0.09967894107103348,0.022718707099556923,1.4130274057388306,-0.15816061198711395,0.024698207154870033,-0.08974627405405045,0.3243239223957062,0.06780432164669037,0.05381469428539276,-0.04025560989975929,0.026883520185947418,0.02980133332312107,0.21921679377555847,-0.11090290546417236,-0.009098515845835209,-0.09168652445077896,-0.08623026311397552,-0.4416525065898895,-0.22665448486804962,-0.03736521303653717,-0.04874918609857559,-0.060397904366254807,-0.2985263466835022,0.15203812718391418,-0.03562743961811066,0.0862317904829979,-0.0609697550535202,-0.011446132324635983,0.0469934344291687,-0.12437545508146286,0.08522605895996094,0.05416285991668701,0.5362264513969421,-0.5543886423110962,-0.23199042677879333,-0.22657620906829834,-0.1071627289056778,-0.3104177713394165,-0.23400713503360748,-0.4965500831604004,-0.13484880328178406,-0.1651681661605835,-0.22203446924686432,0.12977951765060425,-0.26726213097572327,0.18490521609783173,-0.2628689110279083,-0.09713435173034668,0.22336572408676147,-0.25115421414375305,0.23749281466007233,0.17004096508026123,0.2755914032459259,-0.20685650408267975,-0.11058557778596878,-0.073727086186409,-0.15995843708515167,-0.3711198568344116,-0.26398950815200806,-0.1886642426252365,-0.22169190645217896,-0.14058803021907806,0.04586891457438469,0.16853009164333344,-0.10979166626930237,0.08128699660301208,-0.18024280667304993,-0.049414534121751785,0.1540936380624771,-0.06638228893280029,0.16162091493606567,0.2585124671459198,0.07785456627607346,0.01639758236706257,0.0187007337808609,0.1072433739900589,0.09455552697181702,-0.512427806854248,-0.15489232540130615,0.009087338112294674,0.06133444607257843,0.05101332440972328,-0.18217810988426208,0.09964102506637573,-0.04249970614910126,-0.1369524896144867,-0.024878347292542458,-0.0011846903944388032,-0.0619375966489315,0.06888720393180847,-0.05836020037531853,-0.0830523893237114,0.11681146919727325,-0.017199067398905754,0.004248494282364845,-0.047539662569761276,0.023112507537007332,-0.49730411171913147,-0.28521519899368286,0.06909368187189102,-0.05447670817375183,0.02579484134912491,-0.3660394847393036,0.08772771060466766,-0.05617498233914375,-0.02060724049806595,-0.05448034033179283,-0.020192112773656845,0.08411476761102676,-0.044704556465148926,-0.07484281808137894,0.03229362517595291]},"forgetBias":{"rows":20,"columns":1,"weights":[0,0,0,0,0,0,0,0,0,0,0,0,0,0,0,0,0,0,0,0]},"outputMatrix":{"rows":20,"columns":20,"weights":[-0.5678727030754089,-0.30000123381614685,-0.27271685004234314,0.530038595199585,0.27807459235191345,0.336769163608551,-0.22279974818229675,0.6262714862823486,0.24889352917671204,-0.1766754537820816,0.5494868159294128,-0.5626642107963562,-0.052539195865392685,-0.30385810136795044,-0.4907817840576172,0.32291319966316223,0.3219906985759735,0.26128339767456055,0.5946915149688721,-0.19954800605773926,-0.739595890045166,-0.23229846358299255,-0.19323153793811798,0.6784718036651611,0.20463036000728607,0.36529383063316345,-0.1412617415189743,0.8075065016746521,0.17372138798236847,-0.23934830725193024,0.5690983533859253,-0.5943710803985596,-0.3662210702896118,-0.30134645104408264,-0.6612898707389832,0.1688644289970398,0.15076154470443726,0.17488133907318115,0.579247772693634,-0.14775294065475464,-0.23117683827877045,-0.48644116520881653,-0.4652146100997925,0.23183748126029968,0.39454206824302673,0.5403801798820496,-0.3780336081981659,0.3713591396808624,0.3947950005531311,-0.4254334568977356,0.36724522709846497,-0.24834439158439636,-0.06514814496040344,-0.6116364598274231,-0.2236182689666748,0.5006192326545715,0.45760378241539,0.32806631922721863,0.301848441362381,-0.36988627910614014,0.11592298746109009,-0.878429651260376,-0.9934415817260742,-0.15768498182296753,0.5235492587089539,1.134223461151123,-0.9443526268005371,0.04609404131770134,0.48198115825653076,-0.7205243110656738,-0.026336083188652992,0.1318477839231491,1.3107293844223022,-1.0591719150543213,-0.059184178709983826,-0.320663720369339,0.5793064832687378,-0.13448238372802734,0.07506754249334335,-0.3780030608177185,-0.3823816478252411,-0.3730792701244354,-0.4099920392036438,0.3782666027545929,0.34013116359710693,0.5590169429779053,-0.34987673163414,0.447945237159729,0.3175964653491974,-0.3891114294528961,0.30724218487739563,-0.2595393657684326,0.26841193437576294,-0.5955135226249695,-0.16827474534511566,0.4407433867454529,0.43043234944343567,0.2959587275981903,0.26582959294319153,-0.34556660056114197,0.16154959797859192,0.8848139047622681,0.16389702260494232,-0.14976848661899567,-0.6287297010421753,0.17719516158103943,1.2242504358291626,-0.22741934657096863,-1.2091623544692993,0.428295373916626,-0.0681084543466568,0.169126957654953,1.0152993202209473,-0.013010452501475811,0.07362683862447739,-0.2817257046699524,-1.0997017621994019,-1.3863736391067505,-0.13365526497364044,0.3601040244102478,0.4345647990703583,0.598619818687439,0.3151450753211975,-0.36319759488105774,-0.27755653858184814,-0.17043201625347137,0.6747524738311768,-0.5461218357086182,-0.5811266899108887,0.3454502820968628,-0.23746958374977112,0.3255872130393982,-0.2408512830734253,-0.3456313908100128,0.24766388535499573,0.4519343078136444,-0.5807997584342957,-0.371640145778656,-0.2994517385959625,-0.19468818604946136,-0.5961906313896179,-0.21722909808158875,-0.2120935618877411,0.6072143912315369,0.3719688951969147,0.4273311495780945,-0.09394154697656631,0.6732906699180603,0.31702694296836853,-0.33179017901420593,0.595208466053009,-0.5879104137420654,-0.15966694056987762,-0.25990521907806396,-0.6404700875282288,0.3020014464855194,0.2714349031448364,0.15320080518722534,0.6359557509422302,-0.21984833478927612,-0.35085728764533997,-0.4671937823295593,-0.45588985085487366,0.36052030324935913,0.391898512840271,0.47423964738845825,-0.496366947889328,0.24870195984840393,0.38057345151901245,-0.3838430345058441,0.3746316134929657,-0.2636028230190277,-0.05595605447888374,-0.5763540863990784,-0.3420284390449524,0.38634389638900757,0.4202476739883423,0.3952018618583679,0.39592206478118896,-0.45442938804626465,-0.5400664210319519,-0.4521181881427765,-0.2994075417518616,0.5144835710525513,0.25454920530319214,0.520301103591919,-0.35476425290107727,0.5193004012107849,0.25188419222831726,-0.3658234775066376,0.4353281855583191,-0.3846133351325989,-0.22381141781806946,-0.40388837456703186,-0.47284528613090515,0.25043848156929016,0.3548426926136017,0.14275161921977997,0.5080497860908508,-0.2391371726989746,0.5924893021583557,-0.3384116590023041,-0.4824957549571991,-0.5246082544326782,0.8605896234512329,0.9673857688903809,-0.3945554196834564,-0.5987087488174438,0.27576735615730286,-0.8441377878189087,-0.6360152363777161,0.6718873381614685,2.18887996673584,-1.4060873985290527,0.8195852041244507,-0.18862800300121307,-0.10064847022294998,-0.2942621409893036,-0.654591977596283,-1.3427549600601196,-0.12879233062267303,-0.4192832410335541,-0.5212388038635254,0.1640591323375702,0.43795329332351685,0.6138787269592285,-0.4134538173675537,0.16102440655231476,0.3201294541358948,-0.45194894075393677,0.15187190473079681,-0.11626298725605011,0.9251741170883179,-0.657921314239502,-0.1973268985748291,0.3521423935890198,0.3498630225658417,0.04676840081810951,0.2034989297389984,-0.5342000722885132,-0.14687366783618927,-0.4314880967140198,-0.4492265582084656,0.20320971310138702,0.34305471181869507,0.6109235286712646,-0.42144596576690674,0.23517949879169464,0.3220471441745758,-0.48761218786239624,0.1890612095594406,-0.21596041321754456,0.2689421474933624,-0.582572340965271,-0.28320837020874023,0.4766311049461365,0.3278501331806183,0.221224844455719,0.24130502343177795,-0.439256876707077,-0.7255457639694214,-0.23720884323120117,-0.2290402203798294,0.6289730072021484,0.21886800229549408,0.340743750333786,-0.1510276198387146,0.7073203325271606,0.16100098192691803,-0.23298750817775726,0.48652005195617676,-0.49612322449684143,-0.1478298157453537,-0.21258047223091125,-0.42891067266464233,0.30484116077423096,0.2775540351867676,0.18827266991138458,0.500170886516571,-0.11216922104358673,-0.08651800453662872,-0.5133246779441833,-0.6436663269996643,0.10260310769081116,0.41742485761642456,0.8578169345855713,-0.49005067348480225,0.12635233998298645,0.3334271311759949,-0.5880349278450012,0.14370371401309967,-0.04585228115320206,1.0623910427093506,-0.914247989654541,-0.3014478385448456,0.1817859560251236,0.3107421100139618,-0.04945550486445427,0.15098029375076294,-0.4983157515525818,-0.3260481357574463,-0.47211700677871704,-0.4212905466556549,0.3731330931186676,0.39449983835220337,0.629308819770813,-0.42223721742630005,0.43788039684295654,0.32321012020111084,-0.4505520761013031,0.35861366987228394,-0.3574084937572479,0.21570976078510284,-0.5265735387802124,-0.37804144620895386,0.3820766508579254,0.39006176590919495,0.28074878454208374,0.34727340936660767,-0.47064220905303955,-0.25976985692977905,-0.5899761915206909,-0.6144217252731323,0.20093902945518494,0.4457049071788788,0.5860358476638794,-0.5541229248046875,0.22772464156150818,0.4285697340965271,-0.4552339017391205,0.2925125062465668,-0.19183053076267242,0.08183550089597702,-0.7335689663887024,-0.32300466299057007,0.443833589553833,0.485230416059494,0.30082187056541443,0.3829578459262848,-0.4327682852745056,-0.18107719719409943,-0.4990370571613312,-0.4774436354637146,0.25357586145401,0.3931027948856354,0.5488677024841309,-0.42047616839408875,0.2297777682542801,0.3579091727733612,-0.39941781759262085,0.2730312943458557,-0.14178211987018585,0.2026352733373642,-0.5152339339256287,-0.18598757684230804,0.358553409576416,0.4166385233402252,0.3156639337539673,0.2890945076942444,-0.35783928632736206,-0.4572127163410187,-0.4690038561820984,-0.3276253640651703,0.5637223124504089,0.30450665950775146,0.4644358158111572,-0.3550884425640106,0.5529462695121765,0.32532989978790283,-0.3091723620891571,0.5740597248077393,-0.41889452934265137,-0.19251982867717743,-0.4048781394958496,-0.4789203405380249,0.336796373128891,0.30792760848999023,0.26972877979278564,0.6026055812835693,-0.33751288056373596,-0.39083048701286316,-0.49953562021255493,-0.4239756464958191,0.4463680684566498,0.40439659357070923,0.4889250099658966,-0.4523398280143738,0.42129436135292053,0.3652341961860657,-0.37264350056648254,0.4160926342010498,-0.34160423278808594,-0.1569264829158783,-0.4976328909397125,-0.5359567999839783,0.2501573860645294,0.2990107536315918,0.3189130127429962,0.47306597232818604,-0.3332282602787018]},"outputHidden":{"rows":20,"columns":20,"weights":[-0.18103964626789093,0.06375888735055923,0.059065431356430054,0.23658795654773712,0.07009326666593552,-0.45854559540748596,-0.2449270635843277,0.05129110813140869,0.07524670660495758,0.14705565571784973,0.045400429517030716,-0.05227107182145119,0.08705543726682663,-0.13680897653102875,0.14654852449893951,0.08125633746385574,-0.13948355615139008,0.12805239856243134,-0.06808784604072571,-0.08520438522100449,-0.08206897228956223,0.030307231470942497,0.0794600397348404,0.1519494652748108,0.13529780507087708,-0.34552228450775146,-0.17558081448078156,0.14650368690490723,0.07921882718801498,0.159850612282753,-0.19412799179553986,-0.10383912920951843,0.12230103462934494,-0.1363500952720642,0.12358366698026657,0.1692637950181961,-0.06429622322320938,0.05476893484592438,-0.10824856162071228,-0.051200464367866516,0.21544742584228516,-0.36393359303474426,-0.24663926661014557,-0.2552073001861572,-0.2584461569786072,-0.4612618386745453,-0.3064776659011841,-0.34006258845329285,-0.26408645510673523,-0.14164485037326813,-0.2281324714422226,0.2341824173927307,-0.2856500744819641,0.18309909105300903,-0.19419337809085846,-0.20297466218471527,0.23683428764343262,-0.3083272874355316,0.26923424005508423,0.274939626455307,0.04158790782094002,0.16490736603736877,-0.0959613099694252,0.503365695476532,0.12807835638523102,0.2206924855709076,0.07773146778345108,0.11733939498662949,-0.08113846182823181,0.110409677028656,0.04562486335635185,-0.11067229509353638,0.02163107506930828,-0.14945755898952484,0.15704941749572754,0.08116579055786133,0.03772387281060219,-0.0403672493994236,-0.06250714510679245,0.1255994290113449,0.20938138663768768,-0.2107173502445221,-0.1304890215396881,-0.1030433252453804,-0.11199682950973511,-0.5157400369644165,-0.3210670053958893,-0.25278016924858093,-0.061813678592443466,-0.07263710349798203,-0.29166945815086365,0.13409371674060822,-0.10870098322629929,0.09511250257492065,-0.19975702464580536,-0.1239054799079895,0.13453693687915802,-0.13209471106529236,0.18135634064674377,0.1191643550992012,-0.08381865918636322,0.18043318390846252,0.008278686553239822,0.5131598711013794,0.152535080909729,-0.02141164056956768,-0.41406238079071045,0.08400644361972809,-0.0529886893928051,0.1133071780204773,0.6283020973205566,-0.3338216543197632,0.11014517396688461,-0.13413645327091217,0.26047417521476746,0.20486916601657867,0.0033852506894618273,0.08261309564113617,0.016341224312782288,-0.012668249197304249,-0.11135075241327286,0.08031637966632843,0.4404923915863037,0.4412386417388916,0.49358224868774414,0.2192215472459793,-0.13453908264636993,0.1678323745727539,0.3962549865245819,0.34296539425849915,0.7112005352973938,-0.49745458364486694,0.505372166633606,-0.3942951261997223,0.6431661248207092,0.48956355452537537,-0.47251686453819275,0.41232019662857056,-0.2086910605430603,-0.20447242259979248,-0.113322913646698,0.06608397513628006,0.13577474653720856,0.17956700921058655,0.2030358463525772,-0.34778493642807007,-0.12222038209438324,0.10466405004262924,0.14073224365711212,0.10603576898574829,0.028147879987955093,-0.07740864902734756,0.1930110901594162,-0.12755589187145233,0.1838594526052475,0.1341421753168106,-0.00877564400434494,0.1348024606704712,-0.06421488523483276,-0.04687761142849922,0.05382697656750679,-0.06252425163984299,-0.13134008646011353,-0.18348899483680725,-0.14300437271595,-0.4650244414806366,-0.31599733233451843,-0.06298655271530151,-0.08981889486312866,-0.11057452112436295,-0.21969063580036163,0.21312735974788666,-0.19931893050670624,0.05073167011141777,-0.168523371219635,-0.02601028047502041,0.11622828990221024,-0.19804014265537262,0.0037472599651664495,0.05902187153697014,-0.02268761768937111,0.09157758206129074,-0.10314031690359116,0.19014912843704224,-0.09213915467262268,-0.4522424042224884,-0.3517564833164215,0.13900579512119293,0.0030762706883251667,0.09772220999002457,-0.19162620604038239,0.15696506202220917,-0.05653020367026329,-0.07636423408985138,-0.1251898556947708,-0.09546166658401489,0.09105584770441055,-0.16208381950855255,0.04085332527756691,-0.030901167541742325,-0.2198827713727951,0.37949320673942566,-0.6132511496543884,0.9348440766334534,0.24642951786518097,0.8153581619262695,0.43367671966552734,0.03425205871462822,-0.6331186890602112,0.09421062469482422,-0.04236334562301636,0.20414990186691284,-0.08093138784170151,-0.5808976888656616,-0.04981046915054321,0.2581058740615845,0.5651276111602783,-0.24267271161079407,0.02839600294828415,0.5269972681999207,0.2199869453907013,-0.17780087888240814,-0.10861165076494217,0.38611534237861633,0.14555461704730988,-0.2948571443557739,-0.18155157566070557,-0.14476417005062103,-0.13534896075725555,-0.019590727984905243,0.31875938177108765,-0.06637690961360931,0.10727854073047638,-0.057933006435632706,0.23538120090961456,0.27623817324638367,0.24228748679161072,-0.03015448898077011,0.19382059574127197,0.2816234230995178,0.26787105202674866,-0.29601621627807617,-0.1354745626449585,-0.18278160691261292,-0.05998259782791138,-0.3354634642601013,-0.2836254835128784,-0.18537388741970062,-0.21121205389499664,-0.07492536306381226,-0.3744979500770569,0.23037028312683105,-0.1661330610513687,0.16625714302062988,-0.21413253247737885,-0.12428007274866104,0.1377342790365219,-0.10810618102550507,0.10594001412391663,0.24483342468738556,0.005520004779100418,0.11776622384786606,0.11637045443058014,-0.00041033868910744786,-0.03065836802124977,-0.46619492769241333,-0.2390977293252945,0.13887552917003632,0.07845942676067352,0.017996158450841904,-0.3917412757873535,-0.03356793895363808,0.04835997894406319,-0.15887370705604553,0.028547976166009903,0.098049096763134,-0.05960123986005783,0.02064182236790657,-0.11720617115497589,-0.1296059936285019,0.13774722814559937,0.033578675240278244,-0.15789639949798584,0.6414255499839783,0.10718735307455063,-0.2327766865491867,-0.11468008905649185,-0.07391656190156937,-0.2271079421043396,0.07360409200191498,0.344842791557312,-0.17913711071014404,0.09172943979501724,-0.16907496750354767,0.2957230508327484,0.2078888714313507,0.08794619888067245,0.0338953360915184,0.014552184380590916,0.14417508244514465,0.1352374255657196,-0.22683338820934296,-0.22271628677845,-0.15703366696834564,-0.19032512605190277,-0.48788949847221375,-0.3456012010574341,-0.24061545729637146,-0.11144015192985535,-0.06217757612466812,-0.4626167416572571,0.06502467393875122,-0.10807513445615768,0.09821724146604538,-0.24973046779632568,-0.201030433177948,0.2184300273656845,-0.13298186659812927,0.17344173789024353,0.19766297936439514,0.3861558139324188,-0.5166768431663513,-0.26412731409072876,-0.305204838514328,-0.24191386997699738,-0.4951745867729187,-0.41604867577552795,-0.3472297489643097,-0.2528392970561981,-0.26140373945236206,-0.43892788887023926,0.1724296510219574,-0.2392513006925583,0.22255633771419525,-0.2503432631492615,-0.24201001226902008,0.2860323488712311,-0.28115448355674744,0.1815309375524521,0.2422713190317154,0.2986311614513397,-0.30015501379966736,-0.2185574322938919,-0.15478713810443878,-0.1511857509613037,-0.41139882802963257,-0.2551431655883789,-0.28974515199661255,-0.32583901286125183,-0.2229180783033371,-0.3359749913215637,0.16326652467250824,-0.28885167837142944,0.3212437033653259,-0.20088410377502441,-0.17197094857692719,0.2778451144695282,-0.2685626745223999,0.3005882501602173,0.24323265254497528,-0.07136552035808563,0.12427911162376404,-0.006524498574435711,0.17965810000896454,0.007718853652477264,-0.49669164419174194,-0.39530736207962036,0.10877321660518646,-0.05622359737753868,-0.04960513487458229,-0.28493818640708923,0.08393951505422592,-0.09563052654266357,-0.12844102084636688,-0.12222860008478165,-0.02386530302464962,0.052901193499565125,-0.045166030526161194,0.010481325909495354,0.03607822209596634,0.015013660304248333,0.009975417517125607,-0.020308328792452812,0.16359570622444153,-0.041903216391801834,-0.4748702049255371,-0.27103379368782043,0.08906981348991394,-0.10119131207466125,0.028972892090678215,-0.16039258241653442,0.0478379912674427,-0.13325871527194977,0.0364224873483181,-0.16235454380512238,-0.0804523378610611,0.07194233685731888,-0.018118463456630707,0.0006424174644052982,0.08086493611335754]},"outputBias":{"rows":20,"columns":1,"weights":[-1.7485151290893555,-1.6598204374313354,-0.9428444504737854,0.6429632902145386,-0.28736722469329834,-0.1818474382162094,-0.7668977975845337,-1.8119893074035645,-0.918886125087738,-1.457404375076294,1.0756800174713135,0.4712948799133301,-0.5081261396408081,-1.0282055139541626,0.8343665599822998,-0.11823669821023941,-0.862006664276123,-0.6137167811393738,-2.063880205154419,-1.8767949342727661]},"cellActivationMatrix":{"rows":20,"columns":20,"weights":[0.5538026094436646,0.0887744352221489,0.10167890042066574,-0.6527471542358398,0.027227351441979408,-0.08110057562589645,0.03665817901492119,-0.535749614238739,-0.09865493327379227,0.12555554509162903,-0.3565710783004761,0.5868817567825317,0.47952741384506226,0.10715003311634064,0.5049164295196533,-0.26064959168434143,-0.030953414738178253,-0.10964787006378174,-0.39683738350868225,0.03985583037137985,-0.5349394679069519,-0.1569054126739502,-0.12461129575967789,0.5927155613899231,0.10287255793809891,0.1936703324317932,-0.07701542973518372,0.43936970829963684,0.028821557760238647,-0.1273767352104187,0.5215772390365601,-0.4945686161518097,0.16555161774158478,-0.15395356714725494,-0.46828892827033997,0.2737058103084564,0.10244323313236237,0.09538538008928299,0.41007211804389954,-0.15792009234428406,-0.5209734439849854,-0.08184609562158585,0.03376596048474312,0.5298904776573181,0.0994718074798584,-0.026948636397719383,-0.005968240089714527,0.473961740732193,0.03785252943634987,0.06894359737634659,0.44281086325645447,-0.5690019726753235,0.1119091808795929,-0.05895139276981354,-0.6016534566879272,0.16594016551971436,-0.008192208595573902,0.07386937737464905,0.41025280952453613,0.05351102352142334,-0.3928661346435547,-0.21818189322948456,-0.15315358340740204,0.4750678539276123,0.2111160308122635,0.14255884289741516,-0.25506559014320374,0.31863316893577576,0.32777607440948486,-0.23825053870677948,0.40836644172668457,-0.43018102645874023,0.22208808362483978,-0.18615983426570892,-0.2425195574760437,0.41896915435791016,0.37634751200675964,0.4379776418209076,0.33088552951812744,-0.3052534759044647,-0.536355197429657,-0.08508123457431793,-0.15567760169506073,0.4655642807483673,0.021264072507619858,0.1395031362771988,-0.05686545744538307,0.38316336274147034,0.1033446192741394,0.013913425616919994,0.5251845121383667,-0.555159330368042,0.4241317808628082,-0.013319527730345726,-0.5692278742790222,0.09484320878982544,0.016810106113553047,0.07549300044775009,0.48265716433525085,-0.10186535120010376,0.322133868932724,0.19432152807712555,0.2724912762641907,-0.34522801637649536,-0.26930662989616394,-0.20414528250694275,0.10314678400754929,-0.37405434250831604,-0.33585602045059204,0.23781931400299072,-0.2960250675678253,0.4079175889492035,0.02330329269170761,0.2003748118877411,0.28894010186195374,-0.4520973563194275,-0.5145394802093506,-0.38088297843933105,-0.2856540083885193,0.3141379654407501,-0.09699668735265732,1.0566537380218506,0.45733895897865295,0.10249689221382141,-0.7547955513000488,-0.04306965321302414,1.2864420413970947,0.08661451935768127,-1.1885032653808594,0.5084438323974609,0.11470457911491394,-0.1834617704153061,0.684605598449707,0.163837268948555,-0.05061669647693634,-0.3922920823097229,-1.0675482749938965,-1.2002521753311157,0.02991597354412079,0.4268585741519928,-0.5435664653778076,-0.13271726667881012,-0.11349635571241379,0.5997001528739929,0.07130155712366104,0.15581364929676056,0.007973027415573597,0.5163261294364929,0.07474236935377121,-0.02249208837747574,0.46095407009124756,-0.5397034287452698,-0.44636914134025574,-0.09355797618627548,-0.5448325276374817,0.139821395277977,0.1270853728055954,0.07120972126722336,0.47924306988716125,-0.03099556639790535,-0.41197577118873596,0.06773199141025543,-0.016431717202067375,0.5583165287971497,0.07675425708293915,-0.057135093957185745,0.08644896000623703,0.4254946708679199,-0.028578685596585274,0.017713231965899467,0.395682692527771,-0.4475488066673279,-0.020348425954580307,-0.06744351238012314,-0.5246559977531433,0.2650924026966095,0.10953894257545471,0.09224243462085724,0.2906082272529602,0.04466318339109421,-0.5017018914222717,-0.0996018722653389,-0.08363492041826248,0.5165964961051941,0.023099148645997047,0.08412659168243408,-0.0443301796913147,0.5221925973892212,0.10855387151241302,-0.07165605574846268,0.45901772379875183,-0.4853755235671997,0.36048197746276855,-0.059986576437950134,-0.5591461062431335,0.07527586072683334,0.09716472029685974,0.12150935083627701,0.4281735420227051,-0.15117758512496948,-0.33359426259994507,-0.48947304487228394,-0.20834136009216309,0.14253461360931396,0.5362839698791504,-0.0466076098382473,-0.6250154376029968,0.03791589289903641,0.8054170608520508,-0.2985837757587433,0.3333374261856079,-0.21239051222801208,-0.8305599093437195,-0.1274559646844864,-0.11219371110200882,0.8896445631980896,0.7710632085800171,1.2193297147750854,0.19145484268665314,-0.628588080406189,0.5488250255584717,-0.14360249042510986,-0.019396429881453514,-0.5047512650489807,-0.0670456662774086,0.0031556047033518553,0.05686556175351143,-0.553904116153717,-0.04934709891676903,0.071725033223629,-0.5420888662338257,0.5524327754974365,-0.3894687592983246,-0.05519333481788635,0.4841698110103607,-0.0722864493727684,0.01668318174779415,-0.12869752943515778,-0.4743126928806305,0.05545618385076523,-0.5536410212516785,-0.053512025624513626,-0.04654446244239807,0.5384171605110168,0.04745884984731674,-0.06419666856527328,0.026847219094634056,0.43872594833374023,0.12350878119468689,0.04429970681667328,0.48848724365234375,-0.4439678490161896,0.24068394303321838,0.042532455176115036,-0.515062153339386,0.0951453223824501,0.12323702871799469,0.0666254311800003,0.3212951123714447,0.017282700166106224,0.5641005039215088,0.0712028294801712,0.2301570624113083,-0.46069273352622986,-0.14175161719322205,-0.16945454478263855,0.043248143047094345,-0.3892146348953247,-0.20439986884593964,0.12275563180446625,-0.602182924747467,0.42194613814353943,-0.4147501587867737,0.21924863755702972,0.4300829768180847,-0.190358504652977,-0.06383932381868362,-0.2598581910133362,-0.48175615072250366,0.14719802141189575,-0.5633494853973389,0.05727369710803032,-0.08194908499717712,0.5218826532363892,0.07602772861719131,-0.10599681735038757,-0.019446248188614845,0.5302931666374207,0.005394783336669207,0.049251679331064224,0.5589780807495117,-0.6638671159744263,0.4272725284099579,0.11205080151557922,-0.5207421779632568,0.12076255679130554,0.10714127868413925,0.17519153654575348,0.46472814679145813,-0.15416915714740753,-0.5654427409172058,0.018895244225859642,-0.10874809324741364,0.4888359308242798,0.09252416342496872,0.13067850470542908,0.05222735181450844,0.39958783984184265,-0.008285725489258766,-0.07067602872848511,0.5266371965408325,-0.4872334599494934,0.583253026008606,-0.051874931901693344,-0.4837595820426941,0.17376677691936493,0.15899284183979034,0.18549302220344543,0.4147234857082367,-0.021587546914815903,0.47825366258621216,-0.06823285669088364,0.06004830449819565,-0.5924480557441711,-0.013788103125989437,-0.014964609406888485,0.05024852231144905,-0.5334557890892029,0.005849798209965229,0.004474688321352005,-0.501497209072113,0.5129033327102661,0.10910897701978683,-0.013141173869371414,0.5762102007865906,-0.17370525002479553,-0.003537879791110754,0.0034271853510290384,-0.49587398767471313,0.007102901116013527,-0.43589505553245544,0.021866079419851303,0.08041803538799286,0.5057526230812073,0.052813753485679626,-0.02008153684437275,0.12523525953292847,0.4435782730579376,-0.08697614073753357,-0.035024844110012054,0.4166496694087982,-0.5448405146598816,0.16951650381088257,-0.021659107878804207,-0.5536609888076782,0.207313671708107,0.08039267361164093,0.06552998721599579,0.4261907637119293,0.031449638307094574,0.5067924857139587,0.047325365245342255,0.07430114597082138,-0.5125095844268799,-0.06752277910709381,-0.1650077998638153,0.018659019842743874,-0.4368452727794647,-0.06430577486753464,0.04975912719964981,-0.46835505962371826,0.5715219378471375,0.12271933257579803,-0.032063234597444534,0.5768063068389893,-0.21713833510875702,-0.01777743548154831,-0.14027531445026398,-0.4216535985469818,-0.00006991335249040276,0.5060226917266846,0.052839454263448715,0.06189802289009094,-0.5224337577819824,0.016428876668214798,-0.05501597002148628,0.05580972880125046,-0.45226383209228516,-0.06090088561177254,-0.012777172029018402,-0.44058123230934143,0.5511901378631592,0.28417423367500305,0.0033635678701102734,0.4267286956310272,-0.2323186695575714,-0.12744282186031342,-0.048217225819826126,-0.42690303921699524,0.006671588867902756]},"cellActivationHidden":{"rows":20,"columns":20,"weights":[-0.042806461453437805,-0.08841995894908905,0.006562648806720972,-0.020209064707159996,0.058217037469148636,0.5090650320053101,0.348347008228302,-0.09588679671287537,-0.09060823917388916,-0.03495590016245842,-0.034392546862363815,-0.1000218316912651,0.03545166924595833,0.004766321275383234,-0.09054109454154968,0.039712436497211456,-0.024984583258628845,0.06009562686085701,0.05268247425556183,0.008304815739393234,0.16980811953544617,-0.1838936060667038,-0.14237874746322632,0.016000896692276,-0.13541626930236816,-0.46435052156448364,-0.4006953835487366,-0.16934891045093536,-0.13069956004619598,-0.10740997642278671,-0.09952007234096527,0.05112964287400246,-0.026862923055887222,0.17272648215293884,0.025144824758172035,-0.08051267266273499,0.15187209844589233,-0.014092222787439823,0.10632169991731644,0.15012623369693756,0.21877609193325043,-0.2226722687482834,-0.11627717316150665,-0.08404213190078735,-0.023385588079690933,-0.2915373146533966,-0.3278714716434479,-0.33556753396987915,-0.057411886751651764,-0.23654192686080933,-0.3639642596244812,0.05466127768158913,-0.05566168203949928,0.13997089862823486,-0.08209006488323212,-0.15353156626224518,0.1496947556734085,-0.09962467849254608,0.10552361607551575,0.21266399323940277,0.24525520205497742,-0.1367608904838562,-0.22223183512687683,0.39770588278770447,0.05219515040516853,-0.18452875316143036,-0.20267973840236664,-0.3319805860519409,-0.1522514373064041,-0.07147520035505295,1.2620646953582764,-0.00854873564094305,0.06191842257976532,-0.02913278341293335,0.24489328265190125,0.1412714123725891,0.20726488530635834,0.018570339307188988,0.22335697710514069,0.1496540904045105,0.22840233147144318,-0.11891141533851624,0.02780557982623577,-0.14336280524730682,-0.008313902653753757,-0.44959667325019836,-0.3587047755718231,-0.2504287362098694,-0.03912375122308731,-0.008519266732037067,-0.4197715222835541,-0.026744181290268898,0.03882818669080734,0.04238301143050194,-0.025077879428863525,-0.03225293383002281,0.04844452068209648,0.0347234345972538,0.13750624656677246,-0.0065407403744757175,-0.09625623375177383,0.08575349301099777,0.11511744558811188,0.1360914409160614,0.168899267911911,0.21373553574085236,0.2173665314912796,0.05994246155023575,0.04382399469614029,0.10618966072797775,0.3702189028263092,-0.1553979068994522,0.133073091506958,-0.15277546644210815,-0.0022326253820210695,0.057303596287965775,-0.06572935730218887,0.11549372971057892,-0.002479680348187685,-0.008800809271633625,-0.4304269552230835,0.39310821890830994,0.37975722551345825,0.5258126258850098,0.3872113823890686,-0.2649596929550171,-0.4253067374229431,0.5165969729423523,0.4343380928039551,0.385146826505661,0.6626157760620117,-0.37317678332328796,0.3233387768268585,-0.3076927959918976,0.38875511288642883,0.2944514751434326,-0.45379459857940674,0.38482871651649475,-0.49969682097435,-0.5313882231712341,0.05897222086787224,-0.008239681832492352,0.034782152622938156,0.08936680108308792,-0.035922423005104065,-0.4087824821472168,-0.48441141843795776,-0.05431607365608215,-0.033303797245025635,0.02607523649930954,0.011304743587970734,-0.03749701380729675,-0.02081458456814289,-0.0602186843752861,-0.060769855976104736,-0.023471703752875328,0.08995679765939713,0.040031276643276215,0.042239297181367874,0.07882166653871536,0.04215018451213837,-0.11135432869195938,0.03310307115316391,0.015064036473631859,-0.03855297714471817,-0.3743310868740082,-0.27565720677375793,-0.07676370441913605,-0.029361622408032417,-0.037542037665843964,-0.20169638097286224,0.0890333354473114,-0.005953550338745117,0.10018312931060791,-0.06987746059894562,-0.01504828967154026,0.05413123592734337,0.023859700188040733,0.10045681893825531,0.06663305312395096,0.1996050477027893,-0.12485699355602264,-0.02340228296816349,-0.09145043045282364,0.03908297047019005,-0.45335260033607483,-0.36624181270599365,-0.2187541276216507,-0.010894283652305603,-0.1537243127822876,-0.40329858660697937,0.010137630626559258,0.03626997023820877,0.11603589355945587,0.03298456221818924,-0.007811401970684528,0.08316123485565186,0.054244477301836014,0.054556287825107574,0.0515003465116024,0.40986526012420654,-0.2658865749835968,-0.4716717302799225,0.016544636338949203,-0.4366776943206787,0.17392878234386444,0.27581796050071716,-0.46928444504737854,-0.33118531107902527,-0.36805927753448486,-0.6825466156005859,0.41954928636550903,-0.30029740929603577,0.27290669083595276,-0.30033934116363525,-0.3596074879169464,0.4828220307826996,-0.32896220684051514,0.3654731512069702,0.3925485610961914,-0.09576569497585297,0.06634127348661423,-0.0528109036386013,-0.039805784821510315,-0.13931706547737122,0.4547711908817291,0.46268558502197266,0.189301997423172,0.012991721741855145,-0.0031803513411432505,0.01866023801267147,0.03152267634868622,-0.030376838520169258,-0.04918082430958748,-0.13828125596046448,-0.10062040388584137,0.05151476338505745,-0.06863883137702942,-0.039676133543252945,-0.08434318006038666,0.11216149479150772,-0.09874029457569122,-0.08958828449249268,-0.05637319013476372,0.02136407047510147,-0.3759293854236603,-0.3177013695240021,-0.23322953283786774,-0.09388012439012527,-0.022158490493893623,-0.20859593152999878,0.02803112007677555,-0.0016467677196487784,0.061499375849962234,-0.026803329586982727,-0.06528827548027039,0.06553965061903,0.06497591733932495,0.052408792078495026,0.01818646490573883,-0.23293998837471008,0.2056770771741867,0.08214309066534042,0.07805284857749939,0.043027620762586594,0.47122883796691895,0.46421101689338684,0.26904648542404175,0.040461257100105286,0.15045705437660217,-0.019170008599758148,-0.04505366459488869,0.06322043389081955,-0.07301532477140427,-0.007525055669248104,0.11110346764326096,-0.11175616830587387,0.11863508075475693,-0.026853816583752632,-0.012325865216553211,0.0647076815366745,0.015632690861821175,0.08270587772130966,0.12507399916648865,0.14152367413043976,-0.4020865261554718,-0.31064218282699585,-0.12791278958320618,0.03172829747200012,0.04090847820043564,0.21348094940185547,0.027640780434012413,0.08488330990076065,-0.10134752094745636,0.07300512492656708,0.10746821761131287,-0.031507354229688644,-0.0010194263886660337,0.04406438022851944,0.029170969501137733,0.08179843425750732,-0.09511012583971024,-0.01070050336420536,-0.05573487654328346,-0.05646305903792381,-0.3415781557559967,-0.4465981721878052,-0.12307723611593246,0.03242509067058563,-0.13977792859077454,-0.5310717225074768,-0.013318721204996109,0.08299660682678223,0.1421620100736618,-0.03175809234380722,-0.002159685594961047,-0.03633396700024605,0.024985196068882942,0.0659480094909668,0.010959900915622711,-0.2871303856372833,0.2611972987651825,0.04297413304448128,0.06726867705583572,-0.00358159770257771,0.4659028649330139,0.44287988543510437,0.18370482325553894,-0.0008038365049287677,0.14802388846874237,0.2498466670513153,-0.06941323727369308,0.12263620644807816,-0.20178094506263733,0.028900612145662308,0.09312473982572556,-0.12611976265907288,0.08979276567697525,-0.10866802930831909,-0.2040417641401291,0.22467312216758728,-0.08822701871395111,-0.11776118725538254,-0.0796506330370903,-0.1291283667087555,-0.42247065901756287,-0.3033668100833893,-0.192857563495636,-0.009075070731341839,-0.09080729633569717,-0.27686354517936707,0.13508178293704987,-0.07979092001914978,0.2040567696094513,-0.04337767884135246,-0.07651901990175247,0.05936014652252197,-0.085434690117836,0.06600863486528397,0.1405024379491806,-0.21770480275154114,0.0862082690000534,-0.02021748572587967,0.09950454533100128,0.03995417803525925,0.35716512799263,0.3191506862640381,0.237654447555542,-0.04077865183353424,0.01155366376042366,0.20309869945049286,-0.02607525885105133,0.040593042969703674,-0.029327670112252235,0.07502172887325287,0.08130253106355667,-0.13089410960674286,0.00829117838293314,-0.1387660801410675,-0.1265970766544342,-0.17202432453632355,0.008805764839053154,0.07150136679410934,0.1129707545042038,0.010615983046591282,0.4340093433856964,0.42672279477119446,0.14261379837989807,-0.04930354282259941,-0.030138283967971802,0.286886066198349,0.017683882266283035,-0.01050430815666914,0.028516871854662895,0.05792810022830963,0.051171280443668365,0.030442997813224792,-0.04951333627104759,-0.09656677395105362,-0.06181417033076286]},"cellActivationBias":{"rows":20,"columns":1,"weights":[0.43458184599876404,-0.32144108414649963,-0.16477026045322418,0.6215029358863831,0.47216272354125977,0.5133072733879089,0.5012176632881165,-0.6148205399513245,-0.344014048576355,-0.052837684750556946,0.5628991723060608,-0.9464945793151855,0.1847078502178192,-0.026148945093154907,0.9886422753334045,0.47448092699050903,-0.04586739465594292,0.12171438336372375,0.5641750693321228,0.644949734210968]}},{"inputMatrix":{"rows":20,"columns":20,"weights":[0.4779851734638214,-0.6681533455848694,-1.0045431852340698,-1.7694553136825562,-0.9868574738502502,0.23431333899497986,-0.11886497586965561,-0.461862713098526,-0.7988844513893127,-0.6651229858398438,-0.5490543842315674,1.2030079364776611,-1.1305290460586548,0.6804531216621399,-1.6540344953536987,-0.9364020228385925,1.1452773809432983,-0.9619393348693848,0.6084999442100525,0.5738351941108704,-0.013304172083735466,0.01918257400393486,0.5451639890670776,-0.03626814857125282,0.35757386684417725,0.6393141150474548,0.5715266466140747,0.041077401489019394,0.44790542125701904,0.21201276779174805,-1.7115046977996826,-0.4682546555995941,0.5016591548919678,-0.11675404757261276,0.387665331363678,0.2852013409137726,-0.3854221999645233,0.48344865441322327,-0.0771135687828064,-0.32095664739608765,0.44161099195480347,-0.5517159700393677,-0.25543105602264404,-0.22321756184101105,-0.6015055179595947,0.7877166271209717,1.0123891830444336,-0.2734062373638153,-0.11791174858808517,-0.6899988055229187,-1.2150574922561646,0.20741187036037445,-0.39290186762809753,0.4265006482601166,-0.2783271074295044,-0.6031684279441833,0.12262491881847382,-0.22928747534751892,0.6136832237243652,0.43693822622299194,-0.6953091025352478,0.9468389749526978,0.1719583421945572,0.6979181170463562,0.31893303990364075,0.3962633013725281,0.665930449962616,0.8746665120124817,0.18723349273204803,0.6700296401977539,2.7319140434265137,-0.07719559967517853,0.26616138219833374,-0.6850788593292236,0.2079586386680603,0.3339610993862152,-0.02263852208852768,0.044839952141046524,-0.8373637795448303,-0.6809097528457642,-0.2227664738893509,0.42184242606163025,-0.3857874274253845,1.1236320734024048,0.016208279877901077,1.0641690492630005,0.9059398174285889,0.23108242452144623,-0.2517906427383423,0.2960050404071808,2.081594705581665,0.18534041941165924,-0.14497217535972595,-0.49445074796676636,-0.07038429379463196,0.24896064400672913,0.5011966228485107,-0.37622717022895813,-0.14048980176448822,0.15839296579360962,-1.6315637826919556,1.732244610786438,-0.641035258769989,-0.21814922988414764,-0.36942461133003235,-0.050729069858789444,-0.05130911245942116,1.7298433780670166,-0.3249020278453827,0.6809865832328796,-1.5552074909210205,1.31609308719635,-0.6262599229812622,-1.4590951204299927,-1.8071520328521729,-0.24514172971248627,0.8569604754447937,-0.679559588432312,-1.1892777681350708,-0.7006327509880066,0.11795936524868011,-0.10921526700258255,-0.040548745542764664,-0.27551183104515076,-0.4721352458000183,1.3500115871429443,1.1232151985168457,-0.12159078568220139,0.10899440944194794,-0.2966754138469696,0.2884741425514221,0.2605893015861511,-0.3102262318134308,0.27600494027137756,-0.26631787419319153,-0.5110706686973572,0.11305124312639236,-0.2999475300312042,0.045424237847328186,-0.04071658477187157,0.3164561092853546,-0.6046615242958069,-0.7336585521697998,-0.07165761291980743,-1.0106899738311768,-0.07939242571592331,0.30767735838890076,-0.1492764800786972,-0.6002742052078247,-0.7401971220970154,1.5992296934127808,0.766068160533905,-1.0337059497833252,0.5632303357124329,-0.8107276558876038,-1.0485395193099976,0.8299955129623413,-0.9889460206031799,0.28065213561058044,0.1450701206922531,-0.534754753112793,0.8652797341346741,0.15949568152427673,1.3630222082138062,0.9200958013534546,1.0734096765518188,0.4064341187477112,0.601984441280365,-0.15901058912277222,1.341935396194458,0.9363479018211365,0.03654782101511955,0.3103489875793457,-1.0932731628417969,0.07678208500146866,1.3709442615509033,0.3390224277973175,0.12877397239208221,-0.8799594044685364,-0.6905010938644409,0.0921051874756813,-0.0141904940828681,-0.8530504703521729,2.0033888816833496,-0.07445377856492996,0.44225412607192993,1.1143622398376465,-0.21275374293327332,-0.6613537073135376,-0.05104674771428108,4.09765625,0.41740477085113525,-0.5338771939277649,-0.2980157136917114,0.13518665730953217,-0.13602331280708313,1.0256779193878174,-0.7620659470558167,0.17124474048614502,0.31436434388160706,-1.1275120973587036,0.8978778123855591,0.18371401727199554,-0.17733420431613922,-0.5004146099090576,1.3926794528961182,1.8957210779190063,1.4218831062316895,0.6030693650245667,0.14459189772605896,1.4875816106796265,0.30698007345199585,-0.34017086029052734,-0.2417958527803421,-0.11239317059516907,-0.4095901846885681,0.020428696647286415,-0.4327564537525177,-1.0691574811935425,-1.2816094160079956,-0.5967773199081421,0.5794032216072083,0.94562166929245,-0.5185420513153076,0.3843736946582794,-0.041032034903764725,-1.105654239654541,0.7071322798728943,0.8241464495658875,0.8384739756584167,-1.0714564323425293,0.10917554050683975,0.3468790352344513,-0.4502965807914734,-0.3363173007965088,0.23490895330905914,-0.9129934310913086,0.6218904852867126,-1.06105375289917,-1.2238037586212158,-0.701259195804596,0.9505347609519958,0.18320325016975403,3.432797908782959,0.8292509913444519,-0.27787894010543823,-0.6515582799911499,0.5864685773849487,0.4433855712413788,1.2802684307098389,1.5879755020141602,-1.4812225103378296,0.7127000093460083,-0.8080609440803528,2.3781321048736572,0.7625831365585327,-0.28134700655937195,0.539927065372467,-1.2823069095611572,-1.0637824535369873,-1.5398577451705933,1.1972588300704956,-0.01611887291073799,-0.7053133249282837,-0.1311565488576889,0.2022884488105774,0.7044324278831482,1.6475521326065063,0.459654837846756,0.4553058445453644,1.7485673427581787,0.35476982593536377,-0.04640995338559151,-0.6591920256614685,-0.43743011355400085,-0.15652671456336975,0.10853743553161621,-0.2566082775592804,-1.2151926755905151,-1.0500264167785645,0.03992430865764618,-0.3877606689929962,-0.05812187120318413,-0.41316133737564087,-0.38689643144607544,0.008046268485486507,0.4217037856578827,-0.06259418278932571,0.11929164081811905,-0.49461326003074646,-0.41997551918029785,0.2624609172344208,-0.13867658376693726,0.39424067735671997,-0.275925874710083,-0.5563673973083496,-0.17298541963100433,-0.21790489554405212,0.22041237354278564,0.09863660484552383,-1.4715123176574707,1.5639749765396118,0.5927234292030334,0.08046049624681473,0.06951165199279785,0.23434941470623016,0.11357022076845169,1.9531866312026978,0.6536048054695129,0.7491080164909363,-1.429004430770874,0.08398688584566116,0.06160619854927063,-1.0805165767669678,-0.1303935945034027,0.0383094847202301,-0.6529547572135925,0.14983436465263367,-1.4377866983413696,-1.0742905139923096,-0.23498967289924622,0.19717180728912354,0.3652786314487457,0.4613869786262512,0.3991464674472809,0.356550395488739,0.48175978660583496,0.21377500891685486,0.4373258352279663,0.2644488215446472,0.42593055963516235,-0.8016725182533264,0.4807966351509094,-0.29631736874580383,0.6930723786354065,0.2577625811100006,-0.27882635593414307,0.4832576811313629,-0.24746261537075043,-0.19423802196979523,0.4631173610687256,-0.6595316529273987,-0.7818589806556702,-0.5343338847160339,-0.8103448748588562,0.10431011766195297,0.157693013548851,-0.40900561213493347,-0.704452633857727,-0.8306045532226562,-0.5950156450271606,0.727587103843689,-0.7834471464157104,0.5633699893951416,-0.8722999691963196,-0.7918193936347961,0.6961454153060913,-0.6412011981010437,0.7754946947097778,0.8850004076957703,-1.2017195224761963,1.2822916507720947,0.11502765864133835,1.051635980606079,0.21982988715171814,-0.4382041394710541,-0.018339280039072037,1.2530955076217651,0.13915975391864777,0.6751573085784912,1.9159075021743774,0.3643668293952942,-0.10027521848678589,-1.1870516538619995,-0.3883867859840393,0.2110559195280075,0.30169761180877686,-0.1268424093723297,-0.9192869067192078,-0.5961968302726746,-0.37773409485816956,0.35787883400917053,-0.44114527106285095,-0.018881909549236298,0.009650121442973614,-0.058105479925870895,0.9521545767784119,0.34456881880760193,-0.19174012541770935,0.10372354090213776,3.9375503063201904,0.3436446189880371,-0.1378021389245987,-0.32855239510536194,-0.2921607196331024,0.01566903479397297,0.6892545819282532,-0.407846063375473,-0.0995577871799469,0.015424136072397232]},"inputHidden":{"rows":20,"columns":20,"weights":[0.091839998960495,-0.20779068768024445,0.06971249729394913,-0.6267455220222473,-1.6547220945358276,0.5591632127761841,-0.9247642755508423,-0.2058350294828415,-0.4975222647190094,0.9916954636573792,2.163165807723999,-0.18446514010429382,-0.2290593832731247,-0.5161974430084229,-0.2585366666316986,1.0987485647201538,0.14205782115459442,-1.3718321323394775,1.1542893648147583,-1.5548516511917114,-0.598064661026001,0.10659318417310715,-0.3502989411354065,0.013480407185852528,-0.7369223237037659,-0.21529793739318848,0.4453968405723572,0.648286759853363,-2.581522226333618,-1.0206694602966309,0.22184935212135315,-0.5602363348007202,-0.26401349902153015,-1.4072247743606567,-0.5917518138885498,-0.371968150138855,0.5275556445121765,-0.131417915225029,0.19920989871025085,1.312072515487671,0.14602647721767426,-0.2923753261566162,-1.1546530723571777,0.22483500838279724,0.031330302357673645,0.4538310468196869,-1.7498316764831543,0.1541786938905716,0.15902534127235413,-1.2531647682189941,-0.3478454649448395,-0.8658101558685303,-1.488147497177124,0.3379891812801361,-0.3891634941101074,1.005707025527954,1.2715506553649902,-0.327524870634079,0.37367746233940125,0.17315341532230377,-1.287540316581726,-1.8932996988296509,0.5614034533500671,-0.23315979540348053,-1.5610042810440063,0.029582450166344643,-0.25536689162254333,-0.5673341155052185,-0.8772851228713989,-2.790659189224243,0.10202232003211975,1.8509076833724976,-1.7221993207931519,-0.6111512780189514,0.979869544506073,0.9642571210861206,2.9713940620422363,-0.6324265003204346,-0.7972033023834229,-0.060404419898986816,0.0022153742611408234,-1.8209501504898071,-0.038971129804849625,-0.1449984610080719,-1.4368102550506592,1.1701360940933228,-0.5969808101654053,-0.7284042835235596,-0.9986966252326965,-0.21475327014923096,1.438754677772522,-0.5741053223609924,-0.188616544008255,-0.0982944667339325,0.7176279425621033,1.8795613050460815,1.8741636276245117,-0.9604027271270752,-0.041501130908727646,-0.20723488926887512,0.09768222272396088,0.22242821753025055,3.191891670227051,-0.11336985975503922,0.9542011618614197,1.579887866973877,-0.17289483547210693,-1.8984205722808838,-0.7831909656524658,0.6239022016525269,0.29544833302497864,-0.5674272775650024,-1.799535870552063,0.6943241357803345,1.7140860557556152,0.2271834760904312,-0.34642302989959717,-1.2225056886672974,-0.38020437955856323,0.12158948928117752,0.7878392338752747,-1.9390281438827515,-0.7026597261428833,0.3331870436668396,0.5951675176620483,0.4604952931404114,0.7871257066726685,0.5498807430267334,-2.5324349403381348,-0.29984405636787415,-0.24403268098831177,0.5305715799331665,-0.5058982968330383,-1.677582025527954,-0.3025648891925812,0.7582741975784302,1.5897719860076904,-0.2957611382007599,0.4547295570373535,-0.9975404143333435,0.25962579250335693,-0.613857090473175,-1.3224163055419922,-0.27959534525871277,0.06452414393424988,-0.05646238476037979,-1.591256856918335,-0.23457662761211395,1.2382992506027222,-0.13862952589988708,0.008978959172964096,-0.1895378977060318,-0.5561641454696655,0.738746702671051,-0.34060439467430115,0.29842743277549744,0.36405637860298157,0.3980506956577301,-0.39357924461364746,0.5438685417175293,-1.575684666633606,-0.29780468344688416,0.9663220047950745,-1.1263850927352905,0.7600042223930359,1.5961647033691406,2.132871627807617,-1.4962035417556763,-1.419499158859253,1.5413844585418701,-0.6959405541419983,-0.5218273997306824,-2.1788532733917236,-0.37742266058921814,1.363059639930725,1.2350531816482544,0.06371767818927765,-1.278509497642517,0.6458348035812378,-0.9976662993431091,-1.428107500076294,-0.5069339871406555,-0.7110437154769897,-0.2450130581855774,-1.3152906894683838,1.47538161277771,-1.063509225845337,0.30003276467323303,0.7699016332626343,-1.7949490547180176,-0.232579305768013,-0.02173721045255661,-1.8243544101715088,-0.09763382375240326,-0.2985817790031433,1.6929727792739868,1.3051258325576782,-0.46436807513237,0.010259146802127361,0.862331748008728,1.0935633182525635,-0.16255372762680054,-0.006568032316863537,0.6353119015693665,-0.5281140804290771,2.039567708969116,-1.3808557987213135,-0.5876976251602173,-0.11309684813022614,-0.8330091834068298,0.5298305749893188,-0.8944193720817566,-2.1975908279418945,0.46587735414505005,1.0094314813613892,2.799635887145996,0.2564278244972229,-2.1614468097686768,1.6451035737991333,1.4078714847564697,1.0672487020492554,-0.19509704411029816,0.2161240130662918,0.355446457862854,1.8373956680297852,0.6876030564308167,-0.37923553586006165,0.4349014461040497,0.20890788733959198,0.5038878917694092,-0.6876068115234375,-2.9660563468933105,1.1243813037872314,-0.32595646381378174,-1.058786392211914,0.0905480906367302,-0.857931911945343,-0.41531121730804443,0.5187191367149353,-0.6722694039344788,-0.6592051982879639,-0.5380244851112366,0.0901099219918251,-1.9272958040237427,0.13479989767074585,-0.674400806427002,-0.9023565053939819,-0.4286077618598938,-0.8455727696418762,0.8494560122489929,-1.9043246507644653,2.1308834552764893,0.07263734191656113,-0.6506196856498718,0.1585233360528946,0.2081102430820465,-1.1172765493392944,-0.8157222270965576,0.7181261777877808,-0.6728242039680481,0.2767045795917511,-0.4527926445007324,0.4651297926902771,-0.5308432579040527,-1.1167937517166138,1.509361743927002,-2.0903000831604004,-1.0072102546691895,-0.01900375820696354,-0.2085123062133789,0.48935362696647644,-0.3867088854312897,-1.7207086086273193,0.5025148987770081,1.2257062196731567,1.4663963317871094,0.2826840281486511,-0.9044680595397949,1.5720850229263306,-0.6822382807731628,0.6013264656066895,-0.46573007106781006,-0.4504516124725342,-0.5382323861122131,-0.5810582041740417,0.10700096935033798,-2.5805022716522217,-0.8427718281745911,1.2239930629730225,-0.06006845831871033,-0.4802231192588806,-0.5484995245933533,-0.3782316744327545,0.9907689690589905,0.22642721235752106,0.3751806616783142,0.2675062119960785,0.16680508852005005,-0.5909742116928101,1.0829436779022217,0.9881284236907959,-0.3248729109764099,0.14930419623851776,-1.0366699695587158,-1.678186058998108,0.7947601675987244,0.7288831472396851,-0.6563012003898621,-0.1266075223684311,1.0682704448699951,1.1109074354171753,-0.2323494404554367,0.6863584518432617,0.8175756931304932,0.35793858766555786,0.3877842128276825,0.6470845341682434,-0.6435200572013855,-0.40715891122817993,0.8625873923301697,0.022487835958600044,-0.41602784395217896,-0.4372597634792328,-0.8257932662963867,-0.7745790481567383,-0.7202664613723755,0.37329596281051636,0.15065288543701172,-2.4806156158447266,-0.08211657404899597,-1.7770715951919556,-0.7927109599113464,-0.15619759261608124,-0.4386332333087921,-0.3731347322463989,-0.16968370974063873,0.4805557131767273,-0.04406123235821724,-0.142146036028862,1.5962295532226562,-0.6145660877227783,-0.10670021176338196,0.26346683502197266,-0.27633365988731384,0.1723615527153015,0.6842474341392517,-1.3466429710388184,-0.4543204605579376,0.038392193615436554,-2.4010677337646484,0.2707619071006775,-0.0777779221534729,-1.7967720031738281,0.5019071698188782,0.5470193028450012,0.4949641525745392,0.08556655794382095,-0.5497912168502808,-0.36083680391311646,0.6102104783058167,-1.3755955696105957,-1.9773417711257935,1.033866047859192,0.6395173668861389,0.23892773687839508,-0.32191917300224304,1.628594160079956,-0.8276106119155884,-0.528989851474762,0.27379825711250305,-0.6487995982170105,-1.710578203201294,1.6874611377716064,-0.24989020824432373,1.0593178272247314,0.6749343872070312,2.7825870513916016,-0.36155274510383606,0.22321175038814545,-0.6386754512786865,-0.2878454029560089,-1.2014634609222412,-0.43571388721466064,-1.767253041267395,-1.269153356552124,0.25760334730148315,2.147667169570923,-0.8939040899276733,-0.4315425455570221,3.1690659523010254,-0.6928284764289856,-1.1979644298553467,-0.9892947673797607,0.5735326409339905,0.8620889186859131,0.21357226371765137,0.5569844841957092,-0.7556999921798706,-1.0492677688598633,-0.13085953891277313]},"inputBias":{"rows":20,"columns":1,"weights":[0.34723883867263794,-1.0399311780929565,-0.3160876929759979,-0.7929632663726807,1.2044191360473633,-0.9509076476097107,-0.396768182516098,-0.5135400295257568,0.7502229809761047,0.9707412719726562,-2.496558904647827,-0.8902822732925415,0.42191964387893677,-1.8219152688980103,-0.4965078830718994,-1.3061351776123047,0.53077232837677,-0.178632453083992,-0.9141348600387573,0.8932793140411377]},"forgetMatrix":{"rows":20,"columns":20,"weights":[0.02666928805410862,-0.05258045718073845,-0.1253122240304947,-0.6907451152801514,-0.21044600009918213,-0.5769199132919312,-0.9365364909172058,-0.012654631398618221,0.12252138555049896,0.022393008694052696,-0.9052180051803589,0.01691427081823349,0.03479287773370743,0.18423059582710266,-0.3633020520210266,-0.14276324212551117,0.04440051317214966,-0.06401043385267258,0.18267719447612762,-0.045917704701423645,-0.2523879110813141,0.2294907420873642,0.5272814035415649,1.2376796007156372,0.5709726214408875,1.1662753820419312,1.4202473163604736,0.18151117861270905,0.6016958355903625,0.33680158853530884,-0.5854859948158264,-0.8308618068695068,0.5938388705253601,-0.21599289774894714,0.9079940319061279,0.5409935712814331,-0.5874547958374023,0.6265270113945007,-0.3190229833126068,-0.2631591260433197,0.4440354108810425,-0.4342251718044281,-0.5935323238372803,0.05574723333120346,-0.545263946056366,0.04259350150823593,0.08448965847492218,-0.5345488786697388,-0.5756744146347046,-0.6371829509735107,2.9975945949554443,0.2772403061389923,-0.5582600235939026,0.5878258347511292,-0.10823462903499603,-0.638946533203125,0.6889597773551941,-0.6400764584541321,0.46112820506095886,0.5743300914764404,-0.8980048298835754,0.8445611596107483,0.5520694255828857,-0.29929372668266296,0.6585779190063477,-0.7113562822341919,-0.8622118234634399,0.9547780752182007,0.6348304152488708,1.0427685976028442,3.7161755561828613,0.5499157905578613,0.3624035716056824,-0.7211857438087463,-0.6125912666320801,0.765867292881012,-0.4273820221424103,0.22874200344085693,-1.111430287361145,-1.2368687391281128,0.6882187724113464,-0.7549249529838562,-0.130568265914917,-1.1676108837127686,-0.2577330768108368,-0.018741704523563385,1.178094506263733,-0.7018811702728271,0.07253829389810562,-0.8409220576286316,-0.7275148034095764,-0.3593398332595825,0.2567540407180786,0.9276488423347473,0.11552224308252335,-0.3849882483482361,-0.24023202061653137,0.3858660161495209,0.8377980589866638,0.6731940507888794,0.41902682185173035,-0.2922208309173584,0.2881525456905365,-0.6112332940101624,0.2903505861759186,0.5610517859458923,0.19895555078983307,-0.37259641289711,0.0707714632153511,0.07390469312667847,-1.2492295503616333,-0.07729040086269379,0.03241861239075661,0.38421931862831116,-0.04085346683859825,0.3407028317451477,-0.24460434913635254,0.22700506448745728,0.14032073318958282,-0.1749904900789261,0.45773833990097046,-0.31843432784080505,0.028071805834770203,-0.031124994158744812,-0.10441234707832336,-0.9733102321624756,-0.14835995435714722,-0.3463982939720154,-0.05294729024171829,-0.2939433753490448,0.4435712397098541,-0.31725478172302246,0.1038767397403717,0.35351482033729553,0.2778988480567932,-0.07883130013942719,0.08100266754627228,0.0828399509191513,0.19841144979000092,0.27954763174057007,0.4189178943634033,-0.37215253710746765,-0.4543642997741699,0.08245249092578888,-0.33790385723114014,0.006729024462401867,-0.1604478359222412,-0.41448989510536194,-0.5521417260169983,-0.43407630920410156,0.8382865786552429,0.07190348953008652,-0.336443156003952,0.3414016366004944,-0.19541549682617188,-0.3608439564704895,0.5119524002075195,-0.4664325714111328,0.5258904695510864,0.47020223736763,0.184513658285141,-0.3390042781829834,0.5524007081985474,0.5486327409744263,0.5881465077400208,0.5886515378952026,0.8099642992019653,-0.20772817730903625,0.9057623744010925,-0.06045474857091904,1.2856543064117432,-1.4222917556762695,0.7584925889968872,0.24645349383354187,1.6127140522003174,0.44402775168418884,-0.9979504346847534,0.7601224184036255,0.26583078503608704,-0.05291156843304634,0.41255414485931396,-0.46553945541381836,-1.3315057754516602,2.8084654808044434,-0.7603972554206848,-2.1354615688323975,-0.014189720153808594,-0.5328701734542847,-1.2007371187210083,-0.8493964076042175,2.233236789703369,-2.609722375869751,-0.8135462403297424,0.36628177762031555,2.1915831565856934,-0.7476347088813782,1.5279035568237305,-1.017066240310669,0.7141581177711487,0.7381170392036438,0.010170429944992065,-0.5409379601478577,-0.2531202435493469,-0.17624545097351074,-0.36443760991096497,-0.767694890499115,-0.501471221446991,-0.15012051165103912,-0.013883081264793873,-0.32054680585861206,0.6188571453094482,-0.11029721051454544,-0.19754603505134583,0.343266099691391,0.020363524556159973,-0.3577312231063843,0.212169349193573,-0.16171613335609436,0.24519909918308258,0.12655746936798096,0.6862193942070007,-0.8139094710350037,-0.42159005999565125,-0.8582680225372314,-0.6737580299377441,0.6879050731658936,0.1620054543018341,-0.689424991607666,-0.30223578214645386,-0.7874006032943726,-1.1705130338668823,0.4843162000179291,-0.4558561146259308,0.8147779107093811,-0.5657029151916504,-0.6502083539962769,0.1725832223892212,-0.4957695007324219,0.7258763909339905,0.6361138820648193,0.7870864868164062,-0.7419793605804443,1.9287253618240356,-1.4498584270477295,0.5056881308555603,-1.4052621126174927,-2.203657865524292,-0.6037951707839966,0.4911147952079773,-0.019985830411314964,2.7149577140808105,1.2049472332000732,0.7066696286201477,0.6374492049217224,-1.2067720890045166,0.5085979700088501,-2.0012431144714355,1.7266565561294556,0.026292748749256134,-0.10021279007196426,-0.49753886461257935,-0.060387514531612396,-0.3580397069454193,-0.8576169610023499,-0.17286282777786255,0.6942124366760254,1.108972191810608,0.25948354601860046,0.4880026578903198,-0.16720369458198547,-0.7805913686752319,-0.5592427849769592,0.3929729759693146,0.0497606061398983,0.2758733034133911,-0.26591867208480835,-0.11439510434865952,0.35227876901626587,0.1702742576599121,-0.06517187505960464,0.44908663630485535,-0.4235292971134186,-0.6246764063835144,-0.9152626991271973,-0.6432592868804932,0.4511652886867523,0.2914959192276001,-0.38963568210601807,-0.7196652293205261,-0.4471929669380188,0.04867509379982948,0.8594173789024353,-0.7740254402160645,0.43131738901138306,-0.8908815979957581,-0.7105615139007568,0.7320095896720886,-0.7662611603736877,0.3963507115840912,0.4325461685657501,0.5643707513809204,-0.6029038429260254,-0.01801374927163124,-0.6111481785774231,-0.04378198832273483,0.12893903255462646,0.009119844064116478,-0.6575758457183838,0.24636520445346832,0.015871448442339897,-0.6808386445045471,-0.14947617053985596,0.009102013893425465,0.5235729217529297,-0.08404994010925293,0.34526920318603516,-0.4114275276660919,0.06273003667593002,0.4200649857521057,-0.1210518553853035,0.5582197904586792,-0.56180739402771,-0.5659981369972229,-0.15028811991214752,-0.6525919437408447,0.23510657250881195,0.2180955410003662,-0.5243066549301147,-0.4868544042110443,-0.5222362875938416,-1.4512863159179688,0.1804220974445343,-0.45793068408966064,0.49323391914367676,-0.19745036959648132,-0.6546163558959961,0.5871981382369995,-0.5431150794029236,0.48284563422203064,0.61187744140625,0.2166474312543869,-0.03645431250333786,0.22183969616889954,-1.4440863132476807,0.2795286476612091,0.6016926169395447,0.31695282459259033,-0.14365753531455994,0.1437114179134369,0.3855298161506653,-1.2412387132644653,0.12517672777175903,-0.07542059570550919,0.04295917972922325,-0.5134257674217224,0.4282718002796173,-0.3083307147026062,0.03966203331947327,-0.07347903400659561,-0.27858027815818787,0.4001659154891968,-0.4609167277812958,-0.5344409942626953,-0.5406550765037537,-0.6497655510902405,-1.0284916162490845,-1.759586215019226,-0.42823371291160583,-0.581619143486023,-0.525318443775177,-2.037172317504883,0.7468694448471069,-0.6420395970344543,0.4790230691432953,-0.6498262882232666,-0.5880021452903748,0.6269791126251221,-0.5770432353019714,0.5820870399475098,0.59088134765625,-0.4871493875980377,0.8827424049377441,0.6426133513450623,0.40997743606567383,0.7071605324745178,-2.119108200073242,-3.070946455001831,0.6870938539505005,-0.04303932934999466,0.5637689828872681,