{"type":"LSTM","options":{"inputSize":33,"inputRange":33,"hiddenLayers":[20,20],"outputSize":33,"decayRate":0.999,"smoothEps":1e-8,"regc":0.000001,"clipval":5,"maxPredictionLength":2,"dataFormatter":{"indexTable":{"1":16,"2":19,"3":21,"4":22,"5":25,"c":0,"o":1,"r":2,"h":3,"e":4,"t":5,"s":6,"[":7,"]":8,"m":9,"u":10,"a":11," ":12,"n":13,"d":14,"l":15,"i":17,"p":18,"g":20,"q":23,"z":24,"y":26,"f":27,"v":28,"b":29,"stop-input":30,"start-output":31,"unrecognized":32},"characterTable":{"0":"c","1":"o","2":"r","3":"h","4":"e","5":"t","6":"s","7":"[","8":"]","9":"m","10":"u","11":"a","12":" ","13":"n","14":"d","15":"l","16":"1","17":"i","18":"p","19":"2","20":"g","21":"3","22":"4","23":"q","24":"z","25":"5","26":"y","27":"f","28":"v","29":"b","30":null,"31":null,"32":null},"values":[{"input":"corchetes","output":"[]"},{"input":"muestrame unos corchetes","output":"[]"},{"input":"dame unos corchetes","output":"[]"},{"input":"hola","output":"1"},{"input":"hola merlina","output":"1"},{"input":"pon la musica para dormir","output":"2"},{"input":"pon la cancion para dormir","output":"2"},{"input":"musica para dormir","output":"2"},{"input":"cancion para dormir","output":"2"},{"input":"dormir","output":"2"},{"input":"gracias","output":"3"},{"input":"muchas gracias","output":"3"},{"input":"se te agradece mucho","output":"3"},{"input":"se te agradece","output":"3"},{"input":"como estas","output":"4"},{"input":"como estas merlina","output":"4"},{"input":"hola como estas merlina","output":"4"},{"input":"hola como estas","output":"4"},{"input":"merlina como estas","output":"4"},{"input":"porque no puedo estar descalza","output":"5"},{"input":"porque no puedo andar descalza","output":"5"},{"input":"no puedo andar descalza","output":"5"},{"input":"no puedo estar descalza","output":"5"},{"input":"no puedo estar descalza merlina","output":"5"},{"input":"si estoy descalza me puedo enfermar","output":"5"},{"input":"si ando descalza me van a poner una inyeccion","output":"5"},{"input":"si ando descalza tengo que tomar antibiotico","output":"5"},{"input":"carolina puede estar descalza","output":"5"}],"characters":["c","o","r","h","e","t","s","[","]","m","u","a"," ","n","d","l","1","i","p","2","g","3","4","q","z","5","y","f","v","b","stop-input","start-output","unrecognized"],"specialIndexes":[30,31,32]},"workers":-1},"trainOpts":{"iterations":200,"errorThresh":0.005,"log":true,"logPeriod":10,"learningRate":0.0074,"callbackPeriod":10,"timeout":"Infinity","batchSize":3},"input":{"rows":34,"columns":33,"weights":[0.406650185585022,-0.2102120816707611,-0.8535463809967041,-0.23804453015327454,0.10853371769189835,0.32934021949768066,-0.08840188384056091,-0.34348735213279724,-0.4284578561782837,0.856624960899353,-0.18977665901184082,-0.15862436592578888,0.1611565202474594,0.4179154336452484,-0.007594055496156216,-0.1051194965839386,-0.38625332713127136,0.19849298894405365,0.17827507853507996,-0.14232179522514343,0.7142374515533447,0.3030138909816742,-0.7945115566253662,-0.2788006067276001,0.021138165146112442,0.34031546115875244,0.4022127389907837,0.03179045766592026,0.08052752166986465,0.21942396461963654,-0.4897598922252655,-0.14901891350746155,-0.3838077485561371,0.07824136316776276,-0.35219502449035645,1.4381037950515747,1.9480950832366943,-1.2013850212097168,-0.8327410221099854,3.3152167797088623,-0.05369926244020462,0.5815967321395874,-1.7367987632751465,0.3518964648246765,0.6532488465309143,1.4284268617630005,-1.2026971578598022,2.357651710510254,1.3188334703445435,-0.8230538964271545,-1.7927745580673218,-3.448737144470215,-0.16232603788375854,-0.18893571197986603,0.9386458992958069,0.754445493221283,2.5270824432373047,-0.5362728238105774,-1.6606392860412598,-0.48125705122947693,-0.3622463643550873,-0.3570890724658966,0.385749489068985,2.1499407291412354,0.37708064913749695,0.04677717387676239,0.13865293562412262,0.9507085680961609,0.2542918026447296,0.4700544476509094,-0.4132270812988281,-0.2062823325395584,0.6075769662857056,0.0010236131493002176,0.11352115124464035,-0.2803685665130615,0.7079639434814453,0.1209806278347969,0.32350650429725647,-0.49865543842315674,0.23088957369327545,-0.4836055040359497,0.005882178898900747,0.28083544969558716,0.33083376288414,-0.5240087509155273,0.011443791911005974,0.08026589453220367,-0.3546924889087677,-0.2456030696630478,0.005172926466912031,-0.5764767527580261,-1.9518417119979858,0.302297979593277,0.49302196502685547,0.28182294964790344,1.2864879369735718,-0.29746538400650024,-0.07898437976837158,-0.8307161331176758,-0.7743736505508423,1.1901437044143677,-0.35663220286369324,-0.5437886714935303,0.1971651017665863,0.012399308383464813,0.06487728655338287,1.1286773681640625,-1.1690735816955566,-0.6350496411323547,-0.32364973425865173,0.35048410296440125,0.01652134582400322,-0.09789808094501495,0.9452379941940308,0.22877125442028046,-0.19910943508148193,-0.005638037342578173,0.4763736426830292,0.4516298770904541,-0.026110569015145302,-0.22693781554698944,0.49990877509117126,-0.48675185441970825,-1.1040146350860596,0.06787709146738052,-0.019027525559067726,0.02139786072075367,0.25504225492477417,0.1589900404214859,-0.1172485202550888,-0.3048601746559143,2.315920114517212,3.050222873687744,-1.517909049987793,2.2753822803497314,0.14228391647338867,1.0123831033706665,-0.11715719103813171,-0.4226774573326111,-0.8292571306228638,0.013360995799303055,-1.3169525861740112,3.5168542861938477,0.3435012996196747,0.253745973110199,-0.6153960824012756,-0.8374892473220825,-3.7053351402282715,-0.6254252195358276,-3.7511205673217773,-1.624832272529602,-3.6937384605407715,-0.4187951683998108,0.4827849268913269,0.9294871687889099,3.345337152481079,3.5966694355010986,1.0381708145141602,-2.760556936264038,-0.45962581038475037,-0.46613773703575134,0.1140042245388031,1.7409268617630005,-1.0578080415725708,1.4594683647155762,-0.815610408782959,-1.7439628839492798,-1.9917280673980713,-1.0759714841842651,1.6036227941513062,-1.5162514448165894,-0.2183913141489029,-1.2652310132980347,2.101698398590088,-0.8545095324516296,-1.5990104675292969,0.33192726969718933,-1.5765889883041382,-1.6783775091171265,0.11796440184116364,0.21104611456394196,2.059629201889038,2.6159775257110596,1.5752366781234741,2.0083506107330322,0.2012248933315277,-0.967110812664032,-2.2777352333068848,0.49919214844703674,0.9130117893218994,2.032195806503296,1.4066251516342163,1.5964138507843018,0.08938407897949219,-0.5807623267173767,-1.5570741891860962,-1.0475226640701294,-0.7989645004272461,0.17103146016597748,0.3253578245639801,2.801438570022583,-1.5191614627838135,-2.305737257003784,2.3498988151550293,0.20230816304683685,0.664118230342865,-0.6970325708389282,0.29282134771347046,-0.796087384223938,0.8205106258392334,-0.6988349556922913,1.9058253765106201,0.8737421631813049,0.5187147855758667,-0.8482206463813782,-2.350135564804077,-0.3029656410217285,-0.7861384153366089,1.417641043663025,0.948386549949646,2.517341375350952,-1.1809699535369873,-0.4707449972629547,-2.1296515464782715,0.01917191408574581,-1.3021446466445923,0.2655823230743408,0.4075004458427429,0.9414522647857666,-0.9224631190299988,-0.0054098693653941154,0.8653031587600708,2.1771132946014404,0.48658445477485657,0.08653394132852554,0.32678234577178955,0.0051748198457062244,-0.5818304419517517,1.2388176918029785,-1.9434187412261963,-0.16543859243392944,1.4143873453140259,-0.5795561671257019,-0.7277370095252991,0.1783287525177002,1.23007333278656,-1.0151478052139282,-0.3783540427684784,-0.6496039032936096,-0.7675946950912476,-0.7405999302864075,0.1856914907693863,0.3577233552932739,-0.13952134549617767,-2.1232988834381104,-0.9331679940223694,0.02949824556708336,-1.0795987844467163,-0.1742783486843109,1.099438190460205,0.32455235719680786,-0.05138036236166954,0.24953655898571014,-7.981872081756592,-2.0598461627960205,2.045870542526245,-3.830570936203003,2.840768575668335,1.1629414558410645,1.043027400970459,-1.403084397315979,1.4275001287460327,-2.0799968242645264,-4.001317501068115,-0.013381761498749256,-0.27942875027656555,1.8434944152832031,1.301750659942627,4.401007652282715,1.3600480556488037,3.8173892498016357,2.2980403900146484,-1.455154299736023,-1.2127894163131714,0.07555298507213593,-4.512156963348389,-3.5566375255584717,-1.705316185951233,1.5491300821304321,0.4536599814891815,-1.610295057296753,0.21590375900268555,3.0774435997009277,-2.8184988498687744,-2.3642470836639404,-1.972395420074463,-0.8610929846763611,2.3249146938323975,3.097256660461426,0.47494783997535706,-0.40569359064102173,-2.27004337310791,2.6029317378997803,-1.550053596496582,5.927656173706055,-1.8361122608184814,0.22958950698375702,-1.030462384223938,0.7372580766677856,-0.572356641292572,2.662508726119995,0.03291666880249977,-2.85050892829895,1.8875352144241333,0.18158304691314697,-2.8383193016052246,3.3812296390533447,1.7817593812942505,0.10191069543361664,-2.375231981277466,-5.006816387176514,-1.7303541898727417,-6.805806636810303,0.9327108263969421,0.8945149183273315,5.8169779777526855,-2.0680673122406006,-2.9691035747528076,0.3213968276977539,-0.0426216684281826,1.3810744285583496,0.08523298054933548,1.039645791053772,-0.03650294616818428,0.5448725819587708,0.6866109371185303,-0.2836150527000427,0.254985511302948,-0.4510745108127594,-1.2249226570129395,1.8471707105636597,0.0500362254679203,0.05564117431640625,0.2545791566371918,1.5109598636627197,-1.8777401447296143,-0.23869012296199799,-2.80795955657959,-0.07797887921333313,-0.1941492110490799,-0.059917647391557693,0.5200329422950745,0.25561603903770447,-0.010439534671604633,0.44460329413414,-1.8194246292114258,-0.14290623366832733,0.18465593457221985,0.31464800238609314,-0.5157879590988159,-0.5876903533935547,0.09229013323783875,-3.106402635574341,-0.1059623509645462,1.8694950342178345,-0.34821951389312744,2.545243263244629,1.3657602071762085,-1.224541187286377,1.292555809020996,1.5225294828414917,-1.0248441696166992,-0.09234880656003952,0.3994236886501312,1.0039511919021606,1.0126227140426636,-1.5509178638458252,0.17920257151126862,0.013381598517298698,0.9489026665687561,0.6067224740982056,0.10796046257019043,-0.1624196171760559,-1.3467473983764648,-1.4622219800949097,-1.0089340209960938,-1.8891960382461548,-0.1765742003917694,-1.7523784637451172,-0.10890383273363113,0.508674144744873,2.0487382411956787,-1.6895551681518555,0.35093167424201965,0.02741028368473053,2.5552682876586914,1.7820576429367065,1.053472638130188,0.9653223156929016,-1.1755497455596924,-0.5866351127624512,0.41254207491874695,-0.3672768473625183,1.2852369546890259,-1.6485424041748047,1.4271814823150635,1.4904340505599976,-1.5626249313354492,-1.4108011722564697,0.4475046694278717,-2.3328943252563477,-1.2867799997329712,-0.6666746139526367,-0.4737866520881653,-1.4506169557571411,-1.293609619140625,-0.037918489426374435,-1.1620242595672607,-0.279745489358902,-0.19747327268123627,-1.0939772129058838,-0.7992904186248779,-1.796802282333374,-0.32318562269210815,1.645119309425354,0.03817818686366081,0.506805419921875,1.7828660011291504,-0.14427423477172852,-0.6403905153274536,-1.8050168752670288,-0.8028303384780884,1.2764047384262085,1.6106675863265991,-0.9097497463226318,1.4385530948638916,-0.7230995893478394,2.125990629196167,-0.8276612162590027,-0.7619333863258362,0.4729754328727722,1.8032147884368896,-1.2391984462738037,0.3242647647857666,0.6835317611694336,0.4881085753440857,0.20020532608032227,-0.16842253506183624,-0.5910392999649048,-2.046001434326172,-1.3792316913604736,-0.10559889674186707,1.874484896659851,2.8179831504821777,-1.0522747039794922,0.5881161093711853,1.002734661102295,0.09160672873258591,-0.44784870743751526,-0.12260604649782181,-1.0148158073425293,-1.0037329196929932,-0.23800013959407806,-2.62705397605896,-0.45793387293815613,1.5103669166564941,-0.0761861652135849,-0.32607704401016235,0.6122487783432007,-0.31493836641311646,2.416574239730835,-0.7434241771697998,-1.172518253326416,-1.2914981842041016,0.6896534562110901,-0.037957388907670975,0.2006087750196457,0.20585907995700836,-0.2395203709602356,0.12692990899085999,1.0634536743164062,0.3683548867702484,-0.6637938618659973,2.0345613956451416,-0.987917959690094,1.3635568618774414,1.9425022602081299,-3.2633216381073,0.5361196398735046,1.0287808179855347,-0.2733253240585327,-1.362520456314087,-0.8690471649169922,-0.3202335238456726,2.70084285736084,0.43952077627182007,-0.7667041420936584,-2.3356778621673584,-0.8357235789299011,-0.9141188859939575,-0.4802241921424866,-1.236012578010559,-0.8465868234634399,0.8485091328620911,-0.29004937410354614,-0.7023144960403442,-0.09959502518177032,-0.6956778764724731,-0.6097327470779419,-1.5367546081542969,-0.6959063410758972,-2.917498826980591,-0.4031614661216736,-3.5002331733703613,0.4399148225784302,1.5473064184188843,0.29346370697021484,2.1485073566436768,0.6197604537010193,0.41699454188346863,1.594115138053894,-1.2227424383163452,-3.0844357013702393,-0.3613211214542389,-0.5750919580459595,2.2512600421905518,2.232990026473999,-1.83805251121521,0.4975619912147522,0.22084049880504608,1.3123618364334106,2.31105375289917,-1.3388680219650269,1.8375086784362793,-1.257236361503601,-0.5411579012870789,-0.2089938074350357,1.7877849340438843,0.8167145252227783,-0.41832610964775085,1.5943635702133179,1.7120836973190308,-0.004414040595293045,-0.3135584890842438,-1.5331417322158813,0.21248358488082886,-1.0026479959487915,-0.46390727162361145,1.5412390232086182,1.4641399383544922,1.0147250890731812,-0.6565228700637817,-1.3386722803115845,1.5276901721954346,-0.9257937073707581,-0.8172509074211121,-0.2973458170890808,1.9856897592544556,0.37965816259384155,1.2037171125411987,-4.9169511795043945,-3.729076623916626,-1.2740150690078735,-2.044671058654785,1.2082282304763794,2.7660157680511475,-3.656654119491577,2.299746036529541,-1.3785278797149658,1.6072580814361572,-3.063816785812378,-0.8712725043296814,3.377362012863159,2.5702664852142334,-3.7560412883758545,3.9159133434295654,1.5564827919006348,2.1250526905059814,0.7678238749504089,1.5929689407348633,1.9938701391220093,-2.456544876098633,1.6704156398773193,-2.8036115169525146,1.6498558521270752,1.3769654035568237,1.1322373151779175,1.8134385347366333,2.304280996322632,-1.2852747440338135,-2.730698823928833,-1.8409624099731445,-3.6412320137023926,-1.8059290647506714,-2.594832420349121,1.6002357006072998,-2.0209925174713135,-0.0012358272215351462,2.132952928543091,-0.6249629259109497,-0.1146269217133522,0.4794122278690338,-1.3509119749069214,-0.3434964120388031,0.2841234505176544,1.8944569826126099,-1.1242793798446655,-0.6495853066444397,3.732311248779297,0.46032074093818665,0.5215769410133362,2.285876989364624,-1.3125200271606445,1.8183635473251343,0.009211444295942783,0.2895668148994446,-0.5793139338493347,-1.2237529754638672,-1.983055591583252,4.357510566711426,1.7837291955947876,1.1370158195495605,1.0478557348251343,0.4405826926231384,-1.0333921909332275,1.6451605558395386,0.7032809257507324,0.9647274613380432,-0.881453812122345,-2.0886802673339844,-2.1127049922943115,-0.8643965125083923,1.0517315864562988,-0.888387143611908,0.5756997466087341,0.31345129013061523,-0.6958364248275757,-2.891911268234253,1.8469172716140747,-1.5783030986785889,0.8239997029304504,-0.48740440607070923,1.8089423179626465,1.9748746156692505,2.053368091583252,0.2279479056596756,2.009956121444702,0.6005406379699707,-2.581364154815674,-1.3252228498458862,-0.6226978898048401,-2.171661376953125,0.4748844802379608,0.8375058770179749,1.2744814157485962,2.317969560623169,-1.6374684572219849,-1.3484677076339722,-0.8929576277732849,-2.2511813640594482,1.2911663055419922,1.7653658390045166,0.725247859954834,-1.2554651498794556,0.6647589206695557,-0.7472080588340759,1.2370946407318115,0.7705038785934448,-2.281736373901367,0.48816120624542236,0.33668777346611023,-0.3278839886188507,-0.9387668967247009,-1.000769019126892,-0.6562033295631409,0.1045118048787117,0.26634374260902405,0.19712276756763458,1.2486605644226074,-0.14422214031219482,-3.046177625656128,-0.09858418256044388,-0.8151439428329468,0.19714045524597168,-1.1458715200424194,-1.6533801555633545,0.5241386294364929,1.5274736881256104,-0.525409996509552,0.09349021315574646,-0.6098053455352783,1.195931077003479,0.10601425915956497,0.32583966851234436,-0.6721576452255249,1.870430588722229,1.076513409614563,0.8619796633720398,2.8951127529144287,-3.458493947982788,-1.6202147006988525,-0.4521186053752899,-0.7205539345741272,2.6834304332733154,2.098619222640991,-0.9792364835739136,1.7149301767349243,1.3400779962539673,-3.299009323120117,-2.4311437606811523,-3.7687196731567383,-2.7467756271362305,0.02407296560704708,2.6583797931671143,2.6156270503997803,2.7939329147338867,0.574414849281311,-2.31398344039917,-0.7947301268577576,-3.755213737487793,-0.9701281189918518,-0.8591676950454712,2.5357308387756348,2.2986702919006348,2.0126161575317383,-2.680774450302124,-1.3692981004714966,-0.7718735337257385,-1.0151164531707764,-0.0379280224442482,2.538109064102173,-3.100081443786621,1.3190058469772339,-1.0373789072036743,0.9900776147842407,-2.622317314147949,-0.9104054570198059,0.3832200765609741,1.8824695348739624,-3.2538583278656006,1.5398646593093872,1.9771357774734497,0.480610191822052,1.1499725580215454,1.935032606124878,-0.05610429123044014,-1.5376408100128174,1.3249061107635498,-0.6547011137008667,1.5429130792617798,1.14349365234375,1.2225680351257324,0.9387890100479126,0.651233434677124,-1.3926934003829956,-0.05214564874768257,-1.211609125137329,-2.448566436767578,-2.0600802898406982,-2.1169114112854004,-0.3282422423362732,-1.8993573188781738,0.1410699337720871,-0.4412725865840912,-3.0004396438598633,-1.9066250324249268,-0.16537825763225555,0.19507069885730743,-2.080387830734253,-1.985489845275879,-0.7476744055747986,-0.3886488974094391,0.4315146803855896,2.2181687355041504,2.1756062507629395,-0.9199732542037964,1.5305767059326172,1.6857258081436157,1.93534255027771,-2.4623069763183594,0.37056031823158264,1.0735902786254883,0.6822221875190735,0.9534546732902527,-2.6475672721862793,2.242526054382324,2.501201629638672,-0.3757278025150299,-2.2145795822143555,-1.9127055406570435,-2.542475700378418,6.4213175773620605,1.2460769414901733,2.5969831943511963,1.5960958003997803,-5.645516872406006,0.19572757184505463,5.02402400970459,-2.3639919757843018,3.6009292602539062,-3.204056978225708,-1.5568925142288208,-1.1588586568832397,-0.5969123840332031,-2.950608730316162,-0.21714486181735992,-0.7284902930259705,0.42728275060653687,-3.076810598373413,0.8932785391807556,0.2956479489803314,0.2213985025882721,3.1774203777313232,-4.45828104019165,-2.9439151287078857,-1.6774005889892578,-4.38191032409668,0.7162455320358276,-0.8582272529602051,3.2836191654205322,3.535443067550659,1.4886711835861206,-2.7333765029907227,0.8859177827835083,-0.05917743965983391,0.6880854368209839,0.8767278790473938,1.9057984352111816,-0.33193621039390564,-1.3005270957946777,0.4716585874557495,0.34917402267456055,1.8762397766113281,-1.3263468742370605,1.3117485046386719,-1.3371601104736328,0.9291542172431946,0.9493350982666016,0.5411389470100403,0.17616473138332367,1.159450888633728,-0.5062292814254761,-1.2920846939086914,-1.6163547039031982,-0.7159656286239624,0.27903467416763306,-1.570356011390686,2.772343158721924,-0.3237624764442444,-1.799674391746521,-0.8572919368743896,-1.3774185180664062,-2.1624302864074707,2.573291778564453,-1.0301860570907593,3.399590015411377,1.044044852256775,-1.7334295511245728,-0.05513232201337814,0.031306296586990356,-0.03621954843401909,-0.09113684296607971,1.4749391078948975,-1.0645115375518799,0.2878827154636383,0.039039336144924164,-0.5755777955055237,-1.169895887374878,-0.08582454174757004,0.45687445998191833,-1.2238456010818481,-1.0076959133148193,1.8441084623336792,0.13652566075325012,1.5333596467971802,-0.16181416809558868,-0.10852335393428802,0.5134410262107849,-2.044175624847412,0.3305920660495758,0.4933258295059204,0.10000794380903244,0.19062066078186035,-1.7289999723434448,-0.42580196261405945,0.202020525932312,-0.2055080533027649,1.3743127584457397,0.9463648200035095,-0.9173341989517212,-5.833658695220947,1.2490955591201782,1.1077121496200562,1.3030022382736206,6.616537570953369,-0.9285783171653748,2.9477715492248535,-5.165435791015625,-0.45990294218063354,-0.4544067978858948,0.21359308063983917,5.992176532745361,-4.68534517288208,1.0594538450241089,4.5146660804748535,1.6378087997436523,-7.118253707885742,-2.7992875576019287,-2.7589714527130127,-1.7067461013793945,0.4329598546028137,1.7728540897369385,12.383016586303711,0.30068978667259216,-1.8140143156051636,-1.75950288772583,-3.2107198238372803,-2.8290250301361084,-1.044350028038025,-3.2851171493530273,3.6429860591888428,-0.3675633370876312,3.4873063564300537,-2.419339656829834,-0.7334713935852051,-0.3232242465019226,1.051556944847107,3.2165820598602295,-4.011538505554199,4.834949016571045,-3.291137456893921,1.059148907661438,-0.3142748475074768,3.4748733043670654,-1.5250444412231445,-0.8814882040023804,-2.6816110610961914,6.348358154296875,0.6731806993484497,-0.16346511244773865,-1.4997884035110474,-0.05159579589962959,-4.978951454162598,0.07483914494514465,4.219415187835693,2.1484787464141846,5.839749813079834,1.0766880512237549,-1.396895408630371,5.676193714141846,-1.7913848161697388,-5.649206638336182,-0.6109237670898438,2.5227174758911133,4.332216739654541,1.351846694946289,-4.2188286781311035,-0.9610059261322021,5.285757064819336,-0.4069887697696686,-8.335972785949707,-3.126356840133667,1.534909725189209,-4.143774032592773,8.964696884155273,-2.656269073486328,-0.6986644268035889,-0.20610672235488892,1.41412353515625,-5.429315567016602,2.245565891265869,4.584748268127441,0.6858017444610596,-3.57627010345459,-4.969020366668701,-6.799808979034424,1.8231838941574097,4.603823184967041,-4.189967155456543,5.459449291229248,-9.64354419708252,-0.8377510905265808,6.136343955993652,-2.4540514945983887,-6.586556911468506,6.200061798095703,-1.9004032611846924,7.016541481018066,5.143677234649658,1.3114436864852905,1.318788766860962,5.322414875030518,1.850404977798462,-2.504034996032715,0.9297301769256592,1.8094927072525024,-3.229253053665161,5.124969005584717,-5.947325229644775,1.4961050748825073,5.153741836547852,1.8909132480621338,-8.564251899719238,0.00002708158535824623,-0.15809057652950287,-5.633481025695801,0.12057065963745117,0.30058708786964417,-5.462912559509277,-2.110929489135742,-0.2308351844549179,-0.27017658948898315,-1.3867831230163574,-7.006714820861816,-8.320489883422852,-1.5564759969711304,-2.5237882137298584,3.08241868019104,8.827143669128418,0.6384978294372559,-6.051760196685791,-0.8199597597122192,-3.415489435195923,-0.510765552520752,-0.38758084177970886,0.5306247472763062,2.5718801021575928,-0.5598167777061462,0.3757939338684082,-0.4259151518344879,0.1321680247783661,0.3483419716358185,0.14039281010627747,-0.0000727039368939586,-0.4063118100166321,1.4014784097671509,0.8281056880950928,0.5195937752723694,0.06371071189641953,0.7561466097831726,-0.5253657102584839,-0.07486292719841003,-0.6848384737968445,0.3186277449131012,0.23102222383022308,0.35496819019317627,0.06183094531297684,0.784946084022522,-0.4282388687133789,-0.22893959283828735,-0.37953242659568787,-0.4781929850578308,0.32489830255508423,0.6355665922164917,-0.2691348195075989,-0.5472180247306824,-0.007694667670875788,-0.5382833480834961,0.13193480670452118,2.6832187175750732,0.6465223431587219,-0.41277775168418884,0.3036351203918457,-1.3047641515731812,1.0452048778533936,0.06458815187215805,0.9213831424713135,-0.08568264544010162,1.1160608530044556,-0.654270350933075,-0.20705538988113403,-0.07194719463586807,-0.26681336760520935,0.027951784431934357,0.03260725364089012,-1.3623650074005127,-0.32594504952430725,0.9557853937149048,-0.008268879726529121,-0.016810933127999306,1.0501198768615723,0.1479322612285614,-0.2349221110343933,0.16729547083377838,-1.0174343585968018,0.4646645188331604,-0.15888746082782745,-0.43636152148246765,0.012905451469123363,0.06836866587400436,-0.07174290716648102,-0.041569020599126816,0.05138722062110901,-0.014364555478096008,-0.027389468625187874,0.008035617880523205,-0.030379971489310265,-0.016316251829266548,-0.06384638696908951,0.04659208282828331,-0.02406204305589199,-0.04717816412448883,-0.006083231884986162,-0.07129663228988647,0.043258339166641235,0.015426614321768284,-0.040915437042713165,-0.011399325914680958,0.061085257679224014,-0.07822586596012115,-0.024582097306847572,-0.03415697440505028,0.04725439473986626,0.03863031044602394,0.04270589351654053,0.0695883184671402,0.01063447818160057,0.07918211072683334,-0.037880007177591324,0.07259851694107056,-0.023833250626921654]},"hiddenLayers":[{"inputMatrix":{"rows":20,"columns":33,"weights":[-0.9702432751655579,-0.787684977054596,1.9284148216247559,-0.6783203482627869,-1.2591532468795776,-0.46074217557907104,0.1883680373430252,-0.1035025492310524,1.3377411365509033,-1.403678059577942,0.043531179428100586,-0.29662516713142395,0.3728223145008087,-0.6874991059303284,0.5512810945510864,0.8557099103927612,0.5262004733085632,-0.7747888565063477,0.09514257311820984,-0.159134179353714,-0.16437071561813354,0.07133364677429199,-0.6336361169815063,0.44891059398651123,-1.393024206161499,-1.0447230339050293,0.09363163262605667,-0.2564502954483032,-0.40827104449272156,0.8508588671684265,-0.1028585359454155,0.14804084599018097,0.45700666308403015,-2.0801098346710205,-0.8030173182487488,0.14599888026714325,-0.6119821667671204,-0.7312990427017212,-0.11757801473140717,-0.23547157645225525,0.7559277415275574,0.15586331486701965,-0.01503049023449421,-0.6293100118637085,-0.9352219700813293,1.1471261978149414,-0.03589271381497383,-0.43901097774505615,1.5959854125976562,0.6742679476737976,0.5844206809997559,0.2938701808452606,1.4895306825637817,1.8503201007843018,-0.3455369770526886,0.2619359493255615,-0.0356767401099205,-0.44509753584861755,-0.4338357448577881,0.048311758786439896,1.0552217960357666,0.5948867201805115,-0.47738102078437805,-0.4511697590351105,-0.28866270184516907,-0.25257790088653564,0.5105673670768738,1.5717883110046387,-0.5006821751594543,1.3213845491409302,1.0012909173965454,0.03743533790111542,0.3858911991119385,-0.02107854373753071,-0.13919825851917267,0.30654749274253845,0.13704532384872437,0.803440272808075,-0.5327077507972717,0.3639313876628876,-0.03711564093828201,-0.6778168678283691,-0.5202600955963135,-0.9620193243026733,-1.2977454662322998,-0.678105354309082,-1.8353662490844727,-0.39784982800483704,0.09052455425262451,0.7496427297592163,1.132155418395996,0.8919947743415833,-2.009643793106079,-0.9003850817680359,-0.08806627988815308,0.03821177780628204,0.2644225060939789,0.5516813397407532,0.5213218927383423,0.5398616194725037,0.1749533861875534,0.0327356792986393,0.9500734806060791,-1.0454564094543457,-1.0994236469268799,1.4203367233276367,-1.0539820194244385,0.02089361660182476,-0.3181191682815552,-0.21455563604831696,0.02536115050315857,-0.9272516369819641,-1.1843225955963135,1.3483957052230835,0.9440627098083496,-0.9682046175003052,-0.9003299474716187,-1.0478088855743408,-0.2114625871181488,0.25823527574539185,0.5030344724655151,1.0378012657165527,0.45648401975631714,0.1621515154838562,-0.2484872043132782,-0.9446211457252502,-0.9259852170944214,-0.7492914199829102,-0.23794981837272644,-0.2276444137096405,-0.2991675138473511,0.558070957660675,0.22910159826278687,0.4752504229545593,1.182960867881775,0.27090322971343994,-1.3598300218582153,0.012810159474611282,0.40193232893943787,-0.1237938329577446,1.3717690706253052,-1.323315143585205,-0.6268115043640137,0.3355722427368164,0.03488335385918617,-0.775706946849823,0.34444183111190796,-0.2713842988014221,-0.48228830099105835,0.2304738163948059,-0.4290408492088318,0.22273431718349457,-0.2149510234594345,0.174210324883461,-0.7335826754570007,-0.23942029476165771,-0.6565220952033997,-0.5752873420715332,-1.350411295890808,-0.4423735439777374,0.13603714108467102,1.1737719774246216,-0.33017751574516296,-0.011046117171645164,-0.2030261904001236,-2.129333972930908,-0.2190902978181839,1.223555326461792,0.39528128504753113,1.3119579553604126,0.31770485639572144,-0.8613697290420532,0.2456279695034027,0.637131929397583,-0.852713942527771,-0.7004744410514832,-0.5974992513656616,0.05295399948954582,1.8190534114837646,-0.58256995677948,0.8048296570777893,0.5415356755256653,-1.1337393522262573,-1.460884690284729,0.7649860978126526,-0.43667536973953247,-0.2600017488002777,0.315242201089859,1.7953344583511353,-0.871847927570343,0.07652011513710022,-0.7136489152908325,-0.3387347459793091,-0.8504476547241211,-0.4641042947769165,0.4751392602920532,1.1762051582336426,-0.8322746753692627,-2.1338489055633545,-0.7455706000328064,0.5932904481887817,0.19052675366401672,1.0501208305358887,0.735702633857727,0.0673360601067543,-0.370807409286499,-0.13762284815311432,-0.4580910801887512,-0.5398334860801697,-0.05922954902052879,0.8528911471366882,0.5743598937988281,-0.1093965396285057,1.2077275514602661,0.4604780375957489,-0.470692902803421,0.412452757358551,-0.6808885931968689,-0.06079665943980217,0.5745519399642944,0.06217370554804802,0.8172901272773743,-0.9278507232666016,-0.8398816585540771,2.441159725189209,-0.45466405153274536,-1.0526055097579956,0.2545384168624878,0.3530445098876953,0.7412599325180054,0.15660415589809418,-0.7280159592628479,0.01648944616317749,-0.723178505897522,0.1053851842880249,0.5423287749290466,-0.539249062538147,0.6769962310791016,-0.006391942035406828,-1.023903489112854,0.9494112133979797,-0.18704932928085327,-0.2869262099266052,0.19926817715168,0.9034879207611084,0.522333025932312,0.43357932567596436,-0.09364994615316391,-1.2101846933364868,-0.7640876770019531,-0.04979955777525902,-0.11993446201086044,0.9431802034378052,1.456206202507019,1.8770140409469604,0.6118111610412598,0.6701639294624329,-0.7463725805282593,0.09700310975313187,-1.0790773630142212,-1.3376452922821045,0.14830394089221954,0.8036937713623047,0.12072259932756424,1.0910778045654297,0.8138248324394226,0.4350516200065613,0.8569907546043396,0.3432333171367645,-0.5823444128036499,0.9051803946495056,-0.6752938628196716,0.2070426493883133,-0.16565349698066711,0.08666707575321198,0.3843963146209717,-0.8623665571212769,-0.5833254456520081,0.5332237482070923,-0.30404341220855713,-0.7368083596229553,-1.0564550161361694,-0.6771800518035889,-0.5010464191436768,-0.5372138023376465,0.6890955567359924,0.3748420476913452,-0.10528787970542908,-0.23746097087860107,0.06707115471363068,-0.22558006644248962,-1.0191341638565063,-0.5751209259033203,0.01898757368326187,0.5561696887016296,0.2647347152233124,0.8072430491447449,-1.225553035736084,0.1005508229136467,1.743594765663147,-0.09737944602966309,0.0847768560051918,0.9494839906692505,-0.4385995864868164,0.061021823436021805,1.0887420177459717,-0.9068490862846375,-1.1258902549743652,-0.12802040576934814,0.9265814423561096,-0.0027482639998197556,-0.7473441958427429,1.5939356088638306,0.2265300154685974,0.2870314419269562,-0.05557850003242493,-0.2386351078748703,0.1544904112815857,-0.350166916847229,-0.3380831182003021,0.14230364561080933,-2.202004909515381,-0.5813071131706238,-0.3262014091014862,-0.007651659194380045,0.19990459084510803,1.8053401708602905,-0.8728178143501282,-0.5172749757766724,-1.0744410753250122,-0.7971718311309814,0.37085431814193726,0.2767690420150757,0.47058430314064026,0.3123738169670105,0.44408300518989563,-0.572758674621582,0.8600673079490662,0.35341575741767883,-0.3009353578090668,-0.2327362447977066,0.6861478090286255,-0.21838362514972687,0.7618923187255859,-0.5803049206733704,-0.16591505706310272,-0.03723182901740074,-0.34996548295021057,-0.6500793099403381,0.05572883412241936,-1.1401221752166748,-1.3388835191726685,-0.3493064343929291,0.03915819153189659,0.5110366344451904,0.21030350029468536,-1.7776557207107544,-0.3374277353286743,0.22752052545547485,0.24940982460975647,-0.34905171394348145,0.11898557096719742,0.17448480427265167,-1.7845886945724487,-0.33917030692100525,0.2917865514755249,-0.17361001670360565,-0.4273492693901062,-0.10597629845142365,0.5228881239891052,-0.08415493369102478,0.23102208971977234,-0.5658137202262878,-0.2875639796257019,-0.23842617869377136,1.317621111869812,-0.7195426225662231,0.4870256185531616,0.48436635732650757,0.6685855388641357,0.8806840777397156,-0.08924318850040436,-0.11590909212827682,0.48055535554885864,0.72064208984375,-0.7614368200302124,-0.076209157705307,-0.04073012247681618,-0.46027621626853943,2.202301263809204,0.15521344542503357,0.15982107818126678,0.5060773491859436,-0.08582936972379684,-0.14408931136131287,-0.6289047002792358,-1.0462327003479004,0.29211053252220154,0.3206329941749573,-0.5900698304176331,0.3772212862968445,1.4809750318527222,-1.1521666049957275,0.5212238430976868,0.19237332046031952,0.27324509620666504,-1.6139553785324097,0.6066462993621826,-0.059058867394924164,-0.2881518304347992,-0.9792054891586304,1.1743335723876953,-0.23536430299282074,0.98666912317276,-0.28939560055732727,-0.10587500035762787,0.078150674700737,-0.7289340496063232,-0.6353445053100586,-0.714026927947998,-1.3054146766662598,0.7889313697814941,1.4769287109375,0.16012802720069885,-0.017788836732506752,0.5306285619735718,-1.4753479957580566,-0.21167480945587158,-0.595517098903656,0.20581115782260895,-0.6867778301239014,0.5725840330123901,-1.1592777967453003,-1.1087749004364014,1.4144048690795898,-0.7858901023864746,0.9099858403205872,0.5744045376777649,-0.6365631818771362,-1.452349066734314,-0.9926937818527222,1.3396576642990112,-0.7278895378112793,-1.4021599292755127,-0.05842100456357002,0.5996121168136597,1.5627412796020508,1.463868260383606,1.2371296882629395,1.246300220489502,-1.0419474840164185,-1.1962491273880005,-1.881132960319519,-0.5066086649894714,-0.8215097188949585,-0.6657639741897583,0.9092256426811218,2.049250364303589,0.6352161169052124,-0.5274965763092041,-1.8571877479553223,-1.9425963163375854,-0.08659715950489044,-0.9925452470779419,-0.40524962544441223,-0.3824385106563568,-0.8625901341438293,-0.23112384974956512,0.30049052834510803,-0.14476077258586884,-0.5512455105781555,0.5357503294944763,-0.35661590099334717,-0.365298867225647,1.0217474699020386,-0.0008280212641693652,0.43196386098861694,0.4619806408882141,0.42842337489128113,0.15486657619476318,-0.19882908463478088,0.736348569393158,0.7375301122665405,0.2344662845134735,0.1149560883641243,0.43120864033699036,0.6401535868644714,0.2988230288028717,0.07164911180734634,0.8904829025268555,0.2755906879901886,-0.5221076011657715,0.8343263864517212,-0.29439297318458557,-0.7092573046684265,-2.3616790771484375,-1.760520100593567,0.8094765543937683,-0.6155771017074585,0.4602242112159729,0.4543170630931854,-0.13256599009037018,-0.15293189883232117,-0.2219957858324051,-0.4094626009464264,-0.3615833818912506,0.4794538915157318,0.23435412347316742,-1.2504148483276367,-0.09068457782268524,1.178840160369873,-0.6224562525749207,0.5679920315742493,0.11010389029979706,0.7212601900100708,-0.04484621062874794,0.06236713007092476,0.7962067127227783,-0.3165910840034485,-0.29811814427375793,0.06645111739635468,2.1094682216644287,-0.08793248981237411,0.10585805028676987,-0.8117738962173462,0.27343443036079407,-0.10846623033285141,-0.0802813321352005,-1.3682453632354736,-0.8975061178207397,0.4306648075580597,-0.8614492416381836,-0.005951683968305588,-0.2556256651878357,0.231551855802536,-0.5053882598876953,0.31757664680480957,-0.45408710837364197,-0.0654338002204895,-0.5783880949020386,0.3510642945766449,0.006288155447691679,0.4100777804851532,0.6931800246238708,0.5308712720870972,0.8191064596176147,0.8866910338401794,0.11958975344896317,0.9621448516845703,0.7925472855567932,-0.5214215517044067,-0.3444192409515381,-0.9902542233467102,-0.8806903958320618,1.3414466381072998,0.20502035319805145,-0.017439113929867744,0.4268125593662262,-0.08323553204536438,-0.15375977754592896,-0.2603532373905182,0.13918444514274597,0.6586380004882812,0.1554519534111023,0.8267421722412109,0.7638773918151855,-0.40753936767578125,0.49576815962791443,-0.16172663867473602,-0.2609034478664398,-0.10256461799144745,0.2569276690483093,0.7953938841819763,-1.5765849351882935,0.19752219319343567,0.5376518368721008,-0.6587192416191101,-1.2518171072006226,-0.21034686267375946,-0.2804591953754425,0.15265442430973053,-1.3218822479248047,0.014450733549892902,1.015923023223877,-0.5346723198890686,-0.09511972218751907,-0.036494575440883636,-0.32501375675201416,-0.4799676537513733,0.1302906721830368,-0.4992012083530426,0.12561041116714478,-0.16148875653743744,-0.27658137679100037,0.4286844730377197,-0.44886645674705505,0.1684153825044632,-1.1494923830032349,-0.7875962853431702,0.9233325719833374,-0.8067566752433777,0.6657654643058777,0.38170212507247925,0.3750719726085663,-1.7353569269180298,-1.0390769243240356,0.9671930074691772,-0.4321586489677429,-1.1132906675338745,0.25687503814697266,0.5310505032539368,1.4243810176849365,1.4076693058013916,1.0971993207931519,0.8176387548446655,-1.0667024850845337,-1.7291970252990723,-1.4728822708129883,-0.21822600066661835,0.12017852067947388,-0.7868576049804688,0.7578089833259583,1.8684566020965576,0.8181452751159668,-0.3174107074737549,-1.5747466087341309,-1.6455938816070557,-1.952883243560791,-0.23697759211063385,0.6816511154174805,-0.11954891681671143,0.8796032667160034,-0.041711512953042984,0.3372611701488495,-0.6361661553382874,0.48365116119384766,-0.264253705739975,-1.056850790977478,-0.1831415593624115,-0.09444806724786758,0.6903334259986877,0.12853804230690002,1.1780813932418823,-0.8996848464012146,-3.2390997409820557,-1.2628711462020874,-0.5513350963592529,0.019570328295230865,0.21272754669189453,1.348001480102539,1.9194964170455933,-0.6044939756393433,-0.031444258987903595,-0.9474899768829346,-0.7512831091880798,-1.0112172365188599,0.2820013761520386,-0.43559396266937256,0.26623785495758057,0.3400215804576874]},"inputHidden":{"rows":20,"columns":20,"weights":[-0.10604313760995865,-0.3300946056842804,-0.6184877157211304,-0.44666364789009094,3.4876930713653564,3.1726596355438232,-0.34915974736213684,-0.08900900185108185,-0.23305772244930267,-1.6753168106079102,2.053889751434326,0.8920680284500122,-0.48526135087013245,-1.1682047843933105,0.3521336615085602,0.41490471363067627,-0.057246603071689606,0.1314360350370407,0.2186257541179657,0.37345579266548157,2.7640931606292725,2.1516547203063965,-0.8615938425064087,-0.9409765601158142,0.09812004119157791,-1.1851004362106323,-0.4540499746799469,0.8342636227607727,-0.9811621308326721,1.60564386844635,0.05449280887842178,-1.0663385391235352,-1.5489850044250488,-0.9541848301887512,-0.47902238368988037,-1.2687910795211792,-1.5006768703460693,0.8827012181282043,-0.41173216700553894,0.8516902923583984,-0.04292972385883331,-0.4011276662349701,0.3086530566215515,0.6816198825836182,-0.10885834693908691,0.003920866642147303,-0.09481250494718552,-0.6309707164764404,0.7762601971626282,-0.2348308563232422,0.5729726552963257,-0.49836522340774536,-0.30145472288131714,-0.1313255876302719,-0.5406265258789062,0.05783924460411072,-0.41804641485214233,-0.663475751876831,0.26151570677757263,-0.5667201280593872,0.6906188726425171,1.0803892612457275,0.054018646478652954,1.1121686697006226,0.46200934052467346,0.1028529703617096,-1.0390890836715698,-0.5835592746734619,1.355980634689331,0.4101163446903229,-0.3727665841579437,-1.392619252204895,-1.5888395309448242,-2.1576504707336426,0.9766099452972412,-1.2629468441009521,-1.7726454734802246,-1.2020431756973267,-0.5343058705329895,1.2017991542816162,0.08831018954515457,-2.365900754928589,2.219513177871704,1.2849291563034058,-0.8494887351989746,1.459346890449524,0.1902608573436737,-2.4556422233581543,1.037204384803772,-0.1299215406179428,0.910791277885437,2.3310744762420654,-1.2790573835372925,-0.36194050312042236,0.9393610954284668,-0.12287148833274841,0.5336088538169861,-0.9636092782020569,0.16053850948810577,-1.7130578756332397,-0.6809436082839966,-0.5215201377868652,-0.42684781551361084,-0.6512227058410645,-0.8525212407112122,-0.17028939723968506,0.4653441905975342,1.0643442869186401,-1.1631091833114624,-0.4027222692966461,-1.3823045492172241,0.33039534091949463,1.2115273475646973,0.5413841009140015,-1.8325691223144531,1.480967402458191,1.1689093112945557,0.9362959861755371,0.29577332735061646,0.9839136600494385,1.2285518646240234,1.819488525390625,1.1103426218032837,-0.391922265291214,0.09216297417879105,0.33587417006492615,0.5667203068733215,0.19727422297000885,0.11167024075984955,-0.6102160811424255,0.17073269188404083,-2.0424556732177734,-1.3115662336349487,0.5009669661521912,2.5559630393981934,-1.3025753498077393,-1.9008864164352417,-0.021448267623782158,-0.07764323800802231,0.44488903880119324,0.7543341517448425,1.9667330980300903,-0.11667006462812424,0.1487748771905899,-2.0307133197784424,0.4091791808605194,0.4121274948120117,0.6774390339851379,0.3463355004787445,-0.8914278149604797,-0.7539960741996765,0.166501984000206,-1.2141002416610718,-3.075312614440918,0.8714492321014404,0.2785169780254364,-0.8106793761253357,-0.31829455494880676,-1.2754839658737183,0.8937347531318665,0.5865841507911682,0.5459559559822083,1.6080093383789062,1.469457745552063,-1.933331847190857,-1.6455278396606445,-0.8940527439117432,-1.3124158382415771,0.4541340470314026,1.318729281425476,-2.344280958175659,-0.4480917453765869,-2.664907693862915,-2.8598036766052246,0.7007096409797668,-0.16134020686149597,-0.7281809449195862,-1.3035508394241333,-0.9636420011520386,-1.26872718334198,-0.49094879627227783,-1.6791678667068481,-1.1876509189605713,-0.5497521162033081,0.40935400128364563,-0.08852405101060867,1.4815263748168945,1.686517357826233,-0.037787094712257385,-0.8292425274848938,-0.3348066806793213,-0.4792662560939789,0.293308824300766,1.5535496473312378,-0.9067690372467041,1.7639858722686768,-0.10567057877779007,0.04094855859875679,1.3984944820404053,-0.14435702562332153,-0.8132626414299011,-0.3917703330516815,-0.8433305621147156,0.1309918314218521,2.0854194164276123,0.5851291418075562,0.2582715153694153,-1.7005624771118164,0.6576208472251892,0.16036808490753174,2.153294086456299,0.8302888870239258,2.49104380607605,0.4617796540260315,-0.3826203942298889,0.18634168803691864,0.5920447707176208,-0.8298454284667969,0.18131856620311737,-0.6582044363021851,1.136195421218872,0.5576757192611694,0.7368600964546204,1.1659636497497559,0.6367278695106506,2.2444381713867188,-0.7174432277679443,-0.4316030442714691,0.9220033288002014,-2.119119882583618,0.5012317299842834,2.3409793376922607,-1.4778351783752441,-1.840555191040039,2.088899612426758,1.7694287300109863,-0.6920920610427856,-1.108137607574463,-0.3610352873802185,-0.9080416560173035,-0.5672558546066284,-0.16279183328151703,0.3883589506149292,0.6913419365882874,-0.3734492361545563,-0.2903824746608734,-2.8424317836761475,-0.9343993663787842,1.3940201997756958,1.109678864479065,-0.6715096831321716,-0.5475279092788696,-0.292716383934021,-3.1519105434417725,0.04975391924381256,-0.5126957297325134,1.2496349811553955,-0.9249720573425293,-0.026551634073257446,-0.584231972694397,0.683053731918335,0.651758074760437,1.0317403078079224,-0.08634066581726074,-0.24959449470043182,-0.38205039501190186,-0.4311550557613373,-0.6868706941604614,0.0051591042429208755,-0.30077099800109863,1.5913819074630737,-1.6148157119750977,-0.4673301577568054,-0.29396340250968933,0.4920026659965515,-0.7628616690635681,0.016137979924678802,0.057526469230651855,-0.8376622796058655,-0.10971825569868088,0.32825830578804016,2.818887233734131,2.353476047515869,1.9457719326019287,0.9465109705924988,1.3905348777770996,0.06863010674715042,-2.0095694065093994,0.957984983921051,-0.17899800837039948,1.5026326179504395,0.39333686232566833,-0.6136724948883057,1.0394532680511475,1.8509169816970825,0.7052119374275208,0.15514935553073883,-1.6979455947875977,-0.6198157668113708,-2.218815326690674,-0.4994673430919647,-0.22105783224105835,0.8696600794792175,0.2859465479850769,-0.659740686416626,-0.7754933834075928,1.0466225147247314,-0.459479957818985,0.5306975841522217,-0.5983574986457825,-0.2871611714363098,0.41830405592918396,-0.7797229290008545,-0.34270355105400085,-0.16485223174095154,0.3623098134994507,0.13175885379314423,-0.19681416451931,0.597616970539093,-0.44146811962127686,-1.0915559530258179,0.11732771247625351,0.0990382730960846,-0.0900547206401825,2.190025568008423,2.8728864192962646,-1.3947081565856934,0.19090420007705688,0.48600172996520996,-0.8482257127761841,-0.5434108376502991,0.6959258317947388,-1.4256821870803833,0.8376622200012207,1.2819290161132812,-0.17348726093769073,1.0194824934005737,-0.2423490732908249,0.4316287040710449,0.5619659423828125,0.7797679305076599,0.706955075263977,0.05042484775185585,1.806592583656311,-0.9243536591529846,-0.08288364857435226,0.0826658308506012,-1.3206169605255127,1.0838948488235474,0.10738277435302734,-0.5908157229423523,0.5166487693786621,0.14226819574832916,-1.4364711046218872,-0.19679756462574005,-0.2940137982368469,-0.553706705570221,-1.6301534175872803,-1.9477684497833252,-1.4257400035858154,0.8921710252761841,0.49989575147628784,1.041304349899292,0.7748264074325562,-0.5911118388175964,0.506800651550293,0.2861934006214142,-0.7580825090408325,0.2757872939109802,-0.7702100872993469,0.3610953092575073,-1.0536859035491943,-0.30675873160362244,-0.6008558869361877,0.04729866608977318,-0.6639061570167542,-0.5338189601898193,-0.6999986171722412,-0.5758830904960632,-0.4841187298297882,-0.33186763525009155,0.32350286841392517,-0.34200143814086914,0.42621415853500366,-1.2224498987197876,1.2277202606201172,0.6149265766143799,0.01031309925019741,0.3978968858718872,-1.6114636659622192,-0.8354412317276001,0.4655288755893707,0.10659386217594147,-1.1441967487335205,-0.48852020502090454,0.15957854688167572,0.04741344973444939,-0.24261102080345154,0.7674990892410278,-0.0802106112241745]},"inputBias":{"rows":20,"columns":1,"weights":[-2.252981662750244,-1.3203204870224,-0.529052734375,-0.41178426146507263,-0.7729312777519226,-0.3839062452316284,0.12725742161273956,-1.242646336555481,-0.6998293399810791,-0.8718323111534119,-1.0341711044311523,-1.6018608808517456,1.0474761724472046,-0.15212556719779968,-0.9362573623657227,-1.982305884361267,-0.11347049474716187,-0.4258607029914856,0.37022194266319275,-0.8636789321899414]},"forgetMatrix":{"rows":20,"columns":33,"weights":[-0.5603569746017456,-0.8154023289680481,0.29553142189979553,-0.40567147731781006,-0.030006956309080124,-0.9648815989494324,0.4838885962963104,-0.684934139251709,0.8789443969726562,-0.3662501871585846,0.1579747349023819,-0.6838578581809998,-0.013388779945671558,0.06366568803787231,0.472345769405365,0.6639636158943176,0.92880779504776,0.18028585612773895,0.15554818511009216,0.13098660111427307,0.16766881942749023,1.0548598766326904,-0.3425566256046295,0.29106441140174866,-0.6975145936012268,-0.774144172668457,-0.41288819909095764,-0.18919001519680023,-0.3411148488521576,0.8005004525184631,0.46218302845954895,0.25294843316078186,0.017577258870005608,0.5500287413597107,0.31362465023994446,0.8361598253250122,0.18139852583408356,-1.2338576316833496,-0.35275715589523315,0.9666988849639893,-1.0616406202316284,0.6007522344589233,-1.033180832862854,-0.8383229374885559,0.15514512360095978,0.3698350489139557,-1.2006053924560547,0.5830793380737305,0.5952156782150269,-1.0648201704025269,-0.7286749482154846,-0.5391181111335754,-0.7184178829193115,-0.04155265539884567,1.3687241077423096,-0.35516050457954407,1.0128904581069946,-0.5778104662895203,-0.5351550579071045,1.4360252618789673,-0.596881091594696,-0.5449244976043701,0.5282639861106873,1.1274656057357788,0.41882064938545227,0.38369008898735046,-0.295576810836792,-0.3504514694213867,0.2193068563938141,-0.5698414444923401,0.1993531584739685,0.4706677496433258,-0.8816057443618774,-1.4480748176574707,-0.13371817767620087,-0.19560104608535767,-1.1827443838119507,0.3264811933040619,0.37936949729919434,-0.06630335748195648,-0.8612475395202637,0.9828338027000427,-0.4627889096736908,0.050947483628988266,0.30310162901878357,-0.7531872987747192,0.6517442464828491,0.9353444576263428,0.3287225067615509,0.054917801171541214,-0.596657395362854,-0.4958687424659729,0.44658321142196655,-0.3075190484523773,-0.7646092176437378,-0.10412244498729706,-0.38742485642433167,0.3163345754146576,0.08106790482997894,1.0569628477096558,0.06952120363712311,-1.4264490604400635,0.1556626558303833,0.23488081991672516,-0.28835710883140564,0.003799632890149951,-0.1345108598470688,-1.4435648918151855,1.4148428440093994,0.7973615527153015,0.3690899908542633,-1.1663633584976196,-0.0546414814889431,-0.005415732506662607,-1.119472622871399,-0.8294749855995178,-0.9711552858352661,0.027982130646705627,0.22433969378471375,-0.7487298846244812,0.23529145121574402,0.6815180778503418,-0.13993041217327118,1.4894599914550781,1.0747593641281128,1.045415997505188,-0.11239397525787354,0.016139661893248558,-0.9720304012298584,-0.21382597088813782,-0.016882048919796944,1.2982486486434937,-0.7234113812446594,0.22906529903411865,1.3993130922317505,0.8982247710227966,-0.29591548442840576,0.30786964297294617,0.2989734709262848,-0.1279909610748291,0.6488433480262756,-1.5594760179519653,0.6463094353675842,0.7100483179092407,0.488096684217453,-0.5100378394126892,0.38411813974380493,0.793045699596405,-0.5465302467346191,-0.8947807550430298,-0.5652979016304016,-0.37413448095321655,-0.7476881146430969,0.17388534545898438,-0.08461765944957733,0.577190637588501,-1.8143407106399536,-0.696627676486969,-0.8317241072654724,-0.456964910030365,-0.438411146402359,0.9647133350372314,0.22952508926391602,0.26199790835380554,0.9773736596107483,2.442126989364624,0.7337732911109924,-1.5946515798568726,-0.10772381722927094,-0.2784431576728821,-0.10784231871366501,0.1332157999277115,-0.10688946396112442,-1.10823655128479,1.2442233562469482,0.928180992603302,-0.0042268517427146435,-0.7538357973098755,-0.3792446255683899,-0.11239121854305267,-2.287339210510254,-0.06224507465958595,0.1025918573141098,0.706893265247345,-0.041266702115535736,-0.09961038082838058,-0.023325804620981216,-0.7369410991668701,-0.575157642364502,1.4607243537902832,0.40298184752464294,0.5083027482032776,0.19563981890678406,0.48919543623924255,0.020529497414827347,-0.09723272174596786,-0.3823307752609253,0.8228043913841248,0.7672522664070129,-1.8806194067001343,-1.3988019227981567,0.7598028182983398,0.43655848503112793,-0.3668011724948883,-0.6711440086364746,0.17251275479793549,-1.28666353225708,1.295009732246399,0.19688266515731812,-0.6245546936988831,-0.6200249791145325,0.6570857167243958,-0.20760402083396912,-0.6963842511177063,0.3990907669067383,-1.8532763719558716,0.04690099135041237,0.5852049589157104,-1.414311408996582,0.027548478916287422,0.6227070689201355,1.0460039377212524,1.3642942905426025,1.1078706979751587,-0.5849217772483826,0.38544341921806335,-0.5478008389472961,-1.1624853610992432,0.3745032250881195,0.5235313773155212,0.48565810918807983,-1.034628987312317,-0.21033668518066406,-0.6173573136329651,0.4412245452404022,0.5955826640129089,-0.2506149113178253,0.24511516094207764,-1.244001865386963,-0.48442521691322327,0.6466610431671143,-0.08718059211969376,0.06182374805212021,-0.2346031814813614,-0.010133959352970123,0.16078831255435944,0.6271087527275085,-0.6541479825973511,-0.06471771746873856,-0.023122046142816544,0.355712890625,-0.5248804092407227,1.3216553926467896,1.489156723022461,0.4187223017215729,-0.48378700017929077,0.07452059537172318,0.33167535066604614,0.2516701817512512,0.02724313549697399,-0.44118010997772217,0.4312420189380646,-0.5724108219146729,0.08486304432153702,0.615070641040802,0.19519102573394775,-1.1532100439071655,-0.07108300179243088,0.7081502676010132,0.5499898791313171,-0.20201893150806427,-0.19537322223186493,-0.9491748809814453,0.771955132484436,-0.3690142333507538,0.8176838755607605,-0.2558937668800354,-0.32471540570259094,-0.05391860380768776,-0.5605471730232239,-0.717683732509613,0.08045998960733414,-0.6374614238739014,0.24614852666854858,-0.380418598651886,-0.19896115362644196,0.6676846742630005,-0.47752898931503296,1.082778811454773,1.2250416278839111,1.9320437908172607,-0.4572047293186188,0.11564010381698608,-0.6219172477722168,-0.5400105118751526,-0.21815118193626404,-0.14445434510707855,0.004427106119692326,-1.2346503734588623,-0.7505049109458923,0.7139894366264343,0.1907956600189209,-1.5045092105865479,0.5331407189369202,-0.341477632522583,-1.1957182884216309,0.8575347661972046,2.223228931427002,-0.25797951221466064,-0.7251788973808289,1.291001558303833,0.7825179100036621,-0.5556634664535522,0.32437923550605774,-1.196898341178894,-0.1043100580573082,0.8300478458404541,-1.018869161605835,0.8700946569442749,1.6217697858810425,1.3575124740600586,1.0805977582931519,0.33570021390914917,-0.7592130303382874,0.13768263161182404,-0.4311959147453308,-1.9937914609909058,1.4594782590866089,0.6090236306190491,-0.7051033973693848,0.3596911132335663,0.24379324913024902,-0.4886661469936371,0.5450171828269958,0.21318329870700836,-0.3892761766910553,-0.3910254240036011,-0.04597880691289902,-0.25181224942207336,0.40274718403816223,0.2469945102930069,0.31947824358940125,-1.7922865152359009,0.7328452467918396,0.11702423542737961,-0.5202326774597168,-0.08182878792285919,-0.8670021891593933,-0.19715969264507294,-0.01106765866279602,-1.3966081142425537,-0.8763516545295715,0.11950758099555969,0.4295175075531006,0.7309022545814514,0.9372957944869995,-1.6902812719345093,-0.32820042967796326,-0.17601889371871948,-1.064287781715393,0.0026923881378024817,0.4759245216846466,0.5481773614883423,1.3494744300842285,-0.06863127648830414,-0.08394088596105576,-0.5957546830177307,0.961051881313324,2.7671568393707275,-0.9958180785179138,0.41519632935523987,-0.6063351631164551,0.11821368336677551,-0.6793041825294495,0.8770828247070312,1.2802826166152954,-0.4448382556438446,-1.6888705492019653,-0.6438073515892029,0.8431543707847595,1.9772400856018066,1.219680905342102,0.3098164498806,0.09180787205696106,-0.6878482103347778,-0.15628613531589508,-1.3224161863327026,-0.4180968403816223,-0.02906706929206848,1.347304344177246,0.39982861280441284,1.5305453538894653,0.01492387242615223,0.9124923944473267,-1.1943573951721191,-2.037407636642456,2.06489634513855,0.1895163506269455,-0.2714875340461731,0.5388009548187256,-1.2868642807006836,-0.3408675193786621,0.6363466382026672,-0.16746510565280914,-0.3750300705432892,0.2798847556114197,0.37540748715400696,0.24022576212882996,0.7712595462799072,-1.8836435079574585,0.5511501431465149,-0.30349403619766235,-0.17309515178203583,-0.19790048897266388,-0.217742457985878,-0.5026775002479553,-0.23793713748455048,0.1365906149148941,0.34595367312431335,0.19328799843788147,0.3132982552051544,-0.21661096811294556,0.2486283779144287,-0.16640490293502808,0.7278323173522949,-0.4006979465484619,0.7081157565116882,-0.49390965700149536,-0.023456353694200516,0.08590732514858246,-0.653138279914856,-0.7054188847541809,0.387859970331192,0.5344538688659668,-1.000939965248108,0.726941704750061,-0.5057976245880127,-0.5103861689567566,0.4794778525829315,0.6313061714172363,-0.3874374032020569,-0.7593322992324829,1.1037547588348389,0.729883074760437,-0.5374624729156494,0.41967687010765076,-1.302838683128357,-0.24361561238765717,0.6920602917671204,-0.20589135587215424,0.4984842538833618,0.01957610808312893,1.1910104751586914,0.6697536706924438,0.4412154257297516,-0.5312166810035706,0.2509392201900482,-0.6614209413528442,-0.744172215461731,0.9666230082511902,0.39477935433387756,-0.4596613943576813,0.32421359419822693,-0.7818115949630737,0.4743961989879608,0.08901990950107574,-1.0634686946868896,0.45431357622146606,-0.27314239740371704,-0.5080852508544922,0.5502194762229919,-0.8694338202476501,-0.7251030206680298,0.2936531603336334,-0.20382270216941833,-0.39445996284484863,-0.02944735251367092,1.0398430824279785,-0.6474660634994507,-1.1130986213684082,-1.1919454336166382,-0.23881375789642334,-0.21939122676849365,0.7123761177062988,0.4269038736820221,1.466604471206665,-0.4590586721897125,0.3261149823665619,0.4921119511127472,-0.9109545946121216,-1.3489189147949219,-0.0636371299624443,0.8708313703536987,0.5961766242980957,0.09937290847301483,0.6266843676567078,-0.8846632242202759,-1.0928857326507568,-0.314357191324234,0.13121609389781952,1.0653165578842163,-1.4197007417678833,0.595426082611084,-1.3260215520858765,0.8085351586341858,0.5150209665298462,-0.43386057019233704,1.0482465028762817,-0.00916266068816185,-1.1539357900619507,0.17921212315559387,1.1177514791488647,0.2788068354129791,0.3396928906440735,-0.04164634272456169,0.2118840515613556,-0.3466489017009735,0.30053168535232544,0.5181530714035034,0.8705422878265381,0.8563287258148193,1.061989188194275,0.7515592575073242,0.028421079739928246,-0.8327823281288147,0.3790862560272217,0.572063684463501,-0.23986613750457764,0.20385149121284485,1.1656110286712646,0.6668409109115601,-1.0726430416107178,0.7798957824707031,1.9036643505096436,-0.14365024864673615,0.47250649333000183,0.6011074185371399,-0.6465795636177063,-0.8745485544204712,1.1200608015060425,1.6468812227249146,0.44011619687080383,-1.202757716178894,-0.3752097189426422,-0.13264626264572144,1.8844109773635864,0.3488800823688507,-0.06570956856012344,0.34433674812316895,-0.7919743061065674,-1.1816972494125366,-1.4405168294906616,-1.2182645797729492,-0.8000413179397583,-0.42028334736824036,-0.10031212121248245,2.1288163661956787,1.038626790046692,0.8392269611358643,-1.8259552717208862,-2.275573968887329,1.7573435306549072,-0.1978914439678192,-1.320737600326538,-0.025439662858843803,-0.12870754301548004,-0.31339508295059204,-0.05433936044573784,-0.7395184636116028,-0.964269757270813,1.0856575965881348,0.7823019623756409,-0.18649831414222717,-0.4480748176574707,-0.3260362446308136,-0.007779990788549185,-0.7885419726371765,-0.3229704201221466,0.0947103500366211,0.5520046353340149,-0.12529534101486206,-0.08801566064357758,0.05492928996682167,-0.004051967989653349,-0.33987942337989807,2.0010757446289062,0.42766860127449036,0.21548567712306976,0.15913574397563934,-0.07957707345485687,-0.3488953411579132,-0.4503462612628937,0.307212233543396,0.7675606608390808,0.07283245027065277,0.3726132810115814,-0.5555857419967651,0.18449293076992035,1.8356139659881592,0.9128069281578064,-0.723590612411499,0.6211881041526794,-0.27174773812294006,0.6911013722419739,-0.35016945004463196,0.03380465507507324,-0.392715185880661,0.964624285697937,-0.7265876531600952,-0.1247413381934166,-0.16919377446174622,0.826053261756897,0.5080181360244751,0.6162554621696472,-0.12962467968463898,-1.4347178936004639,0.8245423436164856,-0.9548121094703674,0.0033883561845868826,1.051634669303894,-0.7859609127044678,0.417489230632782,1.0811223983764648,-0.5871264338493347,-0.4202110171318054,-0.7961653470993042,-0.3381403684616089,0.5957985520362854,0.6607071161270142,-0.32015249133110046,0.8246994018554688,-0.08676701039075851,-0.22552508115768433,0.7709891200065613,-1.027013897895813,-0.34599608182907104,0.42988333106040955,0.26049625873565674,0.9825983047485352,-0.6138243079185486,-0.588026762008667,0.4835699200630188,-0.12328313291072845,-1.0168324708938599,-1.1286190748214722,-1.0719211101531982,-0.6543806791305542,-0.649707019329071,0.721451997756958,0.40910688042640686,-0.18899215757846832,0.08455994725227356,-0.03699466213583946,1.2831056118011475,-0.7338413596153259,-0.21772220730781555,-0.02647019922733307,0.3919605314731598,0.08419305086135864,0.3580053448677063]},"forgetHidden":{"rows":20,"columns":20,"weights":[-1.114041805267334,-0.9981030821800232,1.3211191892623901,0.4691663384437561,2.036363363265991,-0.8338871598243713,-0.6248546242713928,-0.07782379537820816,-0.42115259170532227,-0.691829264163971,1.5430912971496582,0.19331003725528717,0.6130164265632629,0.7243847846984863,-0.4847226142883301,-0.3025013506412506,0.7160789966583252,-0.445663183927536,0.8646910190582275,1.3190727233886719,-0.7382279634475708,-0.8186385631561279,0.8665384650230408,-0.10154060274362564,-0.15125982463359833,0.12860098481178284,-0.47008752822875977,0.926034152507782,-0.967684268951416,0.28731706738471985,0.5015065670013428,0.33580282330513,-0.47982844710350037,0.8792473673820496,-0.8742509484291077,-0.2655395269393921,-0.05454176291823387,-0.13533633947372437,0.9232333898544312,0.8717796206474304,2.6353445053100586,2.4359660148620605,0.17431002855300903,-0.22521302103996277,-2.5159568786621094,-2.037755012512207,0.47636908292770386,-0.35254549980163574,-2.282628297805786,1.6460305452346802,-0.01086071040481329,-2.1699211597442627,-1.4533207416534424,0.1119460016489029,1.8451765775680542,-1.2002794742584229,-0.09576877951622009,0.30306780338287354,-2.9180142879486084,0.7442735433578491,1.5896669626235962,2.8602397441864014,0.5519229173660278,0.18145085871219635,0.1811429113149643,1.6991641521453857,-1.2233924865722656,-0.45882782340049744,-0.883004367351532,0.5135734677314758,-0.020316949114203453,-0.8723702430725098,-1.0181260108947754,0.778926432132721,2.666044235229492,-1.6211698055267334,-1.4718469381332397,-0.05151746794581413,-1.2926465272903442,-0.024438563734292984,-1.278791904449463,-0.7964625358581543,-0.6779381036758423,0.4049065113067627,1.1233420372009277,-1.1128947734832764,1.4315786361694336,-0.5987617373466492,1.1468106508255005,0.28434863686561584,1.3906829357147217,1.014328122138977,2.277539014816284,-0.8984736800193787,-0.7432602047920227,1.3076926469802856,2.213099718093872,-0.7973623871803284,2.196451425552368,0.6812266707420349,-0.23295749723911285,-0.05680881813168526,1.0391182899475098,0.5782954692840576,1.202988862991333,0.8957942128181458,0.5917697548866272,-0.9244375228881836,0.7826228737831116,-0.6388992071151733,-0.044235724955797195,-0.36188679933547974,0.0492931604385376,0.36103272438049316,1.0337538719177246,-0.6674224734306335,0.025418469682335854,-0.771167516708374,0.07659505307674408,-0.5538607835769653,-0.11322444677352905,-0.16410693526268005,-0.33452752232551575,0.10739970207214355,0.31162792444229126,-0.8069422841072083,0.5031976699829102,1.036241054534912,-0.52584308385849,-0.21434730291366577,-1.0257482528686523,0.6285623908042908,1.2046465873718262,1.2023565769195557,0.35033226013183594,0.5643234848976135,0.8194596767425537,-0.04617927223443985,-0.5451781749725342,-0.007005087565630674,-0.3017643690109253,-1.303025484085083,2.655684232711792,2.0455832481384277,-0.5120358467102051,2.946004629135132,0.20270273089408875,-1.9996821880340576,0.8179292678833008,-0.37152230739593506,-0.8449401259422302,1.7774094343185425,0.3769769072532654,1.7866042852401733,0.20453818142414093,1.011694312095642,0.5579178333282471,-1.7066888809204102,0.2828689217567444,-3.1809844970703125,0.5941504240036011,-0.09731490164995193,0.8376085162162781,0.7477728128433228,-0.29712408781051636,0.5749654173851013,-1.705584168434143,-0.7915771007537842,1.4012811183929443,1.100271224975586,-0.3194567561149597,-1.695797324180603,-1.3010849952697754,-0.5327162742614746,-0.18750949203968048,-1.6092299222946167,-1.3734567165374756,-1.0771880149841309,0.18722593784332275,-0.8022394776344299,-0.243799090385437,0.20996524393558502,-0.3516749143600464,-0.043484970927238464,0.30636125802993774,-0.03373967856168747,0.17560675740242004,-0.4765262007713318,-0.02979063242673874,-0.14036692678928375,-0.1318008452653885,0.33441460132598877,0.3991754949092865,0.15187598764896393,0.08762558549642563,0.18199874460697174,1.2342032194137573,-0.10322107374668121,0.1583629846572876,0.5381887555122375,0.5437759160995483,0.12739667296409607,0.450576514005661,0.5242630243301392,1.588363528251648,-0.052794624119997025,1.431597352027893,-0.2133602350950241,0.24517127871513367,-1.3880209922790527,0.5431578159332275,0.22189639508724213,-0.5230055451393127,-0.6358219385147095,0.16512051224708557,0.9347884058952332,-0.014511019922792912,-0.40677782893180847,-0.27823302149772644,-0.27550992369651794,0.4357161819934845,0.8171195387840271,-2.8987810611724854,0.023318620398640633,0.7082048654556274,0.5480836033821106,0.658135175704956,-0.4132724404335022,-0.06144227087497711,0.023967551067471504,1.985244870185852,0.17187610268592834,-0.29358187317848206,-0.3881009817123413,0.6577901244163513,0.43104103207588196,0.44686630368232727,-0.33576253056526184,-0.5258929133415222,-0.007650537416338921,-0.019567424431443214,0.012811580672860146,2.5205724239349365,0.8798030614852905,1.477156162261963,1.379445195198059,0.3970005512237549,-1.3699545860290527,0.9909888505935669,-4.139001846313477,0.5625504851341248,-0.7788172364234924,1.0641896724700928,-0.8873194456100464,0.11641348153352737,-0.233986958861351,-0.18068721890449524,-1.0585860013961792,-0.9020103216171265,-1.1687995195388794,1.366642951965332,1.6031550168991089,-1.0757665634155273,-1.8194597959518433,-0.36033833026885986,-1.0113178491592407,-0.9293335676193237,0.6035739779472351,-1.8045589923858643,1.3803521394729614,1.737359881401062,-1.933834433555603,-0.4874138832092285,-0.2993694841861725,0.9521968960762024,-2.0809037685394287,-1.4918313026428223,1.6405198574066162,-1.155686616897583,2.268817663192749,-0.4373662769794464,-0.6165273785591125,0.17311649024486542,0.0013241000706329942,0.04756106808781624,0.2352553755044937,-0.683681845664978,-0.33346015214920044,-0.3802390992641449,-0.38165196776390076,1.1018811464309692,-0.12522929906845093,0.8278540968894958,1.0343095064163208,-1.3706878423690796,-0.9226570725440979,0.15990538895130157,0.2421552687883377,0.7227619290351868,-0.24473392963409424,-1.5098693370819092,-1.1076523065567017,-2.2234036922454834,-0.04380711913108826,1.4131300449371338,1.3367830514907837,0.9343996644020081,0.8704445362091064,-0.014511140994727612,-0.8210103511810303,-0.13710340857505798,0.2064812034368515,1.2122987508773804,1.3875188827514648,-0.2810569405555725,1.2831007242202759,1.371377944946289,0.7026330828666687,1.4572575092315674,-0.40309351682662964,-0.4004475176334381,0.24678821861743927,-0.3117856979370117,0.6326035261154175,0.29126715660095215,1.498807430267334,-0.35822784900665283,-1.3765801191329956,0.6347154378890991,-0.7476565837860107,1.577972173690796,1.2929668426513672,0.46849438548088074,-0.41240882873535156,-0.21504908800125122,0.6941145658493042,0.5028670430183411,0.2889275550842285,0.39969402551651,-1.2945011854171753,-0.6191061735153198,0.40431106090545654,1.5032397508621216,0.6116969585418701,-0.16175009310245514,0.38886579871177673,-0.22973492741584778,-1.398645281791687,-0.8413853645324707,0.3368907868862152,-1.2414981126785278,-0.9902267456054688,1.1488397121429443,1.1804921627044678,0.14012333750724792,-1.3420369625091553,-0.1741970032453537,-0.29082873463630676,1.0383400917053223,-1.1949790716171265,0.5572386384010315,0.8837520480155945,0.39951252937316895,-0.6825218796730042,-0.21754863858222961,-1.5077537298202515,-1.125162124633789,0.35300174355506897,-1.2920068502426147,1.3952137231826782,0.25411051511764526,-0.24643370509147644,-0.9368188977241516,-0.5899748206138611,0.8394042253494263,-0.15934151411056519,-0.7537803053855896,-0.26337000727653503,-1.3752297163009644,0.9125151038169861,1.420179843902588,-0.3706507086753845,1.5066206455230713,2.563932180404663,0.6634452939033508,-0.10846680402755737,-0.043767306953668594,-2.081087827682495,1.3637194633483887,1.6275581121444702,0.5604020357131958,1.1962724924087524,1.27102792263031,1.2496143579483032,0.21948759257793427,0.554466724395752,-0.9258480668067932,-1.9812926054000854,-1.0962942838668823,-1.9519938230514526]},"forgetBias":{"rows":20,"columns":1,"weights":[0,0,0,0,0,0,0,0,0,0,0,0,0,0,0,0,0,0,0,0]},"outputMatrix":{"rows":20,"columns":33,"weights":[-0.4260139763355255,-0.8843886852264404,0.3351813554763794,-1.1758763790130615,-0.3202448785305023,0.5431284308433533,-0.6706797480583191,0.3425976634025574,0.25993335247039795,-0.09753008931875229,-1.0038341283798218,-0.968329668045044,0.38981136679649353,0.14417318999767303,-1.0614618062973022,-0.23678112030029297,0.8069775700569153,0.3059755563735962,1.3903614282608032,0.6078206896781921,0.9010761976242065,-0.8028499484062195,-0.8793938755989075,-1.298484206199646,-0.07261136919260025,-0.0792793408036232,-0.5306807160377502,0.8048613667488098,1.7686610221862793,0.503178596496582,0.053804948925971985,-1.5840582847595215,-1.158373236656189,-2.1570324897766113,0.7035598158836365,1.3414599895477295,-1.0271639823913574,-0.10685062408447266,0.8774598240852356,-0.5332726240158081,-0.22439666092395782,1.0244520902633667,-1.1387107372283936,-1.6909722089767456,-0.19991455972194672,0.2854686677455902,-0.8229320645332336,-0.49306103587150574,2.069315195083618,0.46651533246040344,1.382417917251587,0.6569033861160278,0.10330697149038315,1.3619792461395264,-0.12893043458461761,0.16699282824993134,-0.9023104310035706,-1.797042727470398,-0.7510404586791992,1.0544177293777466,0.20273339748382568,0.2909794747829437,0.32369428873062134,-0.5333393812179565,-0.6688271760940552,-0.4774429500102997,-0.6031240224838257,-0.5793272852897644,-1.1883856058120728,-0.21056972444057465,0.20330840349197388,-0.2933877110481262,0.6830951571464539,0.0755767747759819,-1.1999735832214355,0.8711479902267456,0.21760240197181702,-0.5584574341773987,0.6137260794639587,0.6437890529632568,0.3901587426662445,0.8115684986114502,0.4268213212490082,-0.8904709815979004,-0.23685643076896667,-0.38938167691230774,0.2517065107822418,0.4649372100830078,1.2406193017959595,1.2964494228363037,1.1952941417694092,0.7473047375679016,0.3040371835231781,-0.0025032972916960716,-0.6502602696418762,-1.3176559209823608,0.6315702199935913,0.8227705359458923,0.2708040177822113,-1.0757142305374146,0.2662113308906555,0.20369869470596313,0.5834549069404602,0.5061972737312317,-0.6698330044746399,0.035363201051950455,-0.02706615999341011,0.2485383152961731,-0.2770842909812927,0.1003463864326477,0.04619501903653145,-1.3993147611618042,0.22693303227424622,0.63603276014328,0.4349430799484253,-0.7795430421829224,-1.5664368867874146,-0.7223045825958252,-0.47492605447769165,-0.42880842089653015,-0.0730886161327362,1.091077446937561,0.5534839034080505,-0.4011976718902588,0.10922441631555557,-1.049970030784607,-0.8098781108856201,-1.0278916358947754,-0.14811915159225464,-0.6111809611320496,0.7110846638679504,1.1215492486953735,-0.1003475934267044,-0.25489717721939087,2.394484043121338,-0.030398162081837654,-2.035254955291748,0.6136966943740845,-0.13706284761428833,0.4481687545776367,1.9397790431976318,-1.6777498722076416,-0.19887909293174744,-0.13866373896598816,0.7083820700645447,-1.2456468343734741,-0.11381877213716507,0.848015308380127,0.22779099643230438,0.20751884579658508,-0.07501630485057831,-0.063276007771492,-0.20444102585315704,-0.1737235188484192,-1.1945827007293701,-0.06840936094522476,-1.3608911037445068,-1.029329776763916,-0.4525687098503113,0.3949130177497864,0.18971744179725647,1.5722280740737915,-0.08404915034770966,-0.05817000940442085,0.012770645320415497,-1.0139228105545044,0.0724976658821106,1.186293363571167,1.0522788763046265,-0.1101747453212738,0.14359426498413086,0.551518440246582,-0.07860530912876129,1.4501879215240479,-1.6753709316253662,-0.46156713366508484,0.079855777323246,0.8311855792999268,0.5296823978424072,0.013275034725666046,1.158063530921936,0.49566251039505005,0.35003456473350525,0.08907007426023483,0.012298398651182652,-0.40008029341697693,0.40610045194625854,-1.4013739824295044,1.0784317255020142,-1.3968952894210815,-1.493861198425293,-0.5044508576393127,-0.3296971321105957,-0.7834277153015137,2.0435352325439453,0.1962873339653015,0.848332941532135,0.06193530932068825,-1.6709462404251099,1.3592534065246582,0.009409995749592781,0.6497834920883179,2.606764793395996,0.966580331325531,-0.11368400603532791,-0.09865684807300568,-0.16140450537204742,-0.06760074943304062,-0.5725110173225403,1.5763194561004639,-1.1231986284255981,0.8059704899787903,-0.22410805523395538,-0.46963033080101013,-1.758213758468628,0.02007296308875084,-1.0657315254211426,-0.3195914328098297,-1.1790516376495361,-0.7856560945510864,0.7688013911247253,-0.859052836894989,-0.08272334188222885,0.8493729829788208,-0.37638038396835327,-0.9168487191200256,0.7978939414024353,-0.18378733098506927,-0.537438154220581,-0.513052761554718,-0.21854250133037567,-0.4267670810222626,0.037530504167079926,0.18255190551280975,-0.33391687273979187,-0.05512874573469162,-1.2315250635147095,0.6901940107345581,-0.213677316904068,-0.023291882127523422,0.03594997525215149,0.733457088470459,-0.6369134783744812,-0.9608677625656128,0.31789034605026245,0.8512004613876343,0.2915719151496887,0.31067946553230286,-1.567826747894287,0.43092286586761475,-0.5113234519958496,0.8118822574615479,0.6740840077400208,1.4906182289123535,0.794425904750824,-0.4746820628643036,-0.47141849994659424,-0.7225165367126465,0.02926800213754177,-0.9034531116485596,-0.05996926873922348,-0.296775221824646,-0.35934245586395264,1.3697510957717896,1.9003307819366455,0.4038744568824768,-0.27230098843574524,0.6597393155097961,-1.3343381881713867,-0.6702063083648682,0.5432751774787903,0.14238423109054565,0.03666728362441063,-0.12812891602516174,0.0401156060397625,-0.08498024940490723,-0.0018218430923298001,-1.315911054611206,0.16691528260707855,-0.4373091161251068,-0.0028624378610402346,0.18882034718990326,-0.8398686647415161,-0.00785690825432539,-0.4719204306602478,0.5460920929908752,-0.15923699736595154,0.4345493018627167,0.23707565665245056,0.07720295339822769,0.504315197467804,-0.45373183488845825,-0.507220983505249,0.07250979542732239,0.11721038818359375,0.43525540828704834,-0.5145196914672852,-1.5679738521575928,0.4302108883857727,1.1937791109085083,1.2934558391571045,1.0627292394638062,-0.24638816714286804,-0.009809146635234356,-0.3503601551055908,0.36865025758743286,-0.6449072957038879,0.3625452518463135,0.7120717167854309,-0.10358399897813797,1.3221218585968018,-0.23916426301002502,0.35706818103790283,-0.8696346282958984,-0.8363035321235657,-1.3398206233978271,-0.2744515538215637,-1.1138811111450195,0.4100724458694458,0.6991515159606934,1.117911458015442,-1.2915843725204468,-0.26500487327575684,-1.6120060682296753,-0.7674809694290161,-0.9936538934707642,0.6263543367385864,0.28765007853507996,0.8767749071121216,-0.07692182809114456,-1.7448465824127197,-1.0872806310653687,0.26265761256217957,-0.7013813257217407,0.9986253976821899,0.7368694543838501,-0.9963318109512329,0.5159823298454285,0.5559056997299194,-0.0268553514033556,-0.1659870743751526,-0.35702404379844666,1.131371021270752,1.5037537813186646,-0.8649840950965881,0.7852897047996521,1.0912238359451294,0.46904730796813965,0.007936901412904263,-0.17072419822216034,-0.12302079051733017,-0.695042610168457,-1.370936632156372,0.7685789465904236,-0.2149481326341629,-0.05349564179778099,0.9711660742759705,-0.02933609113097191,-0.1893342286348343,0.5509382486343384,-0.2403523027896881,0.7768222093582153,-0.1691901534795761,-0.8370077013969421,-0.3909913897514343,-1.2052384614944458,0.10543415695428848,0.06692183017730713,-1.0241366624832153,-0.009568257257342339,0.5538409352302551,-0.5570846796035767,1.146934151649475,0.9013813734054565,-1.3980557918548584,-0.004898745566606522,0.7380351424217224,0.31417471170425415,-0.07422351837158203,1.517983078956604,-0.14402781426906586,0.5389865040779114,-0.13413481414318085,-0.28930529952049255,-0.2744143009185791,0.6998377442359924,0.547514021396637,0.2892327904701233,0.8370457291603088,-1.5277849435806274,0.4851987659931183,-0.3370128571987152,-0.9514539837837219,0.18569953739643097,0.2898797392845154,-0.4284803867340088,-0.0038683894090354443,-0.5745041966438293,0.6948839426040649,0.044519927352666855,-1.6976391077041626,-0.19842155277729034,0.36862143874168396,-0.8721914887428284,0.803041934967041,-0.7014343738555908,-0.2716090977191925,0.019547976553440094,0.8013237118721008,-1.166871428489685,0.46352720260620117,1.4078664779663086,-0.5132153630256653,0.06769260764122009,-0.49495214223861694,-0.0482604093849659,1.1302392482757568,1.0911203622817993,-0.3088901937007904,0.17723791301250458,-1.515331506729126,-1.2674311399459839,1.3757236003875732,-0.14373549818992615,-0.14748439192771912,0.6136857867240906,0.15873965620994568,-0.0682537704706192,-0.8656136393547058,-1.1496269702911377,-0.4086779057979584,1.140261173248291,-0.11099401116371155,-0.25868284702301025,-0.31672874093055725,0.2632944583892822,-0.7280449867248535,0.7982553839683533,-0.8040226697921753,-0.1999167799949646,-0.1438124179840088,0.02866809442639351,0.2722785174846649,0.2814733386039734,0.97163987159729,0.19036783277988434,-0.6453994512557983,0.43255481123924255,0.41484934091567993,0.7616975903511047,0.3317863643169403,0.034461282193660736,0.6044235825538635,-1.0021729469299316,-1.6687828302383423,-0.22762362658977509,0.2107086181640625,-0.059567488729953766,0.649367094039917,0.4113972783088684,-0.1311943531036377,0.12840557098388672,-0.40818971395492554,-0.3941894769668579,1.3449373245239258,-0.9186456799507141,-0.966206431388855,0.9253615736961365,-0.07058628648519516,-0.8490333557128906,0.3279041051864624,-1.0630786418914795,-1.3665019273757935,0.757790207862854,0.5850487947463989,-2.293165683746338,-0.15614278614521027,1.4005926847457886,-0.4316761791706085,1.036842942237854,0.5012521147727966,0.8987195491790771,0.7158478498458862,0.11860142648220062,0.8330214023590088,-1.3138256072998047,-0.6271083354949951,-1.0080182552337646,1.0037164688110352,0.3093045651912689,1.6619136333465576,-0.08054585754871368,1.145127296447754,-2.186821699142456,-1.2802942991256714,-1.540152907371521,-1.2035621404647827,-0.5915271639823914,-0.26065880060195923,1.1856181621551514,0.7323828935623169,-1.3471845388412476,0.8576103448867798,0.005730359349399805,0.6858564019203186,-0.5648190379142761,-1.1708452701568604,0.40482622385025024,1.7560031414031982,-1.0246554613113403,0.6172912120819092,1.0751779079437256,0.6711411476135254,0.9195501208305359,0.6164345741271973,0.09802236407995224,-0.6993157863616943,-0.4627435505390167,-0.1937500238418579,-0.14145658910274506,0.8869693279266357,-0.1825602948665619,0.5326443314552307,0.30199265480041504,0.27659642696380615,-1.5482721328735352,-0.21028836071491241,-0.6708268523216248,-1.0946539640426636,-0.5398862361907959,-0.2802560031414032,-1.5848960876464844,0.4971962571144104,0.7952718138694763,-0.7622228264808655,0.8891997933387756,0.2950907349586487,0.31111395359039307,-1.4336154460906982,-0.9497950077056885,0.3479752540588379,1.160506010055542,-0.9378697872161865,0.3230041563510895,0.6719962954521179,0.26657727360725403,1.8681319952011108,1.3462142944335938,0.9691156148910522,-1.2005043029785156,-0.33763235807418823,-1.077616572380066,-0.4383733570575714,-0.3253505527973175,-1.5357320308685303,0.03376951068639755,1.4722188711166382,0.2294914871454239,-0.3335047960281372,-2.0668654441833496,-1.205160140991211,1.1356233358383179,0.9738200306892395,-0.2397383451461792,0.6324380040168762,-0.4797045588493347,-1.1529638767242432,0.7150416374206543,-0.38295772671699524,-0.47157296538352966,0.03977500647306442,0.4932606816291809,0.34170401096343994,-1.267727017402649,-1.0893992185592651,0.8335767984390259,-0.6476761698722839,-1.1512991189956665,-1.3606821298599243,-0.35799747705459595,-0.11306613683700562,-0.35857176780700684,0.40903612971305847,0.8927666544914246,-0.06663737446069717,0.3169775605201721,0.20338256657123566,0.4886593520641327,-0.5629985332489014,-0.5266963243484497,-0.46492287516593933,-0.3642657995223999,-0.11180920898914337,1.0341192483901978,-0.3504216969013214,-0.8451656699180603,1.0617107152938843,-0.7000725865364075,-1.0641592741012573,0.13297152519226074,0.1397843211889267,-0.3550329804420471,1.0625816583633423,-0.670766294002533,-0.5616987943649292,-0.15140923857688904,0.3978731632232666,-0.9048111438751221,0.07011158019304276,0.999449610710144,-0.10382460802793503,0.8094848394393921,0.4545471966266632,-0.2261127084493637,0.6378433108329773,0.39786672592163086,-1.4113327264785767,-0.21739085018634796,-1.1893304586410522,-0.6118820905685425,1.06166410446167,-0.1725190132856369,-0.0834672749042511,0.9520374536514282,0.3651236891746521,-0.015921741724014282,-1.0188698768615723,-0.5527601838111877,0.7897863388061523,0.4121152460575104,0.5827345848083496,0.29744958877563477,-1.6791729927062988,0.4934338629245758,-0.5647653341293335,0.9169973134994507,-0.10299894958734512,-0.43033257126808167,-0.45380696654319763,-1.8268121480941772,0.1012050211429596,0.6630843281745911,-0.11893174797296524,-1.4851316213607788,-1.7484526634216309,-0.8654066920280457,0.5537619590759277,-0.11842431128025055,0.8397435545921326,0.9167656898498535,-0.07701858878135681,-0.5809139013290405,-0.12566226720809937,-1.2410671710968018,-1.1761553287506104,-0.8511130809783936,0.7676190137863159,-0.566193163394928,0.04138096049427986,0.5874934196472168]},"outputHidden":{"rows":20,"columns":20,"weights":[-0.1530386060476303,-0.5997211337089539,0.28272077441215515,-0.05455269664525986,2.4587857723236084,1.9417999982833862,-1.154005765914917,-0.3979977071285248,0.42133647203445435,-1.8276838064193726,0.4319504201412201,0.33738842606544495,0.2940525710582733,-0.22401294112205505,0.12740662693977356,-0.36398622393608093,0.4340955317020416,-0.11579527705907822,-0.2965317368507385,0.05078298598527908,-0.09890107810497284,-0.12279242277145386,-1.711098313331604,-0.8382685780525208,1.3985410928726196,-0.8007832169532776,0.26595044136047363,0.14788421988487244,-1.089387059211731,0.22981788218021393,1.1058200597763062,-0.5498449802398682,-0.5783798694610596,0.20657837390899658,-0.8973588347434998,-0.678815484046936,-0.4143751561641693,0.308637410402298,0.15903690457344055,-0.04847187548875809,-0.21146981418132782,-0.029429079964756966,-0.035595815628767014,1.7699981927871704,-0.9517607688903809,2.1864309310913086,0.4304408133029938,-1.8011448383331299,2.5988006591796875,-0.9310415387153625,-0.19670197367668152,1.4624650478363037,1.1744513511657715,-1.3938641548156738,0.5085927844047546,-0.4676576256752014,1.0876882076263428,-1.446535587310791,-0.1896200329065323,-2.7994937896728516,1.3347324132919312,0.7797263860702515,-0.3582681119441986,0.1248127669095993,-0.2176857441663742,-0.724277138710022,-1.4055970907211304,0.5518885254859924,-0.4578860402107239,1.0314840078353882,-1.3005505800247192,-0.4485105574131012,-2.0479917526245117,-4.48105525970459,1.9624204635620117,-0.6402227878570557,-1.0807437896728516,-0.2572854161262512,-1.5113811492919922,1.0502257347106934,0.34688207507133484,0.13842934370040894,-1.1008931398391724,-0.9090314507484436,-1.7263826131820679,-1.2194334268569946,1.5019185543060303,0.22483766078948975,-0.5807091593742371,-0.1289157122373581,1.3736963272094727,-1.3409757614135742,-0.15230031311511993,-0.42336997389793396,-0.9743853211402893,-0.9421318173408508,-0.37571480870246887,0.9440743923187256,0.34018582105636597,0.3497031033039093,0.9476481080055237,0.8455304503440857,0.046203967183828354,0.20603743195533752,-0.15729214251041412,-0.3576466739177704,1.1244922876358032,-0.42590364813804626,0.7612320780754089,-0.08413620293140411,-0.28940433263778687,0.7126899361610413,-2.7994258403778076,-1.2597224712371826,1.9810924530029297,0.07506420463323593,-0.7564831972122192,-0.5558005571365356,0.2118036150932312,-0.36359450221061707,-1.1059174537658691,0.18301072716712952,1.0639327764511108,0.051683906465768814,-0.004065199755132198,1.4549185037612915,0.4267898499965668,-0.7378032803535461,-0.3853304088115692,-1.432398796081543,-0.6555134057998657,1.3523012399673462,-0.855623185634613,1.0713560581207275,0.3913901448249817,0.7947751879692078,0.1576986163854599,0.2054802030324936,0.38547372817993164,-0.5652365684509277,0.18292172253131866,0.5979521870613098,1.4781759977340698,2.344287633895874,-0.780472993850708,2.2320237159729004,-0.537092924118042,-2.351233959197998,0.7441748380661011,-0.5978193283081055,-3.2571604251861572,0.6827206015586853,0.29957115650177,-2.4265286922454834,0.749360978603363,0.1463368982076645,-0.2903333008289337,-2.051396369934082,-1.1294293403625488,-2.9109067916870117,0.28281888365745544,0.5997390151023865,2.0918238162994385,0.4300355017185211,-3.1751835346221924,-0.9963250160217285,-1.651571273803711,-0.35607004165649414,-0.690622866153717,1.9131455421447754,-1.9520331621170044,-2.0953292846679688,-2.2127840518951416,-3.7477338314056396,-0.45469358563423157,-1.2992967367172241,-1.9021599292755127,-0.016529658809304237,-0.5080453753471375,0.08838922530412674,-1.0906890630722046,-1.1631853580474854,-0.5038965940475464,-1.4623992443084717,-1.9616628885269165,-0.030422262847423553,0.7989608645439148,0.5416707396507263,-0.8908093571662903,-0.24672141671180725,0.35915544629096985,1.0256869792938232,-0.3550761938095093,0.3607341945171356,-1.608712911605835,0.404537171125412,1.0646780729293823,1.6664490699768066,1.7094782590866089,0.6459251046180725,-0.56775963306427,1.1176247596740723,-0.43371808528900146,-0.5401179194450378,1.0078352689743042,0.5266883969306946,2.441006898880005,0.5763484239578247,-0.24516510963439941,-0.7094140648841858,-0.660332441329956,2.47412371635437,-0.43623000383377075,-0.6810764074325562,0.7546417713165283,1.8464494943618774,1.2598663568496704,0.3139130771160126,-1.1589258909225464,0.5347162485122681,0.9177203178405762,0.4209674596786499,2.6216588020324707,2.7117371559143066,1.435784935951233,2.3050737380981445,0.8706361651420593,-2.9805445671081543,1.1747804880142212,-2.7313685417175293,1.7285174131393433,0.36008405685424805,-1.2735546827316284,-1.5597424507141113,1.4962022304534912,3.070051431655884,0.560340166091919,-2.0876190662384033,-0.3482531011104584,-2.3547708988189697,-2.279484272003174,-1.381500005722046,0.6778628826141357,1.009589433670044,1.12058687210083,1.17478609085083,0.6449050307273865,-0.8425465226173401,0.9927576780319214,-0.5228077173233032,-0.6578900814056396,-0.1257743537425995,0.5601571202278137,1.6977444887161255,-1.7402342557907104,0.5421650409698486,1.577380657196045,-1.5058979988098145,2.6622345447540283,-0.8193483352661133,1.3028485774993896,1.673181176185608,-1.2783095836639404,-0.49814873933792114,0.791820228099823,-0.754643976688385,0.48047563433647156,0.7608276009559631,0.5056017637252808,-1.4581139087677002,2.46722674369812,0.13942645490169525,-3.3203816413879395,0.1421903818845749,3.059414863586426,-1.0914915800094604,-1.819579839706421,0.5586085915565491,-1.4400728940963745,0.3143974542617798,-1.6518815755844116,-0.8308834433555603,1.4883488416671753,1.611448884010315,0.4229511618614197,0.1729670912027359,-1.2042875289916992,-1.7886121273040771,1.2545592784881592,0.030657578259706497,1.314927339553833,-0.37891170382499695,0.23323552310466766,0.35478371381759644,-1.3830876350402832,-0.8522693514823914,0.14382946491241455,-1.596604824066162,2.603394031524658,-1.5587376356124878,-0.05566474795341492,1.5987797975540161,-0.6959071755409241,0.573239803314209,0.5295623540878296,1.1237578392028809,1.3076380491256714,-0.4454384446144104,0.21493643522262573,-1.4991657733917236,0.6910974979400635,0.5640779733657837,0.759650468826294,-0.9295263886451721,0.8266909122467041,0.8992257714271545,0.6211894750595093,-0.37482526898384094,-0.7648167610168457,-0.7167628407478333,0.793641984462738,0.5824677348136902,1.4413214921951294,0.32779064774513245,0.09253682941198349,3.656808853149414,-1.5374205112457275,0.1865115910768509,0.1857062131166458,-0.7741073369979858,1.110713243484497,-0.44909533858299255,-1.171454668045044,-0.7721754312515259,0.940733790397644,-0.46753785014152527,-1.6565861701965332,-0.14399099349975586,0.1869795024394989,0.27653586864471436,0.7990543246269226,0.5310379862785339,0.331747829914093,0.18727833032608032,-1.9805315732955933,-1.3671705722808838,-0.8301063179969788,0.210025817155838,-1.0748769044876099,0.01680287905037403,-2.3531272411346436,-1.1618974208831787,0.3722052574157715,-1.8696738481521606,-0.3590056300163269,-1.278146743774414,-1.8193333148956299,-0.03875111788511276,0.4837002456188202,0.3023914694786072,0.2051500529050827,0.5936123728752136,2.422402858734131,1.789636254310608,0.5749117136001587,0.31700021028518677,-0.21964110434055328,-1.2703224420547485,0.528803825378418,0.12101083993911743,-0.7427842020988464,-0.9984915256500244,-0.04034367948770523,-0.5290482044219971,1.4315236806869507,0.6068059206008911,0.5505731105804443,-1.3799138069152832,-1.9557043313980103,-0.8992539644241333,-0.592707097530365,1.2133960723876953,0.296714723110199,1.9612011909484863,0.03604135662317276,1.0333116054534912,1.0605781078338623,-1.3408507108688354,0.8934538960456848,-0.9447076916694641,-0.16576839983463287,0.4133227467536926,1.981926679611206,-1.2770832777023315,-0.2071525603532791,-0.5741405487060547,0.5671547055244446,-1.773410677909851,0.2768329977989197,-2.181658983230591]},"outputBias":{"rows":20,"columns":1,"weights":[-1.201213002204895,-0.7527685761451721,-0.6184613108634949,-0.46460968255996704,-0.8304299712181091,-0.438054621219635,0.03128143772482872,-1.2651703357696533,-0.8301450610160828,-0.9840927124023438,-0.8060359954833984,-1.2115236520767212,2.126757860183716,-1.7328616380691528,-1.9885426759719849,-0.2641247510910034,0.011070135049521923,-0.42661193013191223,0.23347695171833038,-0.8827360272407532]},"cellActivationMatrix":{"rows":20,"columns":33,"weights":[-0.7704326510429382,-0.5985064506530762,1.3065651655197144,-0.6082735657691956,-0.17662367224693298,0.5746464133262634,0.13324381411075592,0.31221142411231995,0.7963436245918274,-0.8842152953147888,-0.35581883788108826,-0.5181781649589539,0.8139069676399231,-0.2884044945240021,-0.3299280107021332,0.4312672019004822,0.6196879148483276,-0.13654103875160217,0.7132647633552551,0.4582090675830841,0.6572664976119995,0.016993381083011627,-1.0161973237991333,-0.1626996248960495,-0.6124098896980286,-1.4867208003997803,0.3478509187698364,0.40322044491767883,0.6077191233634949,1.0245857238769531,-0.38654813170433044,-0.7062428593635559,-0.19534438848495483,-0.20264260470867157,-0.2400638610124588,0.7269326448440552,0.04078982025384903,-0.37599968910217285,0.01219120156019926,0.7964619994163513,-0.5662282109260559,1.1326038837432861,-0.08004926890134811,-0.5765547156333923,0.17083360254764557,0.7156162261962891,0.5768049955368042,0.32657599449157715,0.5842850208282471,-0.8503082394599915,-0.5704450011253357,-0.6518256068229675,-0.4669509530067444,0.504078209400177,0.9003298878669739,-1.2988958358764648,0.29254308342933655,-1.7930549383163452,-1.0209293365478516,-0.07189974188804626,-0.28450050950050354,-0.5525431632995605,1.5277246236801147,-0.3233690857887268,0.025897732004523277,0.18922404944896698,-0.3116590082645416,0.6478285193443298,-0.34666571021080017,0.4532943367958069,0.26897183060646057,-1.2642109394073486,0.3937104046344757,0.09277226030826569,0.7279036641120911,0.19730979204177856,0.10327846556901932,-0.47959575057029724,-1.247119665145874,0.4619612693786621,0.6196767091751099,0.4490582048892975,-0.5345304608345032,-1.0518417358398438,-0.65058434009552,-0.05042478069663048,-0.07847992330789566,0.4062860310077667,0.9973888397216797,0.9749969244003296,0.05408281832933426,0.19694703817367554,-0.9620226621627808,-0.5202053785324097,-1.0591868162155151,-0.27970090508461,-0.6852326393127441,0.9569282531738281,1.2273163795471191,0.11919420212507248,0.8571472764015198,-0.23727811872959137,0.7941153049468994,-0.08089331537485123,-0.7925059795379639,0.4318609833717346,0.04122570529580116,0.74534672498703,0.3996429145336151,0.016907595098018646,0.4249992072582245,-0.9570004940032959,-0.4362531900405884,0.8334759473800659,-0.165038600564003,-0.5600259304046631,-0.9677568674087524,-0.6314014792442322,-0.620153546333313,-0.1796109676361084,0.3080619275569916,0.5910374522209167,-0.044709108769893646,-0.22900857031345367,0.16804488003253937,-0.7138611674308777,-0.150771826505661,-0.38715308904647827,0.17652729153633118,-0.48362061381340027,0.2798691689968109,0.7623492479324341,0.11304116249084473,0.6668505668640137,-0.11479341983795166,1.0916341543197632,-0.7475830912590027,-0.2117805927991867,0.45199936628341675,-0.5822968482971191,0.20070452988147736,-0.3097056746482849,0.1991499662399292,0.4786438047885895,-0.6082042455673218,-0.3615937829017639,0.17080287635326385,0.0010935658356174827,-0.8146746158599854,-0.9125300645828247,-1.2569799423217773,-0.2911628186702728,-0.6757121682167053,0.04513721540570259,-0.07479283958673477,0.771613359451294,0.4123283326625824,-0.07363882660865784,0.365183562040329,-0.8075045347213745,-0.467754065990448,-0.2714542746543884,-0.0355837307870388,0.6560449004173279,0.4429212808609009,0.1870083510875702,0.08108815550804138,-0.6383342146873474,0.9074263572692871,-0.4488217234611511,-1.5554689168930054,0.9026752710342407,-0.5293349027633667,-0.5237131714820862,0.40095600485801697,1.0774409770965576,-0.11190807819366455,-0.34616854786872864,0.020909367129206657,0.8253584504127502,-0.27877622842788696,0.010665994137525558,-0.3956964313983917,-0.6999873518943787,-0.32712575793266296,-0.4276605546474457,0.8863425850868225,0.6726586818695068,1.1221789121627808,0.5314422845840454,0.6600887179374695,-0.8528700470924377,-0.3741881847381592,-1.076823353767395,-0.8459494113922119,0.47548675537109375,1.3339118957519531,0.4554228186607361,0.09365175664424896,0.8165385723114014,-0.1327204555273056,1.095458984375,0.7295483946800232,-0.6765090823173523,1.0413196086883545,-0.9860061407089233,-0.14031508564949036,0.19801154732704163,0.4381355941295624,1.0167558193206787,-1.2026313543319702,-0.40160948038101196,1.035119652748108,-0.3474505841732025,-1.0437678098678589,-0.4393531084060669,-0.8869113326072693,-0.363310843706131,-1.0032708644866943,0.6248680949211121,1.2617995738983154,0.20925761759281158,-0.43284568190574646,-0.07525619119405746,0.20124246180057526,-0.7477202415466309,-0.5879589915275574,-0.43980592489242554,0.9572283625602722,0.23183146119117737,0.13226304948329926,0.8553714156150818,-0.2787931561470032,0.23136253654956818,-0.9264422655105591,0.2846725881099701,0.6323347091674805,-0.22038686275482178,0.18728850781917572,-0.028811955824494362,-0.21795327961444855,0.3348964750766754,0.04972001165151596,0.543165922164917,-0.4572618901729584,-0.8300798535346985,-0.7781181931495667,0.13736823201179504,0.9212666749954224,0.42237210273742676,0.08065161108970642,-0.3176719546318054,-0.2694584131240845,-0.93858802318573,-1.5852105617523193,-0.9154003262519836,-0.6241965889930725,0.682644784450531,-0.1840146780014038,0.6482095122337341,0.3583891987800598,0.25875967741012573,-0.8773773908615112,-1.3342859745025635,1.5554989576339722,1.284213662147522,0.012169605121016502,1.0137118101119995,0.10943359136581421,-0.1331707239151001,0.5041236281394958,0.3494186997413635,-0.20819441974163055,-0.01820116490125656,-0.22799940407276154,0.7280292510986328,-0.24502409994602203,-0.2596369981765747,0.060691576451063156,-0.8932637572288513,-1.2670284509658813,-0.5567458868026733,-1.116635799407959,-0.1993204653263092,-0.6264635920524597,-0.24052435159683228,0.5415493249893188,-0.03405285254120827,0.3019472360610962,0.022055165842175484,-1.145470142364502,-0.8118103742599487,0.16977578401565552,0.03809602931141853,-0.3214094042778015,0.09673921018838882,0.38590484857559204,0.046645618975162506,-1.0052014589309692,0.40617135167121887,-1.2175856828689575,-0.42296966910362244,0.3407847583293915,-0.9599822759628296,0.5969992876052856,0.6078190803527832,-0.3167420029640198,-0.586744487285614,-0.7901277542114258,0.9800923466682434,-0.042520541697740555,-0.5707884430885315,0.4896373748779297,0.6817983388900757,1.5766254663467407,0.9641645550727844,0.3713613450527191,1.029005527496338,-0.9650050401687622,-1.2013723850250244,-1.3103926181793213,-0.17359188199043274,-0.14667999744415283,-0.14029011130332947,0.5087587833404541,0.6609217524528503,0.70693039894104,-0.6709275245666504,-0.8796093463897705,-1.1010509729385376,-0.23033888638019562,-0.6218327879905701,-0.21181054413318634,-0.05622442811727524,-0.3184266686439514,-0.003098676912486553,-0.11267992109060287,0.06432678550481796,-0.2337644100189209,-0.086385078728199,0.01015688106417656,-0.9000546932220459,-0.1417279690504074,0.13649888336658478,0.05545502156019211,0.3256247937679291,0.7595580816268921,0.2526749074459076,0.6097742915153503,0.24653828144073486,0.4190171957015991,-0.29430091381073,0.46416670083999634,-0.086735799908638,0.30918705463409424,-0.26999375224113464,-0.06161799654364586,0.35730767250061035,0.2393154352903366,-0.5302901864051819,-0.13906048238277435,-0.017684413120150566,-0.26163169741630554,0.28046098351478577,0.7475383281707764,-0.41091978549957275,0.8603085875511169,0.32523536682128906,-0.4519181251525879,0.48315268754959106,-0.0856206864118576,-0.7580344080924988,0.5135489702224731,1.0752562284469604,0.7134810090065002,-0.11454682797193527,0.34483715891838074,0.4800230860710144,-0.6004006266593933,-0.31215161085128784,-0.49856746196746826,-0.4839569628238678,-1.0931472778320312,-0.8557887673377991,0.4351382553577423,0.5026525259017944,0.47075411677360535,0.4447396397590637,0.6501057147979736,0.3024046719074249,-0.13920962810516357,-0.8995770215988159,-0.4350479543209076,0.46489986777305603,0.7389005422592163,0.7801810503005981,1.1180775165557861,0.7398177981376648,-0.010630585253238678,0.5411543846130371,-0.3516046106815338,0.003657755209133029,0.5217846632003784,-0.015807028859853745,-0.04966932162642479,-0.11187376081943512,0.07109322398900986,0.7192925810813904,-0.1856168508529663,-0.10792717337608337,0.06635748594999313,-0.20427794754505157,-0.6545813679695129,-0.6737133264541626,-0.8321769833564758,-0.06964060664176941,-0.3830828368663788,0.23820799589157104,0.46444791555404663,0.36387747526168823,0.04265143722295761,-0.03032107464969158,0.12021385133266449,-0.0636870414018631,-0.27163606882095337,0.10646338760852814,0.08491687476634979,0.11174316704273224,0.6848477721214294,0.7488629221916199,0.22144801914691925,-0.6253193616867065,0.47527211904525757,0.23240317404270172,-0.232980877161026,-0.20806261897087097,0.11613558232784271,-0.885286808013916,0.6152085661888123,0.5782727599143982,0.18951448798179626,0.0009824014268815517,0.3895995616912842,-0.010532353073358536,-0.537093997001648,0.11616577208042145,-0.23124490678310394,-0.3827948570251465,-0.3997272551059723,-0.5789037942886353,0.5433652997016907,0.14219291508197784,0.5608716011047363,0.712460458278656,0.6939064860343933,0.6640013456344604,-0.10001682490110397,-0.4187658131122589,-0.8773089647293091,0.10813121497631073,0.6252473592758179,0.4086798429489136,-0.6415013074874878,-0.656597375869751,1.0901408195495605,-0.227751225233078,-0.7006502747535706,-0.2778904139995575,0.28116369247436523,-0.03624792397022247,1.0361275672912598,-0.5164697170257568,0.2706534266471863,-0.35929837822914124,0.05689818039536476,-0.06192295625805855,0.04306481033563614,0.7279638648033142,0.3680758774280548,-0.3368869423866272,0.19243976473808289,-0.03276217728853226,0.2263827919960022,0.8026966452598572,-0.7540282011032104,0.5989652872085571,-1.5508232116699219,-1.0837066173553467,0.36886394023895264,-0.05970444902777672,-0.36202701926231384,0.6655811071395874,0.4660278260707855,0.192280113697052,0.01446937583386898,0.02348715253174305,0.6799558997154236,-0.6456472873687744,0.6672293543815613,1.0055831670761108,-0.18595488369464874,0.44330278038978577,0.06038464605808258,-0.7218283414840698,0.7181487083435059,0.5969054698944092,0.8434866666793823,-0.5167187452316284,0.09622054547071457,0.38859522342681885,-0.45121443271636963,-0.4171372354030609,-0.7783472537994385,-0.6496514081954956,-0.3545425534248352,-1.1936031579971313,-0.06894276291131973,1.0726951360702515,0.2536299228668213,0.2991037964820862,0.2920663058757782,-0.5426744222640991,0.013854073360562325,0.0970710963010788,-0.4422580301761627,0.33708086609840393,0.21089498698711395,0.20565971732139587,1.1403849124908447,1.068139910697937,-0.4372738301753998,1.3141417503356934,1.0238300561904907,-1.37411630153656,0.677740752696991,-0.5459023118019104,-0.020466892048716545,0.21307338774204254,0.7647529244422913,0.691878616809845,-1.0115859508514404,0.32066142559051514,0.9583867788314819,-0.5340645909309387,-0.7346810102462769,-0.3937302529811859,-0.7540560960769653,-0.14214856922626495,-1.204227328300476,0.7462225556373596,1.2411516904830933,0.17807894945144653,0.26984673738479614,0.05818520486354828,-0.8601585626602173,-0.32082244753837585,-0.26704052090644836,-0.7900806665420532,0.3384808599948883,0.5081349015235901,0.6804054379463196,-0.38904979825019836,-1.3823646306991577,0.2616780400276184,-0.9209576845169067,-0.08043436706066132,0.4081253409385681,-0.7030966877937317,0.3222748935222626,-0.009878355078399181,-0.15060210227966309,-0.07225919514894485,-0.8082219362258911,0.9317640066146851,0.11280439794063568,-0.5013533234596252,1.1787257194519043,1.0143332481384277,0.24474434554576874,0.334334135055542,