{"type":"LSTM","options":{"inputSize":42,"inputRange":42,"hiddenLayers":[90],"outputSize":42,"decayRate":0.999,"smoothEps":1e-8,"regc":0.000001,"clipval":5,"maxPredictionLength":100,"dataFormatter":{"indexTable":{"M":0,"a":1,"r":2,"i":3,"u":4,"j":5,"e":6,"A":7,"n":8,"I":9,"s":10,"b":11,"l":12,"C":13,"m":14,"T":15,"S":16,"o":17,"f":18,"L":19,"c":20,"t":21,"P":22,"R":23,"q":24,"J":25,"d":26,"D":27,"V":28,"E":29,"G":30,"B":31,"z":32,"H":33,"F":34,"v":35,"g":36,"O":37,"x":38,"stop-input":39,"start-output":40,"unrecognized":41},"characterTable":{"0":"M","1":"a","2":"r","3":"i","4":"u","5":"j","6":"e","7":"A","8":"n","9":"I","10":"s","11":"b","12":"l","13":"C","14":"m","15":"T","16":"S","17":"o","18":"f","19":"L","20":"c","21":"t","22":"P","23":"R","24":"q","25":"J","26":"d","27":"D","28":"V","29":"E","30":"G","31":"B","32":"z","33":"H","34":"F","35":"v","36":"g","37":"O","38":"x","39":null,"40":null,"41":null},"values":[{"input":"Maria","output":"Mujer"},{"input":"Ana","output":"Mujer"},{"input":"Isabel","output":"Mujer"},{"input":"Carmen","output":"Mujer"},{"input":"Teresa","output":"Mujer"},{"input":"Sofia","output":"Mujer"},{"input":"Lucia","output":"Mujer"},{"input":"Marta","output":"Mujer"},{"input":"Paula","output":"Mujer"},{"input":"Raquel","output":"Mujer"},{"input":"Julia","output":"Mujer"},{"input":"Mercedes","output":"Mujer"},{"input":"Luisa","output":"Mujer"},{"input":"Martina","output":"Mujer"},{"input":"Rosa","output":"Mujer"},{"input":"Andrea","output":"Mujer"},{"input":"Daniela","output":"Mujer"},{"input":"Veronica","output":"Mujer"},{"input":"Laura","output":"Mujer"},{"input":"Rocio","output":"Mujer"},{"input":"Elena","output":"Mujer"},{"input":"Gloria","output":"Mujer"},{"input":"Beatriz","output":"Mujer"},{"input":"Alba","output":"Mujer"},{"input":"Juan","output":"Hombre"},{"input":"Jose","output":"Hombre"},{"input":"Carlos","output":"Hombre"},{"input":"Luis","output":"Hombre"},{"input":"Francisco","output":"Hombre"},{"input":"David","output":"Hombre"},{"input":"Daniel","output":"Hombre"},{"input":"Antonio","output":"Hombre"},{"input":"Miguel","output":"Hombre"},{"input":"Angel","output":"Hombre"},{"input":"Rafael","output":"Hombre"},{"input":"Mario","output":"Hombre"},{"input":"Jorge","output":"Hombre"},{"input":"Oscar","output":"Hombre"},{"input":"Diego","output":"Hombre"},{"input":"Alberto","output":"Hombre"},{"input":"Alex","output":"Hombre"},{"input":"Ivan","output":"Hombre"},{"input":"Ruben","output":"Hombre"},{"input":"Sergio","output":"Hombre"},{"input":"Luis","output":"Hombre"},{"input":"Eduardo","output":"Hombre"},{"input":"Enrique","output":"Hombre"},{"input":"Antonio","output":"Hombre"},{"input":"Samuel","output":"Hombre"}],"characters":["M","a","r","i","u","j","e","A","n","I","s","b","l","C","m","T","S","o","f","L","c","t","P","R","q","J","d","D","V","E","G","B","z","H","F","v","g","O","x","stop-input","start-output","unrecognized"],"specialIndexes":[39,40,41]}},"trainOpts":{"iterations":100,"errorThresh":0.005,"log":true,"logPeriod":10,"learningRate":0.01,"callbackPeriod":10,"timeout":"Infinity","erroThresh":0.001},"input":{"rows":43,"columns":42,"weights":[0.8041932582855225,-1.2296950817108154,0.35564228892326355,0.1150551438331604,0.011854300275444984,0.7369358539581299,0.6246646642684937,-1.332019567489624,-0.30020853877067566,1.0104156732559204,-0.0988774374127388,-0.4190307557582855,0.7454304099082947,-0.9611358642578125,0.04327743873000145,-0.5214821696281433,-0.001458365237340331,0.14318029582500458,0.25730767846107483,-1.0112826824188232,-1.2971888780593872,0.07545195519924164,-1.0780019760131836,-0.47545766830444336,1.074408769607544,0.025145746767520905,0.2621600329875946,-1.1422700881958008,0.4971770942211151,-0.16658027470111847,-0.8039286136627197,-0.7379902601242065,-0.2060731053352356,-0.890550434589386,0.4138771891593933,-0.853530764579773,-0.5781484246253967,-0.7939842939376831,-1.3839707374572754,-0.44558483362197876,0.3246364891529083,-0.9834722876548767,-1.1606234312057495,0.8789607882499695,-0.6219416856765747,-1.7105432748794556,1.4575366973876953,-0.7766276597976685,0.9692775011062622,-0.9235472679138184,-0.5280779004096985,1.728529691696167,-1.5433529615402222,-2.4019389152526855,2.744619131088257,-1.4721648693084717,-0.5246793031692505,0.6329165697097778,0.2887648046016693,1.2832441329956055,-1.8246264457702637,-1.7533137798309326,-1.2839674949645996,1.030289888381958,0.32199719548225403,0.8411323428153992,1.6049903631210327,0.6323949694633484,0.18677926063537598,0.5732700824737549,0.3213135302066803,-0.6242730617523193,0.7369107604026794,-1.9795490503311157,1.7238202095031738,-0.24279890954494476,-0.13024558126926422,1.4217358827590942,-1.333951473236084,0.43691912293434143,0.6131784915924072,0.5534178614616394,3.5366170406341553,-0.5489761233329773,-0.25321075320243835,0.8440938591957092,-0.6837282180786133,-1.0997496843338013,-0.6307531595230103,0.807677686214447,-0.7431076169013977,1.0715500116348267,-0.6696488857269287,1.5498591661453247,-0.613000214099884,1.2568368911743164,0.2743877172470093,0.5490447282791138,0.34480613470077515,-0.9828249216079712,-0.055493492633104324,-2.0412027835845947,0.008950626477599144,-0.7200369834899902,-1.376346468925476,-0.31709977984428406,-1.3438445329666138,0.5457929968833923,-0.033913999795913696,-0.2753158211708069,0.7800334095954895,-0.07391677051782608,-0.6002001762390137,-0.18603309988975525,-0.7645158171653748,-0.021828792989253998,0.05271613225340843,0.05098826065659523,0.18899273872375488,0.7983492612838745,0.45963719487190247,0.14822115004062653,-0.8937512040138245,-0.10098729282617569,-1.8651454448699951,1.0618802309036255,1.0437837839126587,-0.3551536500453949,-0.3774368464946747,0.42255234718322754,-0.2699800431728363,0.12990842759609222,0.5899553298950195,0.27454811334609985,0.772465705871582,-0.3186761140823364,-0.24972884356975555,-0.11050811409950256,0.15703505277633667,-0.37642550468444824,0.3005988895893097,-0.3554738163948059,-0.335977703332901,0.09172381460666656,-0.16936235129833221,0.26486560702323914,-1.0592548847198486,0.5423414707183838,0.524995744228363,-0.3650420308113098,0.6864053010940552,-0.5337851047515869,0.9500178098678589,-0.2727874219417572,-0.553130567073822,-0.17961573600769043,-1.080172061920166,-0.4509250223636627,-1.1509006023406982,-0.2531989514827728,0.28272223472595215,0.44464802742004395,-1.6414657831192017,0.08862218260765076,0.4035356342792511,0.3196869492530823,0.38986822962760925,0.2331930249929428,-1.561601996421814,-1.2535462379455566,0.6201577186584473,1.2285891771316528,1.038165807723999,0.8825467824935913,-0.9419150948524475,-0.5912315249443054,-0.2855074107646942,-0.5673732161521912,2.0975100994110107,-1.8199970722198486,-0.12558086216449738,-0.2801056206226349,-0.2725774347782135,-2.0360443592071533,1.1495413780212402,1.037833571434021,-1.518838882446289,1.676807165145874,-0.8331024050712585,-0.31179267168045044,1.244456171989441,-1.2016648054122925,0.5251213312149048,-0.4680488705635071,0.6571232676506042,-0.8399801850318909,1.5638805627822876,0.7353229522705078,-0.5953727960586548,-1.9346250295639038,-0.6177058219909668,0.0793088972568512,-0.23851092159748077,-0.4609997868537903,1.0047054290771484,-0.09190025180578232,-1.5353171825408936,-1.4435381889343262,-0.0434085950255394,0.7165403962135315,3.02838397026062,-2.3305346965789795,-1.002427339553833,0.05372694134712219,-3.7166712284088135,-2.07619047164917,0.6807263493537903,-1.2456059455871582,0.1967008113861084,-0.918549120426178,1.2633392810821533,0.3507530391216278,0.5865002870559692,-0.627920925617218,-0.2197410613298416,2.5528969764709473,0.0224289707839489,0.64179527759552,1.2146795988082886,-1.8909980058670044,1.6963825225830078,-0.3735058903694153,-0.27837803959846497,1.096442699432373,1.0483757257461548,-1.7280981540679932,-1.0040762424468994,-1.7533454895019531,-0.10471802204847336,-1.1867952346801758,-0.7485939860343933,2.814821243286133,1.4144829511642456,-0.45428693294525146,-0.03941582143306732,1.1436843872070312,-0.08121006935834885,-2.1581180095672607,1.5288002490997314,1.4588711261749268,1.016709566116333,0.13499130308628082,-1.298920750617981,-0.9672433733940125,-0.06614843010902405,0.6790944933891296,-0.7894798517227173,-1.9817819595336914,-0.3773600161075592,-1.3831099271774292,-0.8589088916778564,-1.3164315223693848,1.0850777626037598,-0.10240121930837631,-1.8349781036376953,0.36436644196510315,2.2729697227478027,0.8903138637542725,0.6936076283454895,0.5738288760185242,-0.3063915967941284,0.18188011646270752,-0.14320720732212067,-1.1542950868606567,1.714891791343689,-1.6031922101974487,0.19872407615184784,-1.0346742868423462,-1.1914361715316772,0.7224076390266418,-0.09087718278169632,0.634928822517395,0.7951052188873291,-0.04184791445732117,1.5142954587936401,0.8105709552764893,-0.20199039578437805,-0.5703882575035095,1.1438450813293457,0.3111270070075989,-0.8262296915054321,1.6243696212768555,-0.40895238518714905,0.21012219786643982,-0.28412777185440063,0.48235535621643066,-0.1729983538389206,0.2619326710700989,-0.28301742672920227,0.11347060650587082,0.23490683734416962,-0.5201858282089233,-0.1833527833223343,0.08690020442008972,0.07744376361370087,0.25647154450416565,0.127618670463562,0.049448754638433456,-0.1222296804189682,-0.2934839427471161,-0.7041077017784119,0.20742008090019226,0.09766367077827454,0.03670283034443855,-0.014057919383049011,0.24506811797618866,0.03555817902088165,0.2687804102897644,0.1938878297805786,0.4523420035839081,-0.6037843823432922,0.09957624226808548,-0.566982626914978,-0.43701353669166565,-0.4194311797618866,0.6958598494529724,1.1147741079330444,0.038489341735839844,0.3984973728656769,-0.6457253694534302,-0.028664762154221535,-0.40466630458831787,0.10508555918931961,0.44836968183517456,0.05820135027170181,-0.3853963017463684,-5.062351703643799,-3.2620339393615723,-0.509523868560791,-1.5076664686203003,-1.4637972116470337,3.104642868041992,2.1671204566955566,-4.229360103607178,3.496117353439331,2.6904571056365967,-0.03782390430569649,-4.453670024871826,-0.6167277693748474,-1.1326732635498047,-1.6118489503860474,-4.026457786560059,-1.3944487571716309,0.3299468755722046,0.35619595646858215,3.70600962638855,-2.8416829109191895,-1.498459815979004,3.0096402168273926,-0.41931113600730896,1.3510669469833374,-0.2049466222524643,5.601883411407471,1.0237171649932861,4.951755046844482,5.095006465911865,0.46244460344314575,-3.3891825675964355,-4.202932357788086,-4.778067111968994,3.0693299770355225,-1.9297327995300293,-1.157965064048767,3.2185311317443848,-2.8514368534088135,-4.044127941131592,-2.2246201038360596,-1.07688307762146,-0.25425171852111816,-3.329387903213501,-1.4113494157791138,-0.5942303538322449,1.6498767137527466,1.1340827941894531,-2.707578420639038,0.0732436403632164,-0.34282758831977844,0.9803041815757751,-0.8279515504837036,0.9495375752449036,2.482602596282959,-0.6735371351242065,-1.4087799787521362,-1.759053349494934,-0.8822656273841858,0.5592630505561829,1.3979485034942627,-0.2871246635913849,-0.1730652153491974,1.815926194190979,-0.9843453764915466,0.950263261795044,1.1059744358062744,-1.6091798543930054,-1.4955902099609375,-1.1299762725830078,0.6425355076789856,-0.9611415266990662,0.6082313656806946,2.9459707736968994,-0.7248038053512573,0.8627699017524719,-2.4348385334014893,-0.37830284237861633,0.6901249885559082,-0.5318245887756348,0.16113947331905365,1.2372573614120483,1.024558186531067,-0.30213767290115356,3.504084348678589,-5.235791206359863,2.7043581008911133,-0.8694721460342407,6.4565110206604,3.4462788105010986,5.00334358215332,-0.15722373127937317,4.930057525634766,-2.940951108932495,-1.6551238298416138,-0.3126256465911865,6.369933128356934,-2.8769211769104004,-4.9260969161987305,-4.082624435424805,2.014810562133789,2.256406307220459,-2.4399428367614746,6.534907817840576,-5.33766508102417,6.3697075843811035,-2.447305679321289,-4.096371173858643,-5.105032444000244,3.8891353607177734,4.2084832191467285,-3.8077635765075684,6.166405200958252,6.027390956878662,-2.905653953552246,-3.7846715450286865,-4.284122943878174,-3.407660961151123,2.3448047637939453,2.192509412765503,-4.701959133148193,-1.0301401615142822,1.9005310535430908,-3.921187400817871,3.0246970653533936,-0.48246124386787415,-5.014255046844482,2.5379905700683594,1.9674144983291626,5.06389856338501,1.0531175136566162,-0.18421342968940735,1.687416911125183,1.25044846534729,-0.1003274992108345,0.5899099111557007,2.6062774658203125,-1.8866775035858154,1.1024518013000488,-2.032534599304199,-0.1913912296295166,0.3303878605365753,-5.433182716369629,-1.6670987606048584,2.2911412715911865,0.8069555163383484,-2.097161293029785,0.5743795037269592,-2.657054901123047,3.6429202556610107,2.679678201675415,2.263336658477783,2.748420238494873,-0.7891218662261963,-0.9646102786064148,0.14552085101604462,-1.7759383916854858,3.057628870010376,-1.4027084112167358,0.9863395094871521,4.0121307373046875,-2.6353983879089355,-3.3176066875457764,2.255016803741455,-0.7786509990692139,-1.292120099067688,-0.637091338634491,-0.9754687547683716,0.11652528494596481,-1.5157866477966309,2.025689125061035,-5.5920796394348145,1.293889045715332,2.347641944885254,-5.776063919067383,4.746747970581055,-2.341817855834961,1.0318639278411865,-4.501340866088867,6.945199489593506,-2.6200828552246094,-1.3587110042572021,2.2399909496307373,0.6943277716636658,1.476211428642273,3.585857629776001,-2.079240322113037,-5.496946811676025,0.4028627276420593,-5.841148376464844,-2.9898617267608643,1.3217698335647583,2.206418991088867,2.7864766120910645,-3.6507437229156494,3.952893018722534,3.9733173847198486,-1.1445947885513306,3.3183326721191406,2.652946949005127,-2.9714276790618896,1.959352970123291,-0.23451876640319824,-0.49133795499801636,4.251607418060303,-0.9496439099311829,-1.1865909099578857,4.433130741119385,-6.486496925354004,-1.134513020515442,-0.9466149210929871,2.068953037261963,0.5914524793624878,0.5341567397117615,1.6479049921035767,0.9838677644729614,-0.07489393651485443,-0.4760220944881439,0.16780079901218414,1.750423550605774,-2.6565747261047363,0.41232237219810486,2.857465982437134,-1.9776265621185303,-1.7816768884658813,-1.4467436075210571,-1.5385876893997192,-0.8171053528785706,0.6689633727073669,-1.2597187757492065,-1.228062629699707,2.1163461208343506,-0.31836989521980286,1.0663381814956665,0.44828879833221436,-0.8874587416648865,2.387761116027832,0.7713356018066406,0.4354897737503052,-1.5794544219970703,0.7593359351158142,-0.07881735265254974,-0.6980278491973877,0.6383669972419739,-0.7087427973747253,-2.3513412475585938,-1.6837553977966309,1.2784053087234497,0.2436385154724121,-0.3883766531944275,0.9936513304710388,-0.865969181060791,3.6809229850769043,0.7617909908294678,-2.005467414855957,-3.836019277572632,2.616610288619995,-2.5104384422302246,3.02665638923645,3.9065101146698,5.817325592041016,-6.61489725112915,1.652071475982666,-4.389150142669678,7.975446701049805,5.287062644958496,1.1485158205032349,-1.4354636669158936,0.5037938952445984,3.234358072280884,-4.682407855987549,-2.9741809368133545,7.701497554779053,0.3813958466053009,2.020078182220459,-2.8357765674591064,-6.673599720001221,1.611661672592163,8.220088958740234,-4.347003936767578,-2.3133046627044678,-4.821490287780762,-4.518631458282471,0.056485164910554886,-4.749277114868164,-5.482037544250488,2.7823493480682373,4.089094638824463,-3.711188316345215,-4.824126720428467,-0.6140139102935791,-4.682923793792725,8.0250244140625,4.407892227172852,-1.7836015224456787,-3.8293988704681396,-3.892925262451172,-3.539149045944214,2.048079252243042,-4.330484390258789,-3.1558375358581543,0.4174899756908417,-4.84133768081665,-2.628448724746704,4.18817138671875,4.497649669647217,-3.0239710807800293,3.0087051391601562,2.5852906703948975,4.525640964508057,3.4004156589508057,3.794126510620117,-2.369013786315918,-3.9057114124298096,1.7492328882217407,1.3595861196517944,2.107431411743164,-1.7652907371520996,-1.7671678066253662,-2.784479856491089,1.026964545249939,3.7640163898468018,-2.033740758895874,0.4460035264492035,1.5332622528076172,-0.04925207421183586,4.022609710693359,3.679149866104126,-7.412168025970459,2.3962132930755615,-0.10800996422767639,-2.068237543106079,1.9290790557861328,3.9446511268615723,2.3906664848327637,5.654148578643799,0.025708457455039024,0.1775064766407013,-8.695474624633789,12.735410690307617,9.515253067016602,-9.330978393554688,-6.823278903961182,6.767374038696289,-12.125187873840332,-7.219089984893799,0.8751606345176697,0.009149505756795406,-3.5348269939422607,9.896105766296387,8.189139366149902,8.54155158996582,7.601712226867676,0.013545955531299114,2.015414237976074,-5.7368950843811035,-2.111482620239258,8.993168830871582,-3.7380993366241455,0.05716756731271744,-13.634927749633789,-1.2187395095825195,-2.157383441925049,6.968020439147949,-8.256484985351562,2.6204190254211426,3.029430389404297,9.115955352783203,9.95592975616455,8.064496040344238,-5.510546684265137,2.2138891220092773,3.177837610244751,-1.3851933479309082,-3.342287063598633,4.268231391906738,5.883571147918701,3.622189521789551,-4.266640663146973,3.3436362743377686,3.1611108779907227,3.958935499191284,-4.428104877471924,10.561556816101074,1.9059853553771973,-4.337911128997803,1.8992892503738403,5.094176769256592,-2.836747884750366,4.147342205047607,2.381758213043213,-3.010453939437866,-3.023914098739624,-5.389614582061768,-2.0240285396575928,-2.278489589691162,0.8717519640922546,4.7399821281433105,-3.6314644813537598,-5.662764549255371,4.196452617645264,-5.708428382873535,2.5253350734710693,4.320899963378906,-3.7003588676452637,-3.384495735168457,4.892486095428467,-2.841388702392578,3.096013069152832,1.5443074703216553,4.47190523147583,2.402137517929077,2.3691298961639404,-3.695378065109253,0.24666358530521393,3.7236719131469727,-4.232898712158203,-3.8462905883789062,-4.22624397277832,-2.7991371154785156,-1.439918041229248,-1.2687108516693115,0.1289025843143463,-1.1038624048233032,-2.747817039489746,1.2625480890274048,1.188706874847412,-0.8214913010597229,0.4572390019893646,0.43554800748825073,0.6728958487510681,-0.25807517766952515,0.6512758731842041,-0.6854272484779358,-0.5326296091079712,-1.6772161722183228,-0.2995629608631134,-1.6513270139694214,-1.6508017778396606,1.7607712745666504,-0.7084088325500488,-1.981225848197937,-0.6507100462913513,1.1524674892425537,0.9094149470329285,1.4301742315292358,1.4200329780578613,-1.7015069723129272,1.329423189163208,0.9693867564201355,-1.802791953086853,-0.7974096536636353,-1.5635201930999756,-1.2326092720031738,0.9038875699043274,0.025341108441352844,-0.27020376920700073,0.935304582118988,0.022899316623806953,-1.1112902164459229,-0.9114734530448914,-0.9326884150505066,-7.227870464324951,0.11780968308448792,7.593878269195557,-3.604881525039673,-1.2308417558670044,1.1939303874969482,3.143899440765381,5.8712158203125,2.671344518661499,1.584729552268982,1.4924813508987427,-0.027031641453504562,3.178687572479248,-4.213850975036621,-6.684988021850586,-3.547672748565674,5.608257293701172,5.394279479980469,-1.234302043914795,1.8799943923950195,-2.9047000408172607,-5.009949207305908,-4.541979789733887,1.4004329442977905,-1.9576215744018555,5.488862037658691,2.9850831031799316,-3.177933692932129,1.4841500520706177,-1.820389986038208,-2.3387651443481445,-0.9156745672225952,-3.074594259262085,-0.9930081963539124,3.071857213973999,6.143004894256592,-3.338017225265503,-2.616692543029785,2.2483365535736084,-2.2223219871520996,5.424164772033691,8.568479537963867,-0.6788758635520935,-0.06558366864919662,2.7112245559692383,-2.1682467460632324,-1.912917137145996,1.9743536710739136,2.4809184074401855,0.005038226488977671,3.219658613204956,1.6565911769866943,-1.50321626663208,0.4484991133213043,2.9363927841186523,-0.8843322396278381,-3.6329076290130615,0.37426018714904785,-0.5774563550949097,-0.6219573616981506,3.9034926891326904,2.469735860824585,-2.1237049102783203,-2.2204906940460205,-1.3289611339569092,1.6821858882904053,2.3725008964538574,3.457414388656616,-0.5252684950828552,-3.6203479766845703,2.9831647872924805,2.753566026687622,2.2911367416381836,1.0413620471954346,-2.588975191116333,1.135368824005127,0.10253293067216873,-0.7253279685974121,-0.6767522692680359,1.6774386167526245,-1.8742706775665283,-4.8792009353637695,-2.410723924636841,-1.9782493114471436,0.16002051532268524,1.9101907014846802,0.6321291327476501,-1.8093825578689575,-1.0003336668014526,0.8038972020149231,3.860635995864868,2.3543200492858887,1.0198473930358887,1.973915696144104,-0.218931645154953,-1.3559235334396362,0.5570363998413086,-1.3897552490234375,-0.9981750845909119,1.5829230546951294,1.8565775156021118,-1.6385785341262817,1.141588807106018,0.19415119290351868,-0.07645230740308762,1.274511456489563,-1.666098952293396,0.9352232217788696,-2.781419038772583,0.7222996354103088,2.918405771255493,-1.9807982444763184,-0.7378807663917542,0.16995678842067719,-0.9505570530891418,-0.7895590662956238,-1.976058006286621,-2.6887762546539307,3.5324370861053467,2.065206527709961,-3.6335370540618896,-0.3205561935901642,3.3361284732818604,-4.158900260925293,0.8488017320632935,0.8199070692062378,-0.23719225823879242,-1.8687589168548584,0.8256086111068726,-2.2239279747009277,1.6387585401535034,0.24697399139404297,-2.7563107013702393,2.7191038131713867,-2.216120719909668,-0.8952112793922424,2.6634256839752197,-0.27548131346702576,0.6146248579025269,0.3705211281776428,0.44352999329566956,-0.21561890840530396,-0.20597845315933228,3.559757947921753,0.18349787592887878,-3.145043134689331,-0.480244517326355,1.082712173461914,1.1601618528366089,0.7328175902366638,0.4411700665950775,-1.278140902519226,-0.7112878561019897,0.8592607975006104,-3.6968305110931396,-1.7184830904006958,-4.114594459533691,0.31380462646484375,-0.6041260361671448,-0.9995432496070862,2.615354537963867,1.6129515171051025,4.453669548034668,-3.102316379547119,2.0483829975128174,0.015488685108721256,-0.35755205154418945,0.9874739050865173,4.604875564575195,-1.9929596185684204,-6.8348164558410645,-3.853412389755249,7.776873588562012,-2.0915472507476807,4.834754467010498,6.2569661140441895,3.3250374794006348,-4.769128322601318,5.2838029861450195,-2.072057008743286,-4.573188781738281,5.308244705200195,5.132824897766113,7.303952217102051,3.062368154525757,-9.205843925476074,-6.459807872772217,8.149907112121582,0.8484504818916321,7.979031562805176,0.2270817905664444,-4.76746940612793,-4.255694389343262,1.473034143447876,4.28971004486084,10.91290283203125,-7.070775032043457,-5.493478775024414,-2.675936698913574,-3.008960247039795,-5.768125534057617,-0.9546565413475037,-10.507883071899414,5.827235698699951,5.669902801513672,-7.393555164337158,3.9375312328338623,-4.6963372230529785,5.948662281036377,2.6316685676574707,-6.006274223327637,2.5940072536468506,-0.01993591897189617,-1.475799798965454,-1.2233515977859497,-1.4835115671157837,4.303526401519775,-3.759636640548706,2.25248646736145,1.583840012550354,-0.4522811770439148,-1.198775053024292,3.3904569149017334,-2.703162670135498,-4.733466625213623,-1.6640174388885498,-0.9107145667076111,1.601678729057312,-0.4031584858894348,-1.2891725301742554,-3.2173376083374023,-3.0141913890838623,2.738149642944336,-0.11109809577465057,2.0435240268707275,3.2963383197784424,-1.2417988777160645,0.2902495265007019,2.2177650928497314,-1.2347882986068726,0.7127568125724792,-3.038825273513794,0.12053807079792023,-0.031791433691978455,4.3894243240356445,-2.2882490158081055,-0.30066558718681335,6.565628528594971,-4.605074405670166,2.859254837036133,1.097727656364441,-0.398848295211792,-2.824223041534424,-1.8197964429855347,-1.0776034593582153,-1.0806169509887695,-3.6046526432037354,7.030603408813477,3.9275481700897217,-2.952333450317383,1.9645919799804688,9.086251258850098,-2.7925186157226562,0.4727634787559509,5.855070114135742,-7.042726039886475,-5.0955095291137695,-2.695922374725342,-5.286327362060547,-4.810288429260254,1.4086673259735107,2.1392459869384766,-4.703940391540527,-2.952753782272339,-4.6893534660339355,6.057106018066406,3.5682406425476074,-1.0909777879714966,-0.38016143441200256,-5.432543754577637,9.724668502807617,-1.3095837831497192,-6.08491325378418,4.980589866638184,4.679052829742432,-0.7303528785705566,4.942809581756592,-5.7175679206848145,-5.442415237426758,4.4370036125183105,-0.035208284854888916,2.0495870113372803,-4.043540000915527,-8.582155227661133,4.848644733428955,-1.9703558683395386,-5.4212846755981445,-3.2788572311401367,-2.010294198989868,2.8249013423919678,-1.0339605808258057,-1.44965660572052,-0.3055363595485687,-8.326739311218262,1.9066731929779053,-0.31454914808273315,-0.013961482793092728,5.099850654602051,0.3483615815639496,-8.171368598937988,1.8986377716064453,2.4010438919067383,-2.2560601234436035,-2.6526646614074707,1.1594305038452148,-1.9057906866073608,3.2843382358551025,-1.5701099634170532,-1.885085940361023,-1.2506723403930664,3.7382915019989014,0.6851301789283752,2.420365333557129,-7.387465476989746,-3.1882286071777344,-2.068195104598999,-1.1080279350280762,-3.3494813442230225,2.3501362800598145,2.402167320251465,0.7589625120162964,-7.482058048248291,-1.381653904914856,-0.051026441156864166,-0.9320108294487,-6.038645267486572,0.17983947694301605,0.4950082004070282,-3.1662771701812744,-2.581407070159912,0.03680666908621788,2.8252851963043213,3.6288130283355713,1.1938855648040771,1.3249011039733887,2.840794801712036,-4.957742214202881,2.39079213142395,1.9787849187850952,0.6862854361534119,-2.2300989627838135,0.32371601462364197,-1.802116870880127,-2.3007049560546875,-0.8986755013465881,1.6442129611968994,-4.833945274353027,1.447187066078186,-5.168891429901123,1.893811821937561,1.5916436910629272,3.047084331512451,4.095328330993652,0.7352466583251953,-1.0178085565567017,-2.309936761856079,-0.16903480887413025,-0.27324873208999634,-2.6508688926696777,-0.851534366607666,-0.9846803545951843,-2.081223726272583,-4.314377784729004,-1.2089473009109497,-1.9054306745529175,-3.1338977813720703,-2.936696767807007,-1.5795233249664307,7.106476306915283,-2.516024351119995,0.339517742395401,0.2849394679069519,-2.4607462882995605,-1.2202256917953491,0.7266103029251099,-0.3446819484233856,4.383749485015869,-1.1825265884399414,4.3523101806640625,-3.6901252269744873,-2.8187925815582275,2.0367324352264404,0.2760505974292755,-0.7397345900535583,4.410769939422607,-3.08657169342041,-5.142950534820557,1.027328610420227,0.45171454548835754,0.5998867750167847,0.9266153573989868,-3.75247859954834,-0.9343158006668091,-0.18751829862594604,4.580036640167236,-1.6932580471038818,3.484982967376709,1.1283199787139893,-5.956376075744629,-4.946394443511963,-4.871776580810547,-7.602246284484863,-1.271934151649475,1.7599406242370605,-0.9410932064056396,-4.697513103485107,-1.2036583423614502,-1.7195444107055664,3.5244665145874023,3.404994249343872,1.6968218088150024,-3.441815137863159,-8.107257843017578,-2.45235538482666,-6.311470985412598,-2.4605226516723633,-2.0142977237701416,3.0627684593200684,-5.822690486907959,-10.248383522033691,7.016874313354492,-8.018326759338379,1.9640291929244995,7.83308744430542,1.5382509231567383,1.5806230306625366,6.277284145355225,-2.551668405532837,-8.861824035644531,-3.670515775680542,8.529583930969238,4.57802152633667,13.401190757751465,-2.8654587268829346,-7.083051681518555,-2.52746844291687,8.797184944152832,-1.2205296754837036,-0.9660624861717224,-11.461580276489258,-0.46896234154701233,-3.345999002456665,0.3283931016921997,-2.848147392272949,2.6687893867492676,4.592076778411865,-6.710745334625244,-7.536931991577148,5.554438591003418,-1.0702800750732422,5.294966697692871,8.742643356323242,-2.3521852493286133,6.053997039794922,3.732741355895996,-3.1919219493865967,-9.84475326538086,1.1479179859161377,3.9683878421783447,0.5469439029693604,0.41826754808425903,0.8109847903251648,-5.828873157501221,9.930086135864258,-2.5529680252075195,-6.01482629776001,1.739461898803711,-3.1062231063842773,-5.8705315589904785,0.6164997220039368,3.676020622253418,-3.0887017250061035,4.148703098297119,-7.139212131500244,-1.7193588018417358,0.23733043670654297,3.6217081546783447,3.8089029788970947,-6.701907634735107,-3.8293280601501465,2.2924001216888428,5.178272724151611,6.189642906188965,0.08043999969959259,2.152179718017578,3.142848014831543,6.589942455291748,-0.9726955890655518,-3.5305097103118896,-3.217885971069336,-1.9564732313156128,3.225269079208374,-8.80095100402832,-3.9183294773101807,-9.0819730758667,-0.07650072127580643,4.672396659851074,4.951868057250977,-10.740034103393555,0.5773695707321167,2.332944869995117,9.861125946044922,-11.493209838867188,-3.4816372394561768,-3.907410144805908,8.363227844238281,-6.035697937011719,2.0508346557617188,6.293810844421387,-9.040648460388184,-7.683327674865723,1.7074791193008423,1.5077091455459595,-10.853226661682129,0.505481481552124,-0.3735363185405731,2.2457029819488525,-0.261846125125885,1.1127092838287354,5.889596939086914,-7.632063865661621,-2.4277074337005615,4.0423126220703125,7.580698490142822,0.006467878818511963,15.281282424926758,11.396292686462402,5.038340091705322,5.426981449127197,5.6626410484313965,-4.249161243438721,6.856874942779541,0.24447694420814514,7.384232521057129,-11.21786880493164,8.618388175964355,3.7737667560577393,-3.2162222862243652,-4.958869934082031,3.178816556930542,6.044124126434326,-5.607618808746338,-4.345375061035156,7.220893383026123,0.9209074974060059,5.9410481452941895,0.664994478225708,2.1718335151672363,3.114102840423584,3.60380482673645,-0.8736154437065125,11.828817367553711,2.570964813232422,-0.9447036981582642,1.1598197221755981,-10.226922035217285,9.644943237304688,2.8391172885894775,-5.203510761260986,9.024880409240723,-3.318676233291626,-7.871218681335449,2.788438558578491,4.790188312530518,-11.518730163574219,-6.63621187210083,-2.5825977325439453,4.433664798736572,2.8346681594848633,7.930715084075928,-10.637361526489258,-3.4649124145507812,7.92507266998291,-5.803571701049805,8.446473121643066,0.9758580923080444,5.946312427520752,3.8411409854888916,1.073723554611206,8.047018051147461,-5.364796161651611,-1.7343637943267822,-0.40655067563056946,0.14373162388801575,-3.1096436977386475,6.462133884429932,-4.320691108703613,-3.852506399154663,4.101703643798828,4.94874906539917,-4.310568332672119,-3.7398524284362793,4.615592956542969,0.7567247748374939,-6.8591108322143555,0.5406451225280762,-1.6490970849990845,-4.021557331085205,-4.766028881072998,-0.1799406111240387,-9.111056327819824,8.156120300292969,4.282557964324951,7.896360874176025,1.4735816717147827,7.155623912811279,-4.910278797149658,-4.043083190917969,-3.8154468536376953,5.747081756591797,5.026841163635254,0.5747597217559814,-3.4093282222747803,-4.056793689727783,0.8141226172447205,-4.375739574432373,-2.386461019515991,4.365635395050049,0.8015346527099609,3.7362101078033447,-0.5744336843490601,0.3945857882499695,-0.33243152499198914,0.9047084450721741,-0.13158661127090454,-0.004353574011474848,-0.24712830781936646,0.7726442813873291,-0.14259332418441772,-0.8234128355979919,2.7910315990448,-0.5812422633171082,-0.7358797788619995,0.2606864869594574,-0.2741200625896454,0.1737065613269806,-0.7369312047958374,3.1170804500579834,-0.11619207262992859,0.5637838244438171,0.23613518476486206,1.5931707620620728,-0.44650182127952576,1.1777472496032715,-0.7472248077392578,0.7734280228614807,1.2539747953414917,-0.27079588174819946,-0.2458939254283905,0.36397412419319153,0.6142706871032715,-0.3676692247390747,-0.2703801691532135,0.40634864568710327,0.3305458128452301,1.6012482643127441,-0.38969945907592773,1.4837327003479004,-0.5687360763549805,-0.45209646224975586,-1.1468344926834106,-0.05113617330789566,-9.053635597229004,-6.990221977233887,-8.550009727478027,-3.0376880168914795,-10.867857933044434,2.451906442642212,0.685126781463623,-0.9868443608283997,-0.17784972488880157,-6.462772846221924,8.424951553344727,-10.329231262207031,-6.439093589782715,4.419816017150879,6.914985656738281,-3.199903964996338,5.083600044250488,-1.4069608449935913,-10.338251113891602,4.922791004180908,-1.2301815748214722,-0.36592939496040344,7.371076583862305,-9.701594352722168,-0.5027236938476562,-4.063190460205078,4.969722270965576,3.4805898666381836,1.7134946584701538,-0.28458505868911743,-9.238214492797852,-4.830695629119873,-6.653228759765625,-9.627696990966797,5.521000862121582,1.4251277446746826,8.336747169494629,-8.535446166992188,-3.323169708251953,-0.19266268610954285,-1.8726168870925903,-4.395698070526123,4.851424217224121,-1.5033718347549438,2.6257803440093994,0.04328268766403198,-7.675109386444092,0.9327646493911743,-6.553274154663086,1.0561622381210327,9.827417373657227,-2.335512638092041,-5.630558013916016,5.178976535797119,-3.114455461502075,6.1924967765808105,4.355825424194336,-0.6573770642280579,6.378170967102051,2.6666340827941895,-3.052900791168213,3.3363616466522217,1.7727497816085815,1.3237372636795044,4.946260452270508,-3.4320850372314453,1.9882187843322754,-0.7882571220397949,-9.443094253540039,3.01145339012146,0.23637701570987701,7.7991623878479,1.1799193620681763,-3.659437417984009,-3.4319145679473877,-4.160733699798584,-0.21324050426483154,7.733489036560059,8.60413646697998,6.139207363128662,7.250572681427002,1.3927913904190063,-2.1817004680633545,3.037902593612671,-4.795604228973389,-3.875532627105713,-2.743082046508789,4.314515113830566,2.385913848876953,-1.0052826404571533,2.0456559658050537,-3.2338764667510986,-3.6723744869232178,-0.9140236973762512,-1.4197900295257568,0.9556453824043274,0.7536495327949524,3.904503345489502,0.4118419885635376,-1.6198456287384033,4.685547828674316,-1.9496278762817383,-1.283815622329712,4.343581199645996,-3.2204315662384033,2.2245736122131348,5.191131114959717,-5.108902454376221,-2.320845365524292,1.820859432220459,2.3013031482696533,0.4407978951931,6.9679341316223145,2.332156181335449,1.1017993688583374,-2.6236181259155273,-3.594261407852173,-1.0317392349243164,-4.157758712768555,3.5918681621551514,0.10469493269920349,3.50657057762146,-3.146143674850464,-1.7603145837783813,1.872220754623413,2.839369297027588,10.946869850158691,-3.4811367988586426,11.07813835144043,-4.715876579284668,-3.1031670570373535,-0.960955023765564,1.5495240688323975,-5.823987007141113,6.3949480056762695,-0.36194851994514465,2.0385169982910156,-5.1218647956848145,6.046319961547852,-10.212126731872559,-5.650469779968262,5.391202926635742,-13.052131652832031,1.4851630926132202,3.827706813812256,-1.1700798273086548,-3.999476909637451,-4.80509090423584,-10.59812068939209,11.839681625366211,7.187807559967041,5.44301176071167,-3.818730592727661,-6.940536022186279,3.13348388671875,-0.38301095366477966,-0.991894006729126,12.599577903747559,-9.435778617858887,-10.69550609588623,3.629051685333252,-6.449711322784424,0.8596382141113281,-1.3453384637832642,-6.462578296661377,-2.189591407775879,-5.906674861907959,6.890475273132324,2.0902230739593506,6.971353054046631,-7.630917549133301,10.193302154541016,1.1688129901885986,-3.8750786781311035,-1.2179713249206543,2.8160207271575928,-8.055377960205078,1.2811062335968018,-4.0001678466796875,4.550566673278809,3.8947229385375977,-6.207959175109863,2.620729923248291,4.113299369812012,-6.236987590789795,-8.583379745483398,-2.2550854682922363,-8.623046875,-6.331137657165527,-0.12550826370716095,-4.779898643493652,6.901461124420166,6.169961452484131,-3.530229330062866,-0.22313237190246582,3.2375972270965576,-8.186689376831055,-9.876605987548828,-7.678605079650879,7.414577007293701,7.881816387176514,0.45521339774131775,-5.122499942779541,-7.987880706787109,-5.557435989379883,-5.953592777252197,-6.290029525756836,2.3835153579711914,0.5963873863220215,2.2242114543914795,-0.21872588992118835,0.23066559433937073,-0.0861443430185318,1.2057486772537231,0.714360237121582,-0.07159390300512314,-0.17837753891944885,0.1600838452577591,0.31205734610557556,0.2604185938835144,-0.03808336332440376,-0.035850510001182556,0.21757949888706207,0.9277153015136719,-0.20019866526126862,0.5459092259407043,1.4174875020980835,-0.33669382333755493,0.5724273324012756,0.08332736790180206,0.47037336230278015,0.6837769746780396,-0.004864139948040247,0.6240622997283936,-1.3645669221878052,-0.3421151340007782,-0.9688528776168823,0.5679875612258911,-0.06747287511825562,0.6815367341041565,0.6375964283943176,-0.014539352618157864,0.22210907936096191,0.36984747648239136,-0.20054998993873596,-0.1694173812866211,0.09872496873140335,0.22620299458503723,0.5299931764602661,-0.7661261558532715,0.3130158483982086,-0.23543311655521393,0.5279402732849121,-1.0719866752624512,-1.3356900215148926,0.5541946291923523,-0.21856068074703217,1.1153781414031982,-0.7708971500396729,-0.012819021940231323,0.4426666796207428,-0.5751988291740417,0.38522523641586304,-0.08932796120643616,0.5989500284194946,0.6970701813697815,0.0917583480477333,-0.7076060771942139,0.41636863350868225,-0.519490122795105,-0.31650641560554504,0.4937225878238678,0.02461492083966732,0.4434613585472107,0.17724189162254333,0.452471524477005,-0.8271497488021851,-0.7635040283203125,-0.1368447244167328,0.02902543731033802,-0.08794818818569183,-0.6165819764137268,-0.9965055584907532,0.9154931306838989,-0.7358272075653076,-0.21324467658996582,-0.7534213066101074,0.49670639634132385,0.7588434815406799,-1.2335638999938965,0.3120644986629486,-0.1656457483768463,0.4429103136062622,0.7325776219367981,0.007671748287975788,0.026911621913313866,-0.07792060822248459,0.010365664958953857,-0.039118628948926926,0.0031890091486275196,-0.021327950060367584,-0.024613795801997185,-0.020455244928598404,0.032463766634464264,-0.05023762956261635,-0.07462039589881897,0.07788247615098953,0.025887111201882362,0.07100723683834076,-0.021165547892451286,-0.06974507868289948,0.03957570344209671,-0.04715404659509659,-0.03334056958556175,-0.0769101157784462,0.0032057645730674267,-0.07302053272724152,0.07490813732147217,0.06805575639009476,-0.06020935997366905,0.071109838783741,0.06901118159294128,-0.0024916024412959814,-0.026740787550807,0.06631744652986526,0.0003119850589428097,-0.04191109165549278,-0.022184599190950394,0.015687748789787292,-0.03419199213385582,0.011719434522092342,0.012468375265598297,0.020782088860869408,0.03905286267399788,0.00036186029319651425,0.026396242901682854]},"hiddenLayers":[{"inputMatrix":{"rows":90,"columns":42,"weights":[0.05891845375299454,0.4571783244609833,0.6441157460212708,-0.27085837721824646,-0.06048988178372383,0.5971958041191101,-0.501882791519165,-0.0354577973484993,0.7505437135696411,0.41140982508659363,-1.645573377609253,1.7853020429611206,0.05954592674970627,-0.3333437144756317,-0.7253432869911194,-0.3708210289478302,0.0005306887906044722,0.3412012755870819,0.4120541512966156,-0.4375097453594208,0.5334618091583252,-0.6987288594245911,0.22383299469947815,0.41870054602622986,-0.45459362864494324,-0.0070825787261128426,-1.0264149904251099,0.7313593029975891,0.7632448077201843,-0.7171170115470886,2.0079383850097656,1.2932394742965698,0.016997989267110825,0.5257360935211182,-0.6765612363815308,-0.5544814467430115,0.1182221993803978,0.19951698184013367,-0.0846027359366417,0.9342504739761353,-0.9750626087188721,-0.4976245164871216,-1.7136116027832031,0.4744061231613159,-1.2450200319290161,0.5621218681335449,0.43119579553604126,-0.3731980323791504,-0.7339276075363159,-0.7456045150756836,-0.684564471244812,-0.32136163115501404,1.2774484157562256,-1.4143102169036865,0.6997409462928772,0.7870256900787354,-0.5369541049003601,-0.6749004125595093,-1.0935076475143433,-0.36770305037498474,-0.402291476726532,-0.361355721950531,-0.028548795729875565,0.6079177856445312,1.7763276100158691,0.02899346314370632,0.22144441306591034,-0.13154204189777374,0.08679397404193878,0.191352978348732,-0.5210907459259033,-1.0204365253448486,0.08204798400402069,0.3075971007347107,0.10235456377267838,-0.15721017122268677,0.6789731383323669,-0.06141427531838417,1.0208156108856201,-0.4542352259159088,-1.1634548902511597,-0.5144179463386536,0.947488009929657,0.4010694921016693,0.6911535859107971,0.680018424987793,1.0012809038162231,0.020417828112840652,-0.8180885314941406,-0.5008919835090637,-0.2658666968345642,-0.5043343305587769,0.4671518802642822,0.03349633514881134,-0.8981041312217712,0.22806136310100555,-0.35510560870170593,-0.22214876115322113,-0.05704024061560631,0.5993720889091492,-0.26086950302124023,0.6518257260322571,1.5485576391220093,-0.45137709379196167,0.38091015815734863,-1.1819159984588623,-0.07966908067464828,0.23812605440616608,-0.16678698360919952,0.4258742034435272,-2.109553337097168,0.2520507276058197,0.009013369679450989,0.5201117992401123,1.7642627954483032,1.5640616416931152,-0.1603892743587494,0.00314572686329484,-0.40577152371406555,-0.36776772141456604,0.3588390052318573,0.6423174142837524,0.048587948083877563,0.09034529328346252,-0.9388492107391357,0.3360486924648285,-0.2386091649532318,-0.7573153376579285,0.18678782880306244,-0.6492461562156677,0.018062951043248177,0.944866418838501,-0.5364397764205933,0.16196776926517487,0.565793514251709,0.9314919710159302,-1.4012371301651,0.25938040018081665,0.2694411873817444,0.503754198551178,-0.8837697505950928,-0.9928916096687317,0.884209930896759,0.34103167057037354,-0.37959110736846924,0.406465619802475,0.6655339002609253,-0.008528929203748703,0.37365424633026123,-0.03584935888648033,0.2749042809009552,0.5061971545219421,-0.6876325607299805,0.29123008251190186,0.8602303266525269,0.181288480758667,1.2673883438110352,-0.34724098443984985,-0.9901830554008484,-0.37027275562286377,0.30877116322517395,0.1594153195619583,0.2901829779148102,-0.2229706197977066,0.2863091826438904,-0.02351980097591877,-0.08413054049015045,-1.2606613636016846,-0.38747847080230713,0.04953068494796753,0.7031294703483582,-0.06594593822956085,-0.8605808615684509,-0.17830321192741394,-0.08112920820713043,-1.2706067562103271,-0.46581700444221497,-0.2907206118106842,0.27324482798576355,0.2736358940601349,-1.2958143949508667,0.10450984537601471,0.5846838355064392,-0.13887974619865417,-0.37845197319984436,0.5119078755378723,0.2928534746170044,0.6189244985580444,0.14227046072483063,-1.5701096057891846,2.1046643257141113,-2.782864570617676,0.751453161239624,-0.09561125189065933,-0.8065985441207886,-0.5410125851631165,0.7385282516479492,-0.4454233646392822,1.245113730430603,-0.9386028051376343,1.2826405763626099,0.12516309320926666,-0.2971808910369873,0.15551604330539703,0.9736189842224121,0.21392002701759338,-0.6474974751472473,-0.17038285732269287,-0.8661317229270935,0.05658474937081337,-0.7444711327552795,1.6941545009613037,-1.0597202777862549,-1.159903883934021,0.5033886432647705,-0.1493052989244461,-0.892554759979248,0.8654974699020386,-1.176683783531189,0.5728855729103088,-0.9134746789932251,0.7662985920906067,0.3066212832927704,-0.7405952215194702,0.05420507863163948,0.14040403068065643,-1.771465539932251,0.10861936956644058,-0.989229679107666,-1.2055637836456299,0.10732346773147583,0.4292348325252533,-0.6539220213890076,0.9908989667892456,0.24064278602600098,0.18932804465293884,-0.19476960599422455,1.3160772323608398,-0.8825799226760864,-1.2422341108322144,-0.07012291252613068,0.08714044839143753,0.7478657960891724,0.7217450737953186,-0.12254728376865387,-0.4458029568195343,0.19853152334690094,-0.3397027254104614,0.19957396388053894,1.6739897727966309,0.6848268508911133,-0.1108105480670929,1.7189395427703857,-2.01757550239563,-1.7780219316482544,-0.645689845085144,0.5783731937408447,0.010422932915389538,0.028842806816101074,0.17836984992027283,1.5095465183258057,-0.6093904376029968,0.5296058058738708,-0.8111199736595154,0.9746862649917603,0.7564795613288879,-1.2458997964859009,0.684816837310791,0.9268859624862671,0.6028168797492981,-0.07608888298273087,0.19833900034427643,0.5682758092880249,1.0117961168289185,0.23897972702980042,0.6051923036575317,0.2740619480609894,-1.037684679031372,0.7618359923362732,0.26292791962623596,0.12661664187908173,-0.7594190239906311,-0.17573903501033783,-0.5169419646263123,-1.8589202165603638,-1.39480459690094,-1.3372069597244263,0.9564868807792664,-0.5498347878456116,-0.8941790461540222,1.6828854084014893,-0.375351220369339,1.966495156288147,0.18191203474998474,0.7820742726325989,0.4873565137386322,-0.39973175525665283,0.3087051212787628,-0.18986119329929352,0.6561700105667114,0.12379512190818787,-0.009369155392050743,0.9658149480819702,-0.9850103259086609,0.17270921170711517,-1.2488585710525513,-0.888947069644928,0.742335319519043,0.5091635584831238,-0.8089336156845093,0.09353866428136826,-0.14457465708255768,-0.30411210656166077,1.3266403675079346,1.001003384590149,0.45876461267471313,1.7510762214660645,-0.9813574552536011,-0.8600348234176636,-0.193797305226326,1.3934721946716309,0.24781261384487152,0.524235188961029,-0.5627758502960205,0.20422913134098053,-1.9329464435577393,-1.3828530311584473,-0.9042121767997742,0.25744569301605225,0.3684644401073456,-0.7360236048698425,-0.16854925453662872,0.44926899671554565,-0.9890239238739014,0.10732728987932205,-0.8226468563079834,-0.9984046816825867,0.958972692489624,-0.23618623614311218,-1.0424669981002808,0.6503260731697083,0.18558481335639954,-1.3351702690124512,1.1225026845932007,-1.157076358795166,0.5506338477134705,-0.7537466287612915,1.1082683801651,-0.9295328259468079,0.030979378148913383,1.232646107673645,-0.0227353498339653,-0.014184458181262016,-0.636494517326355,-0.9113819003105164,-1.1779680252075195,-0.49774110317230225,0.34320059418678284,-0.3962439000606537,0.13186021149158478,-1.4037795066833496,-0.31135717034339905,-0.3701920807361603,1.4167612791061401,0.006115876138210297,0.8356180191040039,0.07610883563756943,-0.024992143735289574,1.6219074726104736,1.0815914869308472,-0.05056275054812431,0.041295815259218216,1.005754828453064,-0.37793204188346863,-0.5397648215293884,0.39475512504577637,-1.5102488994598389,0.5997573137283325,-1.1887304782867432,0.33630800247192383,-0.1340271383523941,-0.8410406708717346,-0.1961657851934433,0.5231220126152039,-0.5732900500297546,0.09103433042764664,-1.1329869031906128,0.04221910983324051,-0.05426753684878349,1.1858642101287842,-0.6944806575775146,0.24465134739875793,0.6519514918327332,0.40619561076164246,0.6647687554359436,1.0026123523712158,-0.04112885147333145,0.47561365365982056,-0.4246359169483185,-1.5747684240341187,1.2886872291564941,-1.1798838376998901,0.46841487288475037,0.4170653522014618,-1.8770824670791626,0.053398776799440384,0.17264597117900848,-0.43217092752456665,0.8300014734268188,0.2754841148853302,0.7950170636177063,1.9405816793441772,0.04232598841190338,-0.3113441467285156,0.9680049419403076,0.3413413166999817,-0.4863610565662384,1.7281087636947632,-0.6394653916358948,0.6474692225456238,0.31544798612594604,-1.1746326684951782,0.09296675026416779,-0.5563178062438965,-1.6142563819885254,-1.6696897745132446,0.3564779460430145,0.04684281349182129,0.054424021393060684,-1.637518048286438,1.0276349782943726,0.45102062821388245,-1.903183102607727,0.3038284480571747,0.9940390586853027,0.5747923851013184,-0.1648675799369812,1.780922532081604,0.013623146340250969,-0.8757652044296265,1.2867351770401,-0.9409974217414856,1.6650848388671875,-1.2609143257141113,-0.7144325375556946,-0.3315187096595764,-0.09707095474004745,-0.2571311593055725,0.06827817857265472,-0.17037589848041534,-0.29897645115852356,-0.1770654171705246,0.22212037444114685,0.17032507061958313,0.7258832454681396,0.4201279580593109,-0.35362163186073303,-0.019904760643839836,0.947780430316925,0.8056008219718933,-0.37755706906318665,0.03386933356523514,0.023555273190140724,0.053507111966609955,-0.6501433253288269,0.5944891571998596,1.2545342445373535,0.1809200495481491,-1.4480092525482178,-0.36539310216903687,-0.9664580225944519,-0.34240520000457764,0.8237263560295105,-1.0424212217330933,0.24109746515750885,0.9651401042938232,-0.211363285779953,-1.0754375457763672,0.2854275405406952,0.4586764872074127,-0.30986034870147705,1.203840970993042,0.07543402910232544,1.374216079711914,1.6765800714492798,-0.5329341888427734,-0.3752876818180084,0.16919292509555817,-0.019032282754778862,0.2917393445968628,-1.055184006690979,-0.1531618982553482,-0.6954253315925598,-0.28273484110832214,0.17103701829910278,0.4822233021259308,-0.7142237424850464,-0.0852886438369751,1.3366997241973877,-0.17585155367851257,0.994210422039032,0.3653205633163452,0.9721821546554565,-0.18789876997470856,-0.4804529547691345,0.009679442271590233,-0.5979601144790649,0.8530524969100952,1.0167288780212402,-0.5853208899497986,0.7105315923690796,1.0013693571090698,0.5866236686706543,-1.0370733737945557,0.8333904147148132,-1.1262543201446533,-0.13792836666107178,0.3769841492176056,0.3877580165863037,0.634262204170227,-0.1807042807340622,0.5902633666992188,1.159643530845642,0.5268083810806274,0.6831042170524597,0.8527215719223022,0.5871027708053589,-0.03575613349676132,-1.0196086168289185,-0.3373371660709381,1.0147356986999512,-0.09626463055610657,-0.31413236260414124,1.008908987045288,-0.65984708070755,0.2729624807834625,-1.74745774269104,-0.6097367405891418,0.6331902146339417,0.6669391989707947,-0.8331944346427917,0.402100145816803,0.9712646007537842,-0.5884681344032288,0.7564533948898315,1.555800199508667,-0.9398338198661804,0.41977059841156006,0.03503938764333725,-0.16474373638629913,0.527164876461029,-0.27001410722732544,-1.3065534830093384,0.907237708568573,-1.727389931678772,-0.4039161205291748,0.24525317549705505,-0.08657879382371902,-1.3093771934509277,0.6385741233825684,1.6638414859771729,0.5087013840675354,0.8495113849639893,-0.15365254878997803,-1.082542061805725,-0.4441972076892853,-0.3609054386615753,-0.38116976618766785,0.10143420845270157,-0.21154071390628815,-1.159554123878479,0.3486744463443756,-0.39410948753356934,2.05772066116333,0.18413648009300232,0.5790688991546631,0.04989177733659744,0.05128740146756172,0.8626179099082947,0.8426434993743896,-0.7735674977302551,-0.20420952141284943,1.3524776697158813,-0.32988476753234863,-0.17018349468708038,0.788794994354248,-0.6958000063896179,0.170771524310112,-0.14652091264724731,0.677908718585968,-0.5660216808319092,-0.7558193802833557,2.1672372817993164,-0.011411045677959919,-1.0797712802886963,0.7498326897621155,-1.9381285905838013,-0.20979292690753937,1.4434826374053955,-0.3046315014362335,-0.7960200905799866,1.0436711311340332,0.3651943504810333,0.0023307097144424915,-0.05226181447505951,0.45545557141304016,-1.9943187236785889,-0.11669741570949554,-0.9270828366279602,-0.03629462420940399,-0.2614322900772095,-0.4862138330936432,-0.5977584719657898,0.38071849942207336,1.4935729503631592,0.8251540064811707,-0.6262865662574768,-0.19988329708576202,-1.0370559692382812,-0.41229745745658875,-0.06307178735733032,-0.5746448040008545,-1.1730856895446777,0.7967056035995483,0.6844862103462219,-0.2103061079978943,-1.4940372705459595,-0.3063518702983856,-0.48451510071754456,2.594773530960083,-1.0482546091079712,0.13204726576805115,-0.46197494864463806,-1.7716403007507324,-0.8790459036827087,1.7056912183761597,-0.21301406621932983,0.6665019392967224,0.1755908578634262,0.8461827635765076,-1.1816853284835815,1.5727201700210571,-1.1662116050720215,0.9087724685668945,1.0399104356765747,0.04166072607040405,-0.1844206154346466,-0.04417208582162857,0.452059268951416,0.6254762411117554,0.045514874160289764,-0.9675121903419495,-0.3728597164154053,0.5260820388793945,-1.4695758819580078,0.40432485938072205,-0.26942178606987,0.8167813420295715,0.16072483360767365,0.7133088111877441,1.3814549446105957,0.13875344395637512,0.2693742513656616,0.2795623242855072,0.3280131220817566,-0.37833452224731445,1.2822866439819336,-0.22966477274894714,-0.17709210515022278,0.03965562954545021,-2.770810842514038,-0.223477303981781,0.07594858855009079,-0.33619844913482666,-1.6092809438705444,0.2405334860086441,-1.8854520320892334,0.3724649250507355,0.3449576497077942,-0.9573357701301575,-1.2418631315231323,-0.8894718885421753,-0.602750301361084,0.09617015719413757,-0.9111316800117493,-0.38865965604782104,1.003871202468872,-1.6690354347229004,-1.0867897272109985,-0.11342690885066986,0.04686886817216873,0.2857508361339569,-0.43669000267982483,-0.5401818752288818,1.4528417587280273,-1.2550832033157349,1.7425721883773804,-0.7885445356369019,-0.01818109303712845,-0.580884575843811,1.0692901611328125,-0.31718969345092773,-0.17738373577594757,-0.3495989143848419,1.0214301347732544,-0.1929900199174881,0.04893145337700844,-0.3010095953941345,-0.10410058498382568,-0.22424094378948212,-0.7787836194038391,1.9654333591461182,-1.692489743232727,-0.9707223773002625,0.39203277230262756,-0.6591770052909851,-0.05811687931418419,0.8510552048683167,1.2255709171295166,0.7120364904403687,-0.3210701048374176,0.020413115620613098,0.4747789204120636,-0.5282273888587952,0.4931891858577728,-0.47829586267471313,0.44227081537246704,0.5007117986679077,-0.6391088366508484,-0.37415093183517456,-0.0015544384950771928,0.6030603051185608,0.6116302013397217,0.8082296252250671,0.4574371874332428,2.050297498703003,0.26520973443984985,0.30714157223701477,-0.12232212722301483,-0.5834894776344299,-0.6369439959526062,-0.3781139850616455,-0.526272714138031,0.8311432600021362,-0.6703173518180847,0.5596432685852051,0.017001468688249588,0.22953912615776062,-0.8895491361618042,0.38981401920318604,0.19621603190898895,-0.4606405198574066,1.1132887601852417,0.018382573500275612,0.7880184650421143,0.20697733759880066,-0.6759394407272339,1.9017484188079834,1.626616358757019,0.668389618396759,0.29837000370025635,-0.5956838130950928,0.24756507575511932,0.29396528005599976,0.024292731657624245,0.3340552747249603,-1.00907564163208,-0.3864642083644867,0.09009519964456558,-1.0103776454925537,0.4228716194629669,0.42707619071006775,-0.11024060845375061,-0.21844051778316498,-0.34518465399742126,-0.11765117198228836,-0.1508316993713379,-0.28716954588890076,0.17923273146152496,0.3784373700618744,0.12208522111177444,0.5888043642044067,-0.6797749400138855,1.1793302297592163,-0.13194598257541656,0.2337195724248886,2.2311928272247314,1.1687175035476685,0.895921528339386,2.0721826553344727,0.2648654282093048,-0.7874032855033875,0.43174296617507935,1.5102167129516602,-0.6301299929618835,-0.04370801895856857,-0.3880288004875183,-0.5971150994300842,0.6374581456184387,0.045690715312957764,2.0640869140625,-0.7592535614967346,-1.05964195728302,-0.01686425879597664,1.1357089281082153,0.29098397493362427,1.3292994499206543,0.3487571179866791,-1.842134952545166,0.9167888164520264,-0.006441868841648102,-1.3552465438842773,-0.20022305846214294,0.1950707584619522,-0.8569737672805786,0.5444684028625488,0.5992485284805298,0.41366875171661377,0.2333761304616928,-0.8969501852989197,-0.750072717666626,-0.008113160729408264,0.5419562458992004,0.5491458177566528,-0.7630237340927124,-0.6815432906150818,0.42084822058677673,1.5296649932861328,1.1731430292129517,0.5540652871131897,-1.355498194694519,0.06843771040439606,1.033627986907959,0.6383872628211975,-0.49787428975105286,2.1068530082702637,0.0663035660982132,-0.07028181850910187,-1.0768511295318604,-0.35517629981040955,-1.2088195085525513,0.5882458686828613,0.23714931309223175,0.30334022641181946,-0.20643293857574463,0.27958765625953674,-0.08896759897470474,0.9373549222946167,-1.736204981803894,0.34842029213905334,0.5688729882240295,-0.25063586235046387,-2.0470774173736572,0.9264283180236816,0.877819299697876,0.293434202671051,1.5295839309692383,-0.35412710905075073,0.053109802305698395,1.31753408908844,-0.44067493081092834,-0.5185766220092773,0.937354326248169,-1.0432844161987305,-0.9457401037216187,-0.03507445380091667,0.12004616856575012,-0.17732524871826172,-0.37672048807144165,0.8024130463600159,-0.2985588312149048,-0.9293374419212341,0.33609697222709656,0.10373024642467499,-0.03016865998506546,1.1850253343582153,0.3185930550098419,0.04539943113923073,0.15739330649375916,-0.9014036655426025,-0.377461701631546,1.8635591268539429,0.6216951608657837,-0.9143807888031006,-0.5596617460250854,0.0010831180261448026,0.10955047607421875,-0.3611867129802704,0.409930944442749,-0.6166893243789673,0.6672729253768921,-0.5378053784370422,-0.43805423378944397,-0.23877711594104767,0.1243426501750946,1.1018725633621216,-0.3207228183746338,0.8995600342750549,1.559786081314087,0.2831995487213135,0.5633702874183655,0.8574121594429016,0.8129422664642334,0.46631473302841187,0.14541727304458618,-0.7642523646354675,-1.3443994522094727,-1.0299848318099976,-0.7385802865028381,-0.7704518437385559,0.22665175795555115,0.31613144278526306,1.3785765171051025,-0.3926084339618683,0.10397711396217346,-0.3862367570400238,-0.5824069380760193,1.0466208457946777,-0.3955613374710083,-0.48544955253601074,1.5356301069259644,-0.06611377000808716,1.7718944549560547,-0.045572057366371155,-0.20357730984687805,0.47681868076324463,0.12304601073265076,-0.16403856873512268,-1.2105951309204102,-0.2881213128566742,0.8364962935447693,0.6102409362792969,1.1866600513458252,0.23869121074676514,0.6903220415115356,-0.995057225227356,0.2512519061565399,-0.8208317160606384,-0.3061036765575409,0.640346884727478,-1.390355110168457,-0.45757654309272766,0.563474714756012,0.3860641419887543,0.5199017524719238,-0.14336945116519928,-0.1738424003124237,0.9757366180419922,-0.04925120621919632,0.11362352967262268,1.3561469316482544,-0.1454281359910965,-0.6775542497634888,0.5510706901550293,-0.1360703706741333,-0.5005084276199341,-1.0341579914093018,-1.3965041637420654,1.6919666528701782,0.1820354163646698,-1.4275565147399902,0.32485541701316833,1.2612167596817017,0.10011286288499832,0.14151087403297424,-0.25986504554748535,-0.9483844637870789,1.8997873067855835,-0.07350622117519379,0.5106468200683594,1.4240517616271973,0.9280784130096436,-0.22599157691001892,0.23759722709655762,0.15835188329219818,1.1661016941070557,0.5068933963775635,-0.44205379486083984,0.9400511980056763,0.40572914481163025,-1.0914857387542725,-0.2400640994310379,0.35214322805404663,-0.8646082282066345,-0.9415560960769653,0.9574785232543945,-1.6478075981140137,0.6798955202102661,-0.8735472559928894,0.577947199344635,-0.9744413495063782,0.5569635033607483,0.91520756483078,0.08682231605052948,-0.7142210602760315,-0.13676504790782928,0.1430247724056244,0.10226231068372726,-0.38433393836021423,0.7111784815788269,-0.594795823097229,-0.4463207721710205,-0.601333737373352,0.8427115082740784,-0.0276735071092844,-0.4663705825805664,0.741460919380188,1.1674268245697021,-0.5648787021636963,1.2323981523513794,1.268298625946045,-0.4237951934337616,-1.5502204895019531,0.09623868763446808,-0.509373664855957,0.35582080483436584,1.201549768447876,0.2966216504573822,-0.7339996099472046,1.746328592300415,-0.15935739874839783,-0.7562076449394226,0.011649414896965027,-0.19690677523612976,0.04249193146824837,-0.28104105591773987,-1.1383793354034424,-0.0721699446439743,0.6661586761474609,-1.6532764434814453,-0.5881966352462769,0.9464914202690125,0.7150704860687256,0.7165767550468445,-0.6509141325950623,0.4365904629230499,0.022022239863872528,-0.33041635155677795,0.15726891160011292,0.8287491798400879,-1.2093555927276611,0.41712144017219543,-0.3661383092403412,0.3257160782814026,0.251932829618454,1.2746326923370361,0.61033034324646,0.8652920126914978,-0.7413230538368225,-0.3222356140613556,-0.547070324420929,1.8001142740249634,0.5219959616661072,0.1047990694642067,0.03804253786802292,0.4806821346282959,0.011630455031991005,-0.08154787868261337,-0.11464926600456238,0.3008697032928467,-0.31389814615249634,1.082308292388916,0.11184947192668915,0.272317498922348,-0.2328229695558548,0.6105824708938599,-0.5780764222145081,-0.5249357223510742,-0.09717145562171936,0.21459826827049255,0.029554737731814384,-1.0957090854644775,-0.7444644570350647,0.7023676037788391,-0.33964091539382935,1.7639672756195068,-0.18114598095417023,0.4957112967967987,-0.8630727529525757,0.014117242768406868,0.8214531540870667,1.329072117805481,-0.1156315729022026,1.1739230155944824,-0.10928221046924591,-0.5387078523635864,0.7022820115089417,0.9285891652107239,-0.6436191201210022,-0.5940113663673401,-1.128055453300476,-0.33115604519844055,-1.7890079021453857,0.6282438039779663,-0.3503365218639374,-0.12342432141304016,0.5335109829902649,0.24163347482681274,0.32247135043144226,-0.6075627207756042,-0.8720760941505432,0.4139069616794586,-0.1638154536485672,0.2862050235271454,0.1921507567167282,-0.7233251929283142,-0.5067833065986633,-0.44030851125717163,-0.4186239540576935,-0.09336335211992264,0.1709391474723816,-0.21016749739646912,0.46136948466300964,0.1582951843738556,-0.596319854259491,0.2036503404378891,-1.1850063800811768,0.3542264699935913,-0.372472882270813,-0.5642371773719788,-0.5088251829147339,0.5867611765861511,0.8062246441841125,0.35572323203086853,2.40952730178833,1.790385127067566,-1.2543359994888306,-0.3484787046909332,-0.44804665446281433,0.5218865275382996,0.23744969069957733,1.1829599142074585,0.7380222082138062,-0.14292702078819275,-0.16968156397342682,-1.2080787420272827,-0.6653005480766296,1.087170124053955,0.040510814636945724,-0.5176308751106262,0.5231335759162903,-0.33636072278022766,0.8899825811386108,-0.26629742980003357,-1.2130101919174194,1.683401346206665,-0.20707480609416962,-0.12575963139533997,0.02427111752331257,0.10469359904527664,0.9176351428031921,0.341751366853714,0.9777442812919617,0.12674342095851898,1.0784940719604492,0.9832066297531128,0.024634525179862976,-0.08522909134626389,-0.021403176710009575,0.14232861995697021,-1.3499910831451416,0.41322067379951477,0.15656355023384094,1.230059027671814,1.1232539415359497,0.28946563601493835,-0.02461796998977661,0.6097888946533203,-0.49344727396965027,0.002153637120500207,-0.5988902449607849,0.054873812943696976,1.684491515159607,1.3757410049438477,0.7905992865562439,-0.7195541262626648,-0.08238156884908676,-0.3084309697151184,0.35076528787612915,0.10987760871648788,0.9216752052307129,0.042176634073257446,0.16542698442935944,0.09672865271568298,0.661654531955719,-0.7293294668197632,0.1379445642232895,-0.5802187919616699,-0.2623351216316223,1.489735722541809,-0.19619420170783997,-0.8066955804824829,2.008765935897827,1.0613293647766113,0.3262315094470978,0.6096603870391846,0.622219979763031,0.9463914036750793,0.9871789813041687,-1.027367115020752,-2.2930312156677246,-0.5188739895820618,0.6548698544502258,-0.15649567544460297,-0.9022923707962036,0.6350171566009521,-0.06994932889938354,-0.5769361853599548,-0.7162156701087952,-0.8832155466079712,0.1103937029838562,0.12181581556797028,0.6624849438667297,0.1305292695760727,1.119572401046753,-1.3203521966934204,0.2667202055454254,-0.01963377743959427,-0.7382511496543884,0.054028332233428955,-0.578335165977478,0.9646295309066772,-0.1601034253835678,-0.30846408009529114,-1.0092964172363281,-0.9480583667755127,-1.2907195091247559,-0.77916020154953,0.7500070929527283,0.32954907417297363,-0.8002829551696777,0.9683935642242432,0.30450478196144104,-0.6881327629089355,0.6016997694969177,1.2107350826263428,-0.8362328410148621,-0.09137815237045288,0.174462229013443,0.38927045464515686,0.23187153041362762,-1.008492112159729,0.0024746423587203026,0.0007448570104315877,-1.0300352573394775,0.2557239830493927,-0.04455729201436043,0.24829889833927155,-0.2977927327156067,0.3180832862854004,0.8789495825767517,0.29882070422172546,-0.8251942992210388,0.19087664783000946,1.3415992259979248,-0.9551108479499817,0.18262635171413422,1.0402177572250366,-0.06968560814857483,0.4420694410800934,-0.13411933183670044,1.3236021995544434,0.4142827093601227,-1.0431020259857178,-0.02777152694761753,0.18051724135875702,1.7634952068328857,-0.10986572504043579,0.6296501159667969,0.2926556169986725,-0.27684733271598816,-0.08057689666748047,0.518095076084137,-0.8830076456069946,-0.7221342325210571,-0.9061150550842285,-1.214518427848816,-0.12912984192371368,-0.30980220437049866,0.4079805314540863,-0.2434416115283966,-0.6618766784667969,-0.4946310222148895,0.3170464336872101,0.27371618151664734,1.7381868362426758,1.7636388540267944,-1.0009655952453613,0.42440858483314514,-0.776113748550415,-0.012247382663190365,-0.6144384145736694,-0.9163268804550171,-1.5506922006607056,1.238881230354309,-0.3241063356399536,-1.3570307493209839,0.5029457211494446,-0.5939159989356995,-1.0740524530410767,-0.5483872294425964,-0.2749132215976715,-0.5150288939476013,0.8650856018066406,-0.38287681341171265,0.7178362011909485,-0.041289422661066055,-1.0189673900604248,0.3492930233478546,0.1947251856327057,0.019040027633309364,0.14572052657604218,-0.0339181162416935,-1.3100711107254028,0.5031163096427917,-0.2991219758987427,-0.7065615653991699,0.5161023736000061,-1.1131399869918823,-0.06930634379386902,0.3074325621128082,-0.6916354894638062,1.0794610977172852,0.35025182366371155,0.5099882483482361,0.5717847943305969,-0.8297889828681946,1.0290379524230957,0.19136138260364532,-0.29376843571662903,0.14046984910964966,-1.2400562763214111,1.0030250549316406,0.10592043399810791,0.7201678156852722,0.5305425524711609,0.6972119212150574,-1.0965319871902466,-0.5145679116249084,0.5551822781562805,-0.06912035495042801,-0.09396819770336151,1.28815495967865,-0.6451747417449951,-0.3304569125175476,-0.13412968814373016,0.03801054134964943,1.4599360227584839,0.4044487476348877,1.4802364110946655,0.100721575319767,-1.538545846939087,-0.01190710999071598,0.9024648666381836,-0.4476807117462158,-0.5939350128173828,0.6984614729881287,0.05052616819739342,-1.7750484943389893,-0.7573946714401245,-0.46768423914909363,-0.9888891577720642,0.28092584013938904,1.573913335800171,-0.5317783355712891,0.7224723100662231,-0.09989318251609802,0.3736044466495514,-0.2400134950876236,-0.04692067205905914,-0.19533614814281464,-0.3059002757072449,0.43955567479133606,0.3075951039791107,0.7666727304458618,-0.4451167583465576,0.5952556133270264,-0.10910346359014511,-0.3216094970703125,-1.1617103815078735,0.24193063378334045,0.3200579285621643,-0.24955545365810394,-0.7814773917198181,0.3231215476989746,-0.8286182880401611,-1.0018609762191772,-0.991468608379364,0.48200318217277527,-0.36617639660835266,1.3211411237716675,0.03189365193247795,-0.6185302138328552,0.3134782612323761,-0.3308546245098114,-1.0919779539108276,0.49028342962265015,-0.24629084765911102,-0.46784552931785583,1.131682276725769,0.7636496424674988,-1.103946328163147,2.341648817062378,1.6540569067001343,-0.8735440969467163,0.3829011917114258,-0.40074560046195984,-0.25034210085868835,1.3763009309768677,-1.6684861183166504,-2.490114688873291,0.14033108949661255,0.6780157089233398,0.8654051423072815,0.44573864340782166,0.07374334335327148,-0.2005588561296463,-0.8029839396476746,-0.6785718202590942,-0.3510541617870331,-0.3423638343811035,1.0639784336090088,1.7027748823165894,-0.6900361776351929,-0.27245602011680603,-0.6807132959365845,0.4027019441127777,0.5074125528335571,0.7697264552116394,-1.2647805213928223,-2.330339193344116,-0.4479901194572449,0.24324855208396912,0.3989195227622986,0.021182339638471603,0.9093434810638428,0.26583585143089294,-0.6398825645446777,-0.19482789933681488,1.0139377117156982,-0.2790359556674957,1.878579020500183,0.09686514735221863,1.0472277402877808,0.6330205202102661,-0.1830264776945114,-1.138055682182312,0.21924997866153717,0.4936649203300476,0.9797348976135254,-0.8715190291404724,1.0853599309921265,-1.1241573095321655,-0.4286790192127228,-0.4142204523086548,0.3915013074874878,-1.8600420951843262,-0.2719162106513977,-0.6541818380355835,0.20398375391960144,0.26094335317611694,0.20825308561325073,-1.2041864395141602,0.7675811648368835,-0.7849147915840149,-2.4325997829437256,1.443326711654663,0.06978290528059006,-0.03685146942734718,-0.9089125394821167,0.5575122833251953,0.015033328905701637,0.07643405348062515,-1.0374125242233276,1.1792690753936768,-0.21220819652080536,-0.6507397890090942,2.211348295211792,-0.5691671967506409,-0.16331003606319427,0.17252972722053528,-0.3179514408111572,-0.893882155418396,0.7762436866760254,0.7984721064567566,0.7532645463943481,0.920500636100769,0.6500994563102722,-0.8445008397102356,-0.43317025899887085,0.39580023288726807,0.9834784269332886,0.22128477692604065,-1.3221149444580078,-1.1196413040161133,0.01842823065817356,0.23350165784358978,0.6204599142074585,0.08294627815485,-0.28997066617012024,-0.1255715936422348,-1.2108904123306274,0.7478705644607544,-0.1986379325389862,-0.06818276643753052,2.6186959743499756,0.5611950755119324,-0.6261621713638306,0.6025855541229248,-0.039489660412073135,0.5787397623062134,1.6540412902832031,-1.082930564880371,0.21885111927986145,0.29754456877708435,-0.06254379451274872,-0.5329170823097229,0.5613558292388916,-0.40073174238204956,0.02249121479690075,-0.004483844619244337,0.1677546501159668,-1.5045982599258423,0.6671530604362488,0.4351896047592163,-0.8888902068138123,0.6528550982475281,-1.2721863985061646,-1.5648469924926758,0.5379981398582458,0.1750231385231018,0.8450667262077332,-0.5111889839172363,-1.3038243055343628,0.6087223291397095,-0.2868875563144684,0.8687909245491028,-0.09334171563386917,0.2221255749464035,0.38085100054740906,0.35358452796936035,1.20142662525177,1.0873960256576538,0.668979287147522,-0.40857625007629395,0.5392360091209412,1.1434496641159058,-0.10188811272382736,0.5240236520767212,1.5751105546951294,-0.45612606406211853,0.8552294969558716,-1.093645691871643,-0.8647093176841736,-0.12698571383953094,0.9527061581611633,1.1556870937347412,0.2177353799343109,-0.6538939476013184,0.11398456245660782,0.5294015407562256,-0.0523579902946949,-0.21431617438793182,0.9102969765663147,0.39691323041915894,-0.28084394335746765,0.4282001256942749,-1.415021300315857,-0.09999120980501175,-0.6621584892272949,-0.8368358612060547,-2.480715036392212,-0.23347531259059906,0.50730299949646,-1.4782487154006958,-1.223733901977539,-0.8935741186141968,0.6103346347808838,0.02448643185198307,1.2751597166061401,0.8337797522544861,-0.8009461164474487,0.6467574238777161,1.3308438062667847,-1.0391759872436523,0.3780440092086792,0.006471483036875725,-0.6638385653495789,-0.0919468104839325,-0.34901103377342224,-0.9444431662559509,-0.3159230947494507,-1.780282974243164,-1.5075020790100098,-1.328506350517273,1.5770766735076904,-0.030663227662444115,0.131881982088089,0.08251668512821198,-0.5039375424385071,0.12741124629974365,0.7540315985679626,1.0592626333236694,-1.0110398530960083,-0.5057370066642761,0.24320365488529205,-0.6924402117729187,-0.28656071424484253,0.01567966677248478,0.41005221009254456,-0.34862643480300903,-0.5137898325920105,-0.21579881012439728,-0.003781053936108947,0.8299499154090881,1.0282171964645386,0.2550341486930847,-0.6557306051254272,-0.6748073697090149,-0.539215087890625,0.31253600120544434,0.7759799957275391,0.08620147407054901,-1.9046622514724731,0.45924684405326843,0.732120931148529,0.6568446159362793,-0.6898940801620483,-0.6122790575027466,-1.3027125597000122,-1.160300374031067,0.5954986214637756,-0.5315938591957092,-0.7698016166687012,-1.1926006078720093,-0.7367594838142395,-0.41473373770713806,-0.17913827300071716,0.39429962635040283,-0.350980669260025,-0.7612909078598022,-0.947483479976654,-1.1702674627304077,0.7625738382339478,0.7039449214935303,-0.20553910732269287,0.04330546408891678,-0.8506779670715332,0.022741002961993217,0.4175938069820404,0.21096287667751312,-0.5078008770942688,0.001732340082526207,-0.6075810194015503,-0.9549803733825684,0.47297319769859314,0.32649004459381104,-0.10092967003583908,0.47215721011161804,-0.9302383065223694,-0.2599906623363495,0.9618909955024719,0.3405996859073639,0.6879549026489258,0.2475053071975708,-0.7320510149002075,0.5873871445655823,-1.6175276041030884,0.7185168862342834,2.2031147480010986,0.09602219611406326,-0.781171441078186,0.4319169819355011,-0.6595786809921265,0.4134805500507355,-0.795674204826355,-0.6113179922103882,0.22282721102237701,-0.7808412313461304,-1.0874156951904297,0.6211336255073547,-0.7718816995620728,-1.2627856731414795,0.29052314162254333,1.327309012413025,0.5950896143913269,-1.1576142311096191,0.48330986499786377,-0.11410347372293472,-1.4372388124465942,0.03841160237789154,-0.5704294443130493,-0.055691540241241455,1.348065733909607,0.3477109670639038,-0.7922096848487854,0.32294636964797974,-0.28347063064575195,-0.23131120204925537,1.0539013147354126,-0.690129816532135,0.6763580441474915,0.9999794363975525,-0.8984774351119995,-0.3370780944824219,-1.0071717500686646,1.0891903638839722,1.0428285598754883,0.07369677722454071,0.6260608434677124,-0.6091558337211609,-0.883488118648529,-1.0259766578674316,-0.3993305265903473,-0.39064595103263855,0.017574260011315346,0.918420672416687,-0.32626545429229736,-0.4623527228832245,-0.28826943039894104,-0.6382185816764832,0.5502991080284119,1.1784392595291138,-0.8112428784370422,0.4363492429256439,-0.67954021692276,-1.5099588632583618,-0.8892124891281128,1.2163994312286377,-0.0926334336400032,1.3183730840682983,-1.5324629545211792,0.5130305886268616,0.18188165128231049,-0.6482794284820557,-0.178441122174263,-0.38694310188293457,-0.6249100565910339,0.049351923167705536,-0.2530202567577362,-0.671698272228241,-0.06027774140238762,0.5616554617881775,-0.11639197915792465,0.9573011994361877,0.3600338101387024,-0.8854131698608398,-0.09750492870807648,-0.012350409291684628,0.03278385102748871,-0.9115058183670044,-0.9848098158836365,-0.708431601524353,0.7268070578575134,-0.3333203196525574,-0.7778064012527466,0.8851537108421326,0.27342334389686584,-1.0787299871444702,-0.5678092837333679,1.8465900421142578,-0.5294952988624573,0.0024524666368961334,-0.4578210711479187,0.4125502407550812,0.8747707009315491,1.0030349493026733,-0.6196033954620361,0.21655580401420593,-0.5953152179718018,0.0058058639988303185,1.709381341934204,0.6792708039283752,-0.007039319258183241,-0.4778694808483124,1.2048300504684448,-1.6404062509536743,0.2835402488708496,1.65614914894104,0.4180423319339752,0.8139137625694275,0.11510859429836273,-1.3901182413101196,-0.05738915875554085,0.2893045246601105,-0.2697685956954956,-1.1045849323272705,-1.4173036813735962,-1.086512804031372,0.5673871040344238,0.7137092351913452,0.5420252084732056,-1.234651803970337,0.058642491698265076,-0.18746741116046906,-0.7538719177246094,-0.45783597230911255,0.08066444844007492,0.1035793125629425,1.3193154335021973,0.7624180316925049,-0.3014369308948517,-0.37145230174064636,-0.5441218018531799,-0.5937207341194153,0.8169299364089966,0.761506199836731,-0.9857625365257263,-1.05629563331604,1.1237783432006836,0.7302017211914062,-0.7855443358421326,0.3730395436286926,-0.37920692563056946,-0.03360232338309288,-0.8482275009155273,-0.006916938815265894,0.014543633908033371,0.525259792804718,0.9409450888633728,0.2688402831554413,0.8543451428413391,1.5253475904464722,-0.18189771473407745,-0.01670902408659458,-0.47892147302627563,0.6799961924552917,1.164680004119873,0.771026611328125,0.2127755880355835,-0.7513620853424072,-0.3103503882884979,-1.0954945087432861,-0.057859547436237335,-0.5151307582855225,0.23597611486911774,-0.830641508102417,0.7673250436782837,0.8087767958641052,0.04348558560013771,-1.2734819650650024,1.8041701316833496,-0.30572596192359924,0.02050592191517353,0.6962072253227234,-0.11316127330064774,1.3197238445281982,1.7512598037719727,-1.3877451419830322,-0.4096832275390625,-0.008157569915056229,-0.1977410763502121,0.5459790229797363,0.05281335860490799,0.14454080164432526,-0.12331917136907578,0.18497416377067566,0.478310763835907,0.7648895978927612,-1.0801204442977905,-0.7081027030944824,0.9762989282608032,-0.11184702813625336,-0.3104105293750763,2.027806282043457,-0.6130690574645996,-1.3266419172286987,0.7133893370628357,0.7527293562889099,-0.16649460792541504,-0.2508465051651001,-0.7239018678665161,-1.6931226253509521,0.1610836237668991,2.3527228832244873,0.5844472050666809,0.543327271938324,0.22473455965518951,0.14042773842811584,-0.9707255363464355,-0.9706594347953796,-0.26335421204566956,-0.16910353302955627,-0.08380471169948578,0.7343229651451111,-0.08549502491950989,-0.5627055764198303,-1.5925567150115967,-0.07757055014371872,0.3506157696247101,0.10242842137813568,0.09986339509487152,-1.3915399312973022,1.9279570579528809,0.4042276442050934,-0.68412846326828,-0.9858683943748474,0.21314607560634613,-0.2786950469017029,-0.9699087142944336,0.3111293613910675,0.4162156581878662,-0.539955735206604,1.424456238746643,0.6150596737861633,0.672566294670105,1.8292996883392334,-0.49712061882019043,0.39445456862449646,0.6788304448127747,1.260788917541504,-0.20666365325450897,0.6123068928718567,0.33822572231292725,-1.7701712846755981,-1.5999566316604614,-0.8833218216896057,1.199668526649475,-0.6086238622665405,0.2922416031360626,0.6831358671188354,0.4592381417751312,0.4353635311126709,0.45775628089904785,-1.3129655122756958,-0.5081210732460022,1.4148304462432861,-0.621636688709259,0.6437250375747681,0.333809494972229,-0.050480689853429794,0.31454998254776,-0.39076024293899536,1.1869806051254272,-0.00031925682560540736,-0.46545442938804626,0.40059322118759155,-1.862151861190796,-0.4949914813041687,1.1112195253372192,-1.9268968105316162,0.6962206959724426,0.09324564039707184,0.6709207892417908,-0.9696493148803711,-0.8658825755119324,1.099283218383789,1.0626507997512817,-0.42015743255615234,-0.04848223924636841,0.05871426686644554,-1.7532832622528076,-0.13446061313152313,-0.7975530028343201,-1.0009108781814575,0.6334061622619629,0.6564088463783264,0.49862968921661377,-0.7765220403671265,1.2823126316070557,-1.8517727851867676,-0.06663262844085693,-0.02923756092786789,0.2336380034685135,3.784616231918335,2.309030771255493,0.3490540683269501,-0.713797926902771,0.24883008003234863,-0.4144832193851471,-0.0809708833694458,1.9092693328857422,-1.158993124961853,0.7666915655136108,-0.33724361658096313,0.3104509115219116,-0.17760145664215088,1.4748302698135376,1.1551653146743774,1.2152655124664307,-1.0033742189407349,0.05260467156767845,0.04824482277035713,1.0097908973693848,-0.41738033294677734,-0.04595193266868591,1.5231566429138184,-0.06932584196329117,-0.9523341655731201,-0.023257944732904434,0.05540836602449417,-0.7119682431221008,0.4097120463848114,1.235455870628357,-0.8556099534034729,0.9081194996833801,-0.7303926348686218,1.5711849927902222,-0.5554801821708679,-0.9600927233695984,0.4168171286582947,0.3275004029273987,0.10303665697574615,-0.679834246635437,-0.73377525806427,1.2302144765853882,0.03593498468399048,0.9877684712409973,-1.5484474897384644,-1.2736834287643433,0.26500317454338074,0.698663055896759,-0.03387647494673729,-0.00939369760453701,0.0017265931237488985,0.0022475039586424828,-0.00504167890176177,-0.016346776857972145,0.1848917007446289,-0.2983398735523224,-0.6699226498603821,0.5079678893089294,-1.0026272535324097,0.6794806718826294,0.27953699231147766,-0.4803411364555359,0.7725169658660889,0.29959046840667725,-0.8147956132888794,-0.3780692517757416,0.644842267036438,-0.8896533846855164,0.19990229606628418,0.08300750702619553,-0.5819718837738037,-0.4471656382083893,1.4776287078857422,0.5068037509918213,0.4395485818386078,-0.4056647717952728,-1.8544584512710571,-0.2736947238445282,0.9204186797142029,-0.2045019418001175,-0.4461240768432617,-0.344265341758728,-0.6393146514892578,-0.9669718146324158,-0.435985267162323,-0.3168759346008301,1.3030238151550293,0.11019610613584518,0.6235103607177734,-0.250433087348938,2.14383602142334,0.27785351872444153,0.2939465343952179,-0.34132668375968933,-0.13689617812633514,1.724935531616211,-0.26131442189216614,-1.7114309072494507,0.679628849029541,-0.8207358717918396,0.4555666744709015,0.8186621069908142,0.8135898113250732,-0.025848377496004105,0.5740245580673218,-0.4871176481246948,-0.13689255714416504,-0.32136356830596924,-0.019937334582209587,1.4101864099502563,-0.9550565481185913,0.05116947367787361,-0.09972617775201797,0.34465599060058594,-0.7329022288322449,-0.11698968708515167,-0.6831318736076355,0.45392924547195435,0.39947324991226196,1.0336462259292603,1.6580907106399536,0.865333080291748,-1.3635648488998413,0.19906069338321686,-0.5810301899909973,-0.4497300088405609,-1.135555624961853,-1.1735773086547852,0.33561211824417114,0.48841625452041626,-0.2683155834674835,0.2534602880477905,0.34848031401634216,-0.6609061360359192,0.3306882083415985,0.5979454517364502,-0.14027553796768188,0.022144632413983345,-2.365257978439331,0.8463059663772583,-0.483580082654953,0.44016456604003906,0.5154777765274048,-0.5721352696418762,-0.3704277276992798,-0.9333261251449585,0.9633315205574036,0.5016781091690063,-0.03901910036802292,1.1127957105636597,-0.2143712043762207,-0.45212167501449585,0.5477738380432129,-1.692650556564331,-0.6730160713195801,1.0916475057601929,-0.801275372505188,-0.11054471135139465,0.8519701957702637,0.10970025509595871,-0.9185925722122192,-0.6182750463485718,1.3460338115692139,-0.3944825232028961,0.40596437454223633,-0.10169155895709991,-1.0587775707244873,0.6775984168052673,0.10480133444070816,0.8656035661697388,-0.9452447295188904,0.4706304371356964,-0.6470162272453308,-0.6222136616706848,-0.7901191711425781,-0.33028295636177063,-0.25117027759552,0.8540515899658203,-0.3053613603115082,-0.7959425449371338,-0.002763354917988181,-1.0729378461837769,-0.047244638204574585,0.37188059091567993,-0.4853077530860901,0.37803399562835693,-1.6271594762802124,-1.6633868217468262,1.1475021839141846,-0.31882521510124207,-0.44959062337875366,0.07705706357955933,0.644895613193512,0.04541326314210892,0.5617966055870056,1.2590991258621216,-0.8078916668891907,-0.39184626936912537,1.0327218770980835,-0.7181154489517212,0.28635692596435547,-0.28335312008857727,-0.4785120487213135,0.49669575691223145,0.02336955815553665,-1.1162919998168945,0.4561117887496948,-1.1086158752441406,-0.4756787121295929,-0.22465839982032776,0.9389820694923401,0.2707401216030121,0.3192485272884369,0.8474724292755127,1.3021436929702759,-1.9015610218048096,0.3693183958530426,0.2613071799278259,-0.321257621049881,0.42393678426742554,0.0070572905242443085,0.005997857544571161,0.6840320229530334,-0.42579057812690735,-1.2410732507705688,-0.2719890773296356,1.3434423208236694,-1.5708619356155396,0.1704564392566681,-0.5800698399543762,0.4631052017211914,0.5827159285545349,-0.14183709025382996,-0.6730440258979797,-0.12398769706487656,-0.8371074199676514,-0.5096369981765747,0.5819113254547119,1.3319554328918457,-0.4202805459499359,0.36444810032844543,-1.380674958229065,-0.09916146099567413,-0.007577958516776562,0.4097210168838501,0.21784129738807678,-0.7304460406303406,-1.1626230478286743,0.570929765701294,-0.1696578413248062,0.49694690108299255,1.1458559036254883,0.47913163900375366,-0.5432639122009277,1.322960376739502,-0.28937292098999023,0.518348217010498,-0.14837650954723358,-0.05192303657531738,0.3872392773628235,-0.6868792176246643,-1.2593852281570435,-1.1550325155258179,1.2602320909500122,0.48128247261047363,1.281888723373413,0.884779691696167,0.07196804136037827,-0.03848783299326897,0.23583954572677612,-0.24645251035690308,0.8804730176925659,-1.7989771366119385,1.2894830703735352,0.024732723832130432,-0.024875378236174583,-0.019902309402823448,-0.012565483339130878,0.22892750799655914,-0.9796546697616577,1.4027053117752075,-0.021820899099111557,0.09693078696727753,0.029044819995760918,-0.8435404300689697,1.1455867290496826,-0.7374485731124878,1.5688036680221558,-0.8862931132316589,0.1315266489982605,0.10900181531906128,0.8579584360122681,1.2143287658691406,1.1462005376815796,-0.084797203540802,1.459516167640686,-0.9151530265808105,-1.2930636405944824,0.488946795463562,0.9575715065002441,-0.5634778738021851,0.0007672749343328178,-0.6566997170448303,-1.525856852531433,-0.5101764798164368,1.4096769094467163,1.9947527647018433,0.3224397599697113,-0.4968075752258301,-0.6309288740158081,-0.1632828712463379,0.24202567338943481,-0.09528525173664093,0.1294613480567932,0.0912894681096077,0.26797622442245483,0.07676444947719574,-0.0896676555275917,0.04059087485074997,0.29402387142181396,-0.11881166696548462,-1.2202253341674805,0.07708172500133514,0.4178636968135834,0.04136784374713898,-1.6737897396087646,-1.0974808931350708,1.448317050933838,0.6556919813156128,0.5401421189308167,-1.3312890529632568,0.5363829135894775,0.0010137512581422925,1.3327443599700928,-0.35563138127326965,-0.031208965927362442,0.4448028802871704,0.7314193844795227,-0.26554036140441895,0.03701624274253845,0.8115951418876648,1.8121988773345947,-0.4268161654472351,0.7275213003158569,-1.6377564668655396,0.03677551820874214,1.4976638555526733,0.9887898564338684,-1.179938793182373,-0.3698374927043915,0.061569131910800934,-0.38167449831962585,-0.5644460320472717,0.7930095791816711,0.4671568274497986,-0.22242626547813416,0.32310250401496887,-1.3153800964355469,-0.4413662552833557,0.7989335656166077,0.6989535689353943,1.7894593477249146,0.8310962319374084,-0.3502455949783325,0.06574790924787521,-1.0324331521987915,0.8432146906852722,0.9692822694778442,1.4190068244934082,0.09612426906824112,-0.3923950791358948,-1.3802988529205322,-0.044300276786088943,0.9029940366744995,-1.0758907794952393,-0.5799587965011597,0.0554952435195446,-1.3193659782409668,0.11097642034292221,-0.2909206449985504,-0.19052813947200775,0.6845393776893616,-0.1830461472272873,-0.6565316319465637,0.9262653589248657,-0.2971542477607727,0.46456179022789,0.26958590745925903,1.2460062503814697,-0.24269890785217285,-0.6682700514793396,-0.5077639818191528,0.4658171534538269,0.20444193482398987,-0.7064169645309448,-0.027626192197203636,-0.9092301726341248,-0.7368542551994324,-0.27758172154426575,1.120542287826538,0.12535637617111206,0.8903710246086121,-0.22212104499340057,0.008701154962182045,-0.3788800835609436,-0.07151858508586884,1.1375319957733154,-2.0219929218292236,1.4477745294570923,-0.29063746333122253,-0.37969526648521423,1.2946478128433228,-0.8622998595237732,-0.2635933756828308,-1.1484217643737793,-0.1400180459022522,-0.5979461669921875,-0.954244077205658,0.3267299234867096,1.2690273523330688,1.2104904651641846,0.5086425542831421,-0.4019745886325836,-0.1764037162065506,0.5490641593933105,-1.0404231548309326,0.9818611741065979,1.340224027633667,-0.7279607057571411,-0.2240777164697647,0.1779436320066452,0.3975794017314911,0.8721609711647034,-0.5316851139068604,-0.20916305482387543,-0.48370394110679626,-0.4747979938983917,0.4069421589374542,-0.4136318862438202,-0.08345754444599152,0.5105567574501038,0.5502679944038391,-0.49286141991615295,-0.13864701986312866,0.3631189167499542,0.8925134539604187,-0.7628435492515564,0.43862828612327576,0.19833126664161682,-0.21821331977844238,0.7604400515556335,-0.37835147976875305,-0.5686240792274475,0.1291758269071579,0.3663749396800995,0.020896868780255318,-0.9998649954795837,0.25317269563674927,-0.5856243968009949,0.1595786213874817,0.7533297538757324,0.9537292718887329,0.5498021245002747,0.2930509150028229,0.5085402131080627,0.10154680907726288,0.6056382060050964,0.08127617835998535,0.27875015139579773,0.6324581503868103,0.04860274866223335,-0.06652317941188812,-0.3180338442325592,-0.5131139159202576,-0.10478951036930084,0.09299175441265106,-0.11506737023591995,-0.5110532641410828,1.9353976249694824,-0.63471519947052,-0.2717844545841217,-1.0562669038772583,1.2970457077026367,-1.208243727684021,-0.3934462368488312,0.5940538048744202,0.1399151086807251,-0.054579734802246094,0.4121205806732178,-0.7693201899528503,0.24811141192913055,1.3988276720046997,-0.7559601664543152,-0.6829855442047119,0.15694081783294678,-0.8059783577919006,-0.7912757396697998,0.4723730683326721,1.4427553415298462,-0.9722328782081604,1.1118311882019043,0.9247007966041565,-0.6120820045471191,-0.6279239058494568,-0.5131615996360779,-0.8048989176750183,0.2616402506828308,0.5102384686470032,-0.1018313318490982,-0.34779343008995056,-1.2681728601455688,-1.7269686460494995,-0.8037978410720825,0.3461187183856964,-0.23674868047237396,-0.5123311877250671,-0.48115548491477966,0.5235325694084167,-0.2742135226726532,1.4750539064407349,-0.566352367401123,0.49992892146110535,-0.307561457157135,-0.7397376894950867,-0.6198649406433105,1.404291033744812,-0.4320290684700012,1.6135406494140625,0.6343792676925659,-1.7739146947860718,0.6209784746170044,0.3247237205505371,-0.8016638159751892,-0.38248708844184875,0.4396992027759552,-0.09766286611557007,0.22267618775367737,0.04649854078888893,-0.7559779286384583,0.08814778923988342,-0.9779146313667297,0.30487486720085144,0.30563241243362427,0.8307580351829529,0.13313010334968567,0.9833618998527527,0.19972512125968933,0.9066405892372131,-0.736355185508728,0.5289144515991211,0.6075722575187683,0.17287485301494598,0.3878116309642792,0.45201975107192993,-0.6228551268577576,1.0925359725952148,1.5560071468353271,-0.795896589756012,-0.8417201042175293,0.5964984893798828,1.7116822004318237,0.014063949696719646,0.3286934196949005,-0.4001818895339966,1.5862642526626587,-1.0178996324539185,-1.5159101486206055,0.8149009943008423,-0.2347884327173233,0.8583835363388062,0.3373396098613739,-0.023844370618462563,-0.09915672987699509,1.0746222734451294,0.03551149740815163,0.2620757520198822,-0.1330937296152115,2.465264081954956,0.2577006220817566,-0.761675238609314,-0.7583154439926147,-0.15799717605113983,0.43840980529785156,0.29015251994132996,-0.27735069394111633,1.1082955598831177,0.5008970499038696,0.13031090795993805,-0.3991265892982483,0.17411136627197266,-1.1511836051940918,-0.5774363279342651,-0.3625067174434662,-0.2985910475254059,-0.07397052645683289,0.2530072331428528,0.6998980641365051,-0.6441260576248169,-0.9088707566261292,1.779700517654419,1.2141259908676147,1.2406219244003296,-0.6687977910041809,0.19514238834381104,1.5016676187515259,-1.9087674617767334,0.5145009756088257,0.15393732488155365,-0.08697029948234558,-0.8759489059448242,0.22400574386119843,-1.0983707904815674,-0.6548341512680054,-0.448219895362854,-1.5096468925476074,-0.5542420148849487,0.10931140929460526,0.8086376190185547,-0.3501458466053009,-0.8789396286010742,0.5066543221473694,-0.22600460052490234,0.45312657952308655,2.222151517868042,-0.06265875697135925,-0.2972058355808258,-0.05805539712309837,0.34125056862831116,0.10333149880170822,0.8111163973808289,1.0006760358810425,0.053780797868967056,0.6856898069381714,-2.6329567432403564,-1.0911221504211426,0.08953744918107986,-0.681976318359375,-0.6019593477249146,-0.3914196193218231,-1.0254886150360107,0.3640403151512146,-0.22802768647670746,0.4815344214439392,-1.3257454633712769,-1.0347074270248413,0.297149658203125,0.7429989576339722,-0.9043939113616943,-0.5063105225563049,0.3205854594707489,1.6644196510314941,-0.8211195468902588,-1.3027923107147217,-1.8966808319091797,0.6160629987716675,-0.05053401365876198,0.7090899348258972,0.8903863430023193,-0.5097237825393677,0.2938475012779236,-0.372501015663147,-1.6347318887710571,0.10039298981428146,-1.0118674039840698,0.0005920170806348324,-0.23370446264743805,0.17121373116970062,-0.8144859671592712,0.7216907143592834,0.01881399005651474,-1.0823878049850464,-1.9525158405303955,0.2091798037290573,-1.089816689491272,1.0593814849853516,0.09017663449048996,0.11491215229034424,-0.6298440098762512,-0.21672464907169342,0.7961705923080444,-0.9265429377555847,-0.22095833718776703,0.7417524456977844,1.217239499092102,-0.4216337203979492,-0.6302120685577393,2.065115213394165,-0.12132927775382996,-0.301052987575531,0.5050786733627319,0.01147126592695713,-0.19377489387989044,-0.10431747138500214,-0.34937724471092224,0.025556305423378944,1.2743068933486938,0.7190915942192078,1.216737151145935,-0.09815023094415665,-0.22001509368419647,-0.4230901300907135,-0.8981659412384033,1.178537130355835,0.8902347683906555,0.009621529839932919,-0.03691686689853668,-1.7620078325271606,-0.07933186739683151,-0.43914881348609924,1.4614756107330322,-2.2599730491638184,-0.508159339427948,0.7675114870071411,-0.17625470459461212,1.794754147529602,1.6492732763290405,-0.9850436449050903,-0.1876915544271469,0.760263204574585,0.1225123256444931,0.8459512591362,-0.11197802424430847,0.3825206458568573,0.39887502789497375,-1.8033651113510132,0.7965119481086731,-0.5274072885513306,0.9353298544883728,-0.34997013211250305,0.09695183485746384,0.026748361065983772,-0.9579391479492188,-0.6060526967048645,0.20138180255889893,0.9625608325004578,-1.1512192487716675,0.18962328135967255,-0.13998526334762573,-0.17981433868408203,-0.6907604336738586,-0.32990562915802,-0.5518442988395691,-0.8726974725723267,0.3917293846607208,-0.12432241439819336,0.20737093687057495,0.7046761512756348,-0.17224280536174774,0.6360397934913635,-0.23367886245250702,-0.016780296340584755,-0.30219122767448425,-0.10998675972223282,-0.2574382424354553,-0.28444960713386536,0.30683133006095886,0.4591369032859802,-0.541114091873169,0.5484345555305481,-0.21980644762516022,0.8892911672592163,0.1000731810927391,-0.838070273399353,-0.18374930322170258,0.5271537899971008,-0.08095931261777878,0.013751818798482418,-0.2517617642879486,1.5116511583328247,-0.4477333724498749,-0.5919287204742432,0.06092757731676102,0.4815937578678131,0.2409677356481552,0.7435973286628723,0.21846425533294678,-0.804799497127533,0.9733066558837891,0.4301886260509491,-2.160519599914551,-0.3099380135536194,-0.7472302317619324,-1.4514381885528564,0.38118869066238403,-0.03260796144604683,-0.5386148691177368,-0.37104490399360657,0.4992932975292206,-1.0909415483474731,0.8216986060142517,2.1032874584198,1.1105198860168457,-0.3626910448074341,-0.6202260851860046,0.33898791670799255,0.12379539757966995,-0.16037297248840332,0.19812160730361938,-0.6001732349395752,0.3813343942165375,1.6170153617858887,-0.4886583983898163,-1.7378231287002563,0.6218665242195129,-0.20229311287403107,1.0898810625076294,0.045499879866838455,-0.7980916500091553,0.5502570867538452,-0.20022612810134888,-0.6828210353851318,0.3831546902656555,-0.18054427206516266,-0.65230393409729,-0.11295917630195618,0.8454940319061279,-0.07143007963895798,-1.6608034372329712,1.0078907012939453,-0.7959131598472595,0.5161908268928528,0.5289734601974487,0.2255527526140213,0.8310495018959045,0.2531196177005768,0.788593590259552,-0.281401664018631,-0.09634125232696533,1.0368635654449463,0.8096328973770142,0.4749399423599243,0.24293096363544464,-0.5930240750312805,-0.6230155825614929,0.8254194855690002,-0.3363404870033264,-0.6118894219398499,-0.8312873840332031,-0.7722952365875244,-0.05047028511762619,-0.17806531488895416,-0.20425814390182495,0.1540464162826538,1.4714964628219604,-1.0119423866271973,-1.997049331665039,2.3013534545898438,0.34639042615890503,1.6631263494491577,0.27565768361091614,-1.3201427459716797,0.7679648995399475,0.3824513852596283,-0.7066634893417358,0.08403272926807404,0.13777530193328857,0.9406300783157349,-0.13876193761825562,-0.17779843509197235,0.8555839657783508,-0.5738140940666199,-0.37186765670776367,0.6962368488311768,-0.34278473258018494,-0.8947378993034363,-0.9833616614341736,-1.018176555633545,0.019584260880947113,1.3197888135910034,-0.031445249915122986,-0.025145141407847404,0.017310304567217827,0.4026995599269867,-0.23698613047599792,-1.0335654020309448,0.8366065621376038,0.7497734427452087,-0.9003696441650391,0.14093244075775146,0.09368054568767548,0.5111908912658691,-0.3147479295730591,0.896620512008667,-0.2346026599407196,-0.2139487862586975,-0.37068119645118713,-1.1113437414169312,0.9637671709060669,0.6554246544837952,-0.8924321532249451,-0.15898029506206512,-0.7656878232955933,0.5167715549468994,-0.2629328668117523,-0.38898634910583496,-1.1108126640319824,-0.6790686249732971,0.2302006185054779,0.9253218173980713,0.20534172654151917,0.8034005165100098,0.3186980187892914,0.19795310497283936,-0.7502814531326294,0.7418442368507385,-0.9055702090263367,-0.8316041231155396,0.7481447458267212,-2.3003814220428467,0.09962443262338638,0.5984731912612915,0.1822885274887085,0.3572746515274048,0.3331242501735687,-0.2578485310077667,0.5992583632469177,0.9306036233901978,1.2241636514663696,0.010265262797474861,-2.0318422317504883,0.2570619583129883,0.3117302656173706,-0.18687373399734497,1.408724308013916,-0.2330547571182251,-1.1917359828948975,-0.44436514377593994,0.19130103290081024,-1.1595722436904907,-0.37817928194999695,0.10968929529190063,0.8490515947341919,1.192737102508545,0.8248804807662964,0.8778837323188782,0.7977674603462219,1.1136748790740967,-0.5341666340827942,0.0065961661748588085,0.0746338739991188,1.1533024311065674,-0.0737261101603508,0.8048803210258484,0.4449431896209717,0.33563748002052307,-0.5643602013587952,0.3918572962284088,0.004349496681243181,-1.1924540996551514,0.38181185722351074,-0.22935627400875092,-0.5444546341896057,-0.6266769170761108,0.7467876076698303,-0.5210852026939392,0.13835953176021576,-0.7111318111419678,0.08201035857200623,-0.6980987191200256,1.0989845991134644,0.7128439545631409,0.0016167261637747288,-0.05944734811782837,-0.779740035533905,-0.5189849138259888,-0.6500344276428223,-0.7736625671386719,-1.320661187171936,0.7498292326927185,0.379170298576355,-1.5866419076919556,0.8585578203201294,-0.42231452465057373,-1.381818175315857,-0.044550955295562744,-0.19985148310661316,0.8885267972946167,-1.8698971271514893,-1.7694419622421265,0.6344371438026428,1.2146872282028198,0.3508146107196808,-1.5024337768554688,-0.7348155379295349,0.05525573343038559,-2.4804980754852295,0.052854690700769424,-0.31546127796173096,0.6844105124473572,1.4828704595565796,-0.2566152811050415,-0.5838586091995239,1.1530240774154663,0.912714958190918,-0.19995781779289246,0.2305305302143097,0.09808649122714996,0.9884392023086548,1.829978346824646,-0.8360323309898376,-0.1118314191699028,-2.0568313598632812,0.06172742322087288,0.1333545744419098,0.42072364687919617,0.2564842104911804,-1.2450141906738281,-0.9051225185394287,-0.837028443813324,0.46874141693115234,-1.2817535400390625,0.01102876290678978,0.9719426035881042,-0.380075067281723,0.2575720250606537,0.5737726092338562,0.5693523287773132,-0.15932101011276245,-1.0465728044509888,1.5324428081512451,0.5838983058929443,0.1501791775226593,0.903247594833374,0.7748309969902039,-0.3214528560638428,0.2902574837207794,-0.45802041888237,0.8150330781936646,-1.0610617399215698,0.5313521027565002,0.16250702738761902,-0.8657021522521973,-0.3106730282306671,-0.4242227375507355,-0.6838863492012024,0.6387307047843933,0.051855236291885376,-0.725774347782135,-1.1872271299362183,-0.22682633996009827,-1.1225310564041138,0.1306813508272171,0.6504105925559998,0.5587833523750305,-0.8042858839035034,0.71601802110672,0.1415385603904724,0.6066225171089172,0.6310451030731201,1.3100191354751587,0.44808828830718994,1.8023879528045654,-0.07245208323001862,-0.6584526300430298,-0.48717543482780457,0.9658953547477722,-0.3170377016067505,1.2752423286437988,-0.25480329990386963,-1.2513501644134521,0.2770303189754486,0.5041390061378479,-0.7437013387680054,1.0916513204574585,0.3108726143836975,-1.9441606998443604,-0.097565196454525,0.09984392672777176,0.06412605941295624,-0.2046378254890442,0.5776740908622742,-1.0292060375213623,-1.299609661102295,0.8802117109298706,0.7702187299728394,1.7282825708389282,1.1143122911453247,-0.03540021926164627,-0.3621295690536499,-0.17285916209220886,1.1248297691345215,0.3042219281196594,0.5948330163955688,-0.5631542801856995,-1.0335601568222046,-0.005135652609169483,0.5167739987373352,0.9886119961738586,-0.1584673821926117,-0.035018276423215866,1.1733556985855103,-1.302911400794983,0.558685839176178,0.4088203012943268,-1.0976247787475586,0.6235477328300476,0.1418672353029251,0.6543746590614319,-0.13232576847076416,-0.35100701451301575,0.7668166756629944,0.6728073954582214,0.45738375186920166,0.06096424534916878,-0.9392086863517761,0.49241745471954346,-0.5384621620178223,-0.6074286103248596,-0.8191344738006592,0.8658552765846252,-1.3857779502868652,-1.6803901195526123,1.0230984687805176,-0.1689799427986145,-1.6870137453079224,0.9932104349136353,1.2993768453598022,0.3591451048851013,-0.3556840419769287,1.442658543586731,-0.559076726436615,-0.48855337500572205,1.0338311195373535,-0.7049333453178406,1.508111834526062,-1.2393760681152344,1.4841108322143555,-0.42402321100234985,0.12105322629213333,0.3367202877998352,0.38423794507980347,-1.317567229270935,-0.40963295102119446,-0.6259471774101257,0.4012860655784607,0.2539960741996765,0.12636061012744904,0.8876091837882996,0.3795143663883209,-1.1621793508529663,0.2636220157146454,1.1773862838745117,0.008955735713243484,0.8221572637557983,-0.47376954555511475,1.2189881801605225,0.28480154275894165,0.28195318579673767,1.7731209993362427,-0.49454984068870544,-1.405206322669983,-0.43354156613349915,-0.7903015613555908,1.1330400705337524,-0.11486619710922241,0.0860544815659523,-0.08553022146224976,0.5726630687713623,-0.3016000986099243,0.8748317360877991,0.5834518074989319,-0.5903550982475281,0.07857663184404373,0.1325278878211975,0.023228032514452934,1.4346647262573242,-0.16322468221187592,-0.25794517993927,0.25292348861694336,0.25334039330482483,-1.0379341840744019,1.766331672668457,-0.1486813724040985,0.3160587251186371,0.7549117207527161,0.004475649446249008,