{"type":"LSTM","options":{"inputSize":16,"inputRange":16,"hiddenLayers":[42,56],"outputSize":16,"decayRate":0.999,"smoothEps":1e-8,"regc":0.000001,"clipval":5,"maxPredictionLength":1,"dataFormatter":{"indexTable":{"1":8,"2":5,"3":11,"4":12,"5":2,"6":10,"7":4,"8":9,"9":6,"X":0,"":1,"O":3,"/":7,"stop-input":13,"start-output":14,"unrecognized":15},"characterTable":{"0":"X","1":"","2":"5","3":"O","4":"7","5":"2","6":"9","7":"/","8":"1","9":"8","10":"6","11":"3","12":"4","13":null,"14":null,"15":null},"values":[{"input":["X","","","","","","","",""],"output":"5"},{"input":["X","","","X","O","","","",""],"output":"7"},{"input":["X","","X","X","O","","O","",""],"output":"2"},{"input":["X","O","X","X","O","","O","X",""],"output":"9"},{"input":["X","O","X","X","O","X","O","X","O"],"output":"/"},{"input":["","X","","","","","","",""],"output":"1"},{"input":["O","X","","","X","","","",""],"output":"8"},{"input":["O","X","","X","X","","","O",""],"output":"6"},{"input":["O","X","","X","X","O","X","O",""],"output":"3"},{"input":["O","X","O","X","X","O","X","O","X"],"output":"/"},{"input":["","","X","","","","","",""],"output":"5"},{"input":["X","","X","","O","","","",""],"output":"2"},{"input":["X","O","X","","O","","","X",""],"output":"9"},{"input":["X","O","X","","O","","X","X","O"],"output":"6"},{"input":["X","O","X","O","O","X","X","X","O"],"output":"/"},{"input":["","","","X","","","","",""],"output":"3"},{"input":["","","O","X","X","","","",""],"output":"6"},{"input":["","","O","X","X","O","","","X"],"output":"1"},{"input":["O","","O","X","X","O","X","","X"],"output":"2"},{"input":["","","","","X","","","",""],"output":"2"},{"input":["","O","","","X","","X","",""],"output":"3"},{"input":["X","O","O","","X","","X","",""],"output":"4"},{"input":["X","O","O","","X","","X","","X"],"output":"/"},{"input":["","","","","","X","","",""],"output":"2"},{"input":["","O","","","X","X","","",""],"output":"4"},{"input":["","O","","O","X","X","X","",""],"output":"3"},{"input":["","O","O","O","X","X","X","","X"],"output":"1"},{"input":["","","","","","","X","",""],"output":"8"},{"input":["","","","","X","","X","O",""],"output":"3"},{"input":["","","O","","X","","X","O","X"],"output":"1"},{"input":["O","X","O","","X","","X","O","X"],"output":"6"},{"input":["O","X","O","O","X","X","X","O","X"],"output":"/"},{"input":["","","","","","","","X",""],"output":"4"},{"input":["","","","O","X","","","X",""],"output":"2"},{"input":["","O","","O","X","","","X","X"],"output":"7"},{"input":["X","O","","O","X","","O","X","X"],"output":"/"},{"input":["","","","","","","","","X"],"output":"5"},{"input":["","","","","O","","X","","X"],"output":"8"},{"input":["","X","","","O","","X","O","X"],"output":"1"},{"input":["O","X","X","","O","","X","O","X"],"output":"6"},{"input":["O","X","X","X","O","O","X","O","X"],"output":"/"}],"characters":["X","","5","O","7","2","9","/","1","8","6","3","4","stop-input","start-output","unrecognized"],"specialIndexes":[13,14,15]},"workers":-1},"trainOpts":{"iterations":100,"errorThresh":0.005,"log":true,"logPeriod":10,"learningRate":0.01,"callbackPeriod":10,"timeout":"Infinity"},"input":{"rows":17,"columns":16,"weights":[0.3892928957939148,0.16975532472133636,-0.12247661501169205,-0.8147518038749695,0.17051023244857788,-1.5461101531982422,-0.6290184855461121,-0.806004524230957,-0.9412854313850403,-0.928899347782135,0.4823102355003357,-0.29961127042770386,1.1620982885360718,-0.6021680235862732,1.0014607906341553,-0.5690959692001343,0.41726911067962646,-0.17904609441757202,-0.19816167652606964,-0.20728731155395508,0.15459972620010376,-0.023047633469104767,-0.39729753136634827,-0.2766834795475006,-0.5588339567184448,-0.29869163036346436,0.33439701795578003,0.12626196444034576,0.44234657287597656,-0.595123827457428,-0.08410242199897766,-0.6290756464004517,0.6265408396720886,1.1543165445327759,0.8522186279296875,-2.4089581966400146,1.7411556243896484,-0.9177665710449219,-1.0048795938491821,-1.0470542907714844,0.39803171157836914,-2.6327664852142334,1.5505285263061523,-0.4384883642196655,0.1250678151845932,0.26324155926704407,-0.9000999331474304,-0.12994833290576935,1.0679110288619995,4.559101581573486,-1.0528271198272705,-1.9267604351043701,0.47805067896842957,-2.965120553970337,-1.9712846279144287,0.6571537852287292,-0.7289727926254272,-0.6909909248352051,-1.5733487606048584,1.9231210947036743,0.2272985428571701,-0.9811650514602661,2.002060890197754,-0.7032812833786011,0.6137751340866089,-0.7617505192756653,-2.0436997413635254,-0.5700549483299255,1.682896614074707,0.1664348542690277,-1.2282049655914307,0.17559431493282318,-1.2643609046936035,-1.357588768005371,1.6982934474945068,2.8685545921325684,0.6336982846260071,-1.9537348747253418,1.953680157661438,-0.5690517425537109,-1.967238187789917,1.4305081367492676,-0.5475279092788696,-0.16477809846401215,2.3286705017089844,1.592260718345642,-0.8860958218574524,1.1071914434432983,1.5864204168319702,0.5121427774429321,-0.4769839942455292,3.781383752822876,-1.6008700132369995,1.1985528469085693,3.046884059906006,1.6191627979278564,-2.320317506790161,2.0827462673187256,-0.8511855602264404,-1.4729238748550415,0.09863352030515671,0.15199699997901917,2.0655479431152344,2.6825737953186035,2.1836342811584473,0.2138463407754898,-2.6483917236328125,2.251638412475586,0.635469913482666,1.8230668306350708,-1.4584360122680664,2.3851583003997803,0.3903094232082367,-1.3210740089416504,1.8144174814224243,-0.9009016752243042,1.3689461946487427,1.3083908557891846,-1.4590356349945068,-1.2800710201263428,-1.3219106197357178,-1.3765684366226196,1.4387348890304565,-1.519024133682251,1.1539711952209473,-1.3714699745178223,-1.5557645559310913,-1.197670817375183,-1.1316227912902832,0.9532324075698853,0.9561373591423035,0.7592191696166992,-0.7847470045089722,-0.8814783692359924,0.6748861074447632,0.8329402804374695,0.8275545835494995,0.8495327830314636,-0.8806635737419128,-0.7831785082817078,-0.8062955737113953,0.9029611945152283,-0.2563686966896057,0.9947803020477295,0.6163536310195923,1.8829940557479858,-1.8993366956710815,-0.5345931053161621,1.0746179819107056,-1.9219404458999634,-3.2996327877044678,-0.31427714228630066,-0.21210260689258575,-3.4680373668670654,0.7205752730369568,2.658566951751709,-0.08019095659255981,-1.9402934312820435,2.690194606781006,-0.040869977325201035,1.520225167274475,-2.1719515323638916,0.8837534785270691,2.6601240634918213,-0.5599409341812134,-0.8671799302101135,-1.8435885906219482,-2.6446645259857178,-2.857511520385742,-1.4820847511291504,6.945352077484131,-0.8838241100311279,0.50355464220047,-4.025123119354248,0.2103455513715744,-2.014268398284912,-1.6317051649093628,0.9067657589912415,0.07763511687517166,-0.21985602378845215,0.2277461737394333,-0.05019775778055191,-2.6160683631896973,-0.09116246551275253,0.11899780482053757,-0.12326683849096298,0.23153066635131836,0.09685452282428741,0.13920122385025024,0.10865911841392517,0.06318945437669754,0.4010784924030304,1.2920582294464111,-0.7862357497215271,-0.9347465634346008,-1.2364283800125122,1.2387809753417969,0.7808451652526855,-0.5350608229637146,-1.2677937746047974,-1.26152765750885,-1.652603030204773,1.989841341972351,0.21269279718399048,1.1451843976974487,-1.1941444873809814,1.0117753744125366,-1.074805736541748,1.069463849067688,-0.05693790316581726,0.19197222590446472,1.2797459363937378,-0.08394572138786316,-0.2429037094116211,-0.3967377543449402,-0.34188881516456604,-3.063927412033081,0.06882717460393906,1.8801366090774536,-0.8466812372207642,0.5325312614440918,-2.0094828605651855,0.4439207911491394,-1.379422903060913,-0.005991254933178425,0.12845857441425323,0.09946757555007935,0.4935283660888672,-0.5644230246543884,-0.045001622289419174,0.0685153678059578,0.4323287904262543,0.4338924288749695,0.5237824320793152,-0.012539831921458244,-0.05821545794606209,-0.43901970982551575,0.26144495606422424,-0.6506528854370117,0.027116751298308372,-0.2963981330394745,0.20745854079723358,0.11238180845975876,0.07989533990621567,-0.1678047478199005,0.023684369400143623,0.5230550169944763,0.3053850531578064,0.308970183134079,0.3870723247528076,-0.48229435086250305,-0.1238245740532875,-0.34613850712776184,0.24410133063793182,-0.1649884134531021,0.11381298303604126,-0.05751286447048187,-0.07080885022878647,0.06904805451631546,-0.011242124252021313,-0.000562856555916369,-0.03155434504151344,0.04648558795452118,0.05860837548971176,0.05088347941637039,-0.008858348242938519,0.018898531794548035,-0.05748248100280762,-0.03305591642856598,0.06320338696241379,-0.06780605763196945,0.04664342850446701]},"hiddenLayers":[{"inputMatrix":{"rows":42,"columns":16,"weights":[-0.7598602175712585,0.7040913701057434,0.4984387159347534,0.5209646224975586,-0.6803425550460815,-0.3931662440299988,0.6407413482666016,0.7765549421310425,0.7448007464408875,0.6136985421180725,-0.5084347128868103,-0.06373775005340576,-0.731479287147522,0.725650429725647,-0.7971147298812866,0.6359416246414185,0.2763720154762268,0.14376308023929596,0.2930651009082794,-0.20037446916103363,-0.19620537757873535,0.9117165803909302,1.132420301437378,-0.17315003275871277,0.5200108289718628,1.1134341955184937,-1.3906193971633911,-0.23582400381565094,0.3910307288169861,0.3390539884567261,-1.109581470489502,-0.3611087501049042,-1.0727965831756592,0.5565572381019592,0.39733409881591797,1.1131705045700073,-1.0849883556365967,-0.4056255519390106,0.7705981135368347,1.1563684940338135,0.7775701880455017,1.320461630821228,-0.8984585404396057,0.08826062083244324,-1.0052518844604492,0.7962231636047363,-0.07813055068254471,0.9599047899246216,-0.656002938747406,1.261232614517212,1.1666327714920044,0.34962162375450134,-0.42841923236846924,-0.32986316084861755,-0.15568283200263977,0.4292815625667572,1.306046724319458,0.3842698633670807,-0.07046647369861603,-0.8432528972625732,-1.0534552335739136,1.2662770748138428,-0.7406676411628723,0.7638096213340759,0.2700853645801544,0.04515484720468521,-0.013436517678201199,0.34451156854629517,-0.8775352835655212,0.1370440423488617,0.9219708442687988,0.7388483881950378,0.39393115043640137,1.2064886093139648,-0.8198540210723877,0.23246720433235168,-0.5839725732803345,0.21893446147441864,0.08231581002473831,-0.2469208687543869,0.253591388463974,-1.1966201066970825,-1.5942018032073975,0.41013163328170776,-0.2557801306247711,-0.2538911998271942,-0.4182817339897156,0.0962875708937645,-1.4537206888198853,0.5205368995666504,0.022336503490805626,1.0643390417099,0.7390559911727905,-1.4271751642227173,1.4905883073806763,-0.3335050940513611,0.4570021629333496,-0.9154064059257507,-1.6232316493988037,-0.2883206307888031,0.14889293909072876,0.8001336455345154,0.49473100900650024,0.2983153462409973,-0.8110123872756958,1.1579110622406006,-0.6928359270095825,1.3808605670928955,0.4680013358592987,-0.9682205319404602,0.8467694520950317,-0.9500183463096619,-0.9199451804161072,0.6624332070350647,0.5517553091049194,1.202892780303955,-1.3198546171188354,-0.017024774104356766,0.7271378040313721,1.3684756755828857,1.2078415155410767,1.2596817016601562,-0.786334216594696,-0.06413499265909195,-1.3422471284866333,1.075251817703247,-0.7274492383003235,0.8516280651092529,-0.6097691655158997,0.22895272076129913,0.38939931988716125,1.151476263999939,-1.2861011028289795,-0.13516244292259216,0.3015725910663605,0.8426725268363953,0.793578565120697,0.6097779870033264,-0.5925360918045044,-0.6743513345718384,-0.9109684228897095,0.5377693176269531,-0.6148813366889954,0.6458150744438171,-0.7328853011131287,-0.09713230282068253,0.5333912372589111,0.7136452198028564,-0.5764712691307068,-0.09412004053592682,-0.06815381348133087,0.7165588736534119,0.8406088948249817,0.5822029113769531,-0.43463757634162903,-0.25205039978027344,-1.0134426355361938,0.8748494982719421,-0.273459792137146,0.873349666595459,-1.0257688760757446,-0.2868693768978119,0.18975231051445007,0.5451472997665405,-0.5659751296043396,0.07123789191246033,0.6318806409835815,0.956589937210083,0.7292003035545349,0.6016983985900879,-0.8603251576423645,-0.7356070876121521,-1.073299527168274,0.4824310839176178,-0.5126864314079285,1.0440963506698608,-0.9860504269599915,-0.18786518275737762,0.12146903574466705,1.0387918949127197,-0.9738579392433167,-0.15801627933979034,1.1838464736938477,0.8929276466369629,0.3627617359161377,0.7864195108413696,-0.5418174266815186,-0.12802883982658386,-0.8404342532157898,0.3435659408569336,0.024593662470579147,1.191513180732727,-0.5401801466941833,0.1968364119529724,0.48005473613739014,0.9657333493232727,-1.0365071296691895,-0.06741509586572647,0.20184019207954407,1.035005807876587,1.015670657157898,1.1582396030426025,-0.33846819400787354,-0.043870363384485245,-0.86250901222229,0.7584715485572815,-1.2430098056793213,0.5592362880706787,-1.3523008823394775,-0.23013438284397125,0.4303550124168396,2.1169064044952393,-1.3583393096923828,-0.38012418150901794,0.6098628640174866,1.1242735385894775,0.6615444421768188,1.0934827327728271,-0.6121790409088135,-0.7018563151359558,-1.335724115371704,0.46606919169425964,0.005279505159705877,1.4385652542114258,-0.5997065305709839,0.2882767915725708,0.8901765942573547,1.208747386932373,-0.5624828338623047,-0.23314765095710754,0.07310879975557327,0.4722875952720642,0.5872829556465149,0.589521050453186,-0.20371365547180176,-0.4314337372779846,-0.643329381942749,0.5248416066169739,-0.820197582244873,0.7215819954872131,0.433763712644577,0.5521910786628723,0.9500746726989746,-0.3246319591999054,0.33284226059913635,0.813834011554718,-0.34867939352989197,-0.33602017164230347,1.5088862180709839,-0.5565187335014343,0.7561910152435303,-0.9622073769569397,-0.6459000110626221,1.271384835243225,-1.8372737169265747,-0.13469219207763672,-1.0975679159164429,0.441964715719223,0.33033522963523865,1.5070663690567017,-1.2253663539886475,-0.2699225842952728,0.6831181049346924,1.14308762550354,0.8487946391105652,0.9733275771141052,-0.6352099776268005,-0.3551423251628876,-1.2756844758987427,0.46158522367477417,-0.052394431084394455,1.1824781894683838,-0.9853239059448242,0.49069467186927795,0.9695377349853516,1.5334219932556152,-1.266071081161499,-0.4226005971431732,0.6250945925712585,1.2208200693130493,1.387374997138977,1.363326907157898,-0.9328846335411072,-0.5656861066818237,-1.5305894613265991,1.1337579488754272,-0.21645863354206085,1.0560152530670166,0.8662504553794861,0.03617500141263008,-0.6914796829223633,-1.3334028720855713,1.5618460178375244,1.0014009475708008,-0.4989340305328369,-1.2285912036895752,-0.743283748626709,-0.7709693908691406,0.516016960144043,0.8376137614250183,0.6779875159263611,-0.7112316489219666,0.3824191689491272,-1.279643177986145,0.700924277305603,0.7925929427146912,1.2390998601913452,-0.27467334270477295,0.3268696367740631,-0.09998555481433868,-0.30189594626426697,-0.2155025154352188,1.0618497133255005,0.07123982161283493,0.3291029632091522,-0.12712723016738892,0.46003076434135437,0.4768555462360382,-1.23289155960083,-0.28325459361076355,-0.7520262002944946,0.25764426589012146,0.5009386539459229,1.1642394065856934,-1.062955379486084,-0.6934946775436401,0.9657206535339355,1.0719497203826904,0.6308521032333374,1.025159478187561,-0.903354823589325,-0.09140224754810333,-0.5708276033401489,0.5473127365112305,-0.44962066411972046,0.8477562665939331,0.6381295919418335,0.3349553942680359,-0.33878466486930847,-1.296164631843567,1.6208082437515259,0.23214101791381836,-0.015690883621573448,-1.3951168060302734,-0.8830774426460266,-0.7909935712814331,-0.2982338070869446,0.6150009632110596,0.9333066940307617,-0.4422582685947418,0.46237972378730774,-1.3045227527618408,-0.25381696224212646,1.5125956535339355,1.538117527961731,-0.10539860278367996,-0.4709516167640686,-1.1643964052200317,0.04492681100964546,0.773795485496521,3.0387344360351562,-0.025593364611268044,0.44127801060676575,-1.0887701511383057,-1.7971714735031128,2.8293042182922363,-1.1208499670028687,1.2952876091003418,-0.47407498955726624,-0.20433026552200317,0.1093665361404419,1.0981210470199585,-0.8511191606521606,-0.40598833560943604,0.2529395520687103,0.5306117534637451,-0.1062437891960144,0.7396268248558044,-0.29092440009117126,-0.3593774437904358,-0.16621699929237366,-0.13425777852535248,-0.23920702934265137,0.4031356871128082,-0.8578312397003174,0.8663338422775269,0.7971618175506592,0.7798531651496887,-0.9571945667266846,-0.076017364859581,0.6764557361602783,1.065371036529541,1.2105505466461182,1.0120134353637695,-0.6739621162414551,-0.11360637843608856,-1.1003729104995728,1.054341197013855,-1.2154537439346313,0.8273577094078064,0.8723993897438049,-0.27988457679748535,-1.489530324935913,-1.9577440023422241,1.6380277872085571,1.1823179721832275,-0.29786360263824463,-1.6988394260406494,-1.1235135793685913,-1.1777057647705078,0.23044492304325104,1.2424150705337524,1.1581491231918335,-0.8543621897697449,0.16875067353248596,-1.1951968669891357,-1.5161105394363403,0.35385483503341675,0.9858294129371643,1.916123867034912,-1.762686014175415,-0.1625785380601883,0.36454805731773376,1.6448400020599365,1.6592190265655518,1.3848016262054443,-0.48664024472236633,-0.8203552961349487,-1.7914161682128906,1.0589268207550049,-0.21541953086853027,1.6579980850219727,-0.6725772023200989,0.3273175060749054,1.099150538444519,1.1773676872253418,-1.0906310081481934,-0.2043887823820114,0.014324103482067585,1.0181444883346558,1.3224772214889526,0.7713367938995361,-0.6045713424682617,-0.7615494132041931,-0.9131640195846558,0.9260551333427429,-0.6091201305389404,1.1555935144424438,-0.5747166872024536,-0.006849472410976887,-0.17977045476436615,0.7922360897064209,-0.77386075258255,-0.3227534294128418,0.7588778734207153,0.6519612073898315,0.5407694578170776,0.6442978978157043,-0.49392932653427124,-0.5891193747520447,-0.6805533170700073,0.2053474485874176,-0.1664281040430069,0.7035632133483887,-0.3321015238761902,-0.29109352827072144,0.0686318650841713,-0.12080712616443634,-0.3811488449573517,0.9167888164520264,1.1294564008712769,0.04059145972132683,-0.11498541384935379,1.7448004484176636,-1.60739004611969,-0.362463116645813,0.3073485791683197,0.25013989210128784,-0.3487393856048584,-0.22341468930244446,-0.6822177767753601,0.4859292209148407,0.660984456539154,0.9133143424987793,-0.8898339867591858,-0.46826601028442383,0.9515135884284973,0.8791549205780029,0.6034258604049683,0.7738708853721619,-0.862004280090332,-0.5053760409355164,-1.109968662261963,0.5670139789581299,-0.5811520218849182,0.82453852891922,0.09101729094982147,-0.7898070216178894,-0.8689088821411133,0.3033832609653473,-0.42601892352104187,1.189475178718567,0.6603184342384338,0.1692359745502472,-0.7792566418647766,1.250982642173767,-0.9808316230773926,1.1880236864089966,0.33878910541534424,-0.7369781732559204,0.3484451174736023,-0.5000885128974915,-0.7517254948616028,0.2933993637561798,0.5977393984794617,1.2831090688705444,-1.1762737035751343,-1.096132755279541,-0.02352614887058735,0.8969670534133911,0.6269807815551758,0.9009166955947876,-0.3665081262588501,-0.8148193359375,-0.8466953635215759,0.46247610449790955,-0.4258008599281311,1.2033188343048096,0.9747985005378723,-1.4284864664077759,-0.7234310507774353,0.927137017250061,-0.5290639996528625,1.458823800086975,0.046940967440605164,-0.11269308626651764,-1.49785578250885,1.1636435985565186,-0.48013269901275635,0.17917804419994354,1.1025633811950684,-1.37886381149292,-0.6521036028862,-1.6259644031524658,-0.5567193627357483,-0.1613042801618576,0.21422284841537476,1.0860202312469482,-0.9167513847351074,0.2767026722431183,0.5611434578895569,0.6714045405387878,0.5652497410774231,1.2039134502410889,-0.8521615266799927,-0.27333927154541016,-0.5569130778312683,0.2538171112537384,-0.5149479508399963,0.5693895220756531,-0.8199013471603394,0.4795840382575989,0.7652642130851746,1.3647264242172241,-1.9966384172439575,-0.8171063661575317,0.3935754895210266,1.5338901281356812,0.8708011507987976,1.4213740825653076,-0.5054174065589905,0.16468985378742218,-1.0644121170043945,0.8031254410743713,-0.0791902095079422,1.1119087934494019,-1.2311503887176514,0.2660125494003296,0.9059869050979614,1.6934237480163574,-1.4778178930282593,-0.056443266570568085,0.36228853464126587,1.22087562084198,1.3796119689941406,1.2285411357879639,-0.710770308971405,-0.6285621523857117,-1.395056962966919,1.114781379699707,-0.2137559950351715,1.3715780973434448,-0.031888093799352646,-0.15999294817447662,-0.44984620809555054,0.05242174118757248,-0.663489043712616,0.6565902829170227,0.8157811164855957,0.5139160752296448,0.19594891369342804,1.614007830619812,-0.6748904585838318,0.3555706739425659,-0.2496962696313858,0.13178640604019165,-1.6480865478515625,-0.29507124423980713,-1.172707200050354,0.17523589730262756,0.8742619156837463,1.4999523162841797,-1.414831280708313,-0.4708050787448883,0.8655076622962952,1.4889413118362427,1.087693691253662,1.3384798765182495,-0.7903494834899902,-0.36988505721092224,-1.5166845321655273,0.8899149894714355,-0.40839341282844543,1.3942655324935913,-1.0085481405258179,0.8480386734008789,0.5317596197128296,1.0482441186904907,-1.301368236541748,-0.10715025663375854,0.8740449547767639,1.3542022705078125,1.4557600021362305,1.4152165651321411,-0.9039024114608765,0.17156130075454712,-1.4710578918457031,1.086124062538147,-1.1591594219207764,0.9565412998199463,-0.8408294320106506,0.6232631206512451,0.06610392779111862,0.5951896905899048,-0.9758346080780029,-0.23834724724292755,0.5702373385429382,1.1177959442138672,1.0859863758087158,1.194529414176941,-0.1794978231191635,-0.03296702727675438,-1.1740888357162476,0.9121218323707581,-0.53521329164505,0.8825097680091858,-0.8956596851348877,0.19214101135730743,0.15833590924739838,1.5830883979797363,-1.3374345302581787,-0.6584499478340149,0.7204264402389526,1.4002541303634644,0.6508017778396606,1.2964599132537842,-0.7339528799057007,-0.1185261532664299,-1.1135112047195435,0.5672942399978638,-0.06854691356420517,1.0301151275634766]},"inputHidden":{"rows":42,"columns":42,"weights":[-0.3890639841556549,-0.1709454357624054,0.3028215169906616,0.19687508046627045,0.3812515139579773,-0.06979541480541229,0.5607107877731323,-0.4721728265285492,-0.3367462754249573,-0.06047582998871803,0.25378039479255676,0.2737950384616852,0.25670531392097473,0.7303537726402283,0.21571117639541626,-0.2820621728897095,-0.6540519595146179,-0.25722068548202515,0.004142919089645147,0.21951539814472198,-0.5710902810096741,-0.018216388300061226,0.22232702374458313,0.2978694438934326,-0.1950441151857376,0.08654455840587616,0.6372096538543701,0.8195352554321289,-0.07562584429979324,0.24069496989250183,-0.5785158276557922,0.20535951852798462,0.30744773149490356,0.10795611888170242,-0.28043362498283386,-0.22869980335235596,0.6645452380180359,-0.3570902645587921,-0.2742418646812439,0.4810565710067749,-0.556682825088501,-0.6436538100242615,-0.3433608114719391,1.016371250152588,0.2709617614746094,-0.15070313215255737,0.5192232131958008,0.06767530739307404,-1.0011779069900513,0.1414252370595932,-0.3283982574939728,0.11186100542545319,0.6065748333930969,0.6789320707321167,-0.4208323359489441,-0.6559385657310486,0.535057008266449,1.040765404701233,-0.0959954485297203,-0.06669473648071289,2.172624349594116,-0.48530444502830505,-0.8588160276412964,1.208030343055725,0.3771246075630188,-0.13020716607570648,-0.7358247637748718,0.4369371235370636,-0.6112627983093262,-0.3114830553531647,-0.09552620351314545,1.5069886445999146,-0.8428016304969788,3.622418165206909,0.40101635456085205,-0.8633549213409424,2.6765239238739014,-0.12245526909828186,0.48751792311668396,-2.6903672218322754,0.13726158440113068,-0.2418343871831894,0.3949184715747833,0.31458958983421326,-0.9892054796218872,-0.16006675362586975,0.16471609473228455,0.013832100667059422,0.27352118492126465,0.5624144673347473,-0.05554147809743881,-1.5570911169052124,-0.21709203720092773,-0.04609084874391556,0.0354309156537056,0.10971353203058243,0.227275088429451,0.9013968110084534,0.25275906920433044,-0.1433168649673462,-0.3212589621543884,-0.22338604927062988,-0.06613866984844208,0.20746618509292603,-0.5472301840782166,-0.07179466634988785,0.1340477168560028,-0.0269460491836071,-0.17977172136306763,-0.8494756817817688,0.7132256031036377,0.8463149666786194,-0.12052461504936218,0.19379694759845734,-0.5356158018112183,0.262915700674057,0.06199539825320244,-0.040808070451021194,-0.033135030418634415,-0.7902131080627441,0.9101030826568604,-0.19718487560749054,-0.16854143142700195,-0.2272600680589676,-0.08881217241287231,-0.10355640202760696,-0.2032296359539032,0.08582766354084015,-0.3496308922767639,-0.6712448000907898,-0.07746819406747818,1.4084408283233643,0.11095733940601349,-0.6422242522239685,0.1928292214870453,0.1516663134098053,-0.04699085280299187,-0.28638890385627747,-0.11050469428300858,0.8640530109405518,0.08154464513063431,-0.6093049049377441,-0.5035620331764221,-0.1499769538640976,-0.19858548045158386,0.1255628913640976,-0.5354380011558533,0.4325910210609436,-0.2489420622587204,0.3824763298034668,0.5005044341087341,-0.16500994563102722,0.7920493483543396,0.74137943983078,0.058255914598703384,0.2847963571548462,-0.4711197018623352,0.48971471190452576,-0.2295701950788498,-0.17386527359485626,0.22465069591999054,-0.6549174785614014,1.0167902708053589,-0.17188383638858795,-0.08914708346128464,-0.43097415566444397,0.034975580871105194,-0.07161495834589005,0.21678578853607178,0.06872155517339706,-0.20670482516288757,-0.42382147908210754,0.06157422810792923,0.8585065007209778,-0.12722502648830414,-0.6057022213935852,0.35911139845848083,1.5676288604736328,1.0296261310577393,-0.08866199851036072,-1.326595425605774,-0.8525859117507935,0.661183774471283,0.3160972595214844,1.1766917705535889,-0.2791685163974762,0.07142017781734467,-0.471088171005249,-0.5733799338340759,0.11776594072580338,-1.0984666347503662,1.2901557683944702,-1.3836262226104736,0.601294994354248,-1.4093232154846191,-0.0006864629685878754,0.870512843132019,-0.21404221653938293,-0.6522537469863892,-0.7412282228469849,0.12483593821525574,0.10655713826417923,0.17128674685955048,2.0989856719970703,-1.2125487327575684,-1.246340036392212,0.7635626196861267,1.977878451347351,-1.532455563545227,-0.43032240867614746,0.33970221877098083,1.3361505270004272,-1.042401909828186,-0.8023319244384766,-0.19249770045280457,-1.1788233518600464,-0.2740675210952759,-0.8729830980300903,0.8607885241508484,0.6755273342132568,0.7505657076835632,0.1427776962518692,0.03942543640732765,-0.4136815667152405,-0.642899751663208,0.4344237744808197,0.15325284004211426,0.28741002082824707,-1.5665128231048584,-0.3365580141544342,-0.2498488575220108,-0.6666558980941772,0.46781715750694275,-0.1005147323012352,0.414055198431015,-0.25077977776527405,0.3989693522453308,0.23202495276927948,0.9687510132789612,0.801561713218689,0.021575145423412323,0.7292706370353699,0.8314869403839111,-0.015102620236575603,0.7200251221656799,0.26432251930236816,0.20446430146694183,-1.6959389448165894,-0.011655372567474842,0.4137786030769348,-0.7074122428894043,0.7433187961578369,-0.7149519324302673,-1.54962158203125,0.33745184540748596,-0.231067955493927,0.8156962394714355,2.971920967102051,-0.16757084429264069,-0.6358403563499451,-0.6966052651405334,-0.41469159722328186,-0.42847999930381775,-0.20131590962409973,2.936605930328369,0.7575362324714661,0.4439312815666199,1.4371145963668823,-0.6761162281036377,-0.14388753473758698,1.581787347793579,0.8930675387382507,-0.654326319694519,0.33530694246292114,-2.1197173595428467,-1.9971654415130615,0.9291327595710754,1.80415940284729,0.690589964389801,0.7220150828361511,-0.3326264023780823,2.181575059890747,-0.6390429139137268,1.388425588607788,-0.5779303908348083,-1.7626347541809082,1.5111441612243652,-0.36714255809783936,0.38565221428871155,-0.3255748152732849,-0.1039772480726242,0.4310247302055359,-0.45727747678756714,-0.27393171191215515,-0.5665225386619568,-0.8133352398872375,0.15958771109580994,0.12991085648536682,-0.01684529148042202,-0.49549221992492676,0.7349483370780945,-0.6300143599510193,-0.7425577044487,-0.20070771872997284,0.06247778981924057,0.5750654339790344,0.4646703004837036,0.6690264940261841,0.4182761013507843,-0.23996838927268982,-0.6056630611419678,-0.31811249256134033,-0.08939024060964584,0.33805516362190247,-0.9844192862510681,-0.08758018165826797,0.051035333424806595,0.07146607339382172,0.2125161588191986,0.04375592991709709,0.6212086081504822,0.9170828461647034,-0.04223807901144028,0.2849377691745758,-0.7338587641716003,0.019115759059786797,0.15917271375656128,0.2685188949108124,-0.4331604242324829,-0.20436108112335205,0.6818844079971313,-0.07738090306520462,-0.44158637523651123,0.8342011570930481,-0.9083911776542664,-0.6247698068618774,-0.2415730208158493,-0.41842904686927795,-0.8337047100067139,-0.6930518746376038,0.3752531409263611,0.679036557674408,0.22539010643959045,0.2365710586309433,0.7034189701080322,0.5544529557228088,0.49296534061431885,0.2579844295978546,-1.2323684692382812,-0.05379292741417885,-0.490334153175354,0.13102498650550842,0.06633017212152481,0.6856076717376709,-0.1695292890071869,-0.6697920560836792,0.13481271266937256,-0.6972031593322754,-0.07784289121627808,-0.19521546363830566,0.27148157358169556,-0.5984640121459961,-0.23279915750026703,0.6370351314544678,0.7604379057884216,-0.5209681391716003,0.33581483364105225,0.25082871317863464,0.6887439489364624,0.19608299434185028,0.9131351709365845,-0.4688572883605957,-0.19689425826072693,-0.01295966561883688,0.7751864790916443,-0.813765823841095,0.9004387855529785,0.8466334939002991,0.013325243256986141,0.040432464331388474,-0.3362717628479004,-0.41408517956733704,0.09816372394561768,-0.05724567174911499,0.47993698716163635,0.12698711454868317,0.7273425459861755,0.9020074605941772,0.6187402009963989,0.14386017620563507,-0.5378450155258179,0.41524723172187805,0.45665353536605835,0.22739823162555695,0.06970629096031189,0.34732332825660706,-0.3829675316810608,0.08984574675559998,-0.3158901631832123,-0.6712288856506348,-0.2020856887102127,-0.6652427315711975,-0.0804324522614479,-0.95728600025177,0.1989251971244812,0.8030012249946594,1.06980299949646,-1.0753682851791382,-0.4738120138645172,-0.018383141607046127,0.8140519857406616,0.10845885425806046,0.6371690034866333,-0.30014413595199585,0.10839171707630157,0.08653075993061066,0.4109150171279907,-0.4750164747238159,0.2764103412628174,0.5589582920074463,-1.5659213066101074,0.228537455201149,0.3560386300086975,-0.5169467329978943,0.12953397631645203,0.5201674103736877,0.9188084602355957,-0.7654047608375549,-0.3373878002166748,-0.11110159754753113,-0.29259762167930603,-0.027468329295516014,0.5163819789886475,0.7731674313545227,1.2477574348449707,0.7509593367576599,-0.06621095538139343,-0.17924372851848602,-0.248428076505661,0.4940658509731293,-1.192898154258728,-0.3296855092048645,-0.23185878992080688,-0.5905075073242188,-1.3122302293777466,-0.9268051385879517,-0.047853726893663406,0.16399627923965454,0.01601746864616871,-0.4564249515533447,-0.8174692392349243,-0.18198895454406738,0.5065346360206604,0.30098310112953186,0.11255472153425217,-0.35188162326812744,0.3159654438495636,-0.8078681230545044,-0.28389766812324524,-0.17953360080718994,0.33368566632270813,-0.004884772002696991,-0.428011953830719,-0.02549750544130802,0.2008897215127945,-0.12097278982400894,0.1537587195634842,0.021908484399318695,0.010860130190849304,0.3622378706932068,-0.1510288417339325,0.0668296366930008,0.6859744191169739,0.8162893652915955,-1.5118029117584229,-0.17609602212905884,0.16695021092891693,-0.1568506360054016,0.25870001316070557,0.2205449789762497,-0.18647345900535583,-0.6423234343528748,-0.629900336265564,-0.062300533056259155,-0.24374112486839294,-0.44052594900131226,-0.7316693663597107,-0.9036113619804382,-0.23818440735340118,0.03743799775838852,-0.12281566113233566,-0.7988041639328003,-0.3494207561016083,0.0916137620806694,0.5865129232406616,0.3399306833744049,0.39414411783218384,-0.1711035817861557,-0.04070813208818436,-0.8032326102256775,0.263115257024765,-0.8342432975769043,0.8930457830429077,0.7497572302818298,0.1522810310125351,-0.25819626450538635,-0.16822968423366547,0.27278152108192444,0.4512154459953308,0.594933032989502,0.01949659362435341,0.5990333557128906,-0.019866108894348145,0.07572730630636215,-0.012081281282007694,0.07952174544334412,-0.5261552333831787,0.6304200291633606,0.005611188244074583,-0.2696160674095154,-0.1686832755804062,-0.030982499942183495,0.5710644721984863,-0.3318564295768738,-0.3477550745010376,0.29346683621406555,1.277632713317871,-0.06796786934137344,-0.5328980684280396,0.1182527095079422,0.1083589568734169,0.3615483045578003,0.04032183811068535,0.5881661176681519,-0.09472621232271194,0.7940847873687744,0.1818646341562271,-0.06381838023662567,0.1580098271369934,0.10795886069536209,0.7077102661132812,-0.46603626012802124,-0.10309628397226334,0.25690004229545593,0.020260436460375786,-0.05177632346749306,-0.32698220014572144,-0.3974526822566986,-0.463714599609375,-0.5566166639328003,0.4111303389072418,1.1367087364196777,0.920261561870575,0.2589254677295685,0.3760923445224762,0.32469308376312256,0.31278905272483826,0.12650808691978455,-0.24119757115840912,0.3640821576118469,0.7097604274749756,0.32156625390052795,0.2398570477962494,0.2797132432460785,-0.8549505472183228,-0.10834596306085587,-0.6910317540168762,-0.41004282236099243,0.2544473111629486,0.05415397509932518,-0.38942116498947144,-0.5951844453811646,-0.11096327006816864,-0.882875919342041,0.28749606013298035,0.03986508771777153,0.3266136348247528,0.03797314688563347,0.4397151470184326,-0.00716758705675602,0.3512057065963745,0.10120587050914764,-0.13403825461864471,-0.6867907643318176,0.37762296199798584,0.13725173473358154,0.3350945711135864,0.39621883630752563,-0.4616648554801941,-0.4903900623321533,-0.29297780990600586,-0.6988789439201355,-0.06932779401540756,0.34658169746398926,0.19008643925189972,-0.3913426399230957,-0.2757781147956848,0.4276038110256195,0.5791829824447632,0.8270065188407898,0.3769816756248474,0.3795351982116699,0.6041530966758728,0.086772620677948,0.5006040930747986,0.20007778704166412,-0.7994502782821655,-0.19159075617790222,-0.22417660057544708,-0.32204708456993103,-0.5921663045883179,-1.34097421169281,0.006866936571896076,0.13597573339939117,0.23917129635810852,0.48279666900634766,0.25881636142730713,-0.12128882855176926,-0.3938803970813751,0.08053822070360184,0.21648283302783966,-0.2963574528694153,0.9711382389068604,-0.16142861545085907,0.36048993468284607,-0.5662331581115723,0.23182301223278046,0.4390917122364044,-0.33979037404060364,0.18778538703918457,0.45908498764038086,0.4316912889480591,-1.0374693870544434,-0.5287880897521973,-0.3710545599460602,0.3111499845981598,1.9115643501281738,0.8049637079238892,0.5570555329322815,0.19549314677715302,-0.5639293193817139,-0.11370392143726349,-0.8683741092681885,-0.422733336687088,-0.40529438853263855,0.057579949498176575,0.30797719955444336,0.7904701232910156,-0.9679904580116272,-0.4236266314983368,-1.607360601425171,-0.7088612914085388,0.06695560365915298,0.367639422416687,-0.11585081368684769,-0.2571381628513336,-0.36021658778190613,-0.7729634642601013,-0.07999639958143234,-1.514501929283142,-0.32659438252449036,-0.11210028827190399,0.9217649102210999,1.0633465051651,0.4226115643978119,0.6919899582862854,-0.5456012487411499,-0.2421695590019226,0.6634899973869324,0.36094537377357483,-0.3149492144584656,0.6935471296310425,-0.6124281883239746,-0.682627260684967,-0.5507367253303528,-0.46392109990119934,0.1403786838054657,0.9272817969322205,1.0521420240402222,-0.3529016077518463,-0.01596682146191597,0.118612140417099,0.39960452914237976,0.625709056854248,0.3909381031990051,1.1095582246780396,0.24639055132865906,-0.40671196579933167,-0.5629623532295227,0.04138573259115219,-1.5135079622268677,-0.4416293203830719,-0.2647857367992401,-1.2343469858169556,-0.1489950269460678,-0.15967020392417908,-0.7852994799613953,-1.3041932582855225,0.5401737093925476,0.25663241744041443,-0.005245384760200977,-0.6263062357902527,-0.9987893104553223,0.06144126504659653,0.9502130746841431,-0.026416366919875145,0.7965152859687805,-0.6636107563972473,0.26610079407691956,-0.20696192979812622,0.4532029330730438,2.1574652194976807,-1.6268444061279297,0.5144876837730408,-0.9106041789054871,-0.0985049158334732,-0.5265228748321533,-0.3964284360408783,-0.05262606590986252,0.6263771057128906,-0.27415797114372253,-0.917431116104126,0.3699042797088623,-0.08806610852479935,-0.2363516092300415,0.22080589830875397,-1.5947456359863281,0.903753399848938,0.2603982388973236,0.21435600519180298,-0.04216635972261429,-0.16713185608386993,-1.146881341934204,-0.2276325821876526,-0.42665088176727295,-1.0011577606201172,-0.6331114768981934,-1.1886106729507446,0.37245628237724304,-0.8189969658851624,0.16568003594875336,0.32956168055534363,-0.07473232597112656,-0.4950300455093384,-0.585624098777771,0.521589457988739,0.760577380657196,0.31005358695983887,0.4241637587547302,-0.6668068170547485,0.188409686088562,0.3092695474624634,0.7471020817756653,-1.2833925485610962,1.202460765838623,0.35229432582855225,-0.8265863656997681,-0.3487986624240875,0.00771448016166687,-0.6213427186012268,0.35023054480552673,1.009788990020752,0.023688245564699173,-1.2294034957885742,-0.2636071741580963,0.6356235146522522,0.04403821378946304,-0.2832914888858795,-0.161808580160141,-0.022988388314843178,0.6544883251190186,-0.04688427969813347,-0.41200441122055054,-0.42204782366752625,0.6839823722839355,0.11554569751024246,-0.867942750453949,0.22053486108779907,-0.15944291651248932,0.4330019950866699,0.09397243708372116,0.5679077506065369,-0.20258143544197083,0.5101796984672546,-0.0368206724524498,0.7306221723556519,-0.9674251675605774,1.439661979675293,0.07699678838253021,-0.5545045733451843,0.4869445264339447,1.1441290378570557,0.475131630897522,-0.6333480477333069,-0.36333370208740234,2.8614697456359863,-2.4094667434692383,-0.5668172240257263,-0.4335234463214874,-0.6042166352272034,-0.46377405524253845,0.08385071903467178,0.15828728675842285,1.319699764251709,1.9458396434783936,0.2747626304626465,0.5966354608535767,0.14397072792053223,0.3131704330444336,1.2939183712005615,-0.09043949842453003,0.08396612107753754,-0.3947969675064087,0.2160853147506714,0.14072416722774506,0.5977320075035095,1.948960304260254,0.31702911853790283,-0.25955730676651,1.492362141609192,0.5773654580116272,-0.6943321228027344,1.0794646739959717,0.018184149637818336,-0.16964666545391083,-0.7085219621658325,0.27472418546676636,1.6268800497055054,-0.07474856078624725,2.3099260330200195,1.238371729850769,-0.7235339879989624,1.9674633741378784,-0.03602989763021469,-0.14059704542160034,-0.87507164478302,0.7418373823165894,-0.13053026795387268,0.07041812688112259,1.0476914644241333,-0.8846744894981384,0.1822199523448944,0.3322625756263733,-0.039196550846099854,0.10863599181175232,-0.26252347230911255,-0.3290165960788727,-0.8377515077590942,-1.3529986143112183,-0.8963640332221985,-0.2839035987854004,-0.30683383345603943,1.0027037858963013,0.38812124729156494,0.648116409778595,-0.25334078073501587,-0.29576170444488525,-0.5778400897979736,-0.34048333764076233,0.01504504308104515,-0.14122465252876282,-0.8664510846138,-0.12649476528167725,-0.03666849061846733,0.16145704686641693,0.3009829521179199,0.2563842833042145,0.40978649258613586,-1.2630081176757812,0.30259495973587036,-0.7373575568199158,0.3672834634780884,-0.08588020503520966,0.3078271746635437,0.3069041669368744,-0.25236284732818604,0.16909508407115936,0.10049863159656525,-0.8162291049957275,1.0011593103408813,-0.7431045770645142,-0.5695353150367737,-0.5914093255996704,-0.6268324851989746,-0.1952863186597824,-0.37855035066604614,0.28713300824165344,1.26711106300354,0.18419089913368225,-1.1857459545135498,-0.13640032708644867,1.0657541751861572,0.0830540806055069,-0.38389459252357483,-0.801093578338623,0.19422483444213867,0.5698212385177612,-0.06491587311029434,-0.34000685811042786,-0.3678336441516876,-0.12002657353878021,0.1401410549879074,-0.877951979637146,0.26308584213256836,-0.725757360458374,1.3697928190231323,0.15647566318511963,0.3760870695114136,-0.3425546884536743,0.45892778038978577,-0.09761200100183487,0.18960997462272644,-0.7667868733406067,0.8732978105545044,-0.14287565648555756,-0.6436197757720947,0.981480062007904,1.4284976720809937,0.2093857228755951,-0.19784337282180786,-0.23700569570064545,3.57761812210083,-2.94907546043396,-0.6103605031967163,-0.2991740107536316,0.13804560899734497,0.010144950821995735,-0.5839264988899231,0.4476812183856964,0.7000091671943665,0.8971094489097595,-0.6807659864425659,0.23901152610778809,0.27851608395576477,0.3506036698818207,0.6196409463882446,-0.30879274010658264,0.1577543318271637,0.3502082824707031,-0.33757275342941284,-0.13606008887290955,-0.36163827776908875,-0.2064441442489624,-0.0933559462428093,-0.49091264605522156,0.2055567502975464,0.16002897918224335,0.2607002854347229,-0.4775944650173187,-0.12744346261024475,0.19523347914218903,0.6264755129814148,0.40357840061187744,-0.24131980538368225,-0.47645026445388794,-1.0397565364837646,0.06288167089223862,0.1794281303882599,-0.8138858079910278,0.4633990526199341,0.663777768611908,-0.5491230487823486,-0.372881144285202,0.3922528922557831,-0.45667269825935364,-0.4177357256412506,-0.24616561830043793,-0.3859129846096039,1.0589576959609985,0.7583281993865967,0.3608274757862091,-1.3344130516052246,-1.4925318956375122,0.318378210067749,0.1744527518749237,0.21389132738113403,0.49095603823661804,0.35982319712638855,-1.4167649745941162,0.4455808997154236,0.0900711715221405,0.1027078703045845,0.04060830548405647,-0.01936722919344902,-0.7920756936073303,-1.1986181735992432,0.16027210652828217,-0.27234482765197754,1.0362576246261597,-0.5161097049713135,-1.0127012729644775,-0.3104475140571594,-0.16906778514385223,0.4553086459636688,-0.3171935975551605,0.71700519323349,-0.4714178442955017,1.950182557106018,-0.4895339906215668,0.758242666721344,2.2330682277679443,-0.34088680148124695,0.7534060478210449,-0.27101320028305054,0.3137167990207672,-1.4342190027236938,1.249409794807434,-0.04754411801695824,-0.31599465012550354,-0.8799217343330383,0.020190127193927765,-0.013467933051288128,0.1361689418554306,-0.219136580824852,0.27135926485061646,-0.4619954228401184,-0.2017737329006195,-0.12331710010766983,-0.11185119301080704,0.4507021903991699,0.375070184469223,0.8063359260559082,0.14707578718662262,-0.06501108407974243,-0.44502004981040955,-0.23585543036460876,0.10482648760080338,0.04833279922604561,-0.798209547996521,0.29169943928718567,-0.12308964133262634,0.24073168635368347,0.027406558394432068,-0.10812508314847946,0.6991170644760132,0.8215388655662537,0.16913221776485443,0.5611509680747986,-0.91131591796875,0.32056519389152527,0.01346579473465681,0.17310397326946259,-0.09957285970449448,0.016868779435753822,0.7131239771842957,0.1606229692697525,-0.16980284452438354,0.48374655842781067,-0.4294842481613159,-0.33760687708854675,-0.0741417184472084,0.13350194692611694,-0.5272517800331116,-0.3234928548336029,0.5831400752067566,1.7346798181533813,0.018466930836439133,0.03999519348144531,0.6993094086647034,0.4214785099029541,0.08451001346111298,0.13297966122627258,-0.19336874783039093,-0.4821551740169525,0.4069732427597046,-0.1306934952735901,0.33133041858673096,0.4088599681854248,0.4415799081325531,-0.11243388801813126,-0.007049452513456345,0.00865849293768406,0.4135904610157013,0.01783890090882778,-0.026605039834976196,0.5196511745452881,-0.4076646864414215,-0.5115970373153687,0.3821363151073456,0.5174551606178284,0.4431084394454956,0.5293532609939575,0.27215713262557983,-1.2492820024490356,0.17321276664733887,0.4864143431186676,-0.5005878806114197,-0.37933051586151123,0.3278654217720032,0.01852569729089737,0.14528343081474304,0.3094041645526886,-0.790925145149231,-0.5248496532440186,-0.4887468218803406,0.35125988721847534,0.22814717888832092,1.0045961141586304,1.2439786195755005,-0.02005913108587265,-0.028034111484885216,0.17620724439620972,0.47350913286209106,0.6115800738334656,0.4179800748825073,0.5164193511009216,0.5870618224143982,-0.10722070187330246,-0.10195142775774002,0.12526442110538483,-0.5029159188270569,-0.07734182476997375,-0.6626535058021545,-0.3556772768497467,0.05850654095411301,-0.7141008377075195,-0.27083709836006165,-0.8064729571342468,-0.19801858067512512,-0.0766717717051506,0.2896158695220947,-0.18034841120243073,-0.48547041416168213,0.10535869747400284,0.8381755352020264,0.9821459650993347,0.12513144314289093,0.07139323651790619,-0.20928339660167694,-0.28662264347076416,0.2818213105201721,0.552485466003418,-0.48907527327537537,0.3131920099258423,-1.1920404434204102,0.04840987175703049,-0.13065899908542633,0.5103082656860352,-0.5353747010231018,1.7686846256256104,1.6732606887817383,-0.2905274033546448,0.9864852428436279,0.8076612949371338,0.6155115365982056,0.07835552096366882,1.3471678495407104,0.8564452528953552,0.6073419451713562,-0.35101577639579773,-0.039004918187856674,-0.07325819879770279,-0.5716970562934875,-0.5361586809158325,-1.062839388847351,-0.4264990985393524,0.09081080555915833,-0.804860532283783,0.04387198016047478,-1.0041649341583252,0.1701822578907013,0.7895301580429077,0.9150232672691345,-1.1368991136550903,-0.5957380533218384,-0.9885585308074951,0.4812770485877991,0.4570903778076172,-0.10501361638307571,-0.45471322536468506,0.2636178135871887,-0.6141815185546875,0.2618682384490967,0.2026512324810028,-0.01824267953634262,0.1432461440563202,0.02938688173890114,0.07687907665967941,-1.5204031467437744,-0.9831723570823669,-0.6960639953613281,0.3258289098739624,0.5668823719024658,-0.04549639672040939,1.0466976165771484,1.1623077392578125,1.2586792707443237,0.4359082877635956,-0.6923962235450745,0.19071321189403534,-0.12365751713514328,-0.18128718435764313,0.8941988348960876,0.8525503277778625,-1.7145017385482788,0.18924641609191895,0.24584414064884186,-1.1006882190704346,-0.3023346960544586,0.03764171525835991,0.5359877347946167,-0.9465179443359375,-0.22161445021629333,0.045439463108778,1.1148632764816284,-0.601024866104126,0.2502727508544922,-0.8937052488327026,1.453832983970642,0.41252902150154114,0.5968018770217896,0.04850891977548599,0.21680453419685364,-0.42646801471710205,0.9300116300582886,-0.054564181715250015,-0.20291008055210114,0.8510401248931885,-0.3513889014720917,0.4250512719154358,-0.25659269094467163,-0.032048460096120834,0.9849815368652344,3.26674485206604,-0.552117645740509,-0.7436482310295105,-0.41383129358291626,0.06273434311151505,-0.7995488047599792,0.198446586728096,0.49936527013778687,-0.027186734601855278,0.3477874994277954,-2.554931163787842,-0.1795702576637268,0.6031962633132935,-0.1702907830476761,-0.9456142783164978,-0.70354825258255,0.12494928389787674,0.04230523481965065,-1.9602183103561401,0.6918962597846985,1.2883504629135132,0.04699835181236267,0.3491208553314209,-0.4930610656738281,-0.2766513228416443,-0.7236400246620178,0.6435465812683105,0.6023945808410645,-1.0374940633773804,1.8635286092758179,0.842599093914032,-0.42419344186782837,-0.4798918664455414,0.16511952877044678,3.4250426292419434,-2.9238672256469727,0.27258408069610596,-0.6067105531692505,-0.19636240601539612,0.34834054112434387,0.17001429200172424,0.20663097500801086,0.7238372564315796,0.9207991361618042,-0.6330389976501465,-1.2124067544937134,-0.857763946056366,-0.6451210379600525,0.3308790326118469,0.5380108952522278,0.512100100517273,0.38678234815597534,-0.25340303778648376,-0.6173728108406067,-0.20811307430267334,0.017245842143893242,1.2153725624084473,-1.097443699836731,-0.4838043749332428,-0.2569918632507324,0.30645161867141724,0.020049449056386948,0.2504422068595886,0.5402897000312805,0.9374568462371826,-0.24225716292858124,0.06195768713951111,-0.4352046847343445,-0.39744603633880615,-0.3480669856071472,0.21846358478069305,-0.8389392495155334,-0.3580881357192993,0.4326605200767517,-0.12083189934492111,-0.7274224162101746,0.7877478003501892,-0.7263241410255432,-0.8918185234069824,-0.07503847032785416,1.1724451780319214,-0.8873477578163147,-0.7023950815200806,-0.3712558448314667,3.1827120780944824,2.8795652389526367,-0.44999605417251587,1.021712064743042,1.1316139698028564,0.878738284111023,0.9534944295883179,-0.06076844781637192,-0.22202233970165253,0.3005751967430115,-1.323456883430481,0.6248064637184143,0.8284827470779419,-1.8303064107894897,-0.675714373588562,-0.10877471417188644,-0.5504586100578308,0.3476378321647644,-1.7029259204864502,1.7010836601257324,0.05089139938354492,0.44273677468299866,-1.0316165685653687,1.058998942375183,-1.7816493511199951,-0.2755397856235504,-0.7160274982452393,0.24400416016578674,-0.2673276662826538,-1.5381413698196411,1.0955911874771118,-1.0974783897399902,-1.0060886144638062,0.7003510594367981,0.2708016335964203,-0.9187375903129578,0.8828597664833069,-0.04421954229474068,-0.16231681406497955,-1.0170787572860718,-1.9077644348144531,-0.5979189872741699,0.9680707454681396,-0.6342934370040894,-0.11007704585790634,0.6556774973869324,0.055056627839803696,0.29856130480766296,0.13371330499649048,-0.8305466175079346,0.6548272967338562,-0.798846423625946,-0.04865546524524689,0.23312333226203918,0.44276759028434753,-0.5424789190292358,-0.539413332939148,0.4857872426509857,-0.08636217564344406,-1.4865890741348267,0.323228657245636,0.4127544164657593,-1.1177952289581299,-0.05440743640065193,0.07249952107667923,0.397590696811676,-0.7329406142234802,0.5875676274299622,0.048409439623355865,0.49698305130004883,-0.544617772102356,0.36162838339805603,-0.35749733448028564,0.5123353600502014,0.283446341753006,0.41726720333099365,-1.3302685022354126,0.304022878408432,0.6732892394065857,0.4876326322555542,-0.2207646369934082,0.20395836234092712,-0.5421759486198425,0.27923786640167236,2.0213704109191895,0.33295491337776184,0.1801813244819641,0.571959376335144,0.7776165008544922,0.4967086613178253,0.06868255883455276,-0.11011189222335815,-0.5986754298210144,-0.036126699298620224,-0.10189545154571533,0.9461381435394287,0.3972674310207367,0.49060896039009094,-1.36663019657135,0.007072547450661659,0.27260255813598633,0.5449708700180054,-0.5640991926193237,-0.18340148031711578,1.1211004257202148,-0.8025113940238953,-0.23108716309070587,0.7667505741119385,1.2728142738342285,0.5794404745101929,0.9528988599777222,0.5555917024612427,-0.7570394277572632,0.6061272621154785,0.8239254355430603,-0.3693426549434662,-0.4395761489868164,-0.044671930372714996,-0.15426921844482422,0.054462503641843796,0.08592869341373444,-0.28890088200569153,0.9595127701759338,-0.5934814810752869,0.3432677388191223,1.4679148197174072,2.6446022987365723,-0.5226362943649292,0.520270824432373,0.2862459719181061,0.25293460488319397,-0.16535118222236633,-0.10813264548778534,-0.1124446839094162,0.7626835107803345,-0.3507942259311676,-1.5982125997543335,-0.13888360559940338,0.4962852895259857,-0.8910695910453796,-1.5217205286026,-0.31366559863090515,0.03682423010468483,1.8987922668457031,-0.6479244828224182,0.2692522406578064,-0.6851612329483032,0.05298547074198723,-0.9117413759231567,-0.05897970870137215,0.7158327698707581,-0.1283618062734604,1.316367745399475,0.12746267020702362,-0.4149845242500305,1.4355190992355347,-0.17668713629245758,0.4213080108165741,-2.0296995639801025,0.6077707409858704,-0.18284764885902405,0.3348073661327362,0.7158257365226746,0.369401216506958,-0.5977166295051575,-0.9726617336273193,-0.8823360800743103,-0.37748223543167114,1.0794765949249268,-0.44182100892066956,0.645282506942749,0.16753938794136047,0.08748152107000351,0.20866698026657104,0.6896675825119019,-1.2727863788604736,0.023718873038887978,-0.3600606918334961,-0.5404351353645325,-0.23814190924167633,0.46468403935432434,-0.3961949646472931,-0.026680368930101395,0.16885246336460114,-0.8570855259895325,-0.46841663122177124,-0.5811304450035095,-0.3628805875778198,-0.8473290801048279,0.08348225057125092,-0.025472139939665794,0.1763637661933899,-1.4366958141326904,0.338259220123291,-0.033362653106451035,1.3671787977218628,-0.29500189423561096,0.8481384515762329,-0.5040106773376465,0.07861009240150452,-0.8943792581558228,1.7838064432144165,-0.3597322702407837,0.3525983989238739,0.986190140247345,-0.8438056111335754,-0.06717599183320999,-0.3442365527153015,0.40918412804603577,-0.07563377916812897,0.7197222113609314,1.136291265487671,-0.10641033202409744,0.23956984281539917,0.3018138110637665,0.45518746972084045,0.4042598009109497,0.0666184201836586,0.46395012736320496,0.6120476722717285,0.004646313842386007,0.006324999500066042,0.18234668672084808,-1.1099739074707031,-0.15367138385772705,-0.7262067794799805,-0.15449973940849304,0.037971727550029755,-0.6163927912712097,-0.19681334495544434,-1.0232951641082764,-0.09026318043470383,-0.0439453199505806,0.34487107396125793,0.15417009592056274,-0.24292458593845367,1.172545313835144,0.8275033235549927,0.6995686888694763,0.9309812784194946,-0.12723399698734283,0.008580601774156094,-0.5887088775634766,0.5108183026313782,0.3196134567260742,-0.23302727937698364,0.39766964316368103,-0.5515832901000977,-0.04016894847154617,-0.048630207777023315,-0.18226072192192078,0.4721740484237671,-2.4513001441955566,-0.21567043662071228,-0.5598781108856201,-0.313167005777359,-0.18915045261383057,-0.32657021284103394,-0.046172380447387695,0.9344580173492432,0.5430272817611694,0.3410700559616089,2.346583127975464,-0.16469289362430573,-0.13310208916664124,2.284618854522705,2.5148632526397705,-1.2084803581237793,0.910675048828125,-2.065936326980591,-0.8981990218162537,0.34396854043006897,0.5631493926048279,0.5515378713607788,0.7350206971168518,-0.024724388495087624,0.8532187342643738,-1.0146211385726929,1.7779510021209717,-0.31138482689857483,-0.9827442169189453,-0.312826544046402,-0.059565503150224686,0.7038716077804565,-0.7516860961914062,-0.046775877475738525,0.22551289200782776,-0.2210376113653183,-0.41182631254196167,-0.843711256980896,-0.03829053044319153,-0.7498646378517151,-0.4395154118537903,0.2765006422996521,0.11728940904140472,0.262234091758728,-0.2241361439228058,-0.011031012050807476,0.024155059829354286,0.4200093150138855,-0.16789960861206055,-1.0016955137252808,0.47204336524009705,0.3183062672615051,-0.018594523891806602,0.281731516122818,0.4543873071670532,0.08904973417520523,-0.35720139741897583,-0.2723943293094635,-0.6003525257110596,0.2251766324043274,-0.5893540978431702,0.4231248199939728,-0.48982709646224976,-0.3574097156524658,-0.3904380202293396,-0.17732717096805573,-0.011106654070317745,-0.6510290503501892,0.022677892819046974,0.49607136845588684,0.5556905269622803,0.4723888337612152,-0.3029186427593231,-0.40623828768730164,0.2929857671260834,0.5985221862792969,-0.6022522449493408,0.5870751738548279,0.35974860191345215,-0.4537161886692047,-0.708349347114563,0.21957844495773315,0.23493723571300507,0.3590725064277649,0.3259952962398529,0.31053364276885986,-0.47085779905319214,-0.6267446875572205,-0.22403760254383087,0.121843121945858,0.6201880574226379,0.5168707370758057,0.8029556274414062,0.47265708446502686,-0.31958553194999695,-0.6468261480331421,-0.38735947012901306,0.10452961176633835,0.2748279571533203,-0.8569663166999817,0.10998145490884781,0.13959604501724243,0.06826762109994888,-0.0016390279633924365,-0.04257960245013237,0.6755741238594055,0.8072346448898315,-0.10747522115707397,0.514500617980957,-0.8614301681518555,0.42782872915267944,0.22672007977962494,0.24872678518295288,-0.31662458181381226,-0.11299620568752289,0.7054656147956848,-0.05737478658556938,-0.35169199109077454,0.6338233351707458,-0.5921262502670288,-0.4407424032688141,-0.27337318658828735,-0.5628789663314819,-0.09405577182769775,0.09436550736427307,0.4656451642513275,0.4163972735404968,-0.06357277184724808,-0.37582018971443176,-0.2090103179216385,-0.012729180976748466,-0.13522832095623016,0.562982976436615,-0.030806228518486023,0.593489408493042,0.305287629365921,-0.40326976776123047,-0.5325952172279358,-0.2066783607006073,0.28628578782081604,0.10608106106519699,-0.8837560415267944,0.3468751907348633,0.06883981823921204,0.4933793246746063,0.04168948903679848,-0.02953811176121235,0.6297422051429749,0.791590690612793,0.04570556804537773,0.5032817125320435,-0.7234098315238953,0.3401184678077698,0.15797632932662964,-0.2500528395175934,-0.3555532991886139,-0.03557823970913887,0.7724257707595825,0.22271157801151276,-0.2827783524990082,0.612235963344574,-0.5084072947502136,-0.47822168469429016,0.2297147810459137,-0.22630375623703003,-0.6236243844032288,-0.6038246750831604,-0.10852738469839096,0.21685919165611267,-0.3641858994960785,0.8117536306381226,0.05229942128062248,0.034324392676353455,0.3383583724498749,0.7162153720855713,-1.2612156867980957,0.2800847291946411,-0.40469038486480713,0.503866970539093,0.5159161686897278,0.44389209151268005,-0.42417192459106445,-0.36913949251174927,0.3357374370098114,-0.31317710876464844,0.1780216097831726,-0.08735579252243042,-0.37657350301742554,-0.20046158134937286,-0.39052578806877136,-0.22215770184993744,-0.04483240842819214,-0.1383584588766098,0.22300554811954498,0.05951668322086334,0.6843440532684326,-0.06349430978298187,0.4121493697166443,0.24237613379955292,0.26000475883483887,-0.4685817360877991,0.6304844617843628,-0.6582278609275818,0.6021565794944763,0.6080592274665833]},"inputBias":{"rows":42,"columns":1,"weights":[-0.44989052414894104,-1.2233771085739136,-0.3271128237247467,-0.21697311103343964,-0.808739960193634,1.0953596830368042,-2.568450689315796,-0.48423656821250916,-0.6142578125,-0.5275442004203796,-0.32874301075935364,-0.6880990862846375,-0.5424656271934509,-1.5647844076156616,-0.5812121629714966,-1.1692122220993042,-0.3247072398662567,-0.13681834936141968,-0.9035297632217407,-1.8619509935379028,-0.36811259388923645,-0.48818933963775635,0.2682059705257416,-0.21585820615291595,-0.49038165807724,-1.239588737487793,-0.36119911074638367,0.063786581158638,-1.153402328491211,-0.600544810295105,-0.3575494587421417,-1.5823547840118408,-0.0012778285890817642,-0.6953896284103394,-1.4755668640136719,-0.8117727637290955,-0.16482332348823547,-0.6275296807289124,-0.4068142771720886,-0.5595211386680603,-0.6022771596908569,-0.24790669977664948]},"forgetMatrix":{"rows":42,"columns":16,"weights":[0.43978890776634216,-0.20578783750534058,0.008494727313518524,-0.699860155582428,-0.2855701446533203,-0.48386040329933167,-0.18423748016357422,-0.2702426314353943,-0.3241558074951172,-0.23947203159332275,0.08778077363967896,-0.4573362171649933,0.468961626291275,-0.3849041759967804,-0.4407176673412323,-0.36124077439308167,-0.6746662259101868,-0.11312070488929749,-0.17132608592510223,0.9730335474014282,-0.8514901399612427,-0.09712295979261398,0.7657967805862427,0.6827042698860168,0.13278187811374664,0.8248836994171143,-0.8123223781585693,-0.11836247891187668,-0.4919174909591675,0.11192230880260468,1.0873630046844482,0.6777127385139465,-0.1857260912656784,-0.4833880364894867,0.14454396069049835,0.29604578018188477,-0.5060402154922485,-0.17265759408473969,0.004012138117104769,-0.1203787624835968,0.10473086684942245,0.1556929349899292,-0.6068866848945618,-0.9651860594749451,-0.14426477253437042,0.039106737822294235,0.5244991779327393,0.3192582428455353,-0.6310320496559143,0.23187145590782166,0.6922098994255066,0.3148430585861206,-0.6246148347854614,-0.4486341178417206,0.36195212602615356,0.5759949088096619,0.7670753598213196,0.17329230904579163,-0.26803460717201233,-0.37745314836502075,-0.8702625632286072,0.7092601656913757,0.3345125615596771,0.6449530720710754,0.3172237277030945,-0.04829099029302597,0.21048259735107422,-0.38015538454055786,0.5181688666343689,0.19228030741214752,-0.27672985196113586,-0.3812127709388733,-0.11644113808870316,-0.5013205409049988,0.34752157330513,-0.7921059131622314,0.12012755125761032,0.09232697635889053,-0.24409514665603638,-0.39063894748687744,1.2663486003875732,0.1656685322523117,-0.9393352270126343,-2.42213773727417,1.9965863227844238,1.143086314201355,0.13511373102664948,-1.6081676483154297,-1.3940377235412598,-1.387761116027832,0.003262469545006752,0.5694639086723328,2.0133700370788574,-0.5294197797775269,0.7091793417930603,-2.1104414463043213,0.25017526745796204,1.1456806659698486,1.41471529006958,-0.6287004351615906,0.1674542874097824,-2.0262644290924072,-0.774520754814148,-0.5246317982673645,0.5436685085296631,-0.7258184552192688,0.5538589954376221,-1.6467115879058838,-0.24449853599071503,0.5714392066001892,-2.290618896484375,0.09725205600261688,0.44163501262664795,-0.26730573177337646,0.12100828438997269,0.12566643953323364,-0.3528369963169098,-0.3085164725780487,-0.6725143194198608,-0.1698305606842041,-0.47615188360214233,0.13316622376441956,0.25612667202949524,-0.18583711981773376,0.49124088883399963,-0.3200271725654602,-0.015214727260172367,-0.06745217740535736,0.7967501878738403,-0.2928909957408905,-0.27323785424232483,-0.784366250038147,0.8590325117111206,0.7849987149238586,-0.5408338904380798,-0.6824848651885986,-0.3576171398162842,-0.7347819805145264,0.626022219657898,0.10210665315389633,0.492575079202652,-0.36105331778526306,-0.13099034130573273,-0.8917154669761658,-0.0790456160902977,-0.4710131883621216,0.3164471685886383,0.7400070428848267,-0.6728551387786865,-0.14784188568592072,0.6972725987434387,0.09538979083299637,-0.13015292584896088,0.6708853840827942,-0.39247018098831177,-0.7314114570617676,0.016692237928509712,0.3077370226383209,0.057321593165397644,-0.011447954922914505,0.05198272690176964,0.5142850875854492,0.8123887181282043,-0.407252699136734,0.30606809258461,-0.12456786632537842,-0.07637901604175568,-0.31563910841941833,0.9534206986427307,-0.371214896440506,0.20731927454471588,-0.7062737345695496,-0.28970563411712646,0.75445955991745,-0.2754300534725189,-0.10374801605939865,-0.20373639464378357,-0.28599631786346436,-0.1449950784444809,0.4308215379714966,-0.4220850169658661,0.0018381691770628095,0.5374084711074829,0.22884228825569153,-0.17775562405586243,0.3631584942340851,-0.3744390606880188,0.05175315961241722,0.036225005984306335,-0.19407857954502106,0.6916943192481995,0.1722153127193451,0.24467624723911285,-0.24580685794353485,-0.05131115764379501,-0.11319723725318909,-0.18634767830371857,-0.22385942935943604,-0.2664864957332611,-0.16515286266803741,-0.23630724847316742,-0.05566014349460602,0.09871319681406021,0.20769067108631134,0.2458888292312622,-0.21230179071426392,0.009560741484165192,-0.07276538014411926,0.365242063999176,-0.6826632022857666,-0.894977331161499,-0.7862120866775513,0.6963928937911987,0.5315957069396973,-0.5555171966552734,-0.6141936182975769,-0.8093892931938171,-0.6588788628578186,0.5641226172447205,0.6038724780082703,0.6585831642150879,-0.8414732813835144,0.4806922972202301,-0.47033482789993286,-0.17265160381793976,0.0028926553204655647,0.593265950679779,1.0967196226119995,-1.0671095848083496,-0.6030915379524231,0.21220660209655762,0.6928132772445679,0.27170026302337646,0.6966301798820496,-0.2949419319629669,-0.6153895258903503,-0.46258968114852905,0.41175052523612976,-0.13791784644126892,0.7576557397842407,-0.5292385220527649,-1.1581631898880005,-0.9313263297080994,0.03749482333660126,0.08908271789550781,0.3128623962402344,-0.26956602931022644,-0.050761643797159195,-0.44323909282684326,-0.02678830362856388,0.41792094707489014,1.157719612121582,0.2524735927581787,-0.7424492835998535,1.1558884382247925,0.2570815980434418,-0.2469107210636139,-1.2487910985946655,-1.1338884830474854,-0.3857046961784363,0.49085521697998047,0.4699999988079071,-0.4575972259044647,-0.5619969367980957,-1.0564998388290405,-0.4384444057941437,0.47882649302482605,1.039530873298645,0.9438590407371521,-1.1586837768554688,1.0647296905517578,0.09959942102432251,-0.004582765977829695,-0.39660459756851196,-0.37710946798324585,0.2945471704006195,-0.23917020857334137,-0.006946851033717394,-0.005825431551784277,0.060667578130960464,-0.30760809779167175,0.287614107131958,-0.06737285107374191,0.4111993908882141,0.013708106242120266,-0.5034410357475281,1.035136342048645,-0.22231319546699524,1.1661527156829834,-1.232621669769287,-1.1118084192276,-1.067521095275879,1.0700916051864624,0.8939471244812012,-0.9030226469039917,-1.2939306497573853,-1.4693078994750977,-0.8304805755615234,0.5670250058174133,1.3659446239471436,1.5693936347961426,-1.5554745197296143,0.21372556686401367,-1.2346851825714111,-0.5623684525489807,-0.04280385375022888,-0.05131913349032402,0.8248943090438843,-0.6498843431472778,-0.5461883544921875,0.4274447560310364,0.45201122760772705,0.39391419291496277,0.5508906841278076,-0.3826429545879364,0.06473424285650253,-0.774590253829956,0.5271133780479431,0.9102461338043213,0.6960628032684326,-0.05973139777779579,0.6419054269790649,0.8322880268096924,0.21047472953796387,-0.36521676182746887,-0.5849757194519043,0.1360943466424942,0.3121112883090973,0.5539425015449524,0.43458157777786255,-0.42953184247016907,-0.8347775340080261,-0.3889956772327423,0.5295127630233765,-0.6865140795707703,0.3621460795402527,0.03571426495909691,-0.13097459077835083,-0.09427428245544434,0.35538676381111145,-0.21785040199756622,-0.2902096211910248,-0.08352798968553543,0.023578593507409096,-0.05750546231865883,0.18719442188739777,0.04862464964389801,-0.026848293840885162,0.06790391355752945,-0.10054314881563187,0.38892537355422974,-0.16627313196659088,-0.03165394812822342,-0.2527496814727783,0.1066461130976677,-0.29635506868362427,-0.2510526180267334,-0.08982726186513901,0.07150360941886902,0.24661953747272491,0.11087094247341156,0.2854832708835602,-0.22815077006816864,0.10773994773626328,-0.1700506955385208,0.25786250829696655,-0.0646827220916748,0.13929571211338043,-0.17757244408130646,0.44329845905303955,0.5100792050361633,0.1291792243719101,0.06238074600696564,0.2569577097892761,0.14944174885749817,0.16525542736053467,0.524722158908844,0.25846752524375916,-0.26804882287979126,-0.7436558604240417,-0.33066022396087646,0.6053051948547363,-0.6114897131919861,0.013536829501390457,-0.09466429054737091,-0.06764267385005951,-0.41636428236961365,-0.5070810914039612,0.40192633867263794,0.29400625824928284,0.06789769232273102,-0.048434626311063766,0.062335796654224396,-0.39379170536994934,-0.06992155313491821,0.3912658989429474,0.026878397911787033,-0.0831977128982544,0.45631954073905945,-0.19198602437973022,0.36399105191230774,-0.8138027191162109,-1.234906554222107,-1.590039849281311,1.3904271125793457,0.9259932637214661,-0.5289432406425476,-1.2762491703033447,-1.6227686405181885,-1.0089904069900513,0.26940861344337463,0.5559297204017639,1.779090404510498,-1.2605167627334595,0.6194032430648804,-0.5170963406562805,0.10446321964263916,-0.6766672730445862,-0.8928402066230774,-0.40995800495147705,0.4461488425731659,0.4414987862110138,-0.7421407699584961,-0.677752673625946,-0.9105998873710632,-0.5180104970932007,0.49387452006340027,0.5294936895370483,0.7397129535675049,-0.8438972234725952,0.37301135063171387,-0.33752548694610596,-0.5732048153877258,-1.3985044956207275,-1.4397085905075073,0.08973682671785355,-0.03858857601881027,0.1301315426826477,0.18186156451702118,-0.06728315353393555,-1.2510442733764648,-0.14423824846744537,0.20105256140232086,0.5301873683929443,0.6712637543678284,-1.3797879219055176,0.8933079242706299,0.5018727779388428,0.8683770895004272,-0.3808625340461731,0.0008935204241424799,-0.9721904993057251,0.72511887550354,0.6461095213890076,-0.8053199648857117,-0.8993344306945801,-0.49748170375823975,-0.7539323568344116,0.912733256816864,-0.08069438487291336,0.8312355875968933,-0.4340653419494629,0.19478942453861237,-0.7680070400238037,0.5362139344215393,0.39270859956741333,0.8277974724769592,-0.420219749212265,0.17541682720184326,0.02682259865105152,0.36658942699432373,-0.64217209815979,0.2266785055398941,0.29118913412094116,-0.6254515051841736,-0.9132685661315918,0.5589120388031006,0.22950142621994019,-1.392175316810608,-0.618861734867096,0.3880191743373871,-0.7277013659477234,-0.41660046577453613,0.45017173886299133,-0.5833548307418823,-0.2755741477012634,-0.2852650284767151,-0.05866524949669838,-0.9257521629333496,0.36751970648765564,0.12059030681848526,-0.34212610125541687,0.7397879958152771,-0.8074619770050049,0.05488371104001999,0.09198567271232605,0.20890985429286957,1.127987027168274,1.7375743389129639,0.1431909054517746,-0.028997506946325302,0.15652108192443848,-0.25092196464538574,-0.2399677336215973,1.456162452697754,-0.3079148232936859,0.36483386158943176,-1.7723548412322998,-0.8270655870437622,1.350683569908142,-1.0838854312896729,0.06444403529167175,-0.24060025811195374,0.192603200674057,0.18898718059062958,0.04314509406685829,0.9435945153236389,0.5620583295822144,-0.29350778460502625,0.08453547954559326,0.46088454127311707,-0.5285350680351257,0.4728008508682251,0.1627243012189865,-0.3759174942970276,0.403538316488266,0.7163859009742737,0.2883879542350769,0.8287937641143799,-1.1646053791046143,-1.185778260231018,0.1233564242720604,-0.00840726401656866,0.8956036567687988,0.26670098304748535,-0.35401055216789246,-1.4311305284500122,0.2229141741991043,-0.23347026109695435,0.4952797293663025,1.4605406522750854,-1.245126724243164,1.1232813596725464,-0.6730878949165344,0.6531633138656616,0.8182111978530884,0.03232194855809212,-0.5949384570121765,0.4900995194911957,-0.17531855404376984,-0.7153397798538208,-0.7108383178710938,-0.2313864678144455,-0.5469889640808105,0.6108037233352661,0.4185126721858978,0.42838141322135925,-0.42744290828704834,0.2657843828201294,-0.6268454194068909,-0.2265290766954422,-1.2207202911376953,-1.1057497262954712,0.009066269733011723,0.10909492522478104,0.678996741771698,-0.2941683232784271,-0.3279606103897095,-0.9213452935218811,-0.00909617729485035,0.20385783910751343,0.8876739144325256,0.6185384392738342,-0.9671304821968079,1.1088517904281616,0.19436398148536682,-0.006150069646537304,-0.7054380774497986,-0.8736335635185242,-0.766654908657074,0.8239003419876099,0.6410433650016785,-0.2670043408870697,-0.8269913196563721,-0.6890344023704529,-0.7546045184135437,0.7350095510482788,0.22379708290100098,0.7379028797149658,-0.7508307695388794,0.04918167367577553,-0.12934428453445435,-0.6237736344337463,0.007542815059423447,0.38036608695983887,0.8469654321670532,-0.7799042463302612,-0.36129632592201233,0.8930763006210327,0.47091642022132874,0.380159467458725,0.4406697452068329,-0.6083205938339233,0.008476070128381252,-0.6846044063568115,0.6393632292747498,0.2820962071418762,0.6566063761711121,0.0460783913731575,-0.693017303943634,-0.7517479062080383,-0.26164448261260986,0.24004504084587097,0.3149309754371643,-0.02752908132970333,-0.25427064299583435,-0.7162057757377625,-0.14499296247959137,0.1651390641927719,0.8391827344894409,0.4608362317085266,-0.7384748458862305,0.8070447444915771,-0.25486379861831665,0.007366705220192671,0.20776787400245667,0.3353184759616852,0.5202061533927917,-0.6926496624946594,-0.4981813132762909,-0.019989419728517532,0.3178839087486267,0.1857379823923111,0.3779672384262085,-0.17646697163581848,-0.42210832238197327,-0.23302793502807617,0.2547067403793335,-0.3027630150318146,0.17491507530212402,0.5526971220970154,-0.39670076966285706,0.14038118720054626,0.31547966599464417,-0.3647131621837616,-0.48236557841300964,-0.5993874669075012,-0.16219072043895721,-0.48067575693130493,0.32735875248908997,0.35290491580963135,-0.1540987491607666,0.45768046379089355,-0.4451647698879242,0.03773336857557297,-0.10739777237176895,0.26002565026283264,-0.08979915827512741,-0.025041624903678894,-0.5915406346321106,0.5419566631317139,0.6268643140792847,-0.3108378052711487,-0.35795485973358154,-0.023823898285627365,-0.47343724966049194,0.29506728053092957,-0.6260247826576233,0.12386338412761688,-0.09759368002414703,-0.21396280825138092,-0.2994346022605896]},"forgetHidden":{"rows":42,"columns":42,"weights":[1.1030199527740479,-0.1833006590604782,-0.7306675314903259,-0.7068278789520264,-0.3448685109615326,0.11409878730773926,-0.652665376663208,1.0111087560653687,0.9298374652862549,0.6072646379470825,0.24706369638442993,0.165330708026886,-0.8921195864677429,-0.4015967547893524,-0.7462050318717957,0.42428961396217346,0.9229831099510193,0.5600992441177368,0.08031343668699265,-0.3680587410926819,1.016731858253479,0.029528800398111343,-0.08349687606096268,-0.41530123353004456,-0.0909942090511322,0.34525254368782043,-0.32936275005340576,-0.7349718809127808,0.7226805686950684,0.179277703166008,1.1212100982666016,-0.18963903188705444,-0.14549046754837036,-0.8420751690864563,0.8666107058525085,0.5354177951812744,-0.8291093707084656,-0.6338400840759277,0.9981829524040222,-0.7472726702690125,0.8166719079017639,1.0931200981140137,0.6936861872673035,1.2063987255096436,0.41087770462036133,0.31000760197639465,0.1481589674949646,0.8517806529998779,-0.661028265953064,0.6995180249214172,-0.3399592936038971,-0.5881146788597107,-0.46255260705947876,-0.4796346127986908,-0.5447152256965637,-0.06568426638841629,-0.6883596777915955,-0.41408202052116394,-0.14372876286506653,-0.5725089311599731,-0.07873650640249252,0.683118999004364,0.3391765058040619,0.35068219900131226,0.0778377503156662,-0.3257625699043274,-0.6905404329299927,-0.7656092643737793,-0.07264117151498795,0.01745176687836647,-0.582122266292572,-0.16508379578590393,0.4972851574420929,-0.19837407767772675,-0.26745685935020447,-0.27336105704307556,-0.48505643010139465,-0.34426602721214294,-0.09158150851726532,-0.2356685996055603,-0.5503302812576294,-0.7391595840454102,0.8161505460739136,-0.2656802833080292,0.3624739646911621,-0.4935527443885803,0.22671803832054138,0.5401686429977417,1.36602783203125,0.09058696776628494,0.9584903717041016,-0.11584541946649551,0.011366325430572033,0.2754911780357361,0.377095103263855,0.8379921317100525,0.9415315389633179,0.3577311038970947,0.09124304354190826,-0.08241146057844162,-0.20243029296398163,-0.08219496160745621,0.2999621033668518,0.5122349858283997,-0.3492276966571808,0.21469563245773315,0.7564868330955505,-0.757485032081604,1.002435564994812,0.40295857191085815,0.7713375687599182,0.14716409146785736,0.3437402844429016,1.2020796537399292,-0.3529999256134033,0.7796600461006165,-0.39462682604789734,0.0736628994345665,-0.14112603664398193,0.39281314611434937,-0.35484397411346436,0.9314586520195007,-0.02834458462893963,1.562002420425415,-1.3618285655975342,-0.19055306911468506,-0.5753353834152222,-0.024355649948120117,0.1097453162074089,-0.5863880515098572,0.4467829763889313,-0.2729397714138031,0.5829764008522034,-0.8687319159507751,-0.6411300897598267,-0.3679240942001343,-0.34661439061164856,-0.37991222739219666,0.30492812395095825,-0.17539872229099274,1.0445257425308228,0.30728185176849365,-0.5707987546920776,-0.8721141815185547,0.41948965191841125,0.432875394821167,-0.861458420753479,-0.019966308027505875,0.11093022674322128,0.212943434715271,0.09560898691415787,0.8512741923332214,-0.1339496672153473,0.7671685814857483,-0.15670327842235565,0.4021261930465698,-0.9409562349319458,-0.10479756444692612,-0.10834722220897675,0.01974637806415558,-0.6805539131164551,-0.09610497951507568,0.04359551891684532,-0.05797882378101349,-0.7436526417732239,1.148520827293396,-1.0906256437301636,-0.6568962335586548,0.26688262820243835,0.49647149443626404,0.7787358164787292,1.313138484954834,-0.2651000916957855,0.13698647916316986,0.19317348301410675,0.4221431314945221,0.14813721179962158,0.39527642726898193,-0.058101337403059006,-1.0599684715270996,1.509387493133545,-0.8071199059486389,0.21240921318531036,-0.07873141020536423,0.5273905992507935,0.2837645411491394,-0.8297445774078369,-0.2515248656272888,-0.2577193081378937,-0.45030462741851807,-0.12290316075086594,0.49016669392585754,-0.424874871969223,0.4120536148548126,-1.0635144710540771,-0.19615894556045532,0.06320013850927353,-1.9358153343200684,0.11284520477056503,-1.3238248825073242,-1.0638000965118408,0.6549047827720642,-0.033167216926813126,0.7051790952682495,-0.7267698645591736,0.018440768122673035,1.0340393781661987,0.5141963362693787,-0.3847743570804596,-0.4464726448059082,0.25720977783203125,0.4035767912864685,-0.3011004328727722,-0.29089394211769104,-0.0632392168045044,0.07940088957548141,0.3556698262691498,0.008561312220990658,0.31082984805107117,0.44454360008239746,0.8504899144172668,0.29184821248054504,-0.024610748514533043,-0.5807229280471802,-0.33387377858161926,0.789830207824707,0.9860537052154541,0.8194209933280945,2.010784387588501,-0.7135504484176636,0.4127989709377289,1.0326926708221436,0.4119272828102112,-0.26499199867248535,0.011973871849477291,0.5006921887397766,-1.125232219696045,-0.34641411900520325,0.6361116766929626,0.3056078553199768,0.22537241876125336,0.580575704574585,0.6616997718811035,0.2882414162158966,0.22634778916835785,1.0961694717407227,-0.8957110643386841,-0.2665883004665375,0.324110746383667,-0.3107060194015503,0.025642262771725655,0.27250397205352783,-0.24823981523513794,-0.9099699258804321,-0.8464334607124329,-1.0213598012924194,0.39945361018180847,1.1287914514541626,-0.4198596179485321,-0.5059053301811218,0.7454277873039246,0.24376673996448517,0.3591567575931549,1.2141342163085938,-0.8922968506813049,0.188349649310112,-0.64762943983078,0.004672499839216471,0.012354999780654907,0.5068149566650391,2.008777618408203,-0.3870422840118408,0.33143237233161926,0.5807263851165771,0.1714283525943756,-0.312766432762146,1.218471884727478,1.313625693321228,0.15369915962219238,-0.4707118570804596,0.6634829044342041,0.9738063216209412,0.2728440463542938,0.37460365891456604,0.5343382358551025,-1.456179141998291,1.4898338317871094,0.03359636291861534,0.05982835963368416,1.244003415107727,0.7168676853179932,-0.26011985540390015,0.1859847903251648,0.4887314736843109,0.9302423000335693,-0.08259457349777222,-0.8470052480697632,-1.0576790571212769,-0.1945071667432785,0.2118632048368454,-0.1322745829820633,0.7944291234016418,0.6426176428794861,0.2991153597831726,0.12239313870668411,0.019377119839191437,-0.5046391487121582,-0.35884740948677063,-0.9296985864639282,0.35532355308532715,0.7102254629135132,0.6973034739494324,0.12346278131008148,-0.5691764950752258,0.2938850224018097,0.18772852420806885,-0.14611026644706726,-0.2387685924768448,0.391047865152359,0.06564987450838089,-0.20164091885089874,-0.6747744679450989,0.5980644822120667,-0.24643242359161377,0.76764976978302,-0.2319156676530838,0.08870057761669159,-0.701818585395813,0.8276891112327576,0.48860791325569153,-0.4960755407810211,0.2472624033689499,0.7809207439422607,-0.3212815821170807,0.4672020673751831,0.8848876953125,0.5202452540397644,-0.4902224838733673,-0.05364375188946724,0.06525847315788269,0.41083815693855286,0.6032112240791321,0.31043314933776855,0.11367761343717575,-0.11568944901227951,0.7458744645118713,0.7864651679992676,0.12986977398395538,-0.06856975704431534,-0.30893000960350037,0.1251601129770279,-0.23277735710144043,0.19969075918197632,0.23460185527801514,0.30088332295417786,-0.3169247508049011,-0.1103438064455986,0.18414075672626495,0.4469444155693054,-0.3504858613014221,-0.2574728727340698,0.5399316549301147,-0.4661286771297455,-0.1696791648864746,0.4884793162345886,0.4300754964351654,-0.17648252844810486,0.6153290271759033,0.48975199460983276,-0.6492512226104736,0.12631756067276,0.41712334752082825,-0.39296233654022217,-0.2614907920360565,0.47733888030052185,0.21996815502643585,0.11185949295759201,-0.002660486614331603,1.0243357419967651,0.6291142106056213,0.29824361205101013,0.05253279209136963,0.185796320438385,0.37650442123413086,0.3261684775352478,0.20112404227256775,0.09905058145523071,-0.1325893998146057,-0.17992664873600006,-0.2233763337135315,-0.4384597837924957,0.284557968378067,-0.26227742433547974,-0.45954471826553345,-0.12078390270471573,-0.7217435240745544,0.383939653635025,0.29000043869018555,-0.004657955374568701,0.2867024540901184,0.4737204611301422,-0.03395932912826538,-0.2570887804031372,0.06052105128765106,0.4358171224594116,1.0366765260696411,0.3394406735897064,0.3150976300239563,0.2483574002981186,0.4724012315273285,-0.2224753051996231,-0.3782137930393219,-0.33940044045448303,-0.699267566204071,0.42235955595970154,-0.7997267246246338,-0.2496536523103714,0.1507251262664795,0.39022883772850037,-0.2184334546327591,1.1914485692977905,-0.08110465109348297,-0.18956290185451508,-0.33606040477752686,0.24639801681041718,1.6325105428695679,0.8598324060440063,0.9746402502059937,0.43201830983161926,0.24365109205245972,-0.11094406247138977,0.2955510914325714,0.03308549150824547,0.05257720500230789,-0.6364530920982361,-0.601595401763916,-0.21182139217853546,-0.44659504294395447,0.7023134231567383,0.43415576219558716,-0.10107695311307907,0.7141686677932739,0.3346833884716034,0.17795707285404205,-0.5451541543006897,0.6272367238998413,0.2119118571281433,0.9351130127906799,0.568384051322937,1.066786289215088,-0.3108542859554291,0.3978082239627838,0.1843165010213852,-0.6523600220680237,0.04210938885807991,-0.03816596046090126,0.10475603491067886,-0.9791187047958374,-0.6645641922950745,0.6249679923057556,-0.739780068397522,0.10288041085004807,1.206499457359314,0.4194816052913666,-0.23457708954811096,-0.25632444024086,0.29202884435653687,-0.34802594780921936,-0.04297538474202156,1.3931628465652466,-0.2111738622188568,-0.38717159628868103,-0.3506763279438019,-0.25816676020622253,-0.45989370346069336,-0.0035388076212257147,-0.9711909294128418,-0.5829604268074036,0.06905871629714966,-0.45241057872772217,0.669139564037323,0.6747162342071533,0.848152220249176,0.5090568661689758,0.6705726981163025,0.2412678450345993,-0.008754986338317394,-0.3285197615623474,-0.026217777281999588,-0.1966904103755951,-0.4834773540496826,0.6730856895446777,0.9389996528625488,0.5921443700790405,0.3565571904182434,-0.6515649557113647,-0.3618749678134918,-0.14347058534622192,-0.059630922973155975,-0.4701184928417206,-0.7214152216911316,-0.40310168266296387,0.38335084915161133,0.030675021931529045,1.048732042312622,-0.15899646282196045,-0.7363598942756653,-0.2625485956668854,-0.014651356264948845,0.13016904890537262,-0.6440327167510986,0.8947951197624207,0.4922501742839813,0.22320151329040527,0.034282080829143524,0.3944976329803467,-0.8646503686904907,-0.21974489092826843,-1.0520985126495361,0.25336238741874695,0.38901370763778687,0.4209795594215393,0.3897727131843567,-0.47574886679649353,0.8678255081176758,0.318690687417984,0.09368540346622467,-0.04998861998319626,-0.11934536695480347,0.23587022721767426,-0.05264555290341377,-0.4286150336265564,0.38546761870384216,0.13497355580329895,0.77696293592453,0.03869634494185448,-0.0492711178958416,-0.6413813233375549,0.5791372656822205,0.17003807425498962,-0.1393953114748001,-0.1660710722208023,0.5204505324363708,-0.8195713758468628,0.7926921248435974,0.7159308791160583,0.09332504868507385,-0.2807901203632355,-0.4473285675048828,-0.39068931341171265,0.25522714853286743,0.7450481057167053,0.43762218952178955,0.14375919103622437,0.5192521810531616,0.2989318370819092,0.48812276124954224,0.23791860044002533,-0.1688012033700943,-0.25730568170547485,0.5317013263702393,0.2733100950717926,0.05872292444109917,0.29264044761657715,0.077528215944767,-0.1775534451007843,-0.32937321066856384,0.14848552644252777,0.21290650963783264,-0.3045404851436615,-0.3081081211566925,-0.1707567721605301,-0.14891980588436127,-0.2545442283153534,0.2672525942325592,0.19747410714626312,-0.19963230192661285,0.3955858051776886,0.3371538817882538,-0.2575259506702423,0.28786328434944153,0.2534867525100708,-0.23828361928462982,-0.28719234466552734,0.3521350622177124,-0.1613372266292572,0.2276407778263092,0.5058612823486328,0.3673398792743683,-0.16768553853034973,-0.20648959279060364,-0.5294068455696106,0.18585339188575745,0.36599305272102356,-0.10905848443508148,0.5291047096252441,0.33663514256477356,-0.008737779222428799,-0.07824011147022247,0.3254695236682892,-0.658565878868103,0.22198644280433655,-0.02565878815948963,0.12066374719142914,0.00882720947265625,0.45384639501571655,0.5422734022140503,-0.4961245656013489,-0.07662633061408997,0.6329070329666138,0.03612389788031578,-0.044949572533369064,0.3314492404460907,-0.009840721264481544,0.07600628584623337,-0.331375390291214,0.06139712780714035,0.2321394681930542,-0.21190232038497925,0.23132134974002838,-0.22968947887420654,-0.44116079807281494,0.5778928399085999,-0.05560396984219551,0.45749422907829285,-0.02285621501505375,0.2188992202281952,-0.49479225277900696,0.7087550759315491,0.41638466715812683,-0.829333484172821,-0.009521102532744408,-0.3166981339454651,0.3116561770439148,0.5675281882286072,1.8560998439788818,1.037738561630249,-0.9266105890274048,0.5332022905349731,-1.1530661582946777,-0.9161415100097656,-0.2780136466026306,0.2359481304883957,0.17680524289608002,-0.26095858216285706,-0.2887445390224457,-0.07963068038225174,-0.09706002473831177,0.36867430806159973,1.124266266822815,-1.3449842929840088,-0.31696078181266785,-0.22504957020282745,0.08812668174505234,-0.09427183121442795,-0.07472971081733704,0.0721878707408905,0.2977728545665741,-0.8074257373809814,-0.15801197290420532,-0.6147207617759705,-0.33326485753059387,0.3274994492530823,-0.37277376651763916,-0.6249270439147949,0.0014434655895456672,0.08617807924747467,0.27810409665107727,0.07209984958171844,1.1391152143478394,-0.7810794711112976,-0.49461159110069275,-0.04877155274152756,-0.5224688649177551,-0.07764019072055817,0.1557483673095703,0.13858269155025482,0.5520114302635193,0.03744417056441307,0.06274578720331192,0.7086946964263916,0.02590017206966877,-0.0974811241030693,0.45624348521232605,-0.17213453352451324,-0.2817192077636719,0.17464670538902283,0.37590333819389343,0.01232836302369833,0.2613752484321594,-0.13828256726264954,-0.29929807782173157,-0.17291799187660217,-0.15048611164093018,0.2706705331802368,-0.28972578048706055,-0.42363399267196655,-0.356426864862442,-0.2567805349826813,-0.45250263810157776,-0.21640510857105255,0.012045538984239101,-0.18277797102928162,0.3025643825531006,0.668614387512207,-0.504845917224884,0.09137618541717529,0.24846874177455902,-0.25620466470718384,-0.12091164290904999,0.3550056219100952,0.5999192595481873,-0.1914745569229126,0.5313946008682251,0.5026127099990845,0.8213234543800354,1.1429067850112915,0.914487361907959,0.7480875849723816,0.3870818614959717,1.258122444152832,-0.1308373361825943,-0.27697595953941345,-0.5795637369155884,-0.26410725712776184,-0.2879984974861145,0.49344542622566223,0.2664533257484436,-0.036590348929166794,-0.7503221035003662,-0.420582115650177,-1.1220688819885254,0.3180648386478424,0.9947043061256409,-0.2753226161003113,0.4216536283493042,0.8273627758026123,-0.0073180291801691055,-0.3060598373413086,0.2271171510219574,0.306082546710968,0.6664313077926636,-0.8027269244194031,1.0396608114242554,-0.5020381808280945,1.144075632095337,-0.3042041063308716,-0.3335878551006317,-0.5767651796340942,-0.676876962184906,0.44461002945899963,-1.448845386505127,-1.175977349281311,0.5775473713874817,-0.4171489477157593,-0.39469146728515625,0.06438715755939484,-0.3309398889541626,0.1904696375131607,0.038187138736248016,-0.20819605886936188,-0.1729278415441513,0.37667104601860046,0.1627134084701538,-0.4303378164768219,-0.47045740485191345,-0.624316930770874,0.4248002767562866,0.3771045207977295,0.5939757823944092,-0.34780505299568176,-0.4121439754962921,-0.2825099229812622,-0.061688270419836044,-0.09259239584207535,0.13398315012454987,0.14300405979156494,-0.08846987783908844,-0.22408555448055267,-0.2485547661781311,0.17232121527194977,0.7363706231117249,0.17716670036315918,0.23895303905010223,-0.28658437728881836,-0.7202418446540833,0.1311124563217163,0.09792128950357437,-0.1959131956100464,-0.03191829100251198,0.01578810065984726,-0.10926183313131332,0.2096794843673706,0.4159163534641266,-0.11118517816066742,-0.05347970128059387,-0.08606156706809998,0.009177634492516518,0.18659423291683197,0.499825119972229,0.5444760918617249,0.8298379182815552,0.9341719150543213,1.6904040575027466,-0.16744233667850494,-0.205035001039505,0.051735129207372665,-0.4038160741329193,-0.2939692437648773,0.24789443612098694,-0.5208937525749207,0.25977635383605957,-0.42150190472602844,0.6219789981842041,-0.4349237084388733,-0.8448214530944824,-0.5267406702041626,1.2580780982971191,-0.9359905123710632,1.0774232149124146,0.4496428668498993,0.3940353989601135,-1.3542317152023315,-0.18468382954597473,0.28603410720825195,0.4242922067642212,-0.3522080183029175,2.4042391777038574,-0.8329787850379944,1.381273627281189,-0.2882944941520691,0.2515857219696045,1.106191635131836,-0.5335250496864319,0.40360239148139954,-2.6516733169555664,-0.4378577768802643,0.3592112958431244,0.12424542009830475,-0.10858535021543503,-0.04656638205051422,-0.33162447810173035,-0.3998594880104065,-0.47913455963134766,-0.023290421813726425,0.18368001282215118,0.22652378678321838,0.0032209143973886967,1.0758908987045288,0.8735755681991577,0.27309533953666687,0.22671225666999817,-0.9630400538444519,0.5395509600639343,0.2074679285287857,0.46226420998573303,0.2976360023021698,0.7611989974975586,0.22962135076522827,-0.7338443994522095,-0.03459647670388222,0.24490904808044434,-1.124104619026184,0.016367601230740547,0.7353461384773254,-0.6932185292243958,0.4660387337207794,-0.33853575587272644,0.6949883699417114,-0.2770778238773346,-0.037921883165836334,-0.08369004726409912,0.022276408970355988,-0.30610713362693787,1.0947092771530151,0.7615769505500793,0.409352570772171,0.44173815846443176,1.1581450700759888,0.03311139717698097,-0.5983021855354309,0.3702607750892639,0.20653477311134338,0.30063596367836,0.22085949778556824,0.4623107612133026,-0.3005298972129822,1.183443546295166,-0.8011388182640076,0.11284197866916656,-0.6717767119407654,-0.5987061858177185,-0.5576717257499695,-0.22718586027622223,0.20281444489955902,0.7181481122970581,-0.5462936758995056,-0.896307647228241,-0.3291018009185791,-0.3317185938358307,-0.45994487404823303,0.7089878916740417,-0.05445728078484535,-0.17881059646606445,-0.15393587946891785,0.38454505801200867,-0.15262819826602936,0.015732767060399055,0.5639500021934509,0.5440303087234497,-0.5190055966377258,-0.2941869795322418,-0.030807126313447952,-0.31323668360710144,-0.5886322855949402,-0.3038603663444519,-0.304020494222641,-0.7150523662567139,0.48683473467826843,-0.8255587816238403,-0.7590972781181335,-0.30883273482322693,0.2939769923686981,-0.2487870156764984,0.3768416941165924,-1.1355544328689575,0.32780030369758606,0.5337091088294983,0.7763686180114746,6.720314979553223,-1.8588931560516357,0.32446640729904175,0.13026869297027588,0.3837793171405792,0.5397406816482544,1.2687088251113892,-0.2687259614467621,0.11488649994134903,-0.5457814335823059,1.1839771270751953,-0.4041002094745636,-0.304039865732193,0.34884870052337646,-0.7293664216995239,0.7501540780067444,0.3598262667655945,1.060744047164917,-2.2932872772216797,0.12485474348068237,0.08169150352478027,0.20048405230045319,-0.023071736097335815,-0.1638607680797577,1.2698627710342407,0.5348815321922302,-2.0782370567321777,0.4358627498149872,-0.08278464525938034,-0.39296847581863403,-0.05797743424773216,0.281524121761322,-0.5320491790771484,0.2401665300130844,-0.13425728678703308,0.22885535657405853,0.017930420115590096,0.7662975788116455,-0.7078549265861511,0.7565400004386902,0.7109911441802979,0.8195191621780396,0.9067745804786682,-0.21684570610523224,1.2527964115142822,-0.07758662104606628,0.06440553069114685,-0.040511731058359146,0.49737247824668884,-0.5586568117141724,-0.07199692726135254,-0.37477466464042664,-0.5405319333076477,-0.05613469332456589,-0.11492244154214859,0.5222452878952026,-0.15624289214611053,0.019707046449184418,0.38994383811950684,1.3842480182647705,-0.2415698766708374,-1.4760186672210693,0.8247453570365906,-0.15453781187534332,-0.11276959627866745,-0.7434607744216919,0.45873674750328064,-0.16380366683006287,0.9787654876708984,-0.10620345175266266,-0.6491684913635254,-0.11110272258520126,-0.41344237327575684,-0.1040085107088089,-1.0573502779006958,0.1394822895526886,-0.3206428587436676,0.31338101625442505,-0.0008560318383388221,-0.14657080173492432,-0.2838994860649109,-0.19240108132362366,-0.2718225121498108,0.6737649440765381,0.4456401765346527,1.0914500951766968,-0.10535434633493423,-0.15957795083522797,1.2047314643859863,0.6689602732658386,0.3763710558414459,1.135514736175537,0.4828818142414093,0.08658427745103836,0.25408878922462463,-0.06675946712493896,-0.12986190617084503,0.10026697814464569,0.3532201945781708,-0.5538040995597839,0.05976562201976776,0.4709796905517578,-1.0663676261901855,-0.11703457683324814,0.22430740296840668,0.1080474853515625,0.10666165500879288,0.1872817724943161,0.6367891430854797,-0.10172093659639359,0.9096043109893799,0.6077572703361511,0.4436124265193939,0.00649041635915637,0.7408419251441956,-0.06172949820756912,-0.13648608326911926,-0.26890048384666443,0.6399686932563782,-0.6180978417396545,0.18478761613368988,0.574289858341217,-0.07964812219142914,0.033749621361494064,0.06140200421214104,0.21265824139118195,0.41806867718696594,0.6130781173706055,0.5576791167259216,0.2987709939479828,-0.08147145062685013,0.05720832943916321,0.6640821695327759,-0.5939714908599854,0.35720527172088623,-0.04699535295367241,-0.327058345079422,-0.2448779195547104,-0.24084815382957458,0.18969927728176117,0.575830340385437,-0.17831645905971527,1.0564876794815063,0.350410521030426,-0.05106326565146446,-0.6239553093910217,-0.18092532455921173,0.292304664850235,0.25963613390922546,-0.0022404654882848263,0.32820501923561096,0.13960643112659454,0.40925583243370056,0.08860303461551666,-0.38104256987571716,-0.2577197253704071,-0.25260356068611145,0.3341383934020996,-0.8285901546478271,-0.1388544738292694,-0.6047239899635315,0.4647010564804077,0.09196620434522629,0.17203699052333832,-0.48456665873527527,-0.37689968943595886,-0.20354866981506348,0.18262210488319397,1.0558522939682007,0.03077331744134426,0.3284631073474884,0.6625389456748962,0.13010099530220032,0.14955414831638336,0.4484748840332031,-0.11827588081359863,-0.2647164463996887,0.4281454086303711,0.3535694479942322,0.10060174763202667,0.07289447635412216,0.357159823179245,-0.32119208574295044,-0.11692231148481369,0.1751401424407959,0.5852146744728088,-0.5304871797561646,-0.4978092610836029,-0.16473472118377686,-0.12085805088281631,0.007728626485913992,0.27169689536094666,0.3486942946910858,0.07394228130578995,0.2628510892391205,0.523470938205719,-0.021955259144306183,0.1964915692806244,0.28750917315483093,-0.11813848465681076,-0.44857466220855713,0.2325502634048462,0.10400673747062683,0.015509244054555893,0.4597555696964264,-0.1026330217719078,-0.6313716769218445,-0.3116888403892517,-0.09004399925470352,-0.10644534230232239,0.9871460199356079,0.04306633025407791,0.7745401859283447,0.32985764741897583,-0.33298173546791077,-0.5120682716369629,0.6561810374259949,-0.2807095944881439,0.031165489926934242,0.5015456080436707,0.03672819584608078,0.07471171766519547,0.15702763199806213,0.08207188546657562,-0.13145184516906738,-0.37767452001571655,-0.08853492885828018,0.46331414580345154,0.5462452173233032,-1.4857414960861206,-0.26737338304519653,0.026769602671265602,0.07081617414951324,-0.012720849364995956,-0.21860280632972717,0.05806031450629234,-0.012265307828783989,0.764579713344574,-0.26769426465034485,0.5318901538848877,0.1281893253326416,-0.14336667954921722,-1.9709622859954834,0.25697845220565796,0.183061420917511,0.4241083562374115,0.28023526072502136,0.27711671590805054,-0.7411593794822693,-0.37700560688972473,-0.4081592261791229,0.3565059006214142,0.5572274327278137,0.05349242687225342,-0.238611102104187,0.237576425075531,0.43481341004371643,0.7337116003036499,0.6587604880332947,-0.611709475517273,-0.11160752177238464,0.023469140753149986,-0.3771420419216156,0.19805096089839935,0.07972052693367004,0.43465980887413025,0.04275279864668846,-0.21319551765918732,0.42514047026634216,0.4999591112136841,-0.03944794461131096,-0.19758819043636322,0.19536398351192474,-0.07607521116733551,0.09212566912174225,0.3991814851760864,0.17073118686676025,-0.2723294496536255,0.3500003218650818,0.6304890513420105,-0.8065807819366455,0.6740544438362122,-0.030329877510666847,0.013847097754478455,-0.4322635233402252,-0.024853931739926338,0.4213748276233673,-0.3033510446548462,0.3995117247104645,0.21068741381168365,0.22640269994735718,0.5888659954071045,0.6364679932594299,-0.049592770636081696,2.3681137561798096,-1.696934461593628,0.02727123536169529,-0.8717466592788696,-0.7277873754501343,-0.5853820443153381,-0.7505719065666199,0.2364937663078308,0.4606581926345825,-0.34148138761520386,-1.414311170578003,-0.3177325129508972,-0.09347192943096161,-0.05108596384525299,-0.4696623384952545,-0.0024104721378535032,-0.3749767243862152,-1.4136641025543213,-0.3304608464241028,-0.6593540906906128,0.5662386417388916,0.4948551654815674,1.1726269721984863,-0.7637720704078674,0.41976115107536316,-0.1952516734600067,0.5809615254402161,-0.9717931747436523,-0.9496607184410095,0.04570729285478592,-0.8267868757247925,0.2156996876001358,-0.8000759482383728,-0.7099402546882629,-0.08720596134662628,-0.026084309443831444,-0.02642214670777321,0.545726478099823,-0.2650173306465149,-0.7887636423110962,-0.8287590146064758,-0.07637330889701843,0.38568440079689026,-0.09553557634353638,0.18823255598545074,1.0328220129013062,0.38480567932128906,0.14689901471138,0.16667330265045166,-1.0811662673950195,-0.5104608535766602,-0.17969903349876404,0.7900519371032715,0.48803868889808655,0.8442065119743347,0.244547501206398,-0.8920602202415466,0.2747390866279602,0.28010615706443787,-0.46127137541770935,0.015503911301493645,0.6639444828033447,-0.17216798663139343,-0.1521218717098236,-0.6571075320243835,0.7247599959373474,-0.11487489193677902,0.19973891973495483,0.012699716724455357,0.14646361768245697,-0.8770018219947815,0.9520055651664734,0.6643313765525818,-0.33535265922546387,0.2791386544704437,0.9456776976585388,-0.47357985377311707,0.16039058566093445,0.6330733299255371,-0.4642027020454407,1.0950086116790771,0.4642602503299713,0.7610096335411072,-0.758145272731781,2.1771080493927,0.4459826350212097,-0.06873480975627899,0.6908236742019653,1.0751286745071411,0.8766520023345947,-0.16739574074745178,1.5286954641342163,-0.28530746698379517,0.16442559659481049,-2.0163073539733887,0.8345155119895935,0.7070464491844177,-1.835128903388977,-0.19369781017303467,-0.0012001947034150362,-0.5585368275642395,-0.3696380853652954,-1.4418483972549438,0.41186779737472534,-0.04094274714589119,-0.23494887351989746,-0.5968116521835327,0.3335241973400116,-1.0607925653457642,0.0703880563378334,-1.3084467649459839,-0.9995902180671692,0.5946130156517029,0.26143592596054077,0.9825770258903503,-0.8283771276473999,0.08332443982362747,0.020287783816456795,0.4203574061393738,-0.6088337302207947,-0.26720842719078064,-0.2044523060321808,0.11970226466655731,0.54383784532547,0.1311277598142624,-0.048605404794216156,0.5154896974563599,0.7126936316490173,-0.5331711769104004,-0.26924070715904236,-0.4406273066997528,-0.6953583359718323,0.11718685925006866,1.8654695749282837,-0.11988268792629242,0.08177568763494492,-0.6170089840888977,-1.1620335578918457,-0.36856597661972046,0.7341225743293762,1.2246341705322266,-0.6085870862007141,0.763615071773529,0.7551711201667786,0.145635187625885,1.8271619081497192,0.7036848068237305,0.12094204127788544,0.06925030797719955,-0.4304310977458954,0.49748656153678894,-0.6855404376983643,1.2026597261428833,0.44378218054771423,-0.13654205203056335,-0.4610547721385956,-0.13615459203720093,0.3561496436595917,0.8085473775863647,-1.7539504766464233,1.1016372442245483,-0.5425702333450317,-0.5805583596229553,0.3536457121372223,0.47440844774246216,-0.48557353019714355,0.06114676594734192,-0.46015381813049316,0.2978505790233612,0.7871601581573486,0.3421759605407715,0.5290093421936035,0.4272017478942871,0.23725475370883942,-0.12397898733615875,-0.4661538302898407,-0.2873220145702362,0.5785238146781921,0.792586624622345,0.5609615445137024,0.34463995695114136,0.21872657537460327,0.05365084484219551,-0.10657522082328796,0.6462849974632263,-0.33882543444633484,-0.009755433537065983,-0.04054410755634308,0.16144374012947083,-0.3008745312690735,-0.3409577012062073,0.7685660123825073,-0.5357798337936401,0.373201459646225,-0.6232357621192932,0.2822784185409546,0.47430524230003357,-0.012002415023744106,0.5261983871459961,-0.15915361046791077,-0.39629173278808594,0.4297594130039215,-0.32377558946609497,0.2992049753665924,0.23878271877765656,0.3899955451488495,-1.3133211135864258,0.8085251450538635,1.1744548082351685,0.8543681502342224,0.4993854761123657,-0.8610708713531494,0.43978485465049744,-0.19727450609207153,-0.30684056878089905,0.02571525238454342,0.3417528569698334,-0.30352118611335754,0.05969323590397835,-0.4034061133861542,-1.3161449432373047,-0.20704437792301178,-0.9186144471168518,0.7736116051673889,-0.9136406779289246,-0.24833521246910095,0.5529950857162476,2.2509689331054688,-0.1790306121110916,-0.841306209564209,0.8646711707115173,