{"type":"LSTM","options":{"inputSize":16,"inputRange":16,"hiddenLayers":[42,48],"outputSize":16,"decayRate":0.999,"smoothEps":1e-8,"regc":0.000001,"clipval":5,"maxPredictionLength":1,"dataFormatter":{"indexTable":{"1":8,"2":5,"3":11,"4":12,"5":2,"6":10,"7":4,"8":9,"9":6,"X":0,"":1,"O":3,"/":7,"stop-input":13,"start-output":14,"unrecognized":15},"characterTable":{"0":"X","1":"","2":"5","3":"O","4":"7","5":"2","6":"9","7":"/","8":"1","9":"8","10":"6","11":"3","12":"4","13":null,"14":null,"15":null},"values":[{"input":["X","","","","","","","",""],"output":"5"},{"input":["X","","","X","O","","","",""],"output":"7"},{"input":["X","","X","X","O","","O","",""],"output":"2"},{"input":["X","O","X","X","O","","O","X",""],"output":"9"},{"input":["X","O","X","X","O","X","O","X","O"],"output":"/"},{"input":["","X","","","","","","",""],"output":"1"},{"input":["O","X","","","X","","","",""],"output":"8"},{"input":["O","X","","X","X","","","O",""],"output":"6"},{"input":["O","X","","X","X","O","X","O",""],"output":"3"},{"input":["O","X","O","X","X","O","X","O","X"],"output":"/"},{"input":["","","X","","","","","",""],"output":"5"},{"input":["X","","X","","O","","","",""],"output":"2"},{"input":["X","O","X","","O","","","X",""],"output":"9"},{"input":["X","O","X","","O","","X","X","O"],"output":"6"},{"input":["X","O","X","O","O","X","X","X","O"],"output":"/"},{"input":["","","","X","","","","",""],"output":"3"},{"input":["","","O","X","X","","","",""],"output":"6"},{"input":["","","O","X","X","O","","","X"],"output":"1"},{"input":["O","","O","X","X","O","X","","X"],"output":"2"},{"input":["","","","","X","","","",""],"output":"2"},{"input":["","O","","","X","","X","",""],"output":"3"},{"input":["X","O","O","","X","","X","",""],"output":"4"},{"input":["X","O","O","","X","","X","","X"],"output":"/"},{"input":["","","","","","X","","",""],"output":"2"},{"input":["","O","","","X","X","","",""],"output":"4"},{"input":["","O","","O","X","X","X","",""],"output":"3"},{"input":["","O","O","O","X","X","X","","X"],"output":"1"},{"input":["","","","","","","X","",""],"output":"8"},{"input":["","","","","X","","X","O",""],"output":"3"},{"input":["","","O","","X","","X","O","X"],"output":"1"},{"input":["O","X","O","","X","","X","O","X"],"output":"6"},{"input":["O","X","O","O","X","X","X","O","X"],"output":"/"},{"input":["","","","","","","","X",""],"output":"4"},{"input":["","","","O","X","","","X",""],"output":"2"},{"input":["","O","","O","X","","","X","X"],"output":"7"},{"input":["X","O","","O","X","","O","X","X"],"output":"/"},{"input":["","","","","","","","","X"],"output":"5"},{"input":["","","","","O","","X","","X"],"output":"8"},{"input":["","X","","","O","","X","O","X"],"output":"1"},{"input":["O","X","X","","O","","X","O","X"],"output":"6"},{"input":["O","X","X","X","O","O","X","O","X"],"output":"/"},{"input":["","O","","X","X","","","",""],"output":"6"},{"input":["","","","O","","","X","X",""],"output":"9"},{"input":["X","O","","X","","","","",""],"output":"7"},{"input":["X","O","O","O","X","X","","X",""],"output":"9"},{"input":["X","","O","","O","X","","",""],"output":"7"},{"input":["","O","","X","","X","","",""],"output":"5"},{"input":["X","X","","X","O","","O","",""],"output":"3"},{"input":["","X","","","O","X","X","O",""],"output":"1"},{"input":["X","X","","","O","","","",""],"output":"3"}],"characters":["X","","5","O","7","2","9","/","1","8","6","3","4","stop-input","start-output","unrecognized"],"specialIndexes":[13,14,15]},"workers":-1},"trainOpts":{"iterations":200,"errorThresh":0.005,"log":true,"logPeriod":10,"learningRate":0.0078,"callbackPeriod":10,"timeout":"Infinity"},"input":{"rows":17,"columns":16,"weights":[0.08237821608781815,0.18656860291957855,-0.08695781975984573,0.09575009346008301,0.05354827642440796,-0.6534176468849182,-0.09532612562179565,-0.5654429197311401,0.8955342173576355,0.5697460174560547,0.07774683833122253,-0.6874883770942688,-0.06086605787277222,-0.04049932584166527,-0.2502423822879791,-0.07569378614425659,1.7954639196395874,-0.8042711019515991,2.811815023422241,0.6811715960502625,0.37007829546928406,-0.775898277759552,1.020462155342102,1.268179178237915,-0.26445284485816956,-0.9527333378791809,-0.15455667674541473,2.419907331466675,0.4570717513561249,0.5680901408195496,1.9786972999572754,1.4860777854919434,-0.5418983697891235,-2.0352792739868164,3.0963563919067383,0.9701275825500488,1.6628543138504028,0.8927046060562134,-0.28616324067115784,0.9671183824539185,-1.0765655040740967,0.13580290973186493,0.16669559478759766,2.742448568344116,0.08618120104074478,-1.2847758531570435,0.4937329888343811,0.8346213698387146,-0.01931418478488922,-6.405481338500977,2.615647554397583,-0.5240300297737122,-3.64347505569458,0.922607421875,3.4746310710906982,1.802987813949585,-1.2652168273925781,-0.5689077973365784,-1.2322736978530884,4.800366401672363,-1.1522679328918457,3.007148504257202,1.6091498136520386,5.189457416534424,1.3149433135986328,-0.31947529315948486,2.4388298988342285,2.5989420413970947,0.4270845353603363,-0.8277809619903564,0.12959420680999756,0.5027464032173157,-0.8564357757568359,-0.3645510673522949,0.8574283719062805,0.4618465304374695,1.0165730714797974,0.24938122928142548,0.5349470376968384,0.49097394943237305,-0.6204215288162231,-1.118021011352539,0.03222062811255455,-1.537880301475525,1.130046010017395,0.1611090451478958,-0.411687433719635,2.4307689666748047,-1.2544692754745483,-1.2031440734863281,-0.7599908709526062,0.8802865743637085,0.955252468585968,-1.6349836587905884,0.6861546635627747,-0.5676485896110535,-1.318263053894043,0.45097917318344116,-2.8458263874053955,-1.2643543481826782,-1.6968899965286255,1.8877471685409546,0.1524266004562378,2.0844128131866455,-2.980715036392212,-0.9165566563606262,-0.8333314061164856,1.9181915521621704,-1.339938759803772,0.2927808463573456,3.0544095039367676,-0.043950892984867096,-2.1190185546875,0.6606407761573792,-2.070941686630249,-2.2523887157440186,-1.102821707725525,2.3248236179351807,1.1485482454299927,2.0453872680664062,-2.5864503383636475,-2.967200994491577,0.9703414440155029,-0.5249714255332947,-0.5014805793762207,1.231623649597168,2.4488658905029297,-1.2139568328857422,-1.9086135625839233,-0.5671290755271912,0.3918999433517456,-3.4191267490386963,-2.524988889694214,3.021223783493042,-1.9245914220809937,5.443060398101807,-1.4534415006637573,-4.502290725708008,-0.9179182648658752,-3.6710140705108643,-1.0625088214874268,-1.1443880796432495,2.7986185550689697,-2.5894935131073,-0.6168480515480042,-1.681540608406067,-0.5796990990638733,-2.6383910179138184,-1.8656777143478394,2.568666458129883,-0.2570328116416931,3.672856330871582,-3.0165257453918457,-3.0539326667785645,-0.03055281564593315,1.0190742015838623,-0.9679494500160217,-0.8680246472358704,1.5484075546264648,-0.7332401275634766,1.3397380113601685,-0.6843876838684082,1.5505205392837524,-4.005511283874512,0.5314150452613831,-1.2290188074111938,0.7523689866065979,3.7649967670440674,1.4381729364395142,-3.561652898788452,-0.5883045792579651,1.0518039464950562,1.0294177532196045,-0.8638700842857361,1.7992526292800903,1.1898102760314941,-0.9081524610519409,1.5056145191192627,-1.3479969501495361,-2.993286609649658,-2.101827621459961,1.4918997287750244,0.8418316841125488,2.7081058025360107,-3.8935086727142334,-2.0083158016204834,-0.7644476294517517,1.8198620080947876,-2.0497639179229736,0.4537656903266907,2.831812858581543,-1.1157327890396118,-1.2996246814727783,2.317452907562256,-1.3017597198486328,-2.4717442989349365,-1.852501630783081,1.8749349117279053,0.09918087720870972,1.5847560167312622,-3.4914631843566895,-2.189171075820923,-2.1317524909973145,2.1136722564697266,-0.7951686382293701,0.8705229759216309,2.9900174140930176,0.5764713287353516,-0.3820590674877167,1.1229381561279297,-2.4378843307495117,-2.8681070804595947,-0.8280466198921204,1.6674121618270874,0.3928607702255249,1.0818341970443726,-2.368095874786377,-2.419236898422241,-0.8968107104301453,1.2659658193588257,-0.7225537896156311,0.2298780083656311,2.1706743240356445,-0.18038196861743927,-0.48391222953796387,0.42195382714271545,-1.2995578050613403,-0.12631018459796906,-0.4203190207481384,0.21343734860420227,0.3801712989807129,-0.36048898100852966,0.9957313537597656,0.44213712215423584,-0.1966940313577652,-1.2275232076644897,-0.6972399950027466,0.2387080043554306,-0.9007791876792908,0.2905794382095337,-0.1398324966430664,-0.08258519321680069,-0.15023942291736603,-0.028971519321203232,-0.11896290630102158,0.0410815067589283,0.024791952222585678,-0.08232992142438889,0.607751190662384,-0.12579794228076935,0.047365132719278336,-0.5271204710006714,-0.0022799100261181593,0.1568595916032791,0.006292795762419701,-0.04645226150751114,-0.04912276566028595,-0.0549282468855381,0.013762117363512516,-0.0014956425875425339,-0.01126081682741642,-0.015199242159724236,-0.019957169890403748,-0.027772104367613792,0.05883456766605377,0.0011610356159508228,0.07708153128623962,0.0628361850976944,-0.014177787117660046,0.07733940333127975,-0.012996827252209187,-0.03284931182861328]},"hiddenLayers":[{"inputMatrix":{"rows":42,"columns":16,"weights":[0.15773983299732208,0.5035961270332336,-0.7228690385818481,0.052502214908599854,0.12129352241754532,-0.2722291350364685,-0.24533377587795258,-0.08111706376075745,-0.39899197220802307,-0.2767395079135895,0.7656287550926208,-0.03426323086023331,0.4044077694416046,0.11618740856647491,0.08887694031000137,-0.5279101729393005,0.5259411931037903,0.14518557488918304,-0.8120297789573669,0.1791568547487259,-0.13694815337657928,-0.30403932929039,0.3147846460342407,0.30135253071784973,-0.4856140911579132,-0.6420760750770569,-0.029769444838166237,0.4292897880077362,0.12181632965803146,0.18261350691318512,0.6145530939102173,0.2713067829608917,0.5935606956481934,0.26308009028434753,-0.5636516809463501,0.2018408477306366,-0.0010184464044868946,-0.2521050274372101,0.06603874266147614,0.30008816719055176,-0.6957451105117798,-0.659886360168457,0.06617198139429092,0.5755894780158997,0.4494949281215668,0.08482592552900314,0.6332729458808899,-0.04106692969799042,-1.565517544746399,0.30621692538261414,-1.9194620847702026,-1.1622997522354126,-1.0165717601776123,1.2374731302261353,0.7269092798233032,0.11914189159870148,0.5654318928718567,-0.07691085338592529,-0.7653929591178894,-0.9137182831764221,-0.969757616519928,0.16866500675678253,-0.23553025722503662,-0.2170480489730835,-0.29402267932891846,-0.7268886566162109,0.09806113690137863,-0.025226566940546036,0.018424315378069878,0.31916987895965576,0.02150353416800499,0.168972909450531,-0.0989205539226532,-0.17329542338848114,-0.17761221528053284,0.20374064147472382,-0.12518201768398285,-0.016932237893342972,0.23572573065757751,0.09914488345384598,1.0893628597259521,-0.5038429498672485,1.3695663213729858,1.754286527633667,1.0885573625564575,-0.2361024171113968,1.5280648469924927,0.4073455333709717,0.1377800703048706,-0.2577832341194153,0.8971737027168274,-0.14310871064662933,1.0846768617630005,0.4776310324668884,0.7120712399482727,1.0614750385284424,0.01612459309399128,0.12540392577648163,-0.6638346314430237,-0.12694478034973145,-0.012782776728272438,0.03173012286424637,0.09725280851125717,-0.0342969186604023,-0.17721368372440338,0.06426134705543518,0.1940603256225586,0.199036106467247,0.1960413008928299,0.13516876101493835,-0.09252256155014038,0.12385264039039612,0.2912169098854065,0.39835837483406067,-0.5083950757980347,0.22253510355949402,0.6463410258293152,-0.21694506704807281,-0.23984533548355103,0.9696967005729675,-1.0328867435455322,-0.7881600856781006,0.5490150451660156,0.5944777727127075,0.4827027916908264,-0.6247844696044922,0.767723560333252,-0.2733403146266937,1.7426294088363647,0.9916137456893921,0.2140519618988037,0.4861207902431488,-0.22738435864448547,-2.156654119491577,-0.5888648629188538,-0.5964917540550232,0.2226444035768509,-0.013263814151287079,0.04565821588039398,0.08056581020355225,1.0235576629638672,0.5756740570068359,0.3499835729598999,-0.8614084720611572,-0.17796984314918518,-0.8181644082069397,1.1862244606018066,0.29552072286605835,0.4336337149143219,0.11893056333065033,-0.14881408214569092,0.3467857837677002,-0.27971401810646057,0.23519039154052734,0.13102109730243683,0.5854286551475525,0.03662237152457237,-0.5812965631484985,-0.35704007744789124,0.2975948452949524,-0.0868442952632904,1.1147875785827637,-0.47073426842689514,0.5551217198371887,1.3573026657104492,-0.7014729976654053,-2.7000958919525146,-1.2193794250488281,-1.5690629482269287,1.3070787191390991,2.030435562133789,-0.4567740857601166,1.0515490770339966,-1.9516512155532837,-0.6689782738685608,-3.1357338428497314,0.08064960688352585,0.4758303463459015,0.13190191984176636,-1.3230644464492798,-0.8062089681625366,-0.5825420022010803,0.24049532413482666,-1.505172610282898,1.3169100284576416,1.3713582754135132,-0.2571699917316437,-1.9135664701461792,-0.5269768834114075,0.5835303664207458,-1.2796438932418823,-0.07834865152835846,0.6334009766578674,0.48428088426589966,-0.7172164916992188,0.19368168711662292,-0.1481362134218216,-0.5629355311393738,0.15721622109413147,0.3575485646724701,-0.4522242546081543,-0.6576536297798157,0.205535888671875,0.3702266812324524,0.466952919960022,0.23497094213962555,0.6895469427108765,-0.01044235285371542,0.35755348205566406,-0.10592302680015564,-0.27929699420928955,0.06389514356851578,-0.17174533009529114,0.03728674352169037,0.7697378993034363,-0.33752721548080444,0.008269117213785648,-0.015092570334672928,-0.6266210079193115,-0.36265215277671814,-0.2944978177547455,0.37739333510398865,0.0067113544791936874,0.08166519552469254,0.5263034105300903,-0.578517735004425,1.1264488697052002,0.4898647367954254,0.8295465111732483,-1.1609264612197876,-0.0370473712682724,-0.32525667548179626,0.46126678586006165,0.6581128239631653,0.4177359342575073,-0.0660664364695549,0.36288702487945557,-0.5488427877426147,-0.5126293897628784,0.12281455844640732,1.022843837738037,0.39527028799057007,0.3530718684196472,-0.31483039259910583,0.09975901246070862,-1.3877642154693604,0.2910711169242859,-0.7833694219589233,0.260524719953537,0.011278326623141766,0.42122918367385864,0.1154596358537674,0.7603418231010437,-0.11566057801246643,-0.12612225115299225,0.011996566317975521,0.7880446910858154,-0.393528550863266,1.2757090330123901,1.1160008907318115,0.7731502652168274,-1.976040005683899,-0.7954049706459045,-1.0116995573043823,0.23558692634105682,0.926677405834198,0.7128003239631653,0.5143078565597534,0.7215790152549744,0.03406473249197006,-0.6939710974693298,0.0020251732785254717,0.3465243875980377,-0.34476926922798157,0.610353410243988,0.4853084683418274,0.6220941543579102,-0.30023106932640076,0.015888355672359467,0.27113059163093567,-0.6991577744483948,-0.3484436273574829,0.5855308175086975,0.6080545783042908,0.7123521566390991,-0.5220092535018921,0.25681793689727783,-0.019227003678679466,1.3970915079116821,3.4370803833007812,-0.6397438645362854,-0.09540781378746033,0.27765607833862305,-1.3896911144256592,-1.5561405420303345,-0.8795044422149658,-0.9722296595573425,0.33077648282051086,1.8711767196655273,-0.38636794686317444,1.599108099937439,-0.012810938060283661,0.23481224477291107,-3.0660808086395264,-0.9361211657524109,-0.8679877519607544,-0.3663739860057831,-0.26580238342285156,0.4065796732902527,1.1529330015182495,0.28806445002555847,1.0682462453842163,-0.42640525102615356,-0.5723060965538025,-0.20049534738063812,0.6078850626945496,-0.5006025433540344,-0.9773436784744263,0.352020800113678,0.326067715883255,0.4823612570762634,0.6509425044059753,-1.2876821756362915,-1.0952465534210205,-0.8355034589767456,-0.44404926896095276,0.9519748687744141,0.004025692585855722,1.1214447021484375,-0.675153374671936,-0.9366998672485352,-0.07904049754142761,-0.15306919813156128,0.9718484282493591,0.8362461924552917,0.1705731749534607,0.3691267967224121,-1.3150326013565063,-0.06539343297481537,-1.0672811269760132,-1.0283902883529663,0.10707678645849228,3.222870349884033,0.19524583220481873,2.8189799785614014,-0.8563345670700073,-2.8048624992370605,-0.553080141544342,-1.3333303928375244,1.6007174253463745,0.12756547331809998,2.6708242893218994,1.6230418682098389,3.223461866378784,-0.4048473536968231,-0.21809224784374237,0.22309447824954987,-2.0234220027923584,-1.726467251777649,-0.9376593828201294,-0.30750158429145813,0.20206156373023987,1.813665747642517,-1.207442283630371,1.5720055103302002,-1.0443837642669678,0.003825544845312834,-3.401716470718384,2.5315868854522705,0.5837576985359192,-0.21657009422779083,0.0610724575817585,-0.36131635308265686,-1.9532411098480225,1.4220473766326904,-0.2798885703086853,-0.08747155964374542,-1.1215002536773682,0.15835517644882202,0.16264717280864716,1.206593632698059,1.2158076763153076,1.265076756477356,0.6977630853652954,-0.43261274695396423,0.9618542194366455,-0.8276016116142273,-0.34279564023017883,0.6760480403900146,0.16431479156017303,-1.597357988357544,-0.614931583404541,-0.9118034839630127,0.7738819718360901,0.21869105100631714,-0.4702329635620117,0.4594756066799164,-0.8388258814811707,-0.46546459197998047,-2.6864430904388428,2.6433045864105225,1.951187014579773,0.08262532949447632,-0.3061503767967224,-0.46393856406211853,-2.7775416374206543,1.434220552444458,-0.9918477535247803,0.3427625894546509,-0.8564099669456482,0.24166487157344818,-0.22080090641975403,1.1825321912765503,2.9044528007507324,0.9870814681053162,0.5009839534759521,0.06502953171730042,-0.27968233823776245,-0.39299196004867554,0.3602173626422882,0.4302721321582794,0.20923633873462677,-0.27399107813835144,0.4469888210296631,-0.9106118679046631,-0.46887683868408203,0.6208726167678833,0.6777202486991882,0.5459945797920227,-0.8859925270080566,0.29031607508659363,-0.21693678200244904,0.9411289095878601,0.9039463996887207,0.5324782729148865,0.4984923005104065,0.25165092945098877,-1.3528733253479004,0.4947049617767334,0.0012887840857729316,1.0514392852783203,0.5558745265007019,0.5968713164329529,-1.023766040802002,0.3094589412212372,0.5852943658828735,-0.1181025579571724,0.02587408944964409,0.3729344308376312,-0.11608734726905823,0.7402063012123108,0.18769563734531403,0.8926416039466858,-0.05048881098628044,-0.5980602502822876,0.7064056396484375,-1.1565804481506348,-0.7904359102249146,0.3752601444721222,1.282934308052063,0.7102220058441162,-0.9261123538017273,0.35860174894332886,-0.33448341488838196,-0.32383009791374207,0.28387323021888733,-0.5180349946022034,-0.061865031719207764,0.30366426706314087,0.2124762237071991,-0.8411989808082581,0.1165599673986435,-0.20491720736026764,0.8029613494873047,1.5274038314819336,-0.1725214272737503,0.48360514640808105,-0.770151674747467,-0.7759997844696045,-0.9999563694000244,-0.19003693759441376,0.7471962571144104,-0.9017462730407715,-0.8969200849533081,-1.1337283849716187,0.1883750557899475,1.4863301515579224,-0.0018087069038301706,1.034117341041565,-0.7538241147994995,-0.7574270963668823,-0.48387986421585083,-0.6202495694160461,1.4913452863693237,0.391019344329834,1.4173237085342407,0.7889220714569092,-0.17461632192134857,0.012407008558511734,0.7685770988464355,0.6786112189292908,-1.0167962312698364,-0.046653784811496735,0.35842108726501465,-0.26364514231681824,0.2818622589111328,0.04043969511985779,0.7898436784744263,-0.003361582523211837,-0.03701823204755783,0.72605299949646,0.7590039372444153,1.0498814582824707,0.730586051940918,0.24462909996509552,0.014851593412458897,0.2749677896499634,-1.432624101638794,0.24048380553722382,-0.5399056673049927,1.1157195568084717,0.3151234984397888,0.4947308599948883,-1.074267864227295,0.42134785652160645,0.21898464858531952,-0.2712957262992859,-0.48609691858291626,0.513947069644928,0.5753290057182312,-0.28888797760009766,-0.2229946404695511,0.029827622696757317,-0.6155202984809875,-0.33078187704086304,0.34458544850349426,-0.0634232833981514,-0.06497897952795029,0.40689173340797424,-0.2668057084083557,0.5772760510444641,0.18054582178592682,0.4057518243789673,-0.2857854664325714,-1.7471797466278076,-1.2791385650634766,-0.16761049628257751,-0.35157284140586853,-0.053866688162088394,1.6407692432403564,-0.5431852340698242,0.1299694925546646,0.14059962332248688,0.6946392059326172,-0.16876524686813354,-0.36481720209121704,-0.8051267266273499,-0.7963975667953491,-0.864464282989502,-0.1597198247909546,-0.004200931638479233,0.7122220993041992,0.043110478669404984,-0.672724187374115,-0.6369441151618958,-0.16227014362812042,-0.15306274592876434,-1.5707297325134277,1.9033879041671753,1.1422377824783325,-0.05612260475754738,-2.129600763320923,-0.4205586314201355,0.5948731899261475,-1.1405260562896729,-0.3563011884689331,1.1425303220748901,-0.5670756697654724,0.26774564385414124,0.9864146113395691,0.8819957971572876,-0.8746568560600281,0.5434158444404602,0.9514262080192566,-1.2519303560256958,-0.8515263199806213,0.9438359141349792,1.168378233909607,0.9237092733383179,-0.27611908316612244,1.1751527786254883,0.8095774054527283,0.11191929876804352,1.2161487340927124,-0.34101560711860657,0.2056058943271637,-0.2980688512325287,-0.6924130320549011,-0.49398744106292725,-2.0107438564300537,2.0107672214508057,1.3913850784301758,0.33177098631858826,-1.959776520729065,-0.11556019634008408,0.03042437508702278,-1.6639546155929565,-0.6033604145050049,0.07377715408802032,1.1116914749145508,-0.5928844809532166,-0.38457104563713074,-0.3727392256259918,-0.5906133055686951,-0.09143408387899399,-1.627687931060791,2.1762590408325195,1.1937378644943237,0.03389107063412666,-1.780263066291809,-0.18395628035068512,0.3770299553871155,-1.4118921756744385,-0.37615787982940674,1.3526040315628052,2.095355749130249,0.7045108079910278,0.8243201971054077,0.860535740852356,-1.4307388067245483,-1.8045021295547485,-0.31245157122612,-1.2779518365859985,0.6598399877548218,2.2919065952301025,-0.458293616771698,1.6279536485671997,-1.0241153240203857,-0.5909445881843567,-2.425118923187256,0.05405239388346672,0.07759648561477661,0.2066933959722519,-0.9138340353965759,-0.4879280626773834,-0.33432817459106445,0.07574021071195602,-1.0408178567886353,0.8316672444343567,0.9394440650939941,-0.3337385356426239,-1.37558913230896,-0.34603703022003174,0.3224583864212036,-1.0340386629104614,-0.11924205720424652,1.044228434562683,0.34401869773864746,-0.5154389142990112,-0.1476757675409317,-0.19437630474567413,-0.8163651823997498,0.8779888153076172,0.31782224774360657,0.14746417105197906,-1.1324021816253662,-0.4402513802051544,0.35651299357414246,0.7216470241546631,0.3846960663795471,0.9519486427307129,0.5461036562919617]},"inputHidden":{"rows":42,"columns":42,"weights":[1.2481811046600342,1.9508938789367676,-1.845747709274292,0.22629673779010773,-0.2442273497581482,-0.3196066617965698,1.75071382522583,-1.814704179763794,0.13320592045783997,-0.3342649042606354,0.24880439043045044,0.4686381220817566,1.8990962505340576,-0.3284252882003784,0.5019779801368713,-0.005308995023369789,0.508622944355011,0.6377482414245605,2.2575321197509766,0.7444577217102051,-1.404665231704712,-2.0545425415039062,-0.4734158515930176,-0.9697377681732178,-1.202704906463623,0.6212846636772156,-1.8753056526184082,1.2930511236190796,-0.6069933176040649,-0.34175899624824524,-0.29845115542411804,-1.6983474493026733,-1.6404041051864624,-0.5190078616142273,0.31162434816360474,-0.7185682058334351,2.2838311195373535,-1.0196607112884521,0.7150272727012634,1.163875699043274,-0.29861563444137573,-0.12205220758914948,0.9725614190101624,0.379645437002182,-0.4650295674800873,-0.10806965827941895,0.05497634410858154,-1.5841532945632935,0.9191390872001648,-0.24541693925857544,0.788901150226593,0.9834248423576355,0.13675273954868317,-0.08087005466222763,0.37857872247695923,-0.9886065125465393,0.65911865234375,-0.5649985671043396,0.6714263558387756,1.2097116708755493,1.0094295740127563,1.6693388223648071,-0.7460803985595703,-2.2401692867279053,-1.1663931608200073,-1.1013742685317993,-1.4406009912490845,0.559213399887085,-0.36091193556785583,1.2636982202529907,-1.4503281116485596,-1.1708914041519165,-0.11533017456531525,-1.0627378225326538,-1.581056833267212,-1.0493073463439941,0.7173038721084595,-1.3246716260910034,0.04291403666138649,-1.9506127834320068,2.312680721282959,0.1993492841720581,0.13496439158916473,0.23114511370658875,0.9284942746162415,0.6112335324287415,-0.5715047121047974,0.01259454432874918,0.0006443200982175767,-1.3294087648391724,0.8926374316215515,-0.6364572644233704,0.6123481392860413,0.7978916764259338,0.2510107755661011,-0.002433259040117264,0.5760891437530518,-0.948091447353363,0.04213545471429825,-0.756621778011322,0.9059929251670837,1.1401307582855225,0.6296072602272034,1.4653229713439941,-0.4280892610549927,-2.626396894454956,-0.7861841917037964,-1.0487446784973145,-0.9222574830055237,0.686817467212677,-0.6333379149436951,1.267697811126709,-1.156479001045227,-1.2726993560791016,-0.5555359125137329,-1.0889983177185059,-1.4488568305969238,-1.0240968465805054,0.5491805672645569,-2.0376453399658203,-0.07202053815126419,-2.857675552368164,2.6435961723327637,0.4412901699542999,0.12315209954977036,0.38095805048942566,0.35135599970817566,0.12544794380664825,-0.33207371830940247,0.6791656017303467,-0.446332186460495,-0.5565507411956787,0.1624896377325058,-0.2408479005098343,-0.9642924070358276,-0.24636895954608917,-0.14986662566661835,0.4066687524318695,0.33772051334381104,-0.2903459072113037,0.574630618095398,0.30278679728507996,0.17390206456184387,-0.29287266731262207,0.9272995591163635,-1.394068717956543,-0.20887604355812073,-0.7732664942741394,0.10762763023376465,0.10152733325958252,0.0941941887140274,-0.35743412375450134,-0.28175804018974304,0.7662546634674072,0.813367486000061,-0.656870424747467,0.2043619453907013,-0.0887194275856018,-0.5554662942886353,-0.8450666666030884,-0.7061185240745544,-0.37138402462005615,0.25007104873657227,-0.7845568060874939,0.686764121055603,-0.07837393134832382,-0.1786896139383316,0.31547534465789795,-0.21318909525871277,-0.41396135091781616,0.35859811305999756,0.973768413066864,-0.5112476348876953,-0.861445426940918,-0.37220898270606995,0.3229456841945648,-0.8218056559562683,-0.6731618642807007,0.497365266084671,0.5642809867858887,-0.30618175864219666,0.09115443378686905,1.9098997116088867,0.4763200879096985,0.6731674671173096,-0.7780405879020691,4.574806213378906,-7.0653862953186035,0.19730961322784424,-1.484268069267273,0.5943338871002197,0.3162529170513153,0.22411932051181793,-0.8321759104728699,0.2941139340400696,1.0119258165359497,1.058824062347412,0.020152781158685684,0.49195346236228943,0.36168408393859863,-1.622564673423767,-0.9128504395484924,1.9656875133514404,-0.4258912205696106,-0.360891193151474,-1.1442618370056152,1.0768970251083374,-1.9265739917755127,-0.6050363779067993,-0.01777009293437004,1.0798028707504272,0.6116833686828613,-0.9059189558029175,0.47690457105636597,0.0588984340429306,0.329136461019516,0.9719449281692505,-0.9958442449569702,0.8114648461341858,0.2727162837982178,-0.2626688480377197,-0.14762090146541595,0.9721047282218933,-0.5278123617172241,0.9756327271461487,-0.24375948309898376,-0.09869877994060516,0.2707490026950836,0.35153645277023315,0.37964868545532227,-0.42069536447525024,-0.19437864422798157,-0.14348368346691132,-0.1696292757987976,-0.164666548371315,0.08772028237581253,-1.1789904832839966,0.19671569764614105,-0.7594428062438965,-0.6071719527244568,-0.17988194525241852,-0.8044084906578064,-0.04552016779780388,-0.5181727409362793,0.3162444531917572,0.27195289731025696,0.8793680667877197,0.34806084632873535,-0.42383480072021484,-0.47704923152923584,0.34044235944747925,0.5799902081489563,0.6945751309394836,2.046616554260254,-2.2464311122894287,0.33018627762794495,-0.2308141440153122,-0.20071953535079956,0.8200183510780334,-2.1659650802612305,-0.0662682056427002,0.14550545811653137,0.20561446249485016,1.5103777647018433,2.279186248779297,-0.32368937134742737,0.6368726491928101,0.5630480051040649,0.27753862738609314,0.3643190264701843,1.9530837535858154,0.27389076352119446,-0.29811379313468933,-1.1019853353500366,-0.41781288385391235,-0.5940450429916382,-0.6457189321517944,-0.14344610273838043,-0.6666856408119202,2.2644007205963135,-0.4073801636695862,-0.3155442774295807,-0.3116169571876526,-1.6634877920150757,-1.7899527549743652,-0.40242552757263184,-0.09497237950563431,-0.9814853668212891,2.3959100246429443,-1.0955582857131958,0.7850058674812317,1.0273325443267822,-0.875059187412262,-0.7008421421051025,0.7967774271965027,0.5584695935249329,-0.7532666325569153,-0.13568346202373505,-0.11791832745075226,0.016005102545022964,0.758112907409668,-0.8430237174034119,0.6974561810493469,0.7437359094619751,0.29023322463035583,-0.38852062821388245,0.7582753300666809,-0.765182375907898,0.07726079225540161,-0.9075586795806885,0.6241821646690369,1.1004960536956787,-0.07314816862344742,1.2241473197937012,-0.39113932847976685,-0.7104952931404114,-0.2929004430770874,-0.8748797178268433,-0.8953537344932556,0.6113408803939819,-0.6223402619361877,0.5176602005958557,-1.1361721754074097,-0.7543745040893555,-0.4756450951099396,-0.7071660757064819,-0.48664239048957825,0.0168739203363657,0.6571815609931946,-1.009302020072937,0.4145505130290985,-1.1391695737838745,0.871086597442627,0.6308470368385315,0.4930098354816437,0.6742753386497498,0.05996584892272949,-0.002498200861737132,0.053042322397232056,-0.0389615073800087,-0.37931355834007263,-0.21503444015979767,-0.08585457503795624,-0.02114895172417164,-0.5384553670883179,-0.31259268522262573,-0.2686525285243988,-0.2810187339782715,0.04062731936573982,1.0823514461517334,-0.5850228667259216,1.166111946105957,-1.2825062274932861,1.5346366167068481,-2.3461203575134277,-1.7953903675079346,0.2994399070739746,-3.693898916244507,-1.299526572227478,-1.0883876085281372,-0.3342861533164978,4.991981029510498,-0.07862626761198044,0.38621366024017334,-0.0876731351017952,1.1364480257034302,-1.7466596364974976,0.1836813986301422,7.471189022064209,2.026745557785034,0.09047161042690277,-0.09321264177560806,0.14714698493480682,0.32346829771995544,0.12283047288656235,-1.4746596813201904,0.9166045188903809,0.02501705288887024,-0.245299831032753,-0.62313312292099,0.4040112793445587,-0.04249348118901253,-0.034293558448553085,0.5645826458930969,-0.19905151426792145,0.421813040971756,0.5938647985458374,0.25250375270843506,0.1138380616903305,-1.2750872373580933,-0.5027605891227722,-0.08592648804187775,-0.8647972345352173,-0.47092708945274353,0.3031039237976074,0.068806491792202,-0.016321426257491112,-1.1002320051193237,0.3411116302013397,-0.6331108212471008,0.5597968697547913,-0.15362873673439026,0.39350154995918274,1.0255744457244873,0.14121752977371216,-0.46804070472717285,-0.04598581790924072,0.09213301539421082,0.2216038852930069,0.581886351108551,-0.4337274134159088,0.07527682930231094,-0.4175386428833008,0.20689502358436584,-0.6053231954574585,0.17482657730579376,-0.1840800642967224,-0.4390425682067871,0.854225218296051,0.0039048967882990837,0.3765293061733246,-1.3258955478668213,1.3669403791427612,-0.45710209012031555,-0.4231760501861572,0.7085174322128296,0.44278332591056824,1.1773409843444824,0.8240357637405396,0.6704162359237671,-1.1971454620361328,-0.8048797249794006,-1.3457237482070923,1.2575944662094116,-0.900567352771759,0.3136765956878662,0.8544249534606934,0.5743387937545776,-1.2678128480911255,-0.3137964904308319,-0.5679666996002197,0.6885659098625183,1.1556445360183716,-0.297769159078598,-0.24794690310955048,0.3398900330066681,-0.6416271328926086,-0.8462991714477539,-0.6638168692588806,0.3932593762874603,-0.3881693482398987,1.2194453477859497,1.0501794815063477,0.5596297383308411,0.675849974155426,0.5262137651443481,-1.483896017074585,0.541741132736206,-0.6733253598213196,-1.7124762535095215,0.9435627460479736,0.1883726865053177,-0.28317978978157043,-0.4966350495815277,0.28968995809555054,0.16574838757514954,-0.023810509592294693,-0.3692193031311035,-0.4676172733306885,0.41097021102905273,-0.33555370569229126,-0.3971962630748749,-0.998528778553009,0.5907912850379944,-0.37057051062583923,0.19167116284370422,0.5354335904121399,1.0859793424606323,-0.9116349816322327,-1.0239440202713013,-0.12114468961954117,-0.5826550722122192,0.3082120716571808,-0.2211924046278,0.39802226424217224,0.9562443494796753,0.6315869092941284,-0.9436565637588501,0.12348173558712006,0.41887953877449036,0.3567236065864563,0.07058671116828918,0.3102145195007324,0.4971507489681244,-0.2950448989868164,0.30657604336738586,-0.3737230896949768,-0.2524680495262146,-0.33717283606529236,-0.2508361041545868,0.22101211547851562,-0.1385871171951294,-0.594480037689209,-0.13958758115768433,0.720112681388855,0.6243682503700256,-0.5715000033378601,-0.0010302624432370067,-0.0369747020304203,-1.023036241531372,0.7535154819488525,-0.5373937487602234,0.8307667374610901,0.899564802646637,0.29612377285957336,-0.15285764634609222,0.6276856064796448,-0.7972670197486877,0.0453336276113987,-0.6864429712295532,0.9171925783157349,1.2622959613800049,0.4562525451183319,1.5923398733139038,-0.40160900354385376,-2.479630708694458,-1.072989821434021,-1.2241653203964233,-1.106765866279602,0.894582986831665,-0.48486027121543884,1.1627347469329834,-1.2045131921768188,-1.1370913982391357,-0.6228499412536621,-1.0756103992462158,-1.525860071182251,-0.8552436232566833,0.48579534888267517,-1.7220041751861572,-0.15942175686359406,-2.6781508922576904,2.4272594451904297,0.4205426573753357,0.17488430440425873,0.5099928379058838,1.4728102684020996,0.7400329113006592,-0.7401453256607056,0.0810905247926712,-0.16590556502342224,-0.012607980519533157,1.7782443761825562,-0.6404751539230347,-0.7337021231651306,-3.202115058898926,1.1256170272827148,1.7930666208267212,0.7878414392471313,-0.834605872631073,2.210484027862549,2.1721599102020264,-1.4833056926727295,0.03113633580505848,-1.085263967514038,0.6587508320808411,-2.2492098808288574,-2.1613123416900635,1.8974229097366333,1.4354408979415894,2.856945753097534,-0.23423616588115692,-1.8620829582214355,0.49737548828125,0.002658564830198884,-0.49196988344192505,-0.4586434066295624,-0.6108371019363403,1.4630693197250366,-0.8926182985305786,-0.44024020433425903,-0.34697869420051575,1.167615294456482,-0.3929736614227295,0.23250210285186768,2.276526689529419,-1.1289787292480469,0.2893511950969696,0.6053537130355835,0.6255350708961487,-0.8012774586677551,0.6379109025001526,-0.2782972455024719,1.11110258102417,0.6605921983718872,-0.8092308044433594,0.23752747476100922,-0.9558737277984619,-0.7835234999656677,-0.4934445023536682,0.7804989814758301,-0.7477311491966248,0.33907151222229004,0.05016959831118584,0.3184865713119507,-0.7233108878135681,-0.09014272689819336,0.510993480682373,-0.8802735805511475,0.9690452814102173,0.29551711678504944,0.3438861072063446,0.5586268305778503,0.1374325454235077,-0.6676341891288757,-0.022470979019999504,-0.37740474939346313,-0.6940565705299377,-0.592878520488739,-0.7951837778091431,0.09697438776493073,-0.5101765394210815,-0.15197627246379852,0.8187503814697266,0.6712888479232788,0.9132537245750427,-1.0369852781295776,-1.0554237365722656,-0.07807493954896927,0.6807950139045715,-1.8727847337722778,-1.9542808532714844,1.9064606428146362,0.30573394894599915,0.07322926074266434,0.5343682169914246,-1.7387710809707642,1.7749595642089844,-0.3540818393230438,0.17110590636730194,0.5260428190231323,-0.6277773380279541,-1.9627859592437744,1.2457470893859863,-0.17191727459430695,-0.5951483249664307,0.24271993339061737,-0.411665678024292,0.8486462235450745,-1.4022696018218994,1.1083093881607056,0.28896382451057434,0.7092493176460266,0.5721704959869385,0.7860032320022583,0.36392781138420105,1.4494267702102661,-0.7333133816719055,0.6007020473480225,1.1873904466629028,0.4258221685886383,1.7689701318740845,0.6643379330635071,1.7526038885116577,-0.656298816204071,1.4971425533294678,-2.4783332347869873,1.5686473846435547,-1.5206005573272705,0.48756420612335205,0.37878990173339844,0.5814716219902039,0.09135614335536957,0.12748920917510986,-0.08674449473619461,-0.49315544962882996,0.18428152799606323,1.1044200658798218,0.06347593665122986,-0.021121177822351456,1.0038386583328247,0.2041189819574356,0.4033697545528412,-0.46346116065979004,0.09194260090589523,0.2375970333814621,-0.6599757075309753,-0.6622929573059082,-0.3408941924571991,0.2805420160293579,-0.8201587796211243,0.09433232992887497,0.15379959344863892,0.5433657765388489,-0.26669231057167053,-0.3755008578300476,-0.4152515232563019,0.6600794792175293,-0.1489940583705902,-0.344905287027359,-0.6974593997001648,0.09087760001420975,0.1558854877948761,0.05736561864614487,0.48047444224357605,0.3830615282058716,0.6977417469024658,0.3139949142932892,0.034489937126636505,0.34944650530815125,-0.5381874442100525,0.031184345483779907,0.7097203135490417,-0.08074823021888733,-2.466240882873535,-1.2606204748153687,1.2882945537567139,-0.004068736918270588,-0.05681819096207619,1.0894405841827393,-2.742743730545044,1.235414743423462,0.003111184574663639,0.972259521484375,-0.10120338201522827,-1.1586847305297852,-1.334762454032898,0.5810272097587585,-0.7024853229522705,-1.0042346715927124,0.5159319043159485,0.24981260299682617,-1.279234528541565,-0.6437896490097046,0.28875142335891724,-0.04021630063652992,0.9587902426719666,-0.3720929026603699,-0.3651633560657501,1.3120989799499512,2.7287070751190186,-0.9779288172721863,0.1252370923757553,0.5917248725891113,0.4509192407131195,1.379105806350708,0.9619434475898743,0.6099562048912048,-0.3328886330127716,0.7679761648178101,-1.737736463546753,0.8757144212722778,-0.7499497532844543,-0.4148358404636383,0.7119391560554504,-0.23921367526054382,0.3948170840740204,-0.10665392130613327,0.05165599659085274,0.44330570101737976,0.4101272225379944,-1.3282989263534546,0.309624582529068,0.09736525267362595,-0.2934022545814514,0.5504804253578186,-1.3266886472702026,-1.5221084356307983,-0.08939918130636215,0.3333108425140381,-0.752886950969696,-1.0217334032058716,3.9687867164611816,0.7425909042358398,5.417271614074707,2.032564163208008,-0.18814867734909058,0.22357170283794403,0.6586748957633972,0.7137791514396667,1.144537091255188,-1.0049387216567993,-0.43801215291023254,2.4281253814697266,0.6842752695083618,1.0597392320632935,-1.3931001424789429,-0.09462279826402664,-4.522010803222656,-0.25529181957244873,-1.4107455015182495,-3.5318362712860107,-0.22193755209445953,-3.684107542037964,3.847028970718384,-5.51615571975708,1.0230674743652344,0.6569174528121948,-3.2438337802886963,-1.468386173248291,1.4750927686691284,0.0060348836705088615,0.03086734190583229,0.1827511489391327,-3.188460111618042,1.3892571926116943,0.009653202258050442,2.8432250022888184,0.8147547841072083,-2.1830012798309326,-1.4697649478912354,1.7781221866607666,-0.5225633978843689,-2.2149744033813477,0.5728288888931274,1.195024013519287,3.087146043777466,1.3525288105010986,2.8024048805236816,1.1547476053237915,0.10076048970222473,-1.1640933752059937,-2.324211835861206,0.6180267930030823,3.0873966217041016,-1.9170780181884766,0.005876247305423021,1.1649163961410522,0.5477293729782104,1.2842456102371216,1.4491617679595947,1.6587765216827393,-0.8627257347106934,1.496877670288086,-2.0049381256103516,1.38327956199646,-1.389902114868164,4.992039203643799,1.444697618484497,-0.33034244179725647,-0.24580436944961548,0.8807201385498047,-1.163455605506897,0.2635025382041931,-0.07949721813201904,-1.3631007671356201,-0.1484776735305786,-1.1213040351867676,-1.4172471761703491,0.1645277738571167,-0.17437340319156647,1.4684596061706543,1.2775232791900635,-0.4120073616504669,0.26079612970352173,2.400583267211914,-0.400736927986145,-0.207483172416687,1.1200255155563354,0.5451923608779907,-1.6166489124298096,0.333387166261673,0.21113525331020355,1.3769222497940063,0.38179585337638855,-0.994347095489502,0.2960410416126251,0.6814457178115845,0.6436070203781128,0.17183652520179749,0.9033218026161194,-0.818166971206665,-0.6496423482894897,-0.5696941018104553,0.1823050081729889,-1.04148268699646,1.0970189571380615,-1.3081588745117188,0.9958841800689697,0.49149370193481445,-1.969439148902893,-1.2275339365005493,-0.13691946864128113,-0.0009030431392602623,-0.07276520133018494,0.7556278109550476,-0.9358306527137756,-1.3363008499145508,-0.11171842366456985,0.040759649127721786,-1.4564017057418823,-0.06475245952606201,-0.3864189386367798,0.08182116597890854,-0.006399538367986679,0.42080336809158325,-0.4768880009651184,0.8361159563064575,0.27287009358406067,-1.482877254486084,4.039323806762695,-0.33329546451568604,0.6645108461380005,0.6675224900245667,0.993733286857605,-0.5445386171340942,0.36670249700546265,-0.004402986261993647,-0.0009350284817628562,3.1728131771087646,1.5082522630691528,0.08901017904281616,-0.9961778521537781,0.3384004831314087,-5.196481227874756,1.6220333576202393,-0.5051608085632324,0.5357648730278015,0.66737961769104,-0.03986408933997154,-0.14603044092655182,-3.227943181991577,-0.3132840692996979,-1.217400074005127,-2.2785463333129883,-0.38922011852264404,0.4281868040561676,-0.07976367324590683,0.4032905697822571,0.3569386303424835,-2.240903854370117,0.38379067182540894,0.4016927182674408,0.7297958135604858,-0.9205394983291626,-0.687664806842804,-0.5235564708709717,0.25811251997947693,-0.8034628629684448,-0.6315295696258545,0.8542889952659607,0.49776870012283325,-1.7498797178268433,-0.19953957200050354,1.6088756322860718,-0.8373100757598877,1.3260595798492432,-0.2659887373447418,-0.4308216869831085,0.9980875849723816,2.302954912185669,-0.40506547689437866,-0.26145702600479126,0.21588711440563202,0.6337754130363464,0.4090654253959656,0.42002901434898376,0.7616180777549744,0.46432361006736755,0.024080168455839157,-0.9392392635345459,0.09926309436559677,-0.09425294399261475,-1.2319415807724,0.7816923260688782,-0.6532121896743774,-0.10667745769023895,-0.17630714178085327,0.20542138814926147,-0.7648155689239502,0.9449114799499512,0.03445547819137573,-0.05514466017484665,0.06472817063331604,0.18513868749141693,-0.7844505310058594,1.510071039199829,0.32421794533729553,-0.32892632484436035,-0.18501067161560059,-0.42300307750701904,-0.5110324025154114,0.40945756435394287,0.4104575216770172,-1.8128554821014404,-2.3563413619995117,0.5676347017288208,-2.0233025550842285,-0.0664164200425148,-1.3815001249313354,0.7199839353561401,1.3699864149093628,0.5368006825447083,1.6211475133895874,-0.34160858392715454,0.10223548114299774,1.3926831483840942,0.9515075087547302,-1.391061544418335,-0.4591023623943329,-1.563254475593567,-1.2912683486938477,-1.0914465188980103,-1.3055503368377686,1.378591537475586,-0.1240735575556755,0.09934695810079575,-0.7746853232383728,-0.5109894871711731,-1.1941057443618774,1.2357019186019897,-0.3093871474266052,0.638626754283905,-0.5414028763771057,-0.4875822067260742,1.0989291667938232,-0.07159024477005005,-0.5891874432563782,0.05090390518307686,0.6186719536781311,-1.1819498538970947,0.1266242414712906,-0.07234679162502289,0.0055369241163134575,0.3726276755332947,0.06932459026575089,-1.7701712846755981,-3.8649470806121826,0.4777180552482605,-0.6451358795166016,2.0579755306243896,-0.835845947265625,1.7783926725387573,0.74393230676651,0.8697412610054016,2.1934282779693604,0.014967577531933784,0.0025734815280884504,0.20370659232139587,1.4670495986938477,-2.3103296756744385,0.342657208442688,-1.803136944770813,-0.7718743681907654,-0.5136862397193909,-0.9140475392341614,0.9135516285896301,-0.8256235718727112,-0.24012216925621033,-1.4247359037399292,-0.5738349556922913,0.5707415342330933,-0.8750031590461731,-0.4899788200855255,0.9604249596595764,0.43792468309402466,-0.600796103477478,-0.6782582998275757,0.3228152394294739,-0.29723960161209106,0.25210025906562805,0.30635562539100647,0.9158376455307007,2.973717451095581,-0.08226031810045242,-0.22061285376548767,0.45216792821884155,0.06200329586863518,-0.020488180220127106,-0.4547850489616394,0.18723897635936737,0.5266723036766052,0.21407964825630188,0.09374299645423889,-0.1627662181854248,0.04441392794251442,0.35616400837898254,-0.22823461890220642,-0.2620481550693512,0.9017215371131897,0.9125145673751831,-0.49262258410453796,0.6010380983352661,0.7268757820129395,-0.014967371709644794,0.15725846588611603,0.9389718770980835,0.3212983310222626,-0.318691223859787,1.144527554512024,-0.3811416029930115,-0.9614570736885071,0.5010552406311035,1.2519410848617554,-1.2636452913284302,0.22104886174201965,-0.16172832250595093,-0.33216822147369385,0.48727765679359436,-1.1635104417800903,0.1852705478668213,0.41882261633872986,0.10538844764232635,0.20911669731140137,1.3025836944580078,-0.2275201380252838,0.1562371551990509,-0.3082152009010315,0.7513210773468018,0.8218232989311218,0.49106770753860474,0.6776538491249084,-0.2087821364402771,-1.0661046504974365,-0.14131569862365723,-0.7791762948036194,-0.5485343933105469,0.3908191919326782,-0.4078670144081116,1.414249062538147,-0.6222699880599976,-0.24220581352710724,-0.4504314661026001,-1.3252155780792236,-1.3471925258636475,-0.31092557311058044,0.2686024308204651,-0.7863667011260986,1.2849054336547852,-1.1138283014297485,0.8242459893226624,-0.04820278286933899,0.014873553067445755,0.1043257787823677,0.5721359848976135,0.4867680072784424,-0.6414944529533386,0.7150705456733704,-0.23549200594425201,0.6599828600883484,0.4735320210456848,-0.6610707640647888,0.10179413110017776,-0.8962196707725525,-0.06380370259284973,0.3981285095214844,0.6442512273788452,-0.232532799243927,0.9086352586746216,0.24272829294204712,0.35378631949424744,-0.13371017575263977,0.4877747595310211,-0.31586459279060364,-0.3355853259563446,0.7647929191589355,0.028646206483244896,0.4686373770236969,0.5258879065513611,-0.06450806558132172,-0.6915053725242615,-0.5966993570327759,0.06608156114816666,0.09231223165988922,-0.22760026156902313,-0.5934709310531616,0.06307307630777359,-0.12240245193243027,-0.5472731590270996,1.065579891204834,0.5597138404846191,1.1911015510559082,-1.2014683485031128,-1.2359890937805176,0.009728379547595978,0.3415512144565582,0.19385561347007751,0.11117254942655563,-0.24712638556957245,-0.07267817109823227,0.17074021697044373,0.1805335134267807,0.08670127391815186,-0.10457777231931686,0.3636985421180725,0.05057966336607933,0.0897633507847786,-0.25982192158699036,0.12384055554866791,0.1737457811832428,-0.25371044874191284,-0.15665514767169952,0.15775157511234283,0.22215665876865387,-0.039063360542058945,-0.20747166872024536,-0.04086717963218689,0.21129681169986725,0.2879202961921692,-0.10332223773002625,-0.09938399493694305,0.5666061043739319,-0.1367672085762024,-0.3738776743412018,-0.37625476717948914,-0.07248853892087936,0.11002618074417114,-0.0390496663749218,0.465629905462265,0.0580037496984005,0.4695609509944916,0.4579162895679474,0.13658694922924042,0.4882645606994629,-0.3360995650291443,-0.12299619615077972,0.29651930928230286,0.15573322772979736,0.4118865430355072,0.2423941045999527,-0.17830751836299896,0.2665058672428131,-0.1929577738046646,-1.1630942821502686,0.37192878127098083,-0.2880558967590332,-1.4821346998214722,0.4071291983127594,-0.4024142622947693,0.7055981755256653,0.2450806349515915,-1.8071532249450684,2.7912652492523193,1.313700795173645,-2.06318736076355,-1.6824673414230347,-0.967905580997467,-0.8720400333404541,-0.8400748372077942,-1.1664115190505981,0.08958769589662552,1.1143406629562378,0.7629793882369995,-3.8439509868621826,-0.35976386070251465,0.8767886161804199,0.37412089109420776,-2.265803337097168,-1.7414038181304932,-0.2384602576494217,-0.37506335973739624,-3.611642360687256,-0.7908022403717041,-0.5171935558319092,0.34275153279304504,-0.7354602217674255,0.6188177466392517,0.7096891403198242,-1.7037925720214844,2.5704572200775146,-0.08941676467657089,-0.18304598331451416,0.136213481426239,0.5751538872718811,-0.617512583732605,-0.46133702993392944,-0.13840222358703613,0.1475154012441635,-0.9120647311210632,0.026865096762776375,-1.9970835447311401,0.2167530655860901,-0.12485907226800919,-1.2822836637496948,2.0002176761627197,3.3474786281585693,-2.2919602394104004,-1.0890275239944458,0.1689019501209259,-2.3614068031311035,-0.09007729589939117,0.1975739300251007,0.8178943991661072,1.1067057847976685,0.7118642926216125,-5.375575542449951,0.13091322779655457,-0.1127736046910286,0.849751353263855,-3.0544931888580322,-4.510994911193848,0.15013007819652557,-0.41554710268974304,-2.4754467010498047,-1.1402132511138916,-1.0720336437225342,-0.07860535383224487,-1.2045530080795288,1.0187581777572632,-0.8183068037033081,-0.8659338355064392,1.179194450378418,0.2923944294452667,0.882885217666626,-0.690611720085144,0.4083518385887146,-0.48211848735809326,-0.6328738331794739,0.4050501883029938,-0.710152804851532,0.24778342247009277,0.6829379200935364,0.8156300187110901,-0.8433507680892944,0.7564591765403748,-0.3501930832862854,-0.23096169531345367,-1.3054238557815552,0.9922971129417419,1.0999038219451904,-0.10116198658943176,2.0424675941467285,-0.7093082070350647,-1.2939238548278809,-0.2365163415670395,-0.9093906283378601,-0.68477863073349,0.806143045425415,-0.7163342833518982,0.4203667640686035,-1.102017879486084,-0.18446148931980133,-1.7574217319488525,-0.5201645493507385,-0.6414422988891602,0.5470539927482605,0.5559868812561035,-0.4888857305049896,0.8308716416358948,-1.3632376194000244,1.2165058851242065,-0.4369892179965973,0.8585501313209534,0.5573011040687561,1.9176961183547974,0.32415348291397095,-0.6993173956871033,1.5529439449310303,-0.1681775450706482,1.0331491231918335,1.8278533220291138,-0.5660184025764465,0.147563174366951,-1.5198452472686768,-0.14291706681251526,0.06913589686155319,0.5369926691055298,-2.6176280975341797,3.375316858291626,-1.2087091207504272,-1.349162220954895,-1.0883005857467651,0.19714757800102234,-1.711694598197937,-1.276646375656128,3.255516529083252,1.1227434873580933,1.0139378309249878,1.093854546546936,-0.6708999872207642,-1.9196505546569824,-1.1059194803237915,0.13956868648529053,-0.14049619436264038,-0.9255911707878113,-0.14407187700271606,0.6393755674362183,-0.21695497632026672,0.18858976662158966,1.8799595832824707,1.0975364446640015,1.4774526357650757,-1.5461502075195312,-1.2706657648086548,-0.6234158277511597,0.5963162779808044,0.5522472858428955,0.4173487424850464,-0.2886989712715149,0.48212021589279175,-0.4624975919723511,-0.1727265864610672,0.4660506844520569,-0.3173966109752655,-0.3465341329574585,-0.14996150135993958,2.2877252101898193,-1.3696807622909546,0.38747888803482056,-1.676006555557251,1.1320708990097046,1.65251886844635,0.1305067390203476,-3.0353128910064697,2.2719709873199463,0.5906020998954773,-0.566689670085907,4.121730804443359,1.108521819114685,-0.6847559213638306,-0.6873412728309631,-4.9888224601745605,-0.4351976811885834,-2.825624704360962,0.034278303384780884,1.6021273136138916,4.3881425857543945,-0.44369441270828247,-4.7260589599609375,0.4367543160915375,-1.8643245697021484,-0.5373353362083435,0.41226452589035034,-0.3702249228954315,0.3493039309978485,-3.744246482849121,-0.7752677798271179,0.6512258052825928,-1.8342812061309814,0.052934929728507996,-0.21356171369552612,0.6185364723205566,-0.9833995699882507,-0.44501712918281555,-2.008415460586548,-0.09123218804597855,-0.5728142857551575,0.9051001071929932,-1.0408648252487183,-0.3214627802371979,0.040483009070158005,1.4658937454223633,0.6262737512588501,-1.9266481399536133,0.874602198600769,-0.03328327089548111,1.7877856492996216,-2.1454734802246094,1.8010532855987549,0.3911363184452057,0.8321142792701721,-0.7848503589630127,0.10453039407730103,0.33346351981163025,1.854718804359436,2.7816760540008545,0.43230247497558594,2.1903581619262695,-0.6783057451248169,0.16228549182415009,-2.995042085647583,1.8771765232086182,-1.7865519523620605,0.8093585968017578,0.041425324976444244,0.7182988524436951,-0.6205505132675171,1.5228391885757446,-0.03234273940324783,-0.880936324596405,0.16223913431167603,-0.17233724892139435,-0.16558952629566193,0.5431087017059326,0.0917825847864151,-0.3142661452293396,0.047618985176086426,-0.08230848610401154,0.5118619799613953,-0.24525679647922516,-0.16178259253501892,0.07946454733610153,0.09948116540908813,-0.20541195571422577,0.005738811567425728,0.3926090896129608,-0.29783308506011963,-0.6183927059173584,-0.19333113729953766,-0.8573718070983887,-0.49349457025527954,-0.3948133587837219,0.36184176802635193,0.43077027797698975,0.5276708602905273,-0.4300164580345154,-0.2390630543231964,0.5041645169258118,0.06777218729257584,0.08336786925792694,-0.1427982747554779,0.11106761544942856,-0.7567477822303772,-0.3532713055610657,-0.042127106338739395,0.02966795116662979,0.1289147287607193,-0.27899444103240967,0.12645667791366577,-0.07621622085571289,-0.04498205706477165,0.19849449396133423,0.7086527943611145,1.1697564125061035,-1.3102816343307495,0.9347924590110779,-0.42780086398124695,-0.7279720902442932,0.7759934067726135,-1.2401282787322998,0.5572004318237305,0.58872389793396,0.6794880628585815,-0.7334808707237244,1.1873141527175903,-0.8328214287757874,-0.30201420187950134,-1.2588220834732056,0.8611396551132202,0.9764596223831177,0.12340689450502396,1.4254631996154785,-0.5936262607574463,-1.1806410551071167,-0.3399656414985657,-0.8580247759819031,-0.5970480442047119,0.5292312502861023,-1.1771270036697388,0.47598299384117126,-1.2038534879684448,-0.5417353510856628,-1.16341233253479,-1.3259873390197754,-0.49069976806640625,0.26664334535598755,0.6108871102333069,-0.7978398203849792,1.3035523891448975,-1.5144890546798706,1.1970701217651367,-0.24898269772529602,0.940507173538208,0.8547473549842834,0.04352330416440964,-0.015055602416396141,-0.04639614373445511,0.16496743261814117,-0.10818340629339218,0.09285427629947662,-0.029295489192008972,-0.020337074995040894,-0.2940283715724945,-0.7491717338562012,-0.16645602881908417,0.5196400880813599,0.05538829416036606,0.13008035719394684,0.3176482021808624,0.30428773164749146,0.2878970503807068,-0.22309568524360657,0.11047220230102539,-0.8410471677780151,-0.7926898002624512,0.7738980650901794,0.061147939413785934,0.26873958110809326,0.14443457126617432,-0.00506356218829751,-0.06347540020942688,-0.12039362639188766,0.5290543437004089,0.9565339684486389,0.5012518763542175,0.0254040714353323,0.195187509059906,0.05265967920422554,-0.41165030002593994,0.04813631251454353,0.0019457301823422313,0.9577208757400513,-0.7657886147499084,-0.4023151397705078,-0.27703574299812317,-0.2693251371383667,0.21192322671413422,0.1715715080499649,-0.20687781274318695,0.1478508561849594,0.08920719474554062,0.2956627905368805,0.08960923552513123,-0.19454628229141235,-0.37990498542785645,-0.3208281397819519,-0.16365519165992737,0.4078492820262909,0.16444066166877747,0.04255962744355202,0.6589095592498779,0.40597352385520935,0.007291837129741907,-0.15238657593727112,-0.06019492819905281,-0.7727543115615845,-0.3981482982635498,0.7335628867149353,0.1768324375152588,0.1677083522081375,0.19892573356628418,-0.2867174744606018,-0.19528324902057648,-0.02627514861524105,0.6996803283691406,0.47343578934669495,0.21310870349407196,-0.15940611064434052,0.046575333923101425,-0.3141578733921051,-0.45159855484962463,0.038784805685281754,0.14591002464294434,0.8059106469154358,-0.5892749428749084,-0.30088257789611816,-0.29927220940589905,0.1157790869474411,0.4626680314540863,-0.00918638426810503,-0.30322447419166565,1.3106616735458374,-1.0712448358535767,-0.2857683002948761,0.31812363862991333,-0.2010188102722168,-0.7359136939048767,-0.37592875957489014,-0.10000500828027725,-0.4620254933834076,0.34247204661369324,-0.22792403399944305,0.3252292275428772,0.984756350517273,-0.13551518321037292,-1.1687793731689453,1.9043048620224,-0.24560865759849548,-0.28144630789756775,-1.2673102617263794,-0.04220948740839958,0.592500627040863,-0.3150894343852997,-0.3121323883533478,-0.4115365445613861,0.7949250936508179,0.09188906848430634,-2.299974203109741,-1.4968446493148804,-0.38974130153656006,0.8612365126609802,-2.988298177719116,-0.5270506739616394,-0.9165127277374268,0.013208944350481033,-0.9129027128219604,0.8665408492088318,-1.889310598373413,-0.22777676582336426,2.2915849685668945,-0.13028857111930847,-0.5035332441329956,0.3170238435268402,0.009879738092422485,0.05486874654889107,-0.4676581621170044,-0.2822250425815582,0.365543007850647,-0.4022752642631531,-0.454372376203537,-0.9222478866577148,0.7272703051567078,-0.3712330460548401,0.11810735613107681,0.4765002727508545,1.011574149131775,-0.789437472820282,-0.862842321395874,-0.02435803972184658,-0.668967068195343,0.2665562927722931,-0.19174295663833618,0.5518634915351868,0.8892371654510498,0.6378071308135986,-0.8427689671516418,0.12213724851608276,0.4303128719329834,0.7622979879379272,0.09468384832143784,0.17142096161842346,0.4391840100288391,-0.3182990550994873,0.22435757517814636,-0.6264039278030396,-0.32965341210365295,-0.2729075253009796,-0.29935699701309204,0.2557881474494934,-0.1481209248304367,-0.6814056634902954,-0.1707525998353958,0.29306429624557495,0.4350910186767578,-0.30832913517951965,-0.24350889027118683,-1.6338636875152588,0.007785312831401825,0.4581192433834076,-0.4076111614704132,-1.1070725917816162,1.998355746269226,2.7818806171417236,-1.8049180507659912,0.4393192529678345,0.43274226784706116,4.874922752380371,-0.8131842017173767,1.7154209613800049,-1.245834231376648,0.8483139276504517,1.619353175163269,-0.3952932059764862,4.232659816741943,3.3641209602355957,2.551750898361206,0.22664004564285278,-1.2464969158172607,-0.4148109257221222,-1.1133694648742676,-0.07517308741807938,-0.39185631275177,-1.0687172412872314,-0.4532673954963684,0.6895268559455872,0.18779884278774261,-0.7424772381782532,0.8473606705665588,0.40851253271102905,0.939928412437439,-0.9314420223236084,0.03510323911905289,-2.534543514251709,-1.6780834197998047]},"inputBias":{"rows":42,"columns":1,"weights":[-0.1173621118068695,-0.5462172031402588,-0.7590780258178711,-0.9684526324272156,-2.2240374088287354,-0.015152419917285442,-0.4356094002723694,-0.6632246375083923,0.5554747581481934,-0.03258540853857994,1.8380038738250732,1.2540035247802734,-0.6473439931869507,-0.14529402554035187,1.5547159910202026,1.4644262790679932,2.107621669769287,-0.08839112520217896,0.9859362244606018,-1.6300604343414307,-0.49796193838119507,2.11621356010437,-0.03311402350664139,-0.3041415512561798,-0.8640940189361572,0.13331764936447144,-0.8133169412612915,0.960622251033783,-0.01708437316119671,0.9078109860420227,-1.010513186454773,1.165278434753418,0.887745201587677,0.11939851194620132,0.6680983901023865,0.47302868962287903,-0.7435494661331177,1.1907498836517334,1.077622652053833,-1.6234099864959717,0.8231440186500549,-0.4046504497528076]},"forgetMatrix":{"rows":42,"columns":16,"weights":[-0.0763436108827591,-0.10215821862220764,-0.029437951743602753,-0.17727738618850708,0.17594990134239197,0.028760818764567375,0.007708384655416012,0.1495848149061203,-0.43432652950286865,-0.12290402501821518,-0.08036842197179794,0.7725430130958557,-0.041149698197841644,-0.06909706443548203,0.08261069655418396,0.10828495770692825,0.5879256129264832,0.04591947793960571,-0.06439456343650818,0.40132811665534973,0.3666478097438812,-0.4665175974369049,0.16969075798988342,0.5809124112129211,-0.33658212423324585,-0.5310710072517395,0.3539741337299347,0.5026816129684448,0.41496559977531433,-0.05176500231027603,0.8217145800590515,0.4436282217502594,0.2878812253475189,-0.06922459602355957,0.1642414629459381,0.6568054556846619,0.3601195514202118,-0.1272144615650177,0.11065012216567993,0.33305978775024414,-0.691473126411438,-0.1444145292043686,0.2257368117570877,0.8247823119163513,0.1869257539510727,-0.14210599660873413,0.25198063254356384,0.22419515252113342,0.06292781978845596,-0.027711866423487663,-0.28681114315986633,0.11995571106672287,-0.10998588800430298,0.023905053734779358,0.09773734956979752,-0.01937989890575409,-0.23533995449543,-0.014286374673247337,-0.06269757449626923,-0.02570422552525997,-0.07340344041585922,0.015942342579364777,-0.016448331996798515,-0.03101447783410549,-0.04483404383063316,-0.011449680663645267,-0.19115696847438812,0.010105151683092117,-0.08083146065473557,0.06373173743486404,0.09779558330774307,-0.1566552221775055,-0.3359994888305664,0.08193063735961914,-0.013531219214200974,-0.07809722423553467,-0.05982430279254913,0.07993149012327194,-0.09139406681060791,0.030182944610714912,0.05877470597624779,-0.41880038380622864,0.11802999675273895,0.6653249263763428,0.4465971887111664,0.015786539763212204,0.3842284679412842,0.5323199033737183,-0.3266085684299469,-0.3385770320892334,0.4626917839050293,0.27945518493652344,0.3528837561607361,-0.08972616493701935,0.4350545406341553,0.36855363845825195,-0.004533847328275442,-0.17620112001895905,0.0533740408718586,0.3740503489971161,0.35811707377433777,-0.03878586366772652,0.1647430807352066,0.4144551753997803,-0.5556729435920715,-0.09246944636106491,-0.04287465289235115,0.7979878187179565,0.04931243509054184,-0.15283888578414917,0.33429858088493347,0.1629006713628769,0.3249255418777466,-0.0971280038356781,0.20852898061275482,0.39494505524635315,0.33475300669670105,-0.2909158170223236,0.04671568050980568,0.2904031276702881,-0.7676938772201538,-0.1931563913822174,0.20625653862953186,0.7216074466705322,0.3398818373680115,-0.12558425962924957,0.20624080300331116,0.1274227797985077,-0.42271146178245544,-0.14668096601963043,-0.03112437017261982,-0.3968258202075958,1.025705099105835,0.8032822012901306,-1.7734861373901367,0.05979444831609726,-0.9393093585968018,-0.5443726181983948,0.15892526507377625,0.6706187725067139,0.11994758248329163,-2.0870630741119385,0.695953905582428,-2.2472152709960938,0.44474661350250244,0.46312475204467773,-0.33493363857269287,-0.5630266070365906,0.1505087912082672,-0.4588249921798706,-0.9364129900932312,-0.08906292915344238,-0.11907777190208435,-0.11710916459560394,0.011500030755996704,-0.07284030318260193,0.049054667353630066,-0.22224289178848267,0.09121949225664139,-1.02970290184021,2.5650486946105957,0.8837464451789856,0.25345903635025024,0.5064718127250671,0.3677455484867096,-2.6964666843414307,-0.2888215482234955,-0.2885812222957611,-0.9380068182945251,-0.5248240828514099,0.7380285263061523,0.7449228167533875,1.3680765628814697,0.4261421263217926,1.3947314023971558,-0.5648982524871826,0.42904189229011536,0.2845624089241028,0.49898186326026917,0.1245931088924408,0.17061847448349,-0.42909425497055054,0.008452090434730053,-0.28729626536369324,-0.2916369140148163,-0.32388609647750854,0.4064468741416931,0.6940253973007202,0.308471143245697,0.1153905838727951,0.2549949884414673,-0.018979854881763458,0.25784730911254883,-0.13944387435913086,0.19585740566253662,0.7160952091217041,0.3511134386062622,-0.22635681927204132,0.20144027471542358,0.36061424016952515,-0.7059311866760254,-0.17488743364810944,0.007656649686396122,0.747758686542511,0.1542372703552246,-0.15741637349128723,0.32964983582496643,0.13990169763565063,0.4046512246131897,0.48585841059684753,0.1016107127070427,0.2286958247423172,0.8207718133926392,-0.5416476130485535,-0.5160926580429077,0.12716954946517944,0.5083839297294617,-0.5100992918014526,0.8404710292816162,-0.25137826800346375,0.9370311498641968,-0.6088075041770935,0.43336376547813416,-0.2796199321746826,1.1875238418579102,0.17357014119625092,0.786114513874054,1.4731824398040771,1.2156881093978882,-1.1484254598617554,-0.4216769337654114,-0.6409972906112671,0.24268387258052826,0.39436113834381104,1.33383047580719,0.49647319316864014,1.1743769645690918,-0.6086223721504211,-0.16072428226470947,-0.04035639017820358,0.6847487092018127,0.2429640144109726,0.48612120747566223,0.8027485013008118,0.6930149793624878,-0.587338387966156,-0.578584611415863,0.3079162538051605,-0.733945369720459,-0.46197354793548584,0.6493868231773376,0.654839038848877,0.744148850440979,-0.5447216033935547,0.6175232529640198,-0.4568063020706177,1.0169813632965088,-0.29757267236709595,0.8340296149253845,1.0429295301437378,1.0679117441177368,-0.9382460117340088,-0.7447165250778198,0.26441994309425354,-0.9735631942749023,-0.4049719274044037,0.7767768502235413,0.9524281024932861,0.9698914289474487,-0.8182874321937561,0.6471368074417114,-0.4887133240699768,0.6119305491447449,-0.17726373672485352,0.13249199092388153,0.374573677778244,0.7734312415122986,-0.4663911759853363,-0.6582592129707336,0.2959619164466858,-0.6687942147254944,-0.8365943431854248,0.5514938235282898,0.636582612991333,0.5612085461616516,-0.5995567440986633,0.794192373752594,-0.4708881676197052,1.5641601085662842,0.38624638319015503,-0.05380343645811081,-0.14170193672180176,-0.4215719699859619,-1.5810073614120483,1.3303263187408447,0.14489346742630005,0.2336294949054718,-0.47745880484580994,-1.0930818319320679,0.6773815751075745,0.7767905592918396,1.0615403652191162,1.3134604692459106,2.69509220123291,-0.3830679953098297,-0.12451290339231491,-0.08367231488227844,0.9883445501327515,0.7078524231910706,0.13426855206489563,-0.7585960030555725,0.4735001027584076,-0.8584468960762024,0.5433816909790039,0.5398683547973633,0.13943076133728027,0.390773206949234,-1.0920251607894897,-0.249428391456604,-0.6520583033561707,-0.013722500763833523,-0.0743366926908493,-0.15663404762744904,0.5838210582733154,0.22842450439929962,-0.004839140921831131,0.03981482982635498,0.28791627287864685,-0.5517664551734924,-0.07034077495336533,0.019712815061211586,0.5456579923629761,0.012892707251012325,-0.14754804968833923,0.19029469788074493,0.2441530078649521,0.03701622784137726,-0.6047041416168213,0.30399230122566223,0.09405895322561264,0.4775446653366089,0.13220344483852386,0.05813828483223915,0.5176233053207397,0.059097256511449814,0.1699811816215515,0.3731222152709961,0.37528738379478455,0.32449230551719666,-0.44523367285728455,0.08140024542808533,0.6046640872955322,1.0358507633209229,-0.08172708749771118,0.6452955007553101,0.587508499622345,0.6601590514183044,-0.9786034822463989,-0.4012986123561859,0.444218248128891,-0.8916571140289307,-0.6183269619941711,0.8940463662147522,0.8633942604064941,0.9379599690437317,-0.38700881600379944,0.7967868447303772,-0.3429798185825348,0.5181416273117065,-0.17736613750457764,0.5042498707771301,0.6646616458892822,0.7671100497245789,-0.3208131492137909,-0.5858175158500671,0.35765790939331055,-0.869611918926239,-0.7086776494979858,0.6885128617286682,0.690082848072052,0.5952655076980591,-0.7180986404418945,0.7173725366592407,-0.4952077567577362,0.8597728610038757,1.2429530620574951,-0.34285399317741394,-0.45105960965156555,-0.04991896077990532,-0.6040313839912415,-0.43345585465431213,-0.4615430533885956,-0.08123672753572464,-0.11745525151491165,0.4914994239807129,-0.13012364506721497,0.6484723687171936,0.22202016413211823,0.1254660189151764,-0.8623968362808228,0.395081490278244,0.16279856860637665,0.8317812085151672,0.39473241567611694,0.652347981929779,-0.3904360830783844,-0.25391268730163574,0.3197079598903656,-0.583256185054779,-0.1986224502325058,0.1567905694246292,0.7297263145446777,0.6460996270179749,-0.42323070764541626,0.28042709827423096,-0.3043089509010315,0.16024990379810333,0.03172851353883743,0.07560276240110397,0.17564423382282257,0.36121976375579834,-0.010034668259322643,0.13295628130435944,0.249963641166687,-0.46220430731773376,-0.2388777881860733,0.1317306011915207,0.5755063891410828,0.09908129274845123,-0.16426895558834076,0.3213917911052704,0.04404958337545395,1.9907703399658203,1.491911768913269,0.01945074088871479,0.6830499172210693,0.44677793979644775,-1.8511173725128174,-0.19277040660381317,-0.9363503456115723,0.8743132948875427,0.417860746383667,1.3527370691299438,-0.28830868005752563,1.7466721534729004,0.537690281867981,-0.0416046679019928,-0.4179058372974396,0.36157089471817017,-0.206713005900383,0.5042471885681152,0.2751026451587677,0.7651657462120056,-0.1369599848985672,-0.6248814463615417,0.5628159046173096,-0.8201494812965393,-0.5457261800765991,0.589672327041626,0.9101659655570984,0.590653657913208,-0.7118022441864014,0.7801161408424377,-0.514864981174469,0.8355632424354553,-0.3425329029560089,0.8696377873420715,0.999066174030304,0.4436967074871063,-0.3134302496910095,0.1728845238685608,0.77223801612854,-1.3323642015457153,-0.824835479259491,-0.054873544722795486,1.4967732429504395,0.6295182704925537,-0.004986936692148447,1.036603569984436,0.1800958812236786,-0.16148599982261658,0.0621366910636425,-0.19263051450252533,0.6486251950263977,0.08913663774728775,-0.04712560400366783,-0.013710811734199524,0.07211074233055115,-0.617929220199585,0.22126467525959015,0.3710919916629791,0.05509117990732193,0.25179189443588257,0.016117578372359276,0.13369019329547882,-0.08868619054555893,0.5049064755439758,-0.06911109387874603,0.5402581691741943,0.9525039792060852,0.5748857259750366,-0.44204455614089966,0.12296002358198166,0.5648701786994934,-0.5564045906066895,-0.43038618564605713,0.4028652310371399,0.7824633121490479,0.44953399896621704,-0.27711766958236694,0.4574922025203705,0.3643895089626312,0.5618233680725098,1.8298784494400024,-0.46598678827285767,0.9047891497612,0.5463894009590149,-0.505303680896759,-0.7336838245391846,0.938738226890564,-0.11712904274463654,-0.20878364145755768,1.0991038084030151,-0.30119040608406067,0.8365605473518372,0.03004760853946209,0.3567749261856079,-0.5702172517776489,-0.8917160630226135,0.10195492208003998,-0.9330668449401855,-0.39954888820648193,0.20909111201763153,1.0104453563690186,-0.17668643593788147,-0.2177332490682602,-0.12985268235206604,0.6005155444145203,-0.4651167690753937,-0.3835802972316742,-0.41161951422691345,-0.6152165532112122,-0.6732510924339294,-0.4222501814365387,0.7315677404403687,-0.5970659852027893,0.9065919518470764,0.9135664105415344,1.1186667680740356,-0.3963392674922943,-1.0372017621994019,0.8649475574493408,-1.2794781923294067,-0.5408045649528503,0.8889397978782654,1.1222516298294067,0.7516406774520874,-1.2445344924926758,0.952847421169281,-0.7877829074859619,0.30456119775772095,0.8329488039016724,-0.9318763613700867,0.07406318932771683,0.12645065784454346,-0.3702490031719208,-0.46800366044044495,-1.135765552520752,1.3052470684051514,0.1643621027469635,0.4463890790939331,-1.3444887399673462,0.21562804281711578,0.06440026313066483,-0.46131688356399536,-0.4244920015335083,0.5786002278327942,-0.04791867360472679,0.31770703196525574,0.6874576807022095,0.7019166350364685,-0.5032958388328552,0.29522767663002014,0.6690435409545898,-0.5890234112739563,-0.3553345203399658,0.3580196499824524,0.8507983684539795,0.3805611729621887,-0.43046140670776367,0.6457415819168091,0.4400956332683563,-0.30280497670173645,0.9042467474937439,-1.3041589260101318,0.33756545186042786,-0.12286105006933212,0.28690698742866516,-0.163504496216774,-1.904659628868103,2.556356430053711,0.8157962560653687,0.06065768003463745,-1.28915274143219,0.35629385709762573,0.8018076419830322,-0.7105922102928162,0.14916998147964478,0.13316446542739868,0.9701749682426453,-0.782466471195221,0.47448447346687317,-0.10692066699266434,-0.3339619040489197,-0.24306192994117737,-1.3010975122451782,1.8414645195007324,0.6348488330841064,0.2804802656173706,-1.431308627128601,0.2945316731929779,0.6085599064826965,-0.7215609550476074,-0.1401805579662323,0.6798104047775269,-0.2109186202287674,1.091414451599121,0.7962873578071594,0.5642566084861755,-0.42994415760040283,-0.5854963660240173,1.3294320106506348,-1.985199213027954,-1.2911972999572754,0.35457146167755127,1.3301029205322266,0.730239748954773,-0.6706711649894714,1.4118551015853882,-0.3333212733268738,1.12466299533844,-0.2222260683774948,0.546492338180542,-0.45024898648262024,0.31877076625823975,-0.581995964050293,0.6631646752357483,0.4174744784832001,-0.39648833870887756,-2.023796319961548,0.2491173893213272,0.8665174841880798,0.6387571692466736,0.2269858568906784,1.6630792617797852,0.8776824474334717,-0.2755098342895508,0.03147292137145996,-0.718158483505249,-0.36568689346313477,-0.07451877743005753,0.2742980420589447,-0.07491767406463623,-0.023980218917131424,-0.14560681581497192,0.17589116096496582,-0.8139564394950867,0.12033283710479736,-0.6122809648513794,0.06769179552793503,-0.1781044900417328,-0.06081659346818924]},"forgetHidden":{"rows":42,"columns":42,"weights":[0.6210049986839294,0.603924572467804,-0.6302548050880432,0.48037588596343994,-0.4689951241016388,-0.5070518851280212,0.5675055384635925,-0.5936663150787354,-0.4174761474132538,-0.058116622269153595,-0.05972198769450188,0.03870680183172226,0.6363829374313354,-0.49390536546707153,0.33698880672454834,0.28569793701171875,-0.11967778205871582,0.26263555884361267,0.2530598044395447,0.7184757590293884,-0.5224139094352722,-0.33339616656303406,-0.010606960393488407,0.03428489342331886,-0.008917481638491154,0.04226166754961014,-0.5800386667251587,0.5746158361434937,0.015374399721622467,-0.507051408290863,-0.5388197898864746,-0.656935453414917,-0.49346062541007996,-0.3121810555458069,-0.17207691073417664,-0.32157501578330994,0.6654382348060608,-0.49051713943481445,0.46334460377693176,-0.5076201558113098,-0.13630713522434235,0.3947434723377228,0.45261362195014954,1.0093244314193726,-0.7591304183006287,0.5525254607200623,-0.35879379510879517,-0.154044046998024,0.49848315119743347,-0.8321919441223145,0.22871343791484833,0.4167361855506897,0.6550233960151672,-0.3245948553085327,0.8065148591995239,-0.356516569852829,0.1954898238182068,-0.46168065071105957,0.6070929765701294,0.5995814800262451,0.4425497055053711,0.9489971995353699,-0.374525249004364,-0.2551374137401581,-0.3157588839530945,-0.6817223429679871,-0.5076759457588196,0.28702956438064575,-0.5588820576667786,0.12615695595741272,-0.43369901180267334,-0.5217695236206055,-0.5549875497817993,-1.1367058753967285,-0.18567262589931488,-0.08095792680978775,0.10392400622367859,0.04532203450798988,0.8860239386558533,-0.2615380883216858,0.18786758184432983,-0.2274715155363083,0.3461972773075104,0.4476628303527832,0.7276732325553894,0.704248309135437,-0.767266035079956,0.5279213786125183,-0.4624572992324829,-0.33286532759666443,0.6870558857917786,-0.6485278010368347,-0.13599568605422974,0.04912058264017105,0.25869911909103394,-0.3431628942489624,0.8182194828987122,-0.6058602333068848,0.27329227328300476,-0.44613710045814514,0.1010429710149765,0.40543195605278015,0.581076979637146,0.6436485648155212,-0.47781768441200256,-0.3618290424346924,0.10523775964975357,-0.13977733254432678,-0.2066715657711029,0.49308663606643677,-0.7248730063438416,0.5680849552154541,-0.2808644771575928,-0.6510454416275024,-0.8139958381652832,-0.7478287816047668,-0.481334388256073,-0.4365650415420532,-0.0390319898724556,-0.04095311835408211,0.7358394265174866,-0.42444849014282227,0.3974718451499939,-0.3283098340034485,0.02706230990588665,0.5598387122154236,0.4786439538002014,0.40093159675598145,-0.36192163825035095,0.4506694972515106,-0.39943647384643555,-0.3603445589542389,0.37223348021507263,-0.4741747975349426,-0.11779576539993286,-0.07937408238649368,-0.030974574387073517,0.06675293296575546,0.4116007387638092,-0.47174036502838135,0.37686896324157715,0.014228555373847485,0.10737643390893936,-0.033645857125520706,0.4338849186897278,0.12752382457256317,-0.3697662055492401,-0.437686949968338,0.007877150550484657,-0.09284085035324097,-0.040187787264585495,0.07642541080713272,-0.4721744954586029,0.4096202254295349,0.21878091990947723,-0.42929938435554504,-0.3013060986995697,-0.45098134875297546,-0.4009056091308594,-0.5872715711593628,-0.22392819821834564,-0.16938331723213196,0.3949092924594879,-0.3737586736679077,0.2991226017475128,-0.3772876262664795,-0.05157427489757538,0.46049556136131287,0.5651339292526245,0.4284855127334595,-0.5489892363548279,0.5895577073097229,-0.5523698329925537,-0.5118300318717957,0.5033562779426575,-0.4756091237068176,-0.47606948018074036,-0.35914918780326843,-0.17750684916973114,0.2996618151664734,0.5556244254112244,-0.483673095703125,0.5546843409538269,0.26051992177963257,-0.13999168574810028,-0.17311151325702667,0.5990668535232544,0.2541271448135376,-0.5397861003875732,-0.6238111853599548,0.10602007061243057,0.23465505242347717,0.17069284617900848,-0.20722050964832306,-0.5878876447677612,0.6347959041595459,0.38783320784568787,-0.5830177664756775,-0.457279771566391,-0.4374488890171051,-0.5845631957054138,-0.5028301477432251,-0.3319343030452728,-0.3508354425430298,0.45622125267982483,-0.4950729012489319,0.5984776616096497,-0.5575588345527649,-0.3191918134689331,0.5040121078491211,0.7434420585632324,0.8929917812347412,-0.8956757187843323,0.29532527923583984,-0.32603058218955994,0.3890567719936371,0.7421654462814331,-0.7702959179878235,0.4688366949558258,0.27400532364845276,0.0671393871307373,-0.45623448491096497,0.7842697501182556,-0.7213287949562073,0.32574471831321716,-0.38633960485458374,-0.05021664500236511,0.14461226761341095,0.3159923255443573,0.9991884827613831,-0.7064172029495239,0.14064007997512817,-0.09140702337026596,-0.0020339444745332003,-0.006374710239470005,0.13977840542793274,-0.7239809632301331,-0.13254176080226898,-0.5853341221809387,-0.6325948238372803,-0.6154495477676392,-0.7585140466690063,0.2018156796693802,0.10573744773864746,0.3728320598602295,0.3693608045578003,0.7250692248344421,0.2293422520160675,-0.1780795007944107,-0.02491633966565132,0.5262091755867004,0.8481537699699402,0.6871357560157776,0.6826419234275818,-0.671245813369751,0.500257134437561,-0.5484036207199097,-0.43134036660194397,0.7262781858444214,-0.6283610463142395,-0.2510777413845062,0.03445922210812569,0.1902434080839157,-0.02184164710342884,0.6026872396469116,-0.5243528485298157,0.36375924944877625,-0.0865352675318718,-0.080290287733078,0.28599607944488525,0.4325924515724182,0.6750620603561401,-0.5112592577934265,-0.5245783925056458,0.08089808374643326,-0.045132607221603394,-0.04362933710217476,-0.06867155432701111,-0.6710231304168701,0.5441577434539795,-0.24374088644981384,-0.5761451125144958,-0.7651491165161133,-0.6699492335319519,-0.46544694900512695,-0.12378998845815659,-0.09716299921274185,-0.19670206308364868,0.6825572848320007,-0.37729960680007935,0.3527660667896271,-0.37835007905960083,0.023613950237631798,0.5975612998008728,0.746880292892456,0.8984637260437012,-0.9384214282035828,0.5008050203323364,-0.44784313440322876,-0.3424014151096344,0.7279198169708252,-0.9347853064537048,-0.036624278873205185,0.28776195645332336,0.1421552449464798,0.0778355598449707,0.9239694476127625,-0.48222029209136963,0.16273494064807892,-0.2134583443403244,0.27066299319267273,0.5763218402862549,0.532849133014679,0.7312256693840027,-0.4191398620605469,-0.668921709060669,-0.0018716208869591355,-0.3500206768512726,-0.2971561551094055,0.052975136786699295,-0.601891279220581,0.7214782238006592,-0.27954742312431335,-0.5668116807937622,-0.5594089031219482,-0.955934464931488,-0.6560645699501038,-0.4683622717857361,-0.05034022405743599,-0.5614740252494812,0.810859203338623,-0.6896711587905884,0.5793952941894531,-0.20001548528671265,-0.09794128686189651,0.4421534538269043,-0.5847352147102356,-0.48238247632980347,0.45138782262802124,-0.21482746303081512,-0.07094088196754456,-0.5327946543693542,-0.5809471011161804,0.5026699304580688,-0.6231238842010498,-0.6407797932624817,-3.1335816383361816,1.6032650470733643,-0.46346315741539,-0.10013274103403091,0.36653345823287964,4.1770405769348145,-4.158092975616455,0.1703275591135025,-1.8411924839019775,-1.0297141075134277,0.4214398264884949,-0.21284975111484528,1.43463134765625,0.5744330286979675,0.5622434020042419,-0.39870935678482056,0.514485239982605,2.279717206954956,0.17602412402629852,-1.7855719327926636,1.1114691495895386,0.6920405030250549,3.7513296604156494,0.5693321228027344,-0.16199032962322235,0.06266230344772339,-0.3070584833621979,0.19698747992515564,-0.029600342735648155,0.6379553079605103,-1.2687053680419922,-0.017031608149409294,-0.6823709607124329,-1.3561172485351562,1.4563804864883423,-0.25696510076522827,0.18090705573558807,-1.7455335855484009,-0.9417557120323181,1.435925006866455,-0.5642978549003601,-0.4951237440109253,-0.1965547502040863,0.19366180896759033,-1.414497971534729,0.2151792198419571,0.53718501329422,-0.502703070640564,-0.18374449014663696,-0.22979207336902618,-0.7856449484825134,-0.6725826859474182,0.5999976992607117,1.0212934017181396,0.5137474536895752,0.39552173018455505,0.21829058229923248,-0.46982401609420776,0.7470912933349609,0.1390569806098938,0.6780034899711609,0.19149231910705566,0.2768958806991577,1.642357587814331,0.2202332466840744,0.08336453884840012,-0.15766103565692902,-0.032320793718099594,-0.9098305106163025,-0.13339319825172424,0.15289035439491272,-0.6847630143165588,-0.5080536007881165,-0.04023118317127228,-0.15404284000396729,1.028212308883667,-1.018394112586975,0.8414017558097839,0.2678852677345276,-1.8500210046768188,-0.05308011174201965,-1.1289371252059937,0.4286670982837677,0.9302496314048767,-1.465951681137085,-0.80791175365448,1.03550124168396,-0.07433211803436279,-0.3924996256828308,-0.8052513003349304,0.6786161661148071,0.6086786389350891,2.07668399810791,1.2128719091415405,-0.005230731796473265,-1.5425751209259033,0.7592282891273499,0.1627303808927536,0.09343090653419495,-0.0985296219587326,-0.4951176345348358,1.3508946895599365,-0.6092112064361572,0.4566901922225952,0.8175228238105774,-0.9602841734886169,-1.4895377159118652,0.6357699632644653,2.2474520206451416,-1.3196572065353394,1.486831784248352,-1.2197986841201782,1.3104310035705566,-0.03726893290877342,-0.220383882522583,1.4570741653442383,-0.7738708257675171,-0.9954107403755188,1.014230728149414,-0.14471350610256195,0.11425561457872391,1.3827775716781616,-0.9176604151725769,1.0099226236343384,0.1847347617149353,0.21847884356975555,1.1080729961395264,-0.64250248670578,-1.137689471244812,0.1668727844953537,-0.5436538457870483,-1.3357540369033813,1.030495524406433,0.8928198218345642,-0.8386924266815186,-1.036247730255127,0.27714186906814575,1.064107060432434,0.17575162649154663,-0.8961604237556458,0.07322201877832413,0.7230264544487,0.7996437549591064,-0.7428202033042908,-0.07900901138782501,0.19091618061065674,0.1629977822303772,0.8845109343528748,0.8746523857116699,0.3222941756248474,-0.02869849093258381,0.7793691754341125,-1.2442362308502197,0.865586519241333,-0.9242035150527954,-0.6586834192276001,0.552126407623291,0.4224741458892822,0.6071820259094238,0.7962714433670044,-0.8431409597396851,0.4949655532836914,-0.5226455926895142,-0.362664133310318,0.7009907364845276,-0.7384500503540039,-0.05271152779459953,0.1854250580072403,0.2998126149177551,-0.3463882505893707,0.7104814648628235,-0.5056877136230469,0.2053358256816864,-0.5212187767028809,0.1982477307319641,0.36283352971076965,0.41376426815986633,0.6836616396903992,-0.4379369020462036,-0.3486649692058563,-0.013269882649183273,-0.29377567768096924,-0.3917027413845062,0.3646668493747711,-0.7528200745582581,0.49853378534317017,-0.2764616012573242,-0.543174147605896,-0.7356458306312561,-0.749794602394104,-0.5413817167282104,-0.4327291250228882,-0.04210267961025238,-0.2203235924243927,0.8094144463539124,-0.40554237365722656,0.4652629494667053,-0.2824913263320923,0.049613576382398605,0.5481367111206055,0.6286850571632385,0.6283079385757446,-0.5963847041130066,-0.21739140152931213,0.2648750841617584,0.4135255515575409,0.718019425868988,-0.611128568649292,0.8447675704956055,-0.020901886746287346,0.22985166311264038,-0.015567000955343246,0.619010865688324,-0.6892646551132202,-0.11040028929710388,0.17930293083190918,-1.5300875902175903,-0.5174685716629028,0.13391374051570892,0.4759393036365509,-0.2698799967765808,0.7837108373641968,0.2333916425704956,0.1082930788397789,0.1434929370880127,-0.6965305209159851,-0.6651327610015869,-0.374020516872406,-1.1398813724517822,-0.4762120246887207,-0.2087399661540985,-0.6924365162849426,-0.004582218825817108,-0.004964915104210377,0.6500290632247925,-0.23051832616329193,0.6615372896194458,0.4593331217765808,-0.3695521950721741,-0.21023887395858765,-0.13735413551330566,0.6944449543952942,0.5080263614654541,0.6528475880622864,-0.744702935218811,0.7321933507919312,-0.023714620620012283,0.05419444665312767,0.5600059032440186,-0.7644873261451721,0.6435845494270325,0.39708372950553894,0.3672106862068176,-0.9140470027923584,0.6483660936355591,-0.48282432556152344,-0.06200790777802467,-1.1285513639450073,1.4839136600494385,0.77585369348526,1.3016637563705444,-0.38683760166168213,-0.3938559889793396,-0.5246573686599731,0.036225661635398865,-0.6299604773521423,-0.49139025807380676,1.3375794887542725,-0.6978307366371155,-0.23246657848358154,-0.704869270324707,-0.4902035892009735,0.06288773566484451,-0.5568995475769043,0.048055995255708694,-1.8902885913848877,0.5716917514801025,0.5220224261283875,0.6057296395301819,0.2024131566286087,-0.1978415548801422,-0.332087904214859,0.7677921652793884,0.6701980829238892,-0.03232530131936073,-0.04653707519173622,-0.010714000090956688,0.052531324326992035,-0.15382346510887146,0.36066630482673645,0.042926739901304245,-0.05238202586770058,0.5470478534698486,0.3296659588813782,0.518744945526123,-0.4915636479854584,-0.08965133875608444,0.020926769822835922,-0.6297513246536255,-0.5133059620857239,0.5637542009353638,0.47655656933784485,0.14723454415798187,-0.010642224922776222,-0.14529624581336975,0.32129356265068054,0.04569006338715553,-0.3238540291786194,-0.2271241545677185,0.6658335328102112,-0.09758247435092926,-0.6452746987342834,-0.46190986037254333,0.013691003434360027,0.036324821412563324,0.02438739873468876,0.5719817280769348,-0.019276805222034454,0.3552909791469574,0.3545193672180176,0.005882157478481531,0.4496059715747833,-0.40003180503845215,0.19626985490322113,0.513028085231781,0.24421855807304382,0.28642433881759644,0.24546124041080475,-0.34170058369636536,0.012682761996984482,-0.2208804488182068,0.02233690768480301,0.23457568883895874,-0.31574755907058716,0.5016769766807556,0.2323770523071289,0.05561700835824013,-0.6485276818275452,0.2491033524274826,-0.42051512002944946,-0.3833248019218445,-0.834604799747467,0.3820536136627197,0.3624560832977295,-0.07119389623403549,0.37570321559906006,-0.5878304243087769,0.07175837457180023,0.11338701844215393,-0.28840553760528564,-0.11521611362695694,0.8404870629310608,-0.32172417640686035,-0.14941555261611938,-0.5045526623725891,-0.26193732023239136,-0.18233463168144226,-0.2670075595378876,0.2643049955368042,-0.17216302454471588,0.4603804051876068,0.07137778401374817,0.36324822902679443,0.24103745818138123,-0.18953344225883484,-0.05322933569550514,0.26153185963630676,0.456045538187027,-0.247517928481102,-0.18142665922641754,0.15153759717941284,0.20117877423763275,-0.3399326503276825,-0.10000642389059067,-0.40534859895706177,0.06443965435028076,0.1652837097644806,0.1638568639755249,-0.25745031237602234,-0.5546210408210754,-0.2628900706768036,0.20111043751239777,-0.20935091376304626,-1.0215095281600952,0.42708271741867065,0.2065768986940384,0.0052039483562111855,-0.19851626455783844,0.44422033429145813,0.18007919192314148,0.20388776063919067,-0.2659253478050232,-0.10831131786108017,0.49141237139701843,0.17980672419071198,-0.18629346787929535,-0.02259342558681965,0.2255406230688095,0.10529480129480362,0.2870226204395294,0.3075929582118988,0.276215136051178,0.1257220357656479,0.0633421242237091,-0.2560039460659027,0.18617907166481018,-0.10585939139127731,-0.2248675376176834,0.25776511430740356,0.07200217247009277,3.3704371452331543,0.859766960144043,-0.8126338720321655,0.37026652693748474,0.29192253947257996,0.38046562671661377,3.384451150894165,-0.7624303698539734,-0.1884508728981018,-0.2714412212371826,-0.49914586544036865,2.105247735977173,0.870997965335846,-1.3986245393753052,1.183347225189209,1.1391187906265259,-0.23551131784915924,-0.4252851605415344,-0.27515271306037903,-1.209715723991394,-2.6117300987243652,-4.719022750854492,1.1658861637115479,0.9111107587814331,1.1567052602767944,-0.02026394009590149,-2.97682785987854,1.430615782737732,0.10151953995227814,-0.6190409064292908,-0.6625649929046631,-0.7151973247528076,-0.4908141791820526,-0.8332821130752563,-1.3700180053710938,-0.07354434579610825,1.0575520992279053,-0.2853274643421173,0.38947173953056335,-2.3575222492218018,-0.20051468908786774,0.21208420395851135,1.059794545173645,0.9947642683982849,-1.0490537881851196,0.16731245815753937,-0.3974297046661377,-0.40728867053985596,1.0117945671081543,-1.0143864154815674,0.2496526688337326,0.5815208554267883,0.4614952504634857,-0.43259572982788086,1.0106755495071411,-2.037093162536621,0.6988031268119812,-1.1189411878585815,1.1543258428573608,0.5420395135879517,1.6268644332885742,1.8812577724456787,-0.9419817924499512,0.5630287528038025,-0.5942452549934387,0.1971082091331482,0.1626744419336319,-0.47728389501571655,-1.048179268836975,1.3038755655288696,-0.7007371187210083,-1.4457695484161377,-0.6674134135246277,-1.041102409362793,-1.3910375833511353,-2.757248640060425,-0.08845876157283783,-0.4726236164569855,1.113429307937622,-0.5227445363998413,0.5265642404556274,0.18088611960411072,0.24801771342754364,1.887265920639038,0.7099993824958801,0.9540794491767883,-0.8871703147888184,0.5136844515800476,-0.40007835626602173,-0.016011590138077736,0.8706341981887817,-0.8434550762176514,0.18745088577270508,-0.00660459790378809,0.5053741931915283,-0.14528918266296387,0.8168653249740601,-0.6529310345649719,0.21139147877693176,-0.1692754477262497,-0.0060617984272539616,0.40720200538635254,0.35784390568733215,0.6971740126609802,-0.2619360387325287,-0.3738255500793457,-0.15011480450630188,-0.18085379898548126,-0.06654848158359528,0.33587512373924255,-0.771205484867096,0.3402194082736969,-0.5795194506645203,-0.5966849327087402,-0.6545712351799011,-0.9431796669960022,-0.39679569005966187,-0.329631507396698,0.11698638647794724,0.0235541183501482,0.8392537832260132,-0.3783736824989319,0.2691919207572937,-0.58652663230896,0.17885002493858337,0.634239912033081,0.9836800694465637,0.9001151919364929,-0.9400736689567566,0.061042893677949905,0.48857301473617554,-1.151271939277649,1.0872557163238525,-0.8857403993606567,0.6810991764068604,0.9719080924987793,-0.46159878373146057,0.37975013256073,0.8997151851654053,-0.39777037501335144,-0.6154981851577759,0.2991061508655548,1.3469301462173462,1.0901885032653809,1.100192904472351,1.0842509269714355,-0.6627029776573181,-1.5340749025344849,0.9721684455871582,-0.15185174345970154,-1.2653007507324219,0.74966961145401,-1.0768486261367798,1.7883105278015137,-0.9140723347663879,-0.12175336480140686,-0.364088773727417,-0.9626398086547852,-2.151848077774048,-0.9286759495735168,0.10911167412996292,-1.509321689605713,0.6911678910255432,-1.7299500703811646,1.7050126791000366,0.0759228840470314,-0.08404362201690674,-0.4572095274925232,0.0428423210978508,0.44969820976257324,-0.36340469121932983,-0.02376260980963707,-0.056457504630088806,0.6265221834182739,-0.20415598154067993,-0.4737599790096283,0.24123719334602356,0.5255134701728821,0.08459421992301941,-0.3101539611816406,0.3793070614337921,-0.10972541570663452,-0.2521667778491974,-0.4847916066646576,0.16062763333320618,0.21992599964141846,0.11122731864452362,-0.05542033538222313,0.10745041817426682,0.36537957191467285,0.11639478802680969,-0.11734841763973236,-0.03586693853139877,0.33412492275238037,0.005984897259622812,-0.06561015546321869,-0.04070693626999855,0.04591831564903259,-0.04061843082308769,-0.3630392253398895,-0.12614011764526367,0.0021723019890487194,0.14246807992458344,0.4323936402797699,0.2687572240829468,0.48372307419776917,-0.5563111305236816,0.16109603643417358,0.33692166209220886,0.1359362155199051,-0.3015187084674835,-0.1589476466178894,0.19247128069400787,0.1066313236951828,-0.31426623463630676,0.09045930951833725,-0.35385191440582275,0.08516619354486465,0.23720130324363708,0.13141296803951263,-0.0745173841714859,-0.5093721151351929,-0.23842090368270874,0.042880699038505554,-0.2742254436016083,-0.9567500352859497,0.38257578015327454,0.3479164242744446,-0.03505370020866394,-0.0799531489610672,0.39644014835357666,0.1295892894268036,0.11217115074396133,-0.22606313228607178,0.01562521606683731,0.7751316428184509,0.1294674426317215,-0.2517428398132324,-0.25425606966018677,0.0178836677223444,-0.06819140166044235,0.21329829096794128,0.24631118774414062,0.22554481029510498,0.1548846960067749,0.17778664827346802,-0.23939311504364014,0.2949247658252716,-0.2504690885543823,-0.007655237335711718,0.22439152002334595,0.07373882830142975,-0.1716039776802063,-0.12834253907203674,0.10932357609272003,-0.0024490749929100275,-0.07942777127027512,-0.9049571752548218,-0.2359301894903183,0.14969712495803833,-0.24722908437252045,-0.27192917466163635,-0.22510941326618195,0.7850068807601929,-0.21958152949810028,-0.15710848569869995,0.6858821511268616,0.42427265644073486,-0.2837370038032532,-0.40583038330078125,0.038239866495132446,-0.9828706979751587,0.12043426185846329,-0.9342969655990601,0.5867465138435364,0.043022483587265015,0.412558913230896,-0.3880285918712616,0.1871298849582672,1.231871485710144,0.20653215050697327,-0.1313316375017166,0.15664911270141602,0.22318333387374878,-1.1115541458129883,-0.1882387399673462,-0.40793272852897644,-0.8334416747093201,-0.14598916471004486,-0.8221370577812195,0.9496737122535706,-0.15632013976573944,-0.7257575392723083,0.14445799589157104,-0.8497700095176697,-0.29188069701194763,0.2857094407081604,0.057484857738018036,-0.20660054683685303,0.3217455744743347,-1.127893328666687,0.19079901278018951,0.8521866798400879,0.8227736353874207,0.40427371859550476,-0.3708178997039795,-0.4637432098388672,4.040450572967529,-2.2635931968688965,-3.6717689037323,1.6183152198791504,2.3746492862701416,-0.660572350025177,1.7835699319839478,0.9698158502578735,2.5402486324310303,-0.04923281818628311,-1.705781102180481,-0.9446828365325928,0.2330092042684555,0.7535799145698547,-0.11974481493234634,-0.21044133603572845,0.0030940023716539145,0.0505700558423996,0.4313100576400757,-0.17894060909748077,0.43125998973846436,2.150672674179077,0.1908208280801773,-0.4151083827018738,0.34655043482780457,-0.32028666138648987,2.202122926712036,0.8205209374427795,-1.4260926246643066,0.6824393272399902,0.6770679354667664,-0.6634020805358887,0.4358629882335663,-0.39832884073257446,-0.3589005172252655,0.6590359807014465,-0.6419982314109802,-0.23869766294956207,-0.004472491331398487,0.0879480242729187,0.2130434364080429,0.632696270942688,-0.4536961615085602,0.1680011749267578,0.0054612900130450726,-0.07032190263271332,0.2826082408428192,0.3061519265174866,0.6844782829284668,-0.3701629936695099,-0.5319845080375671,0.02238604426383972,-0.147698774933815,-0.1503525972366333,0.22068510949611664,-0.6350380182266235,0.6290676593780518,-0.2155420035123825,-0.5388984084129333,-0.6632236242294312,-0.7063751816749573,-0.6310522556304932,-0.14124511182308197,-0.1977783441543579,-0.32142969965934753,0.7468122243881226,-0.599632203578949,0.48869094252586365,-0.3248491585254669,-0.20587290823459625,0.388241171836853,0.581964373588562,0.6328220963478088,-0.6271381378173828,0.30492135882377625,0.4660346806049347,0.27857187390327454,0.5560254454612732,-0.6750369668006897,0.28816449642181396,0.28783175349235535,0.16508305072784424,-0.7065657377243042,0.6528637409210205,-0.5807417035102844,-0.001402264111675322,-0.6742820143699646,0.313707172870636,0.2748609483242035,0.20269013941287994,-0.2023625373840332,-0.5576679706573486,0.33870241045951843,0.2902184724807739,-0.16747461259365082,-0.08963518589735031,0.3066498637199402,-0.6694204211235046,-0.2659335136413574,-0.17976394295692444,-0.32887592911720276,-0.4345359206199646,-0.5498764514923096,0.08511823415756226,-0.42737725377082825,0.41217362880706787,0.3004530966281891,0.6633782386779785,0.22958819568157196,-0.27194470167160034,-0.39197707176208496,0.6420685052871704,0.6900448203086853,0.10220389813184738,0.06153174117207527,-0.09932880848646164,-0.04802555963397026,-0.1856016218662262,0.07356897741556168,0.12417061626911163,-0.1374247670173645,0.3793744146823883,0.19462618231773376,-0.021250762045383453,-0.3537306785583496,0.0005638241418637335,-0.09022476524114609,0.030951816588640213,-0.04783283546566963,0.01196025125682354,0.17633335292339325,0.01853213645517826,0.03589802607893944,-0.17951175570487976,0.21714933216571808,0.23065006732940674,-0.050245314836502075,-0.006139098200947046,0.32546138763427734,-0.0727730542421341,-0.2316765934228897,-0.535908043384552,-0.12406135350465775,0.14015962183475494,-0.023092495277523994,0.24010613560676575,0.08009566366672516,0.3613033592700958,0.23621216416358948,0.04218093305826187,0.1359442174434662,-0.12128283083438873,-0.0465468131005764,0.18406060338020325,0.06685591489076614,-0.42967766523361206,-0.24663196504116058,0.37330710887908936,0.060824982821941376,-1.33087158203125,-0.6447192430496216,-0.2644914388656616,0.33108681440353394,-0.12176563590765,-0.029636776074767113,-0.0656510591506958,0.17172710597515106,-0.3878614902496338,0.297451376914978,0.49255916476249695,0.13921724259853363,0.176679328083992,-0.047884173691272736,0.2631492614746094,-0.4941767156124115,-0.4937955439090729,-0.29555290937423706,0.2461889386177063,0.09896960109472275,0.02590755932033062,-0.012002775445580482,0.32397761940956116,-0.21860289573669434,-0.14501449465751648,-0.4444069564342499,0.026833750307559967,0.40076398849487305,-0.2073216289281845,-0.09203645586967468,-0.2518145740032196,0.16582883894443512,-0.3541596233844757,-0.005175480619072914,-0.04552886262536049,-0.8576093912124634,-0.08523393422365189,-0.367618203163147,0.6502848863601685,0.5215182304382324,-0.5184057950973511,0.34145310521125793,-0.3627018332481384,-0.2684038579463959,0.5978020429611206,-0.6057877540588379,-0.029999446123838425,-0.07383029907941818,-0.04106266424059868,0.35957348346710205,0.578551173210144,-0.5352979898452759,0.493766188621521,0.1805010885000229,-0.6745890378952026,0.025964342057704926,0.4469316899776459,0.4448932409286499,-0.5065335631370544,-0.4706464111804962,-0.025594038888812065,-0.010958883911371231,-0.0534604974091053,-0.1987590193748474,-0.5193907022476196,0.3700769543647766,-0.017581364139914513,-0.6179720759391785,-0.4958972930908203,-0.548568069934845,-0.5626394152641296,-0.6409510970115662,0.009100605733692646,-0.36000868678092957,0.6003544926643372,-0.39565184712409973,0.46637818217277527,-0.5641745924949646,-0.4516945481300354,0.5191652178764343,0.6628782749176025,0.8104662895202637,-0.6551198959350586,0.5117484331130981,-0.37319695949554443,0.045275408774614334,0.6369967460632324,-0.7257402539253235,0.025137880817055702,0.24426835775375366,0.5263417363166809,-0.5698862075805664,0.7609332203865051,-0.5043631792068481,0.12393692880868912,-0.5744926929473877,0.009356865659356117,0.392015278339386,0.23684732615947723,0.7457394003868103,-0.4675602614879608,-0.25294914841651917,0.04314693063497543,-0.4472375214099884,-0.2695193588733673,0.7627900242805481,-0.6566820740699768,0.049250151962041855,-0.3798885643482208,-0.3623460531234741,-0.9241811633110046,-0.7904125452041626,0.03593284636735916,0.0163031667470932,0.013846647925674915,0.09873019903898239,0.6994434595108032,-0.04974091053009033,-0.07522169500589371,-0.16859303414821625,0.256296843290329,0.5469555854797363,-0.04313579574227333,0.0344570130109787,-0.027399534359574318,-1.8106226921081543,0.5476192235946655,2.0535829067230225,-0.12107139825820923,0.017152924090623856,1.4216386079788208,0.2863460183143616,0.49320492148399353,-0.3181907534599304,-0.08336856961250305,0.048816464841365814,0.052731093019247055,-0.4573664367198944,0.733363151550293,0.31280437111854553,0.6566355228424072,1.2982409000396729,0.2422817498445511,-0.33190208673477173,0.1009942963719368,-0.16886213421821594,-0.10647308081388474,0.597633421421051,-0.025729548186063766,-2.0890417098999023,-1.441396951675415,-0.17279042303562164,0.0870196744799614,-0.0030265110544860363,0.4422817826271057,0.805512547492981,0.1834416687488556,2.172719717025757,-0.03139467164874077,1.9942762851715088,-2.0246927738189697,-0.7266239523887634,0.38382330536842346,-0.24805662035942078,0.3085304796695709,0.2560628652572632,-0.21728268265724182,0.42970767617225647,-0.24362541735172272,-0.6977151036262512,0.2657175362110138,-0.25907841324806213,0.6589599847793579,-0.11172126978635788,0.20092111825942993,0.06395415961742401,0.3126945495605469,-0.0789065882563591,0.20166179537773132,0.17977553606033325,2.7264528274536133,0.10348765552043915,2.655189037322998,1.0256093740463257,-0.28282999992370605,0.07199857383966446,2.251873254776001,-0.02477155439555645,-0.17787642776966095,-0.24270863831043243,-0.17173610627651215,-0.7622970342636108,-0.09718496352434158,-0.8399122953414917,2.7386956214904785,-0.3575465679168701,-3.934288263320923,-0.55024254322052,-1.2694958448410034,-0.22658054530620575,0.19366219639778137,-0.7183927893638611,0.4821408987045288,-2.1047513484954834,-0.1819424331188202,0.18013577163219452,0.10285079479217529,0.06863269209861755,-0.01340271532535553,-0.0302982609719038,-0.10728530585765839,0.17228685319423676,0.178975448012352,-0.043677233159542084,0.2994823157787323,0.16271591186523438,