{"type":"LSTM","options":{"inputSize":16,"inputRange":16,"hiddenLayers":[42,48],"outputSize":16,"decayRate":0.999,"smoothEps":1e-8,"regc":0.000001,"clipval":5,"maxPredictionLength":1,"dataFormatter":{"indexTable":{"1":8,"2":5,"3":11,"4":12,"5":2,"6":10,"7":4,"8":9,"9":6,"X":0,"":1,"O":3,"/":7,"stop-input":13,"start-output":14,"unrecognized":15},"characterTable":{"0":"X","1":"","2":"5","3":"O","4":"7","5":"2","6":"9","7":"/","8":"1","9":"8","10":"6","11":"3","12":"4","13":null,"14":null,"15":null},"values":[{"input":["X","","","","","","","",""],"output":"5"},{"input":["X","","","X","O","","","",""],"output":"7"},{"input":["X","","X","X","O","","O","",""],"output":"2"},{"input":["X","O","X","X","O","","O","X",""],"output":"9"},{"input":["X","O","X","X","O","X","O","X","O"],"output":"/"},{"input":["","X","","","","","","",""],"output":"1"},{"input":["O","X","","","X","","","",""],"output":"8"},{"input":["O","X","","X","X","","","O",""],"output":"6"},{"input":["O","X","","X","X","O","X","O",""],"output":"3"},{"input":["O","X","O","X","X","O","X","O","X"],"output":"/"},{"input":["","","X","","","","","",""],"output":"5"},{"input":["X","","X","","O","","","",""],"output":"2"},{"input":["X","O","X","","O","","","X",""],"output":"9"},{"input":["X","O","X","","O","","X","X","O"],"output":"6"},{"input":["X","O","X","O","O","X","X","X","O"],"output":"/"},{"input":["","","","X","","","","",""],"output":"3"},{"input":["","","O","X","X","","","",""],"output":"6"},{"input":["","","O","X","X","O","","","X"],"output":"1"},{"input":["O","","O","X","X","O","X","","X"],"output":"2"},{"input":["","","","","X","","","",""],"output":"2"},{"input":["","O","","","X","","X","",""],"output":"3"},{"input":["X","O","O","","X","","X","",""],"output":"4"},{"input":["X","O","O","","X","","X","","X"],"output":"/"},{"input":["","","","","","X","","",""],"output":"2"},{"input":["","O","","","X","X","","",""],"output":"4"},{"input":["","O","","O","X","X","X","",""],"output":"3"},{"input":["","O","O","O","X","X","X","","X"],"output":"1"},{"input":["","","","","","","X","",""],"output":"8"},{"input":["","","","","X","","X","O",""],"output":"3"},{"input":["","","O","","X","","X","O","X"],"output":"1"},{"input":["O","X","O","","X","","X","O","X"],"output":"6"},{"input":["O","X","O","O","X","X","X","O","X"],"output":"/"},{"input":["","","","","","","","X",""],"output":"4"},{"input":["","","","O","X","","","X",""],"output":"2"},{"input":["","O","","O","X","","","X","X"],"output":"7"},{"input":["X","O","","O","X","","O","X","X"],"output":"/"},{"input":["","","","","","","","","X"],"output":"5"},{"input":["","","","","O","","X","","X"],"output":"8"},{"input":["","X","","","O","","X","O","X"],"output":"1"},{"input":["O","X","X","","O","","X","O","X"],"output":"6"},{"input":["O","X","X","X","O","O","X","O","X"],"output":"/"},{"input":["","O","","X","X","","","",""],"output":"6"},{"input":["","","","O","","","X","X",""],"output":"9"},{"input":["X","O","","X","","","","",""],"output":"7"},{"input":["X","O","O","O","X","X","","X",""],"output":"9"},{"input":["X","","O","","O","X","","",""],"output":"7"},{"input":["","O","","X","","X","","",""],"output":"5"},{"input":["X","X","","X","O","","O","",""],"output":"3"},{"input":["","X","","","O","X","X","O",""],"output":"1"},{"input":["X","X","","","O","","","",""],"output":"3"},{"input":["X","","O","","X","","X","O",""],"output":"6"},{"input":["","","O","","X","","X","",""],"output":"2"},{"input":["X","O","","","X","","","",""],"output":"9"},{"input":["","","","X","","","X","O",""],"output":"1"},{"input":["","","","","O","X","","","X"],"output":"3"},{"input":["O","","","","","","X","O","X"],"output":"5"},{"input":["O","","X","","O","","X","O","X"],"output":"6"},{"input":["","X","X","","O","","O","X",""],"output":"1"}],"characters":["X","","5","O","7","2","9","/","1","8","6","3","4","stop-input","start-output","unrecognized"],"specialIndexes":[13,14,15]},"workers":-1},"trainOpts":{"iterations":200,"errorThresh":0.005,"log":true,"logPeriod":10,"learningRate":0.0074,"callbackPeriod":10,"timeout":"Infinity"},"input":{"rows":17,"columns":16,"weights":[0.34558412432670593,0.17021988332271576,-0.19391444325447083,0.022375481203198433,-0.0006618251209147274,-0.06701500713825226,-0.7867127060890198,-0.09182165563106537,-0.06288822740316391,-0.020227093249559402,-0.054903142154216766,0.7128790616989136,0.06419935822486877,-0.07743020355701447,-0.6200106739997864,-0.03218694031238556,3.785893440246582,0.33333131670951843,-0.32691019773483276,-0.5882828831672668,0.3558053970336914,-1.8725876808166504,0.4004843533039093,-2.66794490814209,0.8760674595832825,-0.5644736289978027,-0.1521276980638504,1.84536874294281,-0.3466411232948303,2.695723295211792,-3.5127172470092773,0.020356209948658943,0.6911975145339966,0.1601305603981018,-0.5565525889396667,0.5145182609558105,0.3527199327945709,1.0505073070526123,1.6466166973114014,0.668057918548584,-0.11803416162729263,0.207990363240242,0.15469209849834442,1.0772429704666138,0.46161550283432007,-0.4256073832511902,-0.7319008111953735,-0.1973065584897995,-2.0815563201904297,-3.3211371898651123,1.4949252605438232,-2.2727906703948975,-1.6225873231887817,1.6233569383621216,-4.074289798736572,2.768500804901123,2.884755849838257,1.9224860668182373,-3.701209306716919,-3.025275707244873,-2.5854015350341797,-2.986895799636841,2.8271689414978027,-1.1776931285858154,1.203658103942871,1.0782300233840942,0.17034654319286346,0.8212528228759766,0.3369881212711334,-0.05460767075419426,0.844894289970398,-1.067012906074524,-0.5138761401176453,-0.6600726842880249,1.0608131885528564,0.7383365035057068,0.6444007158279419,1.1977405548095703,-1.2152730226516724,1.0178346633911133,-1.5297106504440308,1.9213634729385376,-6.76738977432251,5.448482513427734,5.542674541473389,-0.6016863584518433,2.657557964324951,-0.5250979661941528,-1.7580827474594116,-2.829890012741089,3.099385976791382,-3.369962215423584,4.513200759887695,0.6746295094490051,3.4021353721618652,1.8684102296829224,-1.7540614604949951,-2.0345356464385986,1.3338203430175781,-0.9692147374153137,-0.0009299397934228182,-0.19048601388931274,-4.949558258056641,0.48283883929252625,0.9189591407775879,0.9789324998855591,-1.7197190523147583,-2.1349711418151855,-0.6737121939659119,-1.6325187683105469,1.3482915163040161,-2.871363401412964,-1.3223369121551514,-1.3043268918991089,-1.7403355836868286,-1.0792261362075806,1.912014365196228,-0.003719286061823368,-2.4636824131011963,-1.2578386068344116,0.5402800440788269,-1.3272730112075806,-1.611626386642456,-1.2168303728103638,1.3235350847244263,-0.9779104590415955,1.432065725326538,-1.6737171411514282,-1.1640397310256958,-1.6203421354293823,1.5466960668563843,-0.27138951420783997,1.7311657667160034,-1.0175933837890625,-3.7559525966644287,-1.220979928970337,0.5285136103630066,-1.1328867673873901,-0.10613048076629639,-1.5596262216567993,1.1661077737808228,-1.226348638534546,0.4156821370124817,-3.570636034011841,-2.411259889602661,-3.941619396209717,-0.3261129558086395,-2.5120937824249268,-0.33008259534835815,0.2136542797088623,-3.356403112411499,0.9900661706924438,4.13649845123291,0.5896072387695312,-4.5597357749938965,-3.0513806343078613,-2.367767572402954,-2.4354538917541504,2.5015735626220703,-1.7758115530014038,-1.8695824146270752,-2.0019147396087646,2.008679151535034,-1.7327526807785034,-1.1353877782821655,0.9986751675605774,-2.652907371520996,1.4642667770385742,1.7339577674865723,1.220080852508545,-2.0241503715515137,-1.9820259809494019,-1.7240649461746216,-1.6058275699615479,1.9016848802566528,-1.6939513683319092,-4.201686859130859,-3.453592300415039,3.197744607925415,-3.1320433616638184,0.2231510877609253,0.3011660873889923,-3.376044511795044,0.6514504551887512,3.358788251876831,0.793110191822052,-3.591463804244995,-3.720494508743286,-3.206537961959839,-0.6911606788635254,3.5454933643341064,-2.832132577896118,-0.21686480939388275,-3.906397581100464,3.933014392852783,-2.915125608444214,-0.08518700301647186,0.010488026775419712,-0.9958107471466064,0.1302829086780548,0.07638862729072571,-0.02866051346063614,-4.556443691253662,-3.871009349822998,-4.661856651306152,0.009674047119915485,3.6088833808898926,0.9920015931129456,-2.0685412883758545,-2.239943027496338,3.685466766357422,-4.223392009735107,-4.119165420532227,3.7409324645996094,-7.579282760620117,2.420534610748291,3.7174575328826904,2.117114782333374,-2.9962317943573,-2.293257474899292,-4.601512432098389,-3.7355337142944336,1.2207074165344238,-5.017775535583496,-1.1525524854660034,-0.27784690260887146,0.26267707347869873,-0.09614942222833633,-0.07952471822500229,0.4805065393447876,-1.3509271144866943,0.2651817500591278,0.05808687210083008,0.10767878592014313,-0.048350971192121506,-1.0056817531585693,-0.09012094140052795,-0.31062644720077515,0.5201026797294617,-1.0906245708465576,-0.4428193271160126,-0.16863296926021576,0.8648601770401001,-0.07823435962200165,-0.09527777880430222,1.0930336713790894,-0.09826752543449402,0.47703009843826294,-0.07285527884960175,0.0405721589922905,-0.04040023684501648,-0.329374760389328,-0.08611556142568588,-0.2746334671974182,0.552869439125061,-0.0017296283040195704,-0.021540507674217224,0.021232640370726585,-0.059712983667850494,-0.04106776416301727,0.03622728958725929,-0.026446910575032234,-0.006707573775202036,0.023890437558293343,-0.039207469671964645,0.04332022741436958,-0.07823379337787628,-0.03398820385336876,-0.07261484861373901,0.060088492929935455,-0.063206747174263,0.06547832489013672]},"hiddenLayers":[{"inputMatrix":{"rows":42,"columns":16,"weights":[-0.09732246398925781,0.1129208579659462,0.8551454544067383,-0.7410489916801453,-0.600111722946167,-1.166957139968872,-0.34540650248527527,-0.6257573962211609,0.1779950112104416,-0.3143101632595062,-0.37876707315444946,-0.5606968998908997,-0.6498854756355286,0.794288694858551,0.4271617829799652,0.17672304809093475,0.4669840931892395,0.3873770236968994,-0.04274524748325348,0.11860556900501251,0.36481910943984985,-0.65708327293396,0.8325740098953247,-0.626724123954773,-0.20067812502384186,-0.5578855276107788,0.314345121383667,0.3010442852973938,0.12128620594739914,0.7150981426239014,-0.40498271584510803,0.030319619923830032,0.17474937438964844,0.07003036886453629,2.468616485595703,-0.8695818185806274,-0.311472088098526,-3.433525562286377,-1.4377137422561646,-1.4873782396316528,0.26484769582748413,-0.44278332591056824,-0.21131029725074768,-0.12486500293016434,-0.7026364803314209,0.740862250328064,-0.029019754379987717,1.0051143169403076,0.6610347032546997,0.6734889149665833,0.8034877777099609,-0.811296284198761,-0.5159866213798523,-0.7606875896453857,-0.8160214424133301,-0.8873044848442078,0.4998951852321625,-0.5862082839012146,0.2045471966266632,0.5399289131164551,-0.8930689096450806,0.6393812298774719,-0.7391632795333862,0.3609243929386139,0.3296016752719879,0.49714183807373047,0.7050865292549133,0.3979198932647705,0.22425267100334167,0.37854546308517456,0.24128693342208862,-0.14521709084510803,-0.2729180157184601,-0.3856308162212372,0.586936891078949,0.18586662411689758,0.2934638261795044,0.5082384347915649,-0.08885430544614792,0.2569696009159088,-0.42390623688697815,-0.2882688343524933,0.2201339155435562,-0.13831360638141632,-0.15526288747787476,0.18664954602718353,-1.334025502204895,0.2036178857088089,-0.24934262037277222,0.1745474487543106,-0.09836934506893158,-0.43003615736961365,0.030201153829693794,-0.3293834924697876,0.3342164158821106,-0.6536738872528076,0.5282209515571594,-0.13246765732765198,0.19812999665737152,0.2705995738506317,0.6855136752128601,-1.0193572044372559,1.0535269975662231,-0.39485883712768555,-0.47269105911254883,-0.8044896721839905,0.07773071527481079,0.5853103995323181,0.7247956991195679,0.4673697352409363,-0.4384647309780121,0.5094788670539856,0.769066333770752,0.04275386407971382,0.12728361785411835,0.17253556847572327,0.3780028223991394,-0.20536595582962036,1.830675721168518,0.12049443274736404,0.12784773111343384,-0.1329420506954193,0.18414092063903809,0.8313596844673157,-0.10870528966188431,0.37088543176651,-0.576129674911499,0.10288923978805542,-0.1510845124721527,-0.21823638677597046,-0.33602583408355713,-1.0732835531234741,-0.45378443598747253,-2.2818539142608643,-1.1445337533950806,-0.7870259284973145,0.5817685723304749,-0.10064931958913803,-1.3111660480499268,0.1241321787238121,-0.7737229466438293,0.35983845591545105,-0.0636512041091919,-0.6770699620246887,0.09972403943538666,-0.28360503911972046,-0.39924487471580505,-0.15020374953746796,-0.031103217974305153,-0.7665948867797852,-1.1677350997924805,0.07996627688407898,0.30611106753349304,0.3749372065067291,-0.37290117144584656,-0.03893979266285896,-0.13438020646572113,-0.24550653994083405,0.002241056179627776,-0.770284116268158,1.2222659587860107,0.07776158303022385,0.005327553488314152,-0.29064103960990906,0.05226849019527435,0.5670648217201233,1.167346477508545,0.4284839332103729,0.3143371045589447,0.6691367626190186,-0.46420949697494507,1.250576138496399,-0.32778143882751465,-0.3031379282474518,-1.0721913576126099,-0.0755518302321434,-0.006285634823143482,-0.2562427818775177,0.10767585039138794,0.14854171872138977,0.2160715013742447,-0.11376633495092392,-0.9858464002609253,0.004989556968212128,-0.22224147617816925,0.2875596582889557,0.00249182665720582,-0.07658495754003525,0.31111782789230347,-0.2485061138868332,-0.2290625125169754,-1.0323755741119385,0.3396470844745636,0.05844845995306969,0.763935923576355,-0.13809633255004883,0.053544726222753525,0.26090627908706665,-0.08366727828979492,0.0425366573035717,-0.11735748499631882,-0.047164514660835266,0.20222067832946777,0.35795727372169495,-0.08205242455005646,0.03392760455608368,-0.47799423336982727,0.46149739623069763,0.38543590903282166,0.5209658741950989,1.5141619443893433,-0.11834932863712311,-0.3556269705295563,-0.7898587584495544,-0.7244448065757751,-0.9175535440444946,-0.7104412317276001,-0.4624890387058258,0.6158322095870972,-0.24836750328540802,0.13619527220726013,0.8171069622039795,-0.14295411109924316,1.3887083530426025,-1.149320363998413,-1.2970912456512451,0.6965843439102173,-1.0111067295074463,-0.9589065313339233,0.06427014619112015,-0.8107002973556519,0.8628444671630859,0.4493422508239746,0.9075832366943359,-0.7671837210655212,-1.3979064226150513,-0.7271703481674194,-0.6800832152366638,1.4598814249038696,-0.7499556541442871,0.06861832737922668,-0.4834425449371338,-4.710082530975342,-0.10776337236166,0.06169678643345833,0.7230346202850342,0.5613779425621033,1.4591902494430542,0.2676641047000885,0.6535751223564148,-0.8819273114204407,0.6482380628585815,0.05212678760290146,-1.7213311195373535,-0.24313338100910187,-0.9364411234855652,0.038066525012254715,0.280521959066391,1.5621716976165771,0.23182038962841034,0.003201876301318407,0.2704665958881378,-0.8591490983963013,-0.05382837727665901,-0.3727278709411621,-0.001372440718114376,0.16199102997779846,0.2558237612247467,0.08660337328910828,0.3595650792121887,-0.0287103783339262,0.45880940556526184,1.1020748615264893,0.5455432534217834,-1.1547038555145264,1.1202044486999512,1.2488499879837036,-1.3851943016052246,1.6999661922454834,-0.5315262079238892,-0.407572865486145,-1.146309733390808,0.5449942350387573,0.9269087910652161,0.8568057417869568,0.59720379114151,-0.8560488224029541,0.33311355113983154,0.31119340658187866,0.22650748491287231,0.09156255424022675,-0.6015258431434631,-0.29472336173057556,-2.044281244277954,-0.9294899106025696,-0.9605467319488525,0.27486565709114075,-0.5463249087333679,-0.19241611659526825,0.06445997208356857,-0.45964479446411133,0.709978461265564,-0.41545993089675903,-0.5016173720359802,-0.8644273281097412,-1.088145136833191,0.7460938096046448,-1.544713020324707,-0.7980389595031738,0.12991929054260254,-0.6391721963882446,0.35363101959228516,0.8036537170410156,0.549963116645813,-0.7442477345466614,-1.144300937652588,-1.2733865976333618,-0.35301440954208374,0.8820397257804871,-1.5692015886306763,0.43438243865966797,0.04913545027375221,-0.38746729493141174,-0.27710214257240295,-0.06821852177381516,-0.6752476096153259,-0.3878225088119507,-0.1363198161125183,0.10362612456083298,-0.02548479661345482,-0.24383129179477692,0.42987141013145447,-0.22789397835731506,0.1225508525967598,-0.3857598900794983,-0.266025573015213,-0.023326894268393517,0.3184761703014374,1.1762847900390625,0.5781682133674622,0.027933528646826744,0.6106633543968201,-1.045230507850647,0.24555866420269012,-0.7034268379211426,-0.1561189442873001,0.1834135502576828,0.19312380254268646,0.5295352935791016,-0.17922796308994293,0.23719565570354462,0.6787802577018738,-0.24311938881874084,-0.4851045310497284,1.0944422483444214,-0.4708872139453888,-0.18920937180519104,-1.2547038793563843,-0.8092389106750488,-0.5048980712890625,0.03492412343621254,0.11811976134777069,-0.4323537051677704,-0.6383686065673828,-0.5604321360588074,0.1970003992319107,0.45129403471946716,0.23139555752277374,0.09095969796180725,0.7346946001052856,0.4802801012992859,0.6122574806213379,0.1601816862821579,-1.0474021434783936,-0.19991862773895264,-0.956813633441925,-0.8701819777488708,-0.500061571598053,0.6142696142196655,0.10512129217386246,0.47566938400268555,0.519219696521759,-0.08105482161045074,0.8497107028961182,-1.7266485691070557,0.11197878420352936,5.769250392913818,0.8948327302932739,-0.3640141189098358,0.4565255641937256,-1.197130799293518,-0.7560681700706482,-2.019144058227539,-0.6035293936729431,1.278420090675354,-1.6767750978469849,0.8485354781150818,0.16577982902526855,1.7534875869750977,2.253627061843872,-0.05843531712889671,-0.023532720282673836,1.3702667951583862,-0.2801109850406647,-0.00040243726107291877,0.10317365825176239,-0.3270794153213501,-0.24596935510635376,-0.06312976777553558,-0.1717683970928192,-0.09501851350069046,-0.24056997895240784,0.05284498259425163,-0.056174151599407196,0.060002900660037994,-0.02790467068552971,0.5491317510604858,0.08932263404130936,-1.3930277824401855,0.13763241469860077,1.119286298751831,-0.8646405935287476,1.2250670194625854,-0.3029475510120392,0.11843043565750122,-0.433573454618454,-0.2983819842338562,0.24519434571266174,0.46962255239486694,0.07403705269098282,-0.44171828031539917,-0.4854331612586975,-0.57904452085495,0.21443986892700195,2.9180216789245605,-0.03258834779262543,-0.05286116525530815,-0.6699792742729187,-0.9952013492584229,-0.9452182650566101,-0.5266885161399841,-0.8320252895355225,0.5976806282997131,-0.8103917837142944,-0.002191341482102871,0.8506930470466614,0.46407654881477356,1.3629339933395386,-0.025087419897317886,0.1969209760427475,1.9892799854278564,1.0983545780181885,0.22106868028640747,1.2517472505569458,-0.8111926317214966,0.27527451515197754,-1.4036320447921753,-0.06477794051170349,0.5219509601593018,0.11175783723592758,1.0147415399551392,-0.24179455637931824,-0.011704142205417156,1.1258294582366943,0.7234904170036316,0.36397549510002136,-0.33440399169921875,0.5888359546661377,0.1445954591035843,-0.5902711749076843,1.7069015502929688,-0.1382969468832016,-0.07643942534923553,-0.32829540967941284,0.6254095435142517,0.47689089179039,0.40238258242607117,0.3173614740371704,-0.397701233625412,-0.12829652428627014,0.9097827672958374,0.6898670196533203,-1.1171269416809082,0.750798761844635,0.5017598271369934,-0.2836173176765442,1.170619249343872,-0.07773564010858536,-0.4293934404850006,-0.12288056313991547,0.8126815557479858,0.544161319732666,0.7361088395118713,0.09850378334522247,-0.5189588069915771,-0.42727822065353394,0.2690204977989197,0.19469954073429108,1.072885513305664,0.03811414912343025,0.22107550501823425,-0.35486119985580444,-0.15146611630916595,-0.41882777214050293,-0.03888004645705223,-0.35910046100616455,0.2011820375919342,0.008066399954259396,0.003183455439284444,0.4592091143131256,-0.11113085597753525,0.527580201625824,0.0012892709346488118,0.08517693728208542,0.791122555732727,0.44161415100097656,0.2663234770298004,-0.4238635003566742,-0.8340803980827332,-0.4504205584526062,-0.7668815851211548,-0.707327663898468,0.3442882299423218,0.016932286322116852,0.3114047646522522,0.2648374140262604,-0.11119808256626129,0.2083396017551422,0.9087318181991577,0.09039996564388275,-0.2495526224374771,-0.7907637357711792,0.11899247020483017,-1.393998622894287,0.174856498837471,-0.18096837401390076,1.1094526052474976,0.16946128010749817,-0.8833341598510742,1.0621973276138306,-0.799416184425354,-0.08557309210300446,-0.9156844019889832,-0.34272801876068115,0.16479474306106567,0.040506187826395035,0.24233844876289368,-0.0636768490076065,-0.07653553783893585,0.33816784620285034,-0.4809732139110565,0.26493266224861145,-0.08805732429027557,0.3626178503036499,0.12036328762769699,0.3200889229774475,0.1326349377632141,-0.41682863235473633,-0.303537517786026,-0.18778268992900848,0.1680961698293686,-0.049380574375391006,0.8677705526351929,-0.29966211318969727,0.04237566888332367,0.5494746565818787,-0.6470634937286377,0.1482260674238205,0.48452621698379517,0.0711287260055542,-0.3050670027732849,0.17789001762866974,-0.20367901027202606,-0.2705551087856293,-0.26832640171051025,-0.4779772460460663,0.46430301666259766,0.19887806475162506,1.1584392786026,-0.03379974141716957,0.3500027060508728,-0.3948347270488739,0.47419843077659607,-0.7830686569213867,-0.2914589047431946,-0.8429086208343506,0.10072293877601624,0.4002806544303894,-0.0500771664083004,0.857591986656189,-0.302404522895813,0.810341477394104,-0.5745832920074463,-0.23241055011749268,0.20727591216564178,-0.8004500865936279,-0.7633371353149414,-0.2783958911895752,-2.1960561275482178,-0.16591346263885498,0.008751662448048592,0.17244571447372437,-0.8899411559104919,-0.3577710688114166,-0.546598494052887,-0.967971920967102,0.0362156443297863,-1.130220651626587,-1.2500431537628174,-1.463260293006897,0.5443389415740967,-0.7531484365463257,-1.1259489059448242,0.10618861019611359,-0.8363578915596008,0.8872639536857605,0.5359141826629639,1.0761162042617798,-0.7669107913970947,-1.172723412513733,-0.6466875076293945,-1.3822426795959473,1.2415319681167603,-0.9391112327575684,-0.07340320199728012,-0.28544890880584717,0.015532270073890686,0.1583809107542038,0.0609222836792469,-0.5140681266784668,-0.5237829685211182,0.026737356558442116,-0.05411217734217644,0.23685979843139648,-0.29307258129119873,-0.2102963924407959,0.18980450928211212,-0.2476891279220581,0.3429674506187439,-0.19335657358169556,0.17442931234836578,-0.10187411308288574,0.5834335088729858,0.08499207347631454,0.2656872868537903,-1.0367939472198486,0.7655125260353088,-0.4836288094520569,-0.18247924745082855,-0.5251384973526001,-0.1857818216085434,0.05785592645406723,0.22552604973316193,0.49562978744506836,0.02890634909272194,0.8138551115989685,-1.287446141242981,-1.2611585855484009,0.7247275114059448,-1.1132278442382812,-0.8192166090011597,0.27384045720100403,-0.4346877634525299,0.6363463401794434,0.8311168551445007,0.6147579550743103,-0.9822127223014832,-1.4524288177490234,-0.9259130358695984,-0.6834014654159546,1.4219372272491455,-0.8491998910903931]},"inputHidden":{"rows":42,"columns":42,"weights":[-0.5756680965423584,0.945989191532135,-0.7046406865119934,0.50299072265625,-0.3467572331428528,0.29326239228248596,-1.9346510171890259,-1.3653048276901245,1.8893123865127563,-0.9611090421676636,-1.0516434907913208,0.5433781147003174,-2.945375680923462,-0.24845129251480103,0.22698332369327545,-2.0889699459075928,-0.13274425268173218,-1.0840855836868286,0.7346182465553284,-0.5849357843399048,-1.761946678161621,0.24443241953849792,1.4097996950149536,-0.2276681363582611,-1.6846613883972168,-0.10321522504091263,-1.1144999265670776,-2.2105228900909424,-0.45043832063674927,-0.8539472222328186,0.6418555974960327,1.764048457145691,-0.09190696477890015,-0.5671108961105347,-0.47411417961120605,-0.3599056601524353,-1.174890398979187,-0.07947296649217606,-0.08238432556390762,-0.6964035034179688,-0.982297420501709,-0.5757941007614136,0.5109555125236511,-1.598385214805603,-2.173898935317993,1.2754716873168945,-0.47497981786727905,0.5518109202384949,-1.3710838556289673,0.28702402114868164,-0.44373422861099243,-0.6118065714836121,-0.03438042849302292,0.16039375960826874,-0.7658106684684753,-0.10913195461034775,-0.3068561851978302,2.0554749965667725,-0.05596506595611572,0.9191571474075317,0.8596370220184326,0.3760373592376709,-2.6993556022644043,-0.1626679003238678,0.014241466298699379,-0.2778495252132416,-0.12417912483215332,0.5311217308044434,1.2116132974624634,-0.1352318376302719,-1.5250402688980103,0.10205119103193283,-0.23784415423870087,0.2239774763584137,-0.33557167649269104,1.1558955907821655,0.5309857130050659,-0.2472452074289322,2.087949514389038,0.48536068201065063,-0.2375783622264862,0.3103858232498169,-1.932977318763733,0.3765275180339813,0.8069332838058472,-1.6828194856643677,1.5357719659805298,-0.26953253149986267,-0.8070729374885559,-0.05373070016503334,0.8986413478851318,-1.1511917114257812,-1.0258148908615112,-0.061256732791662216,-0.9573783278465271,0.19028037786483765,0.24601763486862183,-0.9185492396354675,-0.11788146197795868,-1.419290542602539,0.4559658467769623,-1.144087553024292,-0.1583135724067688,0.08632256835699081,-0.5741680264472961,-0.604551374912262,0.7386379837989807,-0.1407875418663025,0.8145111203193665,-1.6365227699279785,0.8996366858482361,0.10478954762220383,0.26359814405441284,-1.6370846033096313,1.669201374053955,-0.46786630153656006,0.5991861820220947,0.14483632147312164,-0.5901939868927002,1.32953941822052,-1.342525601387024,-0.4351962208747864,-0.21059119701385498,0.2604880630970001,1.8938612937927246,0.10851173102855682,0.5500860810279846,-1.1034365892410278,0.7785273790359497,-1.224038004875183,0.19295096397399902,-0.28655990958213806,0.35410284996032715,-0.5830551981925964,-0.939802885055542,-1.046812653541565,-1.4175766706466675,0.233738973736763,-0.2958035171031952,-1.0543794631958008,-1.399764895439148,-2.26318097114563,1.871360421180725,-1.7007030248641968,1.3027693033218384,1.7148038148880005,-0.5104959011077881,-2.0418570041656494,0.8642600178718567,-0.31718602776527405,-0.439451664686203,-0.795975387096405,0.7700896263122559,-0.6045541167259216,-0.5166887044906616,-2.1132516860961914,1.7920458316802979,0.2734801769256592,2.0416667461395264,0.23565340042114258,-0.6264441609382629,-0.1958814114332199,-1.116828441619873,1.462489366531372,-2.040797710418701,-0.9069216847419739,0.019173242151737213,1.996274471282959,-1.161170244216919,0.6726878881454468,0.3278936743736267,0.6525882482528687,0.0935855284333229,0.8358739614486694,-1.5784112215042114,1.2592445611953735,1.0905497074127197,-0.8644901514053345,0.7807761430740356,0.8874098062515259,-0.0927615538239479,-0.14970380067825317,0.6566346883773804,1.2184919118881226,0.16839684545993805,0.2803940176963806,0.7334825396537781,-0.9277732372283936,-2.1769731044769287,-0.11754511296749115,0.7388548254966736,-0.8953550457954407,-0.7034791111946106,-0.22507977485656738,-0.8765563368797302,-0.4363889992237091,-0.5978574156761169,1.1019017696380615,-1.7987045049667358,1.485857605934143,0.6354284882545471,1.433354139328003,-0.9082434177398682,-0.08964457362890244,0.20837707817554474,0.13849355280399323,1.1378884315490723,-0.386014848947525,-0.3940013349056244,-0.935968816280365,1.58400559425354,-2.5212879180908203,-2.0113184452056885,-0.23336583375930786,0.9751580357551575,-1.5937042236328125,1.5460408926010132,-0.12972086668014526,-0.738653838634491,0.8272766470909119,-0.38309144973754883,-0.44439682364463806,0.3853261470794678,0.6302899718284607,-0.07528770714998245,0.8508592247962952,-0.9170652627944946,-0.9563518762588501,-0.15489500761032104,0.17164510488510132,2.736015558242798,0.5034127235412598,-0.13911712169647217,0.05089878290891647,1.3229273557662964,-0.6476476788520813,2.1268904209136963,0.7538956999778748,0.6504595279693604,-0.22545766830444336,1.8337444067001343,-0.7748498916625977,-0.5636330246925354,2.627913236618042,0.9779773950576782,1.2985832691192627,-0.6726260185241699,-1.2351655960083008,-0.1811925172805786,0.16428209841251373,-0.052988335490226746,0.19690953195095062,1.1092249155044556,-1.215343713760376,-1.0164854526519775,1.2959259748458862,1.1953524351119995,-0.7289537191390991,0.6486029624938965,-1.2555190324783325,-2.050356149673462,-0.7255510091781616,-0.6946241855621338,0.9484304785728455,1.0721158981323242,-0.390603631734848,-0.4147370159626007,-1.3939342498779297,0.7902377247810364,0.29660218954086304,0.5456488132476807,0.6160785555839539,-0.8453648686408997,-0.7559110522270203,0.9451895356178284,-0.969317615032196,1.1918879747390747,-0.6960944533348083,-0.12559819221496582,0.6306737661361694,-0.6165793538093567,-0.7277038097381592,2.038038969039917,0.7023518085479736,1.0020748376846313,2.4590353965759277,-1.5686804056167603,-0.12589938938617706,0.35589778423309326,0.4900650680065155,-0.4232415556907654,-0.30008721351623535,0.9785913825035095,0.6551147103309631,-0.6027714610099792,-0.02202916517853737,0.25143077969551086,0.46664661169052124,-0.9902563691139221,0.7607245445251465,-0.6135759353637695,0.34095752239227295,0.5820426940917969,-0.6454734206199646,0.022431880235671997,0.6266764402389526,-0.6353055238723755,1.0834629535675049,0.7891806364059448,0.39386841654777527,0.37525269389152527,-0.5491601228713989,0.7532344460487366,-1.4101654291152954,-0.5742409825325012,-0.08086764812469482,0.870837390422821,-0.6982709765434265,-0.3509834408760071,-0.6896634101867676,-0.13114342093467712,-0.4829590618610382,-0.8434398174285889,0.3607843518257141,0.005087078083306551,0.45120686292648315,-0.04729655385017395,0.29601335525512695,-0.3045956492424011,-0.6465973258018494,0.5922353267669678,-0.7308902144432068,0.8092777729034424,-0.9561403393745422,-0.6509944200515747,-1.2616217136383057,-0.8449577689170837,0.21061252057552338,-0.7952322959899902,-0.44379428029060364,-0.6321167349815369,-0.26610231399536133,-0.5570561289787292,-1.2729886770248413,-0.023916417732834816,0.20193742215633392,-0.3003823757171631,-0.07735084742307663,-1.8983380794525146,0.05697615444660187,-0.29076650738716125,-0.32719460129737854,-0.7199978232383728,-0.601816713809967,-0.1419018656015396,0.6781978607177734,0.19633957743644714,0.9410840272903442,-0.39881083369255066,-0.07926908880472183,-1.5097134113311768,0.8244112730026245,0.6142396330833435,-1.3749788999557495,0.3298005759716034,-0.6900045275688171,0.5586293935775757,0.5448001623153687,-1.0222247838974,-0.2759515941143036,-0.13711771368980408,0.2365294247865677,-0.31234848499298096,-0.40314629673957825,-0.4542723298072815,0.27168774604797363,-0.32445433735847473,0.29925474524497986,3.0283968448638916,-1.5777055025100708,-0.8889129161834717,-1.4044098854064941,-1.3305799961090088,-0.7482534646987915,0.2623341679573059,-2.5642457008361816,-2.3956239223480225,0.6420237421989441,-2.054655075073242,-0.7806358933448792,0.800544798374176,-1.7070380449295044,-0.5889277458190918,-1.328482985496521,-0.42404720187187195,-1.4466763734817505,-0.8831459283828735,0.8481197357177734,0.348229318857193,0.6831780672073364,-0.40975362062454224,0.5018375515937805,-0.9344790577888489,-0.6185062527656555,0.8729361295700073,-1.5411019325256348,0.07487659156322479,-2.450434923171997,2.4512531757354736,-1.0233893394470215,-0.5536364316940308,0.10971482843160629,-0.16155801713466644,0.9030728936195374,-1.2692047357559204,-0.7399371862411499,-0.9875739812850952,0.7563274502754211,1.860156536102295,0.6996766924858093,-0.19129425287246704,0.05051757022738457,-0.24282647669315338,0.3942522406578064,-0.8113099932670593,0.8319218754768372,-0.6556177735328674,-0.4958838224411011,-0.3519202470779419,-0.7533935308456421,-0.3013019561767578,0.6673879623413086,-0.9401481747627258,0.17996038496494293,0.6269360780715942,-0.20258384943008423,0.37741819024086,-0.33626988530158997,1.040212631225586,-1.1555224657058716,-1.1067209243774414,-0.26068177819252014,0.9373661875724792,-0.6765568256378174,-0.6406053900718689,-1.0168261528015137,0.35180169343948364,-0.8360494375228882,-0.4251823127269745,0.004261515103280544,0.3699583411216736,0.7300997376441956,0.23966079950332642,0.6298590898513794,-0.7948414087295532,-0.26056069135665894,0.25259700417518616,-0.2528531849384308,0.6673842072486877,-0.9731754064559937,0.49812713265419006,-1.0817245244979858,2.71480131149292,-2.4388091564178467,-0.6673632860183716,-1.5267863273620605,-0.8022076487541199,-0.8211868405342102,0.8611310720443726,-2.271970510482788,-0.7676558494567871,0.14797450602054596,-1.6287815570831299,-0.31182602047920227,0.6435540318489075,-0.43544772267341614,-1.4277390241622925,-0.49785226583480835,-0.4125899076461792,-0.8582658171653748,-0.16079315543174744,1.7962325811386108,0.5227711796760559,0.20991931855678558,-0.7764975428581238,0.40765148401260376,-0.18246600031852722,-1.0455210208892822,1.0106687545776367,-0.6476598978042603,1.080341100692749,-1.1599570512771606,1.898745059967041,-0.42595571279525757,-0.19343715906143188,0.10606040060520172,0.01215063314884901,1.4968379735946655,-1.3189951181411743,0.5891551971435547,-0.8177865147590637,0.1590164303779602,1.359248399734497,1.8922768831253052,0.44834837317466736,-0.35975053906440735,0.8968207240104675,-3.3423993587493896,-0.409616082906723,1.2068705558776855,-2.4689462184906006,0.21318969130516052,-0.523688554763794,-0.2523210048675537,0.6293303370475769,-0.5092694759368896,3.4683279991149902,-3.416264295578003,-0.028417455032467842,1.1270829439163208,0.19538503885269165,-0.7005695700645447,-0.9538642168045044,0.5131703615188599,-0.27390360832214355,0.13561180233955383,-0.10216538608074188,0.36034855246543884,-0.44858142733573914,-0.4350067675113678,0.4034525454044342,-4.392839431762695,2.3294599056243896,0.6721370220184326,-1.2167328596115112,0.5873367786407471,-0.2344949096441269,-1.023392677307129,-0.05284695699810982,2.2919137477874756,-2.8759689331054688,0.5671170949935913,1.412733793258667,0.9883911609649658,2.954418182373047,0.47746849060058594,1.3100976943969727,-1.8036930561065674,-0.5180969834327698,1.275573968887329,0.2443087249994278,-0.8445013165473938,-0.2602754235267639,-0.49856236577033997,-0.7717435359954834,-1.3935117721557617,-1.032947063446045,1.1403100490570068,-1.9226734638214111,0.9617415070533752,-0.6560229659080505,0.4924948215484619,0.6292274594306946,-0.4081811308860779,1.6829891204833984,1.0528347492218018,-0.8787853717803955,-0.4781826436519623,1.0781382322311401,-0.803797721862793,1.0269526243209839,-0.21210229396820068,0.7476423978805542,0.406734436750412,-2.2075886726379395,-0.794633686542511,1.0248937606811523,1.734815001487732,0.6710609793663025,3.1098170280456543,-0.7050715684890747,-2.5731284618377686,0.3517867922782898,0.48631882667541504,-0.7332428693771362,-1.9394569396972656,-1.6639173030853271,0.5194635391235352,-0.22901958227157593,0.06900841742753983,0.007990553043782711,-0.28106924891471863,-0.5142703056335449,1.035897970199585,-0.0856199711561203,0.5501903295516968,0.1600109338760376,0.0367935374379158,0.2553092837333679,-0.07322931289672852,-1.0436218976974487,-0.08145639300346375,0.7827123999595642,-0.20992806553840637,0.2301948070526123,-0.6930410861968994,-0.3830278515815735,-0.7549241781234741,0.023617897182703018,-0.27864548563957214,0.03835134208202362,0.14170782268047333,-0.8522032499313354,-0.7412440776824951,0.10379056632518768,-0.9743539690971375,0.3691767454147339,-0.20270250737667084,0.38349664211273193,-0.47710496187210083,0.30539727210998535,-0.5403603315353394,0.5267049670219421,0.6334698796272278,-0.7156577706336975,0.01601877249777317,0.079395592212677,0.12135214358568192,0.5143868923187256,-0.7793158888816833,0.3497253656387329,-1.1237313747406006,-0.22188261151313782,-0.6693843007087708,-0.7388216853141785,-1.078294038772583,-1.7887099981307983,-0.6424458026885986,-0.9877908825874329,0.36849847435951233,-0.45942503213882446,0.16696509718894958,1.716917872428894,-1.9316800832748413,-0.4340205788612366,2.469369888305664,-0.7743175625801086,-0.9296032786369324,-0.6055312156677246,0.9773659110069275,-1.5710103511810303,0.9453754425048828,1.2289690971374512,-0.3637748658657074,-1.3424116373062134,-0.9949297904968262,1.2294212579727173,-1.7195364236831665,-0.20292596518993378,-0.40508484840393066,-0.30934226512908936,-0.6837034821510315,-0.9021573066711426,1.1339008808135986,0.10087891668081284,-0.6892674565315247,-1.0582655668258667,-0.8988200426101685,-1.2091151475906372,0.00995977595448494,-1.9597700834274292,-0.30687570571899414,0.968559741973877,-0.2389991283416748,0.31557828187942505,-1.0228736400604248,-0.26253002882003784,1.701018214225769,0.18611478805541992,-1.1580191850662231,-1.417364239692688,1.1306365728378296,-1.2058113813400269,-0.43913260102272034,-0.9367243647575378,-0.29613426327705383,0.5113817453384399,-1.3388376235961914,-1.518560767173767,0.5431110858917236,-0.7983758449554443,-1.1043962240219116,0.7969359159469604,1.4115731716156006,-1.1043871641159058,0.5218181014060974,-1.0359632968902588,-0.8290963172912598,1.0697740316390991,-0.8982812166213989,1.377780795097351,-1.4240766763687134,1.8670172691345215,-1.313073992729187,-1.1188182830810547,-0.9452792406082153,1.0702056884765625,0.481952965259552,-0.45013314485549927,-1.1303964853286743,0.5219564437866211,0.9496816396713257,-0.04239749163389206,-0.9322739839553833,-0.7643076181411743,-0.23734983801841736,-1.0688843727111816,1.1242486238479614,1.5016363859176636,-0.23451000452041626,-0.5294503569602966,0.6656436920166016,0.5596655607223511,-0.8124173283576965,0.7918840646743774,0.7906472086906433,-0.038713566958904266,0.6655173897743225,0.2716001272201538,1.0997496843338013,0.44178953766822815,-0.2895435094833374,0.6158650517463684,0.24063922464847565,-0.664779782295227,-0.3868078291416168,0.7675421833992004,-0.7991342544555664,0.6040551662445068,-0.059442926198244095,-0.4871658384799957,0.7474330067634583,-0.416097491979599,1.088551640510559,0.25989624857902527,0.7762643694877625,0.39095738530158997,1.0580075979232788,-0.9558156132698059,-0.3287416994571686,0.5508571863174438,0.3270550072193146,0.00922918040305376,-0.7555959224700928,0.48772335052490234,0.05625214800238609,1.3659098148345947,-0.9805539846420288,1.6284228563308716,-0.9728866815567017,-0.771822988986969,-0.6507695913314819,0.4640074074268341,-1.0880272388458252,-0.40294209122657776,1.1595922708511353,-1.3068965673446655,-0.6822926998138428,1.1543662548065186,-0.4818449318408966,-1.264456033706665,-0.5710155963897705,-0.8982163667678833,-0.037159714847803116,-0.8739891648292542,1.7880218029022217,1.436550259590149,0.9796582460403442,-1.1715576648712158,0.5925646424293518,-0.21325837075710297,-0.4692523181438446,1.3035787343978882,-0.4166821539402008,1.0566325187683105,-1.10030198097229,0.7632597088813782,-1.2052422761917114,-1.0737385749816895,-0.6156243681907654,1.1754062175750732,0.8677264451980591,-0.8138468265533447,-0.5954962372779846,-2.14760422706604,0.9393434524536133,0.5121057629585266,1.611185073852539,-0.3036624491214752,0.1771206259727478,0.13300925493240356,-0.6393424272537231,-0.8981025218963623,0.24904491007328033,-0.07915409654378891,0.25368189811706543,-0.03244452178478241,0.12821388244628906,-0.1076747253537178,0.02067563869059086,0.45122861862182617,-0.011536737903952599,0.3957962393760681,0.5745202898979187,-0.20049801468849182,-0.16284386813640594,-0.35242369771003723,-0.3828294277191162,-0.21104490756988525,0.28781646490097046,-0.45304185152053833,0.11909618228673935,-0.2706034481525421,-1.0374032258987427,-0.2316547930240631,-0.23710493743419647,0.5909171104431152,-0.2677038013935089,0.16183780133724213,0.12434663623571396,-0.09716532379388809,-0.3748088777065277,0.13260354101657867,0.8207480311393738,-0.9570466876029968,-0.16019374132156372,0.3574462831020355,0.0899079367518425,-0.011129898950457573,-0.5988244414329529,2.376544237136841,-2.2158899307250977,-1.4412055015563965,-1.2186152935028076,-0.13097579777240753,0.09724205732345581,-1.6078059673309326,-1.5027239322662354,-1.6768440008163452,-1.3953107595443726,-1.6348810195922852,0.8710043430328369,0.88400799036026,-0.3010563552379608,-0.8472273945808411,-0.4844081997871399,0.28912967443466187,-0.5199359059333801,0.5950493812561035,0.8704271912574768,-1.9275540113449097,-0.26373904943466187,2.0416109561920166,-0.3267187774181366,-1.8022465705871582,-0.34389790892601013,0.8052436113357544,-2.008145332336426,0.8915741443634033,-1.45038902759552,0.28354066610336304,2.4499189853668213,0.36854949593544006,1.608432650566101,-0.5656402111053467,-1.706459879875183,-0.9010018706321716,0.43944841623306274,-0.8031173944473267,-0.5151689648628235,5.219522953033447,0.8321241736412048,0.5205670595169067,-0.28089770674705505,0.7421025037765503,-1.6337076425552368,-0.8821065425872803,0.8257452249526978,0.9749018549919128,-0.822854220867157,-1.3644565343856812,1.223120093345642,-1.212802529335022,-0.5269376039505005,-1.3174095153808594,0.04178385064005852,0.3372238874435425,-1.6271755695343018,-1.597707748413086,-0.29430729150772095,-0.7969433069229126,-0.6653335094451904,0.9460762739181519,1.5404276847839355,-1.0221078395843506,0.6076992154121399,-0.911291241645813,-0.8903865218162537,1.3010821342468262,-0.8996124267578125,1.290144443511963,-2.3317666053771973,1.8356207609176636,-1.390579342842102,-1.3229267597198486,0.3517588675022125,1.0314838886260986,0.5918043851852417,-1.2693132162094116,-1.0328643321990967,0.330585241317749,0.7900871634483337,0.1797507107257843,-0.6629469990730286,2.533386707305908,-2.099930763244629,-0.4443624019622803,0.8618639707565308,1.220927357673645,1.051262617111206,-0.36373764276504517,-2.0692007541656494,-2.999415636062622,-0.04947551339864731,-2.0251259803771973,0.6116235852241516,-0.8724724054336548,-0.46112263202667236,-0.9604375958442688,-1.3909261226654053,0.39583370089530945,0.8581168055534363,0.7960655093193054,0.722752571105957,-0.056835588067770004,-0.4140411615371704,0.2869725227355957,-0.3085780143737793,0.6706979274749756,-1.433437705039978,0.6193578839302063,0.20668374001979828,-0.7700216174125671,-1.4193530082702637,3.133422613143921,0.983875036239624,0.43379464745521545,1.1575045585632324,-0.07355599850416183,-1.3159815073013306,-0.218498095870018,0.45719173550605774,-1.5375970602035522,-0.1943105012178421,-0.2826242744922638,0.7198485732078552,0.585925817489624,-0.6894410848617554,0.20613379776477814,-0.6482590436935425,0.6970409750938416,-1.004540205001831,0.5588617324829102,-1.0739939212799072,-0.8781987428665161,0.5575633645057678,-0.7174264192581177,-0.3428935706615448,0.4354347288608551,-0.5482909083366394,-1.286450982093811,-0.6701903939247131,-0.47196075320243835,0.03150196373462677,-0.46995991468429565,1.562116026878357,0.4077427089214325,0.6342974901199341,0.07629574835300446,0.6764590740203857,0.1276390254497528,0.15541814267635345,0.8769744634628296,0.20677542686462402,0.9451865553855896,-0.9471970796585083,0.8712303042411804,-0.5545465350151062,-0.43228036165237427,-0.5764782428741455,-0.4355827569961548,0.19799141585826874,-0.7735400795936584,0.03943641111254692,-0.6998788118362427,0.6396570205688477,0.20085173845291138,1.5511152744293213,-1.3014988899230957,0.16077344119548798,-0.8013099431991577,0.39186638593673706,-1.2825144529342651,-0.5334590673446655,-0.2104293555021286,1.0813158750534058,1.2740477323532104,-1.400016188621521,1.0226104259490967,0.3020433485507965,-0.31687507033348083,0.9886107444763184,0.4308014512062073,0.10314911603927612,-0.10118535906076431,-1.02996826171875,1.9410074949264526,-0.6847912073135376,-0.6990523338317871,0.09757750481367111,-0.030291477218270302,-1.2322933673858643,0.14737387001514435,0.2679276764392853,-0.7984579801559448,-0.06777128577232361,-0.9724859595298767,0.9144186973571777,-0.7029511332511902,0.8426194190979004,-0.1090615838766098,0.7928116917610168,-0.8792747855186462,-0.2822214663028717,1.075535535812378,-0.7359854578971863,0.4155898988246918,-1.6584843397140503,-0.5316940546035767,-0.6356232166290283,0.19014203548431396,-0.2948582172393799,0.0010940912179648876,0.12105550616979599,-0.28623664379119873,-0.4340214133262634,-1.0478625297546387,0.34833672642707825,0.4613480269908905,-0.3892926871776581,-0.019156724214553833,0.11419396847486496,0.7772537469863892,1.8505363464355469,-0.6333566904067993,3.0249404907226562,-0.06473009288311005,0.9222925901412964,0.4219943881034851,0.7833346128463745,-0.2842150628566742,0.20874415338039398,1.0423566102981567,-0.10370565950870514,-0.9226514101028442,1.2807260751724243,-0.06583383679389954,-0.9179074764251709,-0.3489486277103424,0.0588415190577507,-1.5086908340454102,-0.2769484221935272,-0.4541267156600952,0.874662458896637,0.347310870885849,-0.9508364796638489,0.3169257342815399,0.419824481010437,-3.0992379188537598,-0.14023993909358978,-0.6464820504188538,0.7414102554321289,-0.28526949882507324,0.5944410562515259,-0.6756128668785095,1.0521613359451294,-0.008227217942476273,0.17473627626895905,-0.28938132524490356,0.06976965069770813,0.13741937279701233,-0.4861260652542114,-0.05648986995220184,0.7544183731079102,-0.04691457003355026,0.1488935947418213,-0.2296724170446396,0.516607940196991,0.6053851246833801,0.27659139037132263,0.6640434861183167,0.6644657850265503,-0.7363606095314026,-0.42416518926620483,0.2553213834762573,-0.7805672287940979,0.018730321899056435,-0.9630239605903625,-0.12888599932193756,0.09005238115787506,-1.4998972415924072,0.25961849093437195,-0.3159829080104828,0.6943604946136475,0.2364770621061325,0.15509319305419922,-0.23094619810581207,-1.7676494121551514,0.838768482208252,0.493440717458725,-0.39223936200141907,-0.5459811687469482,-1.4403680562973022,0.5235870480537415,-1.6553577184677124,0.9909352660179138,-0.3810313940048218,0.36229047179222107,-0.7579787969589233,0.8941715359687805,-1.085652232170105,1.4583598375320435,1.884191632270813,0.07720061391592026,2.0917069911956787,0.5157991647720337,-1.6627877950668335,0.4066351652145386,0.17807841300964355,1.8903563022613525,0.3915592133998871,-0.7917582392692566,0.6308262944221497,-0.6591357588768005,-0.38009002804756165,-0.3743976354598999,-0.9125373363494873,-0.5580715537071228,-1.261400580406189,1.2467362880706787,-1.171529769897461,-0.5663399696350098,-0.5333861112594604,0.7618960738182068,-2.318146228790283,-1.1107978820800781,0.17218004167079926,-0.7939958572387695,1.2852809429168701,-0.056340400129556656,1.214337706565857,0.21143947541713715,0.9101935029029846,-0.08943993598222733,-0.7873706221580505,-0.598848283290863,0.8166865110397339,-0.5098012089729309,-0.8825356364250183,-1.3435862064361572,-0.56016606092453,2.0740973949432373,-0.5426501035690308,-0.4857058525085449,-0.9215883016586304,-1.5507868528366089,-0.8331858515739441,1.0644193887710571,-0.852354884147644,-1.2049391269683838,-0.31330034136772156,-1.4623161554336548,1.7802783250808716,-1.033003568649292,1.593255877494812,0.31730952858924866,-0.7699213027954102,-1.7787718772888184,0.31745055317878723,-1.0769011974334717,-2.781559944152832,-0.41313794255256653,1.180140495300293,-0.9916558265686035,-0.36727383732795715,-1.5984176397323608,1.3022910356521606,0.39238694310188293,1.628812551498413,0.350882351398468,-1.1226731538772583,-0.4751896262168884,-0.011501082219183445,1.0526295900344849,-0.6092169284820557,-1.331409215927124,0.2854861617088318,0.2743431329727173,-1.1695173978805542,0.5341463685035706,-0.23631651699543,0.5179218053817749,0.09808385372161865,-0.17311088740825653,-0.9407931566238403,0.6602112650871277,0.041850656270980835,-0.880865216255188,0.7344903945922852,0.4231068193912506,-0.7769900560379028,0.004529270343482494,0.06228623539209366,0.3889770805835724,0.6443658471107483,-0.30031618475914,0.5598626732826233,-0.05426095798611641,-0.904384195804596,-0.5910831093788147,0.605712890625,-0.4703116714954376,0.49041080474853516,-0.6671845316886902,-0.16986210644245148,0.7577943205833435,-0.4466917812824249,1.1383060216903687,-0.3270030915737152,0.5247306227684021,0.4442168176174164,0.35313624143600464,-0.988123893737793,-0.32757246494293213,0.5742053985595703,0.6523842215538025,-0.06814637780189514,-0.742622971534729,-0.1089334636926651,-0.14463236927986145,-1.169559359550476,1.405980110168457,0.261723130941391,-0.11728478223085403,0.033495448529720306,0.35020676255226135,-1.0928322076797485,0.751041829586029,0.5346279740333557,-1.1702343225479126,0.8301514983177185,0.1870741844177246,-0.8869535326957703,-0.6908378005027771,0.3631569743156433,0.17008094489574432,0.3472765386104584,0.3167557716369629,0.6272309422492981,-0.36778008937835693,-1.0137970447540283,-0.26235899329185486,1.1731442213058472,-0.28588369488716125,-0.5861493945121765,-0.018737979233264923,-0.40782999992370605,-0.32862213253974915,-0.5258960723876953,0.5280367136001587,-1.0411145687103271,1.697746753692627,0.2968149185180664,-1.3039343357086182,-1.092428207397461,-0.43382370471954346,-0.4463801383972168,-0.06304389983415604,0.42541974782943726,-0.6932871341705322,-1.005026936531067,-0.48494142293930054,4.693753242492676,-2.74796724319458,-1.1213911771774292,0.01464297715574503,0.45136454701423645,0.8358585238456726,-0.4334138333797455,-1.9133663177490234,-1.8396989107131958,-0.8794149160385132,-1.2887818813323975,0.3176608979701996,-0.41398200392723083,-0.9973610639572144,0.1738404631614685,-1.887216567993164,0.11395835876464844,0.3221469223499298,0.2796311378479004,-0.137067973613739,-0.8202376365661621,-0.48569929599761963,0.1169012114405632,-0.40323030948638916,-0.6002798676490784,-1.0680136680603027,0.9001195430755615,-0.3902847468852997,-0.5137802958488464,-1.4012094736099243,1.5188493728637695,0.6947205662727356,0.6598202586174011,-0.5024553537368774,-1.7022701501846313,0.7993380427360535,-0.4052920937538147,-0.9307403564453125,-1.1432162523269653,-0.3415912687778473,1.3389562368392944,-0.07141765207052231,1.057816505432129,-0.9971269369125366,0.36815524101257324,-0.7489739656448364,0.49403518438339233,-1.5281354188919067,0.6673566699028015,-2.851516008377075,-1.650913119316101,0.8546399474143982,-1.673807978630066,-0.1671835482120514,-0.4311703145503998,0.527332603931427,-1.8185453414916992,-0.6593775153160095,-0.8859625458717346,-0.05447134003043175,-0.2992902994155884,1.7661930322647095,0.5504443645477295,0.8543433547019958,-0.694316029548645,0.19191662967205048,0.5739552974700928,-0.3687502145767212,0.9988673329353333,0.6766567826271057,0.6235520243644714,-1.2949354648590088,0.6408185362815857,-1.1402190923690796,-0.492275208234787,-0.17870762944221497,0.7616196870803833,0.49906960129737854,-0.32271331548690796,0.943601667881012,-1.1873847246170044,0.3590298295021057,0.43142154812812805,1.8951843976974487,1.3286054134368896,-0.7582852244377136,-1.0298763513565063,-0.4189220070838928,1.3403180837631226,1.777919054031372,-0.41318050026893616,-0.9387146830558777,-0.869946300983429,0.3662557899951935,-0.731920599937439,0.6219032406806946,0.7464218735694885,-1.1202754974365234,-0.6298418045043945,-1.5571306943893433,0.18274295330047607,0.38022494316101074,0.17581772804260254,0.468535840511322,-1.121846079826355,-0.08683843165636063,1.6381986141204834,-0.4876198470592499,3.230907678604126,-0.4177597165107727,1.5946080684661865,3.023127317428589,0.7047488689422607,-0.6225294470787048,3.1895720958709717,0.42786905169487,0.37943679094314575,1.9719301462173462,-1.4552881717681885,0.7523587346076965,-0.397165983915329,0.11724511533975601,-0.6736686825752258,-1.072317123413086,1.9104735851287842,0.8956506252288818,1.0224636793136597,-1.4998053312301636,-0.9380385875701904,-1.1268869638442993,1.069826602935791,1.5573101043701172,-1.5033152103424072,-1.198724389076233,-1.1545360088348389,-0.5861636400222778,-0.857279360294342,0.7383365035057068,1.2169840335845947,-3.4758572578430176,-0.05683838948607445,-1.9131650924682617,0.989571213722229,0.07424052804708481,-0.011753685772418976,0.17947275936603546,0.01807461492717266,-1.453946828842163,0.8180586099624634,-1.520735263824463,0.8223639726638794,-1.1817749738693237,2.4896645545959473,0.667420506477356,0.5941177606582642,-1.2485305070877075,2.730252981185913,0.2150786817073822,1.5210379362106323,-1.3489874601364136,-0.5871409773826599,1.2222596406936646,-0.8692957162857056,-0.4062856137752533,-1.8593416213989258,-0.8513813018798828,1.5532163381576538,0.3351970911026001,3.533006191253662,0.019321534782648087,-0.1992110013961792,0.4815491735935211,0.3836514949798584,1.0116671323776245,-1.1515785455703735,-2.2338833808898926,-0.27030181884765625,-1.5146992206573486,-1.5367413759231567,2.617849826812744,0.29083704948425293,-0.935530960559845,0.026758085936307907,-0.7199879884719849,0.9106255769729614,-0.19799752533435822,1.463571548461914,0.020403865724802017,-1.9681453704833984,-0.938923180103302,0.37112048268318176,-1.9711357355117798,-0.2471359372138977,-0.47968462109565735,0.4212820529937744,-0.10541976988315582,-0.877536952495575,-0.820460855960846,-0.6323661804199219,2.283907175064087,2.126321315765381,2.410916328430176,-2.7574501037597656,0.12266002595424652,0.8448004722595215,-0.06243089213967323,-0.7613113522529602,-1.4290965795516968,-0.6702688932418823,-0.015055975876748562,0.5827093124389648,-1.2078189849853516,-2.3309922218322754,1.2068023681640625,1.8174906969070435,-0.033207692205905914,0.6632484197616577,-0.5813390016555786,-1.5569602251052856,-0.2920215129852295,-0.5852397680282593,0.6859042644500732,0.9579782485961914,0.582374632358551,-0.006082728039473295,-0.2748613953590393,0.24205715954303741,-0.9161425232887268,1.662886619567871,-0.24446392059326172,0.7706874012947083,-1.116890788078308,-0.43695521354675293,-1.0778337717056274,0.7790067791938782,0.3339809477329254,0.1834036260843277,-0.011700155213475227,-2.0285773277282715,-0.5202704071998596,0.14644426107406616,0.07948847115039825,1.6640419960021973,3.2877492904663086,-0.825603723526001,-2.602202892303467,1.3111366033554077,-0.37062913179397583,0.0036394542548805475,-1.5189208984375,-1.4022560119628906,0.2530282139778137,0.9392353892326355,-0.5542715787887573,0.9738166928291321,-0.3009340465068817,0.22738882899284363,-1.3768185377120972,0.42819252610206604,-0.8909188508987427,-0.6156190633773804,0.04890185967087746,-0.6463203430175781,0.41319817304611206,0.5992081761360168,-0.8836234211921692,-1.4577308893203735,-0.43085354566574097,-0.408007949590683,-0.20855852961540222,-0.015039673075079918,1.2190133333206177,-0.5012829303741455,0.368432879447937,-0.5135212540626526,0.12477017194032669,0.9021021127700806,0.502945065498352,0.3689849376678467,0.32783666253089905,0.2577715814113617,-0.14594390988349915,0.27302390336990356,-0.3303672969341278,-0.21031077206134796,-0.675025224685669,1.104372262954712,-0.062138140201568604,-0.9352567791938782,0.8619961142539978,-0.6975721120834351,0.25772902369499207,0.16579021513462067,1.2772828340530396,-0.08035199344158173,-0.16965724527835846,-0.1522824764251709,-0.037540264427661896,-0.7327527403831482,0.9362321496009827,0.3600408136844635,0.4616554379463196,0.18689574301242828,0.32841670513153076,0.4162069261074066,-0.3100969195365906,0.25459539890289307,-1.1196404695510864,0.4321102797985077,0.19659994542598724,-0.21431834995746613,0.03580830991268158,-0.26992422342300415,-0.5524624586105347,0.5686343908309937,0.4008335769176483,-0.5368393659591675,0.2109951376914978,-0.35110214352607727,-0.6711905002593994,0.6142140030860901,-0.4983667731285095,0.3929196894168854,0.2980669438838959,-0.09040150046348572,-0.3021084666252136,-0.34760937094688416,0.14218561351299286,0.4659903943538666,0.9344581961631775,-0.5813431143760681,-0.30274543166160583,-0.23732595145702362,0.29990100860595703,-0.21532629430294037,-0.47376349568367004,0.8696162700653076,-0.7766367793083191,-1.611698031425476,-0.9390784502029419,-0.2037217915058136,0.47230565547943115,1.1023808717727661,-1.7088593244552612,-1.753502607345581,-0.8247623443603516,-1.5095722675323486,1.051317572593689,0.09164836257696152,-1.8321363925933838,-1.176220417022705,-2.2457470893859863,0.6429921984672546,-0.5297871828079224,0.677359402179718,1.7110868692398071,-0.5521196722984314,-0.7488436698913574,-0.2520407438278198,-0.9711273312568665,-0.4854837954044342,-1.2832942008972168,1.6381077766418457,-0.5502512454986572,-0.025085391476750374,-2.167182207107544,1.372836947441101,0.01742600090801716,0.8884500861167908,1.006316065788269,-0.48826470971107483,-0.2397577464580536,-0.5655686259269714,1.14618718624115,-1.1726624965667725,-0.6908490061759949,0.6262620687484741,1.7343883514404297,0.580025851726532,0.6568508744239807,1.1326147317886353,-0.8628460168838501,0.3607282042503357,0.06381810456514359,-2.786210775375366,-0.23904284834861755,0.061941929161548615,-1.1166045665740967,-0.8987499475479126,2.4610469341278076,1.4015424251556396,0.6507143974304199,-1.1319458484649658,-1.255287766456604,0.4454987645149231,-1.3035072088241577,1.1536799669265747,1.364693284034729,-3.0766396522521973,-0.9499235153198242,1.915871024131775,-1.4780206680297852,-0.46815305948257446,0.14012153446674347,-0.09019750356674194,-1.4094198942184448,-0.1693739891052246,-1.0372071266174316,1.0884908437728882,2.298931360244751,1.1834325790405273,0.4919002950191498,-2.3292386531829834,-0.028855115175247192,-1.2060766220092773,0.5383513569831848,-1.1151782274246216,-0.7910569310188293,-0.2439483106136322,1.3708617687225342,-0.24043676257133484,0.30925095081329346,-0.11506985127925873,-0.08031015843153,-0.5587947964668274,1.0623323917388916,0.531618058681488,0.3991159498691559,0.2552003562450409,0.25756773352622986,0.2069656103849411,-0.0434504970908165,0.5374056100845337,-0.6430004239082336,0.33847367763519287,-0.5896808505058289,-0.09411633759737015,-0.11209471523761749,-0.27973824739456177,-0.5801717042922974,-0.14590510725975037,0.15403859317302704,-0.2865627706050873,0.030356373637914658,-0.12289039045572281,0.4024313688278198,-0.37997061014175415,-0.5265072584152222,0.2961178719997406,0.0833238884806633,-0.1538228988647461,-0.2769474387168884,-0.09161385893821716,-0.7808252573013306,0.3256646692752838,0.3961099684238434,-0.7244820594787598,-0.29700347781181335,0.13226468861103058,0.305911660194397,0.43589499592781067,-0.12136509269475937]},"inputBias":{"rows":42,"columns":1,"weights":[-1.2078301906585693,-1.5604767799377441,0.5797947645187378,1.2423075437545776,-0.43353262543678284,1.913906216621399,-1.7368614673614502,-1.5486234426498413,0.43256568908691406,1.595885992050171,0.005106835160404444,1.1271799802780151,-1.8551151752471924,0.3847745358943939,-1.1444841623306274,-0.3652390241622925,1.2285367250442505,-1.3568987846374512,0.8670573830604553,-1.0210775136947632,0.5764195322990417,1.400819182395935,-0.4278855621814728,0.35647717118263245,-0.7158128023147583,0.04677639901638031,-0.7924249172210693,-0.39936280250549316,1.197014331817627,-1.9899280071258545,-1.41292405128479,0.4759310483932495,1.125606894493103,1.3375506401062012,1.6005513668060303,0.6373727321624756,-0.4995693564414978,1.1893295049667358,-0.8637201189994812,0.4267807602882385,-1.2400490045547485,-1.1845399141311646]},"forgetMatrix":{"rows":42,"columns":16,"weights":[-0.3771917521953583,0.30532142519950867,-0.18904180824756622,0.5056326389312744,0.004017758183181286,-0.705799400806427,-0.07619688659906387,-0.4920390546321869,-0.6786152124404907,-0.4708118736743927,0.4789010286331177,-0.1679515391588211,0.6450811624526978,0.10133875161409378,0.23886041343212128,0.5484915971755981,0.4458499848842621,0.28275197744369507,-0.4132095277309418,-0.07075423002243042,0.10516712069511414,-0.2517600357532501,0.5519292950630188,-0.3636654019355774,0.09576436132192612,-0.4182449281215668,0.30267804861068726,0.530961811542511,-0.09032992273569107,0.32413193583488464,-0.552016019821167,0.015864314511418343,0.3495981693267822,-0.3380328416824341,0.057437241077423096,-1.484495997428894,-0.18455630540847778,-1.5265913009643555,-0.019822394475340843,-0.9341863393783569,0.8969202041625977,-0.1988740861415863,-1.1880903244018555,0.225434347987175,-1.7643991708755493,0.501395583152771,-0.19102346897125244,-0.14932478964328766,0.736442506313324,0.612374484539032,-0.02856210619211197,0.38415294885635376,0.5769464373588562,-0.06986243277788162,0.9098586440086365,-0.5273893475532532,-0.31139200925827026,-0.511527955532074,0.43050405383110046,0.6141801476478577,0.3871336281299591,0.5204001069068909,-0.7422962784767151,0.49987557530403137,0.4134941101074219,0.7957929372787476,-0.8467321395874023,0.5166910290718079,0.333739310503006,-0.1779971867799759,0.39994189143180847,-0.5723168253898621,-0.3062438368797302,-0.7037175893783569,0.4686914086341858,0.3936559855937958,0.673871636390686,0.6117127537727356,-0.5016006231307983,0.04591120779514313,-1.1277562379837036,-1.4202784299850464,0.7002865672111511,-1.0744869709014893,-1.2491273880004883,0.5420467853546143,-0.7081617116928101,0.706941545009613,0.47921958565711975,0.9424194693565369,-0.7312904000282288,-0.9727486371994019,-0.928328812122345,-0.7255592346191406,1.0708786249160767,-0.6618509888648987,-0.038684338331222534,0.30317753553390503,0.6623297929763794,-0.2844215929508209,0.12554118037223816,-1.2748165130615234,-0.3242868185043335,-1.3084094524383545,-0.19291019439697266,-1.0633678436279297,-0.1111760139465332,-0.24703173339366913,-0.8022629618644714,1.0567727088928223,0.05944548919796944,1.089068055152893,-0.6323340535163879,-0.7200756669044495,-0.9334601759910583,0.692234992980957,0.5478789806365967,0.40533044934272766,-0.22793932259082794,0.9687230587005615,-0.3638598918914795,0.8610736727714539,-0.540361762046814,-0.40645650029182434,0.6761175394058228,-1.3024985790252686,0.45095396041870117,-0.9281255602836609,0.9678781628608704,0.23707467317581177,-1.142059564590454,0.33314377069473267,1.0298174619674683,0.23618189990520477,0.9325777292251587,-0.2307145744562149,0.023107271641492844,-0.2089737504720688,0.23969720304012299,1.05905282497406,0.3228960633277893,0.09943307191133499,-0.9862924218177795,-0.4678225815296173,0.296798437833786,0.3664253354072571,-0.9136372804641724,-0.28860557079315186,-0.24672724306583405,-2.1352620124816895,-0.4468321204185486,-0.9934089779853821,0.281105637550354,-0.640749990940094,-0.2764224708080292,-0.04979588836431503,-0.2478044629096985,0.7632511258125305,-0.2937292158603668,-0.13921310007572174,0.33935391902923584,0.19735784828662872,-0.41342464089393616,0.14199484884738922,0.29188719391822815,-1.1839851140975952,0.4056567847728729,-0.9039794206619263,-0.5058292746543884,-1.1009507179260254,0.40987053513526917,0.46027249097824097,0.2298787236213684,0.4140687882900238,-0.3568207621574402,0.5929492115974426,0.28476229310035706,0.028161978349089622,-0.5413184762001038,-0.4689781367778778,-0.4708082973957062,-1.4504414796829224,-0.2807216942310333,-0.6457608342170715,0.43460971117019653,-0.23125936090946198,-0.27217888832092285,0.0689564123749733,-0.5926267504692078,0.4700626730918884,-0.10123898833990097,-0.5234158635139465,0.8322519659996033,0.9604055881500244,-0.3410017192363739,0.5561056733131409,0.7048925757408142,0.036982305347919464,0.7161418795585632,-0.2681768536567688,0.11403840780258179,-0.716565728187561,0.48086801171302795,0.5296332836151123,0.01898247003555298,0.6825940608978271,-0.5144427418708801,0.5821875333786011,-1.2822741270065308,-0.9373353123664856,0.43920060992240906,-0.4976626932621002,-1.1001074314117432,-0.17183920741081238,-0.969075083732605,0.3067394196987152,0.3055463433265686,0.44725677371025085,-0.5620177984237671,-0.8787134289741516,-0.34535858035087585,-0.40922102332115173,1.1738146543502808,-0.2673394978046417,0.791003406047821,0.7732508778572083,-1.2618677616119385,0.5305240154266357,0.6817607283592224,-1.3598275184631348,0.1071988046169281,-1.0461939573287964,-0.5682590007781982,-0.872542679309845,0.5931892395019531,0.7104113698005676,0.68665611743927,0.7498529553413391,-1.0528160333633423,0.09359383583068848,0.5645065903663635,0.7230265140533447,0.12766173481941223,0.6526520848274231,0.42173659801483154,-0.7063175439834595,0.552665650844574,-1.0746630430221558,-0.9909897446632385,-0.6806529760360718,0.7558189034461975,0.6340029835700989,0.6435213088989258,1.1236746311187744,-0.6271742582321167,0.7282969951629639,0.0241556279361248,0.15311674773693085,-0.8572704195976257,0.052113067358732224,0.009991549886763096,-0.629503071308136,0.30790555477142334,0.03658582270145416,-0.2135767787694931,0.1394536942243576,-0.04752160608768463,0.15548215806484222,-0.081231027841568,-0.0786442682147026,-0.022825106978416443,-0.2914644479751587,0.5352024435997009,0.5007834434509277,-0.6130269765853882,0.3873402178287506,0.8782839179039001,-0.9764170050621033,0.17333519458770752,-0.9044430255889893,-0.6901058554649353,-0.9220668077468872,0.5211701989173889,0.4757358729839325,0.7464471459388733,0.9645378589630127,-0.5389825701713562,0.33607402443885803,0.8400437831878662,-0.6495864391326904,-1.776477575302124,-0.8773528933525085,0.6027849316596985,-0.46786952018737793,1.0002102851867676,0.6928547024726868,1.8821829557418823,1.28616201877594,-1.6789283752441406,0.9960439205169678,-1.0269482135772705,-0.7877258658409119,-0.9108344316482544,-2.5412397384643555,-0.19399166107177734,-0.5120735764503479,0.811582088470459,-0.16305308043956757,-0.5945531129837036,1.767710566520691,0.3889971077442169,1.5427130460739136,0.5579309463500977,1.1682158708572388,-0.23413871228694916,0.01961584761738777,-0.3890253007411957,-0.7528839111328125,0.3322133421897888,0.035330452024936676,0.29570358991622925,-0.0194077268242836,-0.19426661729812622,-1.0066559314727783,-0.2982315421104431,-2.2125954627990723,-0.3447257876396179,-1.1420601606369019,0.4816991984844208,-0.5721768140792847,-0.5292393565177917,-0.15880748629570007,-0.8146743774414062,0.9163987636566162,-0.16540740430355072,-0.5131708979606628,0.12576495110988617,0.2477329671382904,-0.813599705696106,-0.13454517722129822,-0.16856376826763153,-0.6865168809890747,0.29334405064582825,0.05108906701207161,-0.0365840345621109,0.12659631669521332,-0.2654496133327484,0.2685428857803345,-0.25509122014045715,0.2499394714832306,-0.15111523866653442,-0.5680861473083496,-0.20739047229290009,0.28792089223861694,2.1292684078216553,-0.19209900498390198,0.08310169726610184,-1.8503495454788208,-0.7205578088760376,-1.2761573791503906,-0.42484545707702637,-0.8588108420372009,0.3027970492839813,-0.43913301825523376,-0.33373329043388367,0.925660252571106,0.26894304156303406,1.3442802429199219,0.26131534576416016,0.2663861811161041,-0.7314627766609192,0.318165123462677,0.04371890798211098,-0.4541572332382202,-0.056658245623111725,-0.22571147978305817,0.04753643274307251,-0.20317426323890686,0.03889720141887665,0.23097343742847443,0.1818908452987671,0.2554417550563812,-0.18505068123340607,-0.3364589810371399,-0.5807297229766846,-0.5089296102523804,-0.03209325298666954,0.06747972220182419,-0.5847575664520264,-0.03657745197415352,-1.0596115589141846,0.15837402641773224,-0.30493244528770447,0.33844441175460815,-0.23388761281967163,-0.7859861254692078,0.22082464396953583,-0.3448934853076935,0.6051804423332214,-1.031972885131836,0.8167210221290588,0.43403229117393494,0.09875036031007767,0.7360159158706665,0.9524991512298584,-0.10535211861133575,0.7958649396896362,-0.2385423183441162,-0.4958818852901459,-0.2511487901210785,0.6021440625190735,1.0055307149887085,0.7333278656005859,0.2043110579252243,-0.8806033730506897,0.0845549926161766,0.053785040974617004,-0.4638623297214508,-1.4475435018539429,-0.20077529549598694,-0.06495070457458496,0.9578057527542114,0.1458931416273117,1.013120412826538,0.42240995168685913,0.8545786738395691,-0.45447874069213867,0.11337652802467346,-0.20568108558654785,-1.126172423362732,-0.12894771993160248,-1.5611498355865479,0.38602161407470703,0.3765522837638855,-0.3278697431087494,-0.0019946973770856857,0.040557049214839935,-1.1185299158096313,-0.11310777813196182,-0.615207850933075,-0.32143256068229675,-0.4241591691970825,0.5147358775138855,0.42289167642593384,0.2396283745765686,0.27660685777664185,-0.5610434412956238,-0.5496026873588562,1.070019006729126,0.7945200204849243,-0.25338485836982727,0.6009683609008789,0.7956840991973877,-0.20411059260368347,1.201055645942688,-0.45330631732940674,-0.4415246546268463,-0.6810317635536194,0.5150189399719238,1.1125341653823853,0.5299569964408875,0.420149028301239,-0.9283824563026428,0.6105873584747314,0.5334606766700745,-0.06211023032665253,-1.1983002424240112,-0.06379619985818863,0.06188618391752243,-0.10312055796384811,0.596431314945221,0.06511563062667847,0.14633260667324066,0.16407373547554016,-0.12664984166622162,0.5176977515220642,0.11768773198127747,-0.21212270855903625,-0.6277021169662476,-0.1384127140045166,0.3074134588241577,-0.19372610747814178,-1.8927751779556274,0.09200830012559891,0.09907843172550201,-0.33942314982414246,0.35486939549446106,0.23608480393886566,-0.0673120990395546,0.30712029337882996,0.03528960794210434,0.306902676820755,0.16029736399650574,-0.380075603723526,-0.4950747787952423,-0.7896578311920166,-0.009902301244437695,1.191971778869629,0.8511226177215576,0.7931381464004517,-0.08309066295623779,-0.9527240991592407,-0.16250252723693848,-1.4464654922485352,-0.9273768663406372,-1.2979230880737305,1.12370765209198,-0.24188998341560364,0.6817392110824585,1.5321789979934692,0.15339480340480804,1.7663525342941284,-0.19417841732501984,-0.21404187381267548,-0.3812359571456909,-0.19968052208423615,-0.16103419661521912,-0.9890098571777344,-0.5161473155021667,-0.40063929557800293,0.25540676712989807,0.09044764935970306,-0.4036860764026642,-0.27242761850357056,-0.24751217663288116,0.09942644834518433,0.20725667476654053,-0.11587584018707275,1.1693886518478394,1.0030908584594727,-0.5350825190544128,1.0217221975326538,1.077614665031433,0.046865228563547134,1.1317311525344849,-0.45799800753593445,-0.46821340918540955,-0.1325622946023941,0.8714309334754944,1.0798373222351074,1.098708152770996,0.418183833360672,-1.239967703819275,0.32696232199668884,-0.2522989511489868,1.188952088356018,1.1367747783660889,0.8239988684654236,0.0661473199725151,-1.1453349590301514,-0.3587186336517334,-2.0328009128570557,-0.8057236075401306,-1.8737425804138184,1.0560399293899536,-0.5020073652267456,0.7970656156539917,2.1185760498046875,0.2710797190666199,2.12373685836792,0.4786841571331024,0.17052829265594482,-0.12162134051322937,0.43476858735084534,0.449325293302536,0.4625607132911682,0.8750777840614319,0.21491052210330963,-0.14174021780490875,-0.31012532114982605,0.26924076676368713,0.46503347158432007,0.26912230253219604,0.12012434005737305,-0.2555738389492035,-0.18028487265110016,-0.2003059983253479,-0.4636986255645752,-1.8490052223205566,-0.39334097504615784,-0.33469876646995544,0.7591246962547302,0.3235614001750946,0.6213658452033997,0.6364073753356934,0.2652323544025421,-0.7351060509681702,0.03882770240306854,-0.28266480565071106,-0.5397796630859375,0.06683367490768433,-0.6940515041351318,-0.5301201939582825,-0.5209296941757202,0.3247719407081604,-0.5589312314987183,-0.2558266818523407,0.2808704376220703,-0.30304738879203796,0.3775067925453186,0.5000128746032715,0.2850911021232605,-0.4851838946342468,-0.5844396948814392,-0.47142133116722107,-0.44240573048591614,0.6145638823509216,-0.54825359582901,0.4513785243034363,0.6536726951599121,-0.9704636335372925,0.3795068860054016,0.4620063006877899,-1.3901722431182861,0.07291030138731003,-1.1770955324172974,-0.5126157402992249,-0.9514594078063965,0.3741755783557892,0.41677212715148926,0.3874829411506653,0.9189416170120239,-0.5501555800437927,0.2759622633457184,0.6210650205612183,0.20837800204753876,0.052490413188934326,0.0737532302737236,0.15708500146865845,-0.3749772608280182,0.41332533955574036,-0.4479924738407135,-0.00017620500875636935,-0.27836012840270996,0.13232581317424774,0.42688339948654175,-0.019510479643940926,0.40092021226882935,-0.5759312510490417,0.1965789943933487,0.14508649706840515,1.2855721712112427,0.7013152837753296,0.6171433329582214,-0.069005087018013,-1.0232880115509033,-0.08417278528213501,-1.396965742111206,-1.2237210273742676,-1.0028921365737915,1.2326101064682007,-0.14007870852947235,0.6964437961578369,1.4633904695510864,-0.11193452775478363,1.3503501415252686,-0.7776930928230286,-0.2717777192592621,0.6488760709762573,-0.23561833798885345,-0.6326028108596802,0.7814036011695862,-0.47793763875961304,0.5022851228713989,0.20309340953826904,0.5632086396217346,-0.1831635981798172,-0.7412509322166443,-0.39809685945510864,-0.29630059003829956,0.9012726545333862,-0.26397961378097534]},"forgetHidden":{"rows":42,"columns":42,"weights":[0.2048284113407135,-0.00802123174071312,0.12862753868103027,-1.4789897203445435,-2.8006751537323,-0.6987864971160889,-0.5500122904777527,0.8994949460029602,0.18073667585849762,-1.318637728691101,0.07897967100143433,0.09152492135763168,0.3657130300998688,-0.6207161545753479,-0.07027306407690048,2.703944683074951,-0.3989585340023041,-1.1581429243087769,0.24080634117126465,0.9106040000915527,-3.142634153366089,0.36183488368988037,0.7814562916755676,-0.022103499621152878,-2.7545135021209717,1.3098646402359009,-0.2164553850889206,-2.1193175315856934,-0.5856497287750244,0.14120221138000488,-3.0081164836883545,0.365693062543869,-0.4768523573875427,1.4443080425262451,0.25123104453086853,0.6969615817070007,0.6470519304275513,-0.3498285710811615,-0.2008049637079239,-0.16935592889785767,-0.48603570461273193,0.6495859026908875,-0.817121684551239,0.558174729347229,0.9746370911598206,0.20829595625400543,0.18301208317279816,-0.2856088876724243,-0.627893328666687,1.0750254392623901,1.0912730693817139,-0.40545064210891724,1.0925718545913696,-0.3603721559047699,0.07392728328704834,0.4320392608642578,0.5563698410987854,1.0894161462783813,-0.46381959319114685,-0.11460959166288376,-0.093796007335186,-0.4153822958469391,-0.4240761697292328,0.6146072745323181,0.25746583938598633,0.3582211136817932,-0.08112431317567825,-0.11300834268331528,-1.2412135601043701,0.020775217562913895,-0.1073906421661377,1.3071022033691406,-1.076747179031372,0.22281807661056519,-0.3480170965194702,-0.38493776321411133,-0.0972893089056015,0.4633767306804657,0.585007905960083,-0.719312310218811,0.4654886722564697,0.06957079470157623,0.20911218225955963,-0.3632972240447998,0.3256014585494995,1.91446053981781,1.0185363292694092,0.827559232711792,-0.47884318232536316,-2.0952072143554688,-0.49115273356437683,0.41458073258399963,0.7685102820396423,0.12440063804388046,1.7693253755569458,-0.5300256013870239,-0.13150477409362793,1.316809892654419,-0.1132003515958786,1.051295280456543,-1.5654046535491943,0.11735496670007706,-0.15758292376995087,0.17193302512168884,0.1421695202589035,1.6872981786727905,-0.06795404106378555,-0.0512370839715004,0.2825830578804016,1.4111348390579224,-1.7358050346374512,-0.061576563864946365,-0.6191211938858032,1.6762115955352783,-1.6370110511779785,-0.020286675542593002,-1.3549413681030273,0.9367441534996033,-0.43944358825683594,-0.9487640261650085,1.4729602336883545,-1.1744264364242554,-0.2971455454826355,-0.12466193735599518,-2.6059625148773193,0.022321756929159164,-0.11065118759870529,0.4301483929157257,-0.3665333390235901,0.36749666929244995,0.664321780204773,0.46177586913108826,-0.14431345462799072,0.05011864751577377,0.23637589812278748,-0.44163405895233154,-0.35900771617889404,0.7248111367225647,0.09989160299301147,0.30437153577804565,-0.0985604077577591,0.15445269644260406,0.39840781688690186,0.34734678268432617,0.8086099028587341,-0.055372342467308044,-0.4019925594329834,-0.42593976855278015,0.39235514402389526,-0.6043212413787842,0.07208017259836197,-0.014183659106492996,0.13822625577449799,0.05392606928944588,-1.0812050104141235,0.21888771653175354,-0.10543079674243927,0.6445051431655884,0.3304210603237152,0.40334442257881165,-0.34652724862098694,-1.4644980430603027,0.36455586552619934,0.15573103725910187,-0.00852326862514019,-0.4855513274669647,-0.4966920018196106,0.09068050980567932,0.30158713459968567,-1.043903112411499,-0.6146999597549438,2.76961088180542,-0.889681339263916,-0.31513717770576477,-1.0750811100006104,-0.15589341521263123,-0.3280690908432007,-0.8154255747795105,-0.041687965393066406,0.21505597233772278,-1.5567959547042847,0.7174040079116821,-0.80802983045578,-0.877438485622406,0.012929242104291916,-0.6232452988624573,0.5524503588676453,0.5073856115341187,-0.5241853594779968,-0.025919457897543907,-0.49759379029273987,-0.10577989369630814,2.7833240032196045,-0.08118037134408951,0.18601129949092865,0.6074317097663879,-2.2584993839263916,0.09870295226573944,2.313181161880493,0.47374868392944336,0.016221534460783005,1.1771610975265503,-1.3627064228057861,-1.9248145818710327,1.55647611618042,0.5598173141479492,-0.5325879454612732,-0.13144557178020477,-2.7056727409362793,0.6665139198303223,0.06984777748584747,-0.39129772782325745,0.15891535580158234,-0.24621601402759552,-1.3013519048690796,0.21061967313289642,0.8069067597389221,-0.10361416637897491,-0.891757607460022,0.451158344745636,-0.30461978912353516,-0.10776056349277496,-0.5657387375831604,0.3636294901371002,0.5334804058074951,-0.007335295435041189,-0.5554510354995728,0.2557806372642517,-0.026620034128427505,-0.7273843288421631,0.5625794529914856,0.6045581102371216,-0.09276238083839417,0.10239508748054504,-0.7303056716918945,-0.850601315498352,0.4429803192615509,-0.9703460931777954,0.2711637020111084,-0.9908978343009949,0.6560810208320618,-0.6161130666732788,-0.6560572385787964,0.16524456441402435,0.7151294946670532,0.09169638901948929,-0.15418510138988495,-0.7737754583358765,0.32643088698387146,0.4289962649345398,-0.24931441247463226,-0.8585293292999268,-0.25734496116638184,-0.5535381436347961,0.4506407678127289,-0.13797681033611298,0.07802414894104004,0.2063150703907013,0.1909129023551941,0.911034882068634,-0.47458308935165405,0.3942115008831024,1.041360855102539,-0.12266822904348373,-1.221206784248352,0.07791891694068909,-0.07128235697746277,-0.21403996646404266,-0.28831547498703003,-0.5059096813201904,-0.7612742185592651,0.0250887181609869,0.6610346436500549,0.2266267091035843,-0.1751236766576767,0.29479876160621643,0.3694673478603363,-0.2690861225128174,-0.13288845121860504,0.8651126623153687,0.636512279510498,-0.14770548045635223,1.0225012302398682,-0.6591416001319885,-0.3843722641468048,-0.35655808448791504,0.07315850257873535,0.8168559074401855,-0.12059137225151062,-0.4666706323623657,-0.008409681729972363,0.4185759723186493,0.8808210492134094,0.08556199818849564,-0.2933354079723358,-1.2075401544570923,-0.19532422721385956,-1.1723060607910156,-1.393248438835144,0.33659425377845764,-1.1459535360336304,0.6661621332168579,-0.12026610225439072,-1.8525285720825195,-0.13842067122459412,0.2565993368625641,-1.012934684753418,0.2841491401195526,-0.06421849876642227,1.5237996578216553,-0.31771987676620483,-0.518771231174469,0.6199772953987122,0.7964582443237305,-1.1539417505264282,0.28507038950920105,0.6719871163368225,0.05017239227890968,-1.2499794960021973,0.6900072693824768,-0.6705431342124939,-1.9331892728805542,-0.6543862819671631,0.05412674695253372,-1.2701364755630493,1.7109770774841309,-0.6391884684562683,1.3561232089996338,-1.89669668674469,-0.04109536483883858,0.0049912757240235806,-0.3155237138271332,-0.18155263364315033,-0.5773955583572388,0.10260404646396637,0.519935131072998,-0.6250580549240112,0.6003125905990601,0.5984095931053162,0.47630956768989563,-0.5355809330940247,1.0735981464385986,-1.4189741611480713,0.36677125096321106,0.7674066424369812,-1.2515721321105957,0.5548179149627686,0.5983828902244568,-0.6391677260398865,-0.14522185921669006,0.31576627492904663,1.7146238088607788,1.0169432163238525,-0.035533733665943146,0.41017043590545654,-0.08044260740280151,-1.0910720825195312,-0.8592085838317871,0.7486701607704163,-0.7286168932914734,-0.2816709280014038,-0.5614273548126221,-1.191680669784546,-0.24082587659358978,-0.8045992255210876,1.0164707899093628,-1.132669448852539,0.4440237879753113,0.6979286074638367,-0.39108872413635254,-1.2078564167022705,0.18173131346702576,1.014275074005127,0.4047677516937256,0.3052569627761841,-0.3961089849472046,-0.0728573277592659,-0.1434381902217865,-0.12357965856790543,0.3731072247028351,0.8341550827026367,-0.9492359757423401,-0.08088040351867676,-0.4854380488395691,0.10374240577220917,0.1855393648147583,0.2559491991996765,0.4247623085975647,-0.04146880656480789,-0.905250608921051,0.8801694512367249,-0.4330245852470398,-0.22635982930660248,-0.2500585615634918,-0.7292168140411377,0.030669644474983215,-0.875781774520874,0.18753798305988312,0.3597504198551178,0.7489655613899231,-0.8597704172134399,0.679357647895813,0.4377954602241516,0.3158136308193207,-0.08522510528564453,0.018911803141236305,0.9422540068626404,0.15969140827655792,-0.26309147477149963,-0.43042516708374023,-0.6543169021606445,-0.6046147346496582,0.4538009464740753,0.6803249716758728,-0.4918043315410614,-0.5011773705482483,-0.1783568114042282,0.8452160358428955,0.6472963094711304,-0.019007127732038498,-0.9933163523674011,1.6475574970245361,2.064626693725586,0.3778294622898102,0.9586450457572937,-0.03726299852132797,-1.1788733005523682,0.3026480972766876,0.7595087289810181,-0.817164957523346,-0.43015795946121216,0.3676358461380005,-1.1388801336288452,0.3732919991016388,-0.07166390866041183,-0.043334536254405975,-0.05342885106801987,-0.2781882584095001,0.15587446093559265,0.8439781665802002,-2.4141926765441895,-0.014113160781562328,0.27728918194770813,-0.19303545355796814,-0.8731680512428284,0.6227282881736755,-2.775613307952881,-0.7242622971534729,-1.1586750745773315,-0.13531656563282013,-0.6113077998161316,0.31567659974098206,-0.18854184448719025,-0.7107832431793213,-1.2527210712432861,0.3223741948604584,-0.0028131073340773582,0.3420712351799011,-0.00868925265967846,-0.035746701061725616,-1.0661523342132568,0.546821653842926,0.3020550608634949,-0.12786313891410828,0.6701322197914124,-0.47778037190437317,-0.4069036543369293,-0.3129633069038391,0.42355167865753174,-0.3454365134239197,-0.22276432812213898,0.8628790378570557,-0.2205827385187149,-0.747544527053833,0.329790860414505,0.331869512796402,-0.06831491738557816,0.07255377620458603,-0.7445638179779053,0.2515210807323456,-0.5001277327537537,-0.13292792439460754,0.8273804783821106,0.8560889959335327,-0.854350209236145,0.3384675085544586,0.2788465917110443,0.16154801845550537,0.16288167238235474,-0.2306211143732071,0.5556797981262207,-0.0024907998740673065,0.4448254704475403,-0.899609386920929,-1.001652479171753,-0.020858656615018845,0.7831750512123108,0.43205174803733826,-0.0817110612988472,-1.0107781887054443,0.007239744532853365,0.6132495999336243,-0.06235883757472038,-0.21312889456748962,-2.397331476211548,1.505040168762207,2.1212234497070312,0.12124241143465042,-1.3881174325942993,0.16091765463352203,-1.224438190460205,1.4517782926559448,0.9293425679206848,0.06681554019451141,1.3905292749404907,-0.2690919041633606,-0.39005306363105774,2.3025500774383545,1.4300931692123413,-0.0600537471473217,0.020152634009718895,-0.8846250176429749,-0.46974384784698486,-0.6658662557601929,-0.48893749713897705,0.19458061456680298,0.9369359612464905,0.4546287953853607,-0.3553529679775238,0.6812610626220703,-2.6366193294525146,-0.270982027053833,0.4684649109840393,1.4154269695281982,-0.6265057325363159,-0.09750727564096451,-0.23012545704841614,-0.7558106184005737,-0.3143995404243469,0.4589756727218628,-0.7296907901763916,-0.2711707353591919,1.4478375911712646,0.28016677498817444,2.181460380554199,-1.134752631187439,1.2287962436676025,-0.8218370676040649,1.0162571668624878,-0.590441107749939,-1.5853685140609741,-0.8514686822891235,0.9320322275161743,-1.2261838912963867,-0.853482723236084,0.29687684774398804,-1.1755614280700684,-0.2061293125152588,-0.35021886229515076,-0.6653616428375244,-0.10010968893766403,-0.2501610815525055,-0.6911182403564453,0.19468164443969727,-0.7171177268028259,0.2969142198562622,0.9554961919784546,0.7661932110786438,-0.996396005153656,0.0453396700322628,-0.7415604591369629,0.16306917369365692,0.34412896633148193,-0.7862040400505066,0.42818737030029297,-0.9394296407699585,0.3094058930873871,-0.6716941595077515,-0.8090471029281616,-1.0564805269241333,-0.49452370405197144,-0.4065138101577759,-0.4658657908439636,-0.13830627501010895,-0.09673066437244415,0.5484580993652344,-1.2570514678955078,-0.13451166450977325,0.21870958805084229,0.04525785520672798,-0.24061866104602814,0.23677341639995575,0.34740734100341797,-0.21905934810638428,0.044967930763959885,-0.05732395872473717,0.08766203373670578,-0.1570092886686325,-0.20699435472488403,0.1583518087863922,-0.4733192026615143,0.03250362351536751,0.13129638135433197,0.17885200679302216,0.26494473218917847,-0.5319989323616028,0.1000378280878067,0.61602783203125,-0.06248902529478073,-0.1312985122203827,0.1698107272386551,-0.056834135204553604,-0.09590354561805725,0.37935537099838257,-0.11018740385770798,-0.057699721306562424,-0.3330651521682739,0.08342700451612473,-0.0922258198261261,0.18024511635303497,0.2318854182958603,-0.014176638796925545,-0.43575698137283325,-0.23362357914447784,0.11899449676275253,0.76658034324646,-0.7033769488334656,-0.13007402420043945,-0.11856939643621445,0.5487903356552124,0.27884942293167114,2.54870343208313,1.8101176023483276,-0.0253053717315197,-0.2803803086280823,-0.5819587707519531,-0.26973775029182434,0.17466267943382263,0.031228940933942795,-0.8974142074584961,0.05930440127849579,0.7968079447746277,-0.8389683365821838,0.6626717448234558,0.09371525049209595,0.31576818227767944,0.8715628981590271,1.3699002265930176,1.5997434854507446,-0.022863047197461128,-0.8439065217971802,-0.9014616012573242,0.3040609657764435,-1.051430583000183,-1.5929439067840576,1.382163405418396,-0.9745258092880249,-0.5636181235313416,-1.0581251382827759,0.13486160337924957,-1.1326922178268433,1.398375391960144,0.6180269718170166,-2.0164475440979004,0.7979562282562256,-1.6541385650634766,0.11789437383413315,0.6547420620918274,0.16812416911125183,-0.836984395980835,-1.8728045225143433,-0.3425532281398773,0.4675051271915436,-0.09194374084472656,0.6284275650978088,-0.6868187785148621,-0.25465407967567444,-0.6621607542037964,0.5530707836151123,-0.5290997624397278,-0.1492668092250824,0.7514631152153015,-0.2667965590953827,-0.36233702301979065,0.3964954912662506,0.2079259157180786,-0.5099130272865295,0.18533013761043549,-0.5779439210891724,0.04768887534737587,-0.33037227392196655,0.5337492227554321,0.7523141503334045,0.4791894555091858,-0.7675421833992004,0.1698600798845291,0.41327807307243347,-0.06980984658002853,0.404235303401947,0.07035035640001297,0.37389063835144043,-0.10835892707109451,0.38048064708709717,-0.7862070798873901,-0.7301443219184875,-0.2661634087562561,0.8665904402732849,0.36365652084350586,-0.20875439047813416,-0.17689009010791779,-0.4532427489757538,0.30374130606651306,-0.03678387030959129,0.41891124844551086,-0.06767617166042328,-1.1278924942016602,-0.10177087783813477,-0.5708167552947998,-0.09440737217664719,-0.41309845447540283,1.0473910570144653,0.6607756614685059,0.38601866364479065,0.09824713319540024,0.5445838570594788,-0.41445422172546387,-0.7024955749511719,-0.32551276683807373,0.5081592202186584,0.18706192076206207,-0.3118661940097809,-0.8557636737823486,-0.9302031397819519,-0.16375187039375305,0.4010034501552582,0.4856739342212677,-0.4919957220554352,0.4518737494945526,-0.3725869953632355,0.30240267515182495,-0.13809026777744293,-0.13176611065864563,1.381502389907837,0.05351363867521286,0.7519569993019104,-0.2996431589126587,-0.4544583559036255,-1.3714338541030884,-1.0105853080749512,1.0333904027938843,-0.6536666750907898,-0.24942947924137115,0.2929190397262573,0.3524616062641144,1.3508638143539429,-0.24160434305667877,-0.09199044853448868,-0.667748749256134,0.6516873240470886,-0.19189348816871643,0.2131609469652176,0.4076785147190094,0.043436482548713684,-0.4370761513710022,-0.8518217206001282,0.6217660307884216,-0.47759774327278137,-0.05859115347266197,0.8310481905937195,-0.5322415232658386,0.13362763822078705,0.2805860936641693,0.3301158845424652,0.28901249170303345,-0.29401853680610657,-0.18138174712657928,0.4190470576286316,-0.2779898941516876,-0.14921794831752777,-0.1997288167476654,0.7175639271736145,-0.41242754459381104,0.4136089086532593,0.6512389183044434,0.13899949193000793,-0.27477017045021057,0.41516274213790894,-0.6185823082923889,0.0060671730898320675,-0.20017743110656738,0.5129915475845337,0.019315579906105995,-0.20594501495361328,0.3301791846752167,0.14562882483005524,0.2904270887374878,0.21643748879432678,-0.1455152928829193,-0.3319436013698578,-0.12061919271945953,-0.2111157774925232,0.04279571399092674,-0.16930930316448212,0.26944586634635925,-0.02484739199280739,0.6852580308914185,0.0027971803210675716,0.045336365699768066,0.2622233033180237,-0.022594893351197243,0.7976928949356079,0.0645998865365982,0.02462659403681755,0.06098533421754837,0.22871696949005127,0.11224602162837982,0.016120819374918938,-0.22178524732589722,0.14286021888256073,-0.2839394211769104,0.21910659968852997,0.06519109755754471,-0.04936571046710014,-0.38971322774887085,0.14029832184314728,-0.026402847841382027,-0.052821557968854904,0.18748609721660614,-0.2107207477092743,0.06373356282711029,0.31258153915405273,-0.10571711510419846,-0.11263968795537949,-0.20786143839359283,0.030737312510609627,0.12040020525455475,0.02070753276348114,0.014600787311792374,-0.042200542986392975,-0.14227823913097382,-0.03464445471763611,0.21700508892536163,0.4735507071018219,-0.7263848185539246,-0.2423904687166214,-0.6254854798316956,-0.027707703411579132,0.11396518349647522,-0.3833850622177124,0.419988751411438,0.2600843608379364,-0.9152902960777283,0.30584007501602173,0.08065992593765259,-0.09587068855762482,-0.21050375699996948,-0.8185133934020996,-0.0306183323264122,-0.8043624758720398,-0.015108112245798111,0.4204464256763458,0.937577486038208,-0.6544966101646423,0.6528235673904419,0.6113336086273193,0.48350217938423157,-0.38284093141555786,0.1848522126674652,0.7990729808807373,-0.5090550184249878,-0.08935441076755524,-0.31515127420425415,-0.8474028706550598,-0.5647097826004028,0.4630836546421051,0.5803838968276978,-0.43058106303215027,-0.9918997287750244,-0.05058437958359718,1.324994683265686,0.32602888345718384,-0.011824818328022957,0.4765227138996124,-0.28559622168540955,0.8053649067878723,-0.4256508946418762,0.0038441314827650785,-0.5468733310699463,0.365884393453598,-0.49263903498649597,-0.069379523396492,0.6344100832939148,-0.2977050542831421,-0.30529892444610596,0.5556655526161194,0.2676713764667511,-0.45738089084625244,0.2528513967990875,-0.6280433535575867,0.13920824229717255,-0.3669886291027069,0.4953235685825348,0.7012519836425781,0.5490821599960327,-0.8962188959121704,0.08880580961704254,0.3145189881324768,-0.08522476255893707,0.38795536756515503,0.07701458036899567,0.3128855228424072,-0.011646952480077744,0.3720691502094269,-0.7096279859542847,-1.0051995515823364,-0.3920804262161255,0.8347568511962891,0.3264588713645935,-0.026477759703993797,-0.16000798344612122,-0.5454193353652954,0.3377460539340973,0.015486855991184711,0.5491282343864441,0.03151988610625267,0.390823096036911,-0.17678864300251007,0.05457273870706558,-0.18554536998271942,0.07356180250644684,-0.05027414858341217,-0.09016335010528564,0.18330353498458862,-0.34226611256599426,-0.1823950558900833,0.21908314526081085,-0.3333902060985565,0.13854782283306122,0.03643757104873657,-0.37825873494148254,-0.19172801077365875,-0.1559411585330963,0.11862766742706299,-0.02162124775350094,-0.3555443584918976,0.2140299677848816,0.05411054939031601,-0.14213837683200836,0.0036370414309203625,0.38724035024642944,-0.14306923747062683,-0.023974206298589706,-0.17422610521316528,-0.031420815736055374,0.004638158716261387,0.35940536856651306,0.06556711345911026,0.45303788781166077,-0.49809718132019043,-0.08090145885944366,0.06870796531438828,-0.283041775226593,0.13428817689418793,-0.19795763492584229,-0.18654169142246246,-0.14210201799869537,0.3964642882347107,-0.10792965441942215,0.67292720079422,-0.8805211782455444,-0.33345749974250793,-0.3878418505191803,0.6541028022766113,-0.43940025568008423,-0.3803789019584656,0.8207724690437317,-0.27327948808670044,-0.5963987708091736,0.34018927812576294,-0.17793884873390198,-0.23567283153533936,-0.07334274053573608,-0.6363205909729004,-0.39129728078842163,-0.7204412817955017,0.08680132776498795,0.5888466238975525,0.7599825263023376,-0.8976697325706482,0.6336120963096619,0.28874751925468445,0.03813984617590904,0.02807004190981388,-0.0700308158993721,0.8721887469291687,-0.0173601433634758,0.4099001884460449,-0.9068000912666321,-0.647371768951416,-0.8855977654457092,0.7311913967132568,0.6220458149909973,-0.5244519710540771,-0.33141830563545227,-0.21592667698860168,0.5978825092315674,0.2331017702817917,-0.02928621880710125,-0.1333208978176117,-0.23579998314380646,1.5207496881484985,-1.4348225593566895,-0.521003782749176,-0.06970923393964767,1.1702711582183838,-0.07094043493270874,0.06579819321632385,0.6945449709892273,-0.36521950364112854,-0.7904007434844971,-0.5786807537078857,-0.7868749499320984,0.6840541958808899,-0.10656943172216415,-0.48084884881973267,-1.4430218935012817,-0.9635046720504761,-0.21973854303359985,0.991901159286499,0.5952053666114807,-1.455283522605896,0.8232580423355103,-0.3258312940597534,-0.5473524928092957,0.7932390570640564,-0.493818461894989,1.6307339668273926,-0.2713780403137207,1.1678215265274048,-0.5516311526298523,-0.5207853317260742,0.39148348569869995,0.22891861200332642,1.4302189350128174,-0.0444423146545887,-0.24854032695293427,0.26441827416419983,0.6768712401390076,1.4215620756149292,-0.29164257645606995,0.8343787789344788,0.22188469767570496,-0.280923068523407,0.3583299517631531,0.2694386839866638,1.1274276971817017,-0.37265822291374207,0.4859914779663086,0.17993824183940887,-0.32944008708000183,-0.47576501965522766,0.6270721554756165,0.8258694410324097,0.055195778608322144,0.47771844267845154,-0.13074228167533875,0.26830554008483887,0.4404989778995514,0.28847095370292664,-0.2865242660045624,-0.25529223680496216,-0.34889665246009827,0.4734331965446472,-0.26853156089782715,-0.05389133095741272,-0.18620386719703674,0.12182406336069107,0.7686968445777893,-0.4558678865432739,0.057792630046606064,-0.09148254990577698,0.6251255869865417,0.14758239686489105,-0.0056783114559948444,-0.5127604603767395,-0.6336368918418884,0.13211339712142944,0.24485090374946594,-2.4106736183166504,-0.3633117079734802,-0.2939218580722809,-0.3452949523925781,1.0956039428710938,-1.0667208433151245,0.15969549119472504,0.6843894124031067,-0.20102280378341675,0.7415440082550049,0.7224752902984619,-1.0436362028121948,-1.9773255586624146,0.8186985850334167,-0.8641353249549866,-0.13276886940002441,-0.5602772235870361,-0.8746519088745117,0.19266439974308014,0.489185094833374,-0.32420089840888977,0.35917845368385315,-0.3829939067363739,-0.17257387936115265,0.7237486839294434,0.2881644070148468,-0.6798191666603088,0.17616026103496552,0.5804343223571777,-1.5107423067092896,0.23552283644676208,-0.2824299931526184,-0.335366815328598,0.12192443013191223,0.2164839208126068,0.3969910740852356,-0.40516552329063416,0.7255306839942932,0.3598611056804657,0.10956525057554245,-0.06349770724773407,-0.08141707628965378,0.10749968886375427,0.8558163046836853,0.022405708208680153,-0.12125807255506516,-1.0501731634140015,-0.548032283782959,0.19520047307014465,0.36432620882987976,0.5787044167518616,-1.6679121255874634,-0.7113381624221802,1.1623872518539429,1.3454545736312866,0.3687888979911804,1.9383400678634644,-0.8095626831054688,1.7325055599212646,0.1524166464805603,-0.6264694333076477,1.755154013633728,-0.845614492893219,-0.6876408457756042,-0.6803205609321594,1.491847038269043,0.3327264189720154,0.8321480751037598,-1.2102909088134766,1.1035484075546265,0.15293824672698975,0.28804925084114075,-0.5894753336906433,0.20862774550914764,0.19080565869808197,0.965773344039917,-0.8805487155914307,-1.5413929224014282,-0.8245609998703003,-1.5675010681152344,1.4411163330078125,-0.0995791032910347,0.49629101157188416,0.5374851226806641,-1.1444156169891357,1.1436537504196167,-0.41801437735557556,1.4263461828231812,-0.3870809078216553,0.4069424867630005,0.1946437656879425,0.1794973611831665,0.6113549470901489,0.5622897148132324,-0.282137006521225,0.4740713834762573,0.41360971331596375,-0.5872943997383118,-0.29009899497032166,0.46226924657821655,0.005915739573538303,-0.046192288398742676,-0.13627909123897552,-0.12478309124708176,0.14896273612976074,0.3899824321269989,0.43176159262657166,-0.19463828206062317,-0.6354610919952393,-0.2378000020980835,0.15113544464111328,-0.4077453017234802,-0.019740398973226547,0.24497365951538086,-0.04970158264040947,0.3506011366844177,-0.4037654399871826,0.02270103245973587,-0.0675702914595604,0.487800270318985,0.21374772489070892,0.1278599500656128,-0.6926329135894775,-0.3578731119632721,0.2897777855396271,0.12666067481040955,-0.009584798477590084,-0.41112709045410156,-0.11382992565631866,0.004475859925150871,-0.5962830781936646,0.8747071623802185,-0.1124158501625061,0.11550314724445343,-0.19059236347675323,0.20868079364299774,-0.20087940990924835,0.1515919417142868,0.4623774290084839,-0.9705758094787598,0.237425297498703,0.4375530779361725,-0.8519378900527954,0.6167296171188354,0.22367963194847107,1.1708263158798218,0.06071127578616142,-0.3217040002346039,0.45138561725616455,0.2654629647731781,-0.9150521159172058,-0.0745539665222168,0.5737205743789673,-0.24340741336345673,-0.04675621539354324,0.06250281631946564,-0.831140398979187,0.005425979383289814,-0.6284984946250916,0.8210389018058777,-1.189597725868225,0.6810012459754944,0.2725527286529541,0.11054680496454239,-0.6899212598800659,0.005815526936203241,0.6392835378646851,-0.0493180975317955,0.1813811957836151,-0.7153980731964111,-0.2866593301296234,0.11359306424856186,-0.9134315848350525,0.7135725617408752,1.5009069442749023,0.031834155321121216,0.0907922089099884,-0.42546534538269043,-0.3021397888660431,0.4538356363773346,0.6789970397949219,-0.24584385752677917,0.4673476219177246,-0.6252685785293579,-0.6419489979743958,-0.019036835059523582,0.1918916553258896,0.811779797077179,-0.8387426137924194,0.1741878241300583,-0.16560208797454834,-0.23583388328552246,-0.19108758866786957,0.8424378037452698,-0.026876430958509445,0.46642082929611206,-0.12242075800895691,-0.17247207462787628,-0.8024770617485046,0.12307330965995789,0.028775407001376152,1.1163133382797241,-0.7356247901916504,0.4646948277950287,-0.8075888156890869,-0.6478430032730103,0.1427275389432907,0.6655541062355042,0.2913607954978943,-1.1372038125991821,0.28260257840156555,0.8863048553466797,0.4727163016796112,-0.1876894235610962,-0.19306810200214386,-0.07694168388843536,0.2565558850765228,-0.6178029775619507,-0.09301654994487762,-0.3301087021827698,-0.10210683196783066,-0.02922312170267105,0.22318683564662933,0.11096391826868057,0.22610768675804138,-0.6069169044494629,0.5111356973648071,-0.19319650530815125,-0.02155311405658722,-0.0982881635427475,-0.4724244475364685,-0.32785922288894653,-0.5692688226699829,-0.08428939431905746,0.043150682002305984,0.46048811078071594,-0.5869079828262329,0.6225303411483765,0.3389323651790619,0.484825074672699,-0.4950343668460846,0.11463228613138199,0.5262656807899475,-0.3344261944293976,-0.3436450958251953,-0.21351099014282227,-0.3539264500141144,-0.496901273727417,0.13091231882572174,0.5131027102470398,-0.5695164203643799,-0.37670284509658813,0.06789441406726837,0.4208199083805084,0.13090986013412476,-0.07474437355995178,0.14171938598155975,0.03259304165840149,0.38083264231681824,-0.588987410068512,-0.046535950154066086,-0.4123460054397583,-0.13615557551383972,-0.3327488601207733,-0.22740565240383148,0.27463340759277344,-0.005843545775860548,-0.14477650821208954,0.12620015442371368,-0.1816679984331131,-0.2977643609046936,-0.03140300139784813,-0.5983003377914429,-0.36509376764297485,-0.22389043867588043,0.26774802803993225,0.2410787045955658,0.6375594735145569,-0.4095251262187958,0.1498209834098816,0.012948773801326752,0.34758126735687256,-0.07657121866941452,-0.07844139635562897,0.5185254216194153,-0.2576228380203247,0.14508552849292755,-0.4539755880832672,-0.4034945070743561,-0.33801743388175964,0.4619278311729431,0.5577595829963684,-0.3847840428352356,0.3067688047885895,-0.2791835367679596,0.30025458335876465,0.4124676287174225,0.2561328709125519,-1.188075304031372,0.6341196894645691,-0.05160507932305336,0.0743212103843689,0.696475625038147,0.684097409248352,-0.49471986293792725,0.9912921786308289,0.365145206451416,-0.24557271599769592,0.6323205232620239,0.31357908248901367,0.16123108565807343,-0.38031280040740967,-0.3653920888900757,-0.0822889655828476,0.3813816010951996,0.8358689546585083,0.25925272703170776,0.13765564560890198,-0.48118141293525696,-0.46973171830177307,0.2445521056652069,-0.18139655888080597,0.7005530595779419,0.2948032319545746,-0.5836105942726135,